abweichung 0.20055 0.004642 -0.18626 0.21179 0.39046 0.21444 0.24263 0.34782 0.066078 0.05874 0.12643 -0.0018274 -0.3071 0.20824 -0.13911 -0.069436 -0.30589 -0.026261 0.26339 -0.00010664 0.48539 0.14398 0.28823 0.15387 0.17239 -0.52691 -0.10189 0.46692 -0.28272 0.019072 0.095534 0.17917 0.22445 -0.046249 0.42555 0.23164 -0.31465 -0.22267 -0.10231 -0.059046 -0.092196 -0.19978 -0.017057 -0.1309 0.10914 0.07949 0.063091 0.041281 -0.11531 -0.46686 0.032069 -0.26746 0.069081 0.0046949 -0.2646 0.018506 -0.11858 -0.18519 0.20053 0.10622 -0.26852 0.17357 0.42381 0.35069 -0.23925 0.14236 -0.16502 0.60262 0.12758 0.042422 0.08383 0.43809 0.17001 -0.13482 -0.026938 0.091429 0.51241 0.1388 -0.25323 -0.25702 0.21178 -0.34101 -0.021113 -0.23836 -0.011175 -0.42991 0.17827 0.16526 -0.12657 -0.047713 0.097988 0.41417 0.051361 -0.05891 -0.19254 0.10137 -0.42772 0.413 -0.049449 0.22354 -0.13691 -0.12865 -0.1124 -0.19379 -0.10883 0.20785 -0.068749 0.16152 -0.30033 0.11193 -0.17112 0.25034 -0.28446 0.1682 0.0125 -0.356 0.48259 0.21137 -0.28638 0.33353 -0.1224 0.5559 -0.19129 0.066404 -0.12331 0.14857 -0.2932 0.85728 0.30557 0.23671 0.28632 -0.59727 -0.2271 0.61899 -0.053988 0.60633 0.050586 0.34818 0.23851 0.11632 -0.61242 0.077396 -0.69522 0.21326 -0.3994 0.21827 0.29945 -0.21328 -0.49792 -0.042358 0.56011 -0.20007 -0.32608 -0.0036313 -0.13689 0.001304 -0.225 -0.077482 -0.15879 0.14324 0.045054 -0.11519 -0.36028 0.19362 -0.32258 0.19409 -0.26243 -0.20489 -0.18232 0.18516 0.21116 0.13706 0.059671 -0.030122 -0.12619 -0.28121 -0.074954 -0.15137 0.011362 0.47317 0.051893 0.23366 -0.19271 -0.065972 -0.14068 -0.085213 -0.13839 -0.2841 -0.35717 -0.15044 0.2448 0.019648 -0.25198 -0.0029942 0.14466 -0.3583 -0.3224 0.12051 -0.057802 0.039415 -0.37365 0.1931 0.096618 -0.33407 -0.27984 0.16348 0.00099463 -0.31093 -0.062715 0.28368 0.44157 0.53054 0.34389 -0.48113 -0.61309 0.039504 -0.039991 -0.13226 0.34243 0.33234 0.17353 -0.18849 0.17199 0.073858 -0.31089 0.11583 0.047475 -0.16424 -0.10905 0.080131 0.077749 0.4656 -0.2998 0.021903 0.20274 -0.15036 -0.038159 0.027917 0.018965 -0.1482 -0.14407 -0.079353 -0.29639 -0.017124 -0.39273 -0.18183 -0.21205 0.12798 -0.084992 0.15166 -0.19332 0.16666 -0.28264 0.33094 0.088139 -0.091676 0.28699 -0.36539 -0.068241 0.45929 -0.088579 -0.38284 -0.49669 -0.28156 0.16252 -0.31679 0.10955 0.03379 -0.33584 -0.237 0.070735 0.34742 0.21946 0.10793 -0.0038616 -0.049505 0.55724 -0.069893 -0.083246 0.081358 0.40695 0.25594 -0.34783 -0.41285 0.5112 -0.61235 0.084273 -0.32256 0.3673 -0.079572 0.34119 0.50466 -0.1385 -0.18656 0.090323 0.17605 -0.058016 -0.14468 0.28968 -0.11033 
sortieren -0.18782 0.64352 -0.57191 -0.10251 0.25357 -0.33026 0.37708 0.34384 -0.27947 0.036899 0.34439 0.17339 0.014442 -0.047085 -0.80487 0.096587 0.02824 0.1675 0.086924 0.32869 -0.14736 0.4714 -0.10587 0.27998 -0.43637 -0.30663 0.42346 0.59811 -0.49039 -0.39603 0.6817 0.40442 0.22781 -0.1285 0.19584 0.089338 -0.12259 -0.18835 -0.073864 -0.22784 -0.14527 0.23121 -0.12053 0.20413 -0.22714 -0.32487 0.090607 -0.15761 -0.46641 0.12084 -0.13833 0.17125 -0.42038 0.72139 0.21221 -0.67899 0.22142 0.26648 0.039387 0.49624 0.13027 -0.082535 -0.13535 0.20836 -0.089161 -0.26955 0.11823 -0.19474 -0.033251 0.094741 0.217 0.13452 0.020738 -0.063963 -0.23243 0.1036 0.51394 0.74451 -0.34882 -0.086351 0.16146 -0.14372 0.033695 0.015526 0.5548 -0.50101 -0.0012242 0.07405 -0.54912 0.028069 0.44621 -0.13571 -0.10019 0.35758 -0.0083775 -0.064939 -0.34302 0.33686 -0.32568 -0.096794 -0.39631 0.32681 -0.012561 0.0081996 -0.15936 0.2835 -0.2621 0.18848 0.29231 -0.24625 0.1235 0.32767 0.13917 -0.23155 -0.015607 0.23306 0.05962 -0.11727 -0.48855 -0.13919 -0.32581 0.18896 0.0028623 0.31969 -0.002561 0.0064827 -0.0875 0.1275 -0.039256 -0.063769 -0.10576 -0.27746 -0.39153 0.16915 0.27137 -0.23488 -0.24781 -0.058607 0.15234 -0.46097 -0.55604 0.22861 -0.31172 0.3858 -0.18461 -0.078804 0.52321 0.24729 -0.28354 0.1655 0.57462 -0.2636 -0.20328 -0.039908 -0.56855 0.055128 0.11739 0.0043792 0.099732 0.0035455 -0.21665 -0.12367 0.15881 -0.19284 0.0043267 0.36368 -0.097066 0.14181 -0.12163 0.44396 -0.44006 0.40574 0.23677 -0.088518 0.32766 -0.11212 -0.013651 -0.32181 -0.29016 0.21127 0.17176 0.086385 -0.11352 -0.48095 -0.13315 0.52874 -0.30944 -0.26932 -0.60052 0.07287 0.13213 0.051236 0.32515 -0.077673 -0.31397 0.17407 -0.029282 0.14376 -0.14645 -0.34935 -0.4904 -0.097029 -0.021631 0.17154 -0.24422 0.019824 -0.13171 -0.16234 -0.11489 0.050662 0.13785 0.14167 -0.010381 -0.12143 -0.076294 0.31408 0.1163 -0.22444 -0.0027261 0.32995 -0.015567 0.035455 0.66729 -0.49026 0.14027 0.35721 -0.22044 0.14546 -0.13397 0.41539 -0.34021 -0.21898 -0.73672 -0.19147 0.022765 -0.30212 -0.21308 -0.40061 0.14006 -0.12775 0.46838 0.12895 -0.041838 0.34858 -0.016138 -0.07526 0.00043362 -0.13728 -0.39187 0.15178 0.098356 0.28378 -0.145 -0.30879 0.038634 0.27722 0.44529 0.02145 0.083406 -0.041808 0.48225 -0.065187 0.32904 0.12696 0.2766 -0.016696 -0.0093807 -0.16935 -0.10588 0.022021 0.17277 0.10499 0.19261 0.073021 -0.47929 0.11263 0.67396 0.009851 0.15231 -0.040389 -0.32708 -0.38724 0.11319 0.030317 -0.25086 0.23805 0.024199 -0.5483 -0.29502 0.37411 0.2766 0.36665 0.030408 0.55995 -0.50289 0.2083 0.0092401 -0.054609 0.042754 0.2135 
agieren -0.22295 -0.09703 -0.37928 -0.51718 -0.36796 -0.1333 -0.23179 0.12601 0.24609 -0.081039 0.11979 -0.12238 0.23855 -0.083936 -0.24554 -0.2729 -0.40673 0.32931 -0.016357 -0.022921 0.19664 0.044132 0.1016 0.087454 -0.38666 -0.36549 -0.28464 0.14712 -0.43096 -0.1302 0.19458 -0.084051 0.005382 -0.063539 -0.047492 0.17753 0.25672 0.26232 -0.11558 0.14088 0.079794 -0.025193 0.18708 0.16198 0.18131 0.12918 0.30066 -0.48434 -0.30382 -0.027386 -0.031498 0.35194 -0.33257 0.29981 0.060524 -0.36275 0.056616 -0.0073306 -0.00017258 0.34998 0.037968 0.075353 0.27582 -0.22113 0.12458 -0.26883 0.11549 0.11624 0.065364 -0.0087336 -0.33181 -0.20714 -0.56317 0.063165 -0.19075 0.10704 0.14896 0.0071555 -0.31161 -0.13514 -0.19845 -0.051847 0.25875 0.12366 0.084566 -0.0011484 -0.10702 0.11291 -0.10256 -0.090312 0.20204 -0.25231 0.31151 0.18447 -0.26636 -0.40072 -0.094415 -0.015019 0.12204 0.045165 -0.30246 0.027694 0.10051 -0.23957 -0.071566 -0.54329 -0.20102 0.2283 0.011284 -0.073307 0.002373 0.12122 -0.18211 -0.24637 0.24411 0.0071908 -0.23565 0.045763 0.014466 -0.12766 -0.46241 -0.56639 0.064746 0.12842 0.042196 0.23648 -0.3772 0.31203 0.11928 -0.16662 0.24399 -0.12834 0.026351 -0.016111 0.056481 0.33433 -0.019138 0.041404 0.32626 -0.49045 -0.0082892 0.55364 -0.26583 0.38181 -0.43508 0.47267 0.20656 0.13566 0.0030023 0.22568 0.16901 -0.0058274 -0.090765 0.55855 -0.2526 0.26834 -0.1095 0.15057 -0.021628 -0.13437 -0.67535 0.42984 0.17037 0.11034 -0.35246 0.31779 0.042916 0.01112 0.042516 -0.31776 -0.31909 -0.25331 0.41591 0.13749 0.32124 -0.51269 -0.059245 -0.74785 0.069744 0.45814 -0.066141 0.075886 0.21881 0.056395 -0.074168 0.1924 0.22293 -0.29822 -0.33344 -0.0046327 0.67931 -0.44793 -0.22536 -0.12218 -0.23279 0.14702 -0.12587 0.26643 -0.074449 0.25295 0.004284 0.0060091 0.14167 -0.05881 0.28884 -0.035214 -0.27145 -0.11831 0.10691 0.029872 0.49831 -0.45435 -0.0042316 -0.39737 -0.25343 0.2864 -0.16888 -0.15745 -0.013078 0.44243 0.011387 -0.1348 -0.11752 0.16716 -0.12937 0.12168 0.037411 0.079697 -0.037829 0.18912 -0.29445 -0.35528 -0.20028 -0.035038 -0.30095 -0.25399 0.0025627 -0.23136 -0.19634 -0.13085 -0.21426 -0.094272 0.28231 0.1277 -0.16551 -0.047114 0.13845 -0.065525 -0.20949 0.29044 -0.26397 0.083002 -0.20352 -0.044658 0.080379 0.062386 0.1012 -0.60836 -0.24436 0.26341 -0.28641 -0.19897 0.15131 0.13319 -0.10602 -0.091607 -0.03428 -0.25082 -0.069005 0.15543 0.51804 0.12489 0.44844 0.1087 -0.092316 0.16004 0.10735 -0.057929 -0.1384 0.34164 0.011814 0.022869 0.12377 -0.29604 -0.081601 -0.051342 -0.24512 -0.058419 -0.0073604 -0.13785 -0.15767 0.099534 0.27183 0.058015 -0.5074 -0.12243 -0.091003 0.15322 -0.0029224 0.02658 
mobil 0.47143 -0.24403 -0.23807 -0.041495 -0.32742 0.33744 0.027375 -0.22904 0.010248 -0.10988 0.24161 -0.68816 0.0079805 -0.39194 0.24046 0.12181 0.078894 -0.046229 0.12493 0.30751 -0.20801 -0.058511 0.055089 0.17169 0.033198 0.16199 0.14255 0.4144 0.58104 -0.12663 -0.30791 0.048522 0.05941 0.039118 0.19961 -0.24764 0.19399 0.33109 0.26663 0.19373 0.016239 0.30753 -0.56388 0.38721 -0.3053 -0.088051 0.26004 0.31777 0.50463 0.078031 0.032775 0.13302 -0.4174 0.29961 -0.20903 -0.21286 -0.14406 -0.077142 -0.5141 0.12101 -0.32899 -0.021771 0.12153 0.20089 0.39563 -0.24369 -0.021176 -0.8608 -0.23501 0.26583 -0.15972 -0.38952 -0.17111 0.54477 -0.30448 -0.13721 -0.0070548 -0.0026277 0.57085 0.094875 -0.27872 0.020706 0.31254 -0.088805 -0.3339 -0.1532 0.10508 0.27017 -0.39472 -0.12696 -0.050728 -0.35257 0.020027 0.31544 0.47753 0.0182 -0.16629 0.29385 0.38794 0.03783 -0.2877 0.057166 0.19922 -0.045467 0.2185 0.13276 -0.16901 -0.72491 0.21293 -0.020958 0.30962 -0.36322 0.071639 -0.1104 0.43045 -0.18319 -0.27098 0.0060382 0.5027 -0.01423 -0.070327 -0.27514 0.43003 -0.031118 -0.28358 -0.41738 0.12578 0.11239 0.40356 0.060337 0.31039 0.1502 0.23359 0.068803 0.27213 0.19849 -0.02127 0.21075 0.36825 -0.37284 0.037297 0.14123 0.087083 0.38313 -0.47604 -0.21646 0.90412 0.75172 0.36681 -0.13485 0.038499 -0.018286 -0.013308 0.499 -0.48899 -0.36376 0.13164 0.63274 0.34826 0.13033 -0.068764 0.16968 -0.010276 0.17447 -0.39843 -0.0079085 -0.091488 0.15614 0.35671 0.27529 0.15931 -0.53603 0.51368 0.05303 0.15111 0.062579 -0.12771 -0.17468 0.54555 0.19906 -0.43862 0.22923 -0.038607 -0.15723 0.032565 0.1941 0.0083553 0.38572 -0.72822 -0.14104 0.22731 -0.31665 0.47949 0.34609 -0.049279 -0.1529 -0.17178 0.5636 -0.033743 0.28165 -0.16061 0.13175 0.0080338 -0.13601 0.48407 0.27618 -0.38675 -0.23237 0.009958 0.32621 0.85435 0.00031033 0.30965 -0.21853 -0.67415 0.33006 -0.32267 0.22615 -0.34795 0.43429 0.10167 0.23866 -0.2194 0.48841 0.015029 -0.061072 -0.11826 -0.087833 -0.057041 0.26062 0.022231 -0.35609 0.45768 -0.43984 0.095814 -0.14287 -0.36254 -0.32159 -0.086699 -0.15035 0.092166 0.50074 -0.2748 0.58108 0.40828 -0.57107 0.0018818 0.19466 -0.42161 0.26201 -0.59133 0.53511 -0.38856 -0.38057 0.17 -0.010631 0.18549 -0.18427 -0.46755 -0.04952 -0.010904 -0.2867 -0.025034 -0.17196 -0.17176 0.26942 0.10697 -0.20569 0.12272 0.17935 -0.33929 -0.28324 1.0503 0.17773 0.40864 -0.31154 0.058382 -0.066749 0.21212 0.35499 -0.046285 0.21548 0.15536 0.28195 0.6742 0.34058 -0.27852 -0.40458 0.015806 0.082784 -0.45475 0.16346 0.15797 0.64144 -0.2564 0.044736 -0.20541 -0.016927 -0.089626 0.087883 
aktuell -0.043712 -0.046222 -0.19449 -0.025861 0.13869 0.095555 -0.1455 0.25038 -0.14801 0.22906 -0.17301 -0.42036 0.011015 -0.14729 -0.10977 0.072752 -0.051379 -0.17269 0.054192 0.063086 -0.3389 -0.0020355 0.012327 -0.021509 0.077611 -0.082787 -0.035714 0.24654 -0.047078 -0.24589 0.21978 -0.065509 -0.071572 -0.25361 0.25828 0.051738 0.58505 0.086374 -0.20869 0.46876 -0.3048 0.17857 -0.083723 -0.0063602 -0.085121 0.10531 0.19489 -0.1057 -0.16928 0.071112 0.049065 -0.033797 -0.2221 0.18231 -0.21849 -0.24782 0.092316 0.0872 -0.13624 0.041057 -0.25797 -0.18318 0.14122 0.005144 -0.021479 -0.56017 0.081304 0.14491 -0.070012 0.036676 -0.06067 -0.28454 0.014148 -0.14716 0.015562 0.30941 0.0051882 0.060232 -0.0088518 -0.091547 -0.019626 0.39856 0.19047 -0.028976 0.12923 -0.19452 0.20967 0.076095 -0.14797 -0.15087 -0.028636 0.063138 -0.21937 -0.0022326 -0.083851 0.081682 0.17512 0.34854 0.10116 -0.061498 0.35311 0.032433 0.21334 -0.1736 0.37177 0.079364 0.39568 -0.030421 0.2944 -0.20001 -0.10126 0.064357 0.12584 -0.10824 -0.20733 0.011058 -0.29018 0.074438 0.045838 0.07585 -0.23934 -0.15834 0.15431 0.46952 0.11479 0.039959 -0.060932 -0.16192 0.25673 0.12971 0.06725 -0.29452 0.1043 0.32087 0.24817 0.14862 0.10635 -0.038423 0.25234 -0.092013 -0.10217 0.088396 -0.22685 0.49229 -0.10311 0.11414 0.1185 0.053747 -0.009845 0.091808 0.20972 -0.21475 -0.3122 0.2625 -0.2049 0.016452 -0.1574 0.33625 0.39095 0.2544 -0.2122 -0.035407 -0.41136 0.029059 -0.1977 -0.056569 -0.14013 -0.11638 -0.29857 0.54444 -0.10997 -0.092191 0.042686 -0.14078 -0.27592 -0.047631 -0.17203 -0.048385 0.017607 0.074816 -0.17259 0.10349 -0.12478 -0.098515 -0.10798 0.30528 -0.14383 -0.018254 -0.37015 0.30518 0.03452 -0.40889 0.49179 0.39458 -0.081283 0.12441 0.26642 -0.15675 -0.0056275 -0.10667 0.15393 0.04291 0.23207 -0.067387 -0.14381 -0.26912 -0.30266 -0.13918 -0.11203 -0.11345 0.022781 -0.15226 0.078732 0.20652 -0.37826 -0.033009 -0.50367 -0.05363 0.23801 0.14719 0.29119 0.085962 -0.43312 0.42667 -0.34355 0.013402 0.049919 -0.18825 -0.067173 -0.19948 0.043148 0.014598 0.21021 0.069532 -0.005378 -0.29644 -0.21805 -0.50472 0.18062 -0.12152 -0.0065206 0.20569 0.11682 -0.026486 -0.037076 -0.16547 -0.097796 -0.40475 -0.18718 0.055907 -0.26573 0.28447 -0.096654 -0.24119 0.4246 -0.28266 0.035643 -0.33988 -0.47173 0.093472 0.22256 -0.14427 0.36799 0.39902 0.17994 -0.43476 0.19047 -0.18488 0.1559 -0.062479 0.063852 0.43232 0.13796 -0.026941 0.16771 -0.015666 0.075071 0.058313 0.10453 0.095294 0.44796 -0.064341 0.10582 -0.017747 -0.12479 0.1789 -0.014816 -0.27293 0.046564 0.49991 0.0060271 0.0036692 -0.066167 0.20439 -0.10304 0.10039 -0.079377 0.19535 0.038677 0.41599 
portfolioanalyse 0.0033084 0.11069 0.20585 0.11017 0.19339 0.063078 -0.28056 0.31214 -0.40451 -0.36382 0.20523 -0.14583 -0.062624 -0.19628 -0.24879 0.20275 -0.61595 0.30524 0.21454 0.34035 0.013547 -0.11238 0.023789 0.10459 -0.5821 -0.21316 -0.072644 0.33297 -0.09497 -0.098492 0.23263 0.045202 0.033162 0.34349 0.68567 -0.083317 0.14236 -0.15075 -0.28041 0.15444 -0.34982 0.026809 0.16173 0.070774 0.024215 -0.13316 0.30171 -0.43419 -0.21051 -0.59796 -0.28363 0.036339 0.22462 0.28817 -0.17237 0.0348 -0.24473 -0.39425 0.09711 -0.35345 0.2324 -0.17943 0.36705 0.058381 -0.21714 -0.2073 0.21706 0.18753 0.20507 -0.21504 0.30068 -0.072349 0.18243 0.14801 -0.20552 0.062802 -0.26711 0.47248 0.064951 0.084306 0.10798 0.12218 -0.018851 -0.10652 0.24127 -0.18262 0.11128 -0.030364 0.072613 -0.054035 -0.17237 -0.26339 -0.074962 -0.10744 0.2114 0.031161 -0.1466 0.54608 0.048626 -0.042006 -0.029342 0.11229 0.054547 -0.068493 0.078141 0.039203 -0.33223 -0.12538 0.18453 -0.27862 -0.24402 0.024421 -0.019772 -0.52009 0.23458 -0.39796 -0.095959 0.14848 -0.11853 -0.10311 -0.10884 0.057265 0.03314 0.41462 0.2037 0.099222 0.46181 0.11627 0.26036 -0.16204 0.34861 -0.032788 -0.24633 0.30188 0.0014506 0.1386 0.19236 0.37134 -0.13684 -0.68771 -0.78878 -0.072738 -0.22856 0.49142 0.0018236 0.34358 0.082178 0.15677 -0.13608 0.0050829 0.12794 0.094007 -0.25611 0.31431 -0.27836 -0.28261 -0.50348 -0.052729 0.37803 0.11966 0.39725 0.064376 0.098993 0.28612 -0.11816 0.23464 0.13245 -0.28049 -0.24061 0.30206 -0.18452 0.13955 0.073555 -0.20434 -0.13061 -0.092952 0.19733 -0.13008 -0.24035 0.0092266 -0.058904 0.19149 -0.053514 0.045358 -0.22288 -0.0085581 0.13717 -0.97923 -0.39009 0.26654 0.33505 -0.018067 0.12409 -0.018946 -0.23675 -0.067027 -0.25694 0.032066 -0.34605 0.15603 0.13993 -0.19165 0.039152 -0.36861 -0.026064 -0.084717 -0.3208 -0.37844 0.45977 -0.22064 -0.034924 0.34584 0.19751 -0.13045 -1.0364 0.075175 -0.093727 -0.09608 -0.1547 0.099798 0.43508 0.11143 0.27069 0.26119 -0.24466 0.36202 0.10206 -0.055278 -0.058861 -0.14393 -0.066243 0.43657 -0.38279 -0.28842 -0.20561 -0.35768 -0.44466 -0.18735 -0.017651 -0.15582 0.049846 0.20723 -0.22689 -0.084075 -0.085257 0.25836 0.27436 -0.16948 -0.21206 -0.3764 -0.62595 0.11827 0.013002 0.13449 0.17701 -0.1783 0.16643 -0.076209 -0.028464 0.18977 -0.15055 -0.18958 0.17818 0.27624 -0.037654 -0.38998 -0.5982 -0.070922 -0.16812 0.21032 0.018634 0.41736 0.67244 -0.263 0.27856 -0.22508 0.28025 -0.06772 -0.23837 0.43573 -0.30126 0.042233 -0.057239 -0.06274 0.23585 0.12965 0.15715 -0.15406 -0.12147 -0.34503 0.30525 -0.059546 0.26843 0.095551 -0.22757 -0.042042 -0.30234 -0.00109 -0.076041 0.45122 
altersstufe -0.043532 0.19412 0.15832 -0.25649 0.071097 0.09339 -0.24403 0.086489 -0.18277 0.17776 0.14154 -0.044052 -0.074009 -0.34434 -0.61078 0.026724 0.084912 0.19856 0.46887 0.1409 -0.070791 0.38653 0.10654 -0.48993 0.088345 0.050523 -0.4715 0.34881 -0.071925 -0.12538 0.087441 0.22302 -0.80845 -0.58297 0.35088 0.024258 -0.14302 -0.10622 0.027354 0.35524 -0.31723 -0.38223 -0.45899 0.6952 0.039335 -0.36366 0.12831 -0.5525 0.13338 0.097577 -0.0031912 -0.3833 -0.043991 0.29238 0.26506 -0.093739 -0.12795 -0.15516 0.1546 -0.51317 0.27193 0.080095 0.41096 -0.40971 0.04404 -0.13922 0.035794 -0.3899 0.2325 -0.087978 0.32631 0.14499 0.58261 0.23014 0.15816 0.46771 0.086984 -0.062751 -0.27178 0.01846 0.35167 0.2628 0.17665 -0.019441 0.35481 0.044284 -0.40072 0.2899 -0.49107 -0.054264 0.28467 -0.41711 0.30725 -0.0085585 0.15718 -0.065548 -0.034284 0.052536 -0.34322 -0.40642 0.15152 -0.060226 -0.55549 -0.31106 -0.076952 0.045112 0.17449 0.13056 0.20225 -0.51441 -0.36813 -0.38068 0.1547 -0.094024 0.39007 0.12961 -0.0087468 0.75758 0.19861 -0.16531 0.14921 0.5556 0.4786 0.22349 0.1537 0.024995 -0.26343 -0.21903 0.076133 0.38001 0.43952 -0.42591 -0.084049 0.048227 0.57671 0.30809 -0.0045884 0.21929 0.52084 0.030114 -0.14643 0.061689 -0.71045 0.68138 -0.20901 -0.4892 0.5413 0.52815 -0.21049 -0.3927 0.16019 -0.096761 -0.47704 0.23911 -0.42326 -0.33346 -0.036428 0.51051 0.048651 0.028447 -0.24004 0.49999 -0.61316 0.10204 -0.55566 -0.1524 -0.63015 0.23645 -0.27273 0.29749 0.30458 -0.06071 0.1257 -0.02324 -0.28849 -0.086263 0.20154 -0.15991 0.0015982 0.53702 -0.1682 0.31265 -0.12763 -0.42319 -0.27516 0.2963 -0.25694 0.025293 -0.054596 0.37825 0.21977 0.071014 0.081189 0.4439 -0.21333 -0.13277 -0.65239 0.0051489 0.099188 -0.37916 0.23817 0.095084 -0.3289 0.43142 -0.15913 -0.077656 0.080481 0.12813 -0.19365 0.28407 -0.21496 0.01432 -0.10622 -0.34089 -0.83774 0.13198 -0.078562 0.21759 0.18602 0.038252 0.49866 0.17193 0.48709 -0.023578 -0.22823 0.23393 -0.1747 0.4483 0.014985 0.014313 -0.1053 0.043534 0.014821 0.33821 -0.39257 0.21289 0.14128 0.1397 -0.15225 -0.15707 -0.061324 -0.3021 -0.043247 -0.4816 -0.080568 0.79201 0.0090592 0.33737 0.033606 0.099146 0.3354 0.049314 -0.14471 0.17848 0.53 -0.19775 0.03655 0.30441 -0.33118 -0.13623 -0.13871 -0.29863 0.15319 0.072956 0.2283 -0.16611 -0.034958 0.092665 0.18081 -0.079527 0.2962 0.43885 0.46845 0.31834 0.14494 -0.31913 0.48323 -0.0077472 0.078954 0.083104 -0.33358 0.16792 0.027116 -0.28151 -0.041741 -0.22195 -0.43483 -0.53184 -0.096364 0.21929 -0.076338 -0.47057 0.38149 -0.090105 -0.075516 0.04084 -0.2769 -0.26319 0.050271 -0.043743 
mut -0.1478 0.19109 -0.22563 -0.48527 0.46921 0.042292 -0.44479 0.10567 -0.19899 0.044239 -0.19624 0.17128 0.2567 0.34971 -0.089423 0.10916 0.069657 0.3317 -0.27785 -0.23243 0.14476 0.019944 -0.082496 -0.22722 -0.25781 -0.38009 0.16519 0.36412 0.091874 -0.24355 0.15196 0.35978 0.21172 0.2785 -0.33235 -0.38745 -0.119 -0.24026 -0.3061 0.28583 0.28628 -0.26074 0.43306 0.3181 -0.083766 0.19252 -0.21574 -0.071289 -0.051863 -0.25379 0.17644 0.036868 0.066586 0.39397 0.34504 -0.068187 -0.14358 0.28865 -0.073656 -0.078117 0.086412 0.29109 0.39512 -0.059866 -0.13788 0.10724 0.25026 -0.14223 0.1854 0.066749 -0.33693 0.23352 -0.19068 0.15679 -0.3858 0.33605 0.33639 -0.31302 -0.35166 0.16443 -0.34427 0.13895 0.16673 -0.059289 0.02504 -0.27978 0.32143 0.31766 -0.51188 -0.46471 -0.16863 -0.0097807 -0.029137 0.017147 0.03432 -0.1731 0.84627 0.48316 -0.16687 0.019962 0.48412 0.29615 -0.14141 0.30873 -0.40441 -0.16791 0.24573 0.071883 0.29102 0.09216 0.2016 0.094719 -0.10627 -0.27179 0.19215 -0.050613 0.11125 0.36858 -0.4118 -0.61553 0.14209 -0.28509 -0.015284 0.1389 -0.013649 0.14996 0.094846 0.042208 -0.081905 0.039768 -0.042399 -0.49062 0.21863 -0.0035154 -0.097748 0.30984 -0.048084 0.21157 -0.16146 0.23349 0.22565 0.039781 -0.18035 0.25217 0.11918 -0.16475 -0.12605 0.36006 -0.18901 0.25784 0.32287 0.15007 -0.37058 0.30305 0.051661 -0.060073 -0.1738 0.81348 0.22383 0.14304 0.28708 -0.33719 -0.36844 -0.36546 -0.37878 0.50478 -0.032804 -0.26987 0.30097 0.022898 -0.0037252 -0.4183 0.24408 -0.14695 0.039565 0.050036 -0.01417 -0.088258 -0.03102 -0.37345 -0.15454 -0.27301 -0.0034391 -0.075614 0.063539 0.0013014 0.049388 0.1034 0.22421 -0.47992 0.42561 0.013584 -0.31708 -0.087387 0.2312 0.10059 -0.015321 0.018646 -0.015404 0.18151 0.27811 0.098192 0.058326 0.071313 0.1497 0.4086 -0.50225 -0.095961 0.026046 -0.14415 0.72193 -0.030017 -0.14471 0.16783 -0.71317 0.044804 0.021724 -0.34635 -0.066836 0.40876 -0.19924 -0.062127 0.046536 -0.07888 -0.47209 -0.18414 0.26729 0.66248 -0.28764 0.47023 0.17289 0.14887 -0.06236 0.096161 0.13846 0.30567 -0.087837 -0.31887 -0.098259 -0.24427 -0.036592 -0.52545 -0.16501 0.11548 -0.21399 -0.01931 0.37187 -0.022532 -0.27183 0.27233 -0.18006 -0.1129 -0.15889 0.095427 0.099306 -0.2359 -0.3261 -0.30526 -0.43328 0.19516 0.36448 0.14022 0.041244 0.090835 -0.16804 -0.044627 -0.38023 -0.12485 -0.34042 0.14799 -0.33676 -0.191 0.11795 0.64624 0.24954 0.3908 0.22571 0.093696 -0.015892 0.52009 0.18704 0.24275 0.23609 -0.28792 -0.1932 0.16782 -0.42375 -0.2321 -0.28066 -0.085552 -0.70088 0.31632 0.24846 0.21783 -0.2353 -0.16735 -0.20855 0.18921 0.28695 0.20551 
anbieter -0.17012 0.41391 -0.029395 0.27731 -0.011759 0.062457 -0.017065 0.1418 -0.048105 0.0194 0.12361 -0.10999 0.15423 -0.098865 -0.35438 -0.35515 -0.35156 0.17586 0.2412 0.027429 0.27231 -0.065333 -0.43698 -0.11679 -0.16902 0.0070354 -0.27846 1.212e-05 0.40548 0.087359 0.24957 0.002764 0.33262 -0.060183 -0.15729 -0.39912 0.16627 0.26534 -0.26355 -0.11128 -0.050156 -0.38186 -0.1748 0.014926 0.20868 -0.066131 0.23685 -0.13595 -0.087968 -0.044488 -0.11894 -0.18985 -0.04642 0.087507 -0.19402 -0.27686 -0.22454 -0.3731 0.16955 -0.114 -0.23565 -0.2323 -0.21454 0.41573 -0.48412 -0.28576 0.30485 -0.18717 0.19813 0.031866 0.0067533 -0.2529 0.31918 -0.12256 0.054719 -0.024996 0.021359 0.17128 0.2664 -0.023418 -0.063389 0.3906 0.058817 0.099157 0.15051 -0.062902 0.095609 -0.12699 -0.13761 0.18598 -0.19765 0.1831 -0.11252 0.22893 0.1859 -0.10237 -0.26102 0.23299 -0.36821 0.35928 -0.45656 0.12535 -0.21727 0.31903 0.24147 0.010347 0.059585 -0.10236 0.27494 -0.26711 -0.04993 -0.35364 0.37259 -0.44072 0.1077 -0.25057 -0.64016 0.075597 0.026146 0.44393 -0.052138 -0.050379 -0.096642 -0.033867 0.03285 -0.37268 -0.0081583 0.037618 0.21046 -0.40274 0.3251 0.044226 0.040221 0.31499 0.43317 0.53395 0.48629 0.30358 -0.17998 -0.31179 -0.15919 0.37025 0.098821 0.57265 -0.058227 0.40385 0.34838 0.44792 -0.06903 -0.32738 0.41373 0.19037 -0.54832 0.60333 -0.61671 -0.072587 -0.74438 0.093132 0.24683 0.29093 -0.043546 0.43422 -0.29542 0.010384 -0.20472 0.16888 -0.19342 -0.011804 -0.4379 0.41316 -0.11012 -0.042625 0.41821 0.11992 0.14025 -0.11631 0.2277 -0.18257 0.47482 0.13874 -0.20746 0.47074 -0.029515 -0.13869 -0.24672 0.22319 0.17687 -0.13163 -0.58521 0.35997 0.11513 -0.61186 -0.18379 0.19391 0.048037 -0.43424 -0.16833 -0.13297 -0.033251 0.010993 0.22322 0.13653 0.49589 -0.30615 0.18811 -0.10904 -0.28307 -0.38245 0.1623 0.19313 0.47202 0.24574 0.4767 -0.25261 -0.64795 0.17109 -0.039517 0.2607 0.066447 0.37788 0.20199 0.13009 0.039521 0.20222 -0.13235 0.22916 0.051493 0.17927 -0.10519 0.088516 0.063982 -0.04549 -0.090477 -0.44361 -0.066201 -0.30776 -0.029798 -0.33145 -0.41814 -0.21185 -0.066867 0.059551 0.37711 0.20527 0.22262 -0.11827 0.50522 -0.031648 -0.47375 0.57273 -0.7038 0.4427 -0.62091 0.0033302 0.03635 0.18917 0.23112 -0.12895 0.063754 -0.013292 0.13144 0.33538 -0.24479 0.12094 -0.23886 0.46115 0.14752 -0.22781 -0.2291 0.11647 -0.37259 0.2581 0.59889 -0.097197 -0.11272 -0.41181 0.16495 -0.070449 -0.047891 0.083165 -0.47533 0.25159 -0.32319 3.4017e-05 0.27057 -0.020761 0.045132 -0.4259 -0.027724 -0.13127 0.22684 -0.32724 -0.098418 0.17307 -0.060351 0.0095489 -0.52392 0.24705 -0.27053 0.0098089 
bedarf 0.17425 -0.073464 0.1057 -0.33711 -0.2478 0.11362 -0.074149 0.31613 -0.1871 0.33696 0.2654 -0.059422 0.099173 0.0016812 -0.43832 -0.27624 -0.099903 -0.063145 -0.073145 0.34969 -0.14856 0.39156 -0.0069109 -0.13234 -0.014352 0.27039 0.22839 0.26675 -0.19069 -0.0012456 0.031876 -0.023976 -0.074976 0.015923 0.11481 0.029913 -0.049985 -0.18058 -0.33856 -0.27175 0.052425 -0.33577 0.33793 -0.038198 -0.094119 -0.17907 -0.11611 -0.21438 -0.030912 -0.068644 -0.24338 -0.25903 0.13739 0.41759 0.17849 -0.15042 -0.16898 -0.20669 0.15952 0.082693 -0.053953 0.078696 0.062514 0.06291 0.009951 -0.50913 -0.068609 -0.064627 0.11428 0.21485 0.17479 -0.043364 -0.082525 -0.10361 0.026907 -0.28385 0.056378 -0.13885 -0.10927 0.11933 -0.22617 0.14625 0.044591 0.11478 0.057107 0.083639 -0.055737 0.24017 -0.0071777 0.11497 0.19207 0.075386 -0.38237 -0.025595 -0.048484 -0.1422 0.096195 0.25352 -0.20303 -0.28229 0.043994 0.31359 0.22421 -0.039137 0.38111 0.055569 0.34546 0.063037 0.14078 -0.10024 0.43774 -0.03756 0.023905 -0.022934 0.049653 -0.28725 -0.11241 -0.025978 -0.15258 -0.077097 0.051391 0.29594 0.24669 0.041515 -0.011762 0.051923 0.045456 0.17052 -0.20276 0.083195 -0.13559 0.016145 0.015748 0.22604 0.1478 0.26291 -0.24361 0.21654 0.17156 0.088969 -0.19318 0.14332 -0.42636 0.68231 -0.20924 0.0027758 -0.0080764 0.21269 -0.047365 -0.30333 0.51069 -0.13561 -0.29585 0.31044 -0.59317 -0.078563 -0.26541 0.47319 -0.14481 0.41798 -0.05015 0.35851 -0.24842 -0.059647 -0.077247 0.11782 -0.017132 0.18875 -0.0097682 0.2268 0.071571 -0.10866 -0.4793 0.23362 0.36673 0.035121 -0.056405 -0.042846 0.25128 0.32084 -0.067102 -0.22698 -0.035259 -0.30154 -0.66094 0.33673 0.1365 -0.17504 -0.14051 -0.41179 0.2314 -0.25734 0.09191 0.10118 -0.15741 0.050775 -0.31414 0.33995 -0.12189 0.054564 0.031253 0.27333 0.17213 -0.37987 -0.51248 -0.23781 -0.17033 -0.27 -0.19416 0.22793 0.14516 -0.21074 0.1285 -0.099255 -0.47721 0.099233 -0.32938 0.17797 -0.072059 0.30149 -0.065826 0.56586 0.25103 0.25538 -0.34546 0.17737 -0.014516 0.31478 -0.082536 0.053239 -0.13665 0.13165 -0.38794 -0.43582 0.31831 -0.084892 -0.19846 -0.32541 -0.29651 0.32937 0.011498 0.050629 0.38446 0.44066 0.14429 -0.14384 0.21086 -0.16107 -0.39348 -0.075313 -0.53192 0.22967 -0.07177 0.30237 -0.18908 0.023197 -0.091247 -0.58257 0.1948 -0.1829 0.21289 -0.24737 -0.25428 -0.11628 -0.086238 -0.13774 0.071263 -0.23807 0.23397 -0.018801 0.084501 0.13422 0.17156 0.16004 0.036254 -0.029886 0.25875 0.12438 -0.074511 0.26132 -0.054815 0.11083 0.12953 -0.1373 0.28997 0.22881 0.12305 -0.44231 -0.32262 -0.073415 -0.015036 0.14484 -0.16774 0.27723 -0.32391 -0.050313 0.027985 0.07041 0.18117 0.15698 
angebotsseite 0.16782 -0.1284 -0.19658 0.039416 0.0022411 0.25994 -0.23696 -0.035278 0.12079 0.085281 0.20473 -0.042126 0.20727 -0.28478 -0.24426 -0.79145 -0.14674 -0.17119 0.055233 0.056759 -0.037809 0.051308 0.17554 0.26779 -0.35299 -0.12456 -0.23703 0.34512 -0.0081811 0.25754 0.10156 0.30212 0.46927 -0.11665 0.24192 0.12005 -0.014269 -0.15077 0.0047772 -0.24044 -0.0087962 -0.26129 0.33966 -0.35088 0.088723 0.41471 0.36576 -0.051859 -0.31575 -0.16213 0.076286 -0.11826 0.073739 0.064062 -0.59146 0.1976 -0.24829 -0.3184 0.25063 -0.18103 -0.10149 -0.3111 0.22267 0.26953 -0.10102 0.10069 0.16098 -0.11312 0.18571 0.22562 0.21159 -0.27992 0.65343 -0.030497 -0.13133 0.055398 0.29385 0.18979 -0.23204 -0.14282 0.066562 0.1815 0.097062 -0.11304 0.06033 -0.31808 -0.071085 0.17607 -0.27555 -0.0011092 0.024173 -0.0041338 0.1727 0.12819 0.13214 -0.076859 -0.051557 0.54197 -0.73378 0.13486 -0.28162 0.15907 -0.21135 -0.10007 0.078858 0.32608 0.39268 -0.13067 0.00091904 -0.17561 0.020577 -0.37898 0.090658 -0.47201 0.25903 -0.061033 0.032712 0.1853 -0.27534 0.14174 -0.42552 0.25654 -0.087581 0.033129 -0.0036054 0.19956 0.058003 -0.06182 -0.071854 -0.19312 0.20476 0.026888 -0.18956 0.097866 0.067883 0.75 0.078368 0.082433 -0.040244 -0.15163 -0.39425 0.37657 -0.23155 0.17162 -0.28921 0.4861 0.32333 0.24526 -0.0098461 -0.061029 0.39512 -0.25764 -0.48092 0.39079 -0.3085 -0.28306 -0.29842 0.0098831 0.28256 0.41757 0.12448 0.17225 -0.58306 0.034925 -0.39982 -0.014507 -0.085777 0.23966 -0.49582 0.36495 -0.22968 0.13573 0.2929 -0.15826 0.27329 0.074628 -0.034418 -0.11546 0.35078 0.099786 -0.0069649 0.21479 0.042633 -0.3143 -0.52145 -0.087682 0.36123 0.14785 -0.30277 0.24823 0.54556 -0.48799 0.12622 0.21708 -0.47344 -0.36944 -0.056703 -0.19859 -0.35458 -0.21281 0.43124 0.036068 0.21127 -0.26066 -0.21768 0.10767 -0.18164 -0.27908 -0.2558 0.55147 0.21619 0.1871 0.45007 -0.0085596 -0.46941 0.10267 -0.23188 0.10086 0.19871 0.37486 0.035156 0.16341 0.27972 0.5072 0.13301 0.8175 0.25894 -0.19249 0.13483 -0.0030939 0.084719 -0.074698 -0.4768 -0.28011 -0.007044 0.021121 -0.45347 0.14595 -0.12359 -0.28385 -0.34075 0.15554 0.50445 0.23856 0.075315 0.10679 0.30315 -0.22411 -0.22614 0.13907 -0.54112 0.3705 -0.07669 0.4272 0.40557 0.063327 0.31381 -0.29754 0.021469 0.080184 0.058271 -0.16214 0.086359 0.095354 0.34874 0.25689 -0.065984 -0.24227 0.14674 -0.061787 -0.089608 0.32654 0.16992 -0.29861 0.0067245 -0.43518 0.49785 -0.23658 0.044723 0.39166 -0.43531 0.56227 0.0032625 -0.14563 0.15146 -0.28547 0.41918 -0.52908 -0.26531 -0.01103 0.01095 -0.31454 -0.33616 0.24712 -0.30015 -0.082313 -0.068897 0.21084 0.092306 0.10894 
bestandsaufnahme -0.31341 0.052907 0.039768 0.090412 0.23892 0.048231 -0.51761 -0.058497 -0.11931 -0.41117 0.1501 0.17167 -0.089481 0.13602 0.16405 0.58337 0.10895 0.0016124 0.47188 0.07622 0.025094 -0.11546 0.30707 -0.2554 -0.18397 -0.25271 0.062571 0.061584 0.076014 -0.13343 0.11008 0.3831 0.021141 0.00077422 0.17982 -0.049085 0.16967 -0.2098 0.23911 0.4371 -0.042559 0.43727 0.23552 0.24213 0.062985 -0.071107 0.11776 -0.035054 0.47974 -0.3217 -0.1291 0.022979 0.22734 -0.14122 0.011016 -0.10313 -0.24947 0.09827 -0.16109 -0.35104 0.037274 -0.028675 -0.09924 0.20521 0.14344 -0.017444 -0.16181 0.11682 0.092867 -0.17615 -0.10338 0.43149 0.20694 0.067044 0.030725 0.46866 -0.25568 0.45656 -0.036714 -0.020578 0.086178 0.17496 0.04043 -0.30068 0.11869 -0.51624 0.13003 0.11785 -0.34461 -0.13975 0.24418 0.073625 -0.22409 -0.38807 0.29959 -0.05594 0.23879 0.4162 -0.24168 -0.09983 0.025607 0.47956 0.10468 -0.16121 -0.029519 0.39514 -0.69693 0.35736 -0.27206 -0.37819 -0.11784 0.035882 -0.11233 -0.068244 0.26952 -0.070152 -0.028249 0.11696 -0.81397 0.0040643 0.0028156 -0.15715 0.13036 0.0066193 0.16966 0.28591 -0.048096 0.41969 -0.3695 -0.51134 0.34359 -0.31219 -0.15569 0.36885 0.06413 0.078816 -0.041797 0.064819 -0.038261 0.064679 -0.18509 0.16759 -0.48334 0.52487 -0.029675 -0.14579 0.32168 0.048 -0.10321 0.17741 0.23926 -0.46279 -0.17653 0.4952 -0.10113 0.013375 0.012896 0.11863 0.44082 0.35757 -0.17113 0.086763 -0.21833 0.43417 0.029308 0.38589 0.14614 -0.48041 -0.37009 0.573 -0.26075 0.11907 0.0061885 0.47161 0.013582 -0.12017 -0.18226 -0.35151 -0.12721 0.060302 -0.48949 -0.091515 -0.10988 0.28514 -0.56393 0.25537 0.0089417 -0.20483 -0.11776 -0.17628 -0.068794 0.12646 0.14133 0.0096048 -0.26982 0.037419 0.01962 -0.1542 0.22415 -0.17205 -0.1982 0.14882 -0.053421 -0.035668 0.29572 0.21412 -0.17264 -0.28123 0.30812 0.002792 -0.17591 0.49536 -0.15528 0.024744 -0.42887 -0.3108 -0.12393 0.10082 0.13302 0.073373 -0.022003 0.21992 0.22818 -0.15129 -0.34663 0.49598 0.11428 0.008683 -0.090051 0.18921 -0.29161 0.18364 -0.39181 0.099494 -0.29787 -0.41683 -0.29544 -0.27123 -0.47391 -0.02282 -0.055073 0.011354 -0.47105 -0.099816 -0.025509 -0.33084 -0.020806 -0.16182 -0.19816 -0.091973 -0.19158 0.23758 0.12746 0.37901 0.25513 -0.067141 0.027674 0.072725 -0.28548 0.22835 -0.013957 -0.13485 -0.05573 0.17097 0.096507 -0.19178 0.3903 0.2226 -0.00016495 0.20894 -0.15044 0.23217 0.40581 -0.34566 0.28389 0.36501 0.15181 -0.18091 -0.27403 0.47145 0.025888 -0.11454 -0.0002548 -0.22986 -0.11269 -0.23666 0.16044 0.22506 -0.36965 -0.0096484 -0.58209 0.3607 0.11507 0.15606 -0.11621 -0.098623 -0.21845 0.3177 0.1481 0.23881 
angehend -0.31157 0.38984 -0.17707 -0.44955 -0.12889 0.068058 -0.34435 0.078308 0.12041 0.4158 0.050614 0.14832 -0.18335 -0.28757 -0.13186 0.18831 -0.13121 0.31516 -0.086621 -0.0074288 0.091414 0.033778 0.020447 0.091089 -0.16629 -0.17933 -0.19352 0.0048142 -0.15503 -0.18657 -0.02849 0.17297 -0.16354 -0.098035 -0.11705 0.23176 -0.17591 -0.42084 0.00035359 0.094551 -0.024418 -0.21847 -0.24448 0.25172 -0.041235 -0.043928 0.22192 -0.25006 -0.13264 -0.2122 -0.018695 -0.19213 0.066826 0.3143 0.043363 -0.22434 0.024266 -0.15557 0.28552 0.092912 0.07201 -0.019224 0.049627 -0.17148 -0.01084 -0.60443 0.27321 0.041064 0.22194 0.039685 -0.21692 -0.096983 -0.41156 0.3515 -0.43721 0.32924 -0.14421 -0.15534 -0.17216 0.16166 -0.02306 0.11353 0.42913 0.083623 0.13771 -0.084013 -0.025998 -0.091136 -0.073019 -0.11956 0.39138 -0.18056 -0.2132 0.074481 -0.10764 0.02044 -0.15787 0.26678 -0.28064 -0.23368 0.26496 -0.098463 -0.099693 -0.13308 0.051275 -0.072146 -0.23828 0.064533 0.16801 -0.070485 0.13583 0.011138 0.09842 0.2156 -0.085148 -0.011306 -0.13651 0.37688 -0.15337 0.019121 -0.097412 0.043164 0.16161 0.28323 0.035641 0.099276 0.11442 0.22347 -0.034721 -0.051962 0.13815 -0.16972 -0.012784 0.12278 0.12682 0.1577 -0.12877 0.037058 0.21617 -0.39115 -0.45028 -0.066791 -0.55647 0.57971 0.083462 0.1061 0.38192 0.077967 0.13164 0.075513 -0.13486 0.080285 -0.053 0.43222 -0.026067 -0.094492 -0.24547 -0.0098967 0.072631 0.091459 -0.030986 -0.084556 0.12467 0.084148 -0.26579 0.0027361 -0.022816 0.11046 -0.13354 -0.097005 0.053934 -0.0037062 0.040032 -0.02186 -0.092126 -0.011163 0.043186 0.057501 -0.1048 -0.13666 0.062017 0.385 0.015398 -0.1618 -0.16804 -0.063183 -0.053939 -0.008255 -0.17115 -0.090888 0.29994 -0.12472 0.30466 0.31805 0.171 -0.26503 -0.40518 0.23387 -0.25107 -0.18122 0.02984 0.29032 0.32647 0.018247 -0.052684 -0.045718 -0.11642 0.052094 -0.098479 -0.067624 0.0012025 -0.11136 -0.17376 0.17364 -0.43992 0.25748 -0.053357 0.031517 0.07352 -0.21037 0.25234 0.023613 -0.017008 0.23255 -0.42623 0.10847 0.12806 -0.08722 -0.13767 -0.12327 -0.071434 0.045658 -0.18284 0.14879 -0.15234 -0.31232 -0.019989 -0.22311 0.18733 -0.026966 -0.26752 0.024623 0.017543 0.23177 0.086229 0.12109 0.22101 -0.13724 -0.09452 -0.18941 0.034418 -0.14415 -0.14712 0.0093892 -0.24618 0.25216 0.1329 -0.28458 -0.2276 0.19291 0.03778 -0.024038 0.15654 0.10072 0.15763 -0.0053732 0.041017 -0.0079656 -0.032827 0.24312 -0.13269 0.081181 0.47666 0.072628 -0.11714 -0.035129 0.067479 -0.27948 0.024274 0.44782 0.27058 0.21756 0.11902 -0.20479 0.25585 0.096442 -0.37605 0.2916 0.15045 0.14971 -0.090886 0.090803 -0.00066132 -0.14745 -0.21591 -0.15839 0.1304 0.023496 0.08098 -0.15158 
verfahrenstechnik 0.1471 0.31869 -0.35637 -0.36434 -0.041979 0.074139 -0.30516 0.0091881 -0.42183 -0.15083 0.34183 0.063398 0.44758 -0.15294 -0.43933 0.31821 -0.66299 0.15135 -0.23559 0.61177 0.34497 0.052093 0.010623 -0.019447 -0.32806 -0.14239 -0.35523 0.1213 0.42892 -0.64768 0.36551 -0.039972 0.15619 0.60345 0.49233 -0.27538 0.32054 -0.62801 -0.0076869 -0.69972 -0.36979 0.28192 -0.027066 0.43327 0.13877 -0.37097 0.45824 0.047028 -0.26131 -0.42307 0.029726 -0.22781 0.53113 0.45721 -0.0021903 0.11563 -0.17971 0.1452 0.02297 0.092957 0.12251 -0.27013 -0.43231 0.26046 -0.18802 -0.34701 0.18593 0.37244 -0.0025217 -0.1394 0.35066 -0.18348 0.083455 0.19931 -0.20338 -0.134 -0.49192 0.33018 0.53437 0.22739 -0.074722 0.55774 0.28839 -0.058155 0.49087 0.0014836 -0.073958 -0.07973 -0.29065 0.20577 0.43587 0.10771 0.097021 -0.41768 -0.077303 0.22755 0.0061512 -0.29727 0.027301 0.33649 0.30048 0.18754 0.25295 0.46657 0.11469 0.24221 -0.54199 -0.17204 -0.10024 -0.28872 -0.05915 -0.23434 -0.14415 -0.13453 -0.2666 -0.28231 -0.07566 0.18054 -0.054804 -0.20776 0.39689 0.19999 -0.40158 0.19304 -0.0053868 0.058753 0.047902 0.39864 -0.12307 -0.31288 0.034523 -0.19318 0.19694 0.83791 0.15183 -0.089879 0.063291 0.2132 0.023822 -0.040898 -0.022467 0.3105 0.2511 0.99093 0.0060545 0.3953 0.2205 0.38031 -0.14934 0.23359 0.27537 0.023332 -0.13799 0.11284 -0.33987 -0.11106 -0.68988 -0.04037 0.01944 0.29869 0.88742 -0.16722 0.0051479 0.30699 -0.10244 -0.18696 0.1807 -0.16397 0.33291 0.047216 0.47356 0.45403 0.26976 -0.17829 -0.1087 -0.24363 -0.1301 -0.013705 -0.47 -0.22558 -0.14615 0.22479 -0.48355 0.44368 -0.41125 0.36689 -0.23069 -0.47503 -0.4094 0.4957 0.75125 -0.14269 0.49817 0.19815 -0.3574 -0.21895 0.2109 0.5052 -0.34608 -0.35767 0.13698 0.18703 0.35843 -0.35357 -0.19944 -0.035398 -0.072278 -0.65659 0.18619 -0.36406 0.20624 -0.14404 0.13421 -0.24805 -0.62936 0.08067 0.21547 0.20117 -0.27648 0.17907 0.12977 0.019466 -0.13407 0.031107 -0.2206 -0.013805 0.25781 -0.52586 -0.10368 0.21419 -0.26756 0.10096 -0.16802 -0.54806 -0.066283 -0.042955 -0.10055 -0.11247 -0.25266 0.18197 0.087562 0.20788 -0.38582 0.49012 -0.12527 -0.13218 0.16754 -0.50075 -0.085997 0.19902 -0.095118 -0.32181 -0.14993 -0.349 -0.081008 -0.38004 -0.28336 -0.19493 0.046685 0.1537 -0.28341 -0.35126 0.052606 0.40864 0.028753 -0.22668 -0.42371 -0.492 -0.30757 -0.08047 0.14932 0.58267 0.29464 0.076012 0.093029 0.19813 0.16754 0.30306 -0.15091 0.30795 -0.19974 0.074411 0.023856 0.059053 0.46597 0.3159 -0.70887 -1.0516 0.021935 0.15195 0.080181 -0.15735 -0.071246 0.097384 -0.45808 0.14544 -0.52942 -0.080863 -0.50939 0.22849 
anleiten -0.39825 0.46596 -0.33331 -0.39926 0.34183 -0.79434 -0.39656 0.14133 -0.38397 0.0781 0.23232 -0.39087 -0.21184 -0.25451 -0.27688 -0.14828 0.015131 -0.15071 0.61508 0.017363 0.13964 0.0013315 0.19588 -0.28901 -0.2239 -0.49494 -0.0085923 0.18882 -0.55817 -0.44943 0.13934 0.68833 0.083316 -0.34235 -0.012889 -0.070074 -0.34544 -0.43806 -0.52683 -0.11691 0.24455 -0.015622 0.087515 0.79956 -0.025275 -0.16102 0.21254 -0.25955 0.076896 -0.6775 0.17811 0.014769 -0.14472 0.38427 0.079112 -0.31219 0.10065 -0.056745 -0.088862 0.50533 0.55892 0.1255 -0.27261 -0.23376 0.064613 -0.49715 -0.074641 -0.59848 0.42129 -0.097834 0.0093995 0.14587 0.31522 0.5277 0.070377 0.065673 -0.37189 0.06146 0.20299 -0.23062 -0.5406 0.18173 0.22905 -0.1095 0.52855 -0.59916 0.19043 -0.077083 0.11707 -0.09138 0.047196 -0.11414 0.19193 -0.19775 0.28494 0.0828 0.43343 0.2369 -0.1367 -0.32157 0.087898 0.057258 -0.20055 0.18919 -0.1156 -0.33059 -0.090666 0.097483 0.15097 -0.2936 -0.02191 0.019993 0.12239 -0.19816 -0.021216 -0.49111 0.34961 -0.013936 0.058827 -0.060451 -0.0010923 0.040526 -0.075346 0.32364 0.63069 0.13013 -0.042597 0.44416 -0.41482 -0.18168 0.09476 0.046418 -0.21194 0.0022706 0.20842 0.48874 0.39921 0.33764 0.043364 0.17387 0.023957 0.013529 -0.54173 0.28031 -0.061288 0.023472 0.18173 -0.080317 -0.2885 0.13405 0.021031 0.27361 -0.1797 0.25631 -0.41314 -0.26932 -0.46636 0.44453 0.1092 -0.098792 -0.031593 -0.19306 0.01557 -0.12999 -0.092676 0.0468 -0.29795 -0.16557 0.034852 0.013926 -0.2683 -0.2745 -0.074708 -0.07258 -0.144 -0.42719 0.22878 -0.34827 -0.02468 -0.075801 0.019036 0.24837 -0.30827 -0.24463 -0.18378 0.12141 0.11652 -0.45851 0.10958 -0.47386 0.62733 -0.14831 0.44344 -0.43674 0.22481 -0.16464 -0.25333 0.47764 -0.62027 -0.31089 -0.28322 0.20569 -0.066579 -0.08817 -0.33956 -0.15666 0.32261 -0.536 -0.19463 0.29396 0.30123 -0.061943 -0.31355 -0.32821 0.25414 0.078424 0.11418 0.063461 0.026824 0.10208 0.42292 0.43766 0.22189 -0.13326 -0.49835 0.59646 0.0070199 0.273 -0.1484 0.0052745 -0.02306 0.23615 -0.37218 -0.099626 -0.57607 -0.61238 -0.45508 -0.23367 -0.15406 -0.20013 -0.25308 -0.44549 0.098737 0.14368 -0.37986 0.19932 0.041454 0.12063 -0.29771 -0.031193 0.16048 0.20235 -0.22339 -0.26528 -0.2921 -0.12102 0.065546 -0.25397 0.32072 -0.034531 -0.38099 -0.11205 0.29991 0.43044 0.24702 0.48433 -0.26176 -0.052125 -0.010957 -0.085188 -0.00025348 -0.25381 0.48981 -0.30598 -0.14434 -0.0090983 0.41105 0.14484 -0.20612 0.51323 -0.073543 0.41124 -0.14619 -0.32196 0.1176 -0.1996 -0.16528 0.30701 -0.35443 0.26409 0.12353 -0.01805 0.44443 0.31257 -0.097757 -0.13803 -0.42421 -0.13046 0.12531 -0.085551 
rekonstruieren 0.092483 -0.14008 -0.45239 -0.064627 -0.31548 -0.027925 -0.36942 -0.2556 -0.036286 0.17762 -0.20783 -0.27265 0.086445 -0.0613 -0.19082 0.26433 -0.23001 0.048127 0.41858 0.015038 0.25221 0.35582 -0.13714 0.21515 -0.12246 -0.54567 0.11394 -0.16025 -0.14349 -0.20191 0.14508 0.11017 -0.035229 0.060975 0.12596 0.10708 0.0090928 -0.16097 -0.0068852 0.0013456 -0.25211 -0.37853 -0.13812 -0.0090516 0.24837 -0.15186 0.016223 -0.31921 0.22879 -0.24715 0.014379 0.14223 -0.10959 0.068506 0.081168 0.28783 0.19998 0.053718 0.05884 -0.051104 0.33831 0.30556 0.46887 -0.030707 -0.044259 -0.056217 -0.0072232 0.2887 -0.23336 -0.21184 0.07709 0.37869 -0.17612 0.14148 -0.29474 0.097007 0.26446 0.36422 0.025545 -0.23646 -0.17966 0.013992 0.087059 -0.2808 0.22262 -0.75491 0.20351 0.45406 -0.17722 0.18271 0.29674 0.057508 -0.24948 -0.096217 -0.1956 0.21868 0.34047 0.52763 0.16121 -0.23216 -0.37314 -0.061951 -0.037446 0.011162 0.20112 0.22201 -0.78541 0.098324 -0.064917 -0.26428 -0.053095 0.20965 0.030543 -0.099695 -0.0048116 -0.23349 -0.15018 0.055824 -0.71744 0.10307 0.11007 0.098097 0.11757 0.018643 -0.16936 0.6859 -0.25504 0.22891 0.18935 0.089818 0.1243 -0.3193 -0.18612 0.4423 -0.2177 -0.083185 0.09572 -0.091229 -0.038404 -0.00082466 -0.16341 -0.21835 -0.24744 0.46677 0.056644 -0.014403 0.34423 0.059799 0.089633 0.30979 0.10449 -0.34146 -0.14079 0.35108 -0.077374 0.01645 0.22948 0.087702 0.28474 0.20951 0.12427 -0.12501 0.054957 0.11458 -0.16277 -0.016212 0.023326 -0.027226 -0.32829 0.16761 -0.40924 -0.33297 0.031749 -0.025024 0.44542 0.034031 0.085887 -0.14187 -0.3016 0.053765 0.22658 -0.030993 0.034207 -0.33158 -0.13437 0.040485 0.11921 -0.53782 -0.12449 0.23605 -0.093512 0.13894 -0.26995 0.18973 -0.055996 -0.097946 -0.0073369 -0.19231 -0.08142 -0.17446 -0.38846 -0.27006 -0.0037468 -0.25248 0.18242 -0.10201 0.041093 -0.47362 -0.23945 0.33849 0.17389 0.24263 0.132 0.041066 -0.20743 0.014646 0.28922 0.059639 -0.076785 -0.0010708 0.056341 0.12848 0.27276 0.31714 -0.086521 0.00595 -0.33033 0.3875 0.50392 0.085073 -0.22917 0.2118 -0.59633 0.072461 -0.13077 -0.076901 -0.37877 -0.0029449 0.1086 -0.38407 0.36448 -0.34571 -0.053517 0.23028 0.059843 -0.63175 -0.068548 0.1782 -0.32974 0.029543 -0.011179 -0.41038 -0.40428 0.099734 -0.10006 -0.2037 0.32443 -0.43319 -0.044213 0.37593 0.029649 -0.36116 0.12094 -0.21112 -0.067665 -0.14344 0.1699 -0.061318 -0.16602 -0.21703 -0.025875 0.45647 0.57304 -0.1198 0.13725 -0.029917 0.51412 -0.024874 0.0044694 0.19787 0.028092 -0.082136 -0.096764 -0.13582 -0.044388 -0.22103 0.047845 0.36935 -0.15231 0.33431 0.16659 0.25447 0.14675 0.36661 0.17497 0.087663 0.10388 0.1185 -0.15303 0.24697 
ansatz -0.29436 -0.084708 0.23208 0.084819 0.24451 0.24506 -0.20444 0.36977 0.011981 0.15129 0.17353 -0.46952 -0.0068191 0.1645 -0.2846 -0.28586 -0.59718 0.18344 0.13129 0.24418 0.17166 -0.095439 0.18063 0.11963 -0.28712 0.045468 0.022118 0.013658 -0.21409 0.045179 0.31398 0.19701 -0.14668 0.04252 -0.18299 -0.048896 -0.32675 -0.43983 -0.24075 -0.47547 0.025363 -0.1048 -0.18027 0.13709 0.2668 -0.0605 0.0050753 -0.027141 0.10469 -0.68464 -0.35992 0.14622 0.49297 -0.24128 0.020932 -0.088499 -0.18671 -0.00079771 0.28709 0.044382 -0.099548 0.35595 0.43485 0.027664 -0.17182 -0.43615 0.47933 0.34704 0.37637 0.031814 0.054291 0.045624 0.16724 0.21126 -0.37475 0.30267 0.51195 0.03881 0.071975 -0.20231 0.40613 0.19109 0.42538 -0.095771 0.22525 -0.077468 0.07734 -0.14308 0.083218 0.050448 0.0027512 -0.51936 -0.11851 -0.064463 0.13701 0.13496 0.086755 0.58298 -0.19296 0.020057 -0.0421 0.22327 0.068016 -0.027994 -0.25492 0.26881 -0.31499 -0.22581 -0.21648 -0.51771 -0.12926 -0.21138 -0.37615 -0.048988 0.20441 -0.201 -0.0070932 0.17505 -0.54892 0.19131 -0.14877 0.042113 0.27261 0.54261 0.015634 0.13085 -0.093715 0.01419 -0.22052 0.12179 0.21453 -0.35283 -0.058893 0.39362 0.021341 -0.0015679 0.042109 0.54898 -0.16195 0.037246 -0.31623 0.096817 -0.050959 0.56948 0.1545 0.33297 0.08688 0.018136 -0.012362 -0.1362 -0.22992 -0.10417 -0.0050508 0.4257 0.08044 -0.083914 -0.14156 -0.01695 0.14487 0.095081 -0.086643 -0.10844 0.14349 0.022624 -0.031684 0.2043 -0.23498 -0.76551 -0.34153 0.013252 0.14136 0.13394 -0.024368 -0.18924 0.15043 0.148 0.17011 -0.10917 0.42941 -0.27439 -0.042527 -0.084811 0.14244 -0.35991 -0.28392 -0.068897 -0.22173 -0.32506 -0.29045 -0.41143 0.25445 0.11413 -0.054807 0.24353 0.1535 -0.12913 -0.22801 -0.18719 -0.29466 0.18765 -0.041474 0.11553 0.24619 -0.27368 -0.38504 0.32057 -0.236 -0.25263 0.46832 0.38925 0.27117 -0.20046 -0.11162 -0.055011 -0.53835 0.043473 -0.012936 -0.025714 0.046313 0.46725 0.087968 -0.070845 0.11814 0.27983 0.0076981 0.43012 0.33444 0.16322 0.057609 0.10749 -0.029824 0.406 -0.26531 -0.27288 -0.0083944 -0.47277 0.1113 -0.35088 -0.2225 0.013582 -0.1183 0.2329 0.11754 -0.18313 0.30751 -0.25476 0.11734 -0.047249 -0.23669 0.099304 -0.34019 0.085782 -0.080783 -0.080448 -0.060809 -0.10884 0.091405 -0.25978 -0.22701 0.12181 -0.21473 -0.09519 0.20455 0.083681 0.14791 0.07628 0.034857 -0.064247 0.13 0.062222 0.039237 0.08558 1.0323 0.0021188 -0.014258 -0.051348 0.22203 -0.25424 0.05735 0.24 -0.11913 0.37818 -0.10541 -0.56843 0.15806 -0.19095 0.26004 -0.12882 -0.28022 -0.1477 0.27505 0.4384 -0.073739 0.070053 -0.13528 0.16404 -0.028082 0.27527 -0.29227 -0.066985 
europäisch -0.28418 0.11443 -0.26665 -0.36741 0.12063 -0.23675 -0.020713 -0.042786 0.36998 0.058871 0.48926 -0.47453 0.35561 -0.41302 -0.40798 -0.14501 -0.38988 -0.17877 -0.67058 0.28347 0.26658 0.1659 -0.11721 -0.16961 0.068632 -0.023747 -0.20153 -0.20896 -0.38513 -0.22647 0.079691 0.40846 -0.23102 0.11783 -0.13473 -0.093966 -0.2751 -0.51708 -0.23738 0.20916 0.048028 -0.4079 0.1006 0.14338 -0.1197 -0.13661 0.071129 -0.38768 -0.01108 0.067996 0.039053 0.32308 -0.36815 -0.28141 -0.041124 -0.092938 -0.0099702 0.22605 -0.30398 -0.26742 0.0079808 -0.19659 0.30017 -0.068721 -0.4673 -0.12208 0.43578 0.15736 0.23685 -0.11091 -0.41537 -0.043819 -0.21449 0.48944 -0.40829 -0.17742 0.43445 -0.061439 0.086491 0.0079257 0.27221 -0.061945 0.55107 -0.036306 0.41044 -0.14929 0.1215 -0.096833 -0.4427 0.14349 -0.14419 0.08811 -0.19304 -0.33375 -0.29177 0.26368 -0.40073 -0.28396 0.067805 0.11322 0.018103 -0.02196 0.20008 -0.26295 -0.22321 0.34117 -0.3795 0.32023 0.37939 -0.044143 0.038038 -0.292 0.14924 -0.27101 0.27303 0.74905 0.18808 0.15592 -0.3294 -0.062507 -0.36908 0.10907 0.4098 0.24366 -0.052122 -0.13318 0.14557 0.12435 -0.31373 -0.061167 -0.17334 -0.38427 -0.20429 0.35343 0.08371 0.061024 -0.48243 0.17204 -0.18658 -0.36678 -0.5145 0.21709 -0.42371 0.62078 -0.29336 0.39307 0.016334 0.41317 -0.319 0.058314 0.27447 -0.30231 0.10935 0.43392 -0.43866 -0.40485 0.007294 -0.26862 0.27643 0.27544 0.15714 0.071229 -0.69615 0.10327 -0.3733 0.14168 -0.43277 0.13552 -0.24433 -0.10105 -0.2002 0.17299 0.20656 -0.015243 -0.17791 -0.31966 -0.16339 -0.13181 0.48724 0.39972 -0.029693 0.38586 0.3561 0.63691 -0.079145 -0.087619 -0.33493 0.35371 0.33699 -0.17897 0.086305 -0.43448 -0.19148 0.26222 -0.39309 -0.17053 -0.23357 0.19968 -0.093947 -0.27441 0.29068 0.20612 0.88117 -0.25641 -0.18761 0.54414 0.059617 -0.084049 0.10969 -0.19951 0.23795 -0.066606 -0.011766 -0.0023904 0.20227 -0.40665 0.59141 -0.20054 0.30907 0.21797 0.13859 0.20177 0.025094 0.29466 -0.15223 0.13235 -0.52027 0.021776 -0.1072 0.38536 -0.1397 -0.074676 0.05033 0.16228 -0.008354 -0.27593 0.11276 0.25945 -0.10223 0.2371 0.10213 -0.21896 -0.037303 -0.36945 0.32358 0.092253 -0.04817 -0.19734 -0.11538 0.25197 -0.5032 0.074823 -0.76379 -0.0085182 0.30806 -0.10987 0.18373 0.17629 -0.32018 0.38357 0.017003 0.11464 0.20764 0.086321 0.10005 -0.86083 0.15092 0.29673 -0.38119 0.0036427 -0.15481 0.73727 -0.001249 -0.34099 0.11307 -0.0045306 -0.20097 -0.15433 -0.27865 0.0018163 -0.073312 0.17686 0.28082 -0.063207 -0.052985 -0.07088 0.15865 -0.17182 -0.47082 0.35786 -0.19756 0.037852 -0.033722 0.048843 0.031022 0.33754 -0.33963 -0.29374 -0.12494 -0.15089 
anschließend -0.21674 0.096645 0.046341 -0.77086 0.18191 0.2255 -0.1073 -0.07619 -0.2618 0.51486 -0.27852 0.22901 0.16148 -0.20188 -0.39481 0.16111 0.073978 0.17257 -0.092738 0.14123 0.25474 -0.17432 0.02292 0.12735 0.10539 0.37853 0.033336 0.17397 -0.18593 -0.061055 -0.13692 -0.25462 0.092131 -0.095399 -0.069308 0.19155 -0.12756 -0.074906 -0.003816 0.1745 -0.13499 -0.32412 -0.27746 0.35232 0.046672 -0.34227 0.23209 -0.075387 -0.19449 -0.35415 0.28653 -0.34306 -0.052153 0.18586 -0.037217 0.10707 0.032252 0.071148 0.23343 -0.084753 -0.10249 0.17438 -0.067527 0.025118 -0.33176 -0.61431 -0.08874 0.052442 0.064046 0.1109 -0.03011 -0.25639 -0.07476 0.11566 -0.23828 -0.055758 -0.15913 -0.14077 0.26133 0.15405 -0.12076 0.072015 -0.0076061 0.16042 0.37669 -0.25386 -0.36322 0.075114 -0.04431 -0.15042 0.56315 0.19364 -0.066037 0.12401 0.053369 0.064786 0.040142 0.0279 -0.32163 -0.075623 0.072678 0.066298 0.22154 0.16892 0.32815 0.12272 -0.46601 -0.22933 0.021178 -0.27269 -0.067414 0.30753 0.0050315 -0.061773 -0.19107 -0.32508 0.41652 0.13689 0.10041 -0.080384 -0.0071017 -0.065271 -0.035874 0.16082 0.039221 -0.032665 0.10072 0.26165 -0.28546 0.0028842 -0.27604 0.0061606 -0.054182 0.26276 0.11578 -0.046375 -0.13762 0.09911 0.56259 -0.11281 -0.47728 0.23158 -0.022193 0.28949 -0.11939 -0.018692 0.070728 0.0836 0.15534 -0.046623 0.076711 -0.11972 0.22115 -0.12043 -0.039369 0.16893 0.072202 -0.073977 0.25227 -0.28244 0.18636 -0.075289 -0.020581 0.0085004 -0.2768 0.013465 0.072703 0.10198 -0.49514 0.13344 -0.10358 0.054966 0.073322 -0.034651 -0.12597 0.24451 0.062234 -0.11634 0.16751 0.41838 0.12657 -0.0058078 0.2558 0.072459 -0.092176 0.29306 0.2856 0.14518 -0.29959 -0.20678 -0.037437 0.20844 0.14244 0.0078842 0.012017 -0.09066 -0.10464 0.035474 -0.27753 -0.29403 -0.20408 -0.059126 -0.070015 0.18794 0.12321 0.050417 0.05333 0.02157 0.0077334 0.04912 0.43463 0.19454 -0.035863 -0.10217 -0.2458 0.30109 -0.17055 -0.17692 0.088612 -0.34628 -0.084351 0.13578 0.18581 0.020949 -0.093819 -0.08478 0.082417 -0.4387 0.3714 0.0079644 -0.33984 0.062695 -0.28282 -0.01514 0.034735 -0.29492 -0.054905 0.16896 -0.02841 -0.050656 0.12283 0.17742 -0.1057 0.38952 0.29766 -0.01108 0.26076 -0.084114 -0.14296 -0.26929 -0.27345 -0.29509 -0.034059 0.0096225 0.046317 -0.0068176 -0.13926 -0.010791 -0.14676 -0.01534 0.17461 0.14654 -0.07565 0.24152 -0.2086 -0.011229 -0.14211 -0.27539 0.37321 -0.054335 -0.077086 -0.071867 0.15584 -0.24866 0.12741 -0.21984 -0.017627 0.11205 -0.17728 0.3252 0.24405 0.15666 0.21645 0.073883 -0.035109 -0.24789 -0.64027 -0.14642 -0.0079685 0.024417 0.1241 -0.2168 0.23899 -0.012581 -0.21351 -0.34044 -0.47086 -0.040309 0.34189 0.47703 
blutspendeaktion -0.094938 0.10454 -0.11533 -0.046702 0.39795 -0.15735 -0.32368 0.37486 -0.16311 0.37384 -0.078712 -0.0045013 -0.10047 -0.25874 -0.33616 -0.17081 -0.347 0.16927 -0.13754 0.070319 0.19058 0.67615 -0.23221 0.15197 0.18889 0.12425 -0.25266 0.38763 0.32585 -0.033677 0.26327 0.24023 0.18909 0.31427 0.037165 0.036417 -0.056077 -0.46144 0.13719 -0.12217 0.22101 0.010301 -0.07698 0.67262 -0.21043 0.21244 0.15514 0.072871 0.069797 -0.34941 0.18353 0.19293 0.049614 -0.085374 0.10173 -0.16286 -0.50542 -0.10231 -0.026316 0.084379 0.37036 0.018299 0.53653 0.15566 0.12047 -0.38354 -0.26719 0.040936 -0.28564 0.22044 0.56459 0.35676 0.39923 -0.089757 0.41942 0.055114 -0.004772 -0.13821 -0.28284 -0.10066 -0.29211 -0.17583 -0.47912 -0.01982 0.24114 -0.14637 0.0038468 -0.029071 0.17153 0.33278 -0.22272 -0.16539 0.036125 0.10471 -0.010575 0.013102 -0.056892 0.20496 0.19622 0.1065 -0.43868 -0.034055 0.10861 0.027826 -0.25789 -0.074864 0.14644 0.013661 0.32458 0.48275 -0.11844 -0.056626 -0.16984 -0.066482 -0.18192 -0.34516 0.226 0.1703 0.28402 -0.61047 0.23835 -0.30459 -0.25092 0.039989 0.51565 -0.19224 0.29317 -0.071782 0.037164 0.041462 0.039541 0.049084 0.23629 0.36402 0.1591 0.24615 -0.0045196 0.32226 0.16584 -0.22717 -0.34185 0.59401 -0.61738 0.65032 -0.48796 -0.24446 0.41324 0.1352 -0.1153 -0.28401 0.58004 -0.27512 -0.46425 0.39989 0.06647 -0.019843 0.13509 0.49675 0.084242 0.16928 -0.26473 0.47517 -0.15513 -0.1163 -0.53392 0.42831 -0.34584 0.13479 0.18357 0.34834 0.24786 -0.15464 0.2174 -0.66221 0.055349 -0.16883 -0.02785 -0.48349 0.22426 0.24083 -0.086822 0.27169 -0.014637 -0.34104 -0.045291 0.18877 0.11258 -0.25823 -0.44436 0.19692 0.24293 0.14799 -0.18044 -0.26802 -0.22865 -0.065679 -0.15857 0.16989 -0.223 0.14435 -0.042106 0.22732 -0.083296 -0.26648 0.22958 0.08152 -0.15313 0.071481 -0.013908 -0.30638 0.55186 0.092528 -0.052139 -0.044399 -0.45476 -0.0092672 0.16898 0.54503 -0.2034 0.3505 0.12489 0.045445 0.057439 -0.055228 0.066627 0.49409 -0.15316 -0.48058 0.27697 0.0084294 -0.055726 -0.32585 -0.03152 -0.28541 -0.10863 0.24407 -0.32587 -0.59035 0.21846 -0.06887 -0.18009 0.41328 -0.061805 0.30063 -0.22634 0.022466 0.0060545 0.16219 -0.17954 0.051409 -0.53406 0.058645 -0.058179 -0.11862 0.18744 -0.58563 0.07219 -0.53217 -0.089182 -0.067884 0.2669 -0.11592 -0.095995 0.27963 -0.17114 0.60606 0.14102 0.20869 0.14149 0.013567 -0.17207 -0.058706 0.44089 -0.38289 0.04952 -0.20734 0.1511 0.066968 -0.46725 0.058314 0.14185 0.34866 0.19511 0.16601 -0.028472 -0.067277 -0.18918 -0.088998 0.06674 0.25687 -0.16362 0.12693 0.32151 0.25928 -0.16218 -0.21114 -0.47122 -0.046038 0.088328 0.2442 
anschließend -0.21674 0.096645 0.046341 -0.77086 0.18191 0.2255 -0.1073 -0.07619 -0.2618 0.51486 -0.27852 0.22901 0.16148 -0.20188 -0.39481 0.16111 0.073978 0.17257 -0.092738 0.14123 0.25474 -0.17432 0.02292 0.12735 0.10539 0.37853 0.033336 0.17397 -0.18593 -0.061055 -0.13692 -0.25462 0.092131 -0.095399 -0.069308 0.19155 -0.12756 -0.074906 -0.003816 0.1745 -0.13499 -0.32412 -0.27746 0.35232 0.046672 -0.34227 0.23209 -0.075387 -0.19449 -0.35415 0.28653 -0.34306 -0.052153 0.18586 -0.037217 0.10707 0.032252 0.071148 0.23343 -0.084753 -0.10249 0.17438 -0.067527 0.025118 -0.33176 -0.61431 -0.08874 0.052442 0.064046 0.1109 -0.03011 -0.25639 -0.07476 0.11566 -0.23828 -0.055758 -0.15913 -0.14077 0.26133 0.15405 -0.12076 0.072015 -0.0076061 0.16042 0.37669 -0.25386 -0.36322 0.075114 -0.04431 -0.15042 0.56315 0.19364 -0.066037 0.12401 0.053369 0.064786 0.040142 0.0279 -0.32163 -0.075623 0.072678 0.066298 0.22154 0.16892 0.32815 0.12272 -0.46601 -0.22933 0.021178 -0.27269 -0.067414 0.30753 0.0050315 -0.061773 -0.19107 -0.32508 0.41652 0.13689 0.10041 -0.080384 -0.0071017 -0.065271 -0.035874 0.16082 0.039221 -0.032665 0.10072 0.26165 -0.28546 0.0028842 -0.27604 0.0061606 -0.054182 0.26276 0.11578 -0.046375 -0.13762 0.09911 0.56259 -0.11281 -0.47728 0.23158 -0.022193 0.28949 -0.11939 -0.018692 0.070728 0.0836 0.15534 -0.046623 0.076711 -0.11972 0.22115 -0.12043 -0.039369 0.16893 0.072202 -0.073977 0.25227 -0.28244 0.18636 -0.075289 -0.020581 0.0085004 -0.2768 0.013465 0.072703 0.10198 -0.49514 0.13344 -0.10358 0.054966 0.073322 -0.034651 -0.12597 0.24451 0.062234 -0.11634 0.16751 0.41838 0.12657 -0.0058078 0.2558 0.072459 -0.092176 0.29306 0.2856 0.14518 -0.29959 -0.20678 -0.037437 0.20844 0.14244 0.0078842 0.012017 -0.09066 -0.10464 0.035474 -0.27753 -0.29403 -0.20408 -0.059126 -0.070015 0.18794 0.12321 0.050417 0.05333 0.02157 0.0077334 0.04912 0.43463 0.19454 -0.035863 -0.10217 -0.2458 0.30109 -0.17055 -0.17692 0.088612 -0.34628 -0.084351 0.13578 0.18581 0.020949 -0.093819 -0.08478 0.082417 -0.4387 0.3714 0.0079644 -0.33984 0.062695 -0.28282 -0.01514 0.034735 -0.29492 -0.054905 0.16896 -0.02841 -0.050656 0.12283 0.17742 -0.1057 0.38952 0.29766 -0.01108 0.26076 -0.084114 -0.14296 -0.26929 -0.27345 -0.29509 -0.034059 0.0096225 0.046317 -0.0068176 -0.13926 -0.010791 -0.14676 -0.01534 0.17461 0.14654 -0.07565 0.24152 -0.2086 -0.011229 -0.14211 -0.27539 0.37321 -0.054335 -0.077086 -0.071867 0.15584 -0.24866 0.12741 -0.21984 -0.017627 0.11205 -0.17728 0.3252 0.24405 0.15666 0.21645 0.073883 -0.035109 -0.24789 -0.64027 -0.14642 -0.0079685 0.024417 0.1241 -0.2168 0.23899 -0.012581 -0.21351 -0.34044 -0.47086 -0.040309 0.34189 0.47703 
maschinenfunktion 0.1428 0.17121 -0.202 -0.21879 0.056106 0.032457 -0.23188 0.069708 -0.19059 -0.18986 0.083748 -0.025815 0.31472 -0.26268 -0.074581 0.18095 -0.11735 0.31693 0.030916 0.24977 -0.38473 0.31743 -0.0096764 0.28716 -0.26464 -0.15637 -0.1114 0.3395 0.04497 0.091137 -0.12342 0.1322 0.28112 0.51841 0.34218 -0.081652 -0.043629 -0.33422 0.12856 -0.24607 0.24738 -0.11629 -0.15452 0.14802 0.17559 -0.030887 0.32309 -0.070272 0.0050174 -0.23918 -0.17865 -0.38192 0.50059 0.13659 -0.11359 0.088163 -0.16481 -0.13821 0.026988 0.27354 0.14013 -0.10781 0.14459 0.3648 -0.18721 -0.14022 -0.10793 0.36236 -0.014647 0.0032952 0.29043 0.18186 0.25625 -0.30297 -0.052989 0.18022 -0.021135 0.22598 -0.003901 0.10308 0.042036 0.47232 0.15601 -0.044034 0.32128 -0.42171 0.010557 -0.029667 0.22029 0.2518 -0.05181 -0.18399 0.29419 0.13599 0.15427 0.026599 0.20869 0.014246 0.0037627 0.30998 -0.52803 -0.046412 0.17539 0.10793 0.1154 -0.018077 -0.098037 -0.045826 -0.16744 -0.067137 -0.18192 -0.23384 0.15965 -0.065431 0.05968 -0.39703 0.010617 0.22697 0.058416 -0.13101 -0.0056586 -0.033495 0.032105 0.11107 -0.011581 0.056357 0.10463 0.031221 0.070665 0.25448 -0.0006235 0.24672 0.19958 0.36985 0.26508 0.33455 0.060977 0.12507 0.46972 -0.16355 -0.33791 0.39777 -0.22346 0.35197 -0.0050656 0.03552 -0.039964 0.13283 -0.20712 0.17251 0.31769 -0.16917 -0.33311 -0.091397 -0.016093 0.029128 -0.34293 0.048927 0.072041 0.10701 0.45104 -0.14457 -0.12131 0.030001 -0.4665 0.22859 0.16748 0.12006 0.21692 0.36834 -0.003195 0.102 0.19906 0.287 0.17252 0.011454 0.024034 0.40593 -0.30219 0.033598 0.13297 -0.0084406 -0.31243 -0.29659 -0.43594 0.10848 0.34086 -0.23076 -0.53373 -0.067261 0.40163 0.12754 0.3628 0.14023 -0.45376 -0.40633 0.013822 0.21388 -0.46465 -0.074233 -0.012869 0.24332 0.24908 -0.28501 -0.44623 0.049537 -0.23908 -0.65924 0.032433 0.071261 0.69419 0.078506 0.167 -0.38916 -0.70354 0.71475 -0.020916 0.15116 0.092685 -0.049101 0.27009 -0.1463 -0.03733 0.22546 -0.25208 -0.002277 0.26378 -0.21609 -0.37887 0.34442 0.24391 0.07454 -0.50172 -0.3439 0.059865 -0.14465 -0.11337 -0.24627 0.18755 -0.22827 -0.087486 0.17656 -0.17778 0.30585 -0.15603 -0.11992 0.1887 -0.18639 -0.12907 -0.021621 -0.11509 -0.27629 0.1533 0.010894 0.13166 -0.06122 -0.011683 -0.42047 -0.05579 0.36049 -0.14834 -0.31882 0.12442 0.1039 -0.16451 -0.34752 -0.16864 -0.37875 -0.071016 -0.031063 0.35104 0.30561 0.14135 -0.078537 0.024473 -0.24733 0.3573 0.11969 -0.22772 0.32289 0.1179 0.17309 0.018041 -0.17462 0.53675 -0.017381 0.1688 -0.77047 -0.11641 -0.058438 0.50426 0.15601 -0.07642 0.17677 -0.10541 0.03324 -0.092432 -0.039151 0.20894 0.022272 
antrittsvorlesung -0.10278 0.78096 -0.0024481 -0.1495 0.44191 0.087799 -0.54966 0.13839 0.08321 0.29115 0.15054 -0.2538 0.45918 -0.21239 -0.2912 0.44392 -0.43194 0.17534 -0.4535 0.07298 0.26116 0.21912 -0.072256 0.20705 -0.31751 -0.66956 -0.27341 0.17115 -0.5157 -0.066891 0.31255 0.50939 0.14876 -0.412 0.04212 0.069922 0.12672 -0.01454 -0.48096 0.19733 0.091182 -0.24221 -0.21338 0.144 -0.24289 0.12635 -0.10882 0.058337 0.85919 -0.53238 0.191 0.14048 0.31981 -0.090983 0.042526 0.17668 -0.392 0.25895 -0.18091 -0.2188 0.42292 -0.31723 -0.2456 0.18506 0.22892 0.68274 0.17525 0.33515 -0.30778 0.0386 0.040656 0.46683 -0.26984 0.22942 -0.31145 0.20238 0.16786 0.29301 0.20616 -0.29716 -0.33039 0.18549 0.20673 -0.25367 0.21278 -0.26867 0.16332 0.0097775 -0.035886 -0.1514 -0.084629 0.071476 0.0045186 -0.069107 0.23245 -0.0418 0.64024 0.019719 -0.11813 -0.29075 0.072567 -0.07496 0.24835 -0.25819 0.13211 0.52719 -0.47494 -0.21542 -0.40665 -0.30105 -0.14814 -0.36939 -0.4592 0.012205 -0.051024 -0.16095 0.51373 0.22428 -0.51929 -0.052189 -0.10434 0.5543 -0.012857 0.052859 -0.33402 0.092321 0.027392 0.61118 -0.1885 -0.33988 0.16072 -0.34758 -0.42781 0.070939 -0.21322 0.14158 0.085193 0.13179 -0.1543 -0.38652 -0.20164 -0.17601 -0.13581 0.73975 -0.10869 0.2486 0.27072 0.40597 0.3629 -0.31515 -0.015717 0.044327 -0.035655 -0.040182 0.29579 -0.25196 -0.25185 0.29223 -0.149 0.2268 0.45156 -0.12647 0.0034541 0.12483 0.11534 -0.35698 -0.31543 -0.29886 -0.52126 0.18804 0.38612 0.17756 -0.082754 0.17869 0.24365 0.23392 0.41435 0.1238 0.0017899 -0.019264 0.0089002 -0.023658 0.30624 0.19861 -0.049896 -0.059683 -0.19011 -0.27781 0.21658 -0.014863 -0.13779 0.24127 0.43708 -0.12814 -0.13939 -0.013817 0.12563 -0.17377 -0.22259 -0.47215 0.28231 0.26548 0.25498 0.03503 0.085364 0.3453 -0.056474 -0.10484 0.22197 -0.43637 0.35165 -0.010149 0.10339 0.21935 -0.56222 0.21468 -0.22369 0.28443 0.23261 0.19264 0.51974 -0.072138 0.063208 0.44932 -0.46046 0.34079 0.21461 -0.30746 -0.0032272 0.31821 0.68904 0.4612 -0.084228 -0.39388 0.31097 0.079978 -0.24448 -0.42753 0.046072 -0.16309 -0.62069 0.064743 -0.44644 0.0465 -0.12287 -0.53439 0.27881 -0.22762 -0.23104 0.12727 -0.29883 -0.26553 0.30329 -0.059287 0.0056517 -0.32262 0.15303 0.08922 -0.1619 0.057378 -0.15713 0.24504 0.052556 -0.068877 0.38109 -0.24915 -0.10624 0.066952 -0.056447 -0.34519 0.1345 0.20819 0.29126 0.056164 0.19806 -0.056262 0.23872 -0.21314 0.096137 0.42286 0.21488 -0.15897 0.3907 0.12876 0.14081 -0.03012 -0.32393 -0.097366 -0.36363 0.73661 -0.24144 0.0123 0.1622 0.40981 -0.43387 -0.19037 -0.35643 -0.14365 -0.010481 0.21511 
justus -0.36677 0.23188 -0.79591 -0.2157 -0.37368 0.31778 -0.5875 -0.32992 0.51745 0.090886 0.14859 -0.11989 0.16854 -0.52611 0.1275 0.27752 -0.16806 0.35845 -0.35639 0.1655 0.36918 0.23757 0.067068 -0.23087 0.18634 0.30821 -0.25584 0.43291 -0.19088 -0.60558 -0.084893 0.61995 0.29612 -0.44925 0.072543 -0.18585 -0.13644 -0.32221 -0.071974 -0.33806 -0.22177 -0.099288 -0.071414 -0.14273 -0.043416 0.13958 0.18425 0.33917 0.21754 -0.69884 0.31072 0.058605 -0.50994 -0.11004 0.10142 -0.22353 -0.13757 -0.25698 -0.18886 -0.215 -0.047791 0.31409 0.12054 0.31712 -0.26336 0.11774 -0.33121 0.029666 -0.067109 -0.19082 0.08551 -0.045418 -0.10064 0.80592 0.27463 -0.22838 0.1672 -0.41193 0.44872 0.26851 -0.074597 -0.12872 0.095547 -0.33988 0.0022692 0.022541 0.27023 -0.071856 0.13488 -0.45957 0.19824 0.22315 0.15599 -0.12257 0.23959 -0.20598 0.35513 0.11012 -0.39499 0.04595 -0.11893 0.061668 0.21973 0.53558 -0.097269 0.40936 0.0029035 -0.11717 0.21388 0.34292 -0.025107 -0.12101 -0.52607 0.47549 -0.37174 0.26915 0.59547 -0.036203 -0.2649 -0.27166 -0.65533 0.12349 0.026267 -0.12616 -0.2614 0.39036 -0.078619 0.24644 -0.76646 -0.36197 0.5364 -0.36048 -0.11197 0.24003 -0.51322 0.28503 0.045569 -0.12508 0.25229 -0.34887 -0.25871 0.61093 0.44458 0.34024 0.2183 -0.16754 0.7843 0.5904 0.43882 -0.11664 0.59275 -0.075813 0.27286 -0.17553 -0.45729 -0.45585 -0.76145 -0.36887 -0.19562 0.26177 -0.15433 -0.22691 -0.061549 0.2495 0.16184 -0.36247 0.034684 -0.17305 -0.11206 0.53891 -0.2602 -0.11643 0.54463 -0.094822 -0.29104 0.052912 0.49344 0.16946 0.61619 -0.056134 -0.56903 -0.085002 -0.12161 -0.0078237 -0.2925 0.29564 -0.181 -0.29588 0.048836 -0.19767 0.29716 0.26996 -0.061197 -0.33572 0.36108 0.23684 -0.042596 0.26132 -0.42245 -0.37233 -0.36234 0.49987 -0.023409 -0.080296 0.052757 0.25385 -0.18729 0.15161 0.41723 -0.045902 -0.21676 -0.35737 0.13565 0.16476 -0.33454 -0.40711 0.035268 0.025994 -0.0034559 -0.14819 -0.034023 0.35715 -0.069505 -0.26047 -0.13595 0.052506 0.21725 -0.1391 -0.57318 -0.097552 -0.22146 0.27566 0.2119 -0.29677 0.2647 -0.49666 0.040962 -0.3003 0.14061 0.14081 0.055308 0.13104 -0.27867 0.59834 0.20953 0.19319 0.28917 0.41309 -0.27294 0.40956 0.1457 -0.10943 -0.041671 -0.069413 0.089853 -0.5191 0.093591 -0.29866 -0.18082 -0.072593 -0.42874 -0.36903 -0.16717 0.31052 0.16854 -0.13484 -0.18708 -0.33986 0.37814 -0.17259 0.026874 0.54877 0.35316 -0.36626 0.37746 0.10666 -0.073394 -0.010373 -0.1402 0.2046 0.40623 0.052544 -0.0176 0.329 -0.060494 0.15345 -0.61591 0.094366 -0.27767 0.59689 0.18543 -0.40106 -0.24931 0.48905 -0.63395 -0.12049 -0.12892 -0.40486 -0.32832 -0.11108 
approach 0.0081246 0.38196 -0.030526 -0.25474 0.10052 0.20297 0.17505 -0.24355 0.1376 -0.056184 0.17073 -0.28687 -0.2195 0.38428 -0.29035 0.10603 -0.6951 0.55544 -0.092609 0.47483 -0.14823 -0.025991 -0.13176 0.029266 -0.028241 0.071944 -0.3502 -0.1935 -0.47346 -0.37272 0.11607 -0.11773 0.21613 -0.22639 -0.35769 -0.13328 -0.54507 0.22059 -0.45887 0.01409 0.10467 0.13964 0.045346 -0.079574 0.069403 -0.34226 0.26342 -0.34255 -0.053322 -0.31098 0.054735 0.25454 0.50725 -0.21969 0.088175 0.12707 -0.5438 -0.54671 -0.15537 -0.32608 0.15555 0.29436 0.42197 -0.11093 -0.51271 -0.085556 0.24479 0.053623 0.012302 -0.039536 0.4634 0.053779 -0.1607 0.34403 0.015458 -0.10619 -0.17228 0.059738 -0.25488 0.21228 -0.53018 0.078486 0.70117 0.0041877 0.261 0.18015 -0.050471 -0.19711 0.14127 -0.58899 -0.27537 -0.10922 0.072289 0.073282 -0.1058 -0.19981 0.1464 0.28318 0.17083 -0.076006 -0.27384 0.32126 -0.066836 -0.51075 0.52558 -0.16553 -0.40948 -0.24103 -0.011983 -0.051017 -0.11498 -0.13016 0.095985 0.071659 -0.011079 -0.51413 -0.20178 0.25862 -0.14718 -0.23097 -0.025469 0.0065825 -0.15227 0.35293 0.025797 -0.18785 0.84289 0.54074 -0.043206 0.18343 0.35424 -0.56921 -0.17177 -0.039588 -0.32731 0.17674 -0.011238 0.307 0.035731 -0.37168 -0.39019 0.13215 -0.27206 0.47219 0.10062 0.21645 0.33282 -0.033663 -0.34109 -0.22073 -0.19141 -0.26703 -0.12865 0.39512 -0.04613 -0.20712 -0.37364 0.36706 0.10976 0.051304 -0.1367 0.085627 -0.083656 0.36208 0.58599 0.68129 -0.068881 -0.39049 -0.47096 0.59917 -0.20302 0.20624 0.038064 -0.3331 -0.039166 0.1199 0.57112 0.32398 -0.084585 -0.050112 0.19657 -0.044745 0.058833 0.50268 0.17957 0.050108 0.08175 -0.06336 -0.52502 0.084826 0.31063 0.061436 0.078954 -0.059027 -0.023959 -0.083301 -0.37124 -0.16023 -0.27674 0.28879 0.6341 0.22071 0.30833 -0.14937 -0.33939 0.36105 0.1769 -0.24854 0.068474 0.44699 -0.019796 -0.27971 -0.48785 -0.014874 -0.96382 0.26299 -0.055004 -0.27721 -0.086632 -0.029491 -0.14954 -0.061817 -0.14626 0.46666 -0.058504 -0.063917 0.054067 -0.48329 -0.57261 0.19646 -0.31603 0.26921 -0.93949 -0.19814 -0.41814 -0.68577 -0.12116 -0.23252 0.11213 -0.32718 -0.49837 -0.088401 -0.63442 -0.38285 -0.14496 0.11512 0.025679 0.16561 0.33081 0.21757 -0.30626 0.28548 -0.15064 -0.26909 0.032851 0.07487 0.34453 -0.59116 -0.34528 0.49798 -0.014073 0.13436 0.13689 0.25757 0.14545 -0.22447 -0.12076 0.3475 -0.43937 -0.040197 0.17979 -0.50139 0.65407 -0.77465 0.026856 0.013807 0.2812 0.42802 0.25177 0.42751 0.43646 0.28197 0.32212 -0.46124 0.40402 -0.26285 -0.14362 -0.4702 0.059828 -0.36513 0.25376 -0.04989 0.16263 -0.23777 -0.12793 0.19296 -0.32886 -0.0055535 -0.48791 0.30269 
implementation -0.033781 0.14383 0.0082066 -0.023031 0.35846 0.14472 -0.22046 -0.014866 -0.11179 -0.12489 0.44781 -0.076828 0.050757 0.22076 -0.16795 0.2677 -0.68529 0.086002 0.055416 0.085058 -0.30183 -0.14178 -0.14048 0.41836 -0.18028 -0.13013 -0.22691 -0.082627 0.058919 -0.033626 0.10976 0.17877 -0.098221 -0.032942 -0.32507 -0.22629 0.12235 -0.079916 -0.1192 -0.0021241 0.063174 0.40297 -0.1973 0.21645 0.27023 -0.13869 0.041576 0.045663 0.12633 -0.3313 0.15111 0.16521 0.38926 -0.14447 -0.024361 -0.10917 -0.15793 -0.0082651 -0.40523 -0.28433 0.31384 -0.30405 0.29845 0.35974 -0.3719 -0.26471 -0.053685 0.18955 0.11432 -0.39527 0.15304 0.40686 0.20313 -0.21795 -0.31519 -0.11601 -0.18977 -0.16638 -0.4237 0.06461 -0.67387 0.17772 0.39079 -0.18445 0.61936 -0.27593 -0.039819 -0.025081 0.13628 -0.074255 0.1503 -0.030568 -0.030794 0.18983 0.1905 0.028532 0.29352 0.54983 -0.24705 -0.066664 -0.17525 0.1246 0.056471 -0.053717 0.18392 -0.151 -0.25875 -0.32074 0.14293 -0.043018 0.15895 -0.057905 0.14394 -0.19402 0.27838 -0.90419 -0.1114 0.36359 0.1808 -0.29907 -0.25378 0.1715 0.10834 0.45565 0.35122 -0.098728 0.42741 0.1365 -0.048685 0.18811 0.26478 0.12035 0.29744 -0.095828 -0.086581 -0.029005 -0.17104 0.20829 0.28781 -0.51557 -0.4282 0.010198 -0.22987 0.21391 -0.010699 0.22054 0.070161 0.50469 -0.6183 -0.12902 0.32215 0.064908 -0.55409 0.2953 -0.16562 0.11932 -0.08224 0.14663 0.21188 0.49763 -0.069694 0.17271 -0.018686 -0.2491 -0.18871 0.11743 -0.21962 -0.68056 -0.35492 0.38107 -0.078502 0.54441 0.36079 -0.031782 0.12977 -0.30798 0.39014 -0.42259 0.23599 0.31609 -0.56393 0.020033 -0.17837 0.16339 0.015636 0.023501 -0.064143 -0.34459 -0.52948 0.075367 0.72036 0.0036158 0.14698 -0.083111 0.10292 -0.43489 -0.12117 -0.31441 -0.65323 0.24919 0.51216 0.02013 0.18831 -0.33004 -0.094579 0.22644 -0.11247 -0.50539 0.25471 -0.20395 0.25018 -0.072636 -0.26037 -0.2047 -0.40126 0.70159 0.0054767 0.17609 0.076786 0.3477 0.18548 0.24838 -0.25457 0.56543 -0.41665 0.40374 -0.37619 0.12102 -0.17113 0.24446 -0.10067 0.49433 -0.54774 -0.07223 -0.031288 -1.0254 0.06545 -0.22758 0.38973 -0.1787 -0.18311 0.14899 -0.072807 -0.082226 0.083674 -0.46332 -0.20283 0.055837 0.037007 -0.06419 -0.056979 -0.0097553 -0.10002 -0.26536 -0.017627 -0.45318 0.15094 -0.26856 -0.025833 0.095123 -0.41542 0.2435 0.43353 -0.070651 0.0844 -0.4305 -0.43402 0.12099 -0.23267 0.095227 0.0859 -0.010291 0.55709 -0.40568 0.092209 -0.0098519 0.30899 0.021896 -0.35875 0.39454 -0.011691 0.21173 -0.18644 -0.26707 0.078485 0.16322 0.099988 -0.5395 -0.029051 -0.12305 0.25989 0.035978 0.0912 0.15065 -0.014787 0.18427 -0.28176 0.43125 -0.61469 0.67091 
arbeitstitel -0.046643 -0.033971 -0.15529 -0.046727 0.016932 0.51351 0.17395 -0.2298 0.16051 -0.093662 0.3784 -0.36554 0.17536 0.2272 0.058901 0.52707 -0.11575 0.17319 0.43613 0.23186 0.012167 -0.18089 -0.254 0.039313 -0.27649 -0.020621 -0.54187 0.058669 -0.20089 0.017925 -0.23942 -0.37564 -0.33283 -0.2955 -0.7047 -0.30347 -0.17779 0.36866 -0.23327 0.20988 0.27319 0.37724 -0.1994 -0.12799 0.0073998 -0.10241 -0.058454 0.18169 0.17644 -0.33575 0.062166 0.17989 -0.25088 -0.026318 -0.097159 -0.46555 0.18601 0.031033 0.062589 -0.050007 0.073295 0.067937 -0.036992 -0.17663 -0.11602 -0.19878 -0.14139 -0.17107 0.21356 -0.41027 -0.1457 0.11488 0.26766 0.21293 -0.24006 0.24851 0.33654 0.17612 0.0041448 -0.11625 -0.16148 -0.022247 -0.34099 0.095447 -0.0029988 -0.33991 0.068951 -0.016167 -0.39105 -0.20124 0.24596 -0.099646 0.3274 -0.10879 0.13249 0.26888 0.28728 0.37333 -0.24667 -0.31392 0.36335 0.13348 -0.083636 -0.016894 0.015093 0.054366 -0.10597 0.099267 -0.233 -0.25821 0.37494 0.099961 -0.027151 0.20945 0.38153 -0.31409 -0.0048318 -0.066718 0.069048 -0.094066 0.19093 0.30465 0.29553 -0.119 0.34538 0.92356 -0.10556 0.39558 0.18644 0.1007 -0.064209 -0.42508 -0.41137 0.048406 -0.11514 -0.17833 -0.06017 0.50483 -0.020009 -0.17164 -0.053293 0.10834 -0.055139 0.53208 -0.004864 -0.26847 0.28775 0.26851 -0.30376 -0.12679 0.27729 -0.13213 -0.15397 0.5985 -0.024395 -0.15198 -0.27273 0.34071 0.13423 0.49912 -0.36201 0.21228 0.11748 0.002088 -0.36622 -0.12058 0.31501 -0.34831 0.12182 -0.19287 0.27825 -0.2642 0.11819 -0.25085 0.09983 0.36326 -0.14585 -0.11747 0.14134 0.25716 -0.18479 0.019155 0.15467 0.17637 0.062211 0.30494 0.19357 -0.17457 -0.23665 0.14568 0.09049 -0.11792 0.066112 -0.29262 -0.45277 -0.33627 -0.16481 0.11933 -0.54339 -0.63176 -0.18058 0.089335 0.17689 0.29207 -0.46647 0.25005 -0.51038 -0.44063 0.25428 -0.3225 0.52771 -0.17936 0.13804 0.48673 -0.46547 0.25405 -0.16143 -0.084084 0.21805 0.028765 0.10717 -0.40654 -0.027184 -0.087683 -0.10181 -0.13689 0.071692 -0.18194 0.049983 0.12362 -0.051587 0.43751 0.070147 0.17174 0.2688 -0.10832 0.453 -0.26084 0.037824 -0.17343 -0.16216 0.28038 -0.11682 0.098858 0.17332 -0.33376 0.42418 0.13137 -0.52423 0.019613 -0.12527 0.30112 -0.20211 0.16209 -0.093546 0.099256 0.09178 -0.1525 0.021297 -0.044198 0.28246 -0.14313 0.12801 -0.077225 0.20142 0.18433 -0.18772 0.029956 0.0502 -0.31861 -0.052875 0.25729 -0.265 0.0081857 -0.073838 -0.21817 0.055234 0.0021508 -0.41112 0.11651 0.28006 -0.26854 -0.086315 0.15971 0.02648 -0.23094 -0.12708 -0.16127 -0.37231 0.14322 0.04778 -0.016239 -0.092033 0.41046 0.081641 -0.15116 -0.35077 -0.11203 -0.010725 0.22008 
abkehr -0.35761 0.19302 -0.34332 -0.27139 0.18574 0.58965 0.15102 0.052254 0.071951 0.1362 0.28684 -0.45428 -0.14807 0.22418 0.38718 0.057274 0.015382 -0.13607 0.092836 0.1228 -0.050724 -0.17311 0.044749 -0.14496 0.068241 -0.55812 -0.14283 0.19395 -0.2746 0.20497 0.32693 0.30225 0.48842 -0.2371 -0.48087 0.213 -0.33224 -0.37013 -0.074285 0.081739 0.18109 -0.046514 0.15045 0.01672 0.43793 0.12512 0.23813 0.29764 0.20629 -0.18305 -0.20738 0.1667 0.098265 -0.38535 -0.061059 -0.019098 -0.14282 0.0090755 0.17586 0.15311 0.059184 0.012667 0.068228 -0.047656 -0.48073 -0.042838 0.40758 0.41201 0.33386 0.023019 -0.20115 0.23727 -0.14392 0.10929 -0.091335 0.18647 0.088886 0.01844 0.018423 -0.17565 0.21946 -0.11744 0.70574 0.15878 0.21338 -0.57188 -0.038351 -0.14574 -0.02303 0.1433 0.089972 -0.33613 -0.2807 -0.257 -0.085958 0.028718 -0.020286 0.30059 -0.13234 -0.052879 0.15948 0.10618 0.15727 -0.35075 -0.45497 0.34371 -0.068282 0.1123 0.086395 -0.16055 -0.30587 -0.15167 -0.094647 0.031284 0.46288 -0.090571 0.34466 0.049136 -0.19106 -0.17612 -0.23459 0.15284 -0.22353 0.57227 0.32107 0.12246 -0.4743 0.81592 0.020017 -0.18066 -0.19429 -0.24253 -0.41477 0.19797 -0.096443 0.3094 0.058401 0.074401 -0.78472 -0.073666 -0.4919 -0.038148 -0.14063 0.094887 -0.04769 -0.18182 -0.096507 -0.19692 -0.11086 -0.056655 0.44505 -0.19913 0.059299 0.37148 0.06284 -0.12064 -0.49711 0.21009 -0.19436 0.15871 -0.0058716 0.021969 -0.6963 0.11381 0.11168 0.0044473 -0.47028 -0.074949 -0.33226 -0.10021 0.18169 0.13277 0.15121 0.085182 0.19841 0.010709 0.20499 -0.24787 -0.34664 -0.051483 -0.005093 0.031383 0.086469 0.058605 0.072556 0.33531 0.21868 0.070808 -0.47072 -0.18005 0.63015 -0.4068 0.12479 0.0034537 0.053961 -0.31852 -0.46131 0.21864 -0.04427 -0.033295 -0.16579 0.51633 0.13126 -0.17645 -0.0218 0.0083835 -0.059555 -0.19633 0.11129 0.33929 0.42525 0.49965 -0.019481 -0.13954 -0.39538 0.37209 0.089186 0.1063 0.66461 0.43952 0.19687 -0.12216 -0.20537 -0.10578 0.019099 0.20761 0.060236 -0.22353 -0.08336 0.015949 -0.12131 0.36821 -0.44934 -0.12998 0.25743 -0.14573 0.023289 0.022035 -0.38218 0.30904 -0.26581 -0.23071 -0.01695 -0.0010691 0.04869 -0.68586 0.0013722 -0.18322 -0.33783 0.11703 0.11283 -0.13597 -0.15769 0.69017 0.41059 0.024853 0.25085 -0.20376 0.4889 0.40599 -0.16985 -0.24372 -0.52531 -0.10408 0.017105 -0.65703 -0.26339 0.17262 -0.009417 -0.083718 0.047632 0.024526 0.43505 0.080947 0.021309 -0.025448 0.27902 0.15889 0.15404 0.07643 0.17291 0.14277 0.45127 0.011847 0.060052 0.29031 -0.17495 0.060335 -0.41575 0.20124 -0.2322 0.42966 -0.20864 0.23816 0.028534 0.059532 0.093186 0.15387 0.16409 0.035995 
assistentin -0.35656 0.42791 -0.2412 -0.31114 0.0601 0.19166 -0.51461 -0.28317 0.14352 0.783 0.13644 -0.059868 0.54955 -0.43344 -0.29158 0.50047 -0.20713 0.26297 0.098826 0.26156 0.2267 -0.26424 -0.23963 0.43076 -0.40704 0.011411 -0.17183 0.47686 -0.015652 -0.21635 0.30064 0.36393 0.21156 0.096404 -0.13504 -0.12639 -0.28698 -0.33877 -0.40264 0.50299 0.21925 -0.016075 0.32424 0.27578 0.015659 -0.27148 -0.11372 -0.60418 0.40844 -0.5504 0.19438 -0.027125 0.046692 0.24968 -0.26782 -0.17282 -0.1772 0.40967 0.19788 -0.036498 0.012008 0.14206 -0.15418 0.30039 -0.055124 -0.21127 0.17276 0.28637 0.36663 -0.34004 -0.16081 -0.024686 0.070561 0.32965 0.054445 -0.13403 -0.096399 0.066369 -0.12695 -0.088616 0.21639 -0.21865 -0.19862 0.41058 0.022734 0.18913 0.17744 -0.11055 -0.07867 -0.11829 0.45137 0.04539 -0.52741 -0.52312 0.35597 -0.036178 0.12063 0.21583 -0.57114 0.049399 0.26353 -0.31461 0.055074 -0.0094003 0.16233 0.19038 -0.21437 0.37513 -0.40363 0.17234 -0.21423 -0.21656 -0.034276 -0.3261 0.17699 -0.45991 0.22984 -0.31067 -0.030711 -0.25407 0.25975 -0.056375 0.13823 0.3054 0.28553 0.028103 -0.057435 0.088096 -0.25361 -0.12665 0.038709 -0.31826 -0.20258 -0.23741 0.36637 -0.25113 0.18733 0.15325 0.55929 -0.35001 -0.67364 -0.32191 0.34748 0.60446 0.0274 0.010435 0.013603 -0.1208 0.47543 0.11629 0.14899 0.11582 0.32898 0.40468 0.30488 0.013222 -0.21559 0.035413 -0.015723 0.072047 -0.0051266 0.47786 0.074807 0.31581 -0.38118 0.08973 -0.073824 0.18286 0.14376 -0.56593 0.1498 0.12768 0.25386 -0.065998 -0.35466 0.73893 0.15528 -0.32069 0.010023 -0.28243 -0.40311 0.31642 0.22176 -0.024462 0.077638 -0.12187 -0.10828 0.028868 -0.45615 0.13449 0.47448 -0.094454 -0.10523 -0.48879 0.3853 -0.13742 0.097783 0.25792 -0.20378 -0.13022 -0.19129 -0.026117 -0.17685 0.29733 0.089891 0.32204 -0.079546 0.11462 0.23034 -0.38128 0.54798 -0.26665 -0.27978 -0.43196 -0.57961 -0.0073435 -0.39084 0.029072 -0.38658 -0.31975 -0.44237 -0.21541 0.15057 0.46131 -0.76068 0.026007 0.3557 -0.59316 0.29644 0.17688 0.19396 0.16112 -0.45943 -0.15933 0.32941 -0.8849 0.010392 0.18753 0.30711 -0.25438 0.040906 0.02341 -0.28372 0.27469 0.073555 0.19478 0.40426 -0.032868 -0.43421 -0.02245 -0.14251 -0.30426 -0.20566 -0.19782 0.45853 0.071399 0.043603 -0.56477 0.05236 0.11538 0.35374 0.004829 -0.31332 0.1853 -0.12283 -0.1205 -0.0326 0.22679 0.017631 -0.10117 -0.17403 0.16118 0.099402 0.0088184 -0.091756 -0.3538 0.067794 0.061635 -0.32971 0.32065 0.11901 0.33475 0.040356 0.07854 0.22296 -0.31431 -0.25081 0.18807 -0.10233 0.84626 -0.044686 -0.12605 0.56749 0.38069 -0.1355 -0.11149 -0.080716 -0.53919 0.0515 0.51966 
überblick -0.17221 0.13704 -0.49895 0.16244 0.39531 -0.030091 -0.20804 0.079687 0.24933 0.023364 -0.007741 -0.51368 0.16335 -0.039749 0.10832 0.23848 -0.36731 -0.15116 0.5178 -0.031809 -0.16401 -0.2067 -0.015137 0.063587 -0.11705 -0.43647 0.1171 -0.26627 -0.1734 -0.42104 0.20211 0.42569 -0.019958 -0.19594 0.10709 0.48026 0.15453 -0.17542 -0.11504 -0.31731 -0.29205 0.025903 -0.24077 -0.0069279 -0.066444 0.23255 0.078671 -0.55732 0.07658 -0.4612 -0.060786 -0.11295 -0.14857 0.40487 0.29753 -0.0056452 -0.055872 -0.11375 -0.19977 0.11982 -0.18597 -0.17786 -0.23611 0.39511 -0.093057 -0.41184 -0.080606 0.065368 0.19056 -0.19376 0.32436 -0.071476 0.099159 0.18707 -0.12323 0.12766 -0.033294 0.39375 -0.033235 0.30697 -0.038141 0.14407 -0.15069 -0.061358 0.63281 -0.33175 0.52293 0.131 -0.47101 0.075135 0.052944 0.25474 -0.30264 -0.11446 0.18149 -0.13303 0.2958 0.55731 -0.10986 -0.18084 0.033476 0.50128 0.023584 -0.10895 -0.33614 0.26318 -0.26375 0.15101 0.15341 -0.050892 -0.23518 -0.22972 -0.34853 -0.35594 -0.26019 0.37508 0.039189 -0.15441 -0.41394 0.27426 0.3314 -0.057814 0.224 0.67709 0.17379 -0.16795 0.06145 -0.059841 0.19855 0.10543 -0.11095 0.044373 -0.064585 0.12799 0.56964 0.035918 -0.29819 0.1894 -0.17834 -0.17632 -0.060952 -0.067091 0.0054765 0.2579 0.27422 -0.21106 0.28841 0.14141 0.052523 0.048942 0.3975 -0.031397 -0.24024 0.69077 -0.42467 -0.051946 0.072764 0.2703 0.62941 0.34806 0.20323 -0.090783 0.21926 -0.20699 0.13203 -0.13836 0.077732 -0.03502 -0.25449 0.49778 -0.56523 0.23389 -0.1125 0.36087 0.098873 -0.42906 -0.267 0.10639 -0.25764 0.1965 -0.30624 -0.094058 -0.21798 -0.095619 -0.23208 -0.23859 -0.0029756 -0.40627 0.12458 -0.27528 0.6009 0.16994 0.1572 0.068061 -0.0043699 0.19687 0.16389 -0.38845 -0.023446 -0.12858 -0.038097 0.054753 0.33005 0.18431 -0.54344 -0.0060398 -0.54889 -0.18752 0.07712 0.0969 -0.058988 0.30514 0.11004 0.31926 -0.30594 0.22035 -0.2552 -0.26822 -0.13497 0.58114 0.24953 0.13472 -0.010496 0.38939 -0.13859 0.38095 0.14716 -0.10453 -0.21059 0.023645 0.029711 -0.044041 -0.44467 0.051672 0.061555 -0.47339 -0.65072 -0.11918 -0.099357 -0.073866 -0.02604 0.027293 0.081485 0.16382 -0.14649 -0.087469 0.13893 -0.012956 -0.14708 -0.26063 -0.021697 0.28041 0.24562 0.10282 0.39437 -0.25924 -0.16236 0.11326 -0.40051 0.18387 0.53752 0.046631 0.04714 0.26128 0.071903 0.15806 0.47954 0.50889 -0.089368 0.047677 -0.54442 0.38861 0.68885 0.25523 -0.17456 0.16671 -0.090592 0.17307 0.30106 0.23598 0.097538 -0.13674 0.15296 -0.5527 -0.041374 0.3079 0.14549 -0.014375 -0.26329 0.44187 -0.34219 0.09137 0.30622 0.10309 -0.51838 0.080527 -0.61457 0.46067 0.026208 0.49444 
aufgabe -0.22969 0.11507 -0.077362 -0.40513 -0.012207 0.023916 -0.35905 0.20778 -0.081829 0.20102 0.38593 0.18495 0.048875 -0.13075 -0.060919 0.21166 -0.1127 0.10113 0.12836 0.14975 -0.0052422 -0.041507 0.028566 0.15719 -0.25196 -0.28737 0.11383 0.56844 -0.21212 -0.35137 -0.040594 0.48153 0.16839 0.11182 0.0062145 -0.056823 -0.015087 -0.26849 -0.22613 0.21704 0.070792 -0.1059 0.17931 0.10146 0.13102 0.15377 -0.23949 -0.052553 0.23626 -0.28322 -0.10592 -0.082961 -0.12508 0.069814 0.24369 -0.065759 -0.0084479 0.15613 -0.1439 -0.14162 0.14115 -0.07953 0.033507 0.061831 0.18156 -0.36491 0.12794 0.11241 0.37077 0.087991 0.097153 0.089216 0.01427 0.088359 -0.30064 0.30925 -0.10429 0.0022929 -0.032032 -0.24476 -0.11961 0.31586 0.29992 0.08526 0.47969 -0.1568 0.067151 -0.074433 0.23172 0.039541 0.058315 -0.30738 0.080987 0.22865 0.14681 -0.15213 0.088412 0.32291 -0.29551 -0.1113 0.23414 -0.25986 -0.042185 -0.14475 0.11529 0.0086284 0.078748 0.1954 0.13036 -0.34019 -0.1432 0.055262 0.046265 -0.38293 -0.029994 -0.19595 0.30332 0.23028 -0.15913 -0.17816 0.10586 -0.1182 0.26429 0.0038539 -0.075449 -0.045863 -0.053166 0.49161 0.097131 0.1207 0.20967 0.015869 0.18227 -0.26759 -0.23884 0.087259 0.029676 0.0022649 0.36753 -0.15243 -0.26395 0.048627 -0.51908 0.54282 -0.34684 0.12864 0.031772 0.057533 0.069965 -0.045665 0.44898 -0.16009 -0.2554 0.28423 -0.12646 0.14897 -0.030435 0.30808 -0.2821 -0.11312 -0.1475 0.11047 -0.1532 0.081658 -0.052258 -0.15151 0.29175 -0.13441 0.13135 0.301 -0.3753 -0.043309 -0.25752 0.22432 0.35852 0.37208 -0.16478 -0.041496 0.13671 0.14771 -0.18278 0.14834 -0.22387 -0.026961 -0.3836 -0.030735 0.34962 -0.26021 -0.017342 -0.11218 0.24241 -0.46475 -0.054031 -0.1254 -0.20956 -0.17159 -0.067588 -0.063882 -0.20076 0.34202 0.018929 0.16178 0.11152 0.0086825 0.045423 0.12336 -0.0088544 -0.12311 0.10442 0.13257 0.17687 0.23686 -0.056594 -0.12274 -0.10804 0.30943 -0.35595 0.39323 0.060254 0.1295 -0.12696 0.15211 0.17601 0.32443 -0.2082 -0.00072969 -0.12212 0.17855 0.039477 0.48132 0.11828 0.036368 -0.48914 -0.10678 -0.11041 -0.078479 -0.091926 -0.10732 0.11327 0.0031887 0.21925 0.31741 0.071503 0.087648 0.017558 -0.27471 0.18589 0.08539 -0.18665 0.30926 -0.20781 -0.2365 0.10973 0.19065 -0.091989 -0.19031 -0.1768 -0.33727 0.24353 -0.047383 -0.1529 0.17233 0.0034378 0.12242 0.1383 -0.22799 0.021921 0.037183 0.3095 -0.089249 -0.093734 0.069587 0.13798 0.12392 -0.064562 0.046501 0.027543 0.41904 -0.33349 0.5715 -0.14945 -0.045478 -0.090417 -0.33614 -0.064975 -0.018597 -0.32613 -0.061869 -0.089249 -0.0060871 -0.075249 0.10469 0.047191 0.071376 -0.7251 -0.061941 -0.10906 0.17375 0.14716 -0.066467 
vertriebstechniker -0.2199 0.41119 0.015015 -0.22867 -0.14218 0.44434 -0.14592 -0.36257 0.10815 -0.29014 0.098888 0.075102 0.26479 -0.081755 -0.32832 0.20519 0.026323 -0.00098522 0.53609 0.096947 0.15775 -0.079162 -0.17845 0.17375 -0.086246 -0.25819 -0.38602 -0.34087 0.20969 0.05706 0.019441 0.11306 0.28563 0.45286 0.1889 -0.54259 0.028271 -0.28823 -0.31788 -0.027172 0.13657 0.07093 -0.33356 0.31369 0.18579 -0.63192 0.31454 0.018167 -0.027206 -0.22062 0.067521 0.14896 0.35875 0.34436 -0.094853 -0.1017 -0.12518 -0.2679 0.2488 0.10867 -0.2205 -0.23797 0.028649 -0.048012 -0.42239 -0.63645 0.16108 0.050038 0.086667 0.0094711 0.051964 -0.55214 0.23663 0.5972 -0.050925 0.055542 -0.10368 -0.01871 0.46845 0.18698 0.27286 0.11735 0.36208 0.18256 0.24485 -0.22168 0.29248 -0.004654 -0.22598 -0.040286 0.033062 0.12621 0.24326 0.24616 0.24609 -0.41562 -0.29439 0.0052986 0.058814 0.15673 0.058586 0.080641 0.1441 0.43781 0.24879 -0.03382 -0.1603 0.24216 0.36402 0.024837 -0.10897 -0.20372 0.36736 -0.10048 0.11539 0.06401 -0.060978 0.020715 -0.17117 0.093225 0.17684 -0.10772 -0.39175 0.17965 0.49789 0.11852 0.023056 0.31536 0.033756 -0.26409 0.43562 -0.17266 0.059623 0.40766 -0.025995 0.012409 0.022085 0.02301 0.014757 -0.11508 -0.10133 0.061754 0.06552 0.54214 0.24829 -0.27029 0.28178 0.054453 0.26263 0.1025 0.50898 0.054983 -0.30665 0.042919 -0.23462 0.097525 -1.0005 0.1987 0.13412 0.35124 -0.017256 0.12596 -0.36688 0.48764 -0.23577 0.19196 0.34249 -0.089475 0.085474 -0.075368 0.25739 0.0045524 0.41899 -0.065551 -0.11563 -0.18294 0.045338 0.39346 -0.4422 0.23693 -0.083978 0.21179 -0.23347 -0.09646 -0.5527 -0.20394 0.18908 -0.059701 -0.47125 0.50263 0.38102 -0.42581 0.13016 0.034062 -0.62664 -0.22188 0.35465 0.41771 -0.071591 -0.31645 -0.092136 -0.018512 0.16551 0.036815 -0.22581 -0.25881 -0.40557 -0.37931 0.54948 -0.26919 0.38639 -0.1783 -0.015759 -0.38993 -0.36497 0.10667 -0.075354 -0.067059 -0.064767 0.070369 0.22978 0.036507 -0.22008 -0.090691 -0.27474 -0.26133 0.11159 -0.32834 -0.027635 0.001851 -0.09796 -0.11471 -0.0057886 -0.27394 -0.14413 -0.12148 0.0626 -0.53784 0.01089 -0.1609 -0.14259 0.21311 0.042722 0.21688 0.01857 -0.31364 0.12074 -0.060321 -0.37851 0.26667 -0.20932 0.1259 -0.39603 -0.087865 0.029706 0.10639 -0.045874 -0.070978 -0.36794 0.066191 0.10139 0.11682 0.28868 0.31465 -0.24366 -0.22495 -0.032473 -0.012705 -0.18099 0.30295 -0.32423 0.36523 0.17901 -0.1987 0.11472 -0.24922 -0.1813 0.013682 -0.38368 0.14966 -0.15595 0.52884 -0.27716 -0.074044 0.43275 0.2143 -0.3987 -0.5706 -0.018476 0.13641 0.052919 -0.26986 0.25251 -0.40475 -0.058341 -0.24613 -0.26131 -0.034422 -0.070874 0.19332 
aufsuchen -0.40562 0.18849 -0.13014 -0.26327 -0.17845 -0.24673 -0.29162 -0.15992 0.0040123 0.092613 0.082971 0.068538 0.29606 -0.22816 -0.66204 -0.12704 -0.073304 0.19806 0.080244 0.019257 0.15652 0.33751 0.039502 0.22674 0.2604 -0.25442 0.32867 0.10475 -0.36343 -0.49876 -0.067045 0.25271 0.13957 -0.018956 0.22619 0.16771 -0.19641 -0.17804 0.16789 0.1469 0.014879 -0.091543 0.10256 -0.028093 0.092886 0.061985 0.054178 -0.081433 -0.27559 0.30146 0.018595 -0.2683 -0.024129 0.57089 0.086417 0.013202 0.48087 -0.1178 -0.0020333 -0.081181 0.31108 0.14389 0.15153 -0.037904 -0.0031744 -0.36822 -0.060844 -0.30395 0.20235 0.019502 0.258 -0.30123 0.014179 0.1398 0.23388 0.22973 -0.062483 0.028629 -0.069211 -0.091695 -0.46473 -0.11839 -0.22504 0.20048 0.30641 -0.27232 0.16377 0.20633 -0.50597 0.1601 -0.012817 0.26457 -0.036828 0.10897 0.14758 0.064328 -0.1249 0.20401 -0.55894 0.32816 -0.04473 -0.033749 -0.41016 0.1438 0.27006 -0.35931 -0.37111 0.22009 -0.10818 -0.054982 -0.06044 0.026739 0.11604 -0.071594 0.10044 -0.41831 -0.24589 0.00051366 -0.074421 0.2381 0.14128 -0.23244 -0.042813 -0.071548 -0.013368 0.10332 -0.06096 0.0036399 0.27852 -0.1187 0.52846 0.11916 -0.26469 0.13852 -0.19977 0.1751 0.18651 0.0081475 0.56657 -0.27191 -0.079004 -0.10019 -0.37212 0.44549 -0.45469 0.50355 0.01008 -0.23208 -0.0053453 0.1761 0.18868 -0.21528 -0.23482 0.19635 -0.46252 -0.20994 -0.57539 0.42855 -0.095311 0.48592 -0.50864 0.3596 0.0014215 0.24841 -0.30968 0.19442 -0.084249 0.11951 -0.15742 0.072616 0.0030721 -0.039465 -0.054071 0.10632 0.13257 0.060263 0.22296 -0.275 0.084821 -0.04782 0.19163 -0.28832 0.028643 0.0033488 -0.17624 0.029228 -0.16625 -0.16781 -0.20784 -0.13923 -0.19331 -0.22224 0.073143 -0.14265 0.023283 0.023796 -0.22782 0.3549 -0.41884 0.025374 -0.16485 0.23142 -0.15156 0.025046 0.18706 -0.28694 0.031322 -0.56866 0.079934 0.091257 -0.06614 -0.058681 0.27564 -0.017328 0.18022 -0.25791 -0.10272 0.14164 -0.19957 -0.069928 -0.16945 0.012303 -0.053648 -0.012756 -0.099957 0.53799 0.18425 0.26752 -0.063254 0.56279 -0.2279 -0.23131 -0.59169 -0.32657 -0.51013 0.12723 -0.54438 -0.21451 -0.037821 0.11624 -0.1924 -0.070879 0.15793 -0.0081412 0.0043018 -0.048528 0.40313 0.18345 -0.40348 0.39908 -0.26466 0.26681 -0.27421 -0.15647 -0.12337 -0.19407 0.32586 -0.43669 -0.45313 -0.41525 0.64517 -0.27746 -0.017582 0.0034996 -0.30663 0.40829 0.23664 0.18713 0.16732 -0.26461 -0.12995 0.1472 0.46517 -0.23896 0.21943 -0.22385 0.29924 0.13078 -0.026443 0.56207 0.11509 -0.30554 0.14611 -0.022369 -0.076286 -0.30019 -0.031905 0.30309 -0.42904 0.19662 0.091981 0.18063 0.53616 0.387 -0.26888 -0.19875 0.024951 0.34183 0.21956 -0.27207 
adäquat -0.10483 -0.37602 -0.14129 -0.05928 0.11572 -0.061925 -0.27067 0.03189 0.19827 0.13318 -0.28596 -0.17842 -0.018078 -0.53809 -0.07588 -0.35352 -0.25115 0.28873 -0.27301 0.44636 0.18686 0.33966 0.13316 -0.12836 -0.27248 -0.27084 0.15318 0.31909 -0.20073 -0.55506 0.4689 0.16478 -0.0070352 0.039813 -0.02139 0.32264 0.20011 0.079841 -0.070593 0.20102 -0.16322 -0.57116 0.055636 0.0076257 -0.14356 -0.0059643 0.39693 -0.21714 -0.22705 -0.25683 -0.40351 -0.10964 -0.22743 0.34279 0.043883 -0.019048 0.090607 -0.21229 0.0069826 -0.03847 -0.025791 0.15353 0.87383 -0.013064 -0.050755 -0.6339 0.18496 0.042087 0.21699 -0.15725 -0.039903 0.17929 -0.33945 0.13968 -0.34892 0.15634 0.097566 0.19302 -0.025129 -0.20631 -0.35372 0.28419 0.15852 0.041662 0.38388 -0.046408 0.0053395 0.16934 0.2121 -0.056986 0.087518 0.032122 -0.26825 0.088012 -0.049102 0.10117 0.24826 0.093298 -0.10957 -0.31315 -0.16358 -0.17855 0.21817 -0.47798 -0.0037981 -0.11869 -0.13772 -0.15927 0.099838 -0.29131 -0.18741 0.014505 0.13612 -0.028736 -0.076315 -0.10849 -0.19079 0.17283 -0.56338 -0.043763 -0.20753 -0.055417 -0.0017013 0.25807 -0.18328 0.089891 -0.16072 0.34192 -0.084601 0.097516 0.2945 -0.070264 -0.031068 0.048153 -0.17043 0.32051 -0.17689 0.1491 0.29562 0.081212 -0.24756 -0.14678 -0.24376 0.40207 -0.44989 -0.050378 0.32605 0.40199 0.089523 0.16203 0.4 -0.31482 -0.1606 0.37209 -0.25988 0.11766 0.14822 0.21985 0.25247 0.19343 0.092889 0.31501 -0.10073 -0.067459 0.037631 0.20256 -0.1545 -0.077204 0.014163 0.087653 0.087166 -0.087146 -0.38004 0.21493 0.068609 0.10461 0.013206 -0.24588 -0.14537 0.18412 0.12175 -0.14909 0.029276 0.056579 -0.68447 0.061034 -0.095714 -0.29102 -0.11274 -0.021373 0.4547 -0.30464 0.2286 -0.075826 -0.30734 -0.032137 -0.023247 0.12265 -0.34083 -0.10577 -0.067719 0.19245 -0.041885 -0.27577 0.024296 -0.015015 0.055334 -0.2748 -0.012142 0.51543 0.35371 -0.29272 0.074202 -0.12662 -0.42812 0.25749 -0.34042 0.0069163 0.016597 0.40206 0.29026 0.21418 0.42466 0.39006 -0.44535 0.072841 -0.22018 0.078494 0.039957 0.19588 0.14751 0.060441 -0.027824 0.16032 0.21807 -0.1832 -0.14031 -0.033989 -0.45297 -0.25606 -0.011838 0.019008 0.10024 0.081573 0.27395 -0.25847 0.011222 0.057158 -0.14186 -0.12015 -0.10843 -0.14276 -0.28618 0.29033 0.056289 -0.20067 0.078383 -0.46857 -0.25427 0.27979 0.1398 0.0025788 0.067397 0.15434 0.063141 -0.067055 -0.027005 0.043383 -0.18368 -0.11466 -0.05641 0.23892 0.49972 0.28646 0.058322 -0.047597 0.50409 -0.044646 -0.060667 0.096938 0.011117 -0.044242 0.30557 -0.35466 0.15144 0.24518 0.10003 -0.08822 -0.24993 -0.18185 -0.24663 0.26231 -0.21203 -0.062803 -0.095025 -0.10443 0.30284 -0.071051 -0.13472 -0.23569 
ausbildung -0.14892 -0.033801 0.14348 -0.18666 0.13896 0.52065 -0.086589 -0.013657 0.18183 0.63077 0.32157 0.24386 -0.3847 -0.10107 -0.40033 0.41059 -0.38409 0.096308 0.23505 0.13946 0.101 -0.095737 -0.15972 -0.086889 0.07112 -0.65852 0.24015 -0.10325 -0.0368 -0.011941 0.027237 0.40041 0.15579 -0.14337 0.15078 -0.12917 -0.16815 -0.5359 0.20417 0.18277 -0.019142 -0.80936 -0.15066 0.75163 -0.045833 -0.8253 0.46346 -0.5825 0.32328 -0.52321 0.19255 -0.39955 0.067538 0.28895 0.07262 -0.12045 -0.29887 0.047673 -0.20316 -0.07386 0.15968 0.32511 -0.50238 -0.43904 -0.3267 -0.21065 -0.049878 -0.030182 0.32255 0.23141 -0.19074 0.11025 0.38177 0.1383 -0.47864 0.0064371 -0.5191 -0.26697 -0.2335 0.52077 0.15248 0.36371 0.10848 -0.014176 0.28427 -0.46245 -0.026906 0.10363 -0.20772 0.16471 0.39483 -0.27429 -0.059976 -0.37603 0.0075087 0.10858 -0.22109 -0.13806 -0.37662 -0.41631 0.056645 -0.18763 -0.36009 -0.11385 -0.11877 -0.041655 -0.17825 -0.0076656 0.039053 0.42887 -0.4263 -0.17165 -0.035645 0.12784 -0.20051 -0.0027087 -0.11553 0.38929 -0.31557 -0.23951 0.29956 0.048268 0.083847 0.48233 0.48509 0.040132 0.054011 0.50288 -0.33695 0.17562 0.23873 -0.24862 0.013792 0.16833 0.23444 0.22346 -0.26411 0.25509 0.49117 -0.30437 -0.29201 0.1839 -0.46912 0.66312 0.0073972 -0.0030013 0.28827 -0.30226 0.43663 0.0037295 0.33709 0.35412 0.18996 0.21836 0.22577 -0.1123 -0.339 0.1811 -0.01763 -0.43967 0.069438 0.075866 -0.21103 0.26514 -0.3981 -0.055924 0.34068 0.26409 -0.34423 -0.35661 0.016703 0.16208 0.3994 -0.087651 0.19106 0.36684 0.40789 0.099321 -0.12836 0.18455 -0.2388 0.17636 0.12796 0.065655 -0.33734 0.10754 0.049645 -0.13215 -0.25932 -0.12799 0.31404 0.025684 0.11211 0.314 -0.11069 -0.385 -0.16523 0.17141 -0.13547 0.14082 0.2631 0.36073 -0.027302 0.13967 -0.089555 0.10661 -0.23859 -0.28573 -0.062339 -0.47868 -0.016598 -0.10936 -0.062154 -0.15299 -0.51018 0.2561 -0.10175 0.30488 -0.00091889 -0.34687 -0.038619 0.11647 -0.014848 -0.082576 -0.31794 -0.0085386 0.25141 -0.22271 -0.15622 -0.049327 -0.42993 -0.046856 -0.20698 0.14201 -0.47703 -0.052758 -0.09736 -0.31687 0.076593 0.16943 -0.33364 -0.13086 -0.033564 0.16618 0.21086 -0.049232 -0.056154 -0.33477 -0.15188 0.02831 -0.081332 -0.16997 0.13301 0.027078 -0.058808 0.14071 0.06502 -0.14436 -0.18532 -0.13944 -0.058093 -0.45418 0.07757 0.43687 -0.0071258 0.067581 -0.30542 0.10683 -0.092152 0.54717 -0.079651 0.28208 0.53619 -0.20122 -0.14633 -0.23489 0.19066 0.11936 -0.584 0.26701 0.24284 0.37365 -0.20129 0.095507 0.14564 -0.14935 -0.012075 0.19392 -0.12289 0.067777 -0.18764 -0.16297 0.1563 -0.0020553 -0.57366 -0.13186 -0.10857 -0.14219 0.078997 -0.12283 
beispiel -0.05734 -0.031737 0.038218 -0.16362 0.036118 -0.090251 0.23094 0.13538 0.018552 -0.039236 -0.16743 0.082965 0.11941 -0.22212 -0.07932 -0.05277 0.020409 -0.048771 -0.25726 0.058298 0.21579 -0.015857 0.31186 0.037165 0.15274 -0.16336 0.049361 -0.098298 0.081 -0.29194 0.14936 0.15267 0.34442 -0.10434 -0.018027 -0.18672 -0.002556 -0.065974 0.02256 0.10281 -0.15813 -0.091346 -0.20721 0.22037 0.12369 -0.2032 0.15368 0.030837 -0.1547 -0.42856 0.040405 0.10821 -0.33368 0.23075 0.059298 -0.024831 0.17156 -0.054883 0.0086196 0.11953 0.24774 0.077363 0.08243 0.088198 -0.15778 -0.29468 0.11198 -0.019695 -0.15185 -0.025183 -0.0065274 0.30394 0.12177 0.27764 -0.011025 -0.071845 0.11756 -0.089617 0.0076043 -0.37882 -0.36367 0.010909 0.29931 -0.0075796 -0.023106 -0.27475 0.063643 0.050384 -0.4995 0.14671 0.021735 -0.046617 -0.09471 -0.19117 0.1228 -0.036743 0.11935 0.16776 -0.34426 0.10044 -0.26309 -0.16395 -0.12579 -0.018498 -0.014828 0.10037 -0.1964 0.2458 -0.18275 -0.10222 0.1405 -0.27821 0.24002 -0.17363 0.086556 0.095997 0.26177 0.28659 -0.19844 -0.13272 -0.16499 -0.11863 0.083439 0.28149 0.1236 0.33551 -0.048066 0.033654 0.043846 0.012789 -0.045044 0.23248 0.13832 0.22843 0.24041 -0.0014603 0.15718 0.034652 0.14858 -0.30133 -0.24384 0.066699 0.1657 0.12798 -0.22417 0.13207 0.28506 0.20693 -0.091673 -0.20886 0.13952 -0.11776 -0.28741 0.0082497 -0.20173 -0.089733 -0.072646 0.038507 0.27736 0.19392 -0.034704 -0.027445 0.10681 0.051727 0.063866 -0.05323 -0.21721 0.25182 -0.28699 0.4433 0.13023 -0.14498 0.033563 -0.038928 0.026076 -0.043646 0.069145 -0.4695 0.024536 0.031568 0.2648 -0.17498 0.028941 -0.19888 -0.15344 0.25272 -0.045241 -0.28043 -0.20446 0.051984 0.3567 -0.14825 0.024781 0.11755 -0.061432 -0.25873 -0.11197 -0.11488 -0.36589 0.070107 -0.093282 0.039575 0.29941 0.058128 -0.44352 0.15949 0.086023 -0.16933 0.28629 0.023734 0.213 0.13715 0.12578 0.064515 -0.29132 0.14798 -0.070076 0.015484 0.052034 0.15268 0.20182 -0.030099 -0.089405 0.23569 -0.12455 0.22624 0.041923 -0.13988 -0.17421 0.089433 0.10218 0.17546 -0.29811 -0.16547 0.33566 0.14926 -0.094902 -0.1548 -0.037601 -0.26446 0.031511 -0.13728 -0.077406 0.060647 -0.073497 -0.12131 -0.046078 -0.1597 0.08987 -0.10724 -0.11989 0.20421 -0.075523 0.041908 -0.033049 -0.2019 0.057776 -0.011321 0.099686 0.088308 -0.029318 -0.21354 -0.27311 -0.10369 0.0079827 0.20466 -0.039621 -0.031802 0.021264 0.010893 -0.0732 -0.041444 0.3039 0.071933 -0.036684 -0.09617 0.024961 0.15815 -0.084254 -0.0028212 0.16684 0.058549 -0.10172 -0.24963 0.057594 0.0073698 0.27525 0.07112 -0.029283 -0.099695 -0.061762 0.26348 0.076427 0.30468 -0.024472 0.21402 -0.39584 -0.17705 -0.098108 -0.071196 
ausbildung -0.14892 -0.033801 0.14348 -0.18666 0.13896 0.52065 -0.086589 -0.013657 0.18183 0.63077 0.32157 0.24386 -0.3847 -0.10107 -0.40033 0.41059 -0.38409 0.096308 0.23505 0.13946 0.101 -0.095737 -0.15972 -0.086889 0.07112 -0.65852 0.24015 -0.10325 -0.0368 -0.011941 0.027237 0.40041 0.15579 -0.14337 0.15078 -0.12917 -0.16815 -0.5359 0.20417 0.18277 -0.019142 -0.80936 -0.15066 0.75163 -0.045833 -0.8253 0.46346 -0.5825 0.32328 -0.52321 0.19255 -0.39955 0.067538 0.28895 0.07262 -0.12045 -0.29887 0.047673 -0.20316 -0.07386 0.15968 0.32511 -0.50238 -0.43904 -0.3267 -0.21065 -0.049878 -0.030182 0.32255 0.23141 -0.19074 0.11025 0.38177 0.1383 -0.47864 0.0064371 -0.5191 -0.26697 -0.2335 0.52077 0.15248 0.36371 0.10848 -0.014176 0.28427 -0.46245 -0.026906 0.10363 -0.20772 0.16471 0.39483 -0.27429 -0.059976 -0.37603 0.0075087 0.10858 -0.22109 -0.13806 -0.37662 -0.41631 0.056645 -0.18763 -0.36009 -0.11385 -0.11877 -0.041655 -0.17825 -0.0076656 0.039053 0.42887 -0.4263 -0.17165 -0.035645 0.12784 -0.20051 -0.0027087 -0.11553 0.38929 -0.31557 -0.23951 0.29956 0.048268 0.083847 0.48233 0.48509 0.040132 0.054011 0.50288 -0.33695 0.17562 0.23873 -0.24862 0.013792 0.16833 0.23444 0.22346 -0.26411 0.25509 0.49117 -0.30437 -0.29201 0.1839 -0.46912 0.66312 0.0073972 -0.0030013 0.28827 -0.30226 0.43663 0.0037295 0.33709 0.35412 0.18996 0.21836 0.22577 -0.1123 -0.339 0.1811 -0.01763 -0.43967 0.069438 0.075866 -0.21103 0.26514 -0.3981 -0.055924 0.34068 0.26409 -0.34423 -0.35661 0.016703 0.16208 0.3994 -0.087651 0.19106 0.36684 0.40789 0.099321 -0.12836 0.18455 -0.2388 0.17636 0.12796 0.065655 -0.33734 0.10754 0.049645 -0.13215 -0.25932 -0.12799 0.31404 0.025684 0.11211 0.314 -0.11069 -0.385 -0.16523 0.17141 -0.13547 0.14082 0.2631 0.36073 -0.027302 0.13967 -0.089555 0.10661 -0.23859 -0.28573 -0.062339 -0.47868 -0.016598 -0.10936 -0.062154 -0.15299 -0.51018 0.2561 -0.10175 0.30488 -0.00091889 -0.34687 -0.038619 0.11647 -0.014848 -0.082576 -0.31794 -0.0085386 0.25141 -0.22271 -0.15622 -0.049327 -0.42993 -0.046856 -0.20698 0.14201 -0.47703 -0.052758 -0.09736 -0.31687 0.076593 0.16943 -0.33364 -0.13086 -0.033564 0.16618 0.21086 -0.049232 -0.056154 -0.33477 -0.15188 0.02831 -0.081332 -0.16997 0.13301 0.027078 -0.058808 0.14071 0.06502 -0.14436 -0.18532 -0.13944 -0.058093 -0.45418 0.07757 0.43687 -0.0071258 0.067581 -0.30542 0.10683 -0.092152 0.54717 -0.079651 0.28208 0.53619 -0.20122 -0.14633 -0.23489 0.19066 0.11936 -0.584 0.26701 0.24284 0.37365 -0.20129 0.095507 0.14564 -0.14935 -0.012075 0.19392 -0.12289 0.067777 -0.18764 -0.16297 0.1563 -0.0020553 -0.57366 -0.13186 -0.10857 -0.14219 0.078997 -0.12283 
