abweichung -0.20680773 -0.023600861 -1.0803113 0.42672613 -1.0936736 -0.11970012 -0.14992574 -0.25342935 -0.4524872 0.011940003 0.31600925 -0.8569101 0.4428396 -0.44970974 0.11790899 -0.065628044 0.32948115 -0.46040323 1.1054299 -0.045645464 0.5730471 -0.052694675 0.24712162 0.35085157 0.05160883 0.5696358 -0.741434 -0.53742844 -0.12430694 0.05186819 0.28997484 0.46059248 0.088039614 -0.36165205 -0.404512 0.5658828 -0.19035758 -0.5716506 -0.113133386 0.22812912 -0.51139516 0.8763848 -0.3654795 0.1061092 -0.6931702 0.8104438 -0.017642383 -0.198988 -0.47065842 -1.1905084 0.48793447 -0.25917196 0.4147191 -0.03804555 -0.08599224 0.26510063 -0.36592618 -0.030800434 -0.111586705 0.91176796 -0.48548716 0.3641662 -0.58440965 0.65424234 0.66379666 -0.2226639 0.839518 -0.3811681 0.40275374 0.15934405 -0.8830859 0.9247868 -0.6040317 0.25195822 -0.25072202 0.7246089 -0.37742 -0.13412406 -0.6906909 -0.41263053 0.21595031 -0.18903849 -0.60120046 -0.039417133 -0.008669314 0.2085805 0.62862486 0.21941547 -0.2937165 0.6153215 0.84352624 0.10889594 -0.085300125 0.2999139 -0.024518602 -0.13640559 -0.40310088 -0.11688025 -1.0685269 1.4355006 -0.84404486 0.068814486 0.5556456 -0.42624763 -0.2128846 0.2131047 0.11802622 -0.25411287 -0.14678086 -0.5008751 0.36760655 0.27113625 0.7448658 -0.31793046 0.0045150924 -0.5724247 -0.8023079 0.166787 0.36227086 -0.109469764 0.46308237 0.4445714 0.6033725 -0.76214665 -0.108648345 0.55849665 -0.4781734 0.0016596724 -0.52523947 0.14750572 0.59491205 0.91328126 -0.4803761 0.7360443 -0.1238101 -0.3280083 0.4956643 -0.42373058 -0.5117275 0.33757553 -0.16851681 0.15097056 -0.66403663 0.07398449 -0.028061025 -0.77019674 -0.06363863 -1.1568874 0.11336155 -0.12567276 0.37250796 -0.23299105 0.44073305 0.005990188 0.08058783 -0.36337814 0.5617779 0.18480732 0.60051 1.2958792 -0.019119065 0.37184635 0.65048176 -0.18421797 0.124445744 0.08916775 -0.30826935 -0.32061112 -0.71075535 0.010212813 -0.41363537 0.14401169 -0.5894585 0.6361185 -0.07431922 0.84460866 -1.1013912 0.14083527 -0.30511066 1.2573222 -0.2206813 0.5690626 -0.0918145 0.53733987 0.24732597 -0.6153197 -0.05994653 0.42989993 0.06134796 0.16487896 0.3545904 0.36291027 -0.098135576 -0.5564657 -0.1717109 -0.3651223 0.74950874 0.13796881 -0.006411601 0.35690135 0.23710889 0.25717315 0.18144947 -0.9771071 0.19095263 0.25091285 0.8880465 1.1611103 0.013648999 0.6811717 -0.2536089 0.42310157 0.1441885 0.103678815 0.08669682 0.20194282 0.13770458 -0.24579915 -0.30418423 0.004852831 0.030096345 0.095925964 0.24012008 0.66639155 0.54499567 -0.048337642 0.4509074 0.3591086 0.2824621 -0.6542862 -0.35764065 -0.42613208 -0.5231846 0.47250184 -0.14818236 -0.40814322 0.5578579 0.06919727 -0.30882984 -0.10040259 -0.6639398 0.3555533 -0.18612687 0.67459434 1.3583599 1.1332815 -0.13038316 -0.2803463 0.85828257 -1.0837663 -0.2909861 0.41744128 0.5519799 -0.5285299 -0.107326165 -0.013253653 0.20607479 -0.4787522 -0.16359748 0.30647236 0.16880152 -0.09853845 0.43200827 0.2514083 -0.4885236 -0.57244325 -0.29388717 -0.13435027 -0.83264375 0.6452973 -0.1258552 0.09218264 0.1464304 0.13121933 0.2699866 0.21187414 0.118173495 0.128006 0.15895918 0.42393926 -0.36259034 0.50069624 -0.12558636 0.37548816 -0.14786987 -0.04515396 0.75692034 0.05068152 -0.16212223 -0.9476822 -0.06643129 0.3395975 0.1089755 -0.3205625 -0.006807696 0.40542963 -0.35003775 0.06674762 -0.45389888 0.9533392
sortieren -0.5687465 0.33607537 0.13206229 -0.8509743 -1.0265725 0.20449182 -0.6208128 0.073470265 -0.44847766 0.61846447 0.32195887 -1.4976463 0.34478247 0.72097886 0.47838435 0.70299554 -0.6332456 -0.09875826 -0.1342148 0.51940125 0.49847397 -0.36309925 0.08974749 0.19469798 -0.5687414 0.13373761 -0.04609411 -0.9031126 0.12886351 0.11176566 0.23966981 0.12157072 -0.1019882 0.6824839 0.32983384 0.6151375 0.92957294 -0.035446692 0.05612898 -0.035800114 0.20339012 0.30374098 0.7110838 -0.09044798 -0.41358063 0.45319334 0.005463929 -0.65342206 -0.9199723 -0.47328857 -0.47150528 -1.3088667 0.7075294 1.1625907 0.18555874 -0.8186461 -0.67855155 0.25636214 0.21659501 0.6405947 0.19921654 0.63156605 -0.13523477 0.46751514 0.10517642 -0.66085106 0.035249367 0.15127073 0.10874758 1.1922913 -0.068705216 0.18473896 -0.20127638 -0.81157535 -0.07275355 0.30240056 -0.9700194 0.15675661 -0.06542054 0.58071697 0.5960915 -0.06771726 -0.6767411 0.1543982 -0.5349516 0.75798047 0.83856076 0.9529822 0.12851703 -0.6555707 0.73149914 -1.3018821 1.0387206 -0.64103043 0.44684264 0.616739 -0.65816504 -0.96933097 -0.66091335 0.76583475 0.18221664 -0.22341253 0.45511723 -0.9175259 0.7271147 -0.06468911 -0.09901366 0.31199712 -0.23446047 -0.29922643 -1.2346364 -0.49427235 -0.23736274 -0.675585 0.13868372 -1.0584307 -0.89624447 -0.8828573 0.1348179 0.52263 0.03534668 0.6060366 0.51609546 0.39201057 0.17365538 -0.38264978 -0.060831107 0.26363137 -1.3823246 0.32871175 0.17844905 -0.20359564 0.28432587 -0.9953977 0.2991081 -0.82976305 -0.9172007 0.53997314 -0.60509676 -0.1596173 0.8995883 -0.2681058 0.29814833 0.11986224 -0.13405517 -0.123935625 0.31519258 -0.42171293 0.33002636 -0.6835258 -0.8371528 0.56376594 0.007966733 0.0037505876 -0.70801747 0.22625007 0.15495655 1.133208 0.48347005 0.2548705 -0.10906124 -0.30997285 0.12527716 -0.24082628 -0.20691119 1.005167 -0.09478176 0.035095762 0.6757583 -0.8886454 -0.25964376 -0.46482155 0.13446783 -0.69977486 -0.5655519 0.32980207 -0.07729806 -0.87507313 0.79775053 0.21492296 -0.08956793 1.0349139 -0.583201 0.20910129 0.14757453 -0.0043775584 -0.40867904 -0.424454 0.153198 -0.88825244 0.5673821 0.5024159 -0.8892817 0.11592015 0.022819363 0.67626053 -0.06274205 -1.0648093 0.7425051 0.06321231 -0.42886102 -1.34481 -0.46155775 -0.055393595 0.5690907 -0.53905743 0.4932178 -0.22385979 1.487922 -0.18215068 -0.06554893 -0.3368275 0.3338003 -0.5107694 1.0140781 -0.5823156 -0.27855203 -0.15180898 -1.2944432 0.51732254 -0.21965548 0.2925221 -0.5529503 -1.018475 -0.054302447 -0.43570748 -0.70486087 0.06051058 -0.4383861 0.5574085 -0.45642608 -1.1484851 0.5946176 -0.255593 0.11840673 0.2958568 -0.11565072 0.36923254 0.4403915 0.0519728 -1.274229 0.116413854 -0.7390964 -0.041870058 0.57286525 -0.015880765 0.72032595 -0.4035733 -0.1309004 -0.69023585 -0.09391146 0.23664184 0.1557821 -0.17959519 -0.37052602 -0.79937816 0.23665519 0.043128222 0.30983707 -0.08109068 0.02848018 0.03298301 0.012768552 0.5928831 0.8494942 -0.38130078 0.37812594 -0.81554973 -0.09659981 0.36273715 0.24793944 -0.6540291 -0.33288845 -0.44076982 0.45670533 -1.058312 -0.1785959 -0.4356209 -0.1281657 0.5991764 -0.8402907 0.672689 0.5367667 0.43467394 -0.46824425 1.2457309 0.24645586 0.02488203 -0.20790152 -0.870269 0.08376318 0.28115293 0.6592429 0.07428254 0.100277275 -0.5439961 0.5471364 -0.56320834 -0.10713572 0.16935593
agieren -0.07606288 0.34905612 -0.6712628 -0.0751842 -0.15508267 0.17448713 -0.29751554 0.058610607 -0.00039159402 0.97924656 0.315094 0.35365158 0.12051512 -0.3165177 -0.12481695 0.06367928 0.19435833 -0.091432065 -0.4268581 1.0915397 -0.44029486 -0.5536772 0.27676284 -0.25715366 -0.17711557 0.21194811 0.69634914 -0.26430494 -0.28037122 -0.013339188 0.41120863 0.3708995 0.2854379 -0.12648638 0.731644 -0.11551589 -0.8653564 -0.77389383 0.33818182 0.11749193 0.09624099 0.13246123 0.011502579 -0.26835507 -1.2362245 0.7479966 -0.33464652 0.36200687 -0.12535498 0.21977927 0.24161606 -0.8038973 -0.2963242 0.6961801 0.10583809 0.272076 -0.3924282 -0.42061573 -0.24927585 0.010308513 0.023511566 0.37186447 0.21450128 -0.28691775 0.48937994 0.34730732 -0.47370958 -0.25185746 -0.034809813 -0.20426162 0.75795877 -0.047956623 0.14036475 -0.09478479 -0.10501484 0.3233291 -0.3956355 0.06333946 -0.4352627 0.35581848 -0.14047667 -0.08338013 6.5410466e-05 0.18519299 0.49822238 0.14087492 0.31543553 0.07090804 0.3021622 0.40444955 0.22753961 -0.45649037 0.27438796 -0.0010601848 0.031027941 0.10452966 -0.61573476 -0.36929402 -0.3869 0.15656978 0.32529506 -0.48037308 0.33542866 -0.38404158 -0.15389661 0.14623764 0.07899822 0.29531774 -0.6738422 0.20655122 -0.06294774 -0.9313154 0.20869642 0.52890414 0.42766836 -0.5384759 -0.54291797 -0.20441179 0.01605131 -0.2858881 -0.21945384 0.05594795 0.49581107 0.10549735 -0.59703255 -0.207435 0.3031463 -0.21956015 -0.17051432 -0.018035451 0.0703006 0.15817732 -0.057003282 0.5736421 -1.1479614 -0.3645419 0.10757072 0.8646263 -1.3114897 0.06312687 0.81491846 -0.087555185 -0.022810658 0.29470897 -0.17299 -0.07426457 -0.03271738 0.18807082 0.55987054 -0.30597675 -0.42328677 -0.0042345384 0.2595109 0.45394766 -0.040581208 0.89568985 -0.9370084 0.84945726 0.1949613 0.16887875 -0.15014413 -0.023182001 0.48572624 0.053088322 -0.3732958 0.5951777 -0.40642712 -0.23839086 -0.41234058 0.5719015 -0.62431955 0.6063908 0.23425731 -0.33868927 0.15822674 -0.5193909 -0.37684658 -0.05610999 0.05040561 -0.50173014 0.14421563 0.77013737 0.10969607 0.0942394 -0.32268485 0.31522727 0.24631783 -0.24441606 0.10157338 0.440879 -0.11849257 0.36539507 -1.4188616 -0.20341973 0.2004364 -0.3622906 -0.45947012 0.11067981 0.61994094 0.06881283 -0.3152962 0.13166706 0.16910681 0.7413478 0.4701984 0.33677915 0.17918746 0.8609327 -0.13943453 -0.11192339 0.24285997 -0.46600208 0.8139431 -0.6659738 1.1178867 0.3498206 -0.02402879 0.041252337 0.30521038 0.6082006 0.30974594 0.07683237 -0.8161878 -0.4034593 -0.20376135 0.023254806 -0.5023623 -0.76200444 -0.44636235 -0.81440765 -0.2678194 -0.3613419 -0.015343647 -0.43887264 -0.10849298 -0.5664404 -0.39820275 0.24159881 -0.03256416 0.19120748 -0.04896384 -0.19839412 0.22598702 -0.008503001 0.3909241 -0.11226904 0.6077117 -0.22651353 -0.5664308 -0.08678152 -0.51706535 -0.085781045 -0.022193305 -0.029955873 -0.41039327 -0.19934185 -0.1314539 -0.041973237 -0.3518578 0.31811455 -0.16112418 0.36848423 0.40238178 0.37140092 0.46459016 0.3625868 0.33162248 -0.0067548594 -0.072801605 0.14098257 -0.8079917 -0.7681102 -0.25659415 -0.9387101 -0.10728993 -0.08659384 -0.42396915 0.14724232 -0.20711671 -0.12537405 0.054049816 -0.23397125 0.26388493 0.7022077 0.33114308 0.6635989 -0.7069312 -0.037175037 0.12097316 0.23355624 -0.13819057 0.09642328 -0.55708015 -0.777673 0.040175073 -0.25264636 0.1427484 -0.09934169 -0.113933645 0.4595559
mobil -0.94548714 0.55325425 0.4092145 -0.7361124 -0.78541553 -0.10387452 -0.08121201 0.45551485 0.2991467 0.19878824 0.34579277 0.5221067 0.17908402 -0.21002237 -0.14415549 0.27609676 -0.06862135 0.14353228 -0.36699066 0.31341192 -0.68927246 0.06576095 0.01998779 -0.808186 0.85898614 -0.021508303 -0.3741575 -0.43899786 -0.5610919 0.8045498 0.5920065 -0.2618838 -0.052823674 -0.0057575577 -0.6187307 -0.26837963 0.6966292 -0.029732814 -0.35506338 1.0316904 0.014719066 -0.49745134 -0.5744655 -0.8449183 -0.21948175 -0.32094815 -0.7770436 0.14048734 -0.2176386 0.37494367 0.105330884 -0.88702494 -0.39575994 0.3933595 -1.008022 -0.26589552 0.2821928 -0.18819131 0.39536348 -0.43791917 -0.25072053 -0.383628 0.71162385 -0.67157394 0.38982818 0.38131613 0.028116586 -0.4075155 -0.010132429 -1.1677661 0.09148867 -1.0538958 0.2548286 -0.20677634 0.27433166 0.14486042 0.2623578 -0.3332697 -0.28892496 -0.10429593 0.703954 0.46115234 -0.042521805 0.15640414 -0.29615498 -0.9408235 -0.23067096 -1.21328 -0.12288433 0.14918466 0.07634726 0.2022887 0.318846 0.048370164 0.31339994 0.028902479 -0.22978793 -0.71231747 -0.26610476 0.2037668 -0.32674694 -0.045823935 -0.9312592 -0.25963178 -0.18003176 0.11098638 -0.07994343 0.19283758 -2.359734 0.062409956 0.50024676 -0.27695647 0.50106746 0.43356276 0.20689526 0.0139560755 0.6236949 0.65096635 0.13094263 -0.23876788 0.27977416 0.3454656 0.79881227 0.78502196 -1.1178074 0.13922068 0.19750154 0.5626803 0.14712843 -0.67572415 0.22073098 0.7242548 0.37085676 -0.303462 -0.12939423 -0.24472411 0.1052995 0.56767476 0.5937022 -0.32742703 0.086956665 -0.07286198 -0.09339334 -0.66174704 0.25978133 0.38889655 0.17735109 0.2553209 0.3227753 -0.5811375 0.26729387 -0.27512008 0.15796237 0.89015794 -0.4294622 0.5591846 0.49266636 0.08803239 -0.17699668 0.14845556 -0.57379633 0.017953698 -0.5863979 0.47310326 -0.5276008 -0.65138876 0.021100795 0.16023718 -0.40869236 -0.12209526 0.39463112 0.08743407 0.53529817 1.0977023 -0.3670464 0.06555446 0.3743382 -0.09220071 0.60070586 -0.67650497 0.0827541 0.55169946 0.044768304 -0.4040781 -0.94703704 -0.1858656 0.017915042 0.4599464 0.69982773 0.038205657 0.3299734 -0.01377581 -0.60017323 -0.17525838 0.10315732 -0.63821924 1.6821924 -1.4370196 -0.3729648 0.5618921 -0.08409804 -0.26951453 0.03524833 -0.5248852 0.56242967 0.035092343 -0.08003514 0.65007704 0.3624414 -0.483235 -0.21869433 -0.29612827 0.11303659 0.19894835 0.47444543 1.084348 -0.4463246 0.43425417 -0.44494307 -0.6305318 0.71121633 0.5497983 -0.005741572 -0.105515406 0.37413675 0.67216504 -0.8267034 -0.24750069 0.3209568 -0.02518273 -0.7617261 0.33202913 -0.4045395 -0.2596062 -0.2831948 0.6569598 -0.6934853 -0.1295624 -0.2548223 0.64144295 -0.23208047 -1.0511461 -0.12582195 0.828977 -0.46271303 -0.2546628 -1.0444592 0.3013603 -0.32141423 -0.1569596 -0.5813397 -0.9112285 -0.10346931 -0.17971799 1.289188 -0.6232439 -0.3043009 -0.010888578 -0.4854652 -0.3758657 -0.38400194 0.07154332 -0.01570077 0.27891886 -0.8984093 0.018799763 -0.1195617 0.0056803874 -0.6174102 -0.36372408 -0.8764473 -0.6567468 0.4914044 -0.40896493 -0.34913948 -1.6712836 -0.10043142 0.76920295 -0.9053076 0.1651777 -0.33109552 0.24480915 0.7707212 0.4349298 0.22204213 0.82121557 0.5594452 -0.15995285 -1.3388016 -0.03244678 0.41221642 -0.41786134 0.1715202 -0.23143756 -0.2506092 0.707376 -0.19640833 0.3708009 -0.19430794 -0.24664256
aktuell 0.18600237 0.016958306 -0.25370064 0.20209649 -0.8361592 -0.39367205 -0.2956316 0.6277322 0.04782069 -0.49254787 0.4794699 -0.16839746 0.056822605 0.38356987 -0.46130466 0.5104181 -0.07196612 -0.03774456 0.25844738 0.47090283 0.59217304 0.1939632 0.3226142 0.3977769 0.24731222 -0.25080916 -0.1494193 -0.58166075 -0.8925109 0.25688368 0.12505503 -0.11476362 -0.20371465 0.0044181733 -0.33340973 0.85905015 -0.041747767 -0.23091619 -0.021432333 0.6523349 0.047949664 0.8268931 -0.30499768 -0.0060191266 0.011735192 0.041816767 0.26018733 0.4183943 0.4681834 0.024389427 0.05551523 -0.60940975 -0.27736536 0.07893235 -0.9135234 0.16019078 0.095431626 0.18998294 -0.5359932 0.21653576 -0.24525523 0.045152765 0.40752313 -0.16945122 -0.5285004 0.27603266 -0.52264506 -0.5735131 0.5237047 0.34788007 0.22613849 -0.15332945 0.44177988 -0.7074091 0.93389577 0.0358899 -0.2596746 -0.54463136 0.3709139 0.44247612 0.10542698 -0.92261547 0.47934523 -0.48584208 0.33924228 0.782819 -0.18699536 -0.5006168 0.00736462 0.3301121 0.03452168 0.75521505 -0.0644274 -0.06636268 0.6024697 0.6763916 -0.070340775 -0.5588133 -0.53136027 -0.005570579 0.22342464 0.08644929 -0.19357064 -0.32081103 0.18392934 -0.22056712 -0.19450013 0.16917399 -0.5035225 -0.18067117 -0.06895141 -0.30511653 0.028196253 -0.15765244 -0.27547356 0.259167 0.19009049 -0.08153408 0.08850272 0.10552049 0.18556698 -0.15636262 0.13297917 0.48148698 -0.5733543 -0.21657689 0.13663362 1.0609653 -0.54232925 -0.4855789 0.6466729 -0.039158493 -0.016364738 0.043458648 0.08228759 0.25207892 0.78910416 -0.2985931 0.18799233 0.42684036 0.23251766 0.577875 0.54425496 -0.16097279 0.29367307 -0.44043377 0.27441195 -0.21876395 0.48132226 -0.80046207 -0.22165717 -0.5689439 0.2896593 -0.48454368 -0.34719294 0.32073727 -0.06637558 0.28122094 0.41896898 -0.3782537 -0.17817268 0.24570833 -0.18314299 -0.09654309 -0.0148915 0.46951455 -0.16211657 0.3948875 0.25724378 0.32731685 0.022596084 -0.35776353 -0.46216315 1.0541567 -0.77319956 0.36913678 -0.52608883 0.3051558 0.17873584 -0.07518628 0.2352364 0.13694128 0.5890544 -0.0523237 -0.2666746 -0.4810603 -0.7020878 -0.6834318 -0.75582 -0.054959837 0.1096394 0.17566788 0.23687845 -0.057542194 0.5709555 -0.4335496 0.08007004 -0.20487525 -0.6600485 0.06774844 -0.8452359 0.060421452 0.009868078 -0.5523638 0.33663484 0.10085747 0.3418029 -0.054358467 -0.35308644 0.22238947 -0.39052436 0.16514751 0.14753206 -0.25309908 0.24900532 0.6414828 -0.5524327 -0.9498243 -0.19374225 -0.0722971 -0.07929376 0.3953359 -0.10927949 -0.02513617 -0.1483476 0.03982821 -0.0854291 0.41772497 -1.0503235 -0.3665555 -0.48067552 0.4395358 -0.02258956 0.62617064 0.019647604 -0.06425438 0.3631394 0.15705769 -0.21130541 0.18497264 0.34466854 -0.41507494 0.17426638 -0.23781568 -0.1994463 -0.03815862 -0.43291393 0.18947355 -0.3492991 0.22643512 -0.33437765 -0.06907227 -0.30606785 0.5635574 0.4943932 0.812799 0.59162927 0.5065786 -0.03400393 -0.24628718 -0.4348419 0.1162304 -0.32567802 0.014397007 -0.7619412 -0.33196512 -0.04322052 -0.90568066 0.25395092 0.08163642 -0.3639921 -0.27922428 -0.50665766 -0.3688445 0.003209758 -0.33629057 0.28093427 0.47685307 0.06809191 0.18140891 0.18790661 0.8177592 0.45717183 0.34234008 0.34445798 0.48395953 -0.713987 -0.95685744 -0.15095383 0.691397 -0.018350812 0.67276984 0.11566622 -0.02664833 0.30525136 -0.03419753 0.15131634 -0.06483711 -0.11460319 -0.02735853
portfolioanalyse 0 0 0 0 0 0 0 0 0 0 0 0 0 0 0 0 0 0 0 0 0 0 0 0 0 0 0 0 0 0 0 0 0 0 0 0 0 0 0 0 0 0 0 0 0 0 0 0 0 0 0 0 0 0 0 0 0 0 0 0 0 0 0 0 0 0 0 0 0 0 0 0 0 0 0 0 0 0 0 0 0 0 0 0 0 0 0 0 0 0 0 0 0 0 0 0 0 0 0 0 0 0 0 0 0 0 0 0 0 0 0 0 0 0 0 0 0 0 0 0 0 0 0 0 0 0 0 0 0 0 0 0 0 0 0 0 0 0 0 0 0 0 0 0 0 0 0 0 0 0 0 0 0 0 0 0 0 0 0 0 0 0 0 0 0 0 0 0 0 0 0 0 0 0 0 0 0 0 0 0 0 0 0 0 0 0 0 0 0 0 0 0 0 0 0 0 0 0 0 0 0 0 0 0 0 0 0 0 0 0 0 0 0 0 0 0 0 0 0 0 0 0 0 0 0 0 0 0 0 0 0 0 0 0 0 0 0 0 0 0 0 0 0 0 0 0 0 0 0 0 0 0 0 0 0 0 0 0 0 0 0 0 0 0 0 0 0 0 0 0 0 0 0 0 0 0 0 0 0 0 0 0 0 0 0 0 0 0 0 0 0 0 0 0 0 0 0 0 0 0
altersstufe -0.5029908 -0.15711194 -0.43264532 -0.32033506 -0.8452525 0.48074707 0.60226285 0.33768886 -0.30840826 -0.39939955 -0.100506335 -0.3038422 0.28375745 0.3298259 0.17482728 0.33627927 -0.31192812 0.571653 0.16326493 0.44160226 0.024864536 -0.35562935 -0.22157843 0.027069619 0.1519399 -0.4892905 -0.09625173 -1.2492188 -0.21652335 -0.39301822 -0.4272181 -0.017966758 0.1995851 -1.0167763 0.3944868 0.65597713 -0.245475 -0.9198955 -0.17708379 0.7089955 0.16503963 0.19393949 0.06125098 0.22243941 0.13478035 0.14999667 0.2995895 -0.32461667 0.07543536 -0.554968 0.936508 0.27268407 0.72539526 0.41916358 -0.71823585 0.49689707 -0.12234896 -0.5833408 0.35170132 0.23857705 0.029455459 0.2550719 -0.4690713 0.1034709 -0.088168874 -0.08070608 -0.04849056 -0.37799764 0.5052865 0.3959783 -0.5395016 -0.50483835 -1.2577366 0.066496834 0.939428 -0.4663099 -0.87594014 -0.31261638 -0.51031876 -0.2887589 0.1499617 -0.6684619 0.62404305 -0.10358739 -0.30941144 -0.476762 0.5200535 0.9053271 0.6012138 -0.3447757 -0.09600786 -0.39202136 0.4347434 -0.26889804 0.06359316 0.28546253 -0.7830221 -0.094172634 0.3893793 0.8496578 -0.38470194 -0.28464863 -0.24285676 -0.06897838 0.10341008 -0.34082747 -0.08153419 0.38210005 0.45335248 0.8391028 -0.42997575 -0.701141 0.15035209 -0.51888436 0.26454055 -0.38827223 0.6220042 -0.46408913 0.4473966 -0.22528473 0.8101979 1.276935 0.5788364 -0.08348895 -0.24230637 0.22834831 0.7213915 0.8358544 -0.6453634 -0.3402668 -0.15678945 0.89447945 0.30491322 1.0739771 -0.7187171 -0.5391034 -0.14108503 -0.13839132 -0.063062444 -0.77767676 0.5070968 -0.1054671 0.33674428 -0.18323386 0.1483124 -0.44521183 0.8252043 -0.64632475 0.10919257 -0.540959 0.88105506 0.11165355 0.44385627 0.48505944 -0.4630556 0.26093748 -0.4287968 1.238107 -0.33023664 -0.050177105 -0.415098 0.2761039 -0.6162672 0.082303695 0.1321071 0.49785662 -0.5113764 0.11939923 -0.17740576 -0.03712798 0.638777 0.08882518 0.41882616 0.42023417 -0.37555146 0.20028694 0.5149803 0.040197212 -0.7384402 0.6209086 0.39068466 0.4450089 -0.0028471637 0.5880408 -0.16173832 -0.20555577 0.081071004 0.5812923 0.012535688 -0.30537388 0.7301864 0.2533108 -0.31887743 -1.4043676 0.52463806 -0.4094744 -0.3098028 -0.19494219 -0.112865366 0.6363596 -0.05334069 -0.10219049 0.40129527 -0.8729155 0.31348237 0.24105933 -0.018876655 0.0744678 -0.02484905 -0.23915622 -0.13585013 0.08788942 1.002147 0.5150996 0.2518746 0.9496347 0.8453184 -0.37080202 0.76959497 -0.13584568 -0.12054048 0.13197668 -0.73668593 1.0319943 0.12542313 0.022358375 -0.23427603 0.011408283 -0.41028976 0.20722528 -0.20358288 -0.40432632 -0.5271667 0.2701387 -0.3050546 0.029117923 -0.057708718 -0.10888965 -0.84461564 0.4466194 -0.545429 -0.32421768 0.48002818 -0.506 -0.3086044 0.8451757 0.36249778 -0.60289335 0.80254865 0.26642346 -0.16203031 0.35687518 -0.22724189 -0.32983333 -0.056552395 0.3906866 1.0614601 -1.1447093 0.08583976 -0.43066946 -0.29329598 -0.3977557 0.49483967 -0.554374 -0.20720229 -0.47121197 0.3837745 -0.95369285 -0.31857464 0.75818837 -0.76647395 1.4979265 0.91062677 -0.0018443773 -0.04426363 -0.7702546 1.3278712 0.8576409 0.72484624 0.055361208 0.35645097 -0.5045548 0.13180023 0.81314695 -0.060067814 -0.50656796 -0.42950583 -0.20873998 -0.4504542 -0.26292565 0.8586421 0.18916711 0.74454874 -0.32696667 -0.31881028 0.14457004 -0.24881417 0.08449547 -0.9087349 -0.76114345
mut -0.23748432 0.4002693 0.29566544 -0.21713375 -0.83637005 0.13506685 0.04513782 -0.71410453 -0.018076811 0.23191458 0.25814712 -0.1489959 0.49840608 0.5054601 -0.23865326 -0.019996736 0.022126375 0.61195517 1.1496985 0.19030575 0.07247356 -0.9347837 0.15945417 0.51127154 0.16493373 -0.15993488 0.025182296 -1.0476266 0.13251229 -0.6254473 0.83546305 -0.2972132 0.49766618 -0.35931063 0.53636414 0.51070285 -0.5973115 -1.0558082 -0.32115316 0.2931369 0.7003541 0.040406883 -0.3351523 0.34415746 0.1859441 0.98161274 0.63928145 -0.055010222 0.7923698 -0.48893878 -0.24881499 0.27447376 -0.5983164 0.015184909 0.42705962 -0.18755221 1.2682872 0.33823958 -0.7025137 -0.6351529 -0.295281 0.48661202 0.50356114 0.06104572 0.21035418 0.44892448 -1.4033357 -1.0174074 -0.5503216 -1.4472195 0.36264163 0.5043785 0.51761675 -0.52585095 -0.3852279 -0.069704115 -0.39967516 -0.0436385 -0.13118222 0.21484128 0.1378646 0.27354494 0.87418413 0.52738845 -0.103013515 -0.072436385 0.92033637 -0.6296491 -1.3583658 -0.35819155 0.652078 -0.49303836 -0.8200217 0.57784265 0.5441195 0.12800507 -0.0766243 0.15669465 -0.13034561 0.25909638 -0.1022353 -0.34356496 -0.15586582 0.16932577 -0.44972938 -0.4037429 0.6473263 0.070413224 -0.18797252 -0.2004741 -0.35462788 0.04442797 -0.3745127 -0.16664316 -0.38257107 -0.53688836 -0.41727674 -0.17937195 -0.010087911 0.13961439 -0.24818055 0.85032046 0.72762364 -0.116525196 -0.004159269 -0.012539045 0.12443626 0.49671894 0.4471865 -0.40270036 -0.4983585 0.43953538 -0.49388018 0.021714494 -0.78930813 0.6579418 -0.15976268 0.2355696 -0.49404192 -0.30867743 0.27198598 0.88400584 0.46044144 0.026661202 0.18654345 1.0673461 0.26987135 0.4549453 -0.46987647 0.0171501 -0.24414809 -0.4090296 0.5153368 -0.083364986 -0.90916365 0.2736602 0.31303442 0.31274396 0.09434474 0.6989828 0.4689968 -0.5691802 -0.25698432 0.2962397 -0.7562917 -0.5769125 -0.66071284 -0.23924127 0.5444828 0.32162395 0.3423096 -0.016841702 -0.101622045 0.6593025 -0.2521302 -0.15060288 -0.36393467 -0.05194342 -0.41091952 0.17395248 -0.71650076 0.711758 0.31193486 -0.72211474 0.27852508 -0.11174608 -0.004880123 0.38551143 0.20706658 0.23784669 0.13496412 0.05806502 0.050113242 0.9294373 0.0828798 -0.014825777 0.6325486 -0.083021775 0.6131894 -0.5156669 0.60225415 0.35732624 -0.3010907 0.21619861 0.55345446 0.5191971 -0.46395284 0.6358071 -0.13508672 0.46144134 -0.81804043 0.063868634 -0.2970695 -0.4475912 1.116697 -0.45634517 -0.28089863 -0.11280847 -0.5727018 -0.4079902 0.4632281 0.26369542 -0.12133397 -0.6129401 0.5459183 -0.7332274 0.053822044 -0.4756766 -0.7818589 0.9436774 0.2008418 0.011663836 0.027753182 -0.110336065 -0.13071734 0.5475384 -0.8441924 0.37564886 0.24914606 -0.5803768 0.3044807 0.40711218 -0.46979418 -0.18346107 0.19034976 -0.10774149 0.09811944 -0.12663035 -0.8842299 -0.088482246 -0.010024062 0.37234476 0.59181434 0.5622854 0.03411437 -0.7957842 -0.20128861 0.0070827054 -0.14136928 -0.1955029 -0.06567129 -0.5168668 0.988557 -0.80344325 -0.82370305 -0.21352255 -0.54514676 -0.34475213 -1.1798465 0.66822946 0.5249865 0.9865377 0.39113387 0.6334785 0.28223923 -0.63281673 -0.30265516 0.4572432 -0.33458298 -0.45436728 -0.22179045 0.025601558 -0.10959048 -0.59963995 0.4501796 0.59514 -1.0071253 -0.2696003 -0.4289436 0.47287545 0.6059966 -0.0059148623 0.34874204 -0.39645812 -0.4283841 0.29257852 0.06916401 -0.06955661 -0.29248944 -0.89060074
anbieter 0.4636263 0.34915102 0.4014274 -0.14554931 -0.24782887 0.6124791 0.40589002 -0.89989007 0.15928641 -0.3018566 0.6889795 0.5820341 -0.29231176 -0.9477319 -1.0247269 0.3869678 0.3067466 0.51071405 0.26123267 -0.6177139 -0.64865416 -0.23642685 0.28206292 -0.45725948 -0.4246344 0.27898154 -0.08954252 -0.918591 0.101471566 0.8350675 -0.7528742 0.30548126 -0.13660966 0.18240969 0.4138768 0.2321909 -0.17604367 -0.44817835 0.24472566 0.7634943 0.14073269 -0.2791375 -0.2197607 -0.5487735 -1.2106732 0.3335296 -0.51768094 -0.028651074 -0.3415709 0.12861423 0.03735392 -0.8809343 0.36677644 0.5814321 0.19520938 -0.6317193 0.46332893 0.667115 -0.29684034 0.04075554 -0.52337193 0.7091528 -0.10436614 0.31336495 0.82840025 -0.8501977 -0.112023786 -0.52462244 -0.22116818 0.11506617 -0.42145854 -0.25700015 -0.12510394 -0.8038895 0.28284347 -0.11399277 -0.36957842 -1.2816744 -0.39355403 0.39918187 -0.21838838 -0.828884 -0.6571516 0.37332356 -0.22683553 -0.6673236 0.1272371 -0.04080426 0.06091076 0.09464308 0.22232148 0.33487263 -0.9055613 -0.4133812 -0.036997486 0.7616758 -0.18003288 -0.7007153 -0.17767031 0.6685784 -0.30810755 -0.6941855 -0.88883364 0.6816109 -0.44637465 -0.05825616 0.36552402 0.5305283 -0.6624746 -0.5100096 0.41060165 -1.0177891 0.35883978 -0.54230756 0.3392929 -0.0203349 0.10150458 -0.3002032 -0.28587973 -0.16913304 0.23629177 -0.26467592 0.84190726 0.3013897 -0.978102 -0.28971374 -0.42058745 0.5633539 -0.3892446 -0.7884477 0.5653632 0.032524053 -0.06779043 -0.13999856 0.8042844 -0.13011242 -0.09337237 0.28883123 0.45804214 -0.048443224 0.48831436 -0.15109742 -0.4475661 0.16434932 -0.832604 -0.27282596 0.028442875 0.28998986 0.9178502 -0.38037562 0.21869738 0.23400536 -0.042513568 -0.010633471 -0.44897965 0.2039549 -0.36958736 -0.41695964 0.62160546 0.2257176 0.6805825 0.9702286 -0.45017865 -0.054454073 0.071728356 0.510903 0.008928041 -0.17282724 -0.08606692 0.6518085 0.0027339563 0.78715265 -0.53799015 -0.14764166 -0.57513404 1.0080278 -0.108379096 0.40479293 0.10541337 0.17808765 0.01378107 0.68517834 -0.5897984 -0.10846282 0.29435915 0.9445985 -0.26919717 -0.6432037 -0.009300176 0.04663619 -0.43142605 -0.36697987 -0.89392096 -0.4363652 0.5757786 -0.6051867 0.0858716 -0.57696223 -0.7652418 -0.58045703 0.2704188 0.15449661 0.06365104 0.18200862 0.51634985 -0.40368736 0.53372025 0.677338 0.20492926 -0.33993468 -0.3217949 -0.16696723 0.41950727 0.1404537 0.8973142 0.8237144 -0.08454132 0.38868576 -0.404704 0.5695304 -0.19451965 0.47128916 -0.65315336 1.2054964 0.5757275 -1.0342581 -0.17609714 0.6171755 0.67131513 0.1183938 0.20524527 -0.25757682 -0.20959952 -0.1433395 -0.43896478 0.15353894 0.007531134 -0.20655788 -0.6988999 -0.26809677 -1.1622032 0.033083595 0.004693883 0.5602073 0.08897985 0.19632629 -0.4986868 -0.26476806 0.122429304 0.11311491 -0.07754006 -0.16337322 0.52919626 0.39471036 0.067491345 0.63854 0.121178836 0.5368084 0.1239271 0.3792191 -0.7181658 0.46675247 -0.69350296 0.5318127 -0.14698774 -0.78554076 0.21810065 -0.24877445 -0.35581514 0.8765727 -0.4503603 -0.09176511 0.60512215 -0.17055811 0.36018592 0.023436358 0.66971964 -0.20000285 -0.38813436 -0.20694517 -0.11867438 0.6216691 0.34214997 0.64642555 0.7617433 0.18642904 1.053095 -0.052504558 -0.39453208 -0.6731067 -0.089463696 -0.12532382 -0.15229571 -0.16365947 0.13655905 0.22118905 -0.18517908 -0.4792409 0.27298203 -0.17527732
bedarf -0.0688516 1.5219827 0.19268422 -0.31108057 -0.43051338 0.7736593 0.93730354 -0.6445611 -0.16381045 -0.39635998 0.022862142 -0.84900945 -0.11780004 -0.3833367 0.18741407 0.31799245 0.57121056 0.29083645 -0.38391307 -0.89257896 -0.35372904 -0.3316385 -0.0029578824 0.42834827 -1.3976308 -0.53539073 -0.77078277 -0.5575912 -0.34208527 -0.6829446 0.16630965 -0.07667967 0.3762798 0.1221231 0.6843308 0.22333354 -0.10117465 -0.37348866 0.041507244 0.07919157 0.4598199 -0.38471535 -0.37699485 0.5020196 -0.081650615 0.010819428 0.06670472 0.010414886 -0.27231345 -0.22106394 0.54078716 -0.7518416 -0.21699582 1.4172462 -0.13628961 1.0382458 -0.09418897 0.04820236 0.15311092 0.16992624 -0.2928946 -0.04191604 0.32113653 -0.45872056 0.17199755 -0.78608155 0.4887868 -0.93100727 0.2700592 -0.5517975 0.15706906 0.045585897 -0.46542338 -0.7998778 0.016567184 -0.20387658 -0.70673555 0.30464023 -0.76761216 0.086622156 -0.19793046 -0.1336018 -0.13187216 -0.38767716 0.4133506 0.59585464 0.57492787 0.52726346 -0.04813997 0.2496779 0.103332795 0.338581 0.647315 -0.31216002 -0.051739234 1.6017075 0.37366 0.6960093 -0.046395935 1.1223941 0.33726487 -0.34844145 -0.07054731 1.1398256 -0.3752649 -0.81643397 -0.010337831 -0.15789962 -0.31597295 -0.048242744 0.5976322 -0.84398454 -0.62190163 0.5294951 0.22702198 0.17869875 -0.048014596 0.22406125 0.22054191 -0.09651108 -0.41575083 -0.04396526 0.14789198 0.15395284 -0.3386838 -0.18828504 0.35843837 0.55451643 0.02601218 -0.6009802 -0.1375287 0.62187153 0.07035625 0.14719516 -0.34820914 0.666968 -0.065868616 -0.31957987 -0.048483673 0.18752429 1.1115723 0.36380073 0.16345683 -0.4758024 0.17866258 -0.06493527 0.42267105 0.09503282 -0.6853083 -0.7844231 0.108281225 0.5727332 0.37213522 0.08738927 -1.0265173 -0.55952764 -0.38735247 0.103110574 -0.124212585 -0.18299712 -0.04269461 0.44164836 -0.44212925 0.195556 -0.31952316 -0.32006156 -0.3633018 1.1739284 -0.44151437 0.33299172 0.51857585 -0.21598963 -0.3025445 0.40376094 -0.13442534 1.1258485 -0.9992591 -0.33693755 -0.09002257 0.7404723 0.1936314 0.7133475 -0.5519563 -0.14358057 0.33415106 -0.44454092 -0.8593431 -1.1922122 -0.19829172 0.001009765 -0.59863967 0.37737587 -0.36402848 0.6074285 0.44727796 -0.5459299 0.15384082 -0.54430103 0.36908072 0.7511071 0.3949626 -0.17913702 -0.5070294 -0.8585213 0.1448108 -0.31158438 0.91554886 0.74556506 0.3955484 -0.5682347 -0.14501575 0.45732766 0.5491817 -0.23753059 -0.3171751 0.17471184 -0.27663726 0.4426433 -0.500214 -0.3082388 0.13969526 -0.3671151 -0.10479894 -0.49068955 0.13065913 -0.00060931663 -0.07742828 -0.7716696 -0.6045414 -0.6182537 -0.47959703 0.2923707 -0.31958538 -0.24392837 -0.58538514 -0.19042669 0.041203056 0.15540226 -0.3316235 0.22847827 0.21408075 0.27902043 -1.0157567 0.6922779 0.37024286 0.078091234 -0.7253307 -0.51653117 0.018142171 0.17940207 0.1645288 -0.40038863 -0.014902678 -0.103834525 -0.67213124 0.43286258 -0.14472272 -0.2252581 -0.5157053 0.19700463 0.009280326 1.189939 0.022724686 0.4869333 -0.40841818 -0.273169 -0.28051624 0.36311573 -1.1245072 1.1849307 -0.061625164 0.2508263 -0.022644002 -0.3752385 -0.2527983 0.034143362 0.0071390145 0.2755943 -0.17908901 0.09466496 0.11338486 0.19916953 0.5663558 -0.11259399 0.22734478 0.70770484 -0.48907796 -0.29183784 0.49069008 0.1250775 0.6453869 0.9239975 -0.0229634 0.6829764 -0.44509444 0.38330564 -0.042806324 0.08732413 0.6319762 -0.50615466
angebotsseite 0.04868379 -0.18506129 0.0836316 -0.18008173 -0.09736905 0.29198557 0.25805882 -0.4041816 -0.006760528 -0.25299525 -0.077953905 -0.27822876 0.21278855 -0.31901607 -0.22666852 0.08724162 0.36944246 0.26212287 0.13156714 0.025896473 0.15350772 -0.41061535 0.14991665 -0.38964143 -0.035533745 0.047601223 0.20927037 -0.93115115 0.10446026 -0.2728177 -0.113566555 -0.021565707 -0.2137477 -0.418176 0.30667636 -0.36239702 -0.08654437 -0.4122941 0.21827544 0.30186146 0.2242272 0.3506251 -0.11315417 0.019248307 -0.34913316 0.17108178 0.18635052 0.19485971 0.09621992 -0.034481637 0.43548852 -0.6894909 0.033138223 0.18549232 -0.0360592 0.6161383 -0.1412868 0.0466709 -0.35193902 0.24252081 -0.17050906 0.47643846 0.36386558 0.54352754 0.081230834 -0.02185484 0.15238279 -0.4656393 0.055365913 0.0488996 -0.2058955 -0.06744447 -0.16556048 -0.049030494 0.030708078 -0.18469204 -0.1841033 -0.266967 -0.15310861 0.52040994 -0.26442075 -0.4653004 0.018196272 -0.1858488 -0.2646785 0.23368002 0.5489792 -0.1474704 -0.2287619 0.10052177 -0.06875576 -0.0011651708 0.10144129 0.6203724 0.1604613 0.16887392 0.15671146 0.26620963 -0.36131686 0.53902227 -0.38508904 0.12224168 -0.3720359 -0.30724496 -0.3060595 -0.191528 0.19160405 0.49369943 -0.00042126756 0.37607098 0.14011085 -0.9271029 0.08353129 0.037308957 -0.0070747253 -0.10496355 -0.005701924 -0.06036715 0.3139788 -0.06913648 -0.0046238564 -0.26388472 0.32972425 0.06220914 -0.22933175 0.12406287 0.3777196 0.511122 0.3106445 -0.3927543 -0.036500987 0.13865489 0.23687562 -0.21441627 -0.09555351 -0.034537725 -0.04138848 0.104583524 -0.35545424 0.070774876 0.0018239203 -0.1884083 0.3185128 -0.18802817 0.052870054 -0.25248793 0.38240322 -0.39328575 0.42113656 -0.64034504 0.20345503 0.017376972 0.35483906 -0.012914463 -0.15753624 0.21507624 -0.0585554 -0.0229337 0.017904554 0.34046853 -0.47065333 0.13582726 0.0057889596 0.06391262 -0.10179991 0.05676969 -0.24032094 0.17445287 2.296908e-05 0.19114155 -0.244 -0.051442094 0.57797056 0.364879 0.42542195 0.21638249 -0.47132668 0.2015713 0.46118325 0.30595544 -0.39537138 0.35413995 -0.6235874 -0.230008 -0.040754374 -0.00951971 -0.12732783 -0.05786929 -0.11316276 -0.52528197 0.082954735 0.26153234 -0.3476856 -0.6152569 0.2662992 -0.15070559 0.2925963 -0.28794038 -0.14103906 0.25644994 -0.088130474 0.27245048 -0.29574203 -0.505747 0.39737856 -0.03593708 0.031742584 -0.051335454 -0.26216152 -0.0015397319 -0.40489677 -0.022449495 0.094721615 -0.014706276 0.77596563 -0.2793381 -0.39468008 -0.32026845 -0.14720373 0.008447796 0.120862216 0.6156761 -0.042631675 0.5538636 -0.022633597 -0.13008228 -0.41240308 -0.14781463 -0.108696 -0.50877273 0.013191804 -0.1472279 -0.008603399 0.31067383 -0.14512932 0.23024812 0.41501412 -0.07752344 -0.17246658 0.058596667 0.033091836 0.30480552 0.15899238 -0.3242328 -0.3035591 -0.0807002 -0.06343614 0.13976118 0.2094332 -0.32649565 0.032544814 0.012224709 0.5286641 0.0051294304 0.104177244 0.38112387 -0.33248395 -0.5212382 0.18202446 -0.1601424 0.036291458 0.36717805 0.10731468 -0.3026835 -0.42703322 -0.6207424 0.30615035 -0.061343364 -0.52053463 0.44846693 -0.34716675 -0.2207248 0.09247717 -0.35095605 0.04978475 -0.27208525 0.49492016 0.17271046 -0.4663209 -0.12544191 0.2133118 -0.1912633 0.23616675 0.2721544 0.11436217 0.13452952 -0.06164055 0.09508225 -0.23495594 -0.0013490561 -0.16478316 -0.14086372 -0.11344245 0.37493044 0.12334276 0.038322326 0.011446836 -0.015263207 0.0013974244 0.15813445
bestandsaufnahme 0 0 0 0 0 0 0 0 0 0 0 0 0 0 0 0 0 0 0 0 0 0 0 0 0 0 0 0 0 0 0 0 0 0 0 0 0 0 0 0 0 0 0 0 0 0 0 0 0 0 0 0 0 0 0 0 0 0 0 0 0 0 0 0 0 0 0 0 0 0 0 0 0 0 0 0 0 0 0 0 0 0 0 0 0 0 0 0 0 0 0 0 0 0 0 0 0 0 0 0 0 0 0 0 0 0 0 0 0 0 0 0 0 0 0 0 0 0 0 0 0 0 0 0 0 0 0 0 0 0 0 0 0 0 0 0 0 0 0 0 0 0 0 0 0 0 0 0 0 0 0 0 0 0 0 0 0 0 0 0 0 0 0 0 0 0 0 0 0 0 0 0 0 0 0 0 0 0 0 0 0 0 0 0 0 0 0 0 0 0 0 0 0 0 0 0 0 0 0 0 0 0 0 0 0 0 0 0 0 0 0 0 0 0 0 0 0 0 0 0 0 0 0 0 0 0 0 0 0 0 0 0 0 0 0 0 0 0 0 0 0 0 0 0 0 0 0 0 0 0 0 0 0 0 0 0 0 0 0 0 0 0 0 0 0 0 0 0 0 0 0 0 0 0 0 0 0 0 0 0 0 0 0 0 0 0 0 0 0 0 0 0 0 0 0 0 0 0 0 0
angehend 0.11311712 -0.106657326 -0.03108747 -0.1638829 0.030401757 -0.0003162079 0.15886332 0.09826869 -0.082893275 -0.07945085 0.045162965 0.016523411 0.05007109 0.030019863 0.026223548 0.051811367 0.059147358 0.11964067 0.05066474 0.25869125 0.16933502 -0.08355943 0.026550129 -0.0394997 -0.11470084 -0.045835875 0.051113058 -0.02528758 -0.03349775 -0.045867495 0.10495556 -0.121896416 -0.11549073 -0.24471846 0.07972546 0.2038035 0.08748162 -0.08071165 -0.0694562 -0.08843303 0.15038075 -0.04794411 0.04572804 0.04414471 -0.15649185 0.051885325 -0.04375171 0.07148055 0.065680906 -0.021705395 0.25615042 -0.21344218 0.06271156 0.090105206 -0.013572712 0.1205764 -0.041538425 0.11122412 0.0514283 0.16513146 -0.17954837 0.090788595 -0.069927774 0.08503787 0.10807504 0.09674571 -0.07896818 -0.03822738 -0.18465884 -0.06606139 -0.03613331 -0.039047245 -0.082850225 -0.16622582 0.07581767 -0.021800376 -0.10401342 0.08657721 -0.18396433 0.12782776 -0.03684879 -0.15825295 -0.045126155 0.12755601 -0.07866386 0.04944028 -0.041724745 0.05358019 0.034545098 -0.058849957 -0.03821184 -0.112923525 0.0012455208 0.18409695 -0.027298821 0.0015605729 -0.0016735061 -0.16144773 -0.117335424 0.17291687 0.06981135 -0.061040547 0.011515486 0.042047374 -0.027880259 -0.011252901 0.1719304 0.03703241 -0.1359384 0.04501716 -0.015076665 -0.011138969 0.042992156 0.07979816 -0.060820088 -0.023799809 -0.031607393 -0.0070662885 0.068406224 -0.08639597 -0.044229116 0.013218633 0.23328455 -0.030645076 -0.01664348 0.029878179 0.01687497 0.04424364 -0.03923079 -0.065826386 0.050362904 0.027684042 0.056355797 0.02694846 0.054621637 -0.06628395 0.08673083 0.025832249 -0.25166154 0.022936046 0.08957272 -0.030262992 -0.025088571 0.026403952 -0.028657528 -0.08575081 0.04353144 0.055381276 0.15244348 -0.14476424 0.18499419 -0.035980124 -0.026430665 0.09277748 -0.079728365 -0.028298818 0.23994276 -0.013168954 0.085938916 0.12887251 0.09334589 -0.116718166 -0.028369242 0.059969928 -0.10141288 -0.19180466 -0.018956179 -0.030257264 -0.019256039 0.12542869 -0.010321422 0.040065907 0.06753703 0.029426627 -0.028366262 -0.056369595 -0.056954872 -0.018121894 -0.053607546 0.049542323 -0.01918835 0.28215408 -0.16761285 -0.064318925 0.05712669 -0.034069907 -0.02926334 0.021078413 0.06720268 0.01733604 0.08083902 0.19428124 -0.11358367 -0.0036271254 0.19171682 -0.15518296 0.01751485 -0.010171659 0.084114276 0.063566275 -0.14963369 -0.007758461 -0.19483274 -0.08200441 0.06302384 -0.11769521 -0.11337389 0.015356938 0.10811363 0.28481567 0.09641357 0.08312036 -0.046932943 -0.011837327 0.11607286 -0.04949903 0.060121346 -0.09880815 -0.06474598 -0.09575164 0.14374824 0.08646103 -0.01946898 0.07641205 0.03905692 -0.067664884 0.09673082 0.094546676 -0.14391287 -0.029995136 -0.01709924 -0.21398851 -0.09425951 -0.0045722984 -0.049526826 -0.07674844 0.18022923 0.037292615 0.013363178 0.08791664 -0.00699604 0.09723302 0.07864473 0.18591648 -0.12146537 -0.008716754 0.00742684 0.07874705 0.055066217 -0.021420306 0.04982159 0.045022786 0.11454462 0.10296275 0.06323738 -0.019946326 0.009239252 0.02255661 -0.22268224 0.00868804 -0.08807208 -0.01680864 0.07887535 -0.123900935 -0.1949904 -0.07543451 -0.11699581 -0.077324994 -0.1440393 0.048187863 -0.15740702 0.019247347 -0.2457957 -0.084241845 -0.049654726 -0.013041136 0.037356693 0.15777738 -0.06061279 -0.07666403 -0.11712244 0.032668956 0.040658746 0.1419011 -0.12682965 0.05993331 -0.03151212 -0.040420204 -0.16345684 -0.07465841 -0.008867157 0.22016294 0.21865949 -0.014455824 -0.005206613 0.26496294 0.012519442 -0.21760336 -0.018171383 -0.05866075
verfahrenstechnik 0 0 0 0 0 0 0 0 0 0 0 0 0 0 0 0 0 0 0 0 0 0 0 0 0 0 0 0 0 0 0 0 0 0 0 0 0 0 0 0 0 0 0 0 0 0 0 0 0 0 0 0 0 0 0 0 0 0 0 0 0 0 0 0 0 0 0 0 0 0 0 0 0 0 0 0 0 0 0 0 0 0 0 0 0 0 0 0 0 0 0 0 0 0 0 0 0 0 0 0 0 0 0 0 0 0 0 0 0 0 0 0 0 0 0 0 0 0 0 0 0 0 0 0 0 0 0 0 0 0 0 0 0 0 0 0 0 0 0 0 0 0 0 0 0 0 0 0 0 0 0 0 0 0 0 0 0 0 0 0 0 0 0 0 0 0 0 0 0 0 0 0 0 0 0 0 0 0 0 0 0 0 0 0 0 0 0 0 0 0 0 0 0 0 0 0 0 0 0 0 0 0 0 0 0 0 0 0 0 0 0 0 0 0 0 0 0 0 0 0 0 0 0 0 0 0 0 0 0 0 0 0 0 0 0 0 0 0 0 0 0 0 0 0 0 0 0 0 0 0 0 0 0 0 0 0 0 0 0 0 0 0 0 0 0 0 0 0 0 0 0 0 0 0 0 0 0 0 0 0 0 0 0 0 0 0 0 0 0 0 0 0 0 0 0 0 0 0 0 0
anleiten 0.06895127 0.3228753 -0.2120891 -0.20310259 -0.15557513 0.2522788 -0.047547355 -0.20432495 -0.78251904 -0.101977386 0.062043734 0.062095556 0.39564425 0.040358312 -0.31192508 0.5184039 0.029164225 -0.23845117 -0.32971793 0.33750063 -0.46019983 -0.52077454 -0.10715759 -0.7222216 -0.063376814 0.058912404 -0.044554953 -0.398052 0.03218517 -0.2473556 0.6833002 -0.05631063 -0.16116889 -0.027909728 0.9560417 0.09038269 -0.37407982 -0.49062747 0.13698487 -0.35468853 0.4787297 -0.4575125 -0.2013702 0.34571567 -0.74476486 0.545168 0.21391355 -8.78141e-05 -0.29140645 -0.0344016 -0.7089269 -0.44228593 0.5230923 0.8009727 -0.22676706 -0.26562473 -0.2952733 0.2095248 -0.2508641 -0.38533878 0.21344641 0.14024132 -0.2855109 0.7196179 -0.19999255 -0.017532475 -0.4051036 0.011756617 -0.41593957 0.46343777 0.34708416 -0.26632208 0.36548525 0.036795653 -0.28747734 -0.47263074 -0.43934897 0.7759749 -0.40752062 0.036514312 -0.21338287 0.14787933 0.09867228 0.8884585 -0.30552796 -0.08611813 0.48130462 -0.26855716 -0.008468625 -0.37525663 -0.014440514 -0.596166 1.0390233 0.04523294 -0.09899922 0.71465856 -0.10774795 -0.6899613 -0.46088213 -0.052751575 -0.0022447857 0.17413807 -0.11326347 -0.00092184794 0.26458383 -0.30489397 0.027194355 -0.081114754 -0.5056213 -0.21955122 -0.3984282 -1.0089918 0.14310612 -0.87985593 -0.26271507 0.024895439 0.107624546 0.14293385 -0.12955724 0.008332366 0.39827383 0.118959844 0.5498005 -0.18365021 -0.41553932 0.24192415 0.40054598 0.37554896 -0.036164664 0.3217109 0.36039144 0.5493402 0.3808169 -0.033407666 -0.37498787 -0.06554554 -0.36729977 -0.4538651 -0.6361963 -0.12838273 0.8409949 -0.47608086 -0.27189454 -0.006937703 -0.34367767 0.11763921 -0.20703094 -0.030033378 -0.16586803 -0.6935953 0.5472933 -0.037339244 0.3007278 -0.4045319 -0.011225069 0.53355193 -0.109275535 0.6671494 -0.072148874 0.1720748 -0.30978033 -0.6770432 -0.11714269 0.22418962 0.29183522 0.5045696 -0.68799937 -0.5902729 -0.038653374 0.6222745 -0.69488204 0.14257282 0.053248134 -0.32565317 0.5058058 -0.71010405 -0.576214 0.04357797 -0.2659664 0.27182996 -0.12721984 0.6981095 -0.17471221 -0.048665207 -0.40143484 0.027620163 0.25208575 -0.2052076 0.44649938 0.013478289 0.30653578 -0.13961889 -0.05603067 0.42941245 0.5863995 -0.16130283 -0.49681073 0.17991026 -0.06802702 -0.17619838 0.16784841 -0.5079569 0.110711254 -0.2800936 0.33646387 0.091736 -0.7222517 0.28094772 0.6228091 -0.24144481 0.19654979 -0.061513703 0.24434535 -0.112278216 1.0475034 -0.058229864 -0.37073725 -0.6166909 -0.58764434 -0.529616 0.012668716 0.14857441 -0.083746806 -0.47752154 -0.6757261 0.21463408 -0.90717757 -0.5798895 -1.2131221 -0.32757863 -0.069939956 -0.43066242 -0.7564024 0.27682126 -0.32083935 -0.1785618 0.22189303 0.5173167 0.2672517 0.06913906 0.030028284 -0.0019746218 -0.1605885 0.39246756 0.23293199 0.8256031 0.41266727 -0.18458582 -0.23309384 -0.014263616 -0.4175468 0.31650743 -0.13867077 0.14913256 0.09327804 -0.18824981 -0.55567026 -0.10236916 -0.5090369 0.19936228 -0.10786427 0.3846889 -0.34469515 -0.05384707 -0.11887198 -0.19156232 0.18803516 -0.27433693 -0.19271393 0.58037084 -0.3075578 -0.08450468 0.42322928 -1.1289568 0.38949737 -0.46877435 -0.17211449 0.17513506 -0.30801126 -0.12737116 -0.37578106 0.24338187 -0.02826419 0.3968812 0.40354136 0.36238542 -0.7058502 -0.342731 -0.5897417 -0.6751383 -0.042603757 0.31263128 0.60534275 0.47753912 -0.3615297 -0.13972418 0.007657552 -0.76334935 0.07663735 0.36755094
rekonstruieren -0.5840413 0.57116395 -0.10645125 -0.3854689 -0.03210419 -0.014766543 0.42413816 0.6403481 0.4274411 0.18917672 -0.16754988 -0.19042183 0.45424277 0.31679785 -0.23830117 0.017886935 -0.19738926 -0.050927766 0.5222366 0.063658096 -0.7828838 0.035305787 0.02124682 0.013245811 0.3822406 0.22730762 -0.29804164 -0.1820248 0.71553266 -0.05490041 0.39738545 0.23650554 0.06373313 0.19511835 0.064161904 -0.40791553 0.048614692 -0.15416989 -0.17612325 -0.07299021 -0.6968563 0.35371673 0.47085148 -0.15157145 -0.6741756 0.78597987 0.022244584 -0.512781 0.21897443 -0.15371434 0.20012733 -0.61543816 0.70310324 -0.06647184 0.6101254 -0.22194234 -0.54168415 -0.5439154 0.47571507 0.14980349 0.20001245 -0.3854756 0.14548273 0.67111015 0.3344512 0.49367824 0.20377092 0.14394662 -0.8910877 -0.033983245 -0.27834547 0.38846505 0.7861182 -0.33257705 0.67078507 0.63010925 -0.06267043 -0.36283004 -0.3895454 0.76195526 0.1553984 0.39939174 -0.33208632 0.33866224 0.2688925 0.47822618 0.072587416 -0.14130777 -0.07008679 -0.08228547 0.4426806 -0.30160752 1.5002253 0.021268135 0.13086724 0.053486902 0.08734944 -0.35696423 0.19467396 0.6917774 0.0988588 0.19575739 0.5903283 -0.5729811 0.33736432 -0.1423145 -0.13180627 0.44897273 -1.1189617 -0.54681146 0.36337927 0.18574944 0.14237411 0.058529858 0.23188509 -0.46006295 0.246365 0.34440917 0.3910467 0.26093224 0.8574316 -0.078898594 0.2134999 0.0036602812 0.14147758 0.39309022 -0.45001578 0.21036191 -0.72223794 -0.32793424 -0.36840403 0.40307525 -0.40847728 0.28098518 0.11449668 0.248969 0.21190426 0.22823621 -0.34993133 -0.20462655 0.34452626 0.37905037 0.17099799 0.23115155 -0.9361309 -0.8255619 -0.42724583 -0.14775473 -0.01235201 -0.20379524 -0.27624142 -0.0553552 0.6536317 0.38252413 0.19226408 -0.32107762 -0.06452404 -0.030669926 -0.46708363 0.5345533 -0.52125716 -0.47161692 0.5013945 0.052199982 0.7021138 0.7865933 0.0858954 -0.67098165 0.47036427 0.4951056 -0.4922209 0.23761986 -0.009923996 -0.4500509 0.12581998 0.02501308 -0.18364929 0.442677 0.57600653 -0.31770954 -0.57009554 0.36419553 -0.51991606 -0.48980308 0.10530134 -0.8801709 0.1424686 -0.40892404 0.284659 0.19395407 0.4926593 0.06693303 -0.26725733 -0.29586384 -0.009400759 -0.48170343 -0.698407 0.2346646 1.098094 0.19874758 0.28959727 -0.19555223 -0.01515481 -0.7006354 0.5883125 0.23776112 0.13504072 0.7309736 0.35071352 -0.04938877 0.08415064 -0.27765936 0.34712756 -0.06962312 0.4687426 0.41718927 -0.86830235 -0.22218886 -0.35064095 -0.035514835 0.78570884 0.071654685 -0.8883648 -0.0068281787 0.10419782 -0.37834054 0.17912826 0.19545004 -0.6361615 -0.19228862 -0.54825354 -1.0137377 -0.113576025 0.32066098 0.12835549 -0.8616552 0.09326465 0.3051794 -0.117688365 -0.34249264 -0.263874 -0.92140895 0.041845463 0.33888313 0.22133948 -0.24785098 0.07308845 0.38750827 -0.053129725 -0.5009606 -0.3025512 0.41479045 0.20448568 -0.2598993 -0.39551616 -0.39362547 0.15322128 0.21370569 -0.41358113 0.21486019 0.35312158 0.14696175 -0.109617434 -0.22276282 0.15329802 0.09590297 0.10530038 0.44063216 0.04712305 0.15321623 0.31761947 0.5053309 -0.08144572 0.12198725 0.3817948 -0.47742656 0.07616756 0.7571186 -0.12867449 0.1290098 -0.7173234 0.018569054 0.885579 0.2074968 -0.23471877 -0.12139944 -0.29900342 0.31023106 -0.32746628 -0.6716796 0.066350356 0.058441922 0.23726216 0.5974217 0.2536768 -0.2585783 0.103757314 -0.752316 0.26395625 0.8582473
ansatz -0.11368369 -0.10149722 -1.0578932 -0.8184499 -0.55473197 0.52458274 -0.04258446 -0.72275645 0.50924045 0.0020946958 -0.5795473 0.4347993 -0.12338749 -0.41584224 -0.25202104 0.45269692 0.2930746 -0.21380252 0.9208691 0.10096108 -0.37698647 0.09067491 0.15788865 -0.32859313 -0.07066041 -0.10823569 -0.55058885 -0.12625827 0.548675 -0.7375073 -0.21062823 0.51436454 0.29024792 0.21466298 -0.06331187 0.3956009 -0.32143793 0.10153767 -0.3632129 -0.2695341 0.43703753 0.26688737 -0.98502237 0.55979234 -0.4220521 1.2474861 0.28004298 0.67587984 0.1644762 -0.81360483 0.26767206 -0.099353425 0.11234476 0.7528855 -0.11771027 0.24358396 0.4750396 0.03814855 -0.85488206 -0.44344658 0.57247317 0.33957657 0.85306 -0.009656342 0.51488143 0.056582153 -0.3888524 -0.5190497 -0.51751405 0.029352928 -0.27859628 0.05290369 -0.119157925 -0.35760406 -0.25332177 -0.64203197 -0.40731576 0.21132763 -0.4125964 -0.06194554 -0.060264174 -0.006344352 0.17282881 0.24655244 -0.28294703 -0.32588276 -0.14170833 0.43768683 -0.4293581 -0.12822102 -0.22394548 -0.6038993 0.15839015 -0.0108075235 0.1253796 0.119970545 -0.051992733 -0.22895391 0.26157725 -0.1672258 0.11801235 -0.121774875 -0.60049754 -0.30740717 -0.93421185 -0.54472494 0.88800836 0.31888047 -0.14630103 -0.6835486 0.29852712 -0.71876615 0.2951731 0.15211076 0.24706325 -0.13701034 -0.68254864 -1.2871714 -0.013613095 0.17869666 0.36887467 0.2558655 0.14180738 -0.34195012 -0.25340515 0.18158872 0.0064657894 0.30998865 -0.36044875 0.63746715 0.10170913 0.21231587 -0.32043964 0.39376858 0.15231226 -0.7270357 0.8658185 -0.06607788 -0.23719099 0.13282937 -0.14882083 0.1784514 0.60406137 -0.067330375 -0.21823017 -0.38070953 0.44041565 -0.1129879 0.5258739 0.25571686 -0.41096675 0.5663983 0.5679922 -0.1669676 -1.0879935 -0.11598736 -0.84735096 -0.073174424 -0.24195093 -0.029104823 -0.32507342 0.26924184 0.29377204 0.08410624 -0.22777306 0.79174525 0.5029224 -0.19219887 0.42445508 0.9691696 0.018824559 -0.51628137 0.17601171 -0.029193029 0.38516057 -0.1059669 -0.3351226 0.03153133 -0.8298785 -0.34808862 -0.34011528 0.93270683 -0.6493143 -0.15831862 -0.16844006 -0.10150978 -0.010990307 -0.79694253 0.48155436 0.23014061 0.23780546 0.28599676 -0.48782238 -0.22344187 0.2610843 -0.24514662 -0.25925502 -0.8845308 0.45923054 -0.13651276 -0.40048423 0.38107055 0.51907694 -0.23535965 0.08850482 -0.6430698 0.46548045 0.27521735 0.28981346 0.33989483 -0.27136466 0.7828973 0.055999875 0.3445464 0.5933976 0.5404037 -0.23505473 0.06496674 -0.16728799 0.24946654 -0.41464666 -0.2790315 0.22665444 0.052331176 0.066836536 -0.36163113 0.283545 0.44476935 0.06933654 -0.7161834 0.68521535 -0.6583321 -0.8046925 0.8013402 0.03921029 0.1110497 -0.025649559 -0.23250453 -0.1372237 -0.17097127 -0.20374852 0.573792 -1.0190154 -0.22470467 -0.26315007 -0.4103078 -0.41671252 -0.41545933 0.68428785 -0.30056506 0.30992848 -0.17525303 0.10593518 0.49238887 0.13713214 0.39459085 0.060457937 -0.46917745 0.24862528 0.1692767 0.9280226 0.33966893 1.5918584 -0.58060306 -0.590555 0.042628445 -0.3482381 -0.090500236 -0.9159565 0.23930524 -0.9654941 -0.11416209 0.36806226 -0.5986351 0.014769655 0.023879513 0.53125215 -0.26127234 0.123209596 0.25400403 0.17310143 0.4698111 0.27363384 0.29244238 0.89036894 0.020576611 -0.09388653 -0.2439877 -0.19607025 -0.54557866 0.058713745 1.0497018 0.42078596 0.36643067 0.26017553 0.08553617 0.3841985 -0.61101544 -0.01759922 0.3347078
europäisch 0.5240439 0.59881824 0.24399805 -0.62087965 -0.5045378 0.13257636 -0.08340094 0.21035458 -0.30134913 -0.16298479 -0.34538049 -0.034393713 -0.005984998 0.38398376 -0.18285644 -0.18294829 -0.060889743 -0.23199098 -0.1454091 0.06547317 0.032976463 -0.41148624 -0.04185086 -0.054854635 -0.5284826 0.6191355 -0.16635267 -0.6478003 0.02616962 0.028665897 -0.6243248 -0.19592811 0.49976912 -0.56896335 0.48592663 0.063625745 0.5748457 -0.9122244 -0.38788864 0.009161183 1.220483 0.59956026 0.22962883 0.13265066 -0.5481171 0.21080859 0.5104428 0.7468187 -0.32775396 -0.74168694 -0.14793341 -0.6741513 -0.06477328 0.028541813 -0.29955518 0.46503836 0.13677515 0.41774142 0.48746812 0.18438984 -0.34071377 0.16455169 -0.3372482 0.120675944 0.34304205 0.23838638 -0.36258325 -0.20051861 -0.11549111 0.1432132 -0.170075 -0.49044275 0.4443856 -0.017205043 0.42965388 0.35500297 0.60843563 -0.2930408 -0.008117185 0.77730024 -0.44731176 -0.48938474 1.0420891 0.49880177 -0.5717378 0.37766096 0.7031529 0.8184057 -0.12906167 -0.6879871 -0.040977806 0.9232306 0.007273577 -0.25525486 0.22499837 -0.80076605 -0.784572 -1.2097936 1.1254001 1.7903371 -0.82596916 0.015527139 0.004800944 -0.9080718 -0.18109222 -0.22973086 0.24166064 0.9688749 0.60210246 0.04697837 0.08939463 -0.9773125 0.64105505 0.96641594 0.7719353 0.86132413 0.78547704 0.47770444 -0.41494527 -0.29247075 0.3564404 0.3673778 -0.08469497 1.1884065 0.29778713 0.94866985 0.35104057 0.4816731 -1.3838288 0.17374638 0.51545113 0.14807439 0.28949624 0.2100449 0.984332 0.016189601 0.84067523 0.060676143 -0.17655109 0.31053355 0.11635973 -0.7783324 0.8375992 0.4366515 -0.08911654 -0.50331837 0.07082805 0.33864534 0.1931833 -0.28023076 -0.7162736 0.22702782 0.1839757 -0.5555169 -0.8369869 0.051896647 0.094400376 0.711355 -0.14981803 -0.34729528 -0.1757407 -1.105506 0.41186073 -0.40788138 -0.029030897 -0.47253788 0.16076127 -0.4036211 -0.66763496 0.40663216 0.61057764 -0.24268943 0.35629 0.2632613 -0.29319593 -0.07977158 -0.34000587 0.99240184 -0.5476641 -0.48930794 -0.097568125 0.29636973 -0.4835087 0.46881455 -0.041811127 0.01926772 0.29600403 0.4894919 -0.19021304 -0.1554896 0.020472571 1.1585077 -1.1147051 0.21532275 -0.48680323 -1.1732795 0.12030698 -0.53737575 -0.36516032 -0.1353003 0.26676062 0.46819797 0.27321905 0.13038552 -0.6238793 0.057120163 0.5815043 0.42421347 0.19613 -0.43347454 0.4730994 1.4152799 1.0332104 0.112744085 0.43425366 0.3803101 0.29011956 0.6467482 0.2109982 -0.4476152 0.171882 0.29078087 0.06104758 -0.6889453 -0.10141895 -0.62371725 0.534932 0.58727396 -0.6072015 -0.66304505 -0.51667386 0.37916085 0.16233686 -0.093373485 -0.1328991 0.12848759 0.30939168 0.9493267 -0.07198347 0.117052004 -0.1450312 0.23434983 -0.4507986 0.1915246 -0.62575865 0.58935446 0.8706635 -0.47472298 -0.37157008 0.2480402 0.2126084 0.26023734 0.7150907 0.7617987 0.7197378 -0.5369492 -0.24188483 -1.1799271 -0.279299 0.25394163 0.06976484 0.15169834 0.3441864 -0.34837502 -0.7540184 0.5937108 -0.040805127 0.16907555 -0.8916517 0.078899905 -0.5707955 0.18164365 -0.9156016 -0.2970433 -0.5472209 0.54398936 0.5706681 -0.17873782 0.048168 0.7079882 -0.2865239 -0.3608504 0.5094355 0.69696015 0.11907915 -0.23816797 -0.51639646 -0.115070336 -0.30629352 -0.50771534 0.04502314 0.55699366 -0.39473882 -0.13355957 -0.08160354 0.15153538 0.037066877 -0.3701605 -0.8663081 -0.3806104
anschließend -0.34969544 0.023400523 -0.40213925 -0.77869564 -0.2530791 -0.40196097 0.01894313 0.21201098 -0.5115966 0.09255935 0.0658116 0.45610908 -0.17958555 -0.21041076 -0.06354706 0.23053536 0.37746087 0.17257525 -0.27147916 0.10236686 -0.22885081 -0.12536044 -0.66083604 0.33697462 -0.2598496 0.04083315 0.009740853 0.22907172 -0.77500916 0.30904266 0.31562027 -0.05376443 0.026357174 -0.6482692 -0.21252201 0.68381894 -0.11917617 -0.5572322 -0.52539176 0.036732465 0.67418754 -0.06278723 -0.12032104 0.30927908 -0.022994747 0.6003869 0.34200135 -0.27051118 0.08233799 0.08303796 0.48615324 -0.19260195 -0.16254492 -0.11417127 -0.18203594 0.2727054 -0.24282894 0.27932897 -0.14858961 0.04877705 0.0006704445 0.5317747 -0.09553476 0.23431288 -0.55243176 -0.24546699 -0.72451735 0.6804079 0.22613548 -0.23446089 -0.64465505 0.11723574 0.030945571 0.23958066 -0.13175222 -0.12399694 -0.93448126 0.46164927 -0.37315956 0.77395135 0.110611506 -0.17501579 0.16709277 0.35331196 -0.183028 0.15319549 -0.07697708 0.6600712 0.7552177 0.38581058 -0.1415736 -0.06434493 -0.04372985 -0.119907714 -0.0003817066 0.20468916 0.00861151 -0.8317331 -0.36616698 0.06248349 0.092356876 -0.26293162 0.07106931 0.18265693 0.20207608 -0.21656682 -0.11403261 0.026251176 -0.29130325 0.45729074 -0.37141564 0.14794813 0.56469935 -0.9031408 0.09141117 -0.024861045 0.32551357 0.7329407 -0.1327209 -0.19981724 -0.15215187 0.21072692 0.20197116 0.78400636 0.34768146 0.14262791 0.4780855 0.58617294 0.3378124 -0.18455254 0.54835755 0.24709648 -0.02736457 -0.3060631 0.0013090995 0.17137796 0.5250691 -0.02990325 0.2180079 0.17182443 -0.12056893 -0.5517257 -0.3471295 0.14807487 0.2258385 0.20598081 -0.61928004 0.08183761 -0.0400216 -0.036363 0.020246267 -0.031245062 -0.061969586 0.55352694 -0.40217727 -0.031113219 -0.4001642 0.071587734 0.51615644 0.053930856 0.22410242 -0.43628758 -0.85827905 -0.12508966 0.05286025 -0.22084762 0.028829338 0.7763877 0.17440864 -0.10323523 -0.44029737 0.5761262 -0.16119407 0.12145307 0.24248418 0.1794103 -0.13355197 0.061670527 0.049206816 0.7172117 -0.6861885 0.44325715 -0.35255402 0.15508252 -0.477001 -0.12402728 -0.5982683 -0.6877483 0.11158175 0.1732874 0.2575987 0.040207002 0.11323791 0.068047255 -0.35383922 -0.151881 -0.48496795 -0.28975707 0.40574634 0.071422346 -0.059925653 -0.6418769 -0.20963363 -0.999233 -0.07215852 0.31647077 0.0005586276 -0.15567075 0.23554178 0.37379664 -0.24519306 -0.5209131 0.47921914 -0.18349513 -0.14924729 -0.100268565 -0.2676453 -0.35366803 -0.34060264 0.20785034 0.65848064 -0.06216381 -0.55163825 -0.22176687 -0.22482073 -0.008379299 0.48148254 0.3026684 0.17835802 -0.58836615 -0.9570545 -0.5192947 0.20477471 0.32555142 -0.11814946 0.38679555 -0.46437147 -0.08587488 0.48559862 -0.47137594 0.47125563 -0.23251785 0.010740079 0.4589615 0.35709134 0.019811682 -0.43223473 -0.14665414 -0.0054383813 0.35163558 -0.4932513 -1.0119191 0.38833746 0.034002777 -0.23841822 1.0317715 0.18184099 0.28210327 -0.11789828 0.012924912 -0.13760434 0.36118487 0.5402822 0.2121097 -1.0080193 -0.51290226 0.25886855 -0.19711788 -0.48110792 -0.006771378 -0.047256347 0.4049563 0.22401507 0.07651011 -0.5959024 0.3573556 0.22211951 -0.01650089 -0.628573 0.22274707 -0.44542366 -0.117034934 -0.05017429 0.2055393 0.27257684 -0.10748251 -0.014302653 0.40186974 -0.031826675 0.30967247 0.29769188 0.41628507 0.38526186 0.17275268 -0.104265966 0.3148663 -0.1501423 0.5878148 -0.06664722 -0.082228184
blutspendeaktion 0 0 0 0 0 0 0 0 0 0 0 0 0 0 0 0 0 0 0 0 0 0 0 0 0 0 0 0 0 0 0 0 0 0 0 0 0 0 0 0 0 0 0 0 0 0 0 0 0 0 0 0 0 0 0 0 0 0 0 0 0 0 0 0 0 0 0 0 0 0 0 0 0 0 0 0 0 0 0 0 0 0 0 0 0 0 0 0 0 0 0 0 0 0 0 0 0 0 0 0 0 0 0 0 0 0 0 0 0 0 0 0 0 0 0 0 0 0 0 0 0 0 0 0 0 0 0 0 0 0 0 0 0 0 0 0 0 0 0 0 0 0 0 0 0 0 0 0 0 0 0 0 0 0 0 0 0 0 0 0 0 0 0 0 0 0 0 0 0 0 0 0 0 0 0 0 0 0 0 0 0 0 0 0 0 0 0 0 0 0 0 0 0 0 0 0 0 0 0 0 0 0 0 0 0 0 0 0 0 0 0 0 0 0 0 0 0 0 0 0 0 0 0 0 0 0 0 0 0 0 0 0 0 0 0 0 0 0 0 0 0 0 0 0 0 0 0 0 0 0 0 0 0 0 0 0 0 0 0 0 0 0 0 0 0 0 0 0 0 0 0 0 0 0 0 0 0 0 0 0 0 0 0 0 0 0 0 0 0 0 0 0 0 0 0 0 0 0 0 0
anschließend -0.34969544 0.023400523 -0.40213925 -0.77869564 -0.2530791 -0.40196097 0.01894313 0.21201098 -0.5115966 0.09255935 0.0658116 0.45610908 -0.17958555 -0.21041076 -0.06354706 0.23053536 0.37746087 0.17257525 -0.27147916 0.10236686 -0.22885081 -0.12536044 -0.66083604 0.33697462 -0.2598496 0.04083315 0.009740853 0.22907172 -0.77500916 0.30904266 0.31562027 -0.05376443 0.026357174 -0.6482692 -0.21252201 0.68381894 -0.11917617 -0.5572322 -0.52539176 0.036732465 0.67418754 -0.06278723 -0.12032104 0.30927908 -0.022994747 0.6003869 0.34200135 -0.27051118 0.08233799 0.08303796 0.48615324 -0.19260195 -0.16254492 -0.11417127 -0.18203594 0.2727054 -0.24282894 0.27932897 -0.14858961 0.04877705 0.0006704445 0.5317747 -0.09553476 0.23431288 -0.55243176 -0.24546699 -0.72451735 0.6804079 0.22613548 -0.23446089 -0.64465505 0.11723574 0.030945571 0.23958066 -0.13175222 -0.12399694 -0.93448126 0.46164927 -0.37315956 0.77395135 0.110611506 -0.17501579 0.16709277 0.35331196 -0.183028 0.15319549 -0.07697708 0.6600712 0.7552177 0.38581058 -0.1415736 -0.06434493 -0.04372985 -0.119907714 -0.0003817066 0.20468916 0.00861151 -0.8317331 -0.36616698 0.06248349 0.092356876 -0.26293162 0.07106931 0.18265693 0.20207608 -0.21656682 -0.11403261 0.026251176 -0.29130325 0.45729074 -0.37141564 0.14794813 0.56469935 -0.9031408 0.09141117 -0.024861045 0.32551357 0.7329407 -0.1327209 -0.19981724 -0.15215187 0.21072692 0.20197116 0.78400636 0.34768146 0.14262791 0.4780855 0.58617294 0.3378124 -0.18455254 0.54835755 0.24709648 -0.02736457 -0.3060631 0.0013090995 0.17137796 0.5250691 -0.02990325 0.2180079 0.17182443 -0.12056893 -0.5517257 -0.3471295 0.14807487 0.2258385 0.20598081 -0.61928004 0.08183761 -0.0400216 -0.036363 0.020246267 -0.031245062 -0.061969586 0.55352694 -0.40217727 -0.031113219 -0.4001642 0.071587734 0.51615644 0.053930856 0.22410242 -0.43628758 -0.85827905 -0.12508966 0.05286025 -0.22084762 0.028829338 0.7763877 0.17440864 -0.10323523 -0.44029737 0.5761262 -0.16119407 0.12145307 0.24248418 0.1794103 -0.13355197 0.061670527 0.049206816 0.7172117 -0.6861885 0.44325715 -0.35255402 0.15508252 -0.477001 -0.12402728 -0.5982683 -0.6877483 0.11158175 0.1732874 0.2575987 0.040207002 0.11323791 0.068047255 -0.35383922 -0.151881 -0.48496795 -0.28975707 0.40574634 0.071422346 -0.059925653 -0.6418769 -0.20963363 -0.999233 -0.07215852 0.31647077 0.0005586276 -0.15567075 0.23554178 0.37379664 -0.24519306 -0.5209131 0.47921914 -0.18349513 -0.14924729 -0.100268565 -0.2676453 -0.35366803 -0.34060264 0.20785034 0.65848064 -0.06216381 -0.55163825 -0.22176687 -0.22482073 -0.008379299 0.48148254 0.3026684 0.17835802 -0.58836615 -0.9570545 -0.5192947 0.20477471 0.32555142 -0.11814946 0.38679555 -0.46437147 -0.08587488 0.48559862 -0.47137594 0.47125563 -0.23251785 0.010740079 0.4589615 0.35709134 0.019811682 -0.43223473 -0.14665414 -0.0054383813 0.35163558 -0.4932513 -1.0119191 0.38833746 0.034002777 -0.23841822 1.0317715 0.18184099 0.28210327 -0.11789828 0.012924912 -0.13760434 0.36118487 0.5402822 0.2121097 -1.0080193 -0.51290226 0.25886855 -0.19711788 -0.48110792 -0.006771378 -0.047256347 0.4049563 0.22401507 0.07651011 -0.5959024 0.3573556 0.22211951 -0.01650089 -0.628573 0.22274707 -0.44542366 -0.117034934 -0.05017429 0.2055393 0.27257684 -0.10748251 -0.014302653 0.40186974 -0.031826675 0.30967247 0.29769188 0.41628507 0.38526186 0.17275268 -0.104265966 0.3148663 -0.1501423 0.5878148 -0.06664722 -0.082228184
maschinenfunktion 0 0 0 0 0 0 0 0 0 0 0 0 0 0 0 0 0 0 0 0 0 0 0 0 0 0 0 0 0 0 0 0 0 0 0 0 0 0 0 0 0 0 0 0 0 0 0 0 0 0 0 0 0 0 0 0 0 0 0 0 0 0 0 0 0 0 0 0 0 0 0 0 0 0 0 0 0 0 0 0 0 0 0 0 0 0 0 0 0 0 0 0 0 0 0 0 0 0 0 0 0 0 0 0 0 0 0 0 0 0 0 0 0 0 0 0 0 0 0 0 0 0 0 0 0 0 0 0 0 0 0 0 0 0 0 0 0 0 0 0 0 0 0 0 0 0 0 0 0 0 0 0 0 0 0 0 0 0 0 0 0 0 0 0 0 0 0 0 0 0 0 0 0 0 0 0 0 0 0 0 0 0 0 0 0 0 0 0 0 0 0 0 0 0 0 0 0 0 0 0 0 0 0 0 0 0 0 0 0 0 0 0 0 0 0 0 0 0 0 0 0 0 0 0 0 0 0 0 0 0 0 0 0 0 0 0 0 0 0 0 0 0 0 0 0 0 0 0 0 0 0 0 0 0 0 0 0 0 0 0 0 0 0 0 0 0 0 0 0 0 0 0 0 0 0 0 0 0 0 0 0 0 0 0 0 0 0 0 0 0 0 0 0 0 0 0 0 0 0 0
antrittsvorlesung 0 0 0 0 0 0 0 0 0 0 0 0 0 0 0 0 0 0 0 0 0 0 0 0 0 0 0 0 0 0 0 0 0 0 0 0 0 0 0 0 0 0 0 0 0 0 0 0 0 0 0 0 0 0 0 0 0 0 0 0 0 0 0 0 0 0 0 0 0 0 0 0 0 0 0 0 0 0 0 0 0 0 0 0 0 0 0 0 0 0 0 0 0 0 0 0 0 0 0 0 0 0 0 0 0 0 0 0 0 0 0 0 0 0 0 0 0 0 0 0 0 0 0 0 0 0 0 0 0 0 0 0 0 0 0 0 0 0 0 0 0 0 0 0 0 0 0 0 0 0 0 0 0 0 0 0 0 0 0 0 0 0 0 0 0 0 0 0 0 0 0 0 0 0 0 0 0 0 0 0 0 0 0 0 0 0 0 0 0 0 0 0 0 0 0 0 0 0 0 0 0 0 0 0 0 0 0 0 0 0 0 0 0 0 0 0 0 0 0 0 0 0 0 0 0 0 0 0 0 0 0 0 0 0 0 0 0 0 0 0 0 0 0 0 0 0 0 0 0 0 0 0 0 0 0 0 0 0 0 0 0 0 0 0 0 0 0 0 0 0 0 0 0 0 0 0 0 0 0 0 0 0 0 0 0 0 0 0 0 0 0 0 0 0 0 0 0 0 0 0
justus -0.2927365 0.8727836 -0.6921459 -0.3793185 -0.20407705 -1.349721 0.04060006 0.72082055 0.27011228 -0.4493378 -0.05250123 -0.049336907 -0.4693606 -0.6445205 -0.65138346 -1.3647885 0.36013418 0.5502854 -0.016140506 -0.6595237 0.06842094 -0.30699605 -0.21019047 -0.45607138 -0.39383104 0.2657822 -0.57187265 -0.15311092 -0.6591906 0.2682117 -0.0051464858 0.056894656 0.50788075 -0.08267011 -0.38040444 1.1295068 -0.18841802 -0.15426373 0.5651791 -0.37925076 -0.7165013 0.168701 0.40577033 0.18979597 -0.035068143 -0.01982076 0.09046789 -1.5631201 0.5647167 0.4194624 0.17596778 -0.18408976 0.3652302 0.10156714 -0.22191016 -0.34071726 0.30800208 0.38344595 0.24615335 0.73479116 -1.3018705 -0.018165207 0.7933238 0.51817137 -0.14390458 -0.108551316 -0.2639393 -0.67875946 -0.55236524 0.31237122 -0.16683646 -0.17260484 -0.6856077 -0.91603136 -0.4848123 -1.1543224 -0.24726367 -0.72454435 -0.24689616 -0.16975173 -0.4720481 0.11982818 -0.40978447 0.31570637 -0.12789491 0.64364 -0.50534946 0.1236833 -0.16242382 -0.9006049 1.6794323 -0.30748472 0.096562825 0.0366762 -0.23568082 0.42991272 0.05335699 0.99888575 -0.5570599 0.29256338 0.30125275 -0.9804369 -1.3382925 -0.1250527 0.21986477 0.4097528 -0.09901691 -0.6716722 0.05215302 0.30082914 0.13254821 -0.78839725 0.6591587 -0.29198432 -0.031130645 0.66736645 0.07074042 -0.92785776 -0.2551437 0.107541315 0.33420318 -1.2241961 -0.08773252 1.1191059 1.0471965 -1.3638846 -0.32814524 0.6163415 0.077430815 -0.0033434378 0.48266965 1.2774954 0.16299242 -0.5595035 1.0637463 0.08161793 1.2723496 -0.6056697 0.118581995 0.12336408 0.7714208 -0.51451296 -0.46081316 0.4226235 0.12987491 -0.07289417 0.48804745 -0.40321606 -0.16554445 -0.4383073 -0.033924125 0.24150096 0.60746336 0.03938127 0.23695359 -0.06711031 1.1978331 1.0661366 0.58735013 0.46800223 -0.067814186 0.13895911 -0.31178102 -0.29855877 0.22271214 -0.3494697 0.22016487 0.5676039 0.66339266 -0.0500023 -0.5823208 0.8582852 1.248277 0.9194676 0.5203601 -0.69005466 0.1880377 -0.5557805 -0.0012749113 -0.6373666 -1.0248622 -0.6295383 0.08303109 0.21003573 -0.59508574 -0.69372255 -0.49592322 -0.3997027 0.7876848 -0.837143 0.27437595 0.7852755 -0.6178042 0.06395014 0.5536672 -0.19600767 -0.5312707 0.4962765 -0.9044631 0.0350576 -0.76811516 0.5509154 -0.18846096 -0.9276943 -0.04968399 -0.053462666 0.19554733 -0.657999 -0.000932744 -0.6782486 0.8344143 0.1536732 -0.027985765 -0.17073292 0.107267536 -0.28268698 0.16128 -0.6188124 0.25089756 -0.25456035 0.8246176 -0.22112687 0.49008918 -0.6206809 0.7879421 0.25108197 -0.10621901 -0.22757779 -0.9778837 -0.23882693 0.16770984 0.06665991 -0.32423088 0.35631323 -0.38714626 0.015751036 -0.1476938 0.94464904 -0.8459468 0.46096832 0.04747995 0.76964617 -0.44135535 0.30196047 0.12032581 -0.6720437 -0.6060242 0.042820852 0.5537525 1.6091832 -0.060223408 -0.72764343 -0.10192526 0.018250966 0.30731845 -0.043609813 -0.08353736 -0.64990026 -0.9127993 -0.026872257 0.09424964 0.5545087 -0.53167903 -0.45450708 -0.6336434 -0.14573939 -0.20154817 0.7220895 -0.66060424 -0.39532256 0.17314559 -0.73704195 -0.6691909 0.45070463 -0.43355867 0.266519 -0.12690139 0.8286593 -0.26422423 0.15995225 -0.29524258 0.21634352 0.55822 0.006589742 -0.10039413 0.14319415 0.56319606 0.34960493 -0.6796405 -0.27026266 0.081601374 0.34091613 -0.5486391 -0.20688756 0.09319539 -0.09840284 0.58017886 -0.65224725 -0.44054204 -0.5808405
approach -0.7936314 -0.88738054 -0.2569536 0.2526552 -0.36727992 0.48996982 -0.98513323 -0.15276244 0.12181662 -0.7860464 -0.17735545 -0.44612458 -0.17050236 -0.42747104 -0.41303512 -0.44532657 0.3144612 0.06040171 0.2388183 0.11668985 0.49021125 -0.3152658 -0.6274727 -0.13886625 0.058685668 0.0875514 0.051897686 -0.86761206 -0.39125478 -0.52054054 0.42076686 -0.29649693 0.5329372 -0.2255405 -1.3437239 0.79974294 0.25837997 -0.75412387 0.32872128 -0.404862 -0.30682024 -0.41794074 -0.46787825 -0.5075371 -0.17603132 0.16835403 0.31883067 0.40489924 -0.16711275 0.6931743 1.3692452 -0.11052565 0.6459954 0.9675968 -0.7252424 0.56622356 0.4108269 -0.38813213 -0.16177623 -0.9651494 -0.6087086 0.9490195 0.56986696 0.5217243 -0.1923649 -0.1401254 0.21264915 -0.4879041 -0.3803592 -0.08051667 -0.53267866 -0.41111964 -0.33320746 0.18692286 0.1059126 -0.37720388 -0.6354005 0.54096955 -0.4816502 -0.21860488 -0.012454581 -0.31691736 -0.0052492083 0.7843097 -0.31141916 -0.30071422 0.63773376 0.39263245 -0.12713812 -0.69582915 0.23972955 -0.25577664 -0.15561996 0.16711582 -0.2604378 -0.08550063 -0.49022803 -0.4977125 -0.16909719 0.7975463 0.36635023 -0.43689606 -0.23350492 -0.5036485 0.35465878 -0.17342806 -0.5408155 -0.5742875 -0.55155194 -0.0645838 -0.3820373 -0.2564204 -0.43160725 0.49727416 0.32905746 0.07166423 0.24749993 -0.03365476 0.6751106 -1.0833008 -0.99060136 -0.40117908 0.17531557 -0.6238635 0.10973207 -0.15039437 -0.02652871 0.14388818 -0.35218516 0.06703482 -0.07190927 -0.5604618 0.59692556 -0.42286423 1.0041559 -0.5511212 0.6267791 0.40591678 -0.24912937 0.26861915 0.14582895 0.44995645 0.15095739 -0.2321239 0.07975008 0.7808662 0.6766885 -0.9044056 0.43950534 0.24878618 -0.078112684 -0.08550353 0.039292913 0.097721994 0.4312596 1.4767025 -0.22006935 0.008583645 0.3021041 1.1827749 -0.18265784 -0.9287568 0.12614651 0.44524285 -1.0750672 0.14607161 0.2316611 -0.7867589 0.7347686 -0.18792164 0.2666597 0.109251 0.24570069 0.3310485 1.0971984 -0.19962783 0.42730024 -0.39637524 0.4833623 -0.30234963 0.24798949 0.66594976 -0.45401406 -1.1031814 0.5579932 -0.25933802 -0.41606417 -0.8609512 0.6221095 0.18526733 -0.36140674 0.20176189 -0.71002686 -0.5698415 0.37999555 -0.76386124 -0.2846987 -0.35761824 -0.918382 0.20541486 -0.02326986 0.5136939 1.382467 -0.51712906 0.64043534 -0.4376917 -0.5804423 0.5078098 -0.5086831 0.39070076 -0.54896986 0.4350199 0.35172957 0.13692962 0.6687647 -0.20164892 -0.5679069 0.5137118 -0.6584549 -0.24085115 -0.07476269 -0.0523923 1.0405396 -0.018733883 0.6625122 -0.4237955 0.2532444 -0.16650712 0.10807187 -0.08262435 -0.42239612 -1.0770907 -0.34286055 0.035797894 0.6935766 -0.23916887 -0.026753144 0.50220543 0.5819607 -0.41331115 -0.016929196 -0.5549627 -1.2283798 1.0504202 0.694385 -1.0489501 -0.84038025 -0.43069157 0.31419805 -0.83574307 -0.03382085 1.11561 0.24523477 -0.4599764 0.86525357 0.31257787 -0.05420374 -0.18036073 -1.1465282 0.09561421 0.33117694 -0.4450504 0.8608288 0.23711932 -0.24550425 -0.21734819 -0.15538514 1.3725764 -1.5799522 -0.20375668 -0.7258301 -0.42136046 -0.41222632 -1.1670916 -0.73727393 -0.65222335 -0.27354148 0.8690608 0.46657223 0.666487 0.12084246 1.039169 -0.15736401 -0.33154234 0.7980523 0.17096731 -0.807029 0.61982244 -0.83530444 -0.9794142 0.26190114 0.542462 0.48357064 -0.95709157 0.62766856 0.50515497 -0.58838934 -0.394414 -0.29128498 0.5553951
implementation -1.152583 -0.29551566 -0.27592817 0.6278087 -0.29715008 0.7498628 -0.035415247 -0.5164857 -0.3876913 -1.2729392 0.5946453 -0.09437395 0.07826894 -0.8970535 -0.08996283 -0.20142306 -0.3368722 0.22015002 0.43466237 -0.40506724 0.37542382 -0.29660365 -0.40974402 0.25663045 1.2872679 0.5387693 0.3834323 -0.5923994 -0.070386365 -0.34977838 0.9510379 0.51363456 0.78748024 -0.72759557 0.61930054 -0.6666048 0.958268 -0.9427457 0.7230391 0.32229263 0.44380867 -0.030950446 0.018233892 0.50001425 -0.22118565 0.9116401 0.5039119 -0.27247083 -0.28840703 0.42013156 0.44249585 -0.28641352 1.0464587 0.020248584 0.72075564 -0.03708586 -0.0720819 -0.23276442 -0.68645144 -0.93303615 -0.3562038 0.7537207 0.44962722 -0.7221909 0.6544882 -1.4400126 -0.7040824 -0.06342296 -0.06535836 0.057096336 0.5052681 -0.3835058 -1.2711647 -0.59207416 0.42890054 -0.6787155 0.43021443 0.008960775 -0.741447 0.69557196 -0.32163733 -0.7721941 0.22895446 0.924064 -0.55645794 0.46373555 -0.13209352 0.25265852 -0.5450824 -0.89353 -0.20190558 0.62066746 0.60078466 0.48634362 0.05753652 0.25046125 -0.5324688 -1.2247314 -0.61182505 0.35877275 -1.020374 -0.8398922 0.21846968 -0.09785109 -0.16831815 -0.68260187 -0.32942152 -0.2277879 -0.62057185 -0.09269891 0.1037554 -0.38028163 0.23427692 -0.59064066 0.55413395 0.7243922 -0.10457218 -0.816611 0.08827334 -0.6203375 -0.03560202 -0.46489665 -0.17673348 0.25268063 0.012352589 -0.4533306 -1.1357675 0.052349456 0.20234305 0.5231503 -0.06315893 0.26458815 -0.56235754 -0.22556177 0.3260566 -0.93935806 -0.06259603 0.058853503 0.10474196 -0.49428988 0.04171019 0.576159 0.04214746 0.0711575 -0.62257534 -0.8142778 0.99143994 -0.0134051265 -0.2967869 -0.85865164 -0.5037119 0.988216 0.2460709 -0.07627421 -0.75096965 0.9786125 -0.8053388 -0.2696905 0.42071787 0.5068509 -0.72230536 0.48086178 0.20331514 -0.0029684731 -0.58466315 0.4658897 -0.13861555 -0.17232144 -0.3204999 0.35310897 0.37476566 1.2424122 0.6218 0.32121542 0.9875392 0.1602709 -0.55720025 0.74358594 -0.3656444 -0.4321694 0.5453049 0.9875337 -0.31591257 -1.1425722 0.62756985 -0.15588377 0.2576623 0.101584345 0.65030414 0.51180947 0.34565368 -0.1289435 -0.0029222246 -0.22092386 0.78370553 0.5684698 0.6440041 0.25708976 -0.29855898 0.24356341 -0.5598138 0.23785694 0.24155273 -0.10084698 1.1245359 -0.10559922 -0.27549922 0.6550507 0.4660445 0.29693285 -0.19243501 0.31394777 0.6675185 -0.39170635 0.551673 0.18575884 -0.63377315 -0.31260842 0.24961536 -0.35842264 0.00012600582 -0.08110803 0.45263463 -0.22566815 0.11007246 -0.40833554 0.23149307 -0.310084 0.82614917 0.27195165 -0.57494956 -1.6778586 -0.12505099 0.08580413 0.5084071 0.18114883 0.4848061 0.4296179 0.56816596 -0.008187094 -1.0826371 -0.52925634 -0.65481097 0.2651384 0.500156 -0.0062661194 -0.14986712 -0.6008866 -0.066498116 0.043044712 0.1415488 -0.8685316 -0.68346924 -0.31788892 0.7824528 -0.11230994 -0.1022326 -0.5680502 0.26041684 0.40871426 -0.7558064 0.5416834 0.47495934 -0.16670117 -0.5360254 -0.039166182 -0.15377933 0.47291213 -0.75327784 0.16551119 -1.3294097 0.5619563 -0.30597576 -0.23552519 -0.32525185 -0.43344337 -0.036162294 0.30774292 -0.53448415 0.05001508 -0.17170085 0.3253312 0.21191002 0.98209554 -0.40397164 -0.012025899 -0.35102284 0.81687033 -0.40766355 -0.016849667 0.34143296 0.1971354 1.1582457 0.83768535 0.9821781 0.2324679 1.0135903 -0.64917135 -0.45035067 -0.2348832
arbeitstitel -0.042187937 0.82071203 0.30845302 -0.4156854 0.34120002 -0.37440553 0.5154511 -0.45549497 0.5803212 -1.1140091 -0.8414791 -0.46592215 0.5036757 -1.4152726 -0.65923035 -0.063196205 -0.2630472 0.24827224 1.2717661 0.30099633 -0.19181727 -0.7028795 0.19948663 0.24987996 0.24871284 -0.42759869 0.6194015 -0.3161797 -0.0317998 0.24512848 -0.28792343 0.25935823 1.036356 0.3016644 -0.31954178 0.41656163 -0.1774356 -0.06761103 -0.0870109 -0.05826225 -0.39367616 0.13990374 0.7102914 -0.20200583 -0.41958255 -0.06793524 0.43826565 0.5692158 -0.19784917 0.3209659 0.117968895 -1.1981722 -0.5245217 0.16179661 -0.40786076 0.29558998 0.27063403 0.06086189 0.767956 0.10795921 -0.5287854 -0.3993779 -0.04288599 0.36548278 0.22544184 0.061106227 -0.6938814 0.2695445 -1.1457865 -0.18578617 0.38734007 0.37311828 -0.08301044 -0.12870906 1.1785175 -0.25037494 -0.32191765 0.19008857 -0.67466176 0.3497371 -0.040571783 0.109345414 -0.7340047 0.10914894 0.08308065 -0.3466816 0.7812736 0.36316323 0.2243744 -0.08413729 -0.5974251 0.21039969 0.44125238 -0.15291452 -0.37889233 0.25540298 0.58753335 0.7133243 -0.4132161 -0.30701083 0.07332833 -0.36034846 0.06354329 0.49212533 0.544451 0.26333117 0.72114193 0.6097203 -0.3582648 -0.20562504 0.22856626 -0.030355306 -0.9813065 -0.4806093 -1.1278075 0.5864269 -0.92847747 -0.56629694 -0.545418 -0.74977326 0.4055281 -0.7084577 0.16651599 -0.58332527 0.51334715 0.6635818 0.40050986 -0.15518486 -0.58964956 -0.46453628 0.21867438 0.024241472 -0.39335436 0.15254486 0.08588109 -0.57414865 -0.462818 -0.28258583 -1.0696241 -0.42821264 0.33159634 0.78866273 -0.88945425 0.48287895 0.2996823 -0.032992225 0.34236383 0.40440717 0.78077364 0.58018 -1.099654 0.13445994 -0.103913635 0.37203443 0.048442226 -0.2775115 -0.65890205 0.24339116 1.083642 -0.4228148 0.6029156 1.1026694 -0.23799138 -0.095601425 -1.2533342 0.042105697 0.48811716 0.4025736 0.42173177 -0.18639316 0.42484057 0.60273015 0.31970477 -0.022447774 0.3884595 -0.02141607 0.6477648 0.32591066 0.32895893 0.014229595 0.75284654 0.7882117 -0.6983555 0.18708633 -0.43384454 -0.47898102 0.84846735 0.42812827 0.15083534 -0.1442817 0.9483369 -0.08354551 -0.06565705 -0.4117349 0.12712069 0.7737539 -0.11126855 0.13397211 -0.27631295 -1.1459924 -0.2690194 0.20504706 -0.08089265 -0.35452247 -0.050067183 1.1451111 -0.07836961 0.6444159 0.14554866 0.22897719 0.5008905 -0.34926027 0.034350492 0.5934719 -0.6755999 0.029646233 0.22548527 -0.5446189 -0.17566185 -0.3232784 1.0347551 -0.20047171 0.45588538 -0.4383818 1.1860328 0.41280913 0.060542677 -0.15819257 -0.10846334 -0.682532 0.3875272 -0.81271726 -0.22056852 -0.9702728 -0.34296092 -0.35307115 0.24152474 -0.6237769 0.157726 -0.16797113 -0.7144275 0.687157 -0.27972168 0.28714758 -0.6641602 0.31630254 1.0415442 0.011729309 -0.32200736 0.14305806 -0.39217687 0.24225165 -0.6870407 -0.12120373 0.4951281 0.7089404 -0.1602128 -0.47248524 -0.29073232 -0.17456985 -0.50849605 -0.22197048 1.1236469 -0.32272497 -0.6270217 0.2833904 0.13887833 -0.05008198 -0.36312583 -0.46152142 -0.38798037 0.4978018 0.60958344 0.28117076 -0.34897393 0.7309291 0.655845 -0.0031318364 -0.4976854 0.67482567 0.19914438 -0.025377462 0.4711398 0.43130666 -0.3221475 0.5303893 0.20893076 -0.16708723 -0.18568167 -0.90832776 0.059274014 1.0521489 0.5364732 0.556601 -0.54594576 -0.35936895 -0.24107675 -0.77541703 0.13562545 0.06040904
abkehr -0.12415363 0.3275941 -0.12788625 -0.063083306 0.26701578 0.44467947 -0.29051116 0.4771066 -0.7349036 -0.36351216 0.1762607 -0.12088963 0.10256317 -0.6425453 -0.32621965 -0.05407904 0.31282446 0.4051171 0.30594182 0.7321711 -0.62993616 -0.9995775 -0.039575994 -0.5209285 0.59292436 0.58302623 -0.59972733 -0.62649745 0.23878613 -0.68734884 -0.2555103 -0.20582701 0.11151824 -0.29313812 -0.11368476 0.15961741 0.36368427 -0.6683591 -0.28628466 0.4891865 -0.28069097 0.42254293 -0.18040124 0.67191786 -0.952249 0.73017156 1.246831 0.59757 -0.46252853 -0.9771887 -0.079587996 0.3285058 -0.4014305 -0.4920173 -0.74006915 -0.010532439 -0.012595977 -0.28439814 -0.06875824 0.4752448 -0.57433087 0.7762564 -0.2654851 0.1814646 1.2497004 0.020078806 0.6140857 0.076193035 -0.7351917 -0.1987654 0.51810354 0.23112401 1.4059086 0.06259887 -0.71671116 0.31550336 -1.2212875 -0.06334844 -0.5910979 -0.078499906 0.17238773 -0.6158467 -0.41476315 -0.29186046 0.33700752 0.54321283 0.40851083 0.27855805 -0.63997984 0.26932374 -0.335301 -0.32158256 0.024207925 0.60384643 0.099875785 -0.8649288 -0.27970898 -0.15953676 -1.1900223 0.65163326 -0.24784061 0.16934244 0.55717057 -0.37663826 -0.81839263 -0.03499347 0.4772236 0.4550739 0.19556418 -0.82530665 0.6864224 -0.4037716 0.46282366 -0.62870693 -0.091727614 0.85582864 -0.76626897 -0.84944797 -0.23446201 -0.6590229 0.45215195 -0.1871914 0.042996895 0.157122 0.05416317 -0.06556511 -0.16331446 0.1837419 -0.7636762 0.22094454 0.6575369 0.6403715 -0.7271148 -0.2654359 0.16681829 -0.47041053 0.6380486 0.34110314 -0.7572289 -0.26347935 0.11632948 0.26181474 -1.1487268 0.28859696 -0.5789179 -0.07958179 0.48634365 -0.43975872 0.14071973 -0.112784944 0.23037225 0.51203036 0.68162835 -0.79992026 -0.30968997 -0.18605638 1.0143752 0.61679465 0.5077054 0.76472867 0.41183832 0.08408669 0.36547127 0.27037728 0.2549585 0.41577998 -0.73160076 -0.14575654 -0.37357423 0.9491025 -0.19325258 -0.07367961 0.06578974 0.5323861 0.0007289613 0.5709562 -0.48055357 -0.5335917 -0.9152237 0.073044345 -0.5969582 1.092331 0.047270518 -0.29910633 -0.1757738 -0.21982864 -0.041168988 -0.38554904 0.18301839 -0.081445485 -0.15271524 0.14839058 0.2917792 -0.9348698 0.12794878 -0.3056029 0.3354094 0.77773404 0.33744138 0.10579568 0.3743079 0.7621469 0.20660067 -0.101096354 -0.17498006 0.49833605 -0.13621402 0.7288781 -0.14117801 0.60173804 0.3991091 -0.22654927 0.14482641 0.4561235 0.32759356 -0.04346929 0.22140567 0.70421946 -0.8175855 -0.44666755 -0.9838067 0.07134204 0.9695608 -0.11830853 -0.057026055 -0.73425305 0.46767858 0.3324347 0.20315313 -0.46075252 -0.16066591 -0.5722744 -0.6324707 -0.036971293 0.014595648 -0.7631491 -0.014500489 -0.4049799 -0.13960668 0.39901808 -0.42892703 0.44192126 0.17335626 0.69048774 0.5227995 0.29245603 -0.104715966 -0.38605067 1.0107497 -0.46218458 -0.06678356 -0.06882206 -0.2523823 0.16537608 0.16099744 -0.118143 -0.24394475 0.17889808 -0.10698275 0.53753287 1.1136744 0.5478448 0.23744948 -0.4243983 -0.49851826 -0.46340567 -0.90187967 0.44172323 -0.51827794 0.89226323 0.011485495 0.50684285 0.41048107 0.5500307 1.0427408 -0.028686957 -0.78978175 -0.36024308 -0.14088005 0.6228554 -0.082961805 0.12135149 -0.3787676 0.18196425 -0.03482286 0.68646616 -0.21180381 -0.42886865 0.57140416 0.22275831 -0.390899 0.4902179 0.5685587 -0.16523239 0.07570223 1.1609904 1.1043484 0.8139993 -0.43493423 -0.2145117
assistentin 0.4351434 -0.2629052 -0.54424816 -1.3549613 -0.64616 0.49227142 0.16567165 0.10874345 -0.6540574 -0.36098614 -0.69929487 -0.8687525 0.16480076 -0.2457579 0.1720842 -0.54368025 0.3310071 0.3771197 -0.4157561 0.6106906 -0.7478924 -0.36792266 -0.49360114 -0.033575114 -0.21797238 -0.13255149 1.2632283 0.3115121 -0.66058403 -0.1578159 0.42736116 -0.5340776 0.21058266 0.07932924 0.5305787 -0.04685495 0.16357473 -0.67212117 0.59682435 0.46426335 -0.043674096 0.8107147 0.21747433 0.37034392 -0.84160197 -0.6726153 0.5338649 -0.35638276 0.6949266 1.0900353 1.5000396 0.19203898 -0.018347302 0.49287117 0.9033028 0.34067416 0.68327487 -0.6626715 0.60753745 -0.0009913776 -0.37403142 -0.17939124 1.2672961 -0.02519641 1.1007721 0.28570935 -0.5610634 -0.10462511 0.23275638 -0.2417195 -0.9798238 0.7981747 -0.8007524 -0.32025525 0.14513236 0.051265858 -0.9287523 -0.06305363 -0.6632948 0.7962741 -0.23572168 0.5680555 -0.020445328 0.42931956 0.42092714 0.98010653 0.6392107 -0.2805405 0.36824605 -0.007437343 -0.16625853 -0.44617012 -0.86525 -0.3782321 -0.17816785 0.16109878 -0.94713897 -0.19394775 0.26544887 0.12669812 -0.5846811 -1.1544887 0.15058565 -0.41186944 -0.7960746 -0.036239807 -0.16636385 -0.5310048 0.24026422 0.26789644 0.51488477 -0.16740508 1.14165 -1.38227 0.6678378 -0.5479958 -0.1269607 0.41110155 -0.21365859 0.72396433 0.06888771 -0.66659 0.34816217 0.3146757 0.11999674 0.20553903 0.5870975 -0.52232736 -0.32465243 0.5974301 0.9314649 0.00027976927 -0.5833797 -0.013881875 -0.37804034 -0.65502924 0.4516105 -1.3292313 -0.85842526 0.6333271 -1.1397909 -0.7109064 -0.07158097 -0.107609965 0.33435118 -0.21646266 0.013441041 -0.0460698 0.157064 -0.010514272 -0.39093772 -0.081453316 0.14444922 1.1843677 0.21285607 0.43482056 -0.10418242 0.730382 0.12484557 -0.84960455 0.7214404 -0.13085942 0.696296 0.021958787 -0.87411535 0.4335867 -0.3980422 0.82313067 -0.07359213 -0.18383262 -0.14582379 0.09846914 0.058794796 -0.37366465 0.20949614 0.49432603 -0.20733975 0.10030316 -0.7378695 -0.74588996 -1.9913989 0.25831014 -0.66440594 0.56956416 0.26566705 -0.45020032 -0.87643486 -0.39791313 0.39654273 0.28980964 -1.1223913 0.38591048 -0.5880372 -0.60612595 0.81422615 0.89750695 -0.22500546 0.16408496 0.43003684 -0.47974488 -0.22707659 -0.05969281 0.18267609 -0.66351336 -0.56679857 -0.17428137 0.28379524 0.39802578 0.32873964 0.8754344 0.6831964 -0.3880497 0.3594527 -0.09327981 0.04181486 0.635737 0.4022017 -1.1629057 -0.2796003 0.3171324 -0.5492117 -0.8766177 0.98989743 0.022686493 0.59662265 -0.9762652 -0.3948682 0.5107148 0.028573353 0.52258897 -0.47313046 -0.5477476 -0.02537841 -0.2698034 -0.4896476 -0.09496104 0.050839957 -0.6021353 -0.23636985 0.29513896 0.41759846 -0.25426474 0.3041905 -0.053911053 0.51795125 0.38634172 -0.19952837 -0.18999898 -0.09943715 -0.2982426 -0.2562417 0.71246815 0.37193596 0.47262296 0.2655411 0.23232397 0.42147624 0.041260637 -0.68438005 0.4700892 -0.045405734 0.09836993 0.15472457 -0.006539123 -0.6183299 0.16743973 0.95703673 -0.322263 -0.36204362 0.48329934 -0.9581057 0.15064465 0.27621222 -0.49789497 -0.8011173 -0.3126126 -0.414452 0.23515475 0.056781694 0.013096455 -0.33205217 0.39793262 -0.6842845 0.84208965 0.70674586 -0.212456 -0.30248776 -0.24999069 -1.0616735 -0.87905335 0.36806512 0.5630736 1.1666286 -0.5476566 -0.11215994 -0.33176768 0.31016716 -1.0585518 -0.12586787 -1.1341103
überblick -0.11463657 -0.002939425 -0.95152575 0.3626125 0.09826329 0.04363016 0.945866 0.28867972 0.7504949 0.17983074 0.6563271 -0.3175433 0.4875945 -0.2851134 0.0672796 0.40732157 -0.6365746 0.27764943 -0.20259073 0.45104516 0.07348345 -0.61574125 0.26935184 -0.27494752 -0.20805968 -0.05186033 -0.28072235 0.13481839 0.11173335 -0.29234275 0.23205708 -0.12287584 0.2227665 0.07155892 0.6409196 0.16646211 0.25779232 -0.398918 -0.5507329 0.14170086 -0.12269068 0.24258688 -0.23283362 -0.13474604 0.6205779 1.6486368 -0.5704984 -0.5903922 -0.53803825 0.12738317 0.5310312 -0.56308806 -0.05060058 0.11463407 0.04921475 -0.019324187 0.5323628 -0.6048272 -0.16663319 0.11192727 -0.57316655 0.3932014 0.15383744 0.14693885 0.21058662 -0.13238993 -0.73991394 0.43447846 0.22652383 0.24129114 0.32468954 0.6553649 -0.46244895 -0.6121577 -0.034436207 0.1515426 0.03179715 -0.08143472 0.058999542 0.6388492 0.380468 0.102891676 0.25862214 0.06994475 0.46259302 -0.11281661 -0.20272227 0.4285532 -0.5754291 -0.7720346 0.16664818 0.6284836 -0.75115037 1.2699083 -0.09851479 -0.55401236 -0.29989636 -0.45799273 0.040908698 0.09225076 0.16832402 -0.281222 0.3748138 -0.29267055 -0.43065965 0.5846036 -0.14258848 0.43278503 -0.50973886 -0.7015706 0.063202344 -0.5017729 -0.06665018 0.8519693 -0.38848066 0.32991493 1.0471537 0.2702695 -0.043245602 0.68309253 0.64688045 0.26620752 1.2643559 0.52816015 -0.5461466 -0.73981315 0.03798579 0.5924424 -0.9204841 -0.67182493 0.42357495 -0.02465976 -1.282724 0.1790442 1.0042455 0.029174414 0.25669205 0.101435624 0.5025056 -0.27775684 0.03194696 0.24885389 -0.54491013 0.03234489 0.17907295 -0.1772882 0.42508268 -0.070027806 0.24005124 -0.26048455 -0.5319335 0.3326366 0.192499 -0.80074537 0.5061167 -0.1378199 0.18425864 -0.50461495 -0.25428626 0.056880284 -0.617444 -0.50037223 0.0005509569 -0.18938541 0.2761569 -0.6263232 -0.25180382 -0.2824328 0.34337148 0.5785446 -0.30427015 0.60044694 0.9538714 0.38616374 0.105939224 -0.26730222 0.22320491 0.25954917 0.7887383 0.69303656 -0.26860204 0.47888994 -0.3127993 0.27080303 0.09226709 0.084512234 0.11715665 -0.42330173 0.16566092 -0.2972406 0.6784951 0.5806911 -0.5336912 -0.51629037 0.32918563 -0.47457895 0.82441765 -0.7008628 0.6818941 0.2523386 -0.75203836 -0.014814325 0.08893669 0.42816898 0.43389994 -0.37754953 0.1678304 -0.59738564 -0.5570219 -0.35855597 0.013004782 0.22945786 -0.44024453 0.20847134 0.6504167 -0.52237517 -0.71837497 -0.89837575 -0.23197769 0.23642384 -0.43326178 0.5343768 0.3232836 0.2783113 -0.5155223 -0.31681463 0.22127786 0.0062061837 -0.50481474 -0.36237258 0.29706052 -0.33573145 -0.051457737 0.6230399 0.5304006 0.6047679 0.58706075 -0.07049694 0.43904203 -0.81632304 0.8286727 -1.0743101 0.4131361 0.67951226 -0.5688618 -0.20807794 -0.46101043 -1.0512351 0.570544 0.17369768 0.4564597 -0.24779204 -0.34527007 0.08583035 0.2232621 0.073231734 0.88827133 -0.021522108 0.3060498 -0.27756336 -0.14067334 0.1731952 -1.0867058 0.17021818 -0.71305084 0.0440294 0.2954381 -0.8041859 -0.73844403 -0.048628602 -0.58173305 0.19019735 -0.33560094 0.06513863 0.23984277 -0.54629874 0.38206747 -0.9575193 -0.062276132 -0.49792907 -0.8621256 -0.29764 0.14177409 0.02512025 -0.07157184 -0.29822567 -0.97780824 -0.8690038 0.39767918 -0.7444868 -0.9523485 0.65390706 0.40101442 -1.1484591 0.28370187 -0.3662969 0.1902659 -0.5646633 0.36170754 0.04802816
aufgabe -0.47501284 0.48604095 -0.14234829 -0.13166481 -0.19123343 0.6247888 0.0749119 0.17191656 -0.717729 0.09856142 -0.76118565 0.06097902 0.1643554 -0.62085587 -0.12491428 -0.8733236 0.4458388 0.015347466 -0.061948504 -0.6497427 -0.24329297 -1.1454648 -0.19021028 0.3859699 0.39007032 0.6850214 0.102619246 -0.6652262 -0.629793 0.39736548 0.13276477 0.46415466 0.12379141 -0.37112835 -0.2548093 -0.033964694 0.13868706 -0.14433414 0.15215395 0.08385612 0.399451 0.031427357 -0.61477137 0.5406977 0.33285767 0.33861297 -0.31319842 -0.43323356 0.15777116 -0.17816915 0.5246999 0.30911055 0.6198145 0.31657025 -0.7709821 -0.2575357 0.20109811 -1.4555345 -0.27741632 -0.7395635 0.051745865 0.3488781 0.17198499 -0.5128704 0.27202925 0.04752132 -0.5372802 -0.44108582 -0.23215811 0.1952761 0.11616495 0.40652186 -0.2649863 -0.21718016 0.8935589 -0.6023957 -0.5495141 0.18396896 -0.074326895 -0.07127314 -0.1798632 -0.09762573 -0.409767 -0.063135326 0.37598807 0.24113755 0.5925519 -0.27736938 0.0107578 -0.36055702 0.17116563 -0.2273706 -0.19518778 0.44052505 0.233864 0.43889612 0.42867875 0.21825455 -0.6113519 -0.005880263 -0.76058894 0.012399099 0.05263346 0.04455675 -0.068766735 -0.72097486 -0.01453412 0.1676311 0.023904659 -0.040624622 0.29056188 -0.30472198 0.384214 -0.5314077 -0.04993759 0.26688224 0.49705452 -0.6854844 0.226856 0.05941384 -0.072321214 -0.01253376 0.10168906 -0.10283584 -0.87805825 0.055724338 0.55460995 0.7588343 -0.84593076 -0.15865804 0.62674177 0.99652284 -0.44812688 -0.73340714 -0.58974534 -0.4077038 -0.08599308 -0.25991243 -0.24256913 -0.46478918 -0.5795652 0.34656897 0.33701405 0.5651264 -0.79675615 -0.04154623 0.43031025 0.059013683 -0.16974181 -0.6869496 -0.04288564 0.08174909 -0.4240964 -0.2725084 -0.45649073 0.12186156 -0.4195454 0.3735544 0.32905558 -0.17396188 0.29884502 -0.9411208 -0.14645517 0.43413273 -0.082671754 0.26556504 -0.04616371 0.18077022 0.12234407 -0.09508494 -0.27637604 0.41861457 0.087876305 0.81766534 -0.30703166 1.0840139 -0.48904657 0.35924703 -0.21670383 -0.93193954 -0.0027545567 0.22371812 -0.4815903 0.2552005 -0.17083555 0.22965775 -0.40100074 -0.09841869 0.31496266 -0.26187894 0.46863508 -0.36035323 0.14124542 0.28839564 0.1112942 0.80329156 -0.015708815 0.087280266 0.41799915 0.24613398 0.10772267 1.1038793 -0.7154985 -0.5560622 -0.13333483 0.44904685 0.04604575 1.18293 0.18418714 0.3907469 0.49773803 -0.5059267 0.462163 0.06468909 0.39595205 -0.42353863 0.3332482 -0.2547163 -0.10101954 0.23239726 0.23068039 0.36485717 -0.5314831 0.23363446 -0.052327994 -0.18906674 -0.15697241 -0.7252017 -0.5592552 -0.41651317 0.52142215 -0.13587463 -0.15908255 -0.104517564 0.053898618 -0.0766467 0.415415 -0.39640832 0.21535602 0.9083703 0.75517637 0.05530637 -0.8288102 0.3036625 -0.27430785 -0.024741085 -1.0076408 -0.25794855 0.53650457 -0.6730111 -0.6552295 0.31187665 0.40884122 0.5162165 0.30292234 0.5159923 0.5862855 -0.32284787 -0.078082114 0.5187725 -0.5349903 0.07727695 0.729195 -0.88922906 -0.8145318 0.3322189 0.18167838 0.12662783 -0.13692912 1.0448067 -0.32826084 0.27548745 0.38860083 -0.008627991 0.076932184 0.22436154 -0.5731855 0.4180376 -0.14383958 0.44926643 0.38184488 -0.238593 -0.43789828 0.90900445 -0.221705 0.11036804 -0.6711374 -0.09642859 0.0059130522 0.443773 -0.5133876 0.77539635 0.043730993 0.0903032 -0.14885633 -0.39664182 0.6594079 0.23659532 -0.30835253 -0.3746439
vertriebstechniker 0 0 0 0 0 0 0 0 0 0 0 0 0 0 0 0 0 0 0 0 0 0 0 0 0 0 0 0 0 0 0 0 0 0 0 0 0 0 0 0 0 0 0 0 0 0 0 0 0 0 0 0 0 0 0 0 0 0 0 0 0 0 0 0 0 0 0 0 0 0 0 0 0 0 0 0 0 0 0 0 0 0 0 0 0 0 0 0 0 0 0 0 0 0 0 0 0 0 0 0 0 0 0 0 0 0 0 0 0 0 0 0 0 0 0 0 0 0 0 0 0 0 0 0 0 0 0 0 0 0 0 0 0 0 0 0 0 0 0 0 0 0 0 0 0 0 0 0 0 0 0 0 0 0 0 0 0 0 0 0 0 0 0 0 0 0 0 0 0 0 0 0 0 0 0 0 0 0 0 0 0 0 0 0 0 0 0 0 0 0 0 0 0 0 0 0 0 0 0 0 0 0 0 0 0 0 0 0 0 0 0 0 0 0 0 0 0 0 0 0 0 0 0 0 0 0 0 0 0 0 0 0 0 0 0 0 0 0 0 0 0 0 0 0 0 0 0 0 0 0 0 0 0 0 0 0 0 0 0 0 0 0 0 0 0 0 0 0 0 0 0 0 0 0 0 0 0 0 0 0 0 0 0 0 0 0 0 0 0 0 0 0 0 0 0 0 0 0 0 0
aufsuchen -0.13140547 0.015063582 -0.7071653 0.18284038 -0.074369796 -0.7640868 -0.60302633 0.06583071 0.26199764 1.022267 0.7855203 -0.20747791 0.17214683 -0.08574141 -0.8953234 -0.13361382 -0.046563677 -0.2009628 -0.005650464 0.810933 -0.3921421 -0.41018826 -0.1894792 -0.5629188 -0.30171025 -0.067389086 -0.3957494 -0.33378705 -0.122308746 1.1149238 0.31189302 0.11670517 0.63843215 0.19908069 0.24856445 0.1306426 0.25376242 -0.29907408 0.48623472 -0.9782063 0.3627068 0.5447131 -0.48240012 -0.43843296 -0.08729105 0.52400357 -0.47205502 -0.20309605 -0.124569654 0.95688784 0.0666307 -0.50966173 0.08326681 0.06232239 -0.03416413 -0.35829246 -0.31938437 -0.5268367 -0.23990421 0.35288686 -0.19308661 0.17794542 0.16314988 0.4901517 -0.17384201 0.10497167 0.4108257 0.87119836 -0.30597973 0.053757045 -0.474916 0.6121791 0.76054627 -0.24081759 0.23285703 0.5940027 -1.0518038 0.81120574 -0.3195758 0.28124928 0.30087888 0.50245905 0.42209318 1.403657 0.4571471 0.012456182 0.61447257 -0.39686105 0.28246462 0.3060841 -0.8494834 -0.4841255 0.76640564 -0.27217487 0.6085581 0.70287377 -0.12085878 -0.25520286 -0.4097846 0.02251307 0.32652128 -0.4605016 0.31974792 0.14486453 0.9949208 -0.5492022 0.018260252 0.051479753 -1.1141965 0.4636767 -0.2564707 -1.0313944 -0.36077663 -0.2110094 0.34441057 -0.309087 -0.28510112 -0.049924955 0.31389505 0.27271378 0.18575236 0.024487834 0.31254083 -0.520779 0.5977037 -0.50271237 0.2976056 -1.1577828 -0.31659293 -0.3637028 0.20655525 0.6125045 0.26704326 -0.036423378 -0.6016532 -1.3339607 0.016337657 0.021654403 -0.466871 0.047944542 0.98233765 -0.5463792 -0.45516694 -0.00945708 -0.50751454 -0.21794526 -0.49905458 -0.181977 -0.20011632 0.38527095 0.090531126 0.82317525 -0.23949301 0.28319997 0.29115134 -0.039597027 0.0074092345 0.5913534 0.8449785 0.3294776 0.16644065 -0.48126724 -0.064267956 0.6231347 -0.35061464 0.35416228 -0.6056281 -0.2532819 0.42640024 -0.843355 -0.45806682 0.08334352 -0.09645318 0.17388709 -0.24832264 0.21130878 0.005940237 0.34397158 0.28371322 0.027292784 -0.7907974 -0.111451685 -0.5470732 0.028383896 -0.45903492 -0.9378153 -0.70311403 0.041043118 -0.087249406 -0.87958497 0.05152973 -0.022505991 -0.40127832 -0.4415615 0.68375194 -0.008958597 -0.6139991 -0.572115 0.70307124 0.3587968 0.65922374 -0.43304762 0.05342662 -0.6812945 0.73745507 0.09651219 -0.40420848 0.9973058 -0.26730603 0.52248394 -0.2262787 -0.30480552 0.3965131 0.19728199 1.1984234 -0.028440585 0.07600609 -0.7647294 0.1720157 -0.024256768 0.12650537 -0.1784581 -0.4101239 -0.58169657 -0.32436705 0.100353904 -0.79162425 -0.067448944 -0.589504 0.31702524 -0.35051313 0.3657402 -0.43760234 0.14162348 -0.093501255 0.29504153 0.5187624 0.038352046 0.086707324 -0.2156157 0.08501079 -0.5203432 -0.9377462 0.15969627 0.84891385 0.092686504 0.20030308 -0.09924746 0.06885324 -0.016521862 0.37418714 0.17949183 -0.9188472 -0.1362593 -1.2790586 -0.3682903 -0.66674775 -0.07265793 -0.056537114 0.36571705 0.07254997 0.42267045 -0.65644157 0.33771357 0.23396842 0.5436187 0.19010577 0.5110772 -0.1351932 0.5916444 -0.21038112 0.2520981 0.31069732 -0.21961908 0.3831455 0.114916936 -0.6709814 0.84892964 0.87710273 0.6913961 -0.26187816 0.3620849 0.5489424 0.8613601 0.29466772 0.35191312 -0.46779773 -1.2975255 -0.010839691 -0.23779483 0.16796184 0.079879045 0.9343926 0.024212537 0.027566293 -0.49054357 0.01542153 -0.14366308 0.07645531 -0.3456355
adäquat 0.7922633 -0.37290567 0.31118324 -0.32567656 -0.80587167 0.13775402 -0.2751884 0.4180043 -0.26746845 -0.70814556 -0.29445735 -0.11944676 -0.29164618 -0.66784763 -0.09741331 0.28141084 0.21309307 -0.06515826 0.17633873 -0.22447729 0.31410685 -0.12564477 -0.03623249 0.29009467 -0.8475649 0.14956091 -0.045188945 -0.4804529 0.11883667 -0.7175018 0.68646985 -0.6251948 0.41477445 -0.35963824 0.66437507 0.25478396 0.04919495 -0.33546254 -0.14913823 -0.49516237 0.086580224 -0.052774638 -0.6046971 0.103072 -0.7574449 0.28521526 0.3287278 0.4375608 0.73613364 -0.8245789 0.35569137 -0.15191536 -0.69159377 0.63917553 -0.47420153 0.06415259 -0.046194635 -0.39905852 -0.282495 0.5470404 0.40641913 -0.070488796 0.4633113 0.42327145 -0.27397913 0.2841364 0.74745023 0.25845984 -0.26487246 -0.5665125 0.13017248 -0.052977994 -0.12100605 -0.18723688 -0.10803937 0.2817019 0.052022986 -0.31795177 -0.14648537 0.6164108 -0.17870247 -0.8367419 -0.2203858 0.7067217 0.7266245 -0.06771025 0.35619423 -0.47449875 -0.81106466 -0.70720583 0.38496318 -0.5406639 0.18293515 -0.0015632161 0.70989686 0.49019408 -0.17676619 -0.10523214 -0.560192 0.58410525 -0.032470945 0.5053102 0.065147184 -0.21382456 -0.7098428 0.91105783 0.54859716 0.74334186 -0.37571183 0.008253117 -0.6130572 -0.5914943 -0.6898245 0.099530235 -0.7370292 0.06204664 0.4702083 0.84091777 0.80187917 0.2722464 0.43506503 0.32097575 0.08039177 -0.27986965 -0.104326695 1.0590516 -0.05322542 0.80398035 -0.031447306 0.24924754 0.6527576 0.7650489 0.22043157 -0.30798724 0.184879 0.24808772 0.26422548 0.11068525 -0.281693 -0.20780759 0.19689442 0.22256866 0.55404663 0.6472098 -0.44323602 0.034868628 -0.0294984 0.15036553 0.45065752 0.012291036 -0.04908377 -0.781302 -0.095523305 -0.472901 -0.32108325 -0.18717955 -1.0204158 -0.09252732 -0.093298815 -0.17542972 -0.66474026 -0.8464826 -0.67349267 0.30005276 -0.050919786 -0.6886472 -0.07766979 -0.6396809 -0.50835127 0.1716322 -0.2705624 0.06801681 0.42068428 0.5569002 -0.2927637 -0.31283748 -0.6660579 -0.15452226 0.045437854 -0.31303805 -0.5604251 0.9576447 -0.33945292 -0.23992914 -0.3892704 -0.35108966 -1.0495211 -0.5625269 0.81440395 -0.27011728 0.44005466 0.6546273 -0.19287458 -0.279466 -0.03803228 -0.5273377 0.24324661 -0.6785101 0.33747372 0.74898463 -0.558874 -0.8415026 0.13544266 -0.14396791 0.7700086 -0.17880058 0.05721116 0.29084083 -0.2664537 -0.5148804 0.17341417 0.19992647 0.5811817 -0.106026545 0.20073125 0.31522256 0.11791331 -0.13935193 0.22664845 -0.2026485 -0.45369765 -0.038945504 -0.50726324 -0.667354 -0.11581673 -0.18534535 -0.87770647 -0.6952887 -0.949334 -0.7376472 -0.5079325 -1.134836 0.34311464 -0.5897078 -1.0796239 -0.0044310465 -0.11860425 0.49870148 -0.41618347 0.6303627 -0.5856199 -0.5630115 -0.46756706 0.72147304 -0.056614056 -0.51231563 -0.3996286 0.47355297 -0.66369706 -0.40431738 -0.08402478 0.11532361 0.5761904 0.18774597 -0.4697303 -0.7202588 -0.62765175 0.093406156 -0.22631887 0.36808032 -0.33120236 0.45787868 0.094527595 -0.19297992 -1.1184244 0.16019441 0.010092173 0.1227362 -0.67176527 1.14057 -0.73305786 0.25806695 -0.46355683 -0.22644086 0.07153427 -0.3595659 0.6767319 -0.3445657 -0.5836674 0.48118234 -0.4032047 -0.16760507 -0.049905647 -0.03396675 -0.4442208 -0.14872658 -1.0705668 -0.04578826 -0.17879903 -0.43866897 -0.21970955 0.8824039 0.25794488 0.36516446 -0.0970471 0.52935684 -0.4948756 -0.11964061 -0.5093775 0.50457674
ausbildung -0.43723616 0.09968246 -0.9213931 0.25283754 -0.12348854 0.12447582 0.11827821 0.36814958 -0.41651723 -0.31730142 -0.33978716 -0.2079086 0.14706719 -0.5858374 0.108631745 0.07978762 0.63510936 -0.095306054 -0.13428248 0.14083673 0.12158916 -0.039245285 -0.63033426 -0.29906344 -0.15482615 0.050214943 -0.033755004 -0.020205688 0.22453973 0.090962075 0.63195395 -0.049013223 0.13800803 -0.21862096 1.1698155 0.6429657 -0.23571686 -0.65926594 -0.70330137 0.8961426 0.3688391 0.5095038 0.06716076 0.4958316 -0.24766538 -0.13536967 -0.23022467 -0.5684357 -0.34794706 0.75229573 0.7069585 0.6608266 0.08574103 0.24250999 -0.014986898 0.17604603 0.10257886 -0.39033985 -0.3056397 -0.5915578 -0.08792083 0.32379663 -0.06518271 0.049425878 0.6851524 -0.26940158 -0.5228119 -0.42903545 0.18256901 0.16663493 -0.16168863 -0.5509473 -0.104017876 0.3229629 0.53414506 -0.09777757 -0.035619892 0.3591699 -0.88414454 0.50055236 -0.26801598 0.34081092 -0.19160916 1.2081516 0.011678171 1.0045685 0.901402 0.1123549 -1.2835338 0.08846935 -0.06504621 0.14307527 0.18680227 -0.08084969 -0.8610338 -0.44609433 0.56558293 -0.5162017 -0.9246213 0.28713143 0.1683846 -0.3670318 0.4967493 -0.6019446 -0.46733126 -0.5301386 0.46156722 -0.5048923 -0.19466937 -0.016334208 -0.19970122 -0.754649 0.15703444 -0.79482996 0.58260214 0.40624171 0.1104775 -0.25072932 0.50738174 0.4772059 -0.22094427 -0.046350624 1.0310199 0.38556647 -0.07944852 -0.46527553 0.8877399 0.48177 0.053145684 0.24656509 0.43001163 0.122115165 -0.47495937 0.100814156 -0.29228088 -0.5763409 0.1425402 -0.66815114 -0.3022382 -0.748632 0.39516005 -0.9271551 -0.17403613 -0.5979344 -0.09403687 -0.060095686 -0.5447039 0.29041284 0.14098392 -0.92171246 0.8788814 0.59960806 0.26555076 0.33913344 0.027851162 0.5921093 -0.27738163 0.40486598 -0.57170534 -0.9589406 -0.14725193 -0.09743828 0.9471989 -0.251181 -0.014378613 0.7478588 -0.077133626 0.065433845 0.09072673 -0.0240148 0.45059168 -0.0281399 0.012086673 0.76873374 0.46222645 0.40233454 -0.6341728 0.011826133 -0.17182523 -0.0012477579 -0.058114033 0.22161408 0.4078407 -0.164785 -0.0799259 -0.45953172 -0.5387764 -1.0190679 0.18324818 -0.13666865 0.5255394 -0.20723827 0.581584 -0.5404795 0.6419294 0.3472347 0.14123803 -0.096409805 -0.258571 0.7372815 0.006757473 0.20955881 -0.37801394 -0.50235647 0.30505636 -0.036449727 -0.3859258 0.61099267 0.11640145 0.65439624 -0.3673502 -0.6362163 0.84494656 0.22193563 -0.1553309 -0.22485812 0.0829789 0.059424836 0.031390984 -0.8233901 -0.4708134 -0.48697487 -0.25074017 -0.07714417 -0.37501732 -0.30371523 -0.18482992 -0.7351026 -0.12068722 -0.5486308 -0.6134512 -0.8023313 -0.46734667 0.7068086 0.79910594 -0.105720825 0.1154031 -0.8861488 0.7874378 -0.22220406 0.14840187 0.22487451 -0.49356925 -0.455935 0.3712955 0.41193444 -0.8201293 -0.0066721686 0.7029498 0.45776108 0.05213256 -0.4331071 0.32001844 1.207127 -0.08544382 -0.02126956 -0.347892 0.25836542 -0.55884266 -0.284223 0.448921 0.8561461 -0.013300139 -0.29085156 -0.87047404 -0.08773163 0.07675496 0.08551591 -0.3152897 0.065233566 0.3911349 0.4043641 0.44692293 -0.14102483 -0.2974631 -0.4829288 -0.2971906 -0.0025250628 0.09187111 0.39066952 0.35021368 0.7365144 -0.5755614 -0.09719357 0.14421429 -0.24646086 -0.51877415 0.025254447 -0.585533 -0.34421456 0.49855697 0.15000878 0.46518207 -1.6321144 0.05863881 0.20049602 -0.019526264 -0.27957764 -0.5730623 -1.2573133
