auto -0.19026469 0.1735666 -0.7475133 -0.77105176 -0.9418166 0.21498361 0.051737525 -0.51812524 -0.05006196 0.13281114 -0.1987811 -0.5101271 0.12356621 0.78553313 0.2492627 -0.9379453 0.3201857 0.5083237 -0.41644734 -0.07043001 -0.84227556 0.23915513 0.0049957437 0.5425803 0.7425455 0.121104635 -0.022668326 -0.10536651 -0.24513818 0.43579563 -0.12535961 0.58724827 0.055296566 -0.29648453 0.10896444 -0.5086906 0.6220728 -0.42796758 0.04056422 -0.2104004 0.7278804 0.38994348 0.74203354 -0.030934257 -0.06763135 -0.081962235 -0.014609222 0.17641094 0.616844 -0.16012181 0.27692813 -0.63087004 -0.28591883 0.6312489 -0.5570365 0.14505103 -0.0629326 0.3702994 -0.84353364 0.1251652 -0.4071376 0.110592775 -0.33585843 0.25046527 -0.042936437 0.7186934 -0.80638796 -0.15751463 -0.18254936 -0.71652275 0.09403429 0.111141525 0.26359192 0.17087273 -0.21012136 -0.33489424 -0.33738035 -0.62615776 0.2853696 1.0728816 0.14336078 -0.28822842 -0.04443877 0.65964454 -0.75910246 -0.44478208 1.0806875 0.52705306 -0.04595177 0.163 0.4823669 -0.32019523 0.7761754 -0.06413654 1.0870217 0.034742992 -0.32249963 0.41427177 -0.13712887 -0.084945634 -0.2732688 -0.28539318 -0.6205407 -0.6205538 -0.8975444 -0.55319816 0.6731489 0.9129523 -0.9701729 0.7203508 0.24940674 -0.78324616 -0.11767753 -0.3465385 -0.0014450814 0.54833955 0.72729623 0.007293548 -0.19289166 0.5248669 0.318699 -0.9918095 0.51642287 0.19196537 0.13052502 -0.601784 0.6054875 -0.26011035 -1.2789276 0.3326446 0.6583709 0.61551154 0.22907588 -0.6482791 0.30562085 -0.57189775 0.039530702 1.0507015 0.29833817 0.08540173 -0.65557516 0.082911365 -1.2597928 -0.1339818 0.10479671 0.5885021 -0.15214838 0.43307686 -0.015943678 -0.39483643 -0.70183325 -0.32009986 0.107353136 -0.23399484 -0.45278198 0.019157808 -0.07235829 0.51584476 -0.42891973 0.32129133 -0.91616523 0.8252009 0.015057521 -0.40639877 -0.013658919 0.3160989 -0.04408838 -0.6270645 -0.24130525 -0.33880785 0.24156809 0.31465614 0.5064299 0.66839665 -0.8970048 0.15208928 0.5411095 -0.27429938 0.5852231 0.2796082 -0.15730433 0.62629926 -0.60782397 0.033415843 -0.6868075 -0.60927063 -0.9058457 0.1183374 -0.16028766 -0.0937538 0.8687844 0.8269823 -0.9302748 0.4190226 0.49852648 -0.27136037 0.48840714 0.61548615 0.9192933 0.29419976 -0.054040555 -0.4789902 -0.08761568 0.09160659 0.06834022 0.26187557 0.23198274 0.7241662 -0.20522624 0.7134163 -0.35764283 -0.052039813 -0.4976667 -0.3505467 0.48082957 0.48015198 -0.59408104 0.06489288 0.2524404 0.119279064 0.13086711 -1.3830417 0.74991214 -0.82330316 1.175196 -0.5237919 -0.71619254 1.3006811 -0.36362565 0.48384365 0.16075632 0.7375035 0.8386646 0.4557828 -0.348432 -0.4693421 -1.1230098 -0.18379149 -0.034024123 -0.6424563 -0.03228596 -1.0167311 0.16260894 -0.09505275 -0.08594857 0.08954212 -0.28052434 -0.0015346784 -0.09341561 -0.2381895 -0.36334404 0.48265663 0.40491098 -0.26948577 0.42599466 0.43485442 -0.09173056 -0.25519475 -0.07120956 -0.1594343 -0.055156894 0.18781573 0.90358585 0.25182799 0.0736025 0.5092036 -0.08987095 -0.48833412 -1.0885196 0.14949362 -0.70400137 -0.008662603 0.1481812 -0.4435348 -1.1927041 0.2423256 0.1790168 0.24411751 -0.09837439 0.26928362 -0.92408544 0.31122795 -0.16553557 0.2925458 0.42822722 0.5044879 0.5098774 0.12980583 0.0626905 0.5407083 0.15579283 -0.9778854 0.0043796976 -0.09400228 -0.050337844 0.21675374 0.1252121 0.30656555 0.30097315 0.10331218
fahrt -0.9394929 0.6256498 -0.38739446 -0.24818036 -0.23125961 0.25010663 0.07851594 0.19047147 0.59898835 0.41627136 -0.40658885 -0.048429932 -0.011834308 -0.91389984 -0.059497952 -0.29932234 0.16203247 0.12760392 -0.26136932 0.15897767 0.015376486 0.51197165 0.45944968 0.33117887 -0.25901204 -0.15593743 -0.48045784 0.08227826 -0.29769528 0.07860071 -0.4860129 -0.35592592 0.64244914 -0.45477012 -0.018752841 0.690315 0.11418755 -0.5575185 0.3968358 1.5463829 0.09587286 0.1487973 0.72573197 -0.428723 0.29597184 -0.14840542 0.4676063 -0.29167885 0.10332708 0.4708461 0.3845388 -0.55753314 0.65277046 0.22127053 -0.25795245 -0.18868986 0.50464994 0.114601366 -0.027618252 0.063150205 -0.4667883 0.25825447 0.23824306 -0.51692384 -0.0027312853 -0.009462061 -0.7197359 -0.19594836 0.09086387 -1.1631243 -0.29438028 -0.21521437 0.41014993 0.313343 0.01095249 -0.39958537 -0.07816965 -0.41340324 -0.18437272 -0.32781366 0.15497047 -0.17607442 -0.10434549 0.5920493 -0.5865161 0.69112176 0.50015527 0.0077410527 -0.3421337 0.19414143 -0.017080061 0.88621074 -0.73484635 -0.8238803 -0.114254996 0.7507631 0.119555496 -0.455906 -0.7060027 0.74983436 -0.42670488 0.079036534 0.48422208 -0.013221446 0.16977786 0.41056827 0.26672077 0.6668051 -0.38595226 0.17114255 0.7557462 -0.5270589 -0.2344116 -0.17459193 0.04629037 0.327602 -0.7452458 -0.05245761 0.2859562 0.12128416 -0.38186345 -0.102726005 0.838158 0.5309049 -0.086399965 -0.7796956 -0.30479524 -0.19133794 0.09411674 -0.13858004 0.09019717 0.29386082 0.63691854 0.5459746 0.551468 -0.098680675 0.37101895 0.37120137 0.511343 -0.54526347 0.80690354 -0.2191369 -0.27381837 0.043095008 -0.19680819 1.1699225 -0.29668832 0.6793271 -0.031715456 -0.44077915 0.2919806 0.1160539 0.32136023 -0.40786177 -0.3676401 -0.019234555 -0.23757088 0.69167787 0.29740188 0.25872356 -0.67074007 0.072378784 0.14314605 0.12877543 -0.0007902814 0.46545947 -0.6267045 0.052401803 -0.46658242 -0.0077320784 0.3954584 0.7022044 -0.8362134 -0.34736598 -0.3672092 0.87776625 -0.5949372 0.7238954 -0.26753184 0.22739331 -0.23520577 0.7862166 -0.18333386 -0.38914794 -0.3861635 -0.42742848 0.38188836 0.5000013 0.6373652 -0.4178364 0.57122976 -0.12577488 -0.6360309 -1.5085764 -0.13487583 -0.50188255 0.7525759 -0.069935225 -0.28699532 -0.2136111 0.10185099 -0.06984911 -0.28185666 -0.21687175 0.078609586 0.648296 0.3530325 0.61613077 0.007893887 0.8348043 0.37200308 -0.43399185 -0.5737496 0.012620929 0.15297903 -0.5256485 -0.21750963 0.23590633 0.39357686 -0.502794 0.1778772 0.40309367 -0.38826898 -0.95158947 0.95449764 0.32350686 -0.56826603 -0.32410222 -0.15659748 0.45308974 0.519703 -0.21547818 -0.36299384 0.58265376 0.126501 -0.3113424 -0.21921748 -0.10441135 0.94793296 0.25840205 0.1732417 -0.754037 -0.46089992 0.26829767 0.22270705 0.8235508 -0.86668015 -0.53245765 -0.109873846 -1.381419 -0.783405 0.98392445 -0.3008691 -0.56988984 -0.24821834 0.9075986 0.25516704 -0.25525326 0.18183404 0.26440963 0.006451502 0.33363804 0.069051936 -0.7776217 -0.5202024 0.06953153 0.003434454 0.51206505 -1.0651183 0.6988487 0.09800703 0.7097002 0.2719756 -0.23744066 0.19661233 -0.5520747 0.1804522 0.05176744 -0.27240926 0.72291684 -0.55869466 0.5549717 0.07853486 0.15196374 -0.06239794 -0.810088 0.32632565 0.6320853 -0.11475337 0.97538936 -0.3027103 -0.65111053 0.8969389 -0.066762485 -0.083346516 0.66844 -0.3580844 -0.18657582 -0.3957758 -0.33967096
auto -0.19026469 0.1735666 -0.7475133 -0.77105176 -0.9418166 0.21498361 0.051737525 -0.51812524 -0.05006196 0.13281114 -0.1987811 -0.5101271 0.12356621 0.78553313 0.2492627 -0.9379453 0.3201857 0.5083237 -0.41644734 -0.07043001 -0.84227556 0.23915513 0.0049957437 0.5425803 0.7425455 0.121104635 -0.022668326 -0.10536651 -0.24513818 0.43579563 -0.12535961 0.58724827 0.055296566 -0.29648453 0.10896444 -0.5086906 0.6220728 -0.42796758 0.04056422 -0.2104004 0.7278804 0.38994348 0.74203354 -0.030934257 -0.06763135 -0.081962235 -0.014609222 0.17641094 0.616844 -0.16012181 0.27692813 -0.63087004 -0.28591883 0.6312489 -0.5570365 0.14505103 -0.0629326 0.3702994 -0.84353364 0.1251652 -0.4071376 0.110592775 -0.33585843 0.25046527 -0.042936437 0.7186934 -0.80638796 -0.15751463 -0.18254936 -0.71652275 0.09403429 0.111141525 0.26359192 0.17087273 -0.21012136 -0.33489424 -0.33738035 -0.62615776 0.2853696 1.0728816 0.14336078 -0.28822842 -0.04443877 0.65964454 -0.75910246 -0.44478208 1.0806875 0.52705306 -0.04595177 0.163 0.4823669 -0.32019523 0.7761754 -0.06413654 1.0870217 0.034742992 -0.32249963 0.41427177 -0.13712887 -0.084945634 -0.2732688 -0.28539318 -0.6205407 -0.6205538 -0.8975444 -0.55319816 0.6731489 0.9129523 -0.9701729 0.7203508 0.24940674 -0.78324616 -0.11767753 -0.3465385 -0.0014450814 0.54833955 0.72729623 0.007293548 -0.19289166 0.5248669 0.318699 -0.9918095 0.51642287 0.19196537 0.13052502 -0.601784 0.6054875 -0.26011035 -1.2789276 0.3326446 0.6583709 0.61551154 0.22907588 -0.6482791 0.30562085 -0.57189775 0.039530702 1.0507015 0.29833817 0.08540173 -0.65557516 0.082911365 -1.2597928 -0.1339818 0.10479671 0.5885021 -0.15214838 0.43307686 -0.015943678 -0.39483643 -0.70183325 -0.32009986 0.107353136 -0.23399484 -0.45278198 0.019157808 -0.07235829 0.51584476 -0.42891973 0.32129133 -0.91616523 0.8252009 0.015057521 -0.40639877 -0.013658919 0.3160989 -0.04408838 -0.6270645 -0.24130525 -0.33880785 0.24156809 0.31465614 0.5064299 0.66839665 -0.8970048 0.15208928 0.5411095 -0.27429938 0.5852231 0.2796082 -0.15730433 0.62629926 -0.60782397 0.033415843 -0.6868075 -0.60927063 -0.9058457 0.1183374 -0.16028766 -0.0937538 0.8687844 0.8269823 -0.9302748 0.4190226 0.49852648 -0.27136037 0.48840714 0.61548615 0.9192933 0.29419976 -0.054040555 -0.4789902 -0.08761568 0.09160659 0.06834022 0.26187557 0.23198274 0.7241662 -0.20522624 0.7134163 -0.35764283 -0.052039813 -0.4976667 -0.3505467 0.48082957 0.48015198 -0.59408104 0.06489288 0.2524404 0.119279064 0.13086711 -1.3830417 0.74991214 -0.82330316 1.175196 -0.5237919 -0.71619254 1.3006811 -0.36362565 0.48384365 0.16075632 0.7375035 0.8386646 0.4557828 -0.348432 -0.4693421 -1.1230098 -0.18379149 -0.034024123 -0.6424563 -0.03228596 -1.0167311 0.16260894 -0.09505275 -0.08594857 0.08954212 -0.28052434 -0.0015346784 -0.09341561 -0.2381895 -0.36334404 0.48265663 0.40491098 -0.26948577 0.42599466 0.43485442 -0.09173056 -0.25519475 -0.07120956 -0.1594343 -0.055156894 0.18781573 0.90358585 0.25182799 0.0736025 0.5092036 -0.08987095 -0.48833412 -1.0885196 0.14949362 -0.70400137 -0.008662603 0.1481812 -0.4435348 -1.1927041 0.2423256 0.1790168 0.24411751 -0.09837439 0.26928362 -0.92408544 0.31122795 -0.16553557 0.2925458 0.42822722 0.5044879 0.5098774 0.12980583 0.0626905 0.5407083 0.15579283 -0.9778854 0.0043796976 -0.09400228 -0.050337844 0.21675374 0.1252121 0.30656555 0.30097315 0.10331218
polster 0.3765809 -0.078995645 0.33056435 -0.31358197 0.44213858 0.34289917 0.35102016 -0.19852822 1.4699675 -0.45484105 0.18042144 -0.6518399 -0.2164805 0.13784741 1.1808045 -0.024311075 -0.1924012 -0.79729265 0.76055956 -0.21579936 -0.17329574 0.53290445 -0.12117634 0.6792735 -0.45287493 0.36656702 -0.12222059 -0.4790171 -1.0513347 0.5888887 -0.031903353 -0.21359366 -1.1828926 -0.25869018 -0.10611434 0.013570892 -0.6179959 -0.09278089 0.10228239 1.6111673 0.17764337 0.09787568 -0.050230186 0.4482302 -0.089429595 0.55886024 0.07333752 -0.54650253 0.43255284 -0.049370658 0.46359032 -0.01276908 -0.46463996 0.20331761 0.04124584 -0.31631684 -0.39322433 0.28253424 -0.10164776 0.030320805 0.24630913 0.04424505 0.8912118 -0.16196847 -0.2600823 -0.51616555 -0.08113722 0.27615234 0.24066654 -0.07971912 -0.2838607 -0.50530547 -0.31488362 -0.08544961 -0.67543477 0.5198443 -0.5041852 0.16445455 -0.54333127 0.5145894 0.12578341 -0.052164868 0.5709486 0.13475522 0.47017542 0.56581193 -0.019761495 1.0102317 -0.08757711 0.19752796 0.54962057 -0.4775032 0.47360614 -0.5158784 0.106382154 -0.104714975 0.51191264 -0.36797473 -0.29320818 -0.24614789 0.6435696 0.7133265 -0.9532727 -0.90146595 -0.64286226 -0.14888135 0.3703449 -0.07222299 -0.16063742 -0.3013122 -0.3753714 -0.70313483 -0.75887805 -0.43545344 0.61961156 -0.06442248 -0.5730637 -1.0217533 -0.34852067 0.46245545 -0.083296046 -0.803252 1.1445725 -0.60541266 0.22321188 -0.9540597 0.5782979 1.2363263 -0.15671155 -0.14553419 0.57185066 -0.5817343 0.9561662 0.42906058 -0.49571654 0.19158363 -1.039271 0.2253069 -1.0040611 -0.53391856 -0.27448347 -1.3043059 -0.10850324 -0.03891743 -0.00996757 -0.81562257 -0.1853282 -0.31936175 0.410965 0.22658448 0.21317115 -0.5373085 0.46411833 0.13728142 0.8327506 -0.303208 -0.50412714 0.22527948 0.87030804 0.5672903 -0.042758375 0.45845965 0.15266356 0.83831733 0.8147064 0.5526988 0.37634528 -0.4113889 0.6132124 0.06262916 0.12029792 0.063255996 0.6041064 0.8442866 -0.60256565 0.7727325 0.23778424 -0.037555277 0.16441676 0.17116562 0.23218049 0.3784623 0.13607283 0.16411641 -0.3783832 -0.45450878 -0.063694105 -0.4384168 -0.6478464 -0.19842558 -1.2010968 -0.11432385 0.43965802 0.13873465 0.03219157 0.30539787 0.11581358 -1.0915058 0.22020192 0.13435681 -0.06514465 0.078366295 0.611065 -0.5191274 -0.30316278 0.8510404 -0.27289584 -0.7482856 -0.29686782 -0.0090400865 0.06721235 -0.7480455 0.11149177 -0.35881868 0.0076954355 -0.17344338 -0.54297876 -0.12846391 -0.5024218 -0.3564926 0.46947753 -0.73136514 -0.6275046 0.23904447 -0.044558477 -0.5776251 -0.4782418 0.80114496 0.6648768 0.14215459 0.40238872 0.6622879 -0.10908295 -0.14315607 0.09375011 -0.33112073 0.7056016 0.28404197 0.38761875 0.42333433 0.54161036 -0.8857182 0.4238441 -0.7053406 0.10850427 0.35538235 0.18591537 -0.036306903 -0.0038141797 0.33928445 1.282256 0.38882223 0.45651487 0.51203775 0.14587763 -0.33288237 -0.46831015 0.8956383 -0.4972856 -0.09949095 0.40792763 -0.35805678 -0.17742798 -0.2242027 0.016910942 -0.48761198 -0.69220877 -0.105401926 -0.5841287 -0.045598406 -0.9219918 -0.06625586 -0.09556138 -0.22651751 0.17649361 -0.2395308 0.23183638 -0.40085942 -0.7001215 0.29488268 0.16747135 0.09886433 -0.14978366 1.2049885 -0.22756688 0.34828326 -0.42234018 0.046768397 -0.22216716 -0.60892034 -0.19886212 0.34516293 -0.20633051 0.08353103 0.09780009 -0.89864916 -0.7360275 0.13372009 0.36164713 -0.7994971
autogramm 0.4752292 0.3523191 -0.30735594 -0.22054762 0.09924912 0.17838682 -0.39351252 -0.58524203 0.2259553 -0.084077545 -0.85797006 -1.3193243 0.4918733 0.20266351 -0.19389531 -0.06026369 0.09950295 0.3912395 0.2252069 0.5246888 -0.60116196 0.12536494 0.9434741 -0.37862048 0.42486173 -0.21479793 0.46437648 -0.39031738 -0.14009437 0.30100325 0.2755064 0.43892568 -0.28501725 -0.35013923 -0.04848045 -0.033526145 0.07634522 -0.59779084 0.16254422 0.19382292 -0.48838815 0.71550196 0.121448584 0.46821257 -1.2980428 0.5304813 -0.11993409 -0.53851026 0.054860976 0.038453758 0.44742778 -0.4112037 -0.017805774 0.19756472 0.08049974 -0.28927326 -0.20500389 0.3354193 -0.23242383 0.37552592 -0.4152363 -0.07620958 -0.7336742 0.15104845 0.38369665 0.38025877 -0.60273707 0.05534899 -0.14206569 -0.7174363 0.5073464 -0.15085307 0.98471427 -0.46839067 -1.3633854 0.1311863 -0.20624752 -0.020314004 0.23762514 0.3063678 -0.5854102 -0.57972836 0.46504715 1.2788126 -0.2700434 -0.3332241 -0.35239133 0.3156267 0.26512817 0.23626997 -0.11217839 -0.07915951 0.7496039 0.58794004 0.5761911 0.6624842 -0.10311439 0.36403617 -0.9085708 0.29947656 0.32094985 -0.7219107 -0.16750866 0.3001337 -0.78473294 0.297933 0.044619087 0.24624576 -0.8311812 -0.14612718 -0.4893391 -0.33605745 -0.65312946 -0.41688967 0.1400968 -0.015669279 0.07687631 0.26646233 0.45714065 0.67514694 1.0899276 -0.66369814 0.5920275 -0.34994292 0.3868189 -0.21143857 -0.41182607 0.27779794 0.007196868 -0.13276994 0.38051692 0.95427233 0.18682617 -0.473591 -0.4245609 -0.27271527 0.39289805 -0.82354754 0.13669544 -0.11164254 0.011898341 0.1282806 -0.6762632 -0.3184841 -0.039082453 0.14953184 -0.012002951 0.92002076 -0.5691381 -0.004978938 -1.104507 -0.3734594 0.46531612 0.026802365 0.5695023 -0.09337531 0.058649287 -0.2097467 0.36219886 -0.1963987 0.5505337 -0.13972245 0.13189752 -0.8598245 0.20087819 -0.28357753 0.44358045 0.008209202 0.4055766 -0.39837584 0.039522503 0.0485175 0.61530966 -0.13496739 -0.077699654 0.9486566 0.22153106 -0.60827017 -1.0962107 0.32915404 -0.005796196 0.86349076 -0.5497356 -0.22055721 -0.24814036 -0.596989 -0.09796521 -0.17772715 -0.6360077 0.060942635 0.6055178 -0.22359052 0.021626163 -0.18606937 0.88054174 0.5122875 0.4899857 0.8652841 0.54257876 -0.02430803 0.23535435 0.16233428 -0.45179948 0.5056259 0.014894352 -0.2672972 -0.38093945 -0.6029538 -0.118103266 -0.32924768 -0.97785395 0.36935258 -0.96053725 -0.38063946 0.32512048 -0.67407423 -0.24517672 0.6946813 -0.3961306 0.1065268 0.039773375 -0.3087648 -0.62633437 -0.03923739 0.25529227 1.1247782 -0.2461198 0.005195821 -0.49630296 0.3238056 0.5581397 0.21314524 0.32118687 0.21072067 0.37262365 -0.5650036 -0.8134976 0.0046161865 0.4180951 0.23070264 0.08856148 -0.2740171 0.46361986 -0.2897705 -0.17792562 0.45205417 -0.39122617 -1.0039814 0.6739263 0.13521437 0.09153316 0.737864 -0.054203544 0.3331248 0.49664268 0.053668663 0.36416283 -0.86117333 -0.114478484 0.048753064 0.08679876 0.7456466 0.53311354 0.5007438 -0.18246777 -0.2109841 -0.27274302 -0.49642512 -0.56030947 0.60870034 -0.57554036 -0.07617545 -0.2866062 -0.3162911 0.3077655 -0.7265934 0.14815818 -0.16063 -0.040599097 0.39374608 0.28426278 -0.6676185 -0.2078387 -0.035391103 -0.09563272 0.22306713 0.10422376 -0.24924041 -0.14672513 -0.49657196 0.104803175 0.4746516 0.96825033 -0.2792297 -0.20422356 0.06877567 -0.93586355 -0.5760158 0.049843922 0.038774062
küste -1.1796758 0.7492096 -0.09526697 0.37495393 -1.5747471 0.6903918 -0.5419064 0.66420597 -0.84838945 0.8104346 -0.52999836 -0.07692977 0.11608079 0.20343068 0.1288457 0.022460477 -0.12564668 -0.22628279 0.12046104 -0.92099315 0.055048555 0.44671682 0.5800313 0.20198734 -0.6819886 0.9708323 -0.6844393 0.004156176 -0.057383306 -1.4301102 -0.67082 0.35645717 0.1418226 -0.5021768 0.6822377 0.24904443 0.895758 -0.15323344 0.26731938 0.6357526 0.6619229 0.8126756 0.30301362 -0.9205159 0.22602956 -0.15589549 0.42036024 0.2150788 0.28655195 -0.15543392 0.4906535 -0.6154989 0.83511186 -0.19739999 -0.30598962 0.6607406 -0.33634347 0.5130639 0.19276647 0.1832502 0.053549744 -0.3448869 -0.48292118 0.18780671 0.8224461 -0.038312256 0.29767758 0.20335484 -0.4732876 -0.15249924 -0.690207 -0.28761828 -0.050864078 -0.292947 -0.33913183 0.35058913 -0.17102683 0.56568366 -0.15498036 0.7691742 0.44859922 -0.5021762 0.47022587 0.9448832 -0.6788434 -0.25565246 0.37312478 0.6386219 0.91644895 -0.8659498 -0.534784 -0.6292262 -0.3708393 0.12573649 0.30676824 0.44176328 0.24091141 -0.06301943 -1.3138572 0.7736759 0.35120043 0.18637647 0.36961797 0.15587047 0.4078192 -0.4439641 -0.370884 -0.24317327 -0.6615289 -0.20363119 -0.00791834 -0.3595663 0.3919306 -0.26208434 -0.04668756 0.28442305 0.41587672 -0.8634471 0.18161722 -0.26965287 -0.4747605 -0.8092468 0.92544717 -0.166432 -0.5245632 -0.3673159 -0.014950467 0.3806139 -0.22724208 -0.3514997 0.4054015 -0.26540905 0.7198986 -0.058880974 -0.807031 -0.030288238 0.4580928 0.09964924 0.05534215 0.07517622 -0.5626184 0.12790902 0.67190236 0.35989457 0.85596067 0.48724806 -0.34425774 0.013905761 -0.56581724 -0.4131912 0.37899125 0.7189838 0.47600597 0.033984996 0.21951479 1.0124285 -0.88025165 0.25302273 0.73674774 -0.10127225 0.11885525 0.044624746 -0.5044039 -0.0799862 0.36343616 -0.5996706 0.564297 0.07905515 -0.08888851 0.35128847 0.0400731 0.6093919 0.13734035 -0.898037 0.38845515 -0.06785904 -0.49204877 0.81565315 -0.16257422 -0.16148247 -0.5581937 -0.08853553 -0.717373 -0.44676965 -0.5108769 -1.0347139 1.3835967 -0.4344189 0.2536917 -0.51821655 -0.4473209 0.40539414 0.1565014 -0.4155246 1.2327975 -0.81406623 0.12791152 0.9164683 -0.628071 -0.029479133 -0.7769626 0.34382293 0.7926079 -0.33244637 -0.3856647 0.504095 -0.24072658 0.5334093 -0.44945323 0.92868155 0.27920547 -1.1535916 -1.2726884 -0.57733804 0.70829827 0.26076657 -0.23920886 0.03685872 -0.052251395 0.028458225 0.6860345 -0.14988881 0.13702932 -0.44876888 0.82057047 0.17506322 -0.016007774 -1.0067586 1.010369 0.641278 0.18532187 0.31592324 0.25100797 -0.41356263 -0.4770267 0.15607604 0.57156307 0.088242464 -0.4213154 1.0210549 0.25471106 0.07843037 1.138489 1.0147463 0.13204674 -0.8103865 -0.95555794 0.24511415 0.6608342 0.44483536 0.59707385 0.3055943 1.5773251 0.29600278 -0.7017915 0.9468618 0.14011484 -0.07493303 -1.3146157 0.35603082 0.48033595 -0.37822536 -1.0885373 0.070388146 -0.39667383 -0.5483445 -0.32974502 -0.22690172 -1.0440745 -0.27330345 0.053188927 0.79476243 0.24807702 0.09030124 -0.2855575 0.11975865 -0.5596506 0.39812294 0.03375103 -0.13884097 0.11984948 -0.24690135 1.5780892 0.4648113 -0.22211835 -0.45343578 0.5744609 -0.69853586 0.5581704 -0.2734267 0.62187487 -0.03547986 0.31566563 -0.50014687 0.82543504 0.595404 0.41318235 -0.08538204 0.075769745 -0.3189007
autogramm 0.4752292 0.3523191 -0.30735594 -0.22054762 0.09924912 0.17838682 -0.39351252 -0.58524203 0.2259553 -0.084077545 -0.85797006 -1.3193243 0.4918733 0.20266351 -0.19389531 -0.06026369 0.09950295 0.3912395 0.2252069 0.5246888 -0.60116196 0.12536494 0.9434741 -0.37862048 0.42486173 -0.21479793 0.46437648 -0.39031738 -0.14009437 0.30100325 0.2755064 0.43892568 -0.28501725 -0.35013923 -0.04848045 -0.033526145 0.07634522 -0.59779084 0.16254422 0.19382292 -0.48838815 0.71550196 0.121448584 0.46821257 -1.2980428 0.5304813 -0.11993409 -0.53851026 0.054860976 0.038453758 0.44742778 -0.4112037 -0.017805774 0.19756472 0.08049974 -0.28927326 -0.20500389 0.3354193 -0.23242383 0.37552592 -0.4152363 -0.07620958 -0.7336742 0.15104845 0.38369665 0.38025877 -0.60273707 0.05534899 -0.14206569 -0.7174363 0.5073464 -0.15085307 0.98471427 -0.46839067 -1.3633854 0.1311863 -0.20624752 -0.020314004 0.23762514 0.3063678 -0.5854102 -0.57972836 0.46504715 1.2788126 -0.2700434 -0.3332241 -0.35239133 0.3156267 0.26512817 0.23626997 -0.11217839 -0.07915951 0.7496039 0.58794004 0.5761911 0.6624842 -0.10311439 0.36403617 -0.9085708 0.29947656 0.32094985 -0.7219107 -0.16750866 0.3001337 -0.78473294 0.297933 0.044619087 0.24624576 -0.8311812 -0.14612718 -0.4893391 -0.33605745 -0.65312946 -0.41688967 0.1400968 -0.015669279 0.07687631 0.26646233 0.45714065 0.67514694 1.0899276 -0.66369814 0.5920275 -0.34994292 0.3868189 -0.21143857 -0.41182607 0.27779794 0.007196868 -0.13276994 0.38051692 0.95427233 0.18682617 -0.473591 -0.4245609 -0.27271527 0.39289805 -0.82354754 0.13669544 -0.11164254 0.011898341 0.1282806 -0.6762632 -0.3184841 -0.039082453 0.14953184 -0.012002951 0.92002076 -0.5691381 -0.004978938 -1.104507 -0.3734594 0.46531612 0.026802365 0.5695023 -0.09337531 0.058649287 -0.2097467 0.36219886 -0.1963987 0.5505337 -0.13972245 0.13189752 -0.8598245 0.20087819 -0.28357753 0.44358045 0.008209202 0.4055766 -0.39837584 0.039522503 0.0485175 0.61530966 -0.13496739 -0.077699654 0.9486566 0.22153106 -0.60827017 -1.0962107 0.32915404 -0.005796196 0.86349076 -0.5497356 -0.22055721 -0.24814036 -0.596989 -0.09796521 -0.17772715 -0.6360077 0.060942635 0.6055178 -0.22359052 0.021626163 -0.18606937 0.88054174 0.5122875 0.4899857 0.8652841 0.54257876 -0.02430803 0.23535435 0.16233428 -0.45179948 0.5056259 0.014894352 -0.2672972 -0.38093945 -0.6029538 -0.118103266 -0.32924768 -0.97785395 0.36935258 -0.96053725 -0.38063946 0.32512048 -0.67407423 -0.24517672 0.6946813 -0.3961306 0.1065268 0.039773375 -0.3087648 -0.62633437 -0.03923739 0.25529227 1.1247782 -0.2461198 0.005195821 -0.49630296 0.3238056 0.5581397 0.21314524 0.32118687 0.21072067 0.37262365 -0.5650036 -0.8134976 0.0046161865 0.4180951 0.23070264 0.08856148 -0.2740171 0.46361986 -0.2897705 -0.17792562 0.45205417 -0.39122617 -1.0039814 0.6739263 0.13521437 0.09153316 0.737864 -0.054203544 0.3331248 0.49664268 0.053668663 0.36416283 -0.86117333 -0.114478484 0.048753064 0.08679876 0.7456466 0.53311354 0.5007438 -0.18246777 -0.2109841 -0.27274302 -0.49642512 -0.56030947 0.60870034 -0.57554036 -0.07617545 -0.2866062 -0.3162911 0.3077655 -0.7265934 0.14815818 -0.16063 -0.040599097 0.39374608 0.28426278 -0.6676185 -0.2078387 -0.035391103 -0.09563272 0.22306713 0.10422376 -0.24924041 -0.14672513 -0.49657196 0.104803175 0.4746516 0.96825033 -0.2792297 -0.20422356 0.06877567 -0.93586355 -0.5760158 0.049843922 0.038774062
unterschrift 0.18346465 0.15043902 -0.4699102 -0.10409157 -0.98024297 0.19673745 0.011368613 -0.07682364 -0.005761051 -0.72925097 -1.1008873 -0.80288756 0.21789874 -0.2445392 0.0409198 0.15436226 0.26383948 0.94324785 -0.11895466 0.25085452 0.2894516 -0.12568893 0.19917248 -0.024311041 0.3854438 0.034745105 0.605827 -0.76355916 -0.6107115 -0.43610367 0.21766753 0.05703657 -0.53076637 -0.53027046 0.22001237 -0.14138554 0.7073577 -0.60822374 0.4965073 0.1082045 -0.4156665 0.7032912 0.80047643 -0.2815664 -0.88217205 0.24503906 -0.18952574 -0.32922933 -0.012334121 0.1604793 -0.335267 0.4476019 0.042799763 -0.07672537 -0.5991548 -0.3920196 -0.3216557 -0.654884 0.29626513 0.7790185 -0.18424964 0.19294178 0.7034232 0.4214783 0.38186055 0.4844754 -0.67414826 0.45216715 -0.0306652 0.0031651447 0.3629685 -0.075033195 0.35713384 0.42784855 -0.2971568 0.274954 0.2869914 -0.5312889 0.15768203 0.092838176 -0.27471602 0.06529657 0.0931153 0.43628073 -0.07417019 0.04699289 0.24214211 0.388081 -0.29158947 0.1902849 -0.0458614 0.35137802 -0.07858846 -0.03038267 0.31583717 0.532887 -0.058764882 0.15059188 -0.09054261 -0.09996527 -0.14882575 -0.9931609 0.23720165 -0.54149914 0.25907254 -0.44976112 0.08685849 0.14815873 -0.4911465 -0.29682165 0.6314604 -0.2164104 0.33257768 -0.49263796 -0.62216014 0.23096229 -0.62605923 -0.7249214 0.8334941 0.45588773 0.6790773 -0.5993018 0.54703444 -0.5087242 -0.20384459 -0.14359601 -0.7748468 0.06636677 0.48320705 -0.3212371 0.84968334 0.52802026 0.17623965 -0.5227982 -0.6811001 0.1839633 0.9070931 -0.62145746 -0.5260928 -0.80826783 -0.31579104 0.34366325 -0.16177455 -0.35055697 -0.43592668 -0.13269642 0.67693853 0.6436012 -0.24599817 -0.7875976 -0.070889905 0.47665197 0.41163093 -0.34048575 0.19377358 0.121222325 0.18577722 0.52235824 -0.056404676 0.24269094 0.23723544 0.4751301 0.915044 -0.4727501 -0.16798612 0.3824754 0.053622294 -0.04733167 -1.1625321 -0.15740152 -0.30926597 0.56260926 0.29503477 -0.084511206 0.3601077 0.37461573 -0.31360206 -0.28915033 -0.45106247 0.17924833 0.3168799 0.74258 -0.19074413 -0.1602591 -0.07365009 -0.5303523 -0.21766916 0.020894626 0.4466524 -0.22016378 0.7338355 0.1210347 0.47898865 -0.18005347 -0.11019584 0.9156321 0.749271 0.28348 0.8560849 -0.32492912 0.15732425 0.04033765 -0.4004883 0.562435 0.5886551 -0.27675194 -0.6177916 -0.12743807 0.56095666 1.4572505 -0.4326122 -0.05268499 -0.34669456 -0.095996216 -0.07645984 0.054169934 -0.17151588 0.267763 -1.2036525 0.1254403 -0.042297002 -0.14794755 0.11054806 -0.14105555 0.19324806 0.6265859 -0.4593251 0.581833 -0.33614957 0.57859504 -0.69838846 -0.040666867 0.07084481 0.6246246 0.59187245 -0.14876808 -0.72716093 0.33733565 0.953918 0.3520501 0.3733056 0.7058053 -0.60080904 0.020910146 -0.1760056 0.12971923 -0.21556972 -0.52845854 0.05151808 -0.040762287 0.25556204 0.060396545 0.62000746 -0.34796566 0.56881106 0.55416864 0.39005682 -0.9316158 -0.41301244 0.9934659 -0.0590337 0.41323486 0.64205945 -0.6243188 -0.114570685 -0.35597157 -0.11036546 0.09065912 0.09224069 0.57300836 -1.2391484 -0.28387088 0.39954317 0.32223076 0.35774785 -0.525214 -0.08672858 0.5836136 -0.518801 0.85183674 0.56892645 -0.18159847 -0.6006321 -0.5252148 -0.44593632 0.12401348 -0.13502797 0.11747338 0.34569997 -0.22168696 -0.012184197 0.26337734 0.47391987 -0.48095465 0.20079644 0.08731734 0.006781674 -0.48394808 -0.44440478 -0.20403062
backofen 0.111861594 0.36856794 0.12961149 -0.27031046 0.8953922 0.6511166 0.5290418 -0.10374647 0.34719628 0.19096436 0.31703168 -0.2335565 0.0900914 0.51762 -0.17143807 -0.16764955 0.45159867 0.20853502 -0.05352275 -0.40931326 -0.0095716445 -0.95979196 0.6979147 0.29656687 0.37350866 0.41138884 -0.22203413 0.09699313 -0.7200002 -0.494435 -0.19133653 -0.5768735 0.48172656 0.18243028 0.2911621 -0.4073929 -0.3908949 -0.29064515 -0.13173008 0.043128114 0.6044833 0.42266 -0.4675187 -0.10310923 -0.25269344 -0.04784116 0.23737742 0.30170363 0.39217365 0.4391333 0.17605302 -0.07644164 -0.527704 -0.18435234 0.17047459 0.04311517 -0.11777592 0.5853896 -0.18925476 0.24029416 -0.41842914 -0.033972643 0.7531999 -0.05406406 0.35717458 0.070383616 -0.22525862 1.0183456 0.09943763 -0.3851809 -0.90757424 0.7679286 0.32353756 -0.8403832 -0.5973016 0.6691903 -0.61396736 -1.3381883 -0.5663432 -0.47612885 -0.27270734 -0.046002712 -0.33628255 0.1752469 -0.66752476 0.46827763 -0.4406576 0.58522207 0.08970613 -0.2748091 0.7004712 0.08880269 0.17506446 -0.07878639 0.5037166 0.3733864 0.45886216 -0.08803096 0.31998557 0.34681043 0.08604916 -0.44597355 0.62808824 -0.30776787 -0.111889265 -0.1410906 0.6450229 -0.123478234 -0.33430722 1.1078846 -0.016804209 -0.55445063 0.42835715 -0.40488088 -0.22949213 0.08287853 0.18616383 -1.1650481 -0.09896881 0.45219627 0.47843322 -0.18197337 0.62945527 0.8415479 1.0118957 0.22311236 0.22139205 0.05766845 -0.6423162 -0.48228747 0.30850875 0.2998347 -0.2420413 -0.019717842 0.915503 -1.1489565 -0.3237546 0.6856127 0.23625915 -0.06443997 0.060267974 0.13158551 0.069472104 -0.5067809 0.3653125 0.143985 0.19989029 -0.040550347 -0.21416715 -0.42910296 0.6873745 0.43195364 -0.2953015 0.008030382 0.4150567 -0.8596577 -0.4534425 -0.52943194 -0.61957735 -0.0561391 -0.8147103 0.24555632 0.8324086 0.14612387 0.43068153 -0.5362826 0.1818747 0.4701085 -0.123099476 -0.009137731 -0.7522589 -0.21208462 -0.0066485684 0.2804522 0.2149812 -0.25769836 0.23689136 -0.24428935 0.24648835 -0.07679374 0.0037505254 0.8044706 -0.93613076 -0.38905364 -0.6442596 -0.99811774 0.06986434 0.58566797 -0.40002364 0.3242193 -0.4273145 -0.14794348 0.25696954 0.47466385 -0.3347367 -0.16803913 0.19129516 -0.5608176 0.989862 0.018631343 -0.7479557 -0.14220603 -0.5008452 -0.78822285 -0.61898196 -0.104516774 -0.26447678 0.27495992 0.99554986 -0.8514745 -0.103165165 -0.4403706 -0.103327416 -0.5692566 -0.57639754 0.6406391 0.2665347 -0.21878892 -0.618995 0.24122562 0.25543576 -0.36476824 0.36695942 0.17188576 0.78699523 -0.083685465 0.17579553 -0.43689176 -1.0925056 -0.025048468 -0.1276712 0.014424667 -0.144641 -0.62632626 -0.22025736 0.4088435 -0.59124196 0.6293194 1.0887122 -1.018982 0.011947476 -0.22722551 -0.4545152 -0.47109506 -0.15270132 -0.45901352 -0.78624016 -0.31333604 0.112402484 0.45154423 0.16195276 0.29236344 0.24547647 -0.058177557 -1.0099767 0.6718062 -1.0615053 0.12543854 -0.63237095 0.05849601 -0.28509533 0.21511148 -0.50717485 -0.41193357 -0.42432737 -0.29822147 -0.9688334 0.6935052 -0.428529 -0.42412722 -0.47716188 1.1116651 0.59189975 -0.6006362 0.69142765 0.12112954 -0.26956812 0.089088626 1.002726 -0.38477674 -0.811428 0.48822302 0.1101965 0.730538 -0.6218052 0.6974397 0.74819666 -0.058708172 -0.40522248 -0.9459705 0.29033548 0.57703394 0.14821152 -0.14265424 -0.7119721 -0.22890396 -0.170401 -0.9947228 0.10286071 0.024768079
herd 0.060229473 0.5619611 -0.4379899 0.058393855 0.25682107 0.4020003 1.0648326 -0.21739778 0.21652539 0.14585127 0.36877042 -0.70466775 -0.11349452 0.15072784 0.2831447 -0.19197528 0.08471203 -0.9195593 0.4030149 0.30697447 -0.46335799 -0.6441622 0.6292589 0.43555504 -0.12855464 0.014233042 0.18802471 0.15211014 -0.65868086 0.1619163 0.15582757 -0.28065485 -0.66329527 -0.13466285 -0.046537004 0.26911333 -0.2561917 0.47475824 0.1660897 -0.025577128 0.42822006 -0.28042218 -0.94951284 -0.055849027 -0.60886735 -0.63904756 0.6061187 0.68719584 0.617031 0.0988258 0.46425316 0.007982852 -0.35633728 0.9707404 -0.66258246 0.0055267205 0.47589722 0.6601458 -0.9257671 0.30879253 -0.48289847 -0.47121838 0.0787649 -0.4947302 0.12245795 0.4387702 -0.20653519 -0.13849612 -0.21896335 -0.6695258 -0.9457761 -0.123048775 -0.22757535 -0.88333106 0.14882882 0.43541455 -1.0132599 -0.8004183 -0.18775895 0.5206129 0.0019041963 -0.607103 -0.4997763 0.68073225 0.19766715 -0.1179827 -0.102223635 1.3166033 0.1528755 0.30220085 -0.5492768 -0.58663696 0.21943069 -0.3162283 0.9856377 -0.13425896 0.3775757 0.7212026 0.18264657 -0.014342087 0.18370508 -0.06389744 0.0019694462 -0.39263907 0.34636724 -0.009500869 0.3604711 -0.26125762 -0.7539424 -0.21804126 -0.6668598 -0.35165608 0.54412514 -0.12504919 -0.27533218 0.072019264 0.2927872 -1.0393181 0.50070447 0.40486538 0.30375022 -0.8648254 0.13905694 -0.030071635 0.6164639 0.44532087 0.5616647 -0.26109478 -1.0305716 -0.22924507 0.39367065 0.23906793 0.51995814 -0.41786224 -0.023349468 -0.3104568 -0.18736508 0.3162432 0.030220049 0.19634353 0.8982807 -0.2706038 0.04471843 0.19767596 0.10597272 -0.38108322 0.42806894 0.2481233 0.31685743 0.03330112 0.6731241 -0.3792693 -0.106157124 -0.22930387 -0.13891627 -0.43305293 -0.46926937 0.19523515 -0.37070447 0.75564504 -0.17520629 0.4995023 -0.3497332 0.010338037 0.06964273 -0.08844077 -0.9373028 0.67807174 -0.39048174 -0.5377538 -0.21454905 0.37321517 0.7649093 0.46551734 -0.40446523 -0.30665755 0.1687176 0.5447815 -0.081772946 0.05259469 0.5413438 0.67253876 -0.2507533 -0.16705827 -0.26111308 -0.16216986 -0.005377077 -0.19778611 0.50212467 0.17504033 -0.48504403 0.106920354 0.51170367 -0.23759837 0.12625714 0.48755667 0.16251948 -0.73321533 0.26439774 0.41787365 -0.7507816 0.8155518 -0.098873734 0.05579515 -0.471483 0.27134916 0.37670982 0.33948356 0.8003105 -1.0178047 -0.5890404 -1.135929 0.08211122 0.77378774 0.6510289 -0.1878337 0.5433386 0.56371385 -0.75223696 0.42357436 0.39376378 -0.7596553 0.049735885 -0.29091272 0.29180998 0.10741653 -0.9690739 -0.10065735 -0.15906225 0.02693124 0.099224985 0.20082109 0.040679973 0.12863089 0.50956297 0.3737417 -0.622294 0.19356565 -0.07508649 -1.0054771 0.26787755 0.22997911 -1.2004577 -0.6341723 -0.38104016 -0.17942627 -0.378537 -0.24578504 0.27401966 0.0048365607 -0.56436384 -0.4969599 0.13101915 1.0010138 0.51386535 -0.71619517 -0.46053773 -0.17013766 -0.22408348 1.0719299 -0.01337172 -0.38699603 0.054534636 0.044439174 -1.0201025 -0.56031144 -1.4972049 0.6272302 -1.0780107 -0.027509479 0.53127366 0.5242364 0.39713955 -1.2665437 0.16124275 0.13056213 0.51739097 0.9413268 0.21996565 -0.08079123 -0.68693435 0.23397397 0.030650645 -0.10806657 0.34429735 0.5493065 -0.70812356 -0.67450684 0.16086264 -0.22498465 0.25989398 0.76432204 -0.43005767 0.4167316 0.4736742 0.36162603 -0.05881256 0.06663963 0.47125417 -0.38052085
backofen 0.111861594 0.36856794 0.12961149 -0.27031046 0.8953922 0.6511166 0.5290418 -0.10374647 0.34719628 0.19096436 0.31703168 -0.2335565 0.0900914 0.51762 -0.17143807 -0.16764955 0.45159867 0.20853502 -0.05352275 -0.40931326 -0.0095716445 -0.95979196 0.6979147 0.29656687 0.37350866 0.41138884 -0.22203413 0.09699313 -0.7200002 -0.494435 -0.19133653 -0.5768735 0.48172656 0.18243028 0.2911621 -0.4073929 -0.3908949 -0.29064515 -0.13173008 0.043128114 0.6044833 0.42266 -0.4675187 -0.10310923 -0.25269344 -0.04784116 0.23737742 0.30170363 0.39217365 0.4391333 0.17605302 -0.07644164 -0.527704 -0.18435234 0.17047459 0.04311517 -0.11777592 0.5853896 -0.18925476 0.24029416 -0.41842914 -0.033972643 0.7531999 -0.05406406 0.35717458 0.070383616 -0.22525862 1.0183456 0.09943763 -0.3851809 -0.90757424 0.7679286 0.32353756 -0.8403832 -0.5973016 0.6691903 -0.61396736 -1.3381883 -0.5663432 -0.47612885 -0.27270734 -0.046002712 -0.33628255 0.1752469 -0.66752476 0.46827763 -0.4406576 0.58522207 0.08970613 -0.2748091 0.7004712 0.08880269 0.17506446 -0.07878639 0.5037166 0.3733864 0.45886216 -0.08803096 0.31998557 0.34681043 0.08604916 -0.44597355 0.62808824 -0.30776787 -0.111889265 -0.1410906 0.6450229 -0.123478234 -0.33430722 1.1078846 -0.016804209 -0.55445063 0.42835715 -0.40488088 -0.22949213 0.08287853 0.18616383 -1.1650481 -0.09896881 0.45219627 0.47843322 -0.18197337 0.62945527 0.8415479 1.0118957 0.22311236 0.22139205 0.05766845 -0.6423162 -0.48228747 0.30850875 0.2998347 -0.2420413 -0.019717842 0.915503 -1.1489565 -0.3237546 0.6856127 0.23625915 -0.06443997 0.060267974 0.13158551 0.069472104 -0.5067809 0.3653125 0.143985 0.19989029 -0.040550347 -0.21416715 -0.42910296 0.6873745 0.43195364 -0.2953015 0.008030382 0.4150567 -0.8596577 -0.4534425 -0.52943194 -0.61957735 -0.0561391 -0.8147103 0.24555632 0.8324086 0.14612387 0.43068153 -0.5362826 0.1818747 0.4701085 -0.123099476 -0.009137731 -0.7522589 -0.21208462 -0.0066485684 0.2804522 0.2149812 -0.25769836 0.23689136 -0.24428935 0.24648835 -0.07679374 0.0037505254 0.8044706 -0.93613076 -0.38905364 -0.6442596 -0.99811774 0.06986434 0.58566797 -0.40002364 0.3242193 -0.4273145 -0.14794348 0.25696954 0.47466385 -0.3347367 -0.16803913 0.19129516 -0.5608176 0.989862 0.018631343 -0.7479557 -0.14220603 -0.5008452 -0.78822285 -0.61898196 -0.104516774 -0.26447678 0.27495992 0.99554986 -0.8514745 -0.103165165 -0.4403706 -0.103327416 -0.5692566 -0.57639754 0.6406391 0.2665347 -0.21878892 -0.618995 0.24122562 0.25543576 -0.36476824 0.36695942 0.17188576 0.78699523 -0.083685465 0.17579553 -0.43689176 -1.0925056 -0.025048468 -0.1276712 0.014424667 -0.144641 -0.62632626 -0.22025736 0.4088435 -0.59124196 0.6293194 1.0887122 -1.018982 0.011947476 -0.22722551 -0.4545152 -0.47109506 -0.15270132 -0.45901352 -0.78624016 -0.31333604 0.112402484 0.45154423 0.16195276 0.29236344 0.24547647 -0.058177557 -1.0099767 0.6718062 -1.0615053 0.12543854 -0.63237095 0.05849601 -0.28509533 0.21511148 -0.50717485 -0.41193357 -0.42432737 -0.29822147 -0.9688334 0.6935052 -0.428529 -0.42412722 -0.47716188 1.1116651 0.59189975 -0.6006362 0.69142765 0.12112954 -0.26956812 0.089088626 1.002726 -0.38477674 -0.811428 0.48822302 0.1101965 0.730538 -0.6218052 0.6974397 0.74819666 -0.058708172 -0.40522248 -0.9459705 0.29033548 0.57703394 0.14821152 -0.14265424 -0.7119721 -0.22890396 -0.170401 -0.9947228 0.10286071 0.024768079
werkzeug 0.34292868 0.039270084 -0.17706105 -0.94182277 -0.17492782 0.011724809 0.5255241 -0.67879343 -0.30382332 -0.8931546 0.31757644 -0.068484 0.066022165 0.18720345 0.30553666 -0.004493154 0.2786358 0.45164403 -0.610956 -0.32074636 -0.5742988 -0.2562709 0.16559894 0.3156555 -0.4900164 0.14266355 0.4766785 -1.0493524 -0.48859096 -0.25346774 0.6926664 0.23317116 0.43112028 0.5648824 0.039222553 -0.4415641 0.58563864 -0.4519066 -0.18144333 0.14408252 0.29136303 0.10264575 -0.17929196 0.98247 -1.4390281 0.44252732 -0.03606338 0.19086507 -0.040973403 0.12292709 -0.57151604 -0.54126525 -0.021420028 0.82201767 -0.9100608 -0.07348999 -0.48920512 -0.5193889 -0.57688355 0.15989055 0.20980386 -0.313665 0.91385055 -0.19528878 0.018531602 0.14656594 -0.14870772 -0.51813114 -0.2024331 0.36468944 0.12315987 0.44752428 0.20284235 -0.124734715 -0.34348825 -0.6028796 -0.65066224 0.080849886 0.15900494 0.6651027 -0.217839 -0.14438155 -0.10504604 0.540221 -0.9923525 -0.004180037 0.72846454 0.3002058 -0.8432504 -0.6102839 0.6856137 -0.7286164 -0.0130140595 0.43220344 0.6149071 0.850575 0.2096365 -0.1485873 -0.34875095 -0.6235224 -0.18931252 -0.37462446 0.38596195 -0.060178358 0.11031997 -0.4718109 0.9669586 0.49718165 -0.3870476 0.06810401 0.0073602055 -0.81170726 -0.1471355 -0.1953165 -0.38549396 0.09376007 0.6289259 -1.2437195 0.24070475 -0.11648456 -0.29144648 0.0134006515 0.07174506 -0.56178015 0.4422043 0.12277533 0.17423105 -0.29886553 -0.46993062 0.20702171 0.009597622 -0.5836408 0.40730914 -0.87231636 -0.86396414 -0.95525384 0.029391984 0.27415562 0.2980715 0.34982955 -0.49346516 -0.086875156 -0.36163512 -0.31302816 0.010065164 -0.15533751 0.36049983 -0.08032628 -0.09496749 -0.74094063 0.2135349 -0.23643667 0.04066477 0.29879096 -0.67027694 -0.38475856 0.017924193 0.32536998 -0.21739426 0.7081908 -0.49479976 0.34649312 -0.047124702 0.41719565 -0.6717198 0.035758648 0.49625918 0.50761753 -0.045180306 0.0013470137 -0.7779287 0.105361514 -0.33628604 -0.120002195 -0.6488307 0.18556766 -0.10539329 -0.06323356 -0.71219724 -0.19609351 -0.5933848 0.5455686 -0.17101674 0.33397895 -0.00768126 -0.3732692 -0.16246077 -0.54962254 -0.0056150104 0.98445576 -0.16854122 -0.5373242 -0.33686486 0.0095783 -0.14921068 -0.33850935 -0.19118762 0.25364265 0.5400641 1.0076594 -0.19601062 0.5372327 -0.50516164 0.22415403 0.00039505266 0.46759552 0.18506642 0.7070043 0.60796034 -0.11868159 0.081839144 0.22282124 0.0074175987 -0.27597353 0.5026573 0.15671341 -0.7420161 -0.9761239 -0.32400995 0.526162 0.026422197 -1.3471508 -0.7418798 0.56507117 1.2146999 -0.0062563913 0.36156157 0.17159949 -0.10489797 -0.43715188 0.63938516 -0.39899588 0.120562874 0.19743446 -0.48099062 -0.1464606 0.10043791 0.48107386 0.16324408 -0.5086626 0.44890422 -0.08824401 0.30703658 0.029442111 0.115517765 0.0067401086 -0.18628928 -0.62253296 0.6147811 -0.83437127 -0.2924714 -0.1328112 0.23849626 0.34034637 0.16123214 -0.31374827 -0.14410566 -0.13506512 -0.70223767 0.27709758 0.11398043 0.47930437 0.5925911 0.5039478 -0.34480315 -0.2982506 -0.72248054 0.22992948 -0.44184783 -0.19451348 0.073032424 -0.5800239 -0.16370437 -0.6460561 -0.2079668 -0.21230108 0.045573253 0.09309745 -0.12205392 0.039013386 -0.6453512 0.32876384 -0.4742523 0.18619584 0.29242 0.8056973 -0.12002078 -0.12385345 -0.37262595 -0.5759297 0.2923673 -0.23828007 0.4658958 0.42789754 0.36183578 0.4943338 0.030110776 -0.72529817 -0.45069513 -0.051284816
berg -0.7765768 0.52675676 0.21097916 0.607528 -0.44740233 -0.02452744 0.83012277 0.5123817 -0.30415234 0.23851322 0.33404574 -0.18553679 0.42882863 0.08255236 -0.13460258 -0.0980526 0.32334507 0.20042776 0.50218046 -0.48079923 0.8889605 -0.2649269 -0.17983723 0.68893707 -0.08294126 0.10586809 -0.4973486 -0.10575162 0.3086187 -0.26492795 -1.051259 0.75504357 -0.24308488 -0.32572627 0.52074426 -0.24763097 0.36733064 -0.5605339 0.15298237 0.3771988 -0.1584489 0.7711194 -0.3509319 0.1558617 0.18403742 0.023097906 -0.083922155 -0.33134046 0.37753785 0.37825176 0.34738973 -0.54056776 -0.48427406 0.5892893 -0.35092232 -0.061775796 0.16134866 0.29949594 -0.035876155 0.617742 0.17437494 -0.35485375 -0.03670501 0.3714406 -0.098332 -0.52154887 -0.3475932 -0.22395715 -0.2831483 -0.35578543 -0.07244172 -0.66183656 0.04917819 0.6302754 -0.3546383 -0.03181343 -1.2853272 -0.25221804 0.284983 0.79220134 -0.39650676 0.76703006 0.31088504 -0.15958023 0.3461889 -0.35360238 -0.6078011 -0.52833086 -0.14379306 0.06543886 0.4735363 -0.6835127 0.5478817 0.42962876 0.17648886 -0.66918486 0.3372387 -0.45365164 -0.11314798 0.6699712 0.25299603 -0.11826458 0.6757907 -0.07061849 1.2443967 -0.61476564 -0.0041383114 0.00088833907 0.14748152 -0.31623393 -0.24059238 0.14676943 -0.31758946 -0.25791475 -0.5139262 -0.30435634 0.7426206 -0.9521884 0.59370106 -0.8806865 -0.45468563 -0.74089587 0.57184255 0.42225188 -0.10056923 -0.11119441 0.65098894 0.15735964 -0.5069583 0.14710385 0.35097858 -0.22254089 0.8082938 0.39819294 0.3771178 0.2461829 0.17216809 -0.39766383 0.6058417 -0.055604108 -0.27236596 -0.7706701 0.022633318 -0.061904036 0.6751851 -0.343046 -0.5607424 -0.21624953 0.25704482 0.3496219 0.061598156 0.28490517 -0.38890994 -0.10511801 0.7431614 -0.18233187 -0.5257293 -0.36506376 0.19671628 0.05705914 -0.026681209 -0.23306772 0.28037846 -0.7630462 -0.83861005 0.2875962 -0.20886755 0.11535903 0.37637594 0.14154124 -0.08183868 -0.18065311 -0.107845336 0.038131017 -0.48964807 0.12996313 -1.1331694 0.25700623 -0.23126817 -1.0721473 -0.68319976 0.1401091 -0.058189902 0.16971382 -0.57137656 -0.21256787 0.6709611 -0.8067592 0.04795726 -0.5362295 -0.43912065 0.27842802 -0.35855547 -0.7735435 0.3925743 -1.069175 -0.31940797 -0.72874755 0.07030271 -0.66311544 -0.18687631 0.41043466 -0.13879278 0.28552467 0.3411223 0.33942997 0.21870047 0.36248913 -0.30928436 0.40249598 0.59048337 -0.961196 -0.009718156 -0.7777154 -0.16259931 0.693635 0.22094844 -1.0869746 -0.44367543 0.598532 -0.3965326 -0.21807986 0.11711353 0.33489716 1.0678722 -0.2707975 -0.26723272 -0.025074482 0.10946666 -0.36854973 0.5467463 0.1199234 0.958442 -0.11123242 -0.60089934 0.53283 0.46514687 0.7582046 0.21155806 0.056371976 1.4516943 -0.0049226 -0.91668445 -0.42492893 -0.8958131 0.82966393 0.33942124 -0.30941236 0.71778417 -0.10489618 -0.4114849 -0.27486467 -0.5490004 -0.36181048 0.3152511 0.25531372 0.47573587 0.583668 -0.6762491 -0.5016458 -0.4046226 -0.09583636 0.29578117 -0.41166505 -0.2890076 -0.13180469 -0.7981752 0.12766923 -0.6497365 -0.6710316 0.14741588 0.87123275 -0.109705806 0.6379562 0.5548855 -0.3989001 0.29293787 0.68568695 0.45823756 -0.30070636 -0.48178717 0.0018196945 -0.03703374 0.36747444 -0.5885506 0.41315016 0.29678887 -0.3021132 0.7759518 0.065597504 0.1478935 -0.42714277 0.67065406 -0.51749635 0.57528704 0.38829345 -0.46316695 -0.01866124 0.24700291 -0.753253
herd 0.060229473 0.5619611 -0.4379899 0.058393855 0.25682107 0.4020003 1.0648326 -0.21739778 0.21652539 0.14585127 0.36877042 -0.70466775 -0.11349452 0.15072784 0.2831447 -0.19197528 0.08471203 -0.9195593 0.4030149 0.30697447 -0.46335799 -0.6441622 0.6292589 0.43555504 -0.12855464 0.014233042 0.18802471 0.15211014 -0.65868086 0.1619163 0.15582757 -0.28065485 -0.66329527 -0.13466285 -0.046537004 0.26911333 -0.2561917 0.47475824 0.1660897 -0.025577128 0.42822006 -0.28042218 -0.94951284 -0.055849027 -0.60886735 -0.63904756 0.6061187 0.68719584 0.617031 0.0988258 0.46425316 0.007982852 -0.35633728 0.9707404 -0.66258246 0.0055267205 0.47589722 0.6601458 -0.9257671 0.30879253 -0.48289847 -0.47121838 0.0787649 -0.4947302 0.12245795 0.4387702 -0.20653519 -0.13849612 -0.21896335 -0.6695258 -0.9457761 -0.123048775 -0.22757535 -0.88333106 0.14882882 0.43541455 -1.0132599 -0.8004183 -0.18775895 0.5206129 0.0019041963 -0.607103 -0.4997763 0.68073225 0.19766715 -0.1179827 -0.102223635 1.3166033 0.1528755 0.30220085 -0.5492768 -0.58663696 0.21943069 -0.3162283 0.9856377 -0.13425896 0.3775757 0.7212026 0.18264657 -0.014342087 0.18370508 -0.06389744 0.0019694462 -0.39263907 0.34636724 -0.009500869 0.3604711 -0.26125762 -0.7539424 -0.21804126 -0.6668598 -0.35165608 0.54412514 -0.12504919 -0.27533218 0.072019264 0.2927872 -1.0393181 0.50070447 0.40486538 0.30375022 -0.8648254 0.13905694 -0.030071635 0.6164639 0.44532087 0.5616647 -0.26109478 -1.0305716 -0.22924507 0.39367065 0.23906793 0.51995814 -0.41786224 -0.023349468 -0.3104568 -0.18736508 0.3162432 0.030220049 0.19634353 0.8982807 -0.2706038 0.04471843 0.19767596 0.10597272 -0.38108322 0.42806894 0.2481233 0.31685743 0.03330112 0.6731241 -0.3792693 -0.106157124 -0.22930387 -0.13891627 -0.43305293 -0.46926937 0.19523515 -0.37070447 0.75564504 -0.17520629 0.4995023 -0.3497332 0.010338037 0.06964273 -0.08844077 -0.9373028 0.67807174 -0.39048174 -0.5377538 -0.21454905 0.37321517 0.7649093 0.46551734 -0.40446523 -0.30665755 0.1687176 0.5447815 -0.081772946 0.05259469 0.5413438 0.67253876 -0.2507533 -0.16705827 -0.26111308 -0.16216986 -0.005377077 -0.19778611 0.50212467 0.17504033 -0.48504403 0.106920354 0.51170367 -0.23759837 0.12625714 0.48755667 0.16251948 -0.73321533 0.26439774 0.41787365 -0.7507816 0.8155518 -0.098873734 0.05579515 -0.471483 0.27134916 0.37670982 0.33948356 0.8003105 -1.0178047 -0.5890404 -1.135929 0.08211122 0.77378774 0.6510289 -0.1878337 0.5433386 0.56371385 -0.75223696 0.42357436 0.39376378 -0.7596553 0.049735885 -0.29091272 0.29180998 0.10741653 -0.9690739 -0.10065735 -0.15906225 0.02693124 0.099224985 0.20082109 0.040679973 0.12863089 0.50956297 0.3737417 -0.622294 0.19356565 -0.07508649 -1.0054771 0.26787755 0.22997911 -1.2004577 -0.6341723 -0.38104016 -0.17942627 -0.378537 -0.24578504 0.27401966 0.0048365607 -0.56436384 -0.4969599 0.13101915 1.0010138 0.51386535 -0.71619517 -0.46053773 -0.17013766 -0.22408348 1.0719299 -0.01337172 -0.38699603 0.054534636 0.044439174 -1.0201025 -0.56031144 -1.4972049 0.6272302 -1.0780107 -0.027509479 0.53127366 0.5242364 0.39713955 -1.2665437 0.16124275 0.13056213 0.51739097 0.9413268 0.21996565 -0.08079123 -0.68693435 0.23397397 0.030650645 -0.10806657 0.34429735 0.5493065 -0.70812356 -0.67450684 0.16086264 -0.22498465 0.25989398 0.76432204 -0.43005767 0.4167316 0.4736742 0.36162603 -0.05881256 0.06663963 0.47125417 -0.38052085
berg -0.7765768 0.52675676 0.21097916 0.607528 -0.44740233 -0.02452744 0.83012277 0.5123817 -0.30415234 0.23851322 0.33404574 -0.18553679 0.42882863 0.08255236 -0.13460258 -0.0980526 0.32334507 0.20042776 0.50218046 -0.48079923 0.8889605 -0.2649269 -0.17983723 0.68893707 -0.08294126 0.10586809 -0.4973486 -0.10575162 0.3086187 -0.26492795 -1.051259 0.75504357 -0.24308488 -0.32572627 0.52074426 -0.24763097 0.36733064 -0.5605339 0.15298237 0.3771988 -0.1584489 0.7711194 -0.3509319 0.1558617 0.18403742 0.023097906 -0.083922155 -0.33134046 0.37753785 0.37825176 0.34738973 -0.54056776 -0.48427406 0.5892893 -0.35092232 -0.061775796 0.16134866 0.29949594 -0.035876155 0.617742 0.17437494 -0.35485375 -0.03670501 0.3714406 -0.098332 -0.52154887 -0.3475932 -0.22395715 -0.2831483 -0.35578543 -0.07244172 -0.66183656 0.04917819 0.6302754 -0.3546383 -0.03181343 -1.2853272 -0.25221804 0.284983 0.79220134 -0.39650676 0.76703006 0.31088504 -0.15958023 0.3461889 -0.35360238 -0.6078011 -0.52833086 -0.14379306 0.06543886 0.4735363 -0.6835127 0.5478817 0.42962876 0.17648886 -0.66918486 0.3372387 -0.45365164 -0.11314798 0.6699712 0.25299603 -0.11826458 0.6757907 -0.07061849 1.2443967 -0.61476564 -0.0041383114 0.00088833907 0.14748152 -0.31623393 -0.24059238 0.14676943 -0.31758946 -0.25791475 -0.5139262 -0.30435634 0.7426206 -0.9521884 0.59370106 -0.8806865 -0.45468563 -0.74089587 0.57184255 0.42225188 -0.10056923 -0.11119441 0.65098894 0.15735964 -0.5069583 0.14710385 0.35097858 -0.22254089 0.8082938 0.39819294 0.3771178 0.2461829 0.17216809 -0.39766383 0.6058417 -0.055604108 -0.27236596 -0.7706701 0.022633318 -0.061904036 0.6751851 -0.343046 -0.5607424 -0.21624953 0.25704482 0.3496219 0.061598156 0.28490517 -0.38890994 -0.10511801 0.7431614 -0.18233187 -0.5257293 -0.36506376 0.19671628 0.05705914 -0.026681209 -0.23306772 0.28037846 -0.7630462 -0.83861005 0.2875962 -0.20886755 0.11535903 0.37637594 0.14154124 -0.08183868 -0.18065311 -0.107845336 0.038131017 -0.48964807 0.12996313 -1.1331694 0.25700623 -0.23126817 -1.0721473 -0.68319976 0.1401091 -0.058189902 0.16971382 -0.57137656 -0.21256787 0.6709611 -0.8067592 0.04795726 -0.5362295 -0.43912065 0.27842802 -0.35855547 -0.7735435 0.3925743 -1.069175 -0.31940797 -0.72874755 0.07030271 -0.66311544 -0.18687631 0.41043466 -0.13879278 0.28552467 0.3411223 0.33942997 0.21870047 0.36248913 -0.30928436 0.40249598 0.59048337 -0.961196 -0.009718156 -0.7777154 -0.16259931 0.693635 0.22094844 -1.0869746 -0.44367543 0.598532 -0.3965326 -0.21807986 0.11711353 0.33489716 1.0678722 -0.2707975 -0.26723272 -0.025074482 0.10946666 -0.36854973 0.5467463 0.1199234 0.958442 -0.11123242 -0.60089934 0.53283 0.46514687 0.7582046 0.21155806 0.056371976 1.4516943 -0.0049226 -0.91668445 -0.42492893 -0.8958131 0.82966393 0.33942124 -0.30941236 0.71778417 -0.10489618 -0.4114849 -0.27486467 -0.5490004 -0.36181048 0.3152511 0.25531372 0.47573587 0.583668 -0.6762491 -0.5016458 -0.4046226 -0.09583636 0.29578117 -0.41166505 -0.2890076 -0.13180469 -0.7981752 0.12766923 -0.6497365 -0.6710316 0.14741588 0.87123275 -0.109705806 0.6379562 0.5548855 -0.3989001 0.29293787 0.68568695 0.45823756 -0.30070636 -0.48178717 0.0018196945 -0.03703374 0.36747444 -0.5885506 0.41315016 0.29678887 -0.3021132 0.7759518 0.065597504 0.1478935 -0.42714277 0.67065406 -0.51749635 0.57528704 0.38829345 -0.46316695 -0.01866124 0.24700291 -0.753253
küste -1.1796758 0.7492096 -0.09526697 0.37495393 -1.5747471 0.6903918 -0.5419064 0.66420597 -0.84838945 0.8104346 -0.52999836 -0.07692977 0.11608079 0.20343068 0.1288457 0.022460477 -0.12564668 -0.22628279 0.12046104 -0.92099315 0.055048555 0.44671682 0.5800313 0.20198734 -0.6819886 0.9708323 -0.6844393 0.004156176 -0.057383306 -1.4301102 -0.67082 0.35645717 0.1418226 -0.5021768 0.6822377 0.24904443 0.895758 -0.15323344 0.26731938 0.6357526 0.6619229 0.8126756 0.30301362 -0.9205159 0.22602956 -0.15589549 0.42036024 0.2150788 0.28655195 -0.15543392 0.4906535 -0.6154989 0.83511186 -0.19739999 -0.30598962 0.6607406 -0.33634347 0.5130639 0.19276647 0.1832502 0.053549744 -0.3448869 -0.48292118 0.18780671 0.8224461 -0.038312256 0.29767758 0.20335484 -0.4732876 -0.15249924 -0.690207 -0.28761828 -0.050864078 -0.292947 -0.33913183 0.35058913 -0.17102683 0.56568366 -0.15498036 0.7691742 0.44859922 -0.5021762 0.47022587 0.9448832 -0.6788434 -0.25565246 0.37312478 0.6386219 0.91644895 -0.8659498 -0.534784 -0.6292262 -0.3708393 0.12573649 0.30676824 0.44176328 0.24091141 -0.06301943 -1.3138572 0.7736759 0.35120043 0.18637647 0.36961797 0.15587047 0.4078192 -0.4439641 -0.370884 -0.24317327 -0.6615289 -0.20363119 -0.00791834 -0.3595663 0.3919306 -0.26208434 -0.04668756 0.28442305 0.41587672 -0.8634471 0.18161722 -0.26965287 -0.4747605 -0.8092468 0.92544717 -0.166432 -0.5245632 -0.3673159 -0.014950467 0.3806139 -0.22724208 -0.3514997 0.4054015 -0.26540905 0.7198986 -0.058880974 -0.807031 -0.030288238 0.4580928 0.09964924 0.05534215 0.07517622 -0.5626184 0.12790902 0.67190236 0.35989457 0.85596067 0.48724806 -0.34425774 0.013905761 -0.56581724 -0.4131912 0.37899125 0.7189838 0.47600597 0.033984996 0.21951479 1.0124285 -0.88025165 0.25302273 0.73674774 -0.10127225 0.11885525 0.044624746 -0.5044039 -0.0799862 0.36343616 -0.5996706 0.564297 0.07905515 -0.08888851 0.35128847 0.0400731 0.6093919 0.13734035 -0.898037 0.38845515 -0.06785904 -0.49204877 0.81565315 -0.16257422 -0.16148247 -0.5581937 -0.08853553 -0.717373 -0.44676965 -0.5108769 -1.0347139 1.3835967 -0.4344189 0.2536917 -0.51821655 -0.4473209 0.40539414 0.1565014 -0.4155246 1.2327975 -0.81406623 0.12791152 0.9164683 -0.628071 -0.029479133 -0.7769626 0.34382293 0.7926079 -0.33244637 -0.3856647 0.504095 -0.24072658 0.5334093 -0.44945323 0.92868155 0.27920547 -1.1535916 -1.2726884 -0.57733804 0.70829827 0.26076657 -0.23920886 0.03685872 -0.052251395 0.028458225 0.6860345 -0.14988881 0.13702932 -0.44876888 0.82057047 0.17506322 -0.016007774 -1.0067586 1.010369 0.641278 0.18532187 0.31592324 0.25100797 -0.41356263 -0.4770267 0.15607604 0.57156307 0.088242464 -0.4213154 1.0210549 0.25471106 0.07843037 1.138489 1.0147463 0.13204674 -0.8103865 -0.95555794 0.24511415 0.6608342 0.44483536 0.59707385 0.3055943 1.5773251 0.29600278 -0.7017915 0.9468618 0.14011484 -0.07493303 -1.3146157 0.35603082 0.48033595 -0.37822536 -1.0885373 0.070388146 -0.39667383 -0.5483445 -0.32974502 -0.22690172 -1.0440745 -0.27330345 0.053188927 0.79476243 0.24807702 0.09030124 -0.2855575 0.11975865 -0.5596506 0.39812294 0.03375103 -0.13884097 0.11984948 -0.24690135 1.5780892 0.4648113 -0.22211835 -0.45343578 0.5744609 -0.69853586 0.5581704 -0.2734267 0.62187487 -0.03547986 0.31566563 -0.50014687 0.82543504 0.595404 0.41318235 -0.08538204 0.075769745 -0.3189007
berg -0.7765768 0.52675676 0.21097916 0.607528 -0.44740233 -0.02452744 0.83012277 0.5123817 -0.30415234 0.23851322 0.33404574 -0.18553679 0.42882863 0.08255236 -0.13460258 -0.0980526 0.32334507 0.20042776 0.50218046 -0.48079923 0.8889605 -0.2649269 -0.17983723 0.68893707 -0.08294126 0.10586809 -0.4973486 -0.10575162 0.3086187 -0.26492795 -1.051259 0.75504357 -0.24308488 -0.32572627 0.52074426 -0.24763097 0.36733064 -0.5605339 0.15298237 0.3771988 -0.1584489 0.7711194 -0.3509319 0.1558617 0.18403742 0.023097906 -0.083922155 -0.33134046 0.37753785 0.37825176 0.34738973 -0.54056776 -0.48427406 0.5892893 -0.35092232 -0.061775796 0.16134866 0.29949594 -0.035876155 0.617742 0.17437494 -0.35485375 -0.03670501 0.3714406 -0.098332 -0.52154887 -0.3475932 -0.22395715 -0.2831483 -0.35578543 -0.07244172 -0.66183656 0.04917819 0.6302754 -0.3546383 -0.03181343 -1.2853272 -0.25221804 0.284983 0.79220134 -0.39650676 0.76703006 0.31088504 -0.15958023 0.3461889 -0.35360238 -0.6078011 -0.52833086 -0.14379306 0.06543886 0.4735363 -0.6835127 0.5478817 0.42962876 0.17648886 -0.66918486 0.3372387 -0.45365164 -0.11314798 0.6699712 0.25299603 -0.11826458 0.6757907 -0.07061849 1.2443967 -0.61476564 -0.0041383114 0.00088833907 0.14748152 -0.31623393 -0.24059238 0.14676943 -0.31758946 -0.25791475 -0.5139262 -0.30435634 0.7426206 -0.9521884 0.59370106 -0.8806865 -0.45468563 -0.74089587 0.57184255 0.42225188 -0.10056923 -0.11119441 0.65098894 0.15735964 -0.5069583 0.14710385 0.35097858 -0.22254089 0.8082938 0.39819294 0.3771178 0.2461829 0.17216809 -0.39766383 0.6058417 -0.055604108 -0.27236596 -0.7706701 0.022633318 -0.061904036 0.6751851 -0.343046 -0.5607424 -0.21624953 0.25704482 0.3496219 0.061598156 0.28490517 -0.38890994 -0.10511801 0.7431614 -0.18233187 -0.5257293 -0.36506376 0.19671628 0.05705914 -0.026681209 -0.23306772 0.28037846 -0.7630462 -0.83861005 0.2875962 -0.20886755 0.11535903 0.37637594 0.14154124 -0.08183868 -0.18065311 -0.107845336 0.038131017 -0.48964807 0.12996313 -1.1331694 0.25700623 -0.23126817 -1.0721473 -0.68319976 0.1401091 -0.058189902 0.16971382 -0.57137656 -0.21256787 0.6709611 -0.8067592 0.04795726 -0.5362295 -0.43912065 0.27842802 -0.35855547 -0.7735435 0.3925743 -1.069175 -0.31940797 -0.72874755 0.07030271 -0.66311544 -0.18687631 0.41043466 -0.13879278 0.28552467 0.3411223 0.33942997 0.21870047 0.36248913 -0.30928436 0.40249598 0.59048337 -0.961196 -0.009718156 -0.7777154 -0.16259931 0.693635 0.22094844 -1.0869746 -0.44367543 0.598532 -0.3965326 -0.21807986 0.11711353 0.33489716 1.0678722 -0.2707975 -0.26723272 -0.025074482 0.10946666 -0.36854973 0.5467463 0.1199234 0.958442 -0.11123242 -0.60089934 0.53283 0.46514687 0.7582046 0.21155806 0.056371976 1.4516943 -0.0049226 -0.91668445 -0.42492893 -0.8958131 0.82966393 0.33942124 -0.30941236 0.71778417 -0.10489618 -0.4114849 -0.27486467 -0.5490004 -0.36181048 0.3152511 0.25531372 0.47573587 0.583668 -0.6762491 -0.5016458 -0.4046226 -0.09583636 0.29578117 -0.41166505 -0.2890076 -0.13180469 -0.7981752 0.12766923 -0.6497365 -0.6710316 0.14741588 0.87123275 -0.109705806 0.6379562 0.5548855 -0.3989001 0.29293787 0.68568695 0.45823756 -0.30070636 -0.48178717 0.0018196945 -0.03703374 0.36747444 -0.5885506 0.41315016 0.29678887 -0.3021132 0.7759518 0.065597504 0.1478935 -0.42714277 0.67065406 -0.51749635 0.57528704 0.38829345 -0.46316695 -0.01866124 0.24700291 -0.753253
wald -0.46277532 -0.009931637 -0.013827063 -0.2823833 -0.1649413 0.7651272 0.441197 0.024260255 0.64619887 0.39501914 0.23537168 -0.23776937 0.5249158 0.29878753 -0.8067471 -0.33544552 0.20412073 0.26216888 0.38970646 -0.21907075 -0.006753504 -0.092584155 0.4341629 0.064172804 -0.7338128 1.2460299 0.21274672 0.28149357 0.13330527 0.29579693 -1.1012994 0.22168554 -0.1481474 -0.079547375 -0.35742894 -0.2014009 0.34301236 0.1938228 -0.63247645 0.6523704 0.046723474 0.6179853 -0.3101038 0.64370245 0.4209384 0.17646885 0.8918578 -0.7958248 0.9735803 0.22584037 -0.44274125 -0.8039636 0.14446512 0.25934553 0.22702739 0.39577237 0.073822714 0.062213507 -0.06360323 0.21485884 -0.7174267 -0.058725722 -0.9488681 1.1308211 -0.77288175 -0.18939047 0.24314068 0.6923695 -0.7225674 -0.26804602 0.012582738 -0.19308095 0.017541418 0.042968314 0.051562533 0.16905485 -0.24709445 -0.6670955 0.1112229 1.3148552 0.30344278 0.3488861 0.33836704 0.1800834 -0.021089397 -0.24798167 0.4901602 -0.022015557 -0.01580172 -0.36786455 -0.18805264 -0.5747478 0.3513553 0.76008743 1.1186373 0.3738923 0.045151375 0.20898809 0.0889069 0.27506807 0.6569133 -0.07562799 0.6227653 0.61222774 0.029266678 -0.28617686 0.18930165 -0.3693539 -0.1128748 0.035986733 0.13126484 0.43693623 0.21783242 0.008006445 -0.00754081 0.037661187 0.45205984 -0.2801051 0.08162171 -0.2745586 -0.8338837 -0.34477416 1.2952107 0.63811123 -0.23810208 0.68922126 0.87575424 0.10147854 -0.17466857 0.16814356 0.5359654 -0.15528758 0.5030852 0.17772329 -0.10147937 -0.7227712 -0.4768873 -0.009803479 -0.4188423 0.4351856 -0.20554167 0.035675183 0.40622938 0.014757514 0.19082192 -0.19979182 -0.41795075 0.23413083 -0.39954293 -0.9682363 -0.36565778 -0.47113907 0.08678056 -0.22014636 -0.011466887 0.41567782 -0.19524196 -0.1633494 0.22788331 -0.04151035 -0.5320388 0.5424725 0.57766277 -0.2289046 0.8260235 -0.6560043 -1.2606109 0.1412791 -0.22614357 1.2123708 0.36346677 -0.48216382 -0.745604 0.5922203 0.032452986 -0.41549712 0.18002898 -0.3466794 0.09564914 -0.72083235 0.08303749 0.706415 -0.11013238 0.3960639 -0.014813704 -0.21469525 -0.3861098 0.296171 -0.543185 -0.46785152 -0.5135708 0.41059554 -0.29955965 -0.5118247 0.22118172 0.24586152 -0.22430009 -0.5353734 -0.33834514 -1.0255084 -0.9094137 0.17090803 0.22938384 0.15504691 0.23335867 -0.21191373 0.20031151 0.44853416 0.6237127 0.11800774 0.19616932 -0.92607564 -0.34244913 1.0380354 0.07786821 0.58850926 -0.36682272 -0.069562756 -0.568777 0.17162211 0.5792272 0.19835983 -0.45515442 0.22033426 0.7596362 -0.16743529 0.33861718 0.36519027 -0.60946774 -0.13186641 0.6703994 0.78279054 -0.16076082 -0.3058867 -0.28275684 0.47280195 0.040814918 -0.4848805 0.077975206 0.17866631 0.41697535 -0.16844785 -0.31014946 -0.04503512 -0.63936037 0.45621067 0.06393555 -0.160103 -0.02186592 0.49616894 0.20303544 -0.9016046 -0.42612216 -1.0070773 -0.2077678 0.46907884 -0.34287673 -0.023377227 -0.64914125 -0.5752355 -0.83688205 -0.12859155 0.39217934 -0.5294146 -0.51291126 0.22084276 0.42115107 0.11192606 -0.54652005 -0.17524418 -0.48488492 0.01455126 0.4340437 0.052354127 -0.0611458 0.18390967 0.25974315 0.48296207 0.5971044 0.036606055 -0.5626407 0.39278772 -0.33452737 0.84251565 -0.18993443 0.8273805 -0.017172424 -0.0014741572 0.3695167 0.056139816 1.0296438 -0.0152894985 0.26155433 -0.32961783 0.045298338 0.8027741 -0.57131624 0.052583124 0.58280724 -0.34914592
bruder -0.05419826 0.6779753 -0.40878358 -1.0325394 0.39243668 0.6872563 0.83069247 0.26884106 0.081831895 -0.6692609 -0.025977999 -0.02312705 0.77992314 0.41598788 -0.046307564 -0.25936761 0.040063534 1.2465878 0.5361794 0.33489078 0.63188726 -0.675486 0.45317295 -0.42374 0.47682762 0.23630099 -0.24860364 -0.54718435 -0.5152662 -0.22841452 0.06641052 -0.45074007 -0.45961782 -0.6809908 -0.25438207 0.2970334 -0.25911728 -0.43785498 -0.2741776 0.17977923 -0.093063004 0.68585163 0.0785375 -0.63879776 0.427345 -0.34035408 -0.33490396 -0.74987465 0.61335963 0.542341 0.48368815 0.6591576 -0.16162692 0.70426655 0.51094824 -0.5418247 0.3455823 0.44186816 0.026226055 0.32829434 0.124943845 0.10397361 -0.3040117 0.17347877 0.72473633 0.4819657 -0.0071019037 -0.40121558 -0.7601202 -0.26349282 0.49253875 -0.4297998 -0.16342434 0.14157066 -0.5570802 0.35969844 -0.9811708 -0.13702913 -0.11939413 -0.5678114 -0.96201 -0.19504245 0.18435983 0.62011695 0.9348186 -0.14272925 -0.91539705 0.15173902 -0.57125396 0.100965604 -0.73689276 -0.3936629 0.42356965 -0.28214374 0.3259161 0.09956003 0.55110574 -0.034907043 -0.8185291 0.22882764 -0.08170519 -0.26371837 -0.45651945 0.023783589 -0.98384917 -0.9445622 -0.4446831 1.0504029 -0.8027556 0.26621208 0.19111608 0.45154405 -0.1784009 0.25655735 0.10646191 0.097505495 0.49467307 -0.5386053 0.4973201 0.44502515 0.029329028 -0.04381272 0.11781158 -0.66989636 -0.10763058 -0.6294932 0.27256525 -0.36312294 -0.24873014 -0.6417601 0.5820911 0.84608865 0.32988963 0.23281066 -0.04367404 -0.56259924 0.15711725 -0.30699322 0.5597493 0.28255507 -0.46066725 0.14366549 -0.40574822 0.14057267 -0.36333975 0.32426792 0.058106277 -0.43498895 0.27225512 -0.42157274 0.06186812 0.2421192 0.37252843 0.33384332 -0.33740482 0.06467612 -0.03128333 0.80899 1.0468141 0.05995779 -0.080687694 -0.03693362 -0.3257927 0.05809054 0.122406684 0.07281986 0.56696266 -0.00022336916 -0.4179379 0.11087715 -0.41889313 0.48357204 1.2943107 -0.09004596 0.3423089 0.011017663 -0.31694973 0.016802404 -1.4524529 -0.79182523 -0.79598534 0.87366176 0.30862808 0.42955753 0.35175073 -0.70518756 -0.05424186 -0.75154275 0.0977932 -0.626701 0.38368645 -0.05276147 -0.20871046 -0.17787291 0.08500045 -0.07646268 -0.2815623 0.11099223 0.3342375 -0.3800999 -0.8817899 0.37846404 0.19222428 0.2695404 -0.8819404 -0.2250827 -0.14613461 0.008710092 0.79547876 0.42315716 -0.21071137 -0.7957879 -0.14377883 -0.5773584 0.09584111 0.1733265 -0.140295 0.4565102 0.063885 0.12777449 -0.87968266 0.059293244 0.30982828 -0.7984776 0.1527136 -0.7080759 -0.12653759 0.29396644 -0.35819042 0.6649722 0.0005118315 0.5897963 0.23586702 -0.1359619 0.48713908 -0.00532025 -0.4996861 -1.1809593 -1.0565354 -0.47505552 0.07792313 -0.29489717 -0.11746215 0.3160537 0.10020558 0.15973456 -0.5022484 -0.09219338 -0.06890027 0.53193647 -0.8923739 0.31123644 0.16601309 0.3005469 -0.41666573 0.47373503 0.106306754 -0.12058116 -0.31253704 0.13054836 -0.101350114 0.8068365 0.8258039 -0.059327267 -0.19182661 -0.08096285 -1.1802449 0.025042675 -1.1838712 -0.11066515 -0.10401025 0.5364907 0.06974961 0.6464956 0.7684993 0.30633923 -0.11571335 -0.23938742 -0.5250483 0.554403 0.00096405233 1.5169699 0.29459184 0.851491 0.59831554 -0.22580998 -0.43099996 -0.11999668 -5.3524236e-05 0.7038403 0.7544199 0.54450035 0.7609638 -0.22581941 -0.81658226 -0.48953384 -0.6802325 -1.2876133 -0.44757432 1.1158175
bursche -0.037375923 0.48054144 -0.29180297 -0.6339073 0.34259552 -0.007155946 -0.15918979 -0.017758694 1.5007758 -0.3688279 -0.3410579 0.18112001 0.057278715 -0.76259434 0.07620686 -0.72397095 0.23642108 0.33356318 0.9254595 0.16488506 0.49901712 -0.04675601 0.33037746 -0.17620724 -0.38433832 0.60441667 0.5070797 0.12860379 -0.10457651 -0.17984547 -0.55952555 -0.08645275 -0.099092714 -1.1256298 -0.17096472 -0.22007196 0.12596783 -0.19159718 -0.21136726 0.45271316 -0.30977896 0.7915512 0.8218374 0.18178566 -0.5042881 1.2402139 0.113865934 -0.3272406 0.5918957 -0.042964786 0.4351611 -0.57871675 -0.2805984 0.92850643 0.30897358 0.019497277 0.27273855 0.13748556 0.30530044 -0.33565095 0.097384855 0.77703846 -0.5027589 0.25522026 -0.07387764 0.3150198 -0.86433893 0.114076115 -0.35795778 -0.457359 -0.3244645 0.061900277 -0.17725162 -0.5838868 -0.5133867 -0.53051174 -0.14953625 0.17133358 -1.086554 -0.3842207 0.15724756 -1.2671775 -0.07888687 -0.54767543 -0.20929123 -0.25519043 -0.47719547 0.17773867 -0.3100792 -0.10583391 0.23483516 -1.2149086 -0.154964 0.5331096 0.38107502 0.06632745 -0.23796032 -0.5577279 -0.6843697 -0.023978515 -0.081464455 -0.2632024 -0.3236549 0.19755545 -0.50002885 -0.37900728 -0.27316093 0.20541053 -0.5973522 1.330047 -0.03325505 0.15387388 -1.1128193 -0.16448283 0.032152567 -0.17282076 -0.2865236 -0.17726581 -0.38581213 -0.23539561 -0.48418322 -0.19003455 0.20827188 -0.13767031 0.59012496 -0.31419083 0.31072184 0.09024315 -0.34014487 0.015959373 0.5310621 0.46495846 -0.13460141 0.54473525 -0.17788194 -0.42987263 -0.06076934 -0.36095196 0.38074073 1.2013773 1.0062063 -0.28918064 -0.02689755 0.41839346 0.024589073 0.8632877 0.16717182 0.5828022 0.56260043 -0.123149954 0.47419664 -0.52974695 0.21893913 1.0824721 -0.34023735 0.066518776 -0.36011833 0.24841657 -0.67112446 0.2621763 -0.10757812 0.2574826 -0.08819335 -0.54968077 0.13483952 0.6343197 0.20968512 0.293889 -0.44957748 0.3425571 -0.22045556 0.39114997 0.031662833 0.42961448 0.038438853 0.22872236 0.061484367 0.4795956 -0.78579974 -0.5534792 -0.8372608 0.68161756 -0.007026529 0.43009007 -0.039573606 -0.8653514 0.18317136 0.35760036 0.12551478 0.13223717 0.14630297 0.1724433 0.13761511 0.0048878365 0.6966531 -0.19186234 -0.42150497 -0.8957995 0.56596047 0.45331 -0.2447561 -0.42809954 -0.15751211 -0.40172985 0.46956187 0.2985911 -0.046629384 -0.0054411967 1.2070392 0.58046055 0.102969594 0.31058845 0.2705907 -0.2635884 0.13843676 -0.13041736 -0.34421465 0.43563545 0.3801185 -0.05797289 0.35261002 -0.20174469 0.1313542 -0.5610468 -0.5549737 0.16527793 -1.0621549 0.3748336 -0.45508286 0.27172914 0.048580922 0.58620673 0.6413747 -0.5785552 0.031562485 -0.35418296 -0.18952411 0.0925072 -0.16913234 -0.26143062 0.33022207 0.55666417 -0.3089087 -0.95629525 0.5868918 0.16408496 0.39017808 -0.8393291 0.450345 0.12271067 -1.341483 0.5657797 -0.059732523 0.41043562 -0.21202873 0.2642712 -0.34442344 -0.55290985 0.118345626 -0.65245837 -0.25787783 -0.10784807 0.24557489 -0.63372886 -0.09606253 -0.49676165 0.12684838 0.22484241 -0.4714899 0.076015696 0.08831645 1.631216 -0.46228525 0.2736799 1.3731897 0.71046734 0.8081594 -0.037891164 -0.50268114 0.108251385 0.37646395 -0.10814891 0.07818695 0.39751354 0.36187923 -0.0855157 0.22076398 -0.25847152 0.19531778 -0.18534546 0.7720464 -1.4259169 -0.23176455 -0.22230674 -0.5779911 -0.53173316 -0.64861953 0.531727 0.35359338 -0.7556668
bruder -0.05419826 0.6779753 -0.40878358 -1.0325394 0.39243668 0.6872563 0.83069247 0.26884106 0.081831895 -0.6692609 -0.025977999 -0.02312705 0.77992314 0.41598788 -0.046307564 -0.25936761 0.040063534 1.2465878 0.5361794 0.33489078 0.63188726 -0.675486 0.45317295 -0.42374 0.47682762 0.23630099 -0.24860364 -0.54718435 -0.5152662 -0.22841452 0.06641052 -0.45074007 -0.45961782 -0.6809908 -0.25438207 0.2970334 -0.25911728 -0.43785498 -0.2741776 0.17977923 -0.093063004 0.68585163 0.0785375 -0.63879776 0.427345 -0.34035408 -0.33490396 -0.74987465 0.61335963 0.542341 0.48368815 0.6591576 -0.16162692 0.70426655 0.51094824 -0.5418247 0.3455823 0.44186816 0.026226055 0.32829434 0.124943845 0.10397361 -0.3040117 0.17347877 0.72473633 0.4819657 -0.0071019037 -0.40121558 -0.7601202 -0.26349282 0.49253875 -0.4297998 -0.16342434 0.14157066 -0.5570802 0.35969844 -0.9811708 -0.13702913 -0.11939413 -0.5678114 -0.96201 -0.19504245 0.18435983 0.62011695 0.9348186 -0.14272925 -0.91539705 0.15173902 -0.57125396 0.100965604 -0.73689276 -0.3936629 0.42356965 -0.28214374 0.3259161 0.09956003 0.55110574 -0.034907043 -0.8185291 0.22882764 -0.08170519 -0.26371837 -0.45651945 0.023783589 -0.98384917 -0.9445622 -0.4446831 1.0504029 -0.8027556 0.26621208 0.19111608 0.45154405 -0.1784009 0.25655735 0.10646191 0.097505495 0.49467307 -0.5386053 0.4973201 0.44502515 0.029329028 -0.04381272 0.11781158 -0.66989636 -0.10763058 -0.6294932 0.27256525 -0.36312294 -0.24873014 -0.6417601 0.5820911 0.84608865 0.32988963 0.23281066 -0.04367404 -0.56259924 0.15711725 -0.30699322 0.5597493 0.28255507 -0.46066725 0.14366549 -0.40574822 0.14057267 -0.36333975 0.32426792 0.058106277 -0.43498895 0.27225512 -0.42157274 0.06186812 0.2421192 0.37252843 0.33384332 -0.33740482 0.06467612 -0.03128333 0.80899 1.0468141 0.05995779 -0.080687694 -0.03693362 -0.3257927 0.05809054 0.122406684 0.07281986 0.56696266 -0.00022336916 -0.4179379 0.11087715 -0.41889313 0.48357204 1.2943107 -0.09004596 0.3423089 0.011017663 -0.31694973 0.016802404 -1.4524529 -0.79182523 -0.79598534 0.87366176 0.30862808 0.42955753 0.35175073 -0.70518756 -0.05424186 -0.75154275 0.0977932 -0.626701 0.38368645 -0.05276147 -0.20871046 -0.17787291 0.08500045 -0.07646268 -0.2815623 0.11099223 0.3342375 -0.3800999 -0.8817899 0.37846404 0.19222428 0.2695404 -0.8819404 -0.2250827 -0.14613461 0.008710092 0.79547876 0.42315716 -0.21071137 -0.7957879 -0.14377883 -0.5773584 0.09584111 0.1733265 -0.140295 0.4565102 0.063885 0.12777449 -0.87968266 0.059293244 0.30982828 -0.7984776 0.1527136 -0.7080759 -0.12653759 0.29396644 -0.35819042 0.6649722 0.0005118315 0.5897963 0.23586702 -0.1359619 0.48713908 -0.00532025 -0.4996861 -1.1809593 -1.0565354 -0.47505552 0.07792313 -0.29489717 -0.11746215 0.3160537 0.10020558 0.15973456 -0.5022484 -0.09219338 -0.06890027 0.53193647 -0.8923739 0.31123644 0.16601309 0.3005469 -0.41666573 0.47373503 0.106306754 -0.12058116 -0.31253704 0.13054836 -0.101350114 0.8068365 0.8258039 -0.059327267 -0.19182661 -0.08096285 -1.1802449 0.025042675 -1.1838712 -0.11066515 -0.10401025 0.5364907 0.06974961 0.6464956 0.7684993 0.30633923 -0.11571335 -0.23938742 -0.5250483 0.554403 0.00096405233 1.5169699 0.29459184 0.851491 0.59831554 -0.22580998 -0.43099996 -0.11999668 -5.3524236e-05 0.7038403 0.7544199 0.54450035 0.7609638 -0.22581941 -0.81658226 -0.48953384 -0.6802325 -1.2876133 -0.44757432 1.1158175
mönch -0.34761554 0.7098175 -0.8427342 -0.90901744 0.27757648 -0.26444638 -0.18619965 -0.25607345 0.36904764 -0.4289659 0.5009616 0.15024051 0.7381265 -0.1894679 -0.7957138 0.68139744 0.81564337 0.27757192 -0.4371678 0.22357671 -0.1511289 -0.21882465 0.4229016 0.11143529 -0.44863006 0.9249426 0.48153007 -0.55993015 0.9104255 -0.31566232 -0.4380583 0.39618787 -0.11403011 -0.27030343 -0.17682326 0.50665516 0.9156901 0.12139094 -0.32627746 0.629506 0.46943554 -0.015440826 0.04790817 -0.30054 0.013322297 -0.1528015 0.36561856 -0.043041144 -0.45377657 0.41332006 0.041319493 0.12868452 -0.22893283 -0.60049266 -0.14229138 -0.118490174 0.49630928 0.28730455 -0.37107804 0.40878507 0.6849726 -0.34073138 -0.36236352 0.58689064 0.3011942 0.7512532 -0.4533398 0.18645169 -0.32894397 0.3107964 -0.20125186 -0.21348606 0.20483628 0.6184776 0.23911096 -0.515385 -0.17809804 0.17949623 0.19483109 -0.06246641 -0.4247012 0.103236616 0.7252875 0.7589681 -0.0009341294 0.29649168 0.02006886 0.11586295 -0.51450413 0.039063983 -0.52951276 -0.6482048 -0.41329396 0.57175994 0.82134145 -0.76814336 0.5596445 -0.38301226 -0.7662084 0.5846649 -0.53109 -0.61826926 -0.20054448 -0.42343614 0.5447822 0.012798132 -0.46702984 0.24674223 -0.65925705 0.54552376 0.0006833823 1.3977293 0.03274142 0.52507836 -0.24639879 0.20643444 0.17987856 -0.6291578 -0.48744655 -0.15820701 -0.50997025 0.18095143 1.6041889 0.5932764 0.3312389 -0.08541699 0.1697098 -0.4429976 -1.1046447 0.3185778 0.27232102 -0.010461535 0.041264884 0.54715216 -0.055539735 -1.3321556 -0.021553228 -0.9622888 0.415118 -0.095965624 0.68982303 -0.39599237 -0.26268628 0.28380793 0.4258691 0.0052919085 -0.43264586 0.087022506 0.25805742 -0.3345572 0.40926403 0.28098267 0.54657704 -0.25603724 0.657649 0.13571145 -0.21395706 -1.0986828 0.2750467 0.4620912 -0.2213177 0.23218396 0.6445769 0.40044245 -0.31567797 0.31861916 0.59407175 0.16942053 -0.6593668 0.08491705 -0.029875051 -0.06565147 0.47648022 0.43465474 0.19397531 0.49131244 -0.4694366 -0.0712184 -0.022457212 0.16643864 -0.696431 1.0801796 -0.23793094 -0.6605348 0.7111988 -0.41988602 -0.4641771 -0.61554736 0.57235706 -0.6237455 -0.63247335 0.030195408 -1.1387814 -0.54322654 -0.08741528 -0.15461512 0.06135978 -0.9224498 0.09217906 -0.1967038 -0.20291412 1.0183759 -0.5270989 -0.15470421 0.07927374 -0.579053 0.25926128 0.46789578 -0.28634748 0.6047346 0.21329105 -0.934118 -0.3227642 -0.26157796 -0.3664737 -0.25426814 -0.031075235 -0.6958735 0.61626357 -0.38698915 0.15488955 0.08621671 -0.13980511 0.47107682 0.11553166 -0.31141585 -0.4370953 -0.113170914 -0.04196532 0.81404936 -0.5089397 0.8809409 -0.3291254 0.16138974 -0.6030281 -0.4140792 -0.7932382 0.21032925 -0.19126947 0.4095446 -0.06548482 0.22481415 0.12405217 0.07511074 0.23001553 0.4293959 0.42596462 -0.54915625 1.2854203 0.8845007 -0.08040358 0.67628396 0.27979797 1.1484603 0.17781752 0.17459002 0.09732335 -0.60242534 0.034229837 0.12135997 -0.1292886 0.41620806 0.7485434 -0.079563774 -0.030063499 0.36013025 -0.08868132 0.49576706 -0.53489393 0.06497591 -0.13846219 1.12198 -0.45251662 0.7403065 0.6696739 0.69077873 0.38332966 -0.38554832 0.52124345 -0.5130096 -1.1785877 0.16112879 -0.53334504 0.3107742 -0.057484016 -0.024142634 0.06446687 -0.43380776 0.47955835 -0.40783244 0.6762049 -0.3636595 0.7554497 1.0602798 -0.8887068 0.3685226 -0.70596045 -0.20606488 0.03433615 0.39252612
bursche -0.037375923 0.48054144 -0.29180297 -0.6339073 0.34259552 -0.007155946 -0.15918979 -0.017758694 1.5007758 -0.3688279 -0.3410579 0.18112001 0.057278715 -0.76259434 0.07620686 -0.72397095 0.23642108 0.33356318 0.9254595 0.16488506 0.49901712 -0.04675601 0.33037746 -0.17620724 -0.38433832 0.60441667 0.5070797 0.12860379 -0.10457651 -0.17984547 -0.55952555 -0.08645275 -0.099092714 -1.1256298 -0.17096472 -0.22007196 0.12596783 -0.19159718 -0.21136726 0.45271316 -0.30977896 0.7915512 0.8218374 0.18178566 -0.5042881 1.2402139 0.113865934 -0.3272406 0.5918957 -0.042964786 0.4351611 -0.57871675 -0.2805984 0.92850643 0.30897358 0.019497277 0.27273855 0.13748556 0.30530044 -0.33565095 0.097384855 0.77703846 -0.5027589 0.25522026 -0.07387764 0.3150198 -0.86433893 0.114076115 -0.35795778 -0.457359 -0.3244645 0.061900277 -0.17725162 -0.5838868 -0.5133867 -0.53051174 -0.14953625 0.17133358 -1.086554 -0.3842207 0.15724756 -1.2671775 -0.07888687 -0.54767543 -0.20929123 -0.25519043 -0.47719547 0.17773867 -0.3100792 -0.10583391 0.23483516 -1.2149086 -0.154964 0.5331096 0.38107502 0.06632745 -0.23796032 -0.5577279 -0.6843697 -0.023978515 -0.081464455 -0.2632024 -0.3236549 0.19755545 -0.50002885 -0.37900728 -0.27316093 0.20541053 -0.5973522 1.330047 -0.03325505 0.15387388 -1.1128193 -0.16448283 0.032152567 -0.17282076 -0.2865236 -0.17726581 -0.38581213 -0.23539561 -0.48418322 -0.19003455 0.20827188 -0.13767031 0.59012496 -0.31419083 0.31072184 0.09024315 -0.34014487 0.015959373 0.5310621 0.46495846 -0.13460141 0.54473525 -0.17788194 -0.42987263 -0.06076934 -0.36095196 0.38074073 1.2013773 1.0062063 -0.28918064 -0.02689755 0.41839346 0.024589073 0.8632877 0.16717182 0.5828022 0.56260043 -0.123149954 0.47419664 -0.52974695 0.21893913 1.0824721 -0.34023735 0.066518776 -0.36011833 0.24841657 -0.67112446 0.2621763 -0.10757812 0.2574826 -0.08819335 -0.54968077 0.13483952 0.6343197 0.20968512 0.293889 -0.44957748 0.3425571 -0.22045556 0.39114997 0.031662833 0.42961448 0.038438853 0.22872236 0.061484367 0.4795956 -0.78579974 -0.5534792 -0.8372608 0.68161756 -0.007026529 0.43009007 -0.039573606 -0.8653514 0.18317136 0.35760036 0.12551478 0.13223717 0.14630297 0.1724433 0.13761511 0.0048878365 0.6966531 -0.19186234 -0.42150497 -0.8957995 0.56596047 0.45331 -0.2447561 -0.42809954 -0.15751211 -0.40172985 0.46956187 0.2985911 -0.046629384 -0.0054411967 1.2070392 0.58046055 0.102969594 0.31058845 0.2705907 -0.2635884 0.13843676 -0.13041736 -0.34421465 0.43563545 0.3801185 -0.05797289 0.35261002 -0.20174469 0.1313542 -0.5610468 -0.5549737 0.16527793 -1.0621549 0.3748336 -0.45508286 0.27172914 0.048580922 0.58620673 0.6413747 -0.5785552 0.031562485 -0.35418296 -0.18952411 0.0925072 -0.16913234 -0.26143062 0.33022207 0.55666417 -0.3089087 -0.95629525 0.5868918 0.16408496 0.39017808 -0.8393291 0.450345 0.12271067 -1.341483 0.5657797 -0.059732523 0.41043562 -0.21202873 0.2642712 -0.34442344 -0.55290985 0.118345626 -0.65245837 -0.25787783 -0.10784807 0.24557489 -0.63372886 -0.09606253 -0.49676165 0.12684838 0.22484241 -0.4714899 0.076015696 0.08831645 1.631216 -0.46228525 0.2736799 1.3731897 0.71046734 0.8081594 -0.037891164 -0.50268114 0.108251385 0.37646395 -0.10814891 0.07818695 0.39751354 0.36187923 -0.0855157 0.22076398 -0.25847152 0.19531778 -0.18534546 0.7720464 -1.4259169 -0.23176455 -0.22230674 -0.5779911 -0.53173316 -0.64861953 0.531727 0.35359338 -0.7556668
magier 0.31483322 0.28495407 0.27754882 0.26311332 -0.37742984 -0.02655084 0.057656817 -0.20637208 -0.37482247 0.01075399 0.4078383 0.58737725 0.2948862 0.24755077 -0.7834144 0.32603964 0.79127115 0.58379245 0.012170359 0.16284604 0.37872928 -0.56059307 0.2758867 0.16985591 -0.10286192 0.31912532 0.46272302 -0.55860364 0.17933987 -0.65683484 -0.18481323 -0.47818312 0.54855454 -0.40037066 0.23848437 0.0057919417 -0.09030859 -0.007447855 -0.33956268 -0.176 -0.079831675 -0.45365113 0.31831035 -0.45467216 0.015254626 0.022695132 -0.12958688 0.29143104 -0.21115367 0.3244959 -0.27940336 -0.42331532 -0.46795714 -0.17923146 0.00043725976 -0.032661207 1.0039462 0.15889797 -0.4924134 -0.26752645 0.26106462 -0.28683963 -1.3558792 -0.055284932 0.3455024 0.4331266 -1.4053377 -0.12056949 -0.5724063 0.058701783 -0.34251773 0.20279798 0.25749546 -0.12698592 0.4249699 0.55761504 -0.41298613 0.4941707 -0.48997748 0.28229237 -0.73230654 -0.7490871 0.37662753 0.7093275 0.032200877 0.24081671 0.25349084 0.31469584 -0.32100517 0.63691306 -0.4117408 0.08229923 0.11527908 0.68626714 0.6207689 0.27534214 0.11259927 -1.100184 -0.3183282 0.3922283 -0.290576 -0.4935693 -0.21381642 -0.1651869 0.5768957 -0.1446352 -0.08496264 0.3646416 -0.24623238 0.14140098 0.06527231 -0.19339082 0.13247226 -0.94751304 0.098383166 0.15219925 -0.11163038 -0.59290683 -0.37712198 -0.6359367 0.38761798 0.27515718 1.0944889 -0.5680384 0.67845637 -0.492115 0.34638304 -0.21709496 -0.6862397 -0.34880298 -0.07945416 1.11392 -0.38909405 0.79963696 0.09177699 -0.5999656 -0.2780629 0.1778646 -0.006081176 0.9143479 0.8029249 -0.09682107 0.0009429733 0.48794937 -0.013536742 -0.6728028 0.11091375 -0.6103346 0.85402936 -0.26206818 0.7072733 -0.74676156 0.4614095 -0.084006056 1.2792538 0.41805416 0.2006648 -0.10253027 0.584966 0.23980342 -0.3528264 -0.41226542 0.32018745 0.0972924 -0.049949087 -0.44329557 0.30276725 -0.37244657 0.2221327 0.10254421 0.4527946 0.032275382 0.57225627 -0.31757385 0.3012373 0.10540556 0.11206763 0.007246827 -0.35447732 -0.47328869 -0.4529269 0.4407973 -0.0047146343 -0.3096228 1.0891798 0.44528347 -0.3215952 -0.08666932 -0.14314906 -0.7261355 -0.1391267 -0.118313916 -0.5705109 -0.13937521 -0.25845498 0.21610564 -0.27201393 0.40748876 0.11904875 0.4529485 -0.19827753 0.49497762 -0.08640436 0.14443204 0.25599813 0.36812332 0.3522257 -0.11287033 -0.6607317 0.014113885 0.22851971 -1.1546679 0.030897414 -0.50547737 -0.19987284 0.8034549 -0.3936342 -0.47185653 0.6955861 -0.0914797 0.18061247 -0.0025329771 -0.28940564 -0.097236834 0.31101102 -0.65343213 -0.1849164 0.32449767 0.31094286 -0.73953015 0.6425518 0.13084266 0.23709357 0.36810425 -0.02642229 0.30999172 -0.45280904 -0.47972494 -0.058545075 -1.1681429 -0.3463987 0.040914785 0.69812804 0.5245461 1.076753 -0.25226653 0.4095982 0.07011302 0.72207016 0.5579528 -0.3862359 0.51355326 0.29227453 0.4526283 -0.22011364 0.4375406 -0.27074146 0.2251325 -0.0982102 0.87347424 -0.14261653 0.14639682 1.3741486 -0.45156604 -0.8337087 0.32137942 -0.024961673 -0.24228628 -0.3609247 0.40734145 0.090770304 0.33451173 -0.81226414 0.7866352 0.954636 0.24860615 -0.4402697 0.13614643 -0.4013553 -0.72884065 0.35408872 0.7936043 0.11323798 0.17566001 -0.818778 0.83785236 0.100101195 -0.9431489 -0.51155615 -0.37552556 0.053962864 -0.07545808 0.3036399 0.3842475 -0.81653446 -0.06355566 -0.5368844 -0.98919606 0.45283556 -0.55810326
edelstein 0.031018132 0.69125134 -0.10375069 0.54554415 -0.7244086 0.59278524 0.5550375 0.06606089 0.2953661 -0.10774556 0.22041255 -0.13135701 -0.15846477 -0.052474167 0.5371909 0.32106465 0.19874156 -0.38431618 0.4001894 -0.19358914 0.27078366 0.014861972 0.18700737 0.26167008 -0.2976245 1.411489 0.8595105 0.22783571 0.47401908 0.10167549 -1.0663507 -0.50336146 0.67635155 -0.42417598 -0.186775 0.10704132 0.87294203 0.3078739 -0.043630995 0.31820875 -0.062132634 0.40242842 -0.23253126 0.6668237 -0.18440178 1.1352978 -0.8417313 -0.34534395 0.22849078 0.35988262 0.47033924 -0.5537802 0.33717477 -0.2970867 -0.060163215 0.115054205 0.9941581 0.54743475 -0.72776645 -0.0054334635 0.112824254 -0.7059774 0.45201826 0.6637711 0.5624431 -0.6514689 -0.78966004 -0.44579265 0.20696458 -0.13482873 0.54242575 0.07782654 0.34223425 -0.24419665 -0.365928 0.17188735 -0.666048 -0.2576847 -0.8449244 0.1787797 -0.3340307 0.37804627 0.4603498 -0.4197072 -0.0019223839 -0.36400655 0.7357494 0.614628 -0.41748583 0.46575615 -0.3135319 -0.28111282 -0.4343826 0.12835383 -0.042372018 0.18467209 0.35963258 -0.37186283 -0.8026071 0.2215387 -0.042325646 -0.014868695 -0.38046986 0.34834817 0.82315654 -1.0998824 -0.5079329 0.12855962 -0.28259838 0.27506578 -0.02571454 -0.659981 0.4428546 0.29150462 -0.08969155 -0.7525241 0.28470424 0.29732865 0.2533617 -0.48560548 -0.33765218 -0.06282175 1.6542702 0.80460984 0.95820504 0.2413883 0.7420443 -0.29312837 -0.47025263 -0.7182411 0.48953035 -0.32294878 0.23268375 -0.80752873 0.32569098 0.44377887 -0.8810313 -0.031319324 -0.02186573 -0.44057074 -0.6343119 -0.3127346 -0.19145666 -1.1349478 -0.37785295 -0.74491966 -0.012722395 -0.29074016 0.2826405 -0.14751291 -0.6699547 0.21929018 0.053208027 -0.188259 0.28365752 -0.15486649 -0.01854397 0.371087 -0.13455826 0.13582034 0.4830595 -0.16495228 0.53221107 -0.47841334 -0.3608134 -0.08309203 0.31281507 0.3940137 0.021507131 0.16602118 -0.294562 0.6688777 0.3223002 -0.14748055 0.13321185 -0.18439679 -0.16033706 -0.02419608 0.1266476 -0.53947353 0.2443069 0.8756229 -0.3051312 -0.9861582 0.5922726 -1.0584983 0.16176473 0.5821546 -0.6584041 -0.7014066 -0.055615917 0.48222598 -0.21764536 0.76146126 -0.67473173 0.12302005 0.075928055 -1.1174605 0.47348866 -0.34996477 -0.28552708 0.189437 0.39717746 0.36054412 0.15937708 0.18535651 0.2625285 0.018661628 0.24897507 0.091977455 0.5550731 0.0066357735 0.06966996 -0.7145976 -0.0003663745 0.18645932 -0.25638583 -0.1851229 -0.45140287 0.85281324 -0.2672988 -0.8935572 -0.49876583 -0.26262856 0.8419216 -0.5099071 -0.30915454 -0.17362638 0.55497974 0.50398296 0.16654678 0.5512699 0.020352941 -0.36428785 -0.505794 0.16574396 -0.20213214 0.07254037 0.4573287 -0.22259828 0.36081105 -0.13849571 -0.24312301 0.060671587 -0.7028653 -0.43003583 0.14289512 -0.25421664 0.25693777 -0.06776402 0.25069252 -0.26496428 0.9129635 0.42563984 0.4211207 0.4469769 0.82756305 0.07522125 -0.6830791 0.08295398 0.016303381 -0.75925004 1.0398525 -0.7156229 -1.0499847 -0.4421637 -0.5205432 -0.013156377 -0.32128385 0.25263524 0.47478774 0.35574964 0.035827387 0.76617277 -0.31444362 -0.38899195 -0.12764283 -0.165865 0.14796509 -0.18147328 -0.017455943 0.53477657 0.29878497 -0.16382813 0.15641929 0.009818581 0.13872458 0.35904446 -0.30601355 -0.49123678 -0.12840378 0.7794715 0.22796202 0.3171667 -0.6810881 -0.4886082 -0.35448006 -0.62796146 -0.17014413 -0.7509473
juwel 0.72116506 0.4176106 -0.018205801 0.6976997 -0.86031413 0.14388405 0.55711067 -1.3524743 0.51944107 0.107780546 0.3165835 0.42646012 -0.11121555 0.25023246 0.39806 -0.018336583 0.09693385 0.21563524 -0.19592226 -0.18731649 -0.33687088 0.5140891 0.78463614 0.04188267 0.25173554 -0.5774502 0.46901384 0.158932 0.34997845 -0.2630085 -0.11077852 -0.048449975 0.40760094 0.010231594 -0.40929538 0.81084836 0.7111037 0.3120848 -0.83297527 1.2776974 0.111263484 0.19663602 0.78465104 0.564737 -0.6875839 0.6582164 0.17753467 0.3936165 0.5654648 0.21318801 -0.150579 -0.7583293 0.31655914 0.32817343 -0.039302032 0.09028752 0.1958549 -0.37474784 0.6075845 0.22400953 -0.3021398 -0.8734273 -0.28476524 -0.022925163 0.43878764 0.31978852 -0.4380008 0.19872397 0.21014276 -0.26869383 0.4392762 0.55170506 0.3600971 -0.02607668 0.026308835 0.014392324 -0.13497214 -0.17160131 -0.4301233 0.26242065 0.41691995 -0.8628039 0.5430702 0.39414915 0.7472112 -0.20688505 0.037744805 0.8640561 -0.9417889 0.39067158 -0.27897543 -0.084206395 -0.06668907 0.9475375 0.29930258 -0.07873823 0.478657 -0.5658854 0.09433607 -0.055788722 -0.5006367 0.08459784 0.91427296 0.47258186 -0.45211178 0.5870176 0.07894976 0.87285656 -0.03762573 0.07822488 -0.21095614 -0.5715634 0.42030033 0.56690294 0.1644345 0.17316824 0.20790847 -0.8241525 -0.32020208 -0.30788258 -0.075009376 -1.0004992 0.88600945 0.024155607 0.5229931 -0.29480976 -0.498943 -1.0576164 -0.5102712 -0.72721833 0.8288781 -0.16790238 0.10675489 -0.7251994 -0.34600875 -0.691809 0.530204 -0.14679548 -0.3379061 -0.09005425 -0.2928953 -0.08341679 -0.7172826 -0.049806498 0.26318696 -0.68973684 0.24814723 -0.49460056 0.8929718 0.17974764 -0.36460122 -0.5415888 0.3802888 0.10639786 1.4429375 -0.019691054 0.6238593 0.13090338 -0.15916128 0.6898012 1.1235666 -0.22774482 0.32644987 -0.4284458 0.40660667 0.13970315 -0.09473953 -0.01297647 0.5798423 -0.18865976 0.18264285 0.06644171 0.3939775 -0.16351654 0.08318028 0.7491681 0.2807764 0.7193343 -0.029430494 0.05660083 -0.4535519 -0.2847062 -0.09175954 -0.36370853 0.32740608 -0.7289218 -0.4172822 -0.36137417 -0.49104515 -0.41050544 -0.23495781 0.40096846 -0.05153847 0.29685676 -0.39740106 -0.9457342 0.05034699 -0.079974785 0.25874737 -0.5327921 0.19850293 -0.17409362 -0.20168522 0.27393746 -0.034311786 0.53627026 -0.15649292 0.43775406 0.39863577 0.029948693 0.45264822 -0.1821407 -0.46946678 0.49483764 -0.09730439 0.31756452 -0.107491955 -0.5413414 -0.21713702 -1.0192853 0.043544058 -0.59231234 -0.13335039 0.022629779 0.4580943 -0.5731276 -0.53440785 0.24143578 -0.23104668 0.24832463 1.092856 -0.3127992 -0.5984885 -0.17449547 -0.7091371 0.69123745 -1.1598935 0.72385585 0.08453314 -0.6206587 1.0451328 -0.41744813 0.32861528 -0.1560935 0.26816016 0.22963494 -0.13032956 -0.9756226 0.17937978 -0.1760847 -0.0867215 -0.21772599 0.17958526 0.34862497 0.21007857 -0.47198683 0.6618061 0.011960901 0.22101209 -0.05060118 0.41336486 -0.4984485 1.2950239 0.51716924 0.1097061 -0.6918886 -0.13934384 0.32225394 -0.4910157 -0.21944505 -0.8590057 0.31113067 -0.5681781 -0.16048764 -0.025734548 0.31983835 -0.65622073 0.17689133 -0.5073414 -0.24094847 -0.010878755 0.19628347 0.65551525 0.82903355 0.070478186 -0.5460894 0.4032016 -0.23002592 0.36268753 0.19435254 -0.15233497 0.18008362 1.4656923 0.72245777 0.415698 1.0396345 -0.16239649 -0.18945016 0.11257564 -0.012009234
fabel -0.3261029 0.27320758 -0.82401234 -0.7163762 -0.30359468 0.46717924 0.30098963 -0.12306075 -0.23509139 0.37040806 -0.21169122 0.057244178 0.582607 0.08042668 -0.06345449 -0.18977341 0.519918 0.0028051992 0.46231297 0.8546583 -0.5571026 -1.5811603 1.0399725 0.13380393 -0.71864176 0.45322847 -0.42074952 -0.7276262 -0.36168113 -0.06392662 -0.48796067 -0.8770357 0.32480416 0.16890322 -0.65405047 -0.23275319 0.14815456 0.65767986 0.12442152 0.33622715 0.30913964 0.00607741 0.93770057 -0.6288094 -0.07273938 0.53369427 0.61151016 -0.13323344 0.1729364 -0.6656129 0.30104098 -0.20333031 0.49435866 0.0137950545 -0.12723047 0.63896614 0.37557486 0.8227825 -1.0197378 0.5602288 -0.32830656 -0.6689222 -0.6801421 0.24513946 0.7967609 -0.37944022 -0.56690574 -0.023905592 -0.2730628 -0.5148632 -0.3100812 -0.47583866 0.4315101 -0.7423711 0.40640593 -0.2288531 -0.51330036 0.58563244 -0.41579834 -0.57471144 -0.64019364 -0.38389248 0.24208394 0.47005388 -0.5122084 0.33896247 -0.04646474 0.82884616 -0.44775954 -0.37883747 0.84514755 -0.62176317 -0.44406745 0.21183716 0.12675549 0.26320413 0.20875348 -0.3192897 0.11934895 -0.27853572 -0.29568276 -0.43150207 0.68513155 0.5060392 0.01914675 0.020014413 -0.55034477 0.63586926 -0.11726169 0.030875951 -0.18862195 -0.046635058 -0.76731884 -0.40785882 0.052498233 0.06732984 -0.24756534 -0.41458234 0.29551947 0.16021165 -0.013756349 0.053781383 0.71562237 -0.058281604 0.4871045 -0.1786711 -0.04160049 0.27952996 -0.9163479 0.46461597 0.75474596 0.7809695 0.2717354 0.31045783 0.05447734 -0.44464362 -0.35000154 0.3964156 -0.08063403 -0.2889379 0.301972 0.33942735 -0.48487583 -0.13918476 -0.33184758 -0.45965776 0.5542998 -0.42400593 1.0765798 -0.59165126 0.33718047 -0.5814558 0.6013083 -0.11166347 0.38546592 0.4099713 0.05949405 0.075171895 0.6861121 0.08107626 -0.64602673 0.20829774 0.48430586 -0.11693284 0.9307975 0.10049742 0.34863722 0.08399927 -0.64678395 -0.22372642 0.16544262 0.17229831 -0.39963463 0.3002953 0.29136974 0.034120403 -0.45392737 0.53764415 -0.02217734 -0.17930621 -1.0298744 0.50432104 -0.43315113 -0.8361413 -0.4649965 -0.5729428 0.33275947 0.45859706 -0.037462108 0.3575497 -0.28733608 -0.14429499 -0.22273405 -0.34562346 0.29469877 0.93692064 0.34541976 -0.09141038 0.038621347 -0.075809285 -0.50113547 0.42381412 -0.44333082 0.15560599 0.34706017 0.24847053 0.25068793 0.4075454 -0.2858461 0.52209353 -0.4075529 0.4163095 0.46098053 0.12806895 0.41200688 -0.04152204 -0.4443087 -0.32303405 0.43078163 0.5581988 -0.7149247 0.06510585 0.20717014 0.60950285 0.24476132 -0.16990001 0.2492387 -0.33311397 0.17548761 -0.35227033 0.7575892 -0.30516776 0.014300804 0.42472035 0.5231565 0.078905344 0.09248398 0.49089915 0.76747704 -0.4890756 -0.30771497 0.2417596 0.22663356 0.27868217 0.19790024 -0.2312938 -0.6355261 0.007663109 0.33114973 -0.43525815 -0.25382665 0.67879057 0.05505721 0.19706574 -0.22033526 -0.0064979894 -0.4359964 -0.19540025 -0.35977846 0.25742432 -0.21003157 -0.46620145 0.8077587 -1.1292427 -0.34106585 0.29354376 -0.37177008 -0.101710886 -0.13649662 0.53445494 -0.105292596 -0.2377689 0.34374768 -0.17053562 0.42879435 0.61716557 0.43822354 -0.25835565 0.44730142 -0.43050802 0.660256 -0.25423202 -0.41420373 -0.37205583 0.07331092 0.11275202 -0.32986826 -0.47015986 -0.41537 0.46949384 -0.5104979 0.7373522 0.054080192 0.19700168 -0.21270378 0.5607625 0.4221734 -0.7652875 -0.66231865 0.4875255
magier 0.31483322 0.28495407 0.27754882 0.26311332 -0.37742984 -0.02655084 0.057656817 -0.20637208 -0.37482247 0.01075399 0.4078383 0.58737725 0.2948862 0.24755077 -0.7834144 0.32603964 0.79127115 0.58379245 0.012170359 0.16284604 0.37872928 -0.56059307 0.2758867 0.16985591 -0.10286192 0.31912532 0.46272302 -0.55860364 0.17933987 -0.65683484 -0.18481323 -0.47818312 0.54855454 -0.40037066 0.23848437 0.0057919417 -0.09030859 -0.007447855 -0.33956268 -0.176 -0.079831675 -0.45365113 0.31831035 -0.45467216 0.015254626 0.022695132 -0.12958688 0.29143104 -0.21115367 0.3244959 -0.27940336 -0.42331532 -0.46795714 -0.17923146 0.00043725976 -0.032661207 1.0039462 0.15889797 -0.4924134 -0.26752645 0.26106462 -0.28683963 -1.3558792 -0.055284932 0.3455024 0.4331266 -1.4053377 -0.12056949 -0.5724063 0.058701783 -0.34251773 0.20279798 0.25749546 -0.12698592 0.4249699 0.55761504 -0.41298613 0.4941707 -0.48997748 0.28229237 -0.73230654 -0.7490871 0.37662753 0.7093275 0.032200877 0.24081671 0.25349084 0.31469584 -0.32100517 0.63691306 -0.4117408 0.08229923 0.11527908 0.68626714 0.6207689 0.27534214 0.11259927 -1.100184 -0.3183282 0.3922283 -0.290576 -0.4935693 -0.21381642 -0.1651869 0.5768957 -0.1446352 -0.08496264 0.3646416 -0.24623238 0.14140098 0.06527231 -0.19339082 0.13247226 -0.94751304 0.098383166 0.15219925 -0.11163038 -0.59290683 -0.37712198 -0.6359367 0.38761798 0.27515718 1.0944889 -0.5680384 0.67845637 -0.492115 0.34638304 -0.21709496 -0.6862397 -0.34880298 -0.07945416 1.11392 -0.38909405 0.79963696 0.09177699 -0.5999656 -0.2780629 0.1778646 -0.006081176 0.9143479 0.8029249 -0.09682107 0.0009429733 0.48794937 -0.013536742 -0.6728028 0.11091375 -0.6103346 0.85402936 -0.26206818 0.7072733 -0.74676156 0.4614095 -0.084006056 1.2792538 0.41805416 0.2006648 -0.10253027 0.584966 0.23980342 -0.3528264 -0.41226542 0.32018745 0.0972924 -0.049949087 -0.44329557 0.30276725 -0.37244657 0.2221327 0.10254421 0.4527946 0.032275382 0.57225627 -0.31757385 0.3012373 0.10540556 0.11206763 0.007246827 -0.35447732 -0.47328869 -0.4529269 0.4407973 -0.0047146343 -0.3096228 1.0891798 0.44528347 -0.3215952 -0.08666932 -0.14314906 -0.7261355 -0.1391267 -0.118313916 -0.5705109 -0.13937521 -0.25845498 0.21610564 -0.27201393 0.40748876 0.11904875 0.4529485 -0.19827753 0.49497762 -0.08640436 0.14443204 0.25599813 0.36812332 0.3522257 -0.11287033 -0.6607317 0.014113885 0.22851971 -1.1546679 0.030897414 -0.50547737 -0.19987284 0.8034549 -0.3936342 -0.47185653 0.6955861 -0.0914797 0.18061247 -0.0025329771 -0.28940564 -0.097236834 0.31101102 -0.65343213 -0.1849164 0.32449767 0.31094286 -0.73953015 0.6425518 0.13084266 0.23709357 0.36810425 -0.02642229 0.30999172 -0.45280904 -0.47972494 -0.058545075 -1.1681429 -0.3463987 0.040914785 0.69812804 0.5245461 1.076753 -0.25226653 0.4095982 0.07011302 0.72207016 0.5579528 -0.3862359 0.51355326 0.29227453 0.4526283 -0.22011364 0.4375406 -0.27074146 0.2251325 -0.0982102 0.87347424 -0.14261653 0.14639682 1.3741486 -0.45156604 -0.8337087 0.32137942 -0.024961673 -0.24228628 -0.3609247 0.40734145 0.090770304 0.33451173 -0.81226414 0.7866352 0.954636 0.24860615 -0.4402697 0.13614643 -0.4013553 -0.72884065 0.35408872 0.7936043 0.11323798 0.17566001 -0.818778 0.83785236 0.100101195 -0.9431489 -0.51155615 -0.37552556 0.053962864 -0.07545808 0.3036399 0.3842475 -0.81653446 -0.06355566 -0.5368844 -0.98919606 0.45283556 -0.55810326
fahrt -0.9394929 0.6256498 -0.38739446 -0.24818036 -0.23125961 0.25010663 0.07851594 0.19047147 0.59898835 0.41627136 -0.40658885 -0.048429932 -0.011834308 -0.91389984 -0.059497952 -0.29932234 0.16203247 0.12760392 -0.26136932 0.15897767 0.015376486 0.51197165 0.45944968 0.33117887 -0.25901204 -0.15593743 -0.48045784 0.08227826 -0.29769528 0.07860071 -0.4860129 -0.35592592 0.64244914 -0.45477012 -0.018752841 0.690315 0.11418755 -0.5575185 0.3968358 1.5463829 0.09587286 0.1487973 0.72573197 -0.428723 0.29597184 -0.14840542 0.4676063 -0.29167885 0.10332708 0.4708461 0.3845388 -0.55753314 0.65277046 0.22127053 -0.25795245 -0.18868986 0.50464994 0.114601366 -0.027618252 0.063150205 -0.4667883 0.25825447 0.23824306 -0.51692384 -0.0027312853 -0.009462061 -0.7197359 -0.19594836 0.09086387 -1.1631243 -0.29438028 -0.21521437 0.41014993 0.313343 0.01095249 -0.39958537 -0.07816965 -0.41340324 -0.18437272 -0.32781366 0.15497047 -0.17607442 -0.10434549 0.5920493 -0.5865161 0.69112176 0.50015527 0.0077410527 -0.3421337 0.19414143 -0.017080061 0.88621074 -0.73484635 -0.8238803 -0.114254996 0.7507631 0.119555496 -0.455906 -0.7060027 0.74983436 -0.42670488 0.079036534 0.48422208 -0.013221446 0.16977786 0.41056827 0.26672077 0.6668051 -0.38595226 0.17114255 0.7557462 -0.5270589 -0.2344116 -0.17459193 0.04629037 0.327602 -0.7452458 -0.05245761 0.2859562 0.12128416 -0.38186345 -0.102726005 0.838158 0.5309049 -0.086399965 -0.7796956 -0.30479524 -0.19133794 0.09411674 -0.13858004 0.09019717 0.29386082 0.63691854 0.5459746 0.551468 -0.098680675 0.37101895 0.37120137 0.511343 -0.54526347 0.80690354 -0.2191369 -0.27381837 0.043095008 -0.19680819 1.1699225 -0.29668832 0.6793271 -0.031715456 -0.44077915 0.2919806 0.1160539 0.32136023 -0.40786177 -0.3676401 -0.019234555 -0.23757088 0.69167787 0.29740188 0.25872356 -0.67074007 0.072378784 0.14314605 0.12877543 -0.0007902814 0.46545947 -0.6267045 0.052401803 -0.46658242 -0.0077320784 0.3954584 0.7022044 -0.8362134 -0.34736598 -0.3672092 0.87776625 -0.5949372 0.7238954 -0.26753184 0.22739331 -0.23520577 0.7862166 -0.18333386 -0.38914794 -0.3861635 -0.42742848 0.38188836 0.5000013 0.6373652 -0.4178364 0.57122976 -0.12577488 -0.6360309 -1.5085764 -0.13487583 -0.50188255 0.7525759 -0.069935225 -0.28699532 -0.2136111 0.10185099 -0.06984911 -0.28185666 -0.21687175 0.078609586 0.648296 0.3530325 0.61613077 0.007893887 0.8348043 0.37200308 -0.43399185 -0.5737496 0.012620929 0.15297903 -0.5256485 -0.21750963 0.23590633 0.39357686 -0.502794 0.1778772 0.40309367 -0.38826898 -0.95158947 0.95449764 0.32350686 -0.56826603 -0.32410222 -0.15659748 0.45308974 0.519703 -0.21547818 -0.36299384 0.58265376 0.126501 -0.3113424 -0.21921748 -0.10441135 0.94793296 0.25840205 0.1732417 -0.754037 -0.46089992 0.26829767 0.22270705 0.8235508 -0.86668015 -0.53245765 -0.109873846 -1.381419 -0.783405 0.98392445 -0.3008691 -0.56988984 -0.24821834 0.9075986 0.25516704 -0.25525326 0.18183404 0.26440963 0.006451502 0.33363804 0.069051936 -0.7776217 -0.5202024 0.06953153 0.003434454 0.51206505 -1.0651183 0.6988487 0.09800703 0.7097002 0.2719756 -0.23744066 0.19661233 -0.5520747 0.1804522 0.05176744 -0.27240926 0.72291684 -0.55869466 0.5549717 0.07853486 0.15196374 -0.06239794 -0.810088 0.32632565 0.6320853 -0.11475337 0.97538936 -0.3027103 -0.65111053 0.8969389 -0.066762485 -0.083346516 0.66844 -0.3580844 -0.18657582 -0.3957758 -0.33967096
