absage -0.4328 0.25328 -0.14121 -0.48073 0.28686 0.26506 -0.11488 0.034582 0.35731 0.027795 0.3303 0.13837 0.27296 0.095131 -0.14248 -0.14156 0.22227 0.24314 -0.10095 -0.01757 -0.032039 0.22569 -0.16697 -0.13891 0.094186 -0.53565 -0.06762 -0.12447 -0.27568 -0.024471 0.10368 0.49303 0.11365 -0.58552 -0.018377 0.12664 -0.26218 0.14509 0.069863 0.22159 0.14008 0.37756 0.053575 0.016414 -0.051835 -0.021078 -0.13825 -0.15158 0.33611 -0.24687 0.3029 -0.1341 -0.24598 0.03411 -0.0021664 0.32244 -0.17798 -0.27986 0.31988 -0.42586 -0.0095613 -0.20655 0.67748 -0.027278 -0.12992 -0.057687 -0.10914 0.14395 0.26793 0.12766 -0.16275 0.21938 -0.17086 0.39871 -0.33005 0.25247 -0.26071 -0.056148 -0.27637 0.15848 -0.31013 -0.29451 0.031531 -0.0071581 0.29255 -0.45078 -0.011651 -0.059954 0.12389 -0.18462 0.098751 0.034352 0.050681 0.07224 0.036878 -0.12968 0.022391 0.55898 -0.37102 0.073712 -0.14096 -0.17426 0.11479 -0.41489 -0.11798 0.20268 0.21365 0.060307 0.19181 -0.13452 0.0415 0.033376 -0.018232 -0.066826 0.29521 -0.071097 0.047761 0.014935 -0.26429 -0.46491 -0.097424 0.18928 -0.37062 0.54044 0.242 -0.050482 0.24569 0.36694 0.13059 -0.082999 -0.021249 -0.23813 0.26928 -0.3118 -0.05472 0.036204 -0.25648 -0.016289 -0.35483 -0.044929 0.04394 0.21093 -0.33615 0.08088 -0.54533 0.33874 0.35345 0.015652 -0.27481 0.094759 0.38337 -0.012314 0.030616 0.31907 0.20816 -0.125 -0.40106 -0.10074 -0.030586 0.085659 0.074142 0.7183 -0.74964 -0.094462 -0.33154 -0.06412 -0.31803 -0.15856 -0.44306 -0.043155 0.22953 0.0047231 0.074527 0.25639 0.011706 -0.014961 0.063492 0.022346 -0.027773 0.016648 0.1966 0.22376 0.24245 -0.0070423 0.011277 0.10175 -0.03836 0.40064 -0.28037 -0.022249 0.17532 -0.16656 -0.1089 -0.20674 0.41384 -0.56918 0.065926 0.15724 -0.20057 -0.030187 -0.056653 0.22737 0.10025 -0.43258 -0.030557 0.23353 -0.20294 -0.016144 -0.092842 0.17677 0.079464 -0.034556 0.14586 -0.22683 -0.38202 0.031185 -0.13732 0.32193 0.6299 0.098473 0.075518 -0.4586 -0.071291 0.14069 0.18721 0.49943 0.067729 -0.35224 0.050321 0.15623 0.061646 0.078664 0.14761 0.072947 0.2828 -0.1517 -0.092925 -0.062235 -0.099344 0.23417 -0.037359 0.13395 0.46741 0.10724 -0.032132 -0.55291 0.26529 -0.25924 -0.43464 0.43383 -0.14106 -0.053659 -0.060414 0.3123 0.30296 -0.48689 0.10337 -0.20449 0.05935 0.24033 -0.25078 0.17874 -0.16837 -0.053528 0.27627 0.19782 -0.13474 0.092317 0.092125 -0.19996 -0.1386 0.045785 0.33992 0.38155 0.38224 0.04453 0.20909 0.094355 0.19094 0.42164 -0.22631 0.25704 0.069939 0.025488 -0.17284 -0.0532 -0.030354 0.37399 -0.76442 0.31907 -0.060719 0.37246 0.16922 -0.13941 -0.081647 -0.068809 -0.17467 -0.16395 0.32593 0.28877 
ablehnen -0.18551 0.10659 -0.5173 -0.64962 0.1078 0.085068 -0.18331 0.21312 0.26282 0.33797 0.12852 0.10358 0.5479 -0.0073595 -0.55502 -0.46503 0.19082 0.004242 0.11381 -0.07661 0.1406 0.27898 -0.24238 0.1855 -0.11528 -0.48771 -0.24876 0.078022 -0.25087 -0.21836 0.1834 0.17169 0.23057 -0.35573 -0.1017 -0.12378 -0.18253 -0.27213 -0.52573 0.14445 -0.1014 0.22445 0.03658 0.00028849 0.13337 -0.042515 0.24937 -0.15189 0.15717 0.38649 -0.006487 0.10171 -0.135 0.023183 0.18175 -0.051471 -0.0049577 0.059226 0.035175 -0.19139 -0.078479 0.0024759 0.27583 0.1896 0.25268 -0.13809 0.22855 0.20554 -0.037623 -0.16276 -0.15258 0.18206 0.15783 0.28199 -0.26279 0.22122 0.14497 0.30937 0.042572 -0.21585 -0.38509 -0.01111 0.16723 -0.034516 0.0085059 -0.19523 -0.17466 -0.021873 -0.29142 -0.24864 0.076335 -0.12726 -0.22668 0.36261 0.066839 0.1351 -0.080976 0.38733 -0.36577 0.27306 -0.23337 0.24381 -0.043507 -0.16143 -0.042132 0.040913 0.14633 0.1864 0.30882 -0.008525 0.17308 -0.0033142 -0.32153 -0.018364 0.26904 -0.05269 -0.31354 0.039359 -0.15833 -0.15854 0.02712 -0.098333 -0.1522 0.53751 0.32721 0.17407 0.11181 0.442 0.11877 0.27993 -0.16091 -0.22637 -0.16777 0.17037 -0.17846 0.2951 -0.065243 -0.36849 -0.0072949 -0.070993 -0.14408 0.43953 -0.48448 0.44708 -0.37111 0.13729 0.2066 0.09693 -0.29571 0.12317 0.20459 -0.27226 -0.20975 0.26442 -0.12553 -0.093475 -0.69324 0.40371 0.088145 0.2344 -0.14526 0.45078 -0.25788 -0.071539 -0.61391 0.19955 -0.6048 -0.30863 -0.33893 -0.17347 0.34451 -0.13431 -0.027435 0.043975 0.35355 -0.072828 -0.18403 -0.34916 -0.043672 -0.20463 0.24919 -0.024402 0.2937 -0.26814 0.26545 0.42552 0.19429 -0.015093 -0.179 -0.36609 0.22456 -0.19094 -0.21599 -0.037284 0.33835 -0.49383 -0.10827 -0.060239 -0.074445 -0.17168 -0.18908 0.21732 -0.11844 -0.25941 -0.16824 -0.25515 0.0062605 -0.14883 -0.20869 -0.059712 0.1082 -0.20331 -0.055234 -0.46103 -0.33236 0.1256 -0.0834 0.13715 0.026374 0.56903 0.1921 -0.016995 -0.20416 0.14216 0.072871 0.17289 -0.15076 0.047873 -0.086513 0.093193 0.015549 0.025223 -0.50467 -0.11338 0.16975 -0.19513 -0.31557 0.28104 -0.13894 0.12832 -0.25234 0.056165 0.19647 0.29846 -0.22237 0.030318 0.15932 -0.01985 -0.20707 0.16859 -0.30515 0.41796 -0.073115 -0.31365 0.27574 -0.28201 0.28736 -0.32406 0.14704 0.26608 -0.077612 0.19092 -0.037561 0.010037 -0.078352 0.0094762 0.037846 -0.079075 -0.18123 -0.27923 0.25991 0.24223 0.1741 0.18797 -0.019829 0.002886 0.32431 0.12517 0.13515 0.19342 -0.39673 -0.064737 -0.06554 -0.22005 -0.10325 0.098677 -0.034425 0.17681 -0.024143 0.18987 -0.16348 0.17342 0.058509 0.028656 0.0072452 -0.42452 0.24978 0.22326 0.063826 0.020401 
absage -0.4328 0.25328 -0.14121 -0.48073 0.28686 0.26506 -0.11488 0.034582 0.35731 0.027795 0.3303 0.13837 0.27296 0.095131 -0.14248 -0.14156 0.22227 0.24314 -0.10095 -0.01757 -0.032039 0.22569 -0.16697 -0.13891 0.094186 -0.53565 -0.06762 -0.12447 -0.27568 -0.024471 0.10368 0.49303 0.11365 -0.58552 -0.018377 0.12664 -0.26218 0.14509 0.069863 0.22159 0.14008 0.37756 0.053575 0.016414 -0.051835 -0.021078 -0.13825 -0.15158 0.33611 -0.24687 0.3029 -0.1341 -0.24598 0.03411 -0.0021664 0.32244 -0.17798 -0.27986 0.31988 -0.42586 -0.0095613 -0.20655 0.67748 -0.027278 -0.12992 -0.057687 -0.10914 0.14395 0.26793 0.12766 -0.16275 0.21938 -0.17086 0.39871 -0.33005 0.25247 -0.26071 -0.056148 -0.27637 0.15848 -0.31013 -0.29451 0.031531 -0.0071581 0.29255 -0.45078 -0.011651 -0.059954 0.12389 -0.18462 0.098751 0.034352 0.050681 0.07224 0.036878 -0.12968 0.022391 0.55898 -0.37102 0.073712 -0.14096 -0.17426 0.11479 -0.41489 -0.11798 0.20268 0.21365 0.060307 0.19181 -0.13452 0.0415 0.033376 -0.018232 -0.066826 0.29521 -0.071097 0.047761 0.014935 -0.26429 -0.46491 -0.097424 0.18928 -0.37062 0.54044 0.242 -0.050482 0.24569 0.36694 0.13059 -0.082999 -0.021249 -0.23813 0.26928 -0.3118 -0.05472 0.036204 -0.25648 -0.016289 -0.35483 -0.044929 0.04394 0.21093 -0.33615 0.08088 -0.54533 0.33874 0.35345 0.015652 -0.27481 0.094759 0.38337 -0.012314 0.030616 0.31907 0.20816 -0.125 -0.40106 -0.10074 -0.030586 0.085659 0.074142 0.7183 -0.74964 -0.094462 -0.33154 -0.06412 -0.31803 -0.15856 -0.44306 -0.043155 0.22953 0.0047231 0.074527 0.25639 0.011706 -0.014961 0.063492 0.022346 -0.027773 0.016648 0.1966 0.22376 0.24245 -0.0070423 0.011277 0.10175 -0.03836 0.40064 -0.28037 -0.022249 0.17532 -0.16656 -0.1089 -0.20674 0.41384 -0.56918 0.065926 0.15724 -0.20057 -0.030187 -0.056653 0.22737 0.10025 -0.43258 -0.030557 0.23353 -0.20294 -0.016144 -0.092842 0.17677 0.079464 -0.034556 0.14586 -0.22683 -0.38202 0.031185 -0.13732 0.32193 0.6299 0.098473 0.075518 -0.4586 -0.071291 0.14069 0.18721 0.49943 0.067729 -0.35224 0.050321 0.15623 0.061646 0.078664 0.14761 0.072947 0.2828 -0.1517 -0.092925 -0.062235 -0.099344 0.23417 -0.037359 0.13395 0.46741 0.10724 -0.032132 -0.55291 0.26529 -0.25924 -0.43464 0.43383 -0.14106 -0.053659 -0.060414 0.3123 0.30296 -0.48689 0.10337 -0.20449 0.05935 0.24033 -0.25078 0.17874 -0.16837 -0.053528 0.27627 0.19782 -0.13474 0.092317 0.092125 -0.19996 -0.1386 0.045785 0.33992 0.38155 0.38224 0.04453 0.20909 0.094355 0.19094 0.42164 -0.22631 0.25704 0.069939 0.025488 -0.17284 -0.0532 -0.030354 0.37399 -0.76442 0.31907 -0.060719 0.37246 0.16922 -0.13941 -0.081647 -0.068809 -0.17467 -0.16395 0.32593 0.28877 
stellenanzeige -0.075411 0.2487 0.093606 0.33347 0.23982 -0.25726 0.010139 0.23695 0.27272 0.2294 -0.16729 -0.030099 0.075841 -0.10601 0.041811 0.26271 -0.10934 0.2713 0.1872 -0.19677 -0.070234 0.31683 -0.20415 0.1559 -0.1594 0.025879 -0.33109 0.34836 0.39756 -0.012333 0.32811 0.33201 -0.059394 0.026738 0.04035 0.062458 0.31576 -0.23372 -0.19935 -0.16674 -0.096206 -0.073364 0.18006 0.28808 -0.038155 0.065795 0.14754 -0.36863 0.098403 -0.21418 0.21616 0.041297 0.0037414 -0.074141 0.06514 0.22366 -0.21487 -0.093239 -0.3278 0.28171 0.26937 0.089854 -0.41107 0.63808 -0.074856 -0.38518 -0.064629 -0.026354 0.095561 -0.062106 0.27177 -0.25354 -0.19129 0.27722 -0.02074 0.11729 -0.28455 0.25324 0.060888 0.13183 -0.19455 -0.29064 -0.33619 0.32155 0.10547 -0.29819 0.22057 -0.11006 -0.17638 -0.1094 -0.11177 -0.036083 -0.21566 -0.031303 0.051065 -0.07027 -0.1721 0.57482 -0.21327 0.065861 -0.20386 -0.11439 -0.24406 -0.04562 0.35327 0.032921 0.17434 -0.1856 -0.17382 0.2522 -0.073599 -0.1877 0.13231 -0.068876 -0.028448 -0.1262 0.14962 0.23134 -0.076411 0.039863 -0.39261 0.15791 0.061774 -0.022027 0.30692 -0.086921 0.14829 0.033762 0.37727 -0.16921 0.37497 0.14153 -0.05891 0.042866 0.34254 0.50912 0.27929 0.17888 0.040811 0.018105 -0.3312 0.06039 -0.36166 0.075393 0.095059 0.22006 0.25577 0.10481 0.16859 0.042198 0.37573 -0.090344 -0.51311 0.0018443 -0.28575 0.0037523 -0.45366 0.42246 0.48979 0.19857 0.065272 0.22126 -0.35696 -0.2027 -0.35953 0.22422 -0.37936 0.18428 -0.098633 0.15758 0.10618 0.060637 0.46635 -0.061919 -0.038353 0.21808 0.21354 -0.054651 0.19405 0.10963 -0.0411 0.34595 -0.46049 -0.2721 -0.44341 0.16156 -0.20967 -0.09921 -0.30511 -0.0077704 0.29867 -0.24154 0.10803 0.11099 -0.13946 -0.50773 0.10344 0.34364 -0.00078856 0.018377 0.15476 -0.078185 0.04188 -0.14466 -0.12926 -0.43783 -0.38513 -0.61193 0.31641 0.23351 0.31992 -0.0050338 0.13914 -0.30936 -0.49657 0.13096 -0.3232 0.18669 -0.14164 0.31327 0.23008 -0.13959 -0.034399 0.31577 -0.42386 0.058707 0.79581 0.1246 0.00086857 0.06601 -0.079015 -0.10295 -0.55025 -0.1679 0.051854 -0.19482 -0.73566 -0.20978 0.18012 -0.58078 0.10369 -0.083274 0.042803 0.16762 -0.0936 0.12441 0.53759 -0.29365 -0.38619 0.20654 -0.22122 0.084619 0.11074 -0.24936 -0.2541 0.1197 0.39314 -0.23429 -0.46576 0.3789 -0.024249 0.003147 -0.07182 0.14415 -0.16495 0.28208 0.10752 0.14111 0.069036 -0.065009 0.069592 0.20707 0.38258 -0.020524 0.20115 -0.093945 -0.10188 0.052493 -0.33663 0.027964 -0.00023286 0.050079 -0.052353 0.018231 0.44013 0.22176 -0.029924 -0.18468 -0.42616 0.20453 -0.037837 -0.019323 0.2179 0.069644 -0.079588 -0.36154 -0.066728 -0.043453 0.264 -0.013737 
affe -0.38458 0.17295 -0.083181 0.084448 0.13541 -0.35364 -0.029289 -0.21906 -0.059925 0.3025 -0.17448 -0.017187 -0.14887 0.047814 0.26232 0.1791 0.12854 0.0065342 -0.29488 0.046574 0.3658 0.46897 -0.24847 -0.0060071 -0.68472 0.12665 -0.43331 0.36017 -0.40574 -0.26462 0.44254 0.42222 -0.025021 0.013498 -0.61974 -0.14387 -0.26868 0.23289 -0.028948 0.35731 -0.27515 -0.38733 -0.20534 0.37636 0.90848 -0.032566 -0.2296 -0.16383 -0.31697 -0.33083 -0.046169 0.14083 0.024152 0.31778 0.17239 -0.084284 -0.14692 0.15984 -0.05622 0.030775 -0.059687 0.18028 0.87588 0.10249 0.11366 -0.22035 -0.028082 0.15215 -0.76861 -0.09679 -0.18396 0.19421 0.030076 0.66145 -0.13927 0.35621 0.10031 0.50677 -0.066616 -0.15435 0.034764 -0.17561 -0.14626 -0.24126 0.1041 -0.40901 -0.30023 0.29202 -0.52206 0.028026 0.097425 -0.21715 -0.15113 0.25919 0.37647 0.059853 0.35723 0.044275 -0.78468 -0.18187 -0.064956 0.13691 0.06557 0.011958 -0.045933 -0.078777 0.21602 0.086499 0.020067 -0.27545 0.53989 -0.014173 -0.18217 0.44753 0.44819 -0.097074 -0.22275 0.11437 -0.084336 0.23063 -0.51819 -0.032798 0.24149 -0.18598 -0.39618 0.060873 -0.031111 0.16455 0.17016 0.052839 0.2357 0.093376 0.37823 0.55999 0.21042 0.30835 -0.051183 0.52461 0.57889 0.19356 0.042746 -0.10222 -0.13077 0.43921 0.39807 -0.34062 -0.24062 0.30878 -0.0017527 0.462 -0.14062 0.14565 -0.17819 0.40395 -0.16087 0.022292 -0.086564 0.49388 -0.19108 0.32238 -0.52923 -0.20795 -0.048723 0.1505 -0.25495 0.57214 -0.074069 -0.18153 -0.46475 0.32087 0.39898 -0.24405 0.53289 -0.35385 0.12529 -0.083324 -0.18011 -0.15081 0.17113 0.074197 -0.22399 -0.14074 -0.33218 -0.1222 0.48087 0.027173 -0.34666 0.22327 -0.11406 -0.0041188 -0.16797 0.12885 0.17661 -0.15948 -0.30937 -0.58732 0.009922 0.57829 -0.52756 0.26605 -0.086889 0.039708 -0.10583 0.39526 -0.24468 0.10205 -0.28614 0.57058 0.48948 0.11438 0.21537 -0.626 0.11227 0.19928 -0.32532 0.40657 0.37118 -0.20941 0.037856 0.57041 -0.2926 0.27427 0.010651 0.25461 -0.42115 0.096448 0.10608 0.41996 0.15877 -0.14647 0.27427 0.22533 0.39652 0.15633 0.1336 0.18761 -0.12376 -0.12147 -0.14626 -0.12275 0.013238 -0.046022 -0.31182 -0.17746 0.051067 -0.10731 0.21292 0.3541 -0.25077 0.25363 -0.24939 -0.3546 0.1127 0.34443 0.13034 -0.28731 0.061308 -0.18587 -0.38263 0.45814 -0.066782 -0.20584 0.38158 -0.34883 0.27911 -0.061694 0.006493 0.10425 -0.086116 -0.23265 0.40544 -0.040786 -0.18733 -0.30347 0.28471 -0.030719 -0.32838 0.065912 -0.27809 0.35844 -0.24877 0.050195 0.011597 -0.13555 0.34515 -0.82821 0.0080188 -0.33226 -0.39516 0.27048 0.045777 -0.24563 0.21086 0.51624 -0.25151 -0.39786 -0.43409 -0.57391 0.28475 -0.030063 
gepäckkontrolle 0.0091173 -0.14084 -0.20439 0.26625 0.15866 -0.6747 0.047814 0.13304 -0.12589 -0.0091245 0.67616 0.10331 -0.0016458 -0.17548 -0.49767 0.056304 -0.021352 0.11943 -0.2058 -0.21519 -0.13536 0.20786 -0.36174 -0.026027 -0.24176 -0.15183 -0.075719 0.48915 0.28182 0.063632 0.23154 0.099179 0.081026 -0.092832 -0.0855 0.29309 -0.24473 -0.36759 -0.47459 -0.16798 0.23608 -0.19003 0.24573 -0.11345 0.063295 -0.1476 -0.29362 0.050809 0.14675 -0.28892 0.16574 -0.1781 0.38869 -0.10271 0.18187 0.27203 -0.36717 -0.66836 -0.38915 -0.10948 -0.02891 -0.49806 -0.19331 0.079366 0.30186 0.34703 -0.53944 0.25472 -0.020511 -0.15333 0.32289 -0.23902 -0.19243 0.11373 0.27855 -0.2408 0.29354 0.10348 -0.23553 0.17245 -0.0012154 -0.061278 0.27319 0.10825 0.36703 -0.088209 0.24544 0.34626 0.11814 0.24246 -0.024583 0.18952 -0.0088989 0.09259 -0.15247 0.028859 -0.17367 0.39919 -0.0078569 -0.21587 -0.54831 0.077122 0.067088 -0.012701 0.19742 -0.031382 0.080225 0.037396 0.24046 0.42741 -0.23712 0.23367 0.22091 -0.044155 0.15662 -0.25621 -0.093904 0.21635 0.27946 -0.34183 0.15356 -0.27039 0.17213 0.0704 0.49768 0.02358 0.11472 0.47719 0.11721 0.28182 -0.10783 0.2859 -0.34471 0.4047 0.2148 0.51895 -0.026891 0.15516 0.24167 -0.28562 -0.38848 -0.017965 -0.50947 0.55441 -0.33291 -0.15447 -0.034406 -0.12068 -0.023019 0.077729 0.69255 -0.67604 -0.58699 0.045994 -0.42043 0.16085 -0.6215 0.28729 0.4035 -0.050486 -0.30428 0.17226 0.13128 -0.13807 0.14857 0.17046 -0.032744 0.24518 0.045466 -0.043782 0.1453 -0.095403 0.25881 -0.02117 -0.041306 -0.050368 -0.079971 -0.057021 -0.31434 0.23925 0.17866 0.073603 -0.20032 0.13782 -0.28544 0.019253 -0.015216 -0.16825 -0.45107 0.3983 0.21126 0.23163 0.05055 -0.019642 -0.29531 -0.45213 0.029083 0.35244 -0.089871 0.20809 0.038307 0.15105 0.17198 -0.29177 0.0236 0.10863 -0.15908 -0.30535 0.24309 0.099141 0.36798 0.1136 -0.29299 -0.066924 -0.66569 0.0405 -0.27517 -0.050855 0.19044 -0.02381 -0.095165 0.15727 -0.24451 0.0247 -0.19779 -0.028699 0.15041 -0.53763 0.063673 0.52959 0.30976 0.23966 -0.43475 -0.15317 -0.35046 -0.40049 -0.41551 -0.64223 -0.20628 0.39726 -0.23874 0.21441 -0.040977 -0.65429 -0.027259 0.11569 0.16264 0.091555 -0.18918 0.24877 -0.42841 0.034377 -0.20668 0.15861 -0.30252 0.05343 0.65128 -0.68038 -0.21827 0.063643 0.37719 -0.11768 -0.04564 0.041083 0.0257 0.1904 0.084741 -0.06715 0.26602 -0.0223 0.065109 0.05377 0.39701 -0.22946 -0.031795 -0.10531 -0.21396 0.3555 -0.2542 0.41722 -0.13781 0.24563 0.34831 -0.071306 0.40285 -0.3791 -0.18989 -0.34758 -0.4734 0.0081814 0.034044 0.15032 0.27782 0.22115 -0.029111 -0.17988 -0.50149 -0.29793 0.44141 0.44351 
affe -0.38458 0.17295 -0.083181 0.084448 0.13541 -0.35364 -0.029289 -0.21906 -0.059925 0.3025 -0.17448 -0.017187 -0.14887 0.047814 0.26232 0.1791 0.12854 0.0065342 -0.29488 0.046574 0.3658 0.46897 -0.24847 -0.0060071 -0.68472 0.12665 -0.43331 0.36017 -0.40574 -0.26462 0.44254 0.42222 -0.025021 0.013498 -0.61974 -0.14387 -0.26868 0.23289 -0.028948 0.35731 -0.27515 -0.38733 -0.20534 0.37636 0.90848 -0.032566 -0.2296 -0.16383 -0.31697 -0.33083 -0.046169 0.14083 0.024152 0.31778 0.17239 -0.084284 -0.14692 0.15984 -0.05622 0.030775 -0.059687 0.18028 0.87588 0.10249 0.11366 -0.22035 -0.028082 0.15215 -0.76861 -0.09679 -0.18396 0.19421 0.030076 0.66145 -0.13927 0.35621 0.10031 0.50677 -0.066616 -0.15435 0.034764 -0.17561 -0.14626 -0.24126 0.1041 -0.40901 -0.30023 0.29202 -0.52206 0.028026 0.097425 -0.21715 -0.15113 0.25919 0.37647 0.059853 0.35723 0.044275 -0.78468 -0.18187 -0.064956 0.13691 0.06557 0.011958 -0.045933 -0.078777 0.21602 0.086499 0.020067 -0.27545 0.53989 -0.014173 -0.18217 0.44753 0.44819 -0.097074 -0.22275 0.11437 -0.084336 0.23063 -0.51819 -0.032798 0.24149 -0.18598 -0.39618 0.060873 -0.031111 0.16455 0.17016 0.052839 0.2357 0.093376 0.37823 0.55999 0.21042 0.30835 -0.051183 0.52461 0.57889 0.19356 0.042746 -0.10222 -0.13077 0.43921 0.39807 -0.34062 -0.24062 0.30878 -0.0017527 0.462 -0.14062 0.14565 -0.17819 0.40395 -0.16087 0.022292 -0.086564 0.49388 -0.19108 0.32238 -0.52923 -0.20795 -0.048723 0.1505 -0.25495 0.57214 -0.074069 -0.18153 -0.46475 0.32087 0.39898 -0.24405 0.53289 -0.35385 0.12529 -0.083324 -0.18011 -0.15081 0.17113 0.074197 -0.22399 -0.14074 -0.33218 -0.1222 0.48087 0.027173 -0.34666 0.22327 -0.11406 -0.0041188 -0.16797 0.12885 0.17661 -0.15948 -0.30937 -0.58732 0.009922 0.57829 -0.52756 0.26605 -0.086889 0.039708 -0.10583 0.39526 -0.24468 0.10205 -0.28614 0.57058 0.48948 0.11438 0.21537 -0.626 0.11227 0.19928 -0.32532 0.40657 0.37118 -0.20941 0.037856 0.57041 -0.2926 0.27427 0.010651 0.25461 -0.42115 0.096448 0.10608 0.41996 0.15877 -0.14647 0.27427 0.22533 0.39652 0.15633 0.1336 0.18761 -0.12376 -0.12147 -0.14626 -0.12275 0.013238 -0.046022 -0.31182 -0.17746 0.051067 -0.10731 0.21292 0.3541 -0.25077 0.25363 -0.24939 -0.3546 0.1127 0.34443 0.13034 -0.28731 0.061308 -0.18587 -0.38263 0.45814 -0.066782 -0.20584 0.38158 -0.34883 0.27911 -0.061694 0.006493 0.10425 -0.086116 -0.23265 0.40544 -0.040786 -0.18733 -0.30347 0.28471 -0.030719 -0.32838 0.065912 -0.27809 0.35844 -0.24877 0.050195 0.011597 -0.13555 0.34515 -0.82821 0.0080188 -0.33226 -0.39516 0.27048 0.045777 -0.24563 0.21086 0.51624 -0.25151 -0.39786 -0.43409 -0.57391 0.28475 -0.030063 
makake -0.42298 0.54965 0.12648 0.21318 0.38521 0.041017 -0.33604 -0.014711 0.23066 0.17014 -0.14306 -0.12985 0.12735 -0.42481 -0.139 -0.086213 -0.1098 -0.10571 -0.58983 0.078805 0.023658 0.7804 -0.26381 -0.40599 -0.73154 -0.19949 0.14405 0.68701 -0.00012953 -0.42788 0.22906 0.14548 0.24776 -0.22289 0.081447 0.020574 0.078048 -0.34963 -0.49363 0.36704 -0.27243 -0.16775 -0.44187 0.52782 0.50705 -0.10111 0.025374 -0.17221 -0.47018 -0.47666 0.26618 0.45429 0.093681 0.65095 0.16041 -0.078448 -0.10164 0.33985 0.05106 -0.32457 0.079145 0.3915 1.1653 -0.15471 -0.35658 -0.094868 -0.39261 0.23784 -0.63839 -0.079992 -0.31735 -0.24737 -0.28879 0.41544 -0.07828 0.24307 0.65446 -0.17649 -0.40338 -0.34845 -0.18788 0.097653 -0.058795 -0.28781 0.36064 0.2132 -0.41579 0.28715 -0.062601 0.27172 -0.061859 0.36499 -0.19293 -0.23546 -0.15835 0.57896 -0.35418 0.012978 0.16769 0.067274 -0.64106 0.18407 -0.45489 0.19627 0.26773 0.28288 -0.30225 0.29586 0.39294 0.066391 0.61976 -0.40327 -0.24336 0.18594 0.42662 -0.50305 -0.042863 0.0053054 0.18463 0.01531 -0.32669 -0.12635 0.067219 -0.15824 0.066415 0.0088606 -0.042072 0.13514 -0.027583 0.26309 0.32445 0.3393 0.3195 0.29651 0.14567 0.23033 0.16036 0.49348 0.064154 0.001603 -0.33473 0.10254 -0.34384 1.0197 0.40196 -0.066896 0.011262 -0.13188 -0.39381 0.73174 -0.023968 -0.50924 0.011095 0.40799 -0.46066 -0.015241 0.23706 0.56749 0.10265 0.26374 -0.46895 0.20915 -0.072461 0.30064 -0.19921 0.35599 -0.28568 0.28324 -0.20474 0.26162 -0.11542 -0.34803 0.54858 -0.83462 -0.035398 -0.028516 0.22015 -0.29235 0.53805 0.013811 0.23996 -0.36398 -0.21784 0.16383 0.40288 0.33641 -0.64339 0.25275 -0.1076 -0.16703 -0.1413 -0.026067 0.01988 0.024053 -0.21361 -0.29901 0.027753 0.1905 -0.35605 0.12482 -0.14544 0.11357 0.085967 0.33709 -0.18408 0.13046 0.19552 0.091922 0.30628 0.072225 -0.25249 -0.48708 0.23553 -0.085656 -0.22193 -0.17109 0.32763 -0.36123 0.15696 0.19455 -0.37315 0.16171 -0.79903 0.41791 -0.17609 -0.0023127 -0.20754 -0.057169 0.32978 -0.42103 0.20141 -0.13052 0.11478 -0.18514 -0.18328 -0.29401 0.08316 -0.11355 0.12676 -0.24459 -0.10407 -0.45622 -0.44368 -0.078723 -0.20704 0.10121 0.10762 0.30296 -0.092365 0.10293 -0.16333 -0.26916 -0.10038 -0.10924 0.38147 -0.53641 0.27484 -0.44692 -0.73272 -0.13707 -0.017531 -0.30577 0.21073 0.40976 0.38224 -0.33631 0.11669 0.46103 -0.012011 0.0069846 -0.28938 -0.28723 0.54345 -0.094734 0.2885 -0.19182 -0.0074939 0.16119 -0.56765 0.078995 -0.14724 -0.18626 -0.12949 -0.21607 0.15262 -0.52113 0.28176 -0.15236 0.05306 -0.19789 0.0098245 -0.22965 0.38341 0.53355 -0.4575 -0.08548 -0.16916 -0.016707 -0.065694 0.43885 
afrika -0.85307 0.10448 0.12614 0.086715 -0.057903 0.27393 -0.37165 0.26155 -0.092079 -0.048736 0.17432 -0.3309 0.062587 -0.030156 -0.1136 -0.19656 0.061462 0.034741 -0.32921 -0.086878 0.075443 -0.0070262 -0.54476 0.043849 0.058099 -0.32174 0.37809 -0.19567 -0.5269 -0.48088 0.060546 0.31568 -0.41139 -0.02522 -0.16655 -0.65729 -0.0011012 -0.44935 0.14752 0.28417 0.5563 0.39914 0.11814 0.67708 -0.00014928 -0.26921 -0.01663 -0.56561 -0.28878 -0.50471 0.29694 -0.02712 0.045245 0.23036 0.5299 -0.37734 0.16942 0.44009 -0.021953 -0.31155 -0.097637 0.41755 0.62762 -0.13261 -0.43378 0.029609 0.17671 -0.090724 0.15135 -0.42315 -0.17546 0.29497 -0.011069 0.49024 -0.29675 -0.0098246 0.40593 0.5274 0.21672 0.4119 0.34408 0.13779 -0.047074 0.051341 0.026936 -0.44398 0.34168 -0.049073 -0.31371 0.25441 -0.39995 0.4446 0.069737 0.17113 0.064912 0.20153 -0.55654 -0.15559 0.16809 -0.19795 -0.071019 -0.22302 -0.39318 0.10231 0.2302 0.43517 0.24061 -0.27347 0.20847 -0.34985 0.016644 -0.45333 -0.19433 0.040224 -0.13711 0.12607 0.40601 0.30258 0.25995 -0.46927 -0.49207 -0.13972 0.26869 0.27125 0.0057994 0.052047 -0.13056 0.16212 0.12101 -0.35091 -0.085499 0.06496 -0.027786 0.24688 0.14074 0.20664 -0.35166 -0.2809 0.31466 -0.44462 -0.76315 0.18146 0.097022 0.78014 -0.039465 -0.0014472 0.5793 0.28581 0.11451 0.33171 0.40506 -0.10006 -0.33229 0.17863 -0.25751 0.14237 0.3507 0.21839 0.19141 0.63166 -0.13175 0.32529 -0.42511 0.35014 -0.15162 0.22482 0.014427 -0.18438 -0.21416 -0.15845 -0.31691 0.31121 0.14847 -0.32365 0.12884 -0.4821 -0.26827 -0.16015 0.55225 0.11376 -0.22497 -0.18257 -0.20415 0.43229 0.24792 -0.16978 -0.083494 -0.18166 0.21769 0.14388 0.0042491 -0.11094 0.51418 -0.13931 -0.51441 -0.053963 -0.27322 -0.10496 0.14299 -0.1686 -0.13748 0.20049 0.49284 0.27647 -0.19091 0.24189 -0.27476 0.098524 -0.26373 0.037461 0.070889 -0.33128 0.1594 -0.2654 -0.27993 0.030619 -0.030967 0.13482 0.062109 -0.048619 -0.10748 0.38889 0.035371 0.27852 0.24984 0.20952 0.087576 0.32566 0.091421 0.069258 0.023424 -0.15228 0.25594 -0.2098 0.47702 -0.23394 -0.26037 0.34856 0.085047 0.050186 -0.057807 0.074731 -0.4197 -0.035665 0.62737 0.028676 -0.35009 0.097102 -0.28197 0.12947 -0.24136 -0.060866 -0.37957 -0.18758 0.26072 -0.34539 -0.070246 -0.091815 -0.64601 0.27494 -0.16937 -0.26749 0.23101 -0.45393 -0.076162 -0.56448 0.044019 0.1139 0.23704 -0.060449 -0.42485 -0.32876 -0.19572 -0.13369 0.42391 0.2259 0.33943 0.45622 -0.049494 0.15046 0.19326 0.43927 0.42516 0.22344 0.011343 -0.83055 0.35031 -0.046957 -0.37347 0.50257 -0.11121 0.37241 0.015235 0.23899 -0.24896 0.091066 -0.27798 -0.33989 -0.46121 0.033623 
historisch -0.27219 0.29173 -0.33671 -0.26612 -0.11266 -0.094405 -0.13077 0.023473 0.10899 0.3284 0.056261 -0.31368 -0.066612 -0.27584 0.013959 0.29377 -0.13639 -0.30596 -0.057023 0.27484 0.053339 0.32254 0.31 -0.22926 -0.26752 -0.37589 -0.17397 0.33154 -0.18678 -0.49393 0.50346 0.084668 -0.051164 0.5086 -0.19981 0.086738 0.1422 -0.12117 0.18289 -0.20293 -0.1062 -0.39207 -0.066103 0.27835 0.0033218 -0.068897 0.0007772 -0.077349 0.27624 0.2015 -0.079262 -0.010268 -0.09402 -0.088551 -0.053335 0.32879 -0.0031172 -0.12231 0.098953 -0.34613 -0.070497 -0.15401 0.35986 -0.057297 -0.29694 -0.17722 0.0081897 0.31622 -0.2216 -0.095069 -0.051348 0.25734 0.34151 0.1598 -0.48915 0.31938 0.10036 0.52259 0.14796 -0.24477 0.059387 0.054299 0.33836 0.038976 0.32679 -0.44605 0.20223 0.22056 -0.087788 0.085207 -0.091954 -0.077379 -0.31576 0.32614 -0.1281 0.037882 0.38486 0.19463 -0.028915 -0.082612 -0.23789 0.23739 0.023831 -0.4824 0.40217 0.50121 -0.35616 0.22503 0.089606 -0.23736 -0.39436 0.30456 0.052981 -0.053194 -0.41227 0.32682 -0.017738 -0.015835 -0.56479 0.16602 -0.0057182 -0.2241 -0.0084884 0.24813 -0.17216 0.18545 -0.13586 -0.12857 -0.10265 -0.0039855 0.21594 -0.29748 0.089235 0.12945 0.35193 -0.15668 -0.34009 -0.18779 0.068013 0.17006 -0.3871 0.11719 -0.33099 0.66162 0.1999 -0.020119 -0.27147 0.064515 -0.20604 0.19315 0.1279 -0.43738 -0.097812 0.10159 -0.1139 -0.17499 -0.17058 -0.39178 0.12561 0.17698 0.044114 0.12747 0.024146 0.41674 -0.01467 -0.34048 -0.13387 0.24647 -0.1759 0.1925 -0.59316 -0.42146 0.024988 0.31144 0.12059 0.10643 -0.15676 -0.2917 -0.0022617 -0.10014 -0.34477 -0.12675 0.54872 -0.19498 -0.169 0.31667 0.12968 -0.20976 0.089721 0.25572 -0.0071786 -0.083765 0.30374 0.26057 0.16712 0.10404 -0.12755 -0.16547 -0.26367 -0.049789 -0.28271 -0.22421 0.3575 -0.23089 0.099571 0.23439 0.085398 0.25675 -0.17531 -0.42486 0.24106 -0.12397 0.30227 0.17932 -0.29819 -0.092387 0.15091 -0.26919 0.074164 0.10706 0.36788 0.072167 -0.079665 0.40341 0.099863 0.017892 -0.0198 -0.10449 0.0026221 -0.17042 0.04119 0.28383 0.24705 -0.12877 -0.023114 -0.20998 0.021896 -0.53228 0.2045 -0.22359 0.032843 0.22773 -0.069426 -0.17937 0.024736 -0.02086 -0.037746 -0.1397 0.2507 0.31332 -0.032377 -0.014825 0.23717 0.23967 -0.13831 -0.23186 0.21828 -0.24371 0.088623 0.4326 -0.18865 -0.08131 0.033201 0.037301 0.077387 -0.42011 0.22365 -0.083436 -0.050002 0.19093 0.052923 0.81105 0.41175 0.09488 0.19137 -0.18585 0.16322 -0.10239 0.095585 -0.071289 0.11315 -0.28904 0.079448 -0.22442 0.19602 0.14867 0.079222 0.066224 0.18539 0.2941 -0.27712 0.68216 -0.56975 -0.063041 -0.13241 0.055655 0.02202 -0.085149 -0.37626 0.1605 
agentur -0.22825 0.13119 0.18571 -0.24186 0.28281 0.14963 -0.094028 -0.22971 0.45968 0.17593 0.16199 0.41482 0.00021901 -0.34692 -0.13367 -0.25745 0.21083 -0.15329 0.1656 0.058632 -0.2039 0.07336 -0.46702 -0.15084 -0.20162 -0.22795 -0.11777 0.11314 -0.072733 -0.17642 0.2869 0.39088 0.1556 -0.074618 0.17069 -0.46245 0.17496 -0.31348 -0.22103 0.34971 0.23913 -0.032706 0.46978 -0.58729 0.39381 -0.35275 0.07643 -0.056784 0.19389 -0.61375 -0.0033867 -0.15576 0.14615 -0.30633 -0.15584 -0.13659 -0.1881 -0.41483 0.0064119 -0.040288 -0.22487 -0.1293 -0.30797 -0.10592 -0.18126 -0.27057 0.27968 -0.14597 0.59826 0.17108 -0.43007 -0.50834 0.072128 0.18289 -0.45852 -0.24944 -0.36806 0.41697 -0.22588 0.17906 0.22101 -0.018751 -0.32744 0.44291 -0.43837 -0.0082961 -0.096252 0.14522 0.12153 -0.30549 0.27123 -0.16576 -0.12498 -0.12827 0.05428 -0.32109 -0.48344 0.015183 -0.23761 0.10113 -0.083813 -0.022364 -0.079692 -0.10437 0.11483 0.17326 0.36942 0.32372 -0.43598 0.44694 -0.43956 0.189 0.49579 -0.0046592 0.45521 -0.086262 0.18941 -0.16621 -0.11218 -0.38019 0.031395 0.015079 0.3501 -0.34515 0.12844 0.05542 0.52047 0.72903 -0.21612 -0.39007 0.090511 0.118 0.1049 0.25922 -0.05542 0.38569 0.31579 0.64677 -0.33566 -0.30096 -0.38118 0.11119 -0.10287 0.33246 -0.26305 0.21106 -0.016702 -0.19923 0.4473 -0.045269 0.20999 -0.1373 -0.28015 0.053992 -0.29401 -0.18883 -0.16755 0.37657 0.387 0.19018 -0.29097 0.35505 -0.357 0.13226 -0.40239 0.23236 0.51764 0.040364 -0.090001 0.13439 -0.29395 -0.020798 0.63793 0.014662 -0.35993 0.1147 -0.036482 -0.49005 0.25134 0.57961 -0.74935 0.58305 0.15217 -0.048729 -0.23388 -0.28446 -0.043308 0.23871 -0.25843 0.048211 0.39405 -0.60907 -0.058236 -0.085663 -0.068529 -0.4087 -0.021167 0.28912 0.041997 -0.094304 0.34209 -0.20555 0.035418 -0.015665 0.2256 0.10365 -0.18151 -0.42744 -0.0077097 -0.1738 0.39075 0.16824 0.095457 -0.21296 -0.60152 -0.45776 -0.13156 -0.13782 -0.29055 -0.10355 0.43913 -0.31745 0.13219 0.1469 -0.50875 0.11897 0.57391 0.072929 0.12847 0.41106 0.087985 -0.33427 -0.40187 -0.13013 -0.19981 -0.21964 -0.3225 -0.0020645 -0.18031 -0.22121 0.0057484 0.049324 -0.0027107 0.12683 0.37472 -0.34683 0.58496 0.08841 -0.1161 0.29859 -0.58689 0.14595 -0.22825 -0.45877 0.31471 -0.60934 0.18259 -0.67871 -0.37831 -0.012697 -0.13904 0.16783 0.46218 0.1408 0.23832 0.24569 -0.031976 0.18544 0.21954 0.38173 0.075018 0.020223 -0.087754 -0.40076 0.0069768 -0.46633 -0.1209 -0.25066 -0.56172 0.63307 -0.24371 0.012016 -0.060898 -0.034219 0.22913 -0.16177 0.090262 -0.28318 -0.25789 0.053009 0.069708 -0.56134 0.38251 0.033085 0.10685 0.1297 -0.13442 -0.20065 -0.47658 0.24573 
irrtum -0.1999 0.46928 -0.18597 -0.19711 0.19067 0.21527 -0.33993 0.14071 -0.15482 0.30389 -0.14791 0.18536 0.31586 0.23403 -0.14214 0.062841 -0.1092 0.26146 -0.02806 0.15404 0.68646 0.34235 -0.025183 0.0037083 -0.0030184 -0.052357 -0.18887 0.56502 -0.30503 0.081656 -0.17052 0.12237 -0.18157 0.01967 -0.39349 -0.28404 -0.1963 -0.21435 -0.26862 0.073691 0.088197 -0.072753 0.11768 0.010399 0.32815 0.06566 -0.12072 -0.58026 0.29154 -0.44577 -0.14668 -0.042381 0.25494 -0.033305 0.004607 -0.070182 0.084605 0.41415 0.21118 0.14204 -0.13635 0.09375 0.10858 -0.49832 -0.33797 -0.049307 0.0098244 0.42761 0.05288 -0.012936 -0.036559 -0.053925 -0.060087 0.11551 0.19457 -0.1428 0.23507 0.18775 -0.020114 -0.11307 -0.18635 -0.12699 -0.024521 0.16606 -0.15782 -0.37389 0.23697 -0.012259 0.13819 -0.22897 0.10797 -0.10644 0.30353 0.0030038 -0.31951 -0.36639 0.1955 0.47312 -0.22168 0.11265 0.19949 0.3397 0.21837 -0.015403 -0.35763 0.17126 0.45874 -0.37778 -0.16621 0.17715 0.018675 0.1554 0.038934 0.021561 0.16071 -0.0013432 -0.3542 -0.03273 -0.49984 0.10158 -0.35065 -0.076604 -0.22388 0.29308 0.061943 0.017167 0.37299 0.66431 0.1533 0.39104 0.49931 -0.085516 -0.081232 0.29261 -0.0082538 0.55226 0.13285 0.17632 0.21118 0.45809 -0.33102 0.13853 -0.15991 0.86762 -0.00048105 -0.17216 -0.26566 0.010304 -0.18108 0.32284 0.52079 -0.060307 -0.37808 0.42201 -0.080506 0.23281 -0.25225 -0.21702 -0.1267 0.19099 -0.12918 -0.14458 0.089641 0.098372 -0.26309 0.13739 -0.2834 -0.15128 -0.012168 0.31031 0.39554 0.0043845 0.029545 -0.23653 0.20097 -0.26151 -0.064025 -0.33107 -0.42477 -0.095171 -0.18955 -0.26715 0.06175 0.18143 -0.11281 0.32658 0.075452 -0.080997 -0.012755 -0.080249 0.1799 -0.082343 -0.14675 0.13026 -0.013215 -0.50418 0.040312 0.11305 -0.43018 -0.17663 -0.12303 -0.15905 0.19609 -0.085544 0.041649 0.29287 -0.077291 -0.50063 -0.11429 0.19538 0.39541 0.02953 0.17513 -0.054697 -0.42301 0.037318 0.053141 -0.21552 -0.19834 0.23558 -0.05718 -0.090112 -0.13749 0.17243 -0.20161 0.015843 0.0086296 -0.16526 -0.044397 0.19908 0.048066 0.3925 -0.12039 0.075617 0.43374 -0.12247 -0.30398 -0.044281 0.081961 0.15983 -0.09004 0.01235 0.1406 -0.029804 0.21796 -0.40002 -0.23257 0.22272 -0.074201 0.21348 -0.28383 0.13499 -0.099961 -0.0099448 -0.017078 -0.13255 -0.01317 -0.28255 0.1586 0.024595 0.34944 -0.51256 0.039677 -0.67913 0.23729 0.071651 0.27582 0.14769 -0.34361 -0.15082 -0.30207 0.0835 0.42063 0.38547 0.27421 0.49508 0.2094 0.22986 -0.40454 0.074087 -0.12889 -0.011513 -0.00043663 -0.087558 0.4437 -0.43615 0.065261 0.23679 -0.051581 0.058428 0.1856 0.39947 0.10073 -0.34596 -0.075045 -0.47928 -0.02317 0.34007 0.011224 0.082475 
airbag -0.40986 -0.35805 -0.40766 0.18655 0.59328 -0.14943 0.15019 0.049291 -0.3836 0.13834 -0.022367 0.26042 0.64796 0.23057 -0.46755 0.40561 -0.025731 -0.11766 -0.12861 -0.09979 -0.23493 0.33996 -0.15642 -0.08253 -0.070322 0.1458 -0.35378 0.41208 0.32944 -0.19389 0.27695 0.58179 0.3222 -0.014017 0.17021 0.13194 -0.0079271 -0.24016 -0.23467 0.089598 0.31401 0.033186 -0.29688 -0.17335 0.31495 -0.65886 0.34312 0.017656 0.47855 -0.31786 -0.037994 0.12731 -0.081211 0.039913 0.043856 0.30327 0.075772 -0.32133 -0.11291 0.43146 -0.3029 -0.14595 0.11005 0.11753 0.168 -0.1799 0.24245 0.17155 -0.82447 0.058821 0.21305 -0.3016 0.39944 0.61201 0.029642 -0.38749 0.045074 -0.092477 -0.55631 -0.0046935 -0.11014 -0.36769 0.74539 0.15343 0.53136 -0.0036692 -0.059656 0.37426 0.30382 -0.028199 -0.20649 0.20261 0.338 0.063308 -0.030356 0.38262 0.16492 -0.17984 0.67651 0.078291 -0.43141 0.10801 -0.077649 -0.027382 -0.019632 0.18782 -0.42804 -0.5779 0.33812 0.57014 -0.10293 -0.30209 0.041545 -0.49943 0.22658 0.081645 -0.78388 0.48607 0.55875 0.25201 -0.37543 0.25296 -0.012086 -0.18612 -0.075581 -0.30184 -0.1542 0.089357 0.38618 0.035572 -0.26986 0.088564 -0.058085 0.23983 0.03566 0.89574 0.11739 0.49979 -0.056942 0.42558 -0.061602 0.093081 -0.33191 0.41117 0.33501 -0.20764 0.11467 -0.1756 -0.27841 0.19309 0.25005 -0.072671 -0.4103 0.49582 -0.48462 0.13673 -0.45083 0.19114 0.083073 0.045404 0.05178 0.30482 -0.087564 -0.22416 -0.18403 -0.033398 -0.18054 -0.13008 0.2153 -0.10966 0.37226 -0.51183 0.65328 -0.56271 0.14411 0.098592 0.38204 0.5029 0.19899 -0.63293 0.1324 -0.27658 -0.92447 0.060607 -0.45837 0.47801 0.17081 0.242 -0.3053 0.71056 0.37291 -0.26404 0.37919 0.47708 -0.19588 -0.41147 0.16251 0.37415 -0.33072 0.85456 -0.31103 0.22945 0.47703 -0.44509 -0.6052 0.18245 -0.19669 -0.17765 0.13797 0.58657 1.1652 0.026259 0.17571 -0.63226 -0.61086 0.34064 -0.014565 0.18492 0.13974 0.18024 0.49472 -0.23034 -0.48293 -0.14662 0.0082936 0.35596 -0.17534 -0.48871 0.14376 0.44244 0.53412 0.025126 -0.28134 -0.37087 0.30403 -0.10138 -0.13996 -0.77107 0.059627 -0.1925 -0.11414 0.19319 -0.28077 -0.17015 -0.10641 0.38719 -0.19604 -0.018575 0.24918 0.098127 0.12148 0.37743 -0.30181 0.10811 -0.49824 -0.20585 0.57589 -0.51108 -0.22154 0.14562 0.41332 0.052948 0.14115 0.14641 0.56997 0.5355 0.034311 0.20339 0.3674 0.063385 0.29313 -0.17933 0.4826 -0.57284 0.73143 -0.1457 0.01757 0.2276 -0.7209 0.7232 -0.4656 0.40833 0.77455 -0.35132 0.4792 0.5816 -0.27329 -0.42024 -0.24847 -0.0046815 -0.077051 -0.084025 0.25431 0.046933 0.20423 -0.1659 -0.90587 -0.091682 -0.081375 0.71325 
kopfairbag -0.19789 -0.11831 -0.12809 0.57175 0.47705 0.016989 -0.072618 0.19639 -0.044581 0.014494 0.036252 -0.2673 0.29762 0.1849 -0.19919 0.2152 -0.18996 -0.10097 -0.22984 0.18147 -0.45254 0.18939 -0.26091 0.20799 -0.14106 0.16351 -0.27034 0.1993 0.17854 -0.16534 0.25346 0.31567 -0.06726 -0.042229 -0.10145 -0.15472 0.01203 -0.47688 -0.7041 0.31407 0.36031 0.12413 -0.064272 0.059814 0.38083 -0.42371 0.0073845 -0.24685 0.20662 -0.11916 0.071663 0.11074 -0.14909 0.22106 0.051873 0.37304 0.14253 0.15849 -0.047727 0.096915 -0.22878 0.088756 0.38617 0.2111 0.48347 0.091505 0.058688 0.22707 -0.56919 0.085766 0.39866 -0.3393 0.15111 0.25661 0.24708 -0.20709 0.41278 0.078956 -0.42148 0.1051 0.0084629 -0.29721 0.58769 0.10038 0.50339 0.23342 -0.094194 0.30858 0.1399 -0.14589 -0.14269 0.15338 0.039945 0.14493 0.30776 0.6531 0.21134 -0.12528 0.35547 0.022995 -0.38651 -0.15377 -0.26655 0.011696 -0.058518 0.11226 -0.40347 -0.41429 0.41473 0.35991 -0.17961 -0.32102 -0.024533 -0.21787 0.21468 -0.19525 0.035045 0.45263 0.30298 0.47459 -0.71979 0.4088 0.011522 -0.28383 -0.14893 -0.19663 -0.011269 0.17598 0.35061 0.14031 0.13439 0.014571 0.068324 0.42624 0.40246 0.65468 0.12327 0.4893 -0.010252 0.30946 -0.27715 0.20198 -0.39015 0.40442 0.38044 -0.087212 0.21456 0.12743 -0.03878 0.058887 0.02101 -0.2278 -0.46682 0.64044 -0.29095 0.16158 -0.53426 0.35841 0.36632 0.13748 -0.0088031 0.50438 -0.24208 -0.20477 -0.4989 0.26131 -0.21808 -0.25577 -0.11974 0.062967 0.3887 -0.12071 0.34786 -0.31617 -0.053468 0.1244 -0.01496 0.47069 0.51356 -0.24419 0.29076 -0.10236 -0.38574 -0.32969 -0.13657 0.32436 -0.21587 0.15277 -0.24256 0.24055 0.39796 0.019666 0.18649 0.3554 -0.39366 -0.5571 -0.12296 0.38189 -0.093044 0.46915 -0.044538 0.25588 0.31778 -0.22795 -0.529 0.11443 -0.15503 -0.49804 0.29271 0.52918 0.80752 -0.35723 0.1467 -0.75291 -0.54536 0.080325 -0.14966 -0.11093 0.47783 0.3583 0.35796 0.16627 -0.53428 -0.012433 -0.21095 0.33885 0.19821 -0.17987 -0.010221 0.26342 0.62937 0.15619 -0.21698 -0.22301 0.23893 -0.014229 0.080872 -0.65252 0.32242 -0.16762 -0.45711 0.11617 -0.14327 -0.30449 0.22763 0.32229 -0.31356 0.29063 0.03003 -0.0050796 -0.067124 0.07006 -0.31273 0.0013714 -0.45558 -0.24123 0.72408 -0.50079 -0.50006 0.044266 0.38209 -0.13668 0.02082 0.40559 0.19976 0.27736 -0.10029 0.36761 0.4232 -0.2045 0.08682 0.14009 0.54532 -0.29054 0.29264 -0.11632 -0.3395 0.057133 -0.8137 0.1605 -0.2293 0.26064 0.59795 -0.33099 0.17363 -0.025453 0.03576 -0.7778 -0.32483 0.26679 -0.24533 0.0028022 0.24675 0.074951 -0.028161 -0.34239 -0.80044 0.092005 0.34802 0.74232 
analysieren -0.21969 0.012408 -0.22258 -0.19331 -0.074695 -0.55398 -0.43745 0.13518 0.095844 0.18749 -0.058275 -0.28928 0.20332 -0.4615 -0.34155 0.049398 -0.17812 0.26149 0.32375 0.28709 0.080847 0.13598 -0.021004 0.19972 -0.47713 -0.44878 -0.17249 0.27282 -0.092177 -0.26561 0.41318 0.27726 -0.11753 -0.074302 0.21722 0.21367 -0.10461 0.0062808 -0.14725 -0.21807 -0.11317 -0.057654 0.0017898 0.066346 0.10417 0.0081398 0.21802 -0.39304 -0.21183 -0.48386 -0.14266 -0.16049 -0.33347 0.3156 0.037463 0.0017994 0.45478 0.17444 -0.13982 0.046861 0.2921 -0.023873 0.52676 0.14734 0.1033 -0.2198 0.084261 0.17733 0.23058 0.0087449 0.16427 0.052464 -0.21971 0.14563 -0.049102 0.27636 0.37845 0.64709 0.083333 -0.40467 -0.46947 -0.086791 0.31265 -0.337 0.21695 -0.19619 0.29182 0.070953 -0.16935 -0.15284 0.090108 0.046189 -0.18278 -0.054391 -0.12122 -0.19251 0.069866 0.43641 0.048742 -0.16488 -0.20401 -0.031422 0.001539 0.12271 -0.10768 -0.13707 -0.51825 0.062331 0.27347 -0.35478 -0.1398 0.035173 0.036208 -0.37309 0.21079 -0.40297 -0.25256 0.17831 -0.25192 0.10767 -0.27727 -0.11039 -0.19828 0.27686 0.11717 0.22943 -0.012094 0.082883 -0.029658 -0.14101 0.073816 -0.076755 -0.36732 0.22085 0.02466 0.16098 0.40594 0.088077 0.38676 -0.48258 -0.366 -0.087186 -0.25207 0.58563 -0.17556 0.23664 0.444 -0.064838 0.0062324 0.093826 0.2278 -0.11346 -0.29429 0.36799 -0.30169 0.027536 -0.061205 0.31609 0.54626 0.040928 0.29962 0.0596 0.14774 -0.0093249 -0.051952 0.34455 -0.10904 -0.13554 -0.14818 0.2111 -0.29461 0.22016 -0.14726 0.023133 0.088772 -0.28122 0.12558 -0.39452 -0.37375 0.010779 -0.017873 0.0071673 -0.34775 0.21311 -0.32015 -0.019013 -0.097973 -0.63148 -0.29727 -0.013726 0.27146 0.074179 -0.060508 0.17746 -0.045236 -0.022422 -0.16583 0.037913 -0.2246 0.041966 -0.019422 -0.24026 -0.078152 -0.42441 -0.020922 0.28646 -0.20599 -0.36979 0.18214 0.018852 0.27174 0.37136 0.06866 -0.22496 -0.46748 -0.012363 0.050702 -0.034166 -0.011187 -0.014529 0.13057 0.41989 0.674 0.11391 -0.13943 0.32721 -0.39422 0.21002 0.19156 0.19263 -0.35675 0.50002 -0.62839 -0.16702 -0.15788 -0.30695 -0.43523 -0.25641 -0.2401 -0.4076 0.067688 0.056859 -0.064968 0.18315 -0.057581 -0.159 0.21551 -0.079248 -0.21249 -0.025798 -0.15529 -0.12582 -0.35313 0.034064 0.076994 -0.046656 0.24896 -0.51953 0.10894 0.075254 -0.20429 -0.22594 0.17704 0.15053 0.1861 -0.15653 -0.29837 -0.082737 -0.24905 0.18723 0.1239 -0.14333 0.49905 -0.22238 -0.050307 -0.27531 0.46102 -0.062165 0.19281 0.46196 -0.13422 -0.076689 -0.23968 -0.33935 -0.04847 0.010645 -0.04253 0.23106 -0.29634 -0.1693 0.23197 0.22209 0.12195 0.18158 -0.04666 -0.1405 -0.10457 0.0024007 -0.33643 0.31763 
analyse -0.26925 0.20048 -0.10603 0.19926 0.38973 -0.10405 -0.16988 0.35123 -0.24991 -0.075612 0.10602 0.0013379 -0.073825 -0.20347 -0.078422 0.3141 -0.21753 -0.066962 0.26613 0.20331 0.077801 0.25259 -0.03081 0.29807 -0.44398 -0.4056 -0.17532 0.25938 0.047341 -0.17283 0.45041 0.26526 -0.12153 0.2299 0.19043 0.062996 -0.32595 0.12871 -0.23573 0.0081258 -0.12096 -0.053713 0.09509 0.065653 0.2151 -0.13832 0.061729 -0.42744 0.17854 -0.72863 -0.10014 -0.20532 0.10853 -0.082291 -0.14065 0.14156 0.16468 -0.031695 -0.20864 -0.1877 -0.043475 0.048114 0.21093 0.36414 0.17367 -0.054701 0.25875 0.37276 -0.006325 -0.10841 0.28042 0.027314 -0.062987 0.19331 -0.099425 0.090112 0.059806 0.60579 0.24713 -0.10075 -0.21681 -0.083153 0.061567 -0.25442 -0.044872 -0.31884 0.27165 0.047721 0.17293 -0.12198 -0.16946 -0.063683 -0.21098 -0.38992 -0.040792 -0.0079072 0.064671 0.60174 0.029164 0.039439 -0.080967 0.14358 0.027226 0.37252 0.056695 0.18264 -0.51457 -0.13796 -0.1582 -0.52771 -0.23652 0.047524 -0.085819 -0.33476 0.36076 -0.47082 0.0070438 0.32261 -0.48561 -0.34058 0.0038226 0.11884 0.15727 0.53472 0.13327 0.18279 -0.0084992 0.25925 -0.2388 -0.48152 0.070501 -0.094967 -0.12165 0.5249 -0.025365 -0.036015 0.29679 0.54031 0.071691 -0.46347 -0.46873 -0.16145 -0.014709 0.68236 -0.17162 0.35072 0.16795 0.064131 -0.027109 -0.17825 0.20726 -0.1857 -0.35959 0.32589 -0.22942 -0.19372 -0.10906 0.16762 0.33315 0.15658 0.30223 -0.022851 0.039805 0.24669 -0.12164 0.46263 -0.028092 -0.13519 -0.19789 0.41455 -0.20898 0.29452 0.16117 0.029236 0.018668 -0.077286 0.13866 -0.24415 -0.26577 0.05099 -0.045881 0.2774 -0.40269 0.31048 -0.32878 -0.20021 -0.27264 -0.49671 -0.45111 -0.28937 0.017183 0.21722 0.19686 0.15223 0.056482 0.028246 0.092707 -0.072386 -0.11653 -0.033059 0.020625 -0.12581 -0.21815 -0.37961 0.17736 0.3981 -0.17834 -0.04232 0.29449 -0.43608 0.15762 0.40636 -0.010569 -0.2112 -0.72893 0.21345 0.17172 -0.046011 -0.17187 -0.038418 -0.043076 0.19688 0.09412 0.0051186 -0.16098 0.49275 -0.013874 -0.029484 -0.01345 -0.031873 -0.2263 0.70068 -0.53649 -0.035637 -0.01377 -0.37835 -0.2128 -0.14376 -0.099891 -0.070307 -0.18602 0.32155 -0.1353 -0.28876 -0.18262 -0.30953 -0.025045 0.21178 -0.33477 -0.23064 -0.27691 -0.076043 -0.33442 0.31734 0.28543 -0.16968 0.13758 0.027657 0.047048 0.09902 -0.37703 -0.33215 -0.069943 -0.13676 0.26444 -0.32117 -0.19112 0.010763 -0.020637 0.31536 0.10471 0.2148 0.76164 -0.23566 0.20798 -0.34145 0.39231 -0.35464 0.093178 0.14505 -0.16895 0.20006 -0.15633 -0.43558 -0.10476 -0.0014956 0.34535 0.31578 -0.28902 -0.17466 0.043786 0.4561 0.231 -0.028776 -0.12815 0.098433 -0.30165 0.20065 -0.22004 0.27213 
ansehen 0.10744 0.19506 -0.49513 -0.75181 -0.067665 -0.022791 -0.25471 0.068388 0.054307 0.49177 -0.12569 0.11076 0.36805 -0.30949 -0.17178 0.0047457 -0.28903 0.22029 -0.27075 0.028674 0.25727 0.15451 0.062597 0.1754 -0.17046 -0.10521 -0.0089438 -0.0037145 -0.235 -0.11877 0.3932 -0.16716 0.077248 -0.086676 -0.020746 0.014939 -0.08582 -0.44014 0.11319 0.0076336 -0.17148 -0.43848 -0.10503 0.27037 0.062906 0.15681 -0.16737 -0.28552 0.0021497 -0.31574 -0.018872 -0.087005 -0.34585 0.32807 -0.0076889 -0.31886 0.096598 0.29832 -0.057396 0.28549 0.01228 -0.096565 0.033055 -0.22199 0.12374 0.096713 0.076619 -0.070151 -0.17391 0.19028 -0.14954 -0.14897 -0.28207 0.31845 -0.17966 0.051966 0.28474 -0.12304 -0.30606 -0.18578 -0.33011 -0.04377 0.27131 -0.10089 0.14432 -0.16911 0.46579 -0.049094 -0.087596 -0.24536 0.039116 0.10072 0.054265 0.30186 0.068986 -0.11193 0.13343 0.14656 -0.23893 0.075663 -0.19837 0.49003 -0.33716 -0.17482 -0.38821 0.32203 0.093943 0.12924 0.17135 0.034808 0.096962 -0.084853 -0.11588 0.21509 -0.12699 0.091379 -0.061027 0.2034 -0.33463 -0.016392 -0.11488 0.13775 0.023006 0.43559 0.10433 0.17706 0.013638 0.17199 0.03186 -0.093838 0.2862 -0.0033248 0.31406 0.11884 0.3553 0.37909 0.032039 -0.3541 -0.13918 0.11943 -0.40182 0.15219 -0.10291 0.30151 0.14395 0.10899 0.076404 -0.096392 0.16215 0.053538 0.14839 -0.31469 -0.13758 0.070892 0.00088573 0.042009 -0.18251 0.28844 -0.22594 -0.075185 -0.11899 0.057615 -0.20419 0.096189 -0.067399 0.024752 -0.13747 0.39506 0.13273 0.038146 -0.23553 0.081866 -0.15624 -0.036584 0.20988 -0.33279 0.17877 -0.20412 0.044453 -0.22065 -0.26747 0.13193 0.10707 -0.16685 -0.049308 0.096168 -0.1122 -0.54998 -0.093687 -0.11266 0.29916 -0.17612 -0.19966 0.33743 0.0061338 0.090255 -0.11509 0.1103 -0.23177 0.18104 -0.32989 -0.027312 0.21253 0.12939 -0.08721 0.036661 -0.057144 -0.071688 -0.16047 -0.01763 0.5676 -0.20208 0.10589 0.099929 -0.37997 0.12078 -0.24629 0.022973 -0.26719 0.12522 0.38294 0.11547 0.11566 0.090323 0.13352 0.15581 -0.03353 0.18231 0.08016 0.24476 -0.099622 0.086877 -0.29097 -0.018766 -0.0098187 -0.10967 -0.38089 -0.2473 -0.10464 -0.31171 -0.10058 -0.13977 0.023643 0.16906 -0.18373 -0.14149 0.2385 0.041713 -0.22292 0.027646 -0.12877 0.14722 -0.010111 0.019039 0.094042 -0.026657 0.13048 -0.33668 -0.18224 0.048291 0.019813 0.098139 0.1636 -0.38516 -0.2868 0.32107 -0.15936 0.0088326 -0.30591 -0.029478 0.13471 0.31583 -0.11942 -0.10007 0.048338 -0.097145 -0.04055 -0.026287 -0.039867 0.064721 0.113 -0.048101 0.24067 0.051345 -0.38439 0.19585 -0.031789 -0.026566 0.018397 0.04759 -0.096699 -0.18544 0.34314 0.13137 -0.12525 -0.44759 -0.12426 0.48466 0.45009 -0.022816 
schaden -0.061785 0.082939 -0.36636 -0.59014 0.18409 -0.10733 -0.28905 0.18038 -0.069049 0.26872 -0.114 0.43111 0.31452 -0.27272 0.28083 -0.51544 0.073384 0.11709 -0.00049324 0.072918 -0.0075745 0.076593 0.086457 0.10308 -0.0084313 -0.30867 0.050502 0.24519 -0.056887 -0.25507 0.2331 -0.13943 0.30888 -0.0047187 0.2697 0.13343 -0.17443 -0.19286 -0.019001 -0.13254 -0.11155 -0.32283 -0.023537 0.21889 0.095952 -0.042201 0.0031667 -0.018311 -0.029695 -0.36698 -0.025007 -0.059745 -0.18438 0.0020215 -0.078264 -0.10084 0.22982 0.03469 0.30112 -0.018399 -0.25672 0.14684 0.47954 -0.15664 -0.23975 -0.10192 0.16387 -0.06646 -0.2479 0.39546 0.12729 0.13426 0.024773 0.13888 -0.23288 -0.2157 0.3358 -0.18102 0.090714 0.062774 -0.056344 0.10416 -0.044172 0.66082 0.36942 -0.19295 0.34654 0.060549 0.05663 0.067669 0.31196 0.16337 0.19662 0.12727 0.074157 -0.31999 0.4715 0.29758 -0.37483 0.41139 -0.1279 0.60896 0.48432 -0.327 -0.15243 -0.1123 -0.040806 0.21683 -0.15193 0.078699 0.19956 -0.15662 -0.31691 -0.0072249 -0.34977 -0.09576 -0.70865 -0.38243 -0.4656 0.15049 -0.0058175 0.33487 0.09046 0.064103 0.043501 0.25323 0.047928 0.23555 0.097355 0.047279 0.15539 -0.10885 -0.028349 0.15906 -0.056611 0.52806 0.10803 0.33068 0.20679 0.63754 -0.13537 0.22347 0.043197 0.40641 -0.14202 0.058192 -0.12669 0.030499 -0.23276 0.40417 0.44385 0.087983 -0.21235 0.41155 -0.54301 0.42581 -0.23605 0.42023 -0.06105 0.17105 -0.053589 -0.037134 -0.33882 0.0069853 0.030761 -0.068751 -0.52348 0.019363 -0.35962 0.16574 0.19106 0.12097 -0.024354 0.22673 0.28614 0.32149 0.066916 -0.19532 0.3246 0.077101 -0.34271 -0.19389 -0.48704 -0.0010938 0.26183 -0.25703 0.16053 -0.31394 -0.016296 0.34584 0.26205 -0.14108 -0.36425 0.22834 0.036258 0.037471 -0.20574 0.52688 -0.19512 0.22901 -0.23876 -0.23244 0.051371 -0.17277 -0.25124 0.055418 -0.31113 -0.1904 -0.10372 0.26499 0.50525 0.038283 -0.069017 -0.26629 -0.30282 -0.011219 -0.19478 0.27906 0.19143 0.4657 0.10135 -0.16093 -0.12693 -0.25014 0.29706 -0.017871 -0.21224 0.067853 -0.27587 0.087249 0.008209 -0.23125 -0.22742 -0.15834 0.30994 -0.34118 -0.10244 -0.16171 -0.050827 -0.036298 0.043304 -0.2124 -0.11069 0.32348 -0.28049 -0.12428 0.13288 0.28741 -0.078917 0.13609 -0.6218 -0.15465 -0.46016 0.078675 0.10572 -0.12382 -0.25739 -0.46711 0.29685 -0.25231 0.19415 -0.35806 0.099461 -0.38159 0.20654 0.18581 -0.024331 -0.19232 0.23321 0.29687 -0.064443 -0.21476 0.32169 -0.042803 0.16802 0.27049 0.19993 0.21703 -0.56582 0.42301 0.070167 -0.099509 0.32549 -0.22692 -0.018788 -0.091892 -0.077773 -0.0049412 0.049801 -0.068617 0.19412 0.11305 -0.12067 0.18442 -0.11787 -0.6005 0.29571 0.31113 0.28541 0.0020918 
arbeitssuchender -0.38462 0.37666 -0.09977 -0.26036 -0.01968 -0.10235 -0.27704 0.1113 0.42961 0.12399 0.12957 0.10725 0.015007 0.016181 -0.80024 -0.18802 0.040165 0.32871 0.17364 -0.14471 0.26483 0.18371 -0.20907 -0.12549 0.13334 -0.02029 -0.10928 0.3527 0.35883 -0.1775 0.0095343 0.35714 -0.050004 0.15733 -0.0034935 -0.23885 -0.10866 -0.14482 -0.35358 0.2439 -0.056304 -0.39478 -0.016276 0.27549 -0.16836 -0.32433 0.12755 -0.045876 -0.25757 -0.10381 -7.9038e-05 -0.14453 0.44335 0.30434 -0.28775 0.29765 -0.090746 -0.018279 -0.075951 0.011522 -0.043457 0.15833 0.012922 -0.065148 0.016892 -0.3064 0.24271 -0.51413 0.31605 -0.15922 -0.024871 -0.10693 0.33018 0.22592 -0.062936 -0.16657 -0.21384 0.34501 0.1389 0.2328 -0.18289 0.20949 -0.26042 0.24993 0.084902 -0.37242 0.15327 0.082591 -0.47205 -0.22802 -0.19347 -0.19986 -0.012548 0.042599 0.34002 -0.23006 -0.12678 0.30436 -0.5426 0.14706 0.097456 0.12106 -0.22583 -0.16408 0.29203 -0.17939 0.12876 0.4762 0.1678 -0.1196 0.054173 -0.13934 -0.066722 -0.056103 0.43082 -0.26318 -0.066657 0.33753 -0.14377 0.072247 0.2908 -0.037603 0.0013998 -0.43386 -0.068521 0.23256 -0.04063 0.13958 -0.0010969 -0.054105 0.25974 0.079814 -0.077748 -0.10809 0.40319 0.2464 0.23332 -0.17829 0.18415 0.18248 0.027362 0.28908 -0.51064 0.21483 -0.31295 -0.22918 -0.043667 0.23952 0.099081 -0.050775 0.060316 -0.26982 -0.37495 0.39825 -0.24542 -0.11663 -0.39712 0.35551 -0.0070406 0.34458 -0.21781 0.0049313 -0.13625 0.064894 -0.14994 -0.011291 0.23647 -0.29915 -0.16195 -0.069583 0.20321 0.20533 -0.044265 -0.15455 0.34121 -0.061677 0.48367 -0.13252 0.40872 0.14927 -0.13147 0.063084 0.11869 -0.11079 -0.20166 0.11385 0.13956 -0.10059 -0.48311 -0.16197 0.082773 0.05452 0.021071 0.17193 -0.58193 -0.14909 0.10029 0.47621 0.16444 -0.42963 0.23749 0.51009 0.096714 -0.012677 -0.41949 -0.091463 -0.24736 -0.13576 0.41709 -0.052572 0.17958 0.11055 0.31408 -0.28191 -0.41366 0.33149 -0.1594 0.10003 -0.12707 0.20151 0.18748 -0.10642 0.27924 -0.096374 -0.22466 0.16354 0.48164 -0.034075 -0.23763 0.19205 0.019839 0.20227 -0.31797 -0.20033 0.25825 -0.37791 -0.45374 -0.42045 0.21631 -0.11943 -0.33952 -0.049131 0.1881 0.083704 0.27698 0.027407 0.16362 0.11914 -0.28641 0.13731 0.0070362 0.29429 0.087322 0.33558 0.25577 0.1715 0.22688 -0.16396 -0.44673 -0.065224 0.1477 -0.27211 0.067511 -0.0083018 -0.10021 -0.2682 0.15639 0.0099663 0.091266 0.36369 -0.0045976 0.46419 0.41085 -0.10158 -0.022994 -0.47893 0.09538 -0.019654 -0.36664 -0.16423 0.26012 -0.21366 0.26963 -0.32581 -0.025659 -0.050529 -0.20064 -0.18719 -0.70685 -0.097227 0.21709 0.26308 0.2088 0.18797 -0.22865 -0.03311 0.015753 -0.050132 0.13403 -0.16037 
bewerbung -0.32205 0.54548 0.10953 -0.34048 0.39375 0.24927 -0.15957 -0.47409 -0.13004 0.39172 0.33909 0.15134 -0.040602 -0.19379 -0.22532 -0.035865 0.20371 0.18783 0.34093 -0.15024 0.062088 0.38583 -0.068138 -0.14163 0.033158 0.034967 -0.4979 0.12159 0.20837 -0.33891 0.085329 0.41225 -0.22623 -0.3957 -0.048523 -0.1913 0.36866 -0.19094 -0.13911 0.15951 -0.25023 -0.018764 0.24508 0.29083 -0.11118 -0.16317 -0.038963 -0.39434 0.45591 -0.56229 0.14183 -0.18578 0.19422 0.32941 0.2745 -0.15197 -0.35252 -0.3188 0.20856 -0.26036 0.20433 -0.30709 0.28177 0.032336 -0.20986 -0.093415 0.11751 0.0079499 0.47524 -0.046714 -0.20252 -0.14305 0.084073 0.12231 -0.56801 0.48379 -0.31712 0.026099 -0.29179 0.22844 -0.4287 -0.040917 -0.27045 -0.08088 0.17755 -0.63358 0.33658 -0.1675 -0.55505 0.15445 0.096782 -0.41746 -0.22904 0.10657 0.169 0.40591 -0.5507 0.56735 -0.35338 -0.25372 -0.17103 0.13076 -0.36357 -0.11144 -0.062022 0.30754 0.37151 0.07385 0.22492 0.18201 0.27228 0.12704 -0.16039 -0.18241 0.14323 -0.182 0.31863 0.22714 -0.23486 -0.38186 -0.016485 -0.13731 -0.17699 0.15735 0.24868 0.047389 0.28476 -0.0029695 -0.20179 -0.35838 0.27004 -0.10845 0.049584 -0.12327 0.42731 0.27778 -0.0099415 -0.19836 -0.41097 0.16352 0.076294 0.59602 -0.37394 0.0752 -0.48831 0.19859 0.34796 0.11112 0.15573 0.060998 0.041216 -0.13725 -0.19666 -0.084608 -0.18423 -0.26611 -0.59719 -0.24792 0.41587 0.035413 -0.35681 0.31357 -0.61919 -0.20699 -0.23419 -0.0083552 0.10881 -0.10417 -0.44559 -0.12492 0.031153 0.052793 0.22689 0.090277 -0.28485 0.42292 -0.067116 -0.31227 -0.062377 -0.087278 0.11252 0.8344 0.30345 0.27438 -0.023437 0.23744 -0.21184 -0.034465 -0.28682 0.1478 0.14305 -0.50218 0.052632 -0.031653 0.045123 -0.59602 0.052445 0.15037 0.09199 -0.51793 -0.048573 0.072336 0.30963 -0.013017 0.11472 -0.13551 -0.45171 0.086174 -0.18371 -0.061105 -0.036249 0.031341 0.017078 -0.25985 -0.3006 0.079175 -0.26951 0.35408 0.30102 -0.0099062 0.021412 -0.076156 0.3124 0.17304 0.01067 0.39831 0.16268 -0.0029057 0.081338 0.21707 -0.18699 0.077664 -0.52119 -0.066788 -0.088454 -0.17591 0.14756 -0.096827 0.58641 -0.051032 -0.35005 0.22713 0.21052 0.52125 0.078066 -0.38907 0.7121 -0.091315 -0.22677 0.046286 -0.43733 0.010935 0.10132 0.24001 0.10132 0.12508 0.12279 -0.07231 -0.4269 0.18834 -0.032275 0.71815 0.086955 -0.034765 -0.01081 0.26793 -0.010321 0.03862 -0.044649 0.22554 -0.13596 0.5092 0.22625 0.048509 0.025411 0.19898 -0.026165 0.14664 -0.43162 0.28865 -0.39171 0.3016 -0.21996 -0.21416 0.12302 0.23595 -0.061248 -0.054207 -0.52908 0.26557 -0.42456 -0.046364 -0.044168 -0.18197 -0.18422 0.15345 -0.4337 -0.22064 0.11108 0.29667 
aufklären -0.37687 0.0041571 -0.34314 -0.34302 0.36788 -0.49582 -0.67159 0.18197 0.007796 0.31048 0.39386 0.046486 0.52284 -0.19769 -0.16658 -0.035193 0.069634 0.086104 0.16569 0.16687 0.18393 0.59818 -0.15438 -0.078841 -0.29739 -0.61843 0.17251 0.29765 -0.10538 -0.36941 0.29904 0.25432 -0.32202 -0.22572 0.1231 0.083743 -0.30199 -0.043107 -0.42612 -0.18849 0.10143 -0.074566 -0.07281 0.088106 0.20706 -0.15564 -0.11334 -0.062933 0.14821 -0.21958 -0.016941 0.033042 -0.084716 -0.028221 0.36045 0.00035949 0.54619 0.0029713 -0.17063 0.51096 0.4681 0.22691 0.34339 -0.093913 0.04674 -0.242 -0.080292 -0.039569 0.4405 0.26716 -0.0046578 0.32853 -0.52347 0.22999 0.0085854 0.28852 0.20404 0.031086 -0.020269 -0.081181 -0.52384 0.012484 -0.27973 0.18652 0.032791 0.074477 0.16189 0.066658 -0.062832 0.064528 -0.035642 -0.013504 0.17464 -0.021596 -0.46126 -0.2047 0.22887 0.08396 -0.028196 0.097963 -0.054049 0.16239 0.084451 -0.0061878 -0.17266 -0.031501 0.10534 0.034208 0.066295 0.040813 -0.047945 0.15656 -0.054243 -0.02071 -0.23114 -0.077957 -0.39376 -0.25748 -0.46616 -0.15741 0.021626 -0.44302 0.22781 0.32595 0.18201 -0.37876 -0.043774 0.36754 0.22051 0.080205 0.2967 0.28318 -0.31466 0.41671 -0.23415 0.15994 0.13179 0.35571 0.44168 0.090014 -0.27911 -0.014511 -0.41358 0.58166 0.078449 -0.1246 0.31193 -0.16931 0.044817 0.26683 0.48396 -0.046917 0.10146 0.53491 -0.079328 0.084239 -0.15815 0.25218 0.28699 0.20396 -0.22431 0.13614 0.095154 -0.024736 -0.14756 0.11791 0.017827 -0.039139 0.0059636 0.29328 0.081057 -0.27884 0.14199 -0.03859 0.18332 0.031506 -0.038998 -0.35994 -0.050857 -0.024452 0.13809 -0.037794 -0.031585 0.17945 -0.13726 0.38219 -0.070006 -0.37256 0.42522 -0.20306 0.30274 -0.019554 -0.23986 0.032424 -0.041643 -0.17378 -0.47611 -0.077051 -0.59336 0.13214 -0.25414 0.021204 -0.26389 -0.17868 0.32891 0.048464 -0.36803 -0.41558 -0.0058716 0.097452 0.2855 -0.12927 0.29223 0.024503 0.064271 -0.1255 -0.022295 0.043855 -0.40777 -0.060171 0.011577 0.14384 -0.12359 0.44522 -0.075749 0.28138 -0.19595 -0.19532 -0.018819 0.23272 -0.23707 0.059882 -0.48203 0.023697 -0.23001 -0.25343 -0.57178 -0.36711 0.086879 -0.3812 0.11618 0.024676 -0.17744 0.29245 -0.010528 -0.061549 0.3896 -0.22359 -0.24183 0.070546 -0.2045 0.23811 -0.17137 -0.44824 -0.11079 -0.28538 0.02066 -0.44938 -0.33429 0.13361 -0.10917 -0.64456 0.050511 -0.017788 0.12849 0.5469 -0.081765 0.066072 -0.22317 -0.15074 -0.23609 0.084613 0.2641 -0.21479 -0.099345 -0.20339 -0.059235 0.31348 -0.31484 0.23097 0.026863 0.12751 0.18735 -0.26409 -0.039456 -0.31231 -0.3333 0.26702 0.055906 -0.11434 0.18494 0.20288 0.17743 0.052733 -0.24513 -0.29269 0.063814 0.39547 -0.032736 0.24371 
erklären -0.15021 -0.15087 -0.28801 -0.39676 0.20304 0.12293 -0.39364 -0.19782 0.14668 0.16365 -0.009633 0.11823 0.37942 -0.27347 -0.12067 -0.13842 0.10034 0.32456 0.12139 0.29653 0.42853 0.37392 0.038433 0.077877 -0.21728 -0.51705 0.024948 0.28514 -0.21406 -0.29518 0.27076 0.24221 0.045668 0.019654 0.056531 0.065981 -0.036989 -0.034129 -0.25117 -0.16833 -0.074961 -0.09001 -0.10668 0.097354 0.19771 0.073918 -0.14782 -0.14418 0.1037 -0.036831 0.014888 -0.11523 -0.065871 0.20048 0.21542 0.21434 0.33794 -0.18675 0.14416 0.37722 0.12061 0.088363 0.094574 0.13938 -0.0051926 -0.26741 0.1146 -0.13681 0.018687 -0.094026 -0.25881 0.15752 -0.067425 0.30958 -0.38091 0.29912 0.076169 0.18215 -0.22001 -0.31368 -0.28318 -0.23242 -0.25696 -0.33881 -0.020403 -0.23809 0.22717 0.088256 -0.30775 0.1224 0.032569 -0.1716 0.18442 -0.07446 0.015803 -0.024824 0.14236 0.16018 -0.15899 -0.20067 -0.18784 0.087896 -0.059235 -0.13806 -0.33429 0.15516 -0.16014 0.07289 -0.04081 -0.01027 0.15912 -0.10075 -0.17222 -0.14368 0.0033323 -0.14569 -0.017922 -0.086368 -0.21197 0.281 -0.18135 0.073277 0.15725 0.32079 -0.097828 0.11303 -0.087466 0.30567 0.04104 0.24041 0.075037 -0.22561 0.045085 0.12882 0.10596 0.023211 0.38572 -0.39581 0.30837 -0.032386 -0.031878 0.16214 -0.44241 0.50621 -0.026369 -0.0091675 0.26841 0.015887 -0.06187 0.11183 0.33042 -0.229 0.016695 -0.017508 0.006029 0.15736 -0.22331 0.32172 0.21305 0.097536 -0.055626 -0.15932 0.072418 -0.038162 -0.082212 0.17654 -0.093448 -0.1386 0.051373 -0.051252 -0.089039 -0.11656 -0.026775 -0.1398 0.22705 -0.26267 -0.15673 -0.25745 -0.18937 -0.070797 0.039008 -0.21007 -0.15186 -0.23609 -0.20288 0.052365 -0.13946 -0.40683 0.29243 -0.20187 0.32708 -0.055403 -0.16471 0.22253 0.074522 -0.20072 -0.14172 0.038109 -0.24599 -0.18097 -0.21572 0.18431 -0.058815 -0.14548 0.036104 0.20364 0.0024638 -0.33227 -0.18018 0.24205 0.21873 -0.057874 0.33576 -0.22829 -0.16113 0.25534 -0.19879 -0.029532 -0.077057 0.29557 0.080289 -0.012448 -0.1074 0.33091 0.053413 0.31233 -0.46881 -0.017995 -0.06777 -0.068027 -0.061926 0.16556 -0.31663 -0.24289 0.024694 -0.094935 -0.43534 -0.064157 -0.25114 -0.15264 -0.2351 -0.095856 -0.084324 0.24716 0.12531 -0.19098 0.0316 -0.22262 -0.11612 0.32048 -0.094283 0.21706 -0.15225 -0.21472 -0.2241 -0.40534 0.19914 -0.32436 0.028947 0.23775 0.26496 -0.0020489 -0.089689 -0.15112 0.1032 -0.029326 -0.18286 -0.036663 -0.20773 -0.018785 0.22821 0.17383 0.37824 -0.32827 -0.1668 -0.13978 0.48405 0.14375 0.13604 0.056562 -0.099136 0.12176 0.15377 -0.18384 0.068268 -0.12597 -0.09853 0.2255 -0.27087 0.093406 0.049879 0.081344 0.073225 0.17752 0.12528 -0.10248 -0.025316 0.48988 -0.10713 -0.098385 
aufpreis 0.020813 0.012782 -0.29167 0.65795 0.12153 -0.14346 0.086632 -0.099255 0.22091 0.13864 -0.071267 -0.27828 0.39598 0.4877 -0.19972 -0.058556 -0.20751 -0.21286 0.12823 -0.074185 0.0035645 0.27814 -0.078854 0.44965 0.16794 -0.25004 -0.35708 -0.11816 0.55371 0.25122 0.39205 -0.01026 0.12013 -0.15126 -0.35193 0.0064107 -0.57411 -0.41994 -0.43919 0.17657 0.53154 -0.11448 -0.11344 -0.15816 -0.13392 -0.062505 0.087992 -0.4412 0.069049 -0.14479 0.43297 -0.040204 -0.02184 0.040973 0.50815 0.059922 -0.16772 -0.36174 -0.050474 0.36562 -0.17234 -0.62356 -0.013348 0.33743 0.39799 0.099006 -0.11516 -0.23974 -0.24599 -0.14595 0.34832 -0.038768 0.16794 0.12213 0.33474 -0.35609 0.54367 -0.143 -0.062797 -0.020773 0.13311 -0.15206 0.45063 0.28094 0.39404 -0.01281 0.19994 0.23315 0.15459 0.19129 0.015854 -0.075803 0.076056 0.19853 0.21167 -0.010227 0.17096 -0.094369 0.2694 0.21982 -0.4235 0.051127 -0.35889 -0.11518 0.16715 0.11906 -0.35295 -0.14249 0.51633 0.21454 0.18464 -0.4766 0.2708 0.0034098 0.15009 0.22515 -0.11883 0.26869 0.2888 0.2777 -0.619 0.31905 -0.12899 -0.1422 -0.1433 -0.26022 0.071614 -0.072157 0.023585 -0.19197 0.019644 -0.06681 -0.099849 -0.22682 0.79483 0.80141 -0.4987 0.29004 -0.21639 0.047856 -0.21055 -0.015951 -0.28798 0.68031 -0.051407 0.25902 0.30491 0.34687 -0.11747 -0.15331 0.44755 -0.11697 -0.49926 -0.21501 -0.4295 0.3476 -0.81486 0.36481 0.62534 0.14129 -0.25232 0.41853 -0.58266 -0.068024 -0.54869 -0.25229 -0.93482 -0.10931 -0.44173 0.22118 0.0040453 -0.57867 0.061063 -0.084587 0.26263 -0.02651 0.069739 0.44122 0.83207 -0.36909 0.18911 -0.015611 0.13716 -0.26883 0.052933 0.27755 0.43705 0.036162 -0.54709 0.65043 0.38087 -0.083557 -0.2942 0.34624 -0.23547 -0.54478 -0.36999 -0.12954 -0.032476 0.24385 -0.39065 0.020525 0.13574 -0.34402 -0.43694 -0.29812 -0.42876 -0.36137 -0.21291 0.35764 0.77923 -0.34454 0.26405 -0.72092 -0.73344 0.17951 -0.28036 0.074754 0.34646 0.43407 -0.014078 0.020979 -0.62209 -0.29105 -0.2838 0.26015 0.32558 -0.16524 -0.030182 0.037735 0.25972 0.12771 -0.10633 -0.37672 0.18394 0.12752 0.11743 -0.69056 0.033563 0.22392 -0.08352 -0.050176 -0.17124 0.75358 -0.011091 0.46018 0.040915 0.086272 -0.1982 0.11894 -0.40813 0.20997 -0.28614 0.29591 -0.32398 0.50204 0.88069 -0.24846 -0.23396 -0.12742 0.48649 -0.038257 -0.14875 0.046203 0.2841 0.49933 -0.26029 0.27097 0.21102 -0.35662 -0.37791 0.1138 0.56487 -0.069302 0.63908 -0.46558 0.41087 0.36215 -0.63135 0.081249 -0.38416 0.33215 0.27499 -0.023826 0.63828 0.049008 -0.36894 -0.39106 -0.44049 -0.068038 0.04116 0.35859 -0.18176 0.36124 0.21861 -0.22864 -0.54997 0.44747 0.26667 1.1047 
grundpreis 0.14918 0.19859 -0.33557 0.31377 -0.010575 0.18186 -0.063652 0.42521 0.17791 0.035908 -0.03309 -0.16901 -0.19313 0.55087 -0.098056 -0.10004 -0.18597 -0.30105 0.066484 0.33509 -0.089187 0.41809 0.16688 0.27717 0.21015 0.0047801 -0.84246 -0.031876 0.26215 0.14773 0.45885 0.11314 0.31535 -0.27952 -0.10711 -0.098856 -0.27921 -0.11869 -0.074561 -0.031206 0.22864 -0.28643 -0.15734 -0.011563 0.0099894 0.17388 -0.0308 -0.18353 0.23895 -0.31322 0.25807 -0.10458 -0.016256 0.16599 -0.058813 -0.11774 -0.11226 -0.31227 -0.1549 0.45557 -0.35072 -0.17461 -0.037645 0.1922 0.085843 -0.02158 -0.37392 0.037564 0.081701 0.09935 0.4588 -0.0058741 0.12581 0.096691 0.035718 -0.28427 0.68195 -0.059182 0.31454 -0.12023 0.41669 0.15973 0.35043 -0.013503 0.54787 -0.14946 0.19177 0.25747 0.10585 -0.10786 0.21261 -0.36929 -0.15175 0.020876 0.77676 -0.28141 -0.16742 -0.13928 0.046704 0.29628 0.30541 0.10804 0.10717 0.092083 0.12074 0.060939 0.02401 -0.0079308 0.19085 -0.059325 0.088831 -0.15886 0.20012 -0.080533 0.47643 0.26339 0.01595 -0.019013 -0.29038 0.45368 -0.33729 0.37869 -0.22491 0.12856 -0.2824 -0.31466 0.14115 -0.28818 -0.20869 -0.11444 0.1101 -0.34102 0.10595 -0.14349 0.50048 0.52449 -0.29032 0.19414 0.035115 0.30455 -0.25563 -0.04787 0.027322 0.45812 -0.099457 0.37766 0.3418 0.39336 0.030037 -0.0093182 0.35887 -0.019109 -0.44498 -0.24702 -0.66359 0.3194 -0.61516 0.34629 0.11085 0.49864 -0.056332 0.34585 -0.28845 0.17301 -0.33993 -0.17742 -0.58447 -0.23676 -0.23247 0.31282 -0.0479 -0.53222 -0.15737 -0.16665 0.24996 -0.022226 -0.26532 0.20717 0.66626 -0.21393 -0.19461 0.077646 -0.025283 -0.19912 0.088217 -0.046942 0.24332 0.20221 -0.61611 0.4433 0.70328 -0.030417 -0.22332 0.34993 -0.30068 -0.48084 -0.33517 0.16801 -0.2462 0.12014 -0.026356 -0.10828 0.17883 -0.5841 -0.25942 0.024243 -0.63936 -0.047871 0.088858 0.073084 0.3564 0.18324 0.15933 -0.38156 -0.59605 -0.059574 -0.77884 -0.19653 0.19163 0.27313 0.66681 0.22282 -0.18051 -0.089728 -0.40412 0.1946 0.4837 -0.45033 -0.1486 -0.22388 -0.095271 0.26425 -0.15091 0.11088 -0.094181 0.60216 0.32824 -0.54515 -0.35132 -0.011771 -0.29986 -0.11894 0.07424 0.41226 0.046452 0.23003 0.01731 0.19401 -0.22011 0.33534 -0.80801 0.057153 0.068715 0.32176 0.088121 -0.098554 0.36836 0.16395 -0.26411 -0.042044 0.41082 0.0037435 0.21981 -0.08271 0.35485 0.20786 -0.39652 0.085667 0.17475 -0.098805 -0.39838 -0.0023902 0.2229 -0.18418 0.28829 -0.45158 0.50521 0.56907 -0.61343 0.2235 -0.19244 0.35478 0.25349 -0.22018 0.83641 -0.11682 -0.26877 -0.35855 -0.19747 -0.20375 0.50174 -0.085683 -0.21494 0.54556 -0.14494 -0.045408 -0.19628 0.18097 0.038305 0.68693 
aufstieg -0.27747 0.32134 -0.61425 -0.59536 0.27822 -0.068806 -0.24739 -0.30503 0.096558 0.13062 0.27414 -0.25532 0.69693 0.073177 0.091848 -0.050474 0.038402 0.3035 -0.045024 0.2562 0.54742 -0.048699 0.057345 -0.27521 0.44345 -0.20716 0.61923 -0.41199 -0.13461 -0.12341 0.019397 0.095356 -0.20338 -0.15033 -0.33267 -0.04556 0.10335 -0.28777 0.31619 -0.013934 -0.16928 -0.31574 0.081665 0.40957 0.12632 0.058537 0.30554 0.041888 0.30644 -0.34501 0.12646 -0.44422 0.025833 0.12531 0.17563 -0.34579 -0.12784 -0.10435 0.37667 0.37756 -0.24479 -0.39167 0.092204 -0.5278 -0.30082 -0.053031 -0.092315 0.25968 0.20249 0.079897 0.070718 -0.10304 0.22773 0.20876 0.023332 0.025854 0.084145 -0.34394 -0.55517 0.83371 0.054689 0.25036 -0.10157 -0.017951 0.58424 -0.34717 0.28841 0.30958 -0.052625 -0.28391 -0.92129 -0.2425 -0.096238 -0.45237 0.095616 -0.30097 -0.24937 -0.38546 -0.22858 -0.013601 -0.062074 0.78142 -0.30232 -0.56659 -0.016465 0.45722 -0.17906 0.4187 -0.056009 -0.50765 -0.49201 0.13806 -0.073157 -0.049493 -0.21634 0.01912 0.33245 0.12449 0.46831 -0.30866 -0.002523 0.038275 -0.11035 0.6627 0.088621 -0.21401 0.094215 0.048784 0.095696 0.25621 0.43786 -0.57908 -0.11748 -0.28347 0.50813 -0.27645 -0.050028 -0.089062 0.45424 -0.40324 0.4653 -0.18637 -0.074892 0.016116 0.26206 -0.16351 0.31464 -0.38575 0.21351 -0.06907 -0.35608 -0.29573 0.06235 0.042045 -0.3737 0.079336 0.30248 0.23649 0.15595 0.17416 -0.31121 -0.076077 -0.00097221 0.1831 0.039498 -0.12854 0.074784 0.087683 -0.40931 0.2963 -0.16705 -0.45942 0.35292 -0.27793 -0.059361 0.36172 0.58141 -0.033699 -0.41324 0.6499 0.091419 0.10664 -0.034298 0.25154 -0.13379 0.49916 0.23226 -0.41583 -0.16584 -0.031867 -0.025151 -0.08315 -0.13173 0.71737 0.087879 -0.39955 -0.078139 0.27674 -0.20654 -0.32958 0.049792 0.034378 1.0204 0.47612 0.36343 0.30918 -0.12435 0.40486 0.011191 0.26049 0.51282 -0.22272 -0.022154 -0.69263 -0.30009 0.29849 0.02545 -0.038356 0.2642 0.10307 -0.16283 0.011694 0.045974 0.30226 0.11556 0.20233 0.39217 -0.36533 -0.18621 0.26948 -0.26277 0.62468 -0.069872 -0.0057909 0.20565 0.12996 -0.20225 -0.25255 -0.30549 -0.52505 -0.41766 0.069797 0.055732 0.15572 0.016807 -0.404 0.2463 0.20807 -0.51772 -0.16529 0.08521 0.072282 -0.17434 0.48312 0.18245 -0.088612 0.077626 0.0088219 -0.25048 0.27265 -0.20455 -0.47374 -0.59202 0.2317 -0.072691 -0.21844 0.046507 -0.15904 -0.11892 -0.24436 -0.23828 0.21127 -0.089177 0.16568 -0.027968 -0.24779 0.2631 -0.17994 0.32648 -0.091147 -0.41304 0.58237 0.28606 -0.1902 -0.16212 -0.021984 -0.35303 -0.14883 -0.20098 0.5166 0.010292 0.25628 0.065575 0.05732 -0.34688 -0.17784 -0.49198 0.32339 0.068977 0.82417 
erfolg -0.53218 0.30926 -0.54988 -0.52291 0.1116 0.40018 -0.16714 0.01798 0.02192 0.18835 -0.039503 -0.37709 0.030299 -0.25316 0.0062159 -0.27306 -0.15566 0.075708 -0.35537 0.070368 0.1786 0.17244 -0.022882 -0.068589 0.44669 0.10301 0.12398 -0.11612 -0.3793 0.12747 0.078678 0.051663 -0.18193 -0.27906 -0.38937 -0.12712 0.16712 0.082978 -0.38765 0.0015139 -0.48065 -0.19916 -0.085757 0.33125 -0.27065 -0.22135 -0.31147 -0.20614 0.096231 -0.45237 -0.23099 0.038562 -0.094415 -0.013484 0.11876 -0.54055 -0.31128 0.14095 0.69011 -0.36018 0.0011367 0.16469 0.36214 -0.098153 -0.38084 0.031056 0.19368 0.04437 0.34962 0.37248 -0.092264 -0.34073 0.034326 0.089255 -0.10567 0.22197 0.20509 -0.26067 -0.11015 0.41841 0.27988 -0.072475 -0.069284 0.27384 0.16024 -0.37157 0.28726 0.15565 -0.21833 -0.15739 0.046263 0.043825 -0.26911 0.13096 -0.075888 -0.15729 -0.36145 0.21495 -0.26183 -0.049953 0.23055 0.60343 -0.13435 -0.26573 -0.27956 0.3513 0.30245 0.0055172 0.038809 -0.18361 -0.13365 0.02141 0.095722 -0.0084668 0.20737 -0.43259 -0.17763 0.19998 0.13892 0.1071 -0.38003 0.073744 -0.15882 0.36683 0.24476 0.44423 -0.52437 -0.019014 0.074275 -0.14817 0.33195 -0.18989 0.091043 0.16216 0.18532 0.10514 0.013719 0.28065 -0.26811 0.1215 -0.030834 0.075475 -0.18397 0.2857 0.11106 0.1266 0.036444 0.22871 -0.17582 -0.0062625 0.40618 0.19661 -0.29918 -0.0042451 -0.46987 0.087426 -0.30459 0.33829 -0.042844 -0.22321 -0.14313 0.26195 -0.11576 -0.059602 -0.13098 -0.0011665 0.052775 -0.28698 -0.069776 0.071734 -0.063611 -0.40324 0.08355 0.25207 0.11205 -0.030268 0.45274 -0.22468 0.012822 0.047244 -0.20005 -0.08997 -0.1977 0.125 -0.13693 0.10814 0.34225 -0.34162 -0.075422 -0.045764 0.34227 -0.12142 -0.16198 0.031336 -0.089671 -0.0026527 0.014084 0.42457 -0.41905 0.20216 -0.088954 0.11191 0.22514 0.071188 0.09809 -0.15444 -0.11278 -0.13303 0.082827 -0.18763 0.28315 -0.48986 -0.18797 -0.0027897 -0.38843 0.016992 0.01663 0.15648 -0.090021 0.25459 -0.047557 -0.32696 0.18921 0.1474 -0.019348 0.12793 0.10929 -0.18186 -0.10202 0.1378 0.12834 0.071962 -0.033926 0.0016919 0.20323 0.07965 0.030301 -0.3389 -0.20564 -0.32797 -0.043952 0.15206 0.1023 0.018309 -0.082944 -0.38658 0.53995 0.13954 -0.00079661 0.28257 -0.3473 -0.27716 -0.27288 0.25142 0.136 0.13601 -0.18059 -0.12858 0.12301 -0.048056 -0.27585 0.1912 -0.048069 -0.34371 0.044473 0.1669 -0.13305 -0.063809 -0.25967 0.018682 -0.54486 -0.13373 0.13875 0.2789 0.083534 -0.23783 0.16491 -0.0075039 -0.0048324 0.19757 -0.07042 0.52265 0.0031486 0.01684 -0.092436 0.080346 -0.20864 -0.0013791 0.016598 -0.39519 -0.1557 0.089169 -0.094242 0.093194 -0.024007 -0.33234 -0.39113 0.013714 0.053103 0.71986 
aufzeichnen -0.27633 0.26329 -0.44147 -0.15575 -0.097841 -0.27847 -0.30803 0.25662 -0.032606 -0.22816 -0.15948 -0.28225 0.14041 -0.46533 -0.42096 -0.010087 -0.046738 0.074309 0.34766 -0.16555 0.19306 0.087619 -0.12684 0.49731 0.0095282 -0.4821 0.20472 0.40337 0.074177 -0.45296 0.37946 0.28876 0.078141 -0.01067 0.27663 0.13418 0.17484 0.2213 0.22579 -0.035968 -0.1774 -0.11904 0.038145 -0.048076 0.1221 0.14455 0.082308 -0.35971 0.35522 -0.33041 0.2486 -0.27002 -0.25031 0.22673 -0.29439 -0.27259 -0.082922 0.39285 -0.50294 -0.0032909 0.28677 -0.26084 -0.14815 0.21288 -0.028677 -0.20771 -0.17944 0.26226 -0.094625 -0.45416 -0.082572 0.7197 -0.25465 0.018281 -0.021578 -0.1078 0.035521 0.36439 0.087879 -0.087615 -0.28966 -0.44283 0.23053 0.19905 0.075032 -0.57784 0.45172 -0.14061 -0.10588 -0.014269 0.3408 0.38587 -0.26738 -0.062293 -0.18328 -0.31298 0.057859 0.48493 0.24293 -0.54145 -0.13787 0.033527 -0.15635 -0.33801 0.10692 -0.13004 -0.4388 -0.25251 -0.088107 0.022541 -0.19504 -0.031873 0.34793 0.077011 -0.20664 -0.29667 -0.16039 0.076711 0.291 0.38698 0.089056 -0.075584 -0.31478 0.34114 -0.15389 0.12862 0.10173 0.18561 0.26516 -0.0036099 0.306 0.034455 -0.2586 0.35707 0.50368 -0.041095 0.4877 0.12622 0.3177 -0.15476 -0.074274 -0.07217 -0.35936 0.44058 -0.013607 -0.17431 0.22342 -0.046683 -0.14133 -0.11205 -0.059096 -0.21066 -0.69067 0.094272 -0.47979 -0.070176 0.18216 0.36149 0.68386 0.0703 0.14295 0.20567 0.088065 0.056775 -0.23119 0.30502 -0.32093 -0.055895 0.0099212 0.098134 -0.6232 -0.023617 0.075916 0.34423 0.42043 -0.18177 0.17576 -0.10482 -0.094354 0.25108 0.30705 0.077135 -0.23379 -0.30043 -0.054553 -0.032182 -0.26448 -0.38222 0.046724 0.027225 -0.24617 -0.070212 -0.42588 -0.026771 -0.11195 -0.60508 -0.30323 -0.13632 -0.090397 0.46606 -0.66413 -0.045285 -0.014981 -0.42269 -0.42423 0.27406 0.14258 -0.66719 0.037896 -0.16638 0.6741 -0.13319 0.40332 -0.16526 0.0076927 0.41355 0.30247 0.0057145 0.10478 0.15186 0.60477 0.21231 0.165 0.11176 -0.26677 0.26043 -0.14226 -0.17053 0.4883 0.090119 -0.51262 0.53224 -0.38918 -0.4465 -0.015714 -0.11743 -0.30523 0.14201 -0.12622 -0.18184 0.027274 0.015723 0.057567 0.39745 -0.26334 -0.55327 0.024383 0.083167 -0.074004 0.096739 0.26763 -0.14224 -0.47921 -0.24746 -0.34273 0.10652 0.27754 -0.80515 0.045146 0.33314 -0.095531 -0.071833 0.085864 0.085207 0.030719 -0.0099154 -0.17285 0.19863 -0.1302 -0.049217 0.21471 0.030743 0.57094 0.16145 0.18093 0.005121 -0.18709 0.047636 -0.27395 0.22942 -0.048768 -0.21515 -0.014949 -0.057811 0.34603 -0.12637 0.032592 0.018535 0.11008 0.37605 -0.10977 0.14688 0.40597 0.44512 0.22651 -0.17556 -0.21541 -0.05032 -0.1987 0.53645 
schreiben 0.091652 0.30647 -0.49145 -0.52606 0.29067 0.13116 -0.10088 0.26025 0.16823 0.17444 0.12327 0.041297 0.34834 -0.18064 -0.12048 -0.14658 -0.01445 0.33401 -0.014345 0.21505 0.23771 0.0497 -0.18627 0.13594 -0.064079 -0.5329 -0.075657 0.074787 -0.33392 -0.57925 -0.0051144 0.27249 0.066611 -0.076114 -0.28159 0.11115 -0.056098 -0.3654 -0.033649 -0.052456 0.11139 0.035189 0.07658 0.15266 0.036044 -0.091174 0.019704 0.0012754 -0.088699 -0.027418 0.094936 0.10695 -0.17131 0.42962 0.23957 0.03371 -0.18975 0.01024 -0.13693 0.43006 0.13642 0.0021196 0.031347 -0.051496 -0.081957 -0.26872 0.014286 -0.18172 0.51678 -0.12699 -0.27323 0.19761 -0.36225 0.096482 -0.21178 0.030064 -0.048268 0.049275 0.15525 -0.098341 -0.35548 -0.084918 0.22448 0.011124 0.061113 -0.36806 0.34059 0.084369 -0.27732 -0.20464 0.16404 -0.080979 0.21303 0.10067 -0.21799 -0.051357 -0.15357 0.31799 -0.089409 -0.31703 0.023582 0.31011 0.084321 -0.08887 0.10929 -0.021749 0.12144 -0.00082324 0.13121 -0.064844 0.25739 0.18764 -0.22817 -0.14052 -0.065304 0.18853 0.047001 0.076507 -0.20213 0.25467 -0.19794 0.11936 0.097541 0.038232 0.27851 0.12271 -0.25206 0.17443 -0.18171 -0.11951 -0.0024918 -0.20827 -0.2589 0.06056 0.0079967 -0.010098 0.18646 0.27034 0.16409 0.0053714 -0.29258 0.016482 -0.32733 0.27099 0.019403 0.099062 0.53583 -0.067711 -0.25939 0.12173 -0.013846 0.17766 -0.49615 -0.24585 -0.11296 -0.019517 -0.13258 0.33266 0.29221 0.042865 -0.054468 -0.079091 0.10369 0.12862 -0.26327 0.29654 0.0062907 -0.086309 -0.37225 0.13391 -0.16127 -0.015354 0.30855 -0.046368 0.25488 0.029329 -0.026755 -0.15016 -0.33516 -0.10151 -0.072346 -0.08663 -0.24771 -0.31959 -0.1294 0.026642 -0.028282 -0.38912 0.0108 -0.18783 0.14438 -0.29413 0.06237 0.0079077 -0.27186 -0.40318 -0.30867 0.036232 -0.33057 -0.28035 -0.21247 -0.11089 -0.013512 0.24832 -0.12571 -0.069846 -0.36547 -0.22216 0.081978 -0.060196 0.12993 -0.044489 0.40952 -0.1765 -0.22631 -0.062487 -0.1289 -0.069436 -0.12688 0.12333 0.34668 0.023034 0.034844 0.26765 -0.25081 0.17418 0.049119 0.21284 -0.0037901 0.024391 -0.17529 0.096122 -0.39035 -0.27131 -0.23105 -0.24987 -0.17556 -0.28079 0.16113 -0.35242 -0.21898 0.079137 0.36927 0.56252 -0.23906 -0.15597 0.37043 -0.14285 -0.13636 0.13779 0.12685 0.24166 0.20282 -0.51463 -0.17945 -0.18359 0.080077 -0.27567 -0.15808 -0.053244 0.32448 0.29119 0.22223 -0.21626 0.086556 0.15589 -0.35748 0.052902 0.1215 0.27434 0.32258 -0.22239 0.14409 0.21807 0.039867 0.11996 0.14141 -0.012524 0.012648 0.21356 -0.21759 -0.16161 0.040841 0.18771 0.14096 -0.22718 -0.0056677 0.30639 -0.13597 0.04175 -0.16784 0.12494 0.2446 0.46668 0.17974 0.042499 -0.057631 -0.12508 -0.0015906 -0.01862 
aussage 0.12201 0.16657 0.034566 -0.42836 0.57725 0.31112 -0.050426 0.271 0.33434 0.3672 0.070492 0.69498 0.013101 -0.17257 -0.055468 -0.26302 -0.32382 0.16227 -0.19405 0.10836 0.5283 0.60667 -0.21316 0.32623 -0.24039 -0.36786 -0.29041 0.42608 -0.33768 -0.011565 0.059044 0.36774 -0.12927 0.12221 -0.12468 -0.2067 -0.077185 -0.18299 -0.1261 0.16995 0.14429 -0.12684 0.095051 -0.0089401 0.16878 0.076939 0.059044 -0.12173 -0.099954 -0.20217 -0.16543 0.018518 0.054669 0.15785 0.18249 0.1834 0.1043 -0.050019 0.061128 0.071799 0.055876 0.04793 0.01993 -0.16023 -0.035587 -0.070717 0.061905 0.504 0.25194 -0.24964 0.023421 -0.20457 0.1633 0.21273 -0.33034 0.33037 -0.020192 0.20659 -0.10742 -0.341 -0.15415 0.080314 0.12748 -0.069053 -0.017184 -0.34218 0.11866 0.057487 0.36402 0.20185 0.17437 -0.23158 0.13097 -0.09839 0.039529 -0.10906 0.29386 0.46941 0.03505 -0.13473 -0.16041 -0.22969 0.12959 -0.034527 -0.1645 0.17157 0.10395 -0.03529 -0.26383 -0.14521 0.092388 0.22849 0.15786 -0.031529 0.040731 0.089205 -0.1178 -0.045654 -0.36823 -0.19917 -0.17999 0.082193 -0.18242 0.40536 0.12452 0.012164 0.072962 0.44043 0.19051 -0.046463 0.43433 -0.064307 0.078738 -0.038929 0.21984 -0.12757 0.015403 0.077035 0.16979 -0.029542 -0.29733 0.031988 -0.17113 0.60881 -0.16656 -0.17479 0.18572 0.12213 0.22146 0.17141 0.083489 -0.084951 -0.24417 0.0044225 -0.42668 -0.19277 0.097606 -0.033361 0.037639 0.24947 0.076958 0.24644 0.14231 0.0087263 -0.33091 0.35554 -0.2648 -0.1052 -0.17315 0.0091386 -0.21649 -0.031192 -0.020809 -0.032211 -0.09537 0.22796 -0.24384 -0.073924 0.039831 -0.065038 0.09083 0.088459 -0.074822 -0.094466 -0.31631 0.009609 0.072588 0.19289 -0.3526 -0.076205 0.37823 -0.07651 0.060979 -0.046161 -0.11721 -0.32942 0.31967 -0.082317 -0.30335 -0.15932 -0.15931 0.22979 -0.055791 -0.35478 -0.075845 -0.043329 -0.11124 0.13062 -0.082469 0.087587 0.43549 -0.3306 0.46135 -0.080367 -0.42083 0.2591 0.026694 0.23013 0.06338 0.10144 0.21661 -0.19892 -0.36068 0.25046 -0.20175 0.14812 -0.2079 0.0062005 -0.036962 0.015116 -0.096185 0.4543 -0.24082 -0.13624 -0.17046 -0.023871 -0.24366 -0.10736 0.14999 -0.31415 -0.35144 -0.010588 0.16334 0.15797 -0.15957 -0.46021 -0.021457 -0.018202 -0.32882 0.31493 0.002316 0.052352 -0.3915 0.10852 0.19572 -0.24776 0.11715 -0.30447 -0.33469 0.14105 -0.035078 0.029046 0.17313 -0.15811 -0.0036532 0.1221 0.10357 0.10456 -0.064431 0.097173 0.30045 -0.076826 0.21369 0.0067788 -0.029079 0.045536 0.25606 0.15695 0.088609 0.33497 -0.026681 0.21805 -0.15518 0.058887 0.16858 -0.0094694 0.21802 0.4261 -0.12286 -0.052651 -0.012683 0.094499 0.1235 0.14188 0.011251 -0.030786 -0.023565 0.14928 0.13302 0.23788 
auftritt 0.001848 0.45778 -0.31382 -0.23739 0.0056673 0.30984 -0.032326 -0.133 0.31949 0.34384 -0.36968 -0.062335 0.34764 -0.0084959 0.021716 -0.20079 0.13855 0.20881 -0.25586 0.005564 0.15863 0.25203 -0.35604 -0.082972 0.13773 0.23427 7.6462e-05 0.14122 -0.22881 -0.06963 0.13831 0.0034709 -0.51232 -0.27508 -0.040041 0.12502 0.061983 0.25836 0.24416 -0.17722 -0.3301 -0.16605 -0.070646 0.0098009 0.15537 -0.30767 -0.079999 -0.38213 0.032675 -0.25919 0.054268 0.097076 -0.15875 -0.13885 -0.077783 -0.038154 -0.080978 0.18463 0.20004 0.34298 -0.043618 -0.007965 0.34342 -0.030086 -0.27091 0.27178 -0.016062 0.54062 -0.23483 -0.1507 -0.2213 0.070035 -0.18305 0.086116 -0.13963 0.061718 -0.39885 -0.21827 -0.34849 0.024291 0.025236 -0.16876 -0.096753 0.34148 -0.19073 -0.35842 0.20203 -0.013552 -0.47344 0.060062 0.21028 -0.083039 0.035701 0.13006 0.1317 -0.04196 -0.15368 0.30853 0.043383 -0.24528 -0.068517 -0.10916 -0.18168 -0.37056 -0.39912 -0.0082599 -0.056207 0.26862 -0.40822 -0.10831 -0.20871 -0.2784 -0.34924 -0.18322 -0.10294 -0.213 0.088689 0.22507 0.12358 0.03597 -0.098365 -0.0079125 -0.091666 -0.089766 0.017191 0.2923 -0.19465 0.2772 0.10801 -0.15865 0.20394 -0.066107 0.21607 0.13441 0.30337 0.067808 0.10213 0.37135 0.32805 -0.043393 -0.20465 0.16441 0.48622 0.40008 -0.14295 0.056077 0.2223 0.10301 0.09715 -0.16597 0.44197 0.27584 -0.053627 0.31903 -0.07746 -0.16066 -0.051321 0.48629 0.072506 0.082872 -0.28559 0.41339 -0.026869 -0.043735 -0.43998 -0.055514 -0.22649 -0.12177 -0.16826 -0.081277 0.056641 -0.22772 0.25525 0.16795 -0.042453 -0.16059 0.24723 -0.2717 0.044564 -0.025462 0.25204 0.10125 -0.16621 0.13618 0.0059261 0.10712 -0.026269 0.058684 0.088408 0.038258 0.25485 -0.21905 -0.17269 0.17146 -0.037087 -0.23069 -0.12602 0.14125 -0.36881 0.48293 -0.15933 0.0057359 0.12574 0.23603 -0.17598 0.39351 0.010771 -0.020511 -0.16951 0.013873 0.7618 -0.069252 -0.22776 0.18233 -0.43321 0.54221 -0.3369 0.095095 0.041209 -0.069253 0.010333 -0.71345 0.06916 -0.036339 0.023906 -0.093928 0.28827 -0.3442 0.029374 -0.03691 0.14874 -0.014404 -0.022579 -0.19031 -0.07597 0.19566 0.078986 -0.21236 -0.022994 -0.33128 0.0037831 -0.31393 0.21074 -0.074591 -0.22441 -0.26399 -0.1257 -0.19459 -0.38552 0.32516 -0.30786 -0.14906 -0.14195 -0.14076 -0.17739 -0.013145 0.011724 -0.10528 -0.30293 0.062754 -0.045872 0.03062 -0.36506 -0.094049 0.18436 0.20126 0.059547 0.25727 0.048519 0.11483 0.047757 0.066783 0.4485 -0.10483 0.26125 -0.014067 0.14855 -0.40581 -0.084012 0.28227 0.37077 0.22263 0.22935 0.29246 0.095923 -0.21037 0.37776 0.15459 -0.029923 -0.1288 -0.1538 0.13701 0.17066 0.26486 -0.23807 0.13656 -0.49055 0.0025259 0.035981 0.1218 
aussage 0.12201 0.16657 0.034566 -0.42836 0.57725 0.31112 -0.050426 0.271 0.33434 0.3672 0.070492 0.69498 0.013101 -0.17257 -0.055468 -0.26302 -0.32382 0.16227 -0.19405 0.10836 0.5283 0.60667 -0.21316 0.32623 -0.24039 -0.36786 -0.29041 0.42608 -0.33768 -0.011565 0.059044 0.36774 -0.12927 0.12221 -0.12468 -0.2067 -0.077185 -0.18299 -0.1261 0.16995 0.14429 -0.12684 0.095051 -0.0089401 0.16878 0.076939 0.059044 -0.12173 -0.099954 -0.20217 -0.16543 0.018518 0.054669 0.15785 0.18249 0.1834 0.1043 -0.050019 0.061128 0.071799 0.055876 0.04793 0.01993 -0.16023 -0.035587 -0.070717 0.061905 0.504 0.25194 -0.24964 0.023421 -0.20457 0.1633 0.21273 -0.33034 0.33037 -0.020192 0.20659 -0.10742 -0.341 -0.15415 0.080314 0.12748 -0.069053 -0.017184 -0.34218 0.11866 0.057487 0.36402 0.20185 0.17437 -0.23158 0.13097 -0.09839 0.039529 -0.10906 0.29386 0.46941 0.03505 -0.13473 -0.16041 -0.22969 0.12959 -0.034527 -0.1645 0.17157 0.10395 -0.03529 -0.26383 -0.14521 0.092388 0.22849 0.15786 -0.031529 0.040731 0.089205 -0.1178 -0.045654 -0.36823 -0.19917 -0.17999 0.082193 -0.18242 0.40536 0.12452 0.012164 0.072962 0.44043 0.19051 -0.046463 0.43433 -0.064307 0.078738 -0.038929 0.21984 -0.12757 0.015403 0.077035 0.16979 -0.029542 -0.29733 0.031988 -0.17113 0.60881 -0.16656 -0.17479 0.18572 0.12213 0.22146 0.17141 0.083489 -0.084951 -0.24417 0.0044225 -0.42668 -0.19277 0.097606 -0.033361 0.037639 0.24947 0.076958 0.24644 0.14231 0.0087263 -0.33091 0.35554 -0.2648 -0.1052 -0.17315 0.0091386 -0.21649 -0.031192 -0.020809 -0.032211 -0.09537 0.22796 -0.24384 -0.073924 0.039831 -0.065038 0.09083 0.088459 -0.074822 -0.094466 -0.31631 0.009609 0.072588 0.19289 -0.3526 -0.076205 0.37823 -0.07651 0.060979 -0.046161 -0.11721 -0.32942 0.31967 -0.082317 -0.30335 -0.15932 -0.15931 0.22979 -0.055791 -0.35478 -0.075845 -0.043329 -0.11124 0.13062 -0.082469 0.087587 0.43549 -0.3306 0.46135 -0.080367 -0.42083 0.2591 0.026694 0.23013 0.06338 0.10144 0.21661 -0.19892 -0.36068 0.25046 -0.20175 0.14812 -0.2079 0.0062005 -0.036962 0.015116 -0.096185 0.4543 -0.24082 -0.13624 -0.17046 -0.023871 -0.24366 -0.10736 0.14999 -0.31415 -0.35144 -0.010588 0.16334 0.15797 -0.15957 -0.46021 -0.021457 -0.018202 -0.32882 0.31493 0.002316 0.052352 -0.3915 0.10852 0.19572 -0.24776 0.11715 -0.30447 -0.33469 0.14105 -0.035078 0.029046 0.17313 -0.15811 -0.0036532 0.1221 0.10357 0.10456 -0.064431 0.097173 0.30045 -0.076826 0.21369 0.0067788 -0.029079 0.045536 0.25606 0.15695 0.088609 0.33497 -0.026681 0.21805 -0.15518 0.058887 0.16858 -0.0094694 0.21802 0.4261 -0.12286 -0.052651 -0.012683 0.094499 0.1235 0.14188 0.011251 -0.030786 -0.023565 0.14928 0.13302 0.23788 
rede 0.018419 0.052716 -0.22947 -0.35669 0.18992 0.019748 -0.22378 0.019489 0.17688 0.28887 -0.15841 0.37027 -0.072178 -0.11067 -0.067626 0.099402 -0.13999 0.20261 -0.60478 0.042613 0.37614 0.20943 -0.099017 0.27596 -0.18514 -0.45517 -0.21372 0.2409 -0.49773 -0.31946 0.23434 0.097561 -0.090827 -0.27095 0.045396 -0.23481 0.023293 0.04502 0.084674 -0.059732 -0.026729 -0.15936 0.21239 0.040153 0.097255 0.2878 -0.35663 0.039932 0.18936 -0.22583 -0.018797 0.11514 0.18044 -0.082009 0.014371 0.26712 -0.35419 -0.35276 0.074285 0.21206 0.18423 -0.10962 0.010146 0.22911 -0.079287 0.052569 0.191 0.27229 0.010058 0.060615 -0.60632 0.25521 -0.33661 0.1608 -0.44892 0.1303 -0.040071 0.039761 0.037071 -0.2409 -0.34504 -0.2377 0.10701 -0.071932 0.077968 -0.36576 0.011413 -0.32542 0.034751 0.11077 -0.19326 -0.31311 0.04117 0.10625 0.045067 0.15605 0.42678 0.16903 -0.34645 -0.56388 0.067732 0.024373 0.17936 -0.056135 -0.02547 0.090999 -0.14003 0.070369 -0.241 -0.13692 -0.049059 0.18392 -0.32023 -0.13522 -0.17961 -0.053564 0.38322 -0.21778 -0.24931 -0.34066 0.037313 0.084078 -0.0048745 0.25279 -0.27893 -0.12526 0.10145 0.33599 -0.20757 -0.19397 0.2039 0.23342 -0.13524 0.10872 0.075412 0.065541 0.18435 0.20106 -0.042798 0.15553 -0.0085298 0.0506 0.027527 0.5048 -0.12064 -0.18252 0.0053399 0.47798 0.020488 -0.18328 0.038517 -0.2119 -0.16382 -0.024736 0.040793 0.086586 -0.14979 0.56158 -0.064876 0.40738 -0.079466 0.01147 0.13362 0.12362 -0.2103 -0.023133 -0.36654 -0.13964 -0.25297 0.21717 0.21425 0.013728 0.031902 0.23014 0.28148 -0.18939 -0.2264 -0.057909 -0.21221 -0.072419 -0.0701 0.14174 0.023404 0.10412 0.32756 0.044352 -0.19558 -0.26979 0.076898 0.19464 0.52272 -0.046115 0.20819 -0.051626 -0.0084985 -0.17808 0.27935 0.019777 -0.11887 -0.35794 -0.078227 0.24526 0.27689 -0.19537 0.049036 0.2812 0.1132 -0.35481 0.0068831 -0.0089823 0.36099 0.096666 0.21422 -0.059342 -0.0050025 0.16053 -0.25465 0.38401 0.7238 0.042326 0.42317 0.068079 -0.141 0.030801 0.026586 0.24392 -0.073536 -0.099402 0.070699 -0.13826 0.20207 0.01477 0.15316 -0.23321 -0.13239 0.16616 -0.31186 -0.31403 -0.12609 -0.066683 -0.14928 0.087202 0.088698 0.020631 -0.040025 -0.28568 0.24764 -0.16976 -0.44302 0.30541 -0.081729 0.28796 -0.056532 0.0079516 0.14569 -0.27525 -0.0082565 -0.29733 -0.30423 -0.11014 -0.10965 0.37466 -0.12738 0.0097283 0.40113 -0.074637 0.1994 0.26363 0.086148 -0.15658 0.32926 -0.0014472 0.19081 0.11151 0.083236 0.014099 0.37725 -0.15351 -0.011428 0.3975 0.048752 -0.045262 -0.032892 0.38932 -0.066258 -0.0020226 0.076642 0.22087 0.11257 0.46044 -0.15238 0.27656 0.24984 0.10424 -0.00023642 -0.13272 -0.045136 -0.0153 0.24943 0.36942 
aussage 0.12201 0.16657 0.034566 -0.42836 0.57725 0.31112 -0.050426 0.271 0.33434 0.3672 0.070492 0.69498 0.013101 -0.17257 -0.055468 -0.26302 -0.32382 0.16227 -0.19405 0.10836 0.5283 0.60667 -0.21316 0.32623 -0.24039 -0.36786 -0.29041 0.42608 -0.33768 -0.011565 0.059044 0.36774 -0.12927 0.12221 -0.12468 -0.2067 -0.077185 -0.18299 -0.1261 0.16995 0.14429 -0.12684 0.095051 -0.0089401 0.16878 0.076939 0.059044 -0.12173 -0.099954 -0.20217 -0.16543 0.018518 0.054669 0.15785 0.18249 0.1834 0.1043 -0.050019 0.061128 0.071799 0.055876 0.04793 0.01993 -0.16023 -0.035587 -0.070717 0.061905 0.504 0.25194 -0.24964 0.023421 -0.20457 0.1633 0.21273 -0.33034 0.33037 -0.020192 0.20659 -0.10742 -0.341 -0.15415 0.080314 0.12748 -0.069053 -0.017184 -0.34218 0.11866 0.057487 0.36402 0.20185 0.17437 -0.23158 0.13097 -0.09839 0.039529 -0.10906 0.29386 0.46941 0.03505 -0.13473 -0.16041 -0.22969 0.12959 -0.034527 -0.1645 0.17157 0.10395 -0.03529 -0.26383 -0.14521 0.092388 0.22849 0.15786 -0.031529 0.040731 0.089205 -0.1178 -0.045654 -0.36823 -0.19917 -0.17999 0.082193 -0.18242 0.40536 0.12452 0.012164 0.072962 0.44043 0.19051 -0.046463 0.43433 -0.064307 0.078738 -0.038929 0.21984 -0.12757 0.015403 0.077035 0.16979 -0.029542 -0.29733 0.031988 -0.17113 0.60881 -0.16656 -0.17479 0.18572 0.12213 0.22146 0.17141 0.083489 -0.084951 -0.24417 0.0044225 -0.42668 -0.19277 0.097606 -0.033361 0.037639 0.24947 0.076958 0.24644 0.14231 0.0087263 -0.33091 0.35554 -0.2648 -0.1052 -0.17315 0.0091386 -0.21649 -0.031192 -0.020809 -0.032211 -0.09537 0.22796 -0.24384 -0.073924 0.039831 -0.065038 0.09083 0.088459 -0.074822 -0.094466 -0.31631 0.009609 0.072588 0.19289 -0.3526 -0.076205 0.37823 -0.07651 0.060979 -0.046161 -0.11721 -0.32942 0.31967 -0.082317 -0.30335 -0.15932 -0.15931 0.22979 -0.055791 -0.35478 -0.075845 -0.043329 -0.11124 0.13062 -0.082469 0.087587 0.43549 -0.3306 0.46135 -0.080367 -0.42083 0.2591 0.026694 0.23013 0.06338 0.10144 0.21661 -0.19892 -0.36068 0.25046 -0.20175 0.14812 -0.2079 0.0062005 -0.036962 0.015116 -0.096185 0.4543 -0.24082 -0.13624 -0.17046 -0.023871 -0.24366 -0.10736 0.14999 -0.31415 -0.35144 -0.010588 0.16334 0.15797 -0.15957 -0.46021 -0.021457 -0.018202 -0.32882 0.31493 0.002316 0.052352 -0.3915 0.10852 0.19572 -0.24776 0.11715 -0.30447 -0.33469 0.14105 -0.035078 0.029046 0.17313 -0.15811 -0.0036532 0.1221 0.10357 0.10456 -0.064431 0.097173 0.30045 -0.076826 0.21369 0.0067788 -0.029079 0.045536 0.25606 0.15695 0.088609 0.33497 -0.026681 0.21805 -0.15518 0.058887 0.16858 -0.0094694 0.21802 0.4261 -0.12286 -0.052651 -0.012683 0.094499 0.1235 0.14188 0.011251 -0.030786 -0.023565 0.14928 0.13302 0.23788 
sagen -0.093521 0.18585 -0.32451 -0.33317 0.30769 0.20183 0.00029495 0.095092 0.27367 0.29014 0.015531 0.35947 0.19093 -0.15117 -0.11982 0.01007 0.092458 -0.015056 -0.19523 0.22984 0.57878 0.33173 -0.13821 0.024124 -0.088401 -0.39746 -0.1106 -0.18434 -0.19337 -0.38456 0.30605 0.29773 0.4146 -0.015242 -0.12785 0.11965 -0.26325 -0.22945 0.043424 -0.052593 -0.064979 0.027422 0.056109 0.20018 0.30496 0.15516 -0.057522 0.063678 0.025906 -0.012562 0.079113 0.14507 -0.066399 0.37993 0.27107 -0.17942 0.26631 -0.17022 -0.0897 0.20042 0.11077 -0.22832 0.12652 -0.20376 -0.077012 -0.27868 0.015918 0.16807 0.079923 -0.0089983 -0.1856 0.16282 -0.058663 0.36457 -0.47739 0.13553 -0.014336 0.34719 -0.032064 -0.086971 -0.27052 -0.30084 0.18761 -0.12517 0.0087459 -0.29867 0.08776 0.0021708 -0.32241 0.056357 -0.17127 -0.099054 0.074661 0.056647 -0.12143 -0.11066 0.11388 0.10263 -0.15377 -0.19181 -0.05072 0.38526 0.17589 -0.07427 0.0076346 0.063194 -0.18362 0.041303 0.1525 0.021589 0.19813 0.032684 -0.14617 -0.3785 0.092056 0.14144 -0.28816 -0.017381 -0.17979 0.38683 0.033291 -0.26124 0.14664 0.19058 -0.17124 0.14109 -0.21414 0.097512 0.19511 0.20242 0.1582 -0.21983 0.051631 -0.10127 0.19084 0.11105 0.29691 -0.16794 0.081523 0.10725 0.089364 -0.054227 -0.23279 0.25185 -0.07235 -0.31051 0.017895 0.12959 0.063041 0.16567 0.37059 0.034866 -0.12963 0.041532 -0.28113 0.21645 -0.65104 0.32166 0.33712 0.10036 -0.07519 -0.13919 0.031763 -0.081568 -0.22616 0.33142 -0.029408 -0.093425 -0.42527 0.35706 -0.17119 -0.024928 0.052083 -0.15698 0.0084016 -0.17417 -0.23858 -0.32416 -0.21495 -0.12004 0.05486 0.32313 0.055103 -0.48647 -0.30887 0.077584 -0.0025223 -0.16379 0.24374 0.12133 0.07846 0.29754 -0.17798 0.042825 -0.26272 -0.021758 -0.024019 -0.029955 -0.22074 -0.16961 -0.33103 0.24368 -0.11318 -0.13073 -0.12408 0.00058443 -0.24771 -0.18891 -0.31054 0.045898 0.43297 -0.25251 0.47591 -0.046195 -0.33006 0.21654 0.053164 -0.079043 0.092015 0.17786 0.23593 -0.084206 -0.18353 0.072558 -0.095319 0.10661 -0.15731 0.19376 -0.086725 0.19207 -0.089554 0.073725 -0.43566 -0.12812 -0.14709 -0.40994 -0.27835 -0.42448 0.059838 -0.3588 0.25306 0.080277 0.059121 0.10138 -0.11897 -0.21409 0.094589 -0.0086489 -0.10471 0.25915 -0.038292 0.30189 -0.05053 -0.58695 -0.11686 -0.52626 0.11004 -0.11149 -0.19231 0.19812 0.19549 -0.27696 0.13963 0.16246 -0.10652 -0.037922 0.055833 0.036401 -0.18329 -0.17738 0.30579 -0.036218 0.23299 0.19938 0.10174 0.030086 0.16388 0.091364 -0.18125 0.10822 -0.18077 0.15216 -0.019247 -0.28497 -0.020905 -0.0023105 0.30888 0.17812 0.066979 0.091027 0.16667 -0.10102 -0.041434 0.17868 0.29827 -0.013115 -0.10408 0.33051 0.064637 0.050277 
aussterben -0.11839 0.24762 -0.21488 -0.84654 0.16948 0.37924 -0.60487 -0.054905 -0.22637 0.16118 0.13198 -0.060572 -0.10664 0.36516 0.35791 0.22846 -0.19142 0.34169 0.089268 0.12988 -0.12111 0.41685 0.12908 0.29722 -0.10876 -0.50202 -0.12188 0.15842 0.017504 0.043691 -0.32276 0.5402 0.21359 0.10952 -0.36235 -0.24203 0.13634 0.10576 0.15879 0.30795 -0.72526 0.19713 -0.06071 0.65234 0.50802 -0.23235 0.18615 0.05679 0.23421 0.24698 0.20123 0.15051 -0.28993 -0.51886 -0.08314 -0.28149 0.19574 0.060564 -0.084721 -0.12825 0.29768 -0.35905 0.41768 -0.40812 -0.77704 0.34925 -0.11578 -0.028628 -0.12161 0.061685 -0.34525 0.0077693 0.37338 0.36839 -0.37221 -0.06791 0.015146 -0.11022 -0.060657 0.41014 0.21109 -0.075488 0.16571 -0.25027 -0.44614 0.28974 -0.21899 -0.20148 -0.54857 0.035028 0.35671 -0.0032477 0.066465 -0.13929 0.27103 -0.38699 -0.0078042 0.031089 -0.40749 -0.12325 -0.43406 0.86299 -0.15383 -0.38364 -0.42083 0.074343 -0.39327 0.2516 -0.29756 -0.42769 -0.25155 -0.43528 -0.63119 0.2446 -0.45896 0.067319 -0.19635 0.016786 -0.14433 0.3422 -0.47929 0.29167 -0.037326 -0.22487 -0.022603 -0.089258 -0.21264 0.1787 -0.090681 0.059688 0.048456 -0.0010208 0.21877 0.57825 0.43052 0.21353 -0.049081 -0.53795 0.43351 0.41678 -0.65948 -0.36496 -0.25898 0.43323 0.83478 0.0056579 0.33923 -0.063683 -0.3274 0.43726 0.21263 -0.99251 -0.67243 0.6742 -0.11016 -0.61207 -0.024351 0.80574 -0.26479 0.53733 -0.19269 0.12912 -1.3397 0.45423 -0.068822 0.16627 -0.099322 0.20509 -0.23396 0.64695 -0.283 -0.011672 0.025669 0.006695 0.32972 0.0071741 0.27226 -0.024308 -0.63189 -0.19988 -0.18789 -0.31574 0.17343 -0.053999 0.09141 -0.021648 -0.32648 -0.59357 -0.56202 0.51634 0.19136 -0.12233 0.05208 0.2359 -0.7987 0.27231 -0.44342 -0.032649 -0.14034 -0.21006 -0.10717 -0.47301 0.18204 0.6412 -0.22912 0.33245 0.040919 -0.38512 -0.12992 0.24552 0.14298 0.0099416 -0.061327 -0.7314 -0.28451 -0.10918 -0.088533 0.27235 0.063554 0.21524 -0.18556 0.023307 -0.4706 -0.37085 -0.11079 0.26707 -0.11007 -0.020959 -0.23721 0.23191 0.17599 -0.3463 -0.089661 -0.20645 0.36472 -0.1125 0.34038 0.022019 -0.25836 0.054834 0.45035 -0.020169 -0.60225 -0.21225 -0.24185 -0.18649 0.086076 0.16784 -0.18179 -0.26432 -0.13496 0.12893 0.018651 0.25178 0.58447 -0.53879 0.3411 -0.012906 0.25391 -0.15006 0.034252 -0.19161 -0.10994 -0.43463 0.18924 -0.013353 0.45442 0.33631 0.25176 -0.19163 -0.07103 -0.16313 -0.032651 -0.16876 0.004049 -0.26715 0.030162 0.25506 0.099753 -0.2544 0.20309 -0.56564 0.014369 0.070664 -0.0056443 -0.49301 0.38191 0.15158 -0.51502 0.74 -0.19709 -0.34923 -0.36912 0.33677 0.073673 -0.055639 -0.31399 0.24237 -0.21017 -0.0035252 
bedrohen -0.42115 -0.32668 -0.31761 -0.92129 0.12893 -0.15699 -0.18032 -0.0012548 -0.18672 0.19091 0.2861 0.32761 0.080361 -0.28129 -0.040391 -0.22515 0.03708 0.089003 -0.20533 -0.055662 -0.12937 0.11873 0.096737 0.021076 0.16207 -0.7428 -0.056056 0.26377 -0.34274 -0.28205 0.15804 0.12543 0.50732 -0.21158 -0.22119 -0.071983 -0.062098 0.013825 -0.18497 0.040088 -0.2302 -0.49169 0.2588 0.27423 0.25958 0.1686 0.18908 -0.079017 -0.11343 0.23889 -0.15349 0.046971 0.073575 0.19363 -0.0042853 -0.13424 0.36005 0.15338 -0.19902 0.13801 0.35964 0.3123 0.16361 -0.14919 -0.22879 -0.087882 -0.12828 -0.020232 0.14179 0.18982 -0.11435 0.13638 -0.051299 0.40652 -0.11326 0.13183 0.073659 0.094345 0.078922 -0.0070692 -0.47486 -0.018924 0.00042541 0.18165 0.066086 -0.14197 0.078752 0.068792 -0.37068 -0.030268 0.099518 0.21667 0.065504 -0.18818 0.14312 -0.14215 0.07796 0.11756 -0.13322 0.46124 -0.24535 0.1168 0.018204 -0.25252 -0.30058 -0.65737 -0.32216 -0.069292 -0.09794 -0.46366 -0.15308 -0.17429 -0.33189 -0.012913 -0.088907 0.13393 -0.28278 0.054522 -0.17587 0.1771 0.010343 -0.038592 0.16442 -0.051994 -0.018454 -0.088681 -0.19691 0.033609 0.31381 -0.020634 -0.034635 -0.050395 -0.26182 0.22768 0.30485 -0.0030274 0.27016 -0.27971 0.51786 -0.297 -0.00033828 0.29808 -0.30898 0.11085 0.072208 -0.16895 0.19953 0.012764 0.048654 0.68223 0.095073 -0.093911 -0.5068 0.43247 -0.32007 0.063672 0.062077 0.33745 -0.089791 0.30839 -0.48707 0.14315 -0.46708 0.17726 0.28545 0.27854 -0.0083844 -0.17292 0.18422 0.15771 -0.26664 0.063984 -0.0045216 0.49342 0.14203 0.1744 0.07382 -0.15236 -0.15739 0.29289 -0.035398 -0.1818 -0.091976 0.11408 0.35846 0.013953 0.095454 -0.089912 0.36859 0.26601 0.39299 -0.21038 -0.10216 0.096014 -0.16442 0.28609 -0.15256 0.46433 -0.045635 0.068295 -0.12987 -0.19221 -0.29308 0.30414 0.31848 0.36712 -0.12698 -0.17881 0.13014 0.23782 0.27398 -0.14335 -0.075153 -0.21248 -0.095015 -0.12602 -0.15718 0.32976 -0.18955 0.5165 -0.12247 -0.43486 -0.23119 0.029406 0.13534 -0.16012 0.012618 0.14006 0.041436 0.47198 -0.20222 -0.18198 -0.24858 -0.16623 0.42877 -0.28508 0.023287 0.077036 -0.2833 0.0022701 -0.019023 -0.259 -0.17266 -0.0011143 -0.062596 -0.16883 0.25496 -0.11826 -0.0019218 0.40221 -0.69452 0.40564 -0.66066 0.08397 0.53197 -0.48556 -0.17241 -0.45757 -0.098169 0.059114 -0.0071162 -0.34551 -0.23672 -0.0616 -0.12982 -0.31872 0.070605 -0.13458 0.16558 -0.21971 0.063991 -0.020942 -0.0018709 -0.35237 -0.073853 -0.48612 -0.18107 0.31844 -0.011568 0.57617 -0.072911 -0.028548 0.19484 -0.055616 -0.21925 -0.37304 -0.058103 0.061513 -0.48316 0.37541 -0.15105 0.27447 0.18512 0.25523 -0.32953 -0.44206 -0.010516 0.53602 0.08119 0.22557 
auto -0.014643 0.55439 -0.28093 0.027291 0.28217 0.030249 0.25542 -0.2392 0.17735 0.10155 0.025624 0.20391 0.27059 -0.22008 -0.2514 0.41596 0.14599 0.0045326 -0.34334 0.028136 -0.14835 0.47775 0.096796 0.43476 -0.061422 -0.061474 -0.33621 0.13305 0.43456 -0.43837 -0.24382 0.071119 0.10677 0.10323 0.27304 0.29397 -0.00094505 0.031332 0.22664 0.041159 0.38637 -0.30003 -0.3292 0.33021 0.39135 -0.24854 0.40132 0.14363 0.19193 0.15657 -0.11898 0.29881 -0.54489 -0.075611 -0.13562 0.17249 -0.22078 -0.22089 -0.19334 0.19802 -0.062759 0.0051752 -0.095782 0.20065 -0.044957 0.029135 0.022483 -0.16268 -0.37028 -0.20028 -0.006335 -0.41774 -0.13771 0.18947 -0.10429 0.084286 0.57348 0.013686 0.27181 0.25971 -0.17404 -0.43537 0.69136 0.34631 0.033135 -0.18652 0.53588 0.17982 -0.3849 -0.16829 -0.52834 -0.20229 -0.023467 0.44825 0.27948 0.56029 0.13101 0.62954 0.12714 0.25622 0.026484 -0.18197 -0.34591 -0.15372 0.20573 -0.10339 -0.18083 8.1458e-05 -0.0053158 0.096993 -0.31172 -0.29529 0.34338 -0.065932 0.61386 -0.11684 -0.29496 -0.23531 0.076734 0.18617 -0.12837 -0.089998 0.14497 0.21343 0.15781 -0.033662 0.45579 -0.10719 0.15414 0.049117 0.097468 0.04482 0.11487 0.14432 0.20932 -0.06935 0.11121 0.027069 0.165 0.093927 -0.097575 -0.071331 0.13343 0.055171 -0.1217 -0.069077 -0.041824 0.01149 0.034361 -0.045561 0.10553 -0.066238 -0.33048 -0.18571 -0.47666 -0.10044 -0.063739 0.58955 0.13989 0.25141 -0.67786 0.1008 0.072006 0.029848 -0.2901 0.23124 -0.47484 -0.0051574 0.56476 0.24007 0.33035 -0.35321 0.31957 -0.18332 0.081023 0.40394 -0.33033 0.11381 0.36416 -0.15477 -0.47712 0.032399 -0.1165 0.14296 0.0041379 0.035644 -0.002941 0.27312 -0.32166 0.3625 0.43248 0.47406 0.42047 0.12652 -0.42937 0.057471 -0.15392 0.68888 -0.42666 -0.1701 -0.048061 -0.19639 0.57126 -0.39036 -0.13802 0.015475 -0.31164 -0.14344 0.19944 0.31813 0.53722 -0.064509 0.33825 -0.25045 -0.32076 0.29081 -0.19998 -0.11813 0.16024 -0.22408 0.086266 0.24271 0.055801 -0.13293 -0.24135 -0.057904 -0.068983 -0.15226 0.24886 0.13199 0.42254 0.01619 -0.1444 0.19458 0.44563 -0.28985 -0.15571 -0.26842 -0.2338 -0.47598 -0.10161 0.46637 -0.13833 0.046833 -0.19855 -0.30592 0.092914 -0.091433 -0.051292 -0.0059738 -0.51499 0.35202 -0.23718 -0.12054 0.22016 -0.29087 0.23578 -0.21833 -0.28883 0.28308 0.66 0.21071 0.10701 -0.010401 0.47246 0.47012 0.25041 -0.2821 0.12671 -0.096191 -0.24397 -0.092213 0.2926 -0.45726 0.17604 -0.17079 0.43778 0.30838 -0.050228 0.45423 -0.049104 0.46749 0.45416 0.15032 0.2592 -0.6006 -0.62797 -0.14231 -0.081375 0.11211 0.0331 0.48111 0.1474 0.1775 0.10913 -0.30485 -0.57023 -0.12425 0.39975 -0.1393 
fahren 0.088181 -0.0041353 -0.31437 -0.30726 0.1217 -0.043314 -0.042878 -0.13226 -0.13102 0.2329 0.46384 0.23883 -0.29491 -0.017765 -0.36132 0.15388 0.16589 0.10458 -0.022714 -0.17125 0.063603 0.37798 -0.16833 0.30082 0.048597 -0.27371 -0.15378 -0.30984 0.1783 -0.2373 -0.24716 -0.064022 0.18453 -0.24847 0.3327 0.24959 -0.13122 -0.34406 0.077539 0.064348 0.27917 -0.1057 -0.2099 -0.088285 -0.06113 0.0017528 0.30502 0.16503 -0.27517 0.39861 0.40785 -0.40471 -0.14282 -0.060214 0.16364 0.28476 0.008903 -0.14722 0.057871 0.052646 0.19011 0.081002 -0.29785 0.027911 -0.068539 -0.15018 -0.33203 -0.29765 0.018782 -0.12541 0.0047039 -0.018024 -0.30375 0.18973 -0.067353 0.16722 0.26357 -0.082295 -0.34699 0.34273 0.14257 -0.43411 0.55169 0.31014 0.0072013 -0.21163 0.2438 0.68602 -0.45232 0.042478 0.16304 -0.00017381 0.01372 0.4232 -0.19784 0.18766 0.043331 0.26083 -0.039489 -0.31474 0.14748 0.047615 -0.16898 -0.046117 0.23914 -0.30674 -0.18251 -0.27491 -0.27628 0.25408 0.22304 -0.26824 -0.01909 -0.1416 0.21391 -0.45149 -0.52861 0.077616 0.033605 0.36938 -0.034285 -0.38459 0.24584 -0.081092 0.084476 0.18852 -0.035011 -0.17964 0.48822 0.14439 -0.084445 -0.10279 -0.33104 0.23056 0.39499 -0.27071 0.13041 0.11711 0.41844 -0.33686 -0.14935 0.052917 -0.33664 0.29567 -0.23826 0.034738 0.060055 -0.0077904 -0.3215 0.098967 -0.042724 -0.26265 -0.20711 -0.095861 -0.28352 -0.27172 -0.35937 0.44331 -0.017778 -0.037979 -0.44394 0.18773 0.21239 0.043105 -0.3925 -0.028595 -0.41241 0.09783 -0.20867 0.1061 -0.46463 -0.38186 -0.088661 0.09568 0.21296 0.044739 0.23601 0.13533 -0.10129 0.043343 -0.32802 0.00096056 0.16716 -0.13885 0.23512 -0.024502 0.067456 0.13886 -0.12238 0.39027 0.55165 0.33596 0.28598 -0.102 -0.092829 -0.14946 -0.15954 0.40285 -0.36118 -0.14414 -0.29262 0.20876 0.33512 -0.10873 0.21589 0.21343 -0.2564 -0.39228 -0.092325 0.20494 0.5805 -0.18568 0.35863 -0.17868 -0.073265 0.31213 -0.16353 -0.63439 0.25952 -0.012193 -0.25372 0.12526 -0.20676 0.14557 -0.32645 0.35805 0.30024 -0.41449 -0.14465 0.41794 0.39562 -0.43285 0.078074 -0.22196 -0.27725 -0.29808 -0.13377 -0.16234 -0.083789 -0.39637 -0.11742 0.0544 -0.13992 0.24403 -0.21146 -0.15798 0.11725 0.0025904 -0.096194 0.89858 -0.61042 0.39166 -0.20437 0.12242 0.16825 -0.16485 0.45043 -0.42393 -0.17956 -0.051663 0.28414 -0.14995 -0.04315 0.34468 -0.16949 0.46844 0.13266 -0.36665 0.13732 -0.24713 -0.27487 -0.052862 0.01696 -0.11803 0.034015 0.26147 0.1531 0.30726 -0.19887 0.28757 0.012413 0.51244 -0.022835 0.17749 0.16597 -0.2019 -0.2837 0.116 -0.47832 0.047661 0.10313 0.5189 -0.03739 0.42173 -0.35129 -0.106 -0.44388 -0.17726 0.1126 -0.048522 
