entrada -0.25425 -0.26939 -0.28296 -0.14776 -0.087161 0.19016 0.075839 0.29556 -0.11035 -0.34071 0.19071 -0.18789 0.053342 0.029513 -0.21685 0.052911 -0.091702 0.16222 -0.20453 0.008203 0.18364 0.26923 -0.03467 0.07413 -0.04466 -0.12185 0.085708 -0.29763 -0.21794 -0.36151 0.076576 -0.2374 -0.16756 -0.26168 -0.11536 0.19218 -0.32165 -0.18154 -0.10184 0.0060088 -0.062207 -0.15646 0.1674 -0.25629 -0.083074 0.015693 0.20488 -0.29765 -0.16511 -0.035892 -0.1918 0.12921 -0.23683 -0.15391 -0.040203 -0.01626 0.13146 0.33971 -0.18534 -0.02769 0.023519 0.10081 0.16939 -0.15505 0.064189 -0.031442 0.13548 0.089845 -0.226 0.12388 -0.15738 -0.052762 -0.077801 -0.033342 -0.59026 0.037093 -0.17939 0.052868 0.082554 0.03174 -0.13412 0.083136 0.2238 -0.11973 -0.30891 -0.037392 -0.17453 -0.19358 -0.13876 0.14978 0.40887 0.17568 0.033431 0.12702 0.04849 -0.053995 -0.57525 0.061363 0.089044 0.32477 0.17785 0.030407 0.054511 -0.17802 -0.50274 0.051896 0.053982 0.13376 0.34643 0.042161 -0.17849 0.12461 0.074853 0.18764 -0.042234 0.027634 0.41673 0.24527 0.2795 0.086155 0.15544 0.23867 0.25812 -0.31723 -0.31233 -0.38778 -0.030417 -0.072934 0.18643 -0.028812 0.24224 -0.11557 -0.2756 0.052632 -0.48705 0.11952 0.15285 0.039985 -0.61585 -0.2796 0.20178 -0.29002 0.28077 0.0059376 -0.22419 -0.23703 0.12653 -0.042644 0.26541 0.34482 -0.032297 -0.10982 0.11239 -0.21753 -0.32033 -0.23301 -0.12603 0.070713 -0.082259 -0.033562 -0.050463 -0.05104 -0.046911 -0.078616 0.029607 0.13971 0.17684 0.056835 -0.0326 0.052296 -0.044064 -0.34658 0.29889 0.036805 -0.097688 -0.36472 -0.1583 -0.056182 -0.076938 -0.098255 -0.24777 0.71407 -0.22149 0.037816 0.17284 -0.27812 -0.37563 -0.21313 -0.12675 -0.097496 0.22465 -0.065661 0.019509 -0.21734 -0.020123 -0.47385 0.19598 -0.079051 0.079082 0.18342 -0.30019 0.049491 0.057029 0.11194 0.18804 -0.15231 -0.08033 -0.114 0.11654 0.041863 0.024196 0.21774 -0.58986 0.14577 -0.13593 -0.20394 0.13758 -0.13481 -0.068509 0.16276 -0.49771 -0.35795 0.26768 -0.10668 -0.32579 0.0058851 0.076012 -0.25957 -0.053383 -0.19871 0.10134 -0.089367 -0.065286 0.17148 0.53288 -0.14949 0.23906 0.15742 -0.22039 -0.0012789 -0.087082 0.14754 0.21744 -0.10534 0.3788 -0.055048 0.21879 0.077536 0.18859 0.011768 0.078356 0.21777 -0.050329 0.30215 0.18771 0.2481 -0.013822 0.294 -0.058948 0.07522 0.34883 0.12177 0.26104 -0.19161 0.23262 -0.07667 -0.023257 -0.14273 -0.1735 -0.14598 -0.3585 0.18719 0.19141 0.079643 0.23552 0.037649 0.061371 -0.28212 0.15041 0.11652 -0.076154 0.15436 -0.15496 -0.28534 -0.0033239 -0.24921 0.12229 0.048653 -0.068406 -0.21503 -0.50222 0.032815 0.15902 0.11054 -0.50266 -0.020905 -0.3059 -0.085896 0.075059 0.14184 
boleto -0.27319 0.028508 0.11789 0.1421 -0.41929 0.48652 -0.42623 0.015512 0.16475 -0.08348 0.097439 0.17329 0.14737 -0.26935 0.20452 0.052929 0.43131 0.33138 0.42025 0.028061 0.045825 0.15058 -0.23185 -0.34901 -0.21593 0.45207 -0.2952 0.38293 -0.42249 0.11137 0.026127 -0.090281 -0.1259 -0.18192 0.28529 -0.071164 -0.080553 -0.21831 0.2267 0.27523 0.24165 -0.17365 -0.26073 -0.31715 -0.24038 -0.21958 0.044612 0.020515 -0.36974 -0.0035084 0.079504 -0.3859 0.024942 -0.075927 -0.23514 -0.40735 0.10446 0.14939 -0.18582 -0.020175 0.39206 0.044761 -0.096446 -0.064687 -0.039152 0.13971 0.2476 0.22814 0.14118 0.11111 -0.60507 -0.30425 0.14392 0.08715 -0.14076 0.24236 -0.24014 0.4661 -0.21932 0.22423 -0.6031 0.020361 0.22359 0.023119 0.44647 -0.41492 0.20267 0.16039 0.33652 -0.00010041 0.15802 -0.18641 -0.095548 -0.14452 0.34672 -0.49664 -0.21805 0.10074 -0.070782 -0.11363 -0.094649 -0.019042 -0.1303 -0.24328 -0.48863 0.032447 -0.1618 -0.030356 0.23833 -0.2094 -0.0055344 0.3522 0.39947 0.23203 -0.21243 0.74129 0.0044913 0.41824 0.16791 -0.047362 0.56223 0.47013 0.25456 -0.38528 0.040125 -0.076931 -0.16718 -0.16386 0.075632 0.22002 -0.0050011 -0.18859 -0.24449 0.39545 -0.25716 0.54518 -0.066071 0.15567 0.31748 0.053709 -0.32621 -0.25341 -0.12137 0.4014 0.18933 -0.16163 0.19744 0.29892 0.29087 -0.0098823 0.18046 0.22758 0.2102 0.11147 -0.61326 -0.08532 -0.42938 -0.12795 0.3072 0.34681 0.010179 -0.15468 0.11546 0.28675 0.31755 0.062167 0.17665 -0.45219 -0.60358 0.1461 0.14155 0.060747 -0.11997 -0.19588 -0.30577 -0.66368 -0.29484 -0.29449 0.20669 0.14045 0.012903 0.35203 -0.25112 0.12381 0.63082 0.41245 -0.5067 -0.12114 -0.23954 0.36623 -0.1051 -0.29007 -0.12464 0.12234 0.64049 -3.7978e-05 0.21905 0.13614 0.27962 0.17051 -0.060763 -0.12216 0.10202 0.084986 0.084725 -0.078545 0.1725 -0.14197 -0.21384 0.28245 -0.029892 0.37153 0.048361 -0.24971 -0.34257 -0.53846 0.073323 0.16924 -0.023849 -0.097499 -0.15896 -0.20634 -0.3401 -0.58733 0.31615 0.36258 -0.37758 -0.25476 -0.33154 -0.24938 0.17984 0.16561 0.056688 -0.039646 0.17312 -0.045207 0.19017 0.17233 -0.45005 -0.045583 0.2577 -0.181 0.53514 -0.050453 0.0094493 0.27313 0.21341 0.34809 0.32656 0.18115 -0.15813 0.13521 0.11577 0.10213 0.21425 0.010542 -0.27494 -0.096778 -0.02493 -0.40691 0.09031 0.024694 0.16139 0.026441 -0.28718 -0.25433 -0.30505 -0.19559 0.08205 -0.09505 -0.43202 0.41323 0.19915 0.53942 0.056927 0.33599 0.16539 -0.23486 -0.44229 0.10456 0.10852 0.05855 0.44686 -0.52265 0.1585 -0.2463 0.051035 -0.28317 -0.035911 0.16361 -0.049326 -0.12742 0.23073 0.39865 -0.3061 -0.19121 -0.64963 0.38864 -0.39213 -0.12631 
alcohol 0.036787 -0.1011 -0.10576 -0.28373 0.35789 -0.25649 -0.17605 0.35947 0.20907 -0.21202 0.026326 0.31769 0.34988 -0.17745 -0.12032 -0.25086 0.33251 0.017336 0.19654 -0.093812 -0.21205 -0.32029 -0.15417 -0.055874 0.2639 0.31953 -0.22315 0.1862 0.2919 -0.15916 0.067493 0.076623 0.06322 0.17326 -0.089329 -0.10349 0.25287 0.28316 -0.054348 0.32626 0.63088 0.071451 -0.13246 0.34695 0.23927 -0.42933 0.22319 -0.090379 0.20103 0.38909 0.2085 -0.28719 -0.38279 -0.19082 -0.05295 0.16157 0.0069713 -0.46667 0.30799 -0.40857 -0.066235 -0.24845 -0.52829 -0.29087 -0.33584 -0.37622 0.36798 0.24797 0.12916 0.479 -0.34938 0.18754 -0.098104 -0.089991 -0.11548 -0.0079071 -0.058227 -0.11977 -0.05772 0.043128 -0.092493 -0.14914 0.50164 -0.28476 0.097093 -0.1153 0.43134 0.31605 0.47598 0.024038 0.11416 0.25096 0.15702 0.016345 -0.024804 -0.2564 0.031371 0.40187 -0.22713 0.23592 -0.12061 0.59069 0.24559 0.12604 -0.35056 0.036724 0.066769 -0.19491 0.20213 -0.1292 0.11458 -0.18101 0.21398 0.35832 0.30878 0.11852 0.34808 0.18499 0.22875 -0.096095 0.061169 0.16951 0.0083496 -0.38489 -0.27069 0.25419 -0.024445 0.11699 0.35147 -0.058428 -0.1479 -0.33763 -0.53184 0.1551 -0.16529 0.40947 0.296 -0.0019835 0.099111 -0.16359 -0.29573 -0.089376 0.033131 0.00029818 0.10711 0.077448 0.18109 -0.0051479 0.53045 0.10931 -0.53346 0.10842 0.21201 0.071614 -0.21709 -0.36655 0.10248 0.45175 0.19007 0.054476 -0.1593 -0.012514 0.071746 0.43696 0.081966 -0.25187 0.3431 -0.10233 -0.16725 0.051658 0.19226 -0.19307 -0.085317 0.18025 -0.32785 -0.17124 -0.022389 -0.21871 0.33727 0.15041 0.23634 0.40366 0.050354 -0.098069 0.55008 -0.13501 -0.1924 0.06617 -0.056302 0.13 -0.093756 0.21361 0.34934 0.27687 -0.56993 0.38588 0.22491 -0.51966 -0.0081661 0.29183 0.22402 0.13167 0.33504 0.069536 0.096942 -0.14868 -0.12308 0.15244 0.090944 -0.3072 0.017225 0.21693 -0.37128 0.37538 -0.48275 0.15258 0.18893 -0.05267 -0.060677 -0.31453 -0.5704 -0.22948 0.23342 -0.74781 0.30043 -0.23296 -0.69917 -0.17436 0.086293 0.098477 0.7779 -0.035068 0.41078 -0.16953 -0.24064 0.059368 -0.073096 0.73107 -0.084025 -0.09923 0.1711 0.019981 -0.088526 -0.025749 -0.5888 0.16171 0.33723 -0.16084 -0.058096 0.19118 0.17226 -0.6707 0.17711 -0.12752 0.11416 0.37038 -0.0086729 0.53994 0.24016 -0.29759 0.30529 -0.066653 -0.4784 -0.39648 -0.17033 0.016389 -0.2902 0.2629 0.18433 0.02663 0.20066 -0.14463 -0.315 0.2138 0.12614 -0.050732 0.65583 0.16057 0.10352 0.47149 -0.49832 -0.089121 -0.29267 -0.42033 -0.26513 -0.11971 0.042494 -0.048143 0.055307 -0.23626 0.18197 -0.71763 0.11443 -0.28277 -0.62428 -0.41978 0.040649 0.023057 0.20688 -0.39577 
quimica -0.71339 -0.33287 0.095009 0.0025807 -0.35547 -0.26723 0.21364 -0.34724 0.41855 0.12835 -0.56818 0.34434 -0.14717 -0.29518 -0.051212 0.21604 0.13545 0.91058 0.25327 0.50444 0.30713 -0.26396 -0.0051308 0.22773 0.20973 0.2485 -0.44215 0.099107 -0.17847 -0.38315 -0.16059 0.32732 0.39812 -0.021071 0.19986 -0.11736 0.21 -0.23652 0.40818 0.054578 0.24315 0.11491 0.045946 -0.15303 0.18527 -1.0955 -0.078735 -0.28267 0.21905 0.20274 0.079432 -0.029112 -0.52086 0.35464 0.39482 -0.3091 -0.54372 -0.17646 0.093332 0.43155 0.19032 -0.22412 -0.19718 -0.27854 0.74515 -0.011473 -0.097111 0.63344 -0.47484 0.013229 -0.8433 -0.23987 0.06125 -0.11672 -0.46605 -0.029998 0.1656 -0.20278 0.31192 0.44407 -0.12927 -0.14696 0.64483 0.52465 -0.13993 0.2322 0.11679 -0.074575 0.27725 -0.32083 0.23695 0.13503 0.24589 0.071928 0.042302 -0.50016 -0.93792 0.19023 -0.34033 -0.29744 0.3189 0.11403 -0.11559 -0.46723 -0.71822 0.18474 0.096726 -0.10997 -0.11372 0.10093 0.47566 0.33129 0.099147 0.49615 0.077065 0.36292 0.21435 0.38847 0.033682 0.066042 0.24691 0.44838 -0.73911 -0.70446 -0.40456 -0.38365 0.19548 0.30932 0.1907 -0.20938 0.19697 -0.10766 0.14186 0.29133 -0.17836 0.27221 0.58935 0.0032494 -0.03669 -0.24229 -0.14083 0.19281 0.10741 0.073346 0.26153 -0.05456 0.14215 0.0037306 -0.18628 -0.048389 -0.20626 -0.32196 -0.33444 0.39643 0.059851 -0.26178 -0.27695 -0.18966 0.16501 -0.074885 -0.092417 0.072303 -0.0079627 0.089698 0.34056 0.31247 -0.23054 0.1146 -0.57522 0.019339 -0.11449 -0.40118 0.11454 -0.25441 -0.096974 0.14648 -0.093256 -0.11729 -0.23981 -0.26218 -0.021857 0.25048 0.011378 0.13299 0.2392 -0.2554 -0.032169 0.4588 0.20824 0.15573 -0.43803 -0.19642 -0.11885 -0.35856 -0.39646 0.24328 0.025036 -0.12983 0.0085116 -0.24753 0.071969 -0.33278 0.48712 -0.30778 -0.34757 -0.23042 0.1867 -0.038192 -0.2798 -0.029772 0.16305 -0.22207 -0.27301 0.18018 -0.09742 -0.091241 0.28657 -0.10328 0.025248 -0.068144 -0.621 -0.65704 0.61666 -0.33802 0.25577 0.32306 -0.59788 -0.14572 0.40731 -0.28994 0.64865 -0.12263 0.21224 -0.24221 -0.080863 -0.15892 0.39678 -0.19329 0.0027257 0.028519 -0.25588 0.004001 0.20008 0.52229 -0.26956 0.2439 -0.47006 -0.078392 0.10349 -0.55747 0.2199 0.039284 -0.021077 -0.030819 -0.39998 -0.03516 0.24694 0.20721 -0.44793 -0.095439 0.016688 -0.375 -0.098637 0.49897 -0.32542 0.15949 -0.76386 0.15361 0.31665 0.5874 -0.096914 0.022309 -0.20356 -0.073359 0.3613 -0.6013 0.14822 -0.12296 -0.26063 0.45321 -0.67345 0.29757 -0.15119 0.044853 0.12973 0.47457 0.052127 -0.15152 0.054658 0.27413 -0.21835 -0.4456 0.58307 -0.10612 -0.24374 -0.3653 0.56559 0.10715 0.60871 0.14535 
aluminio -0.34074 -0.22916 -0.40241 -0.39169 0.047271 0.10968 -0.18298 -0.13699 0.018896 -0.36794 0.030956 -0.71226 -0.21985 -0.1326 -0.096473 0.14295 0.017814 0.1441 0.24464 0.65513 0.44937 0.032738 -0.23944 -0.25699 0.14135 -0.15282 -0.17087 -0.33364 -0.4793 -0.11209 0.029091 0.55715 -0.59659 0.29906 -0.31907 -0.098061 0.032147 0.060413 0.25757 0.1781 0.85372 0.27434 0.15438 0.078558 0.36128 -0.35646 0.030695 -0.083073 -0.049993 -0.0080831 0.18987 0.077287 -0.15096 0.063419 0.14214 -0.56967 0.077103 -0.00022166 0.26891 -0.32165 0.39959 0.0022323 -0.35138 -0.56724 -0.078604 0.071427 0.12855 -0.086715 0.11852 -0.048 -0.36911 0.35824 -0.10915 -0.17031 -0.57167 -0.020579 0.13963 0.22291 0.34969 -0.28723 0.066159 0.020613 0.35583 0.16746 0.62711 0.1103 0.62891 0.19657 0.52886 -0.0039938 0.35082 0.41636 0.17117 -0.16094 -0.2287 -0.12667 -0.45004 0.04641 0.054238 -0.3004 -0.0058945 0.075958 -0.43679 -0.28893 -0.35445 0.18454 0.38465 0.46545 0.24754 0.10101 0.11828 0.20163 0.42381 0.22027 -0.16705 0.12932 0.48024 0.27556 -0.1656 -0.15874 -0.1886 0.40593 -0.30221 -0.049699 -0.45366 0.068689 0.20559 0.22725 -0.10628 0.45999 -0.28939 0.21696 -0.04187 0.15669 0.22373 -0.11099 -0.16371 0.37886 -0.12268 0.16829 0.080323 0.10397 0.07177 0.36319 0.59035 -0.043614 0.13977 -0.25278 0.27882 0.48976 -0.42993 0.027716 0.13221 -0.02996 -0.056251 -0.23963 -0.6609 0.17126 0.044425 0.024879 -0.68607 -0.039503 -0.185 0.3925 0.25357 0.2271 0.21944 -0.1344 -0.46961 0.068144 0.15906 -0.02512 -0.19702 0.23503 -0.031889 -0.034352 -0.061917 -0.17069 -0.23539 0.027844 0.063581 -0.01679 0.19586 0.11335 0.51673 -0.30916 -0.31128 -0.49575 0.051772 0.073712 -0.024849 -0.086336 0.091952 0.0090073 -0.24915 -0.0093743 0.1503 -0.48161 0.2852 0.18086 -0.12545 0.085504 0.9283 -0.023981 -0.25145 -0.025766 -0.031349 0.077539 0.039942 -0.15156 0.15903 -0.0040614 -0.57728 -0.015553 -0.37507 -0.1543 0.11165 -0.17577 -0.03041 0.19023 -0.08646 -0.70127 0.13524 -0.55934 0.014976 0.038374 -0.42717 -0.26572 0.33149 0.17299 0.50495 -0.15599 0.58219 -0.0013791 0.30215 -0.0020501 0.0073598 0.10604 -0.11955 0.41464 -0.20259 0.13812 -0.032508 0.19335 -0.2393 0.40409 -0.053398 -0.44771 -0.0039047 -0.2233 -0.43282 0.15988 -0.092148 0.10058 -0.57588 -0.16546 -0.20548 0.040109 -0.13525 -0.036374 0.63026 -0.10528 -0.19351 0.028116 0.10492 -0.07612 -0.19501 0.012699 0.68517 0.24773 0.13671 -0.031449 0.046278 -0.090823 -0.20941 -0.76635 0.016254 0.078333 0.21036 0.48078 -0.3867 0.17448 -0.053618 -0.48657 0.28711 0.19466 -0.42733 0.040677 -0.077626 -0.13452 0.1554 -0.52892 -0.43231 0.14522 -0.19315 0.18121 0.045362 0.085452 0.3307 -0.21767 
metal -0.3929 -0.50518 -0.36731 -0.6678 0.056218 0.21524 -0.31494 -0.048082 0.15348 -0.31967 -0.11198 0.13338 0.16419 0.097865 0.15262 0.085934 -0.0014875 0.11676 0.023224 0.44078 0.17992 0.20125 -0.64824 -0.40169 0.25726 0.2123 -0.26404 -0.03716 -0.18578 -0.24599 -0.6898 -0.042155 0.10185 0.26833 0.112 0.32428 0.24961 -0.29349 0.21973 0.25584 0.84563 0.081087 0.9272 0.0092926 0.33838 -0.19513 -0.10985 0.01805 -0.1136 0.54956 -0.14575 -0.25589 -0.091124 -0.15709 0.13383 -0.61173 0.079365 0.084378 0.24406 0.088596 0.058592 -0.00090272 -0.14963 -0.078934 -0.23259 -0.10731 0.0042581 0.0092201 -0.25609 -0.38184 -0.29814 0.060651 0.13801 -0.24358 -0.40186 0.39355 0.34873 -0.098537 0.25092 0.0035221 0.027374 0.088698 0.52741 0.023761 0.15552 0.41466 0.43225 0.1489 0.53752 0.22107 0.65474 0.32292 0.033272 0.2374 -0.28688 0.23849 -0.77339 0.35809 0.02592 -0.48765 -0.34154 0.4303 -0.070878 0.27442 0.0094581 0.45519 0.40356 -0.087734 0.47152 0.11407 0.55026 -0.079056 -0.040972 0.11406 -0.38562 0.79672 0.11675 0.6358 -0.47995 0.23712 0.10298 0.42467 -0.13363 0.60403 0.018153 -0.34725 0.14263 0.18039 -0.020927 0.61191 -0.21469 0.12094 0.013757 0.094689 0.079161 -0.22103 -0.3034 0.15397 -0.14497 0.1297 -0.36022 0.013578 0.17352 0.3815 0.20066 0.2202 0.24688 -0.42526 0.040922 0.10557 -0.066201 0.19722 -0.40844 -0.25302 -0.094408 -0.26849 -0.5201 0.13101 0.014732 -0.05271 -0.3665 0.1518 0.27715 0.20312 0.54599 0.093471 0.23411 0.099728 -0.1315 0.20056 -0.16516 0.041715 -0.11101 0.022502 -0.4519 -0.24916 -0.14283 -0.0511 0.08021 -0.13571 0.066871 0.096363 0.066236 0.11044 -0.011198 0.23049 -0.48373 -0.35469 0.33158 0.3809 -0.090479 -0.21526 -0.29223 -0.28212 -0.49298 -0.21204 0.24232 -0.32077 -0.018992 0.29124 0.17657 -0.34791 0.23502 -0.10041 -0.1518 -0.15898 -0.13252 -0.0094289 0.0021361 -0.020913 0.013432 0.0046977 -0.18414 0.10321 0.077487 0.5459 -0.018744 -0.12071 0.53972 -0.16989 -0.089044 -0.48849 0.33103 -0.84955 -0.040396 -0.5783 -0.14633 -0.10393 0.13227 0.32642 0.47267 0.24527 0.035928 0.45677 -0.20995 0.13266 -0.45491 -0.31372 -0.4055 0.40856 -0.13537 0.25847 0.36251 0.0041769 0.16309 -0.050878 -0.18928 -0.25017 0.21598 -0.38863 0.15461 -0.23402 -0.26864 0.34703 -0.19117 -0.037556 0.063821 0.1695 -0.28148 0.1972 0.12856 -0.1547 -0.54022 0.083868 -0.52369 -0.26667 0.28143 -0.02797 0.021751 -0.23279 0.21449 -0.24429 -0.57615 -0.27875 -0.12412 -0.26736 -0.087741 0.013973 0.30533 0.32643 -0.087218 -0.0008423 -0.038794 -0.19104 0.24432 -0.21321 -0.49501 -0.017652 -0.064958 -0.26977 -0.17613 -0.25609 -0.61317 -0.057499 -0.49331 -0.039622 -0.13288 -0.12501 0.26192 0.047023 
anuncio 0.36298 0.06997 -0.13312 0.13567 -0.06115 0.023162 -0.15555 -0.47042 -0.099093 -0.23103 0.082013 0.12376 -0.21426 0.074819 -0.19929 0.18126 -0.12723 0.17087 0.05571 0.049056 -0.23673 -0.017057 0.23435 -0.040259 -0.25817 0.0089522 -0.23716 0.15171 -0.38918 -0.18939 -0.12073 0.048493 -0.26667 -0.31168 0.13879 -0.045074 -0.50185 0.095485 0.03664 0.1568 0.31227 -0.19068 0.11448 -0.13903 -0.054917 -0.43649 -0.068324 0.29488 -0.24388 -0.15625 0.18067 -0.36384 -0.20374 -0.31808 -0.013507 -0.25583 -0.22172 -0.33699 -0.043434 -0.48911 0.10776 -0.0034609 0.15825 0.13922 -0.084933 0.074414 0.19665 0.22999 -0.22346 0.025354 -0.50376 -0.024395 -0.2123 0.10474 -0.39788 -0.020246 -0.11179 -0.034574 0.090432 0.15209 0.13058 -0.32698 0.18896 0.21563 -0.13996 0.036204 -0.10207 0.25583 0.10197 -0.24794 0.36724 0.13721 0.11584 -0.15346 0.17469 -0.28704 -0.10595 0.1348 0.46784 -0.20286 -0.096607 -0.14081 -0.10116 0.098057 0.082636 0.0092667 0.14333 -0.10336 -0.087759 0.00021918 0.24351 0.038989 0.14446 0.26505 -0.22686 0.072107 0.1814 0.066913 -0.070442 0.18634 0.12431 0.17674 0.2748 -0.13135 -0.097548 -0.066425 0.020056 0.26154 0.3328 0.32838 0.34748 -0.30302 0.0033105 0.045288 -0.30504 -0.094422 0.22647 0.11799 -0.34217 0.10775 -0.21376 -0.10442 -0.048783 -0.26665 0.26628 0.3186 0.067698 -0.0088965 0.17574 0.38946 0.13548 0.12793 0.16604 0.12102 -0.45222 -0.18628 0.23169 -0.088404 -0.037523 0.074947 0.2001 -0.25657 0.056467 0.13085 -0.090543 0.042519 -0.037101 -0.17424 -0.14634 -0.080462 -0.057495 -0.0088345 -0.13876 -0.32725 -0.16923 -0.4332 -0.077655 -0.22758 -0.11473 0.39542 -0.061721 -0.05109 0.2603 0.098868 0.4676 0.2516 -0.17854 0.15066 -0.3168 0.16901 -0.1977 0.071448 -0.18975 -0.15711 -0.56635 -0.38873 -0.035984 0.12335 -0.080042 0.026291 0.054081 0.084065 0.085399 0.17359 0.049369 0.018568 0.055042 -0.23939 0.016014 0.14238 0.11645 -0.029698 0.1051 0.18517 -0.32722 0.17185 0.32031 0.032007 0.14058 0.35099 -0.26329 0.16729 -0.057111 -0.46568 -0.041402 0.099921 -0.12438 -0.015387 -0.16051 -0.2952 0.37934 -0.22772 0.37927 -0.017896 0.15734 -0.28709 -0.098699 0.23617 -0.39368 -0.16163 0.08327 -0.060438 -0.0065147 -0.33106 -0.013848 -0.15805 -0.12597 0.28845 -0.0049062 -0.13092 -0.082084 0.028903 -0.13928 -0.063821 -0.23908 -0.074494 0.27516 -0.047435 0.13253 -0.077706 0.023555 -0.077867 0.19562 0.30894 0.4056 -0.10139 -0.10959 -0.096368 -0.13436 -0.033641 -0.18215 0.24503 0.073968 0.2639 0.050025 -0.15678 0.071034 -0.14501 0.015623 0.15603 0.12609 -0.052319 -0.22147 -0.084421 0.16017 0.095344 0.075067 0.3072 0.31903 -0.23463 -0.14405 -0.031466 -0.0031055 0.019866 -0.45874 -0.054207 -0.21524 0.034829 -0.41304 0.10204 
esfuerzo -0.041255 -0.24797 0.15793 -0.21533 0.17821 0.23034 0.060254 -0.026762 0.054228 -0.55031 -0.25575 -0.052734 0.18334 0.0027441 -0.41068 -0.36384 -0.20441 -0.034384 -0.36627 0.0041314 0.2316 -0.0088351 0.20705 0.0078483 0.063614 0.11282 0.23249 0.066625 0.20207 -0.079322 0.18607 0.21789 -0.041578 0.18539 0.15637 -0.071363 0.039078 0.12649 -0.080904 0.39164 0.13604 0.090703 0.13182 -0.25154 0.43038 -0.38075 0.020327 0.067617 0.18898 0.27547 -0.025334 0.02712 -0.19082 -0.14565 0.078482 -0.20245 -0.13887 0.032925 0.011612 -0.24622 0.04941 0.028239 0.089269 -0.33784 0.2271 -0.084942 -0.066797 0.22535 -0.47436 -0.15381 0.11566 -0.05657 0.21833 0.25507 0.066957 0.0012795 -0.067456 -0.1185 0.22429 0.24248 0.1776 -0.0060468 0.44064 -0.29586 0.047899 -0.019033 -0.14346 0.38527 0.046883 0.0080984 0.30857 0.026072 0.12687 0.095912 0.18719 0.33891 -0.44658 -0.30473 0.24042 -0.1363 -0.28291 -0.066552 -0.2064 0.34548 -0.076195 -0.037467 0.10301 0.047688 0.14171 -0.40943 0.09166 0.06974 0.20873 -0.088816 0.0027783 -0.20001 -0.13381 -0.034261 -0.10737 0.15289 0.10313 0.044445 0.17033 -0.14587 -0.032279 -0.057546 0.037273 -0.16665 -0.038109 0.077389 0.097736 -0.16291 -0.0017441 0.26795 -0.0049943 0.15049 -0.061878 0.033423 -0.1116 0.23892 -0.042442 -0.17371 0.13337 0.34718 0.22225 0.067583 0.051055 -0.15933 0.091262 0.26331 -0.20307 0.097265 0.13439 -0.010955 -0.12161 -0.11634 -0.07672 -0.23277 0.41258 -0.13273 0.40372 -0.17331 -0.1901 -0.06236 0.119 -0.030668 -0.071258 -0.13579 -0.086537 0.19378 0.23906 0.22035 0.032981 0.028664 -0.35169 -0.32958 0.20015 -0.068549 -0.09351 -0.10823 0.041466 0.23499 0.0072216 -0.011799 -0.043785 0.18855 0.095335 0.10687 -0.1282 -0.008134 0.17371 0.073841 0.081866 -0.042563 0.14046 0.22253 -0.085019 0.032749 0.044641 0.253 -0.19386 0.11502 0.15017 -0.089399 0.025284 -0.0081043 0.14133 -0.061506 -0.21739 -0.0828 -0.23765 0.08139 0.14147 -0.029789 -0.574 -0.20155 -0.012638 -0.16675 0.29938 0.3444 -0.20604 -0.26996 -0.1274 -0.54551 -0.12853 0.10939 -0.099065 -0.25835 -0.022106 -0.064317 0.51543 -0.17703 0.29218 -0.06943 -0.24183 0.24705 0.016041 0.13972 -0.30594 -0.090085 0.00097778 -0.075218 0.52627 0.16914 0.40376 -0.28422 0.00042869 0.10952 0.084875 -0.60258 -0.065656 0.02087 -0.38841 0.16392 -0.075473 0.018617 -0.13144 0.16024 0.13551 0.10741 0.30534 -0.12017 -0.013822 -0.11237 -0.058821 0.27865 -0.42019 0.31123 0.063218 -0.16924 -0.24923 0.3893 0.10321 0.13088 -0.03342 0.38123 -0.068067 -0.25718 0.19151 0.29223 0.24936 -0.14128 -0.032271 0.047481 0.048387 0.33612 0.018057 0.15628 -0.010585 -0.13609 0.23577 -0.052592 0.041599 0.070082 -0.18463 -0.048427 -0.36024 -0.09316 0.15893 0.070472 
anuncio 0.36298 0.06997 -0.13312 0.13567 -0.06115 0.023162 -0.15555 -0.47042 -0.099093 -0.23103 0.082013 0.12376 -0.21426 0.074819 -0.19929 0.18126 -0.12723 0.17087 0.05571 0.049056 -0.23673 -0.017057 0.23435 -0.040259 -0.25817 0.0089522 -0.23716 0.15171 -0.38918 -0.18939 -0.12073 0.048493 -0.26667 -0.31168 0.13879 -0.045074 -0.50185 0.095485 0.03664 0.1568 0.31227 -0.19068 0.11448 -0.13903 -0.054917 -0.43649 -0.068324 0.29488 -0.24388 -0.15625 0.18067 -0.36384 -0.20374 -0.31808 -0.013507 -0.25583 -0.22172 -0.33699 -0.043434 -0.48911 0.10776 -0.0034609 0.15825 0.13922 -0.084933 0.074414 0.19665 0.22999 -0.22346 0.025354 -0.50376 -0.024395 -0.2123 0.10474 -0.39788 -0.020246 -0.11179 -0.034574 0.090432 0.15209 0.13058 -0.32698 0.18896 0.21563 -0.13996 0.036204 -0.10207 0.25583 0.10197 -0.24794 0.36724 0.13721 0.11584 -0.15346 0.17469 -0.28704 -0.10595 0.1348 0.46784 -0.20286 -0.096607 -0.14081 -0.10116 0.098057 0.082636 0.0092667 0.14333 -0.10336 -0.087759 0.00021918 0.24351 0.038989 0.14446 0.26505 -0.22686 0.072107 0.1814 0.066913 -0.070442 0.18634 0.12431 0.17674 0.2748 -0.13135 -0.097548 -0.066425 0.020056 0.26154 0.3328 0.32838 0.34748 -0.30302 0.0033105 0.045288 -0.30504 -0.094422 0.22647 0.11799 -0.34217 0.10775 -0.21376 -0.10442 -0.048783 -0.26665 0.26628 0.3186 0.067698 -0.0088965 0.17574 0.38946 0.13548 0.12793 0.16604 0.12102 -0.45222 -0.18628 0.23169 -0.088404 -0.037523 0.074947 0.2001 -0.25657 0.056467 0.13085 -0.090543 0.042519 -0.037101 -0.17424 -0.14634 -0.080462 -0.057495 -0.0088345 -0.13876 -0.32725 -0.16923 -0.4332 -0.077655 -0.22758 -0.11473 0.39542 -0.061721 -0.05109 0.2603 0.098868 0.4676 0.2516 -0.17854 0.15066 -0.3168 0.16901 -0.1977 0.071448 -0.18975 -0.15711 -0.56635 -0.38873 -0.035984 0.12335 -0.080042 0.026291 0.054081 0.084065 0.085399 0.17359 0.049369 0.018568 0.055042 -0.23939 0.016014 0.14238 0.11645 -0.029698 0.1051 0.18517 -0.32722 0.17185 0.32031 0.032007 0.14058 0.35099 -0.26329 0.16729 -0.057111 -0.46568 -0.041402 0.099921 -0.12438 -0.015387 -0.16051 -0.2952 0.37934 -0.22772 0.37927 -0.017896 0.15734 -0.28709 -0.098699 0.23617 -0.39368 -0.16163 0.08327 -0.060438 -0.0065147 -0.33106 -0.013848 -0.15805 -0.12597 0.28845 -0.0049062 -0.13092 -0.082084 0.028903 -0.13928 -0.063821 -0.23908 -0.074494 0.27516 -0.047435 0.13253 -0.077706 0.023555 -0.077867 0.19562 0.30894 0.4056 -0.10139 -0.10959 -0.096368 -0.13436 -0.033641 -0.18215 0.24503 0.073968 0.2639 0.050025 -0.15678 0.071034 -0.14501 0.015623 0.15603 0.12609 -0.052319 -0.22147 -0.084421 0.16017 0.095344 0.075067 0.3072 0.31903 -0.23463 -0.14405 -0.031466 -0.0031055 0.019866 -0.45874 -0.054207 -0.21524 0.034829 -0.41304 0.10204 
noticias 0.13057 0.036867 -0.10197 -0.19425 -0.47343 0.17023 -0.15468 -0.49951 0.24249 0.30716 -0.11595 0.15701 -0.28271 -0.018691 0.54379 0.019078 0.072446 -0.3836 -0.04723 -0.081851 0.15147 -0.45182 -0.1733 0.407 0.22935 -0.13123 0.021924 0.071202 -0.24987 -0.11272 -0.061667 0.12566 0.23755 -0.38327 0.24285 -0.18516 -0.58174 0.27169 0.070306 0.10663 0.12347 0.22223 -0.1776 -0.29722 0.11279 -0.26833 0.33302 0.14873 -0.21046 0.022574 0.0084551 -0.28206 -0.21681 -0.10321 0.50664 -0.14415 0.052835 -0.36799 0.035642 0.00036807 -0.0092248 -0.18094 -0.10001 0.16283 -0.21369 -0.046077 -0.023495 -0.24724 -0.3622 0.11729 -0.016722 0.11979 -0.44058 0.24487 -0.24026 0.43865 0.31767 -0.63261 0.0067098 -0.082365 0.089545 -0.39418 0.40672 -0.21302 0.1893 0.060471 -0.33538 -0.50894 -0.14523 -0.32811 0.47523 0.024904 -0.018691 0.015421 0.017605 -0.077648 -0.54049 0.19515 -0.024831 0.0039218 0.29532 0.20623 0.14744 -0.039868 -0.026208 0.20754 -0.09684 -0.17642 -0.073717 0.12339 0.092091 0.067783 0.22067 0.13748 -0.24992 -0.099194 0.020246 -0.18615 0.15219 -0.055847 0.047919 0.067692 0.33188 -0.32334 -0.26106 -0.31557 0.29076 -0.15958 0.053838 0.15424 -0.1973 -0.11579 0.093763 0.27455 -0.16422 -0.12847 -0.088983 -0.036141 -0.42695 0.20056 0.036892 0.24261 -0.32614 0.15162 -0.19044 0.092887 0.065186 -0.22156 0.26874 0.029231 0.21547 0.46845 0.026358 0.11421 -0.53024 0.066755 0.013201 -0.073544 -0.10929 -0.061661 -0.029042 -0.0065788 0.29988 -0.38073 0.12931 -0.13134 0.015812 0.079961 -0.030185 -0.32931 0.059169 -0.021735 -0.22506 0.13292 -0.0039623 -0.10646 -0.13702 -0.44726 -0.15072 0.20752 -0.043749 -0.33232 -0.086384 -0.12391 0.52376 -0.13701 0.018655 0.095372 -0.21093 0.14916 0.10489 0.26591 0.077116 0.021824 -0.048058 -0.010373 -0.085353 -0.21494 0.11017 -0.29623 0.18312 -0.049601 -0.062845 0.076082 -0.29579 0.1454 0.095025 0.024138 0.25494 0.0064156 0.36998 0.37161 0.12375 0.33413 -0.68179 -0.035678 0.16931 0.11498 0.47678 0.40873 -0.11502 0.14048 -0.042036 -0.28678 -0.30203 0.51146 0.017601 -0.068941 -0.025788 -0.045056 0.1732 -0.10299 0.0087001 0.26444 0.52032 0.099029 -0.11979 0.12272 -0.47636 -0.32186 -0.37902 0.085884 0.19771 0.20577 -0.046792 -0.026048 -0.48992 0.45904 0.19241 -0.30162 0.39115 0.21398 -0.18961 0.063999 -0.015982 0.21919 0.050071 0.041567 -0.157 -0.0482 0.19546 -0.14947 0.13824 -0.14686 0.18933 -0.21988 -0.0068362 0.18551 -0.36131 -0.45102 0.20369 0.3426 -0.024001 0.64161 -0.15829 -0.20927 0.24532 -0.2575 0.28497 0.23083 -0.11625 -0.067319 -0.30348 0.044724 0.36809 0.18191 -0.1161 0.19213 0.2342 -0.2509 -0.23118 0.16686 -0.11678 0.19202 -0.69058 -0.095609 -0.071029 0.28468 -0.27743 0.20749 
anuncio 0.36298 0.06997 -0.13312 0.13567 -0.06115 0.023162 -0.15555 -0.47042 -0.099093 -0.23103 0.082013 0.12376 -0.21426 0.074819 -0.19929 0.18126 -0.12723 0.17087 0.05571 0.049056 -0.23673 -0.017057 0.23435 -0.040259 -0.25817 0.0089522 -0.23716 0.15171 -0.38918 -0.18939 -0.12073 0.048493 -0.26667 -0.31168 0.13879 -0.045074 -0.50185 0.095485 0.03664 0.1568 0.31227 -0.19068 0.11448 -0.13903 -0.054917 -0.43649 -0.068324 0.29488 -0.24388 -0.15625 0.18067 -0.36384 -0.20374 -0.31808 -0.013507 -0.25583 -0.22172 -0.33699 -0.043434 -0.48911 0.10776 -0.0034609 0.15825 0.13922 -0.084933 0.074414 0.19665 0.22999 -0.22346 0.025354 -0.50376 -0.024395 -0.2123 0.10474 -0.39788 -0.020246 -0.11179 -0.034574 0.090432 0.15209 0.13058 -0.32698 0.18896 0.21563 -0.13996 0.036204 -0.10207 0.25583 0.10197 -0.24794 0.36724 0.13721 0.11584 -0.15346 0.17469 -0.28704 -0.10595 0.1348 0.46784 -0.20286 -0.096607 -0.14081 -0.10116 0.098057 0.082636 0.0092667 0.14333 -0.10336 -0.087759 0.00021918 0.24351 0.038989 0.14446 0.26505 -0.22686 0.072107 0.1814 0.066913 -0.070442 0.18634 0.12431 0.17674 0.2748 -0.13135 -0.097548 -0.066425 0.020056 0.26154 0.3328 0.32838 0.34748 -0.30302 0.0033105 0.045288 -0.30504 -0.094422 0.22647 0.11799 -0.34217 0.10775 -0.21376 -0.10442 -0.048783 -0.26665 0.26628 0.3186 0.067698 -0.0088965 0.17574 0.38946 0.13548 0.12793 0.16604 0.12102 -0.45222 -0.18628 0.23169 -0.088404 -0.037523 0.074947 0.2001 -0.25657 0.056467 0.13085 -0.090543 0.042519 -0.037101 -0.17424 -0.14634 -0.080462 -0.057495 -0.0088345 -0.13876 -0.32725 -0.16923 -0.4332 -0.077655 -0.22758 -0.11473 0.39542 -0.061721 -0.05109 0.2603 0.098868 0.4676 0.2516 -0.17854 0.15066 -0.3168 0.16901 -0.1977 0.071448 -0.18975 -0.15711 -0.56635 -0.38873 -0.035984 0.12335 -0.080042 0.026291 0.054081 0.084065 0.085399 0.17359 0.049369 0.018568 0.055042 -0.23939 0.016014 0.14238 0.11645 -0.029698 0.1051 0.18517 -0.32722 0.17185 0.32031 0.032007 0.14058 0.35099 -0.26329 0.16729 -0.057111 -0.46568 -0.041402 0.099921 -0.12438 -0.015387 -0.16051 -0.2952 0.37934 -0.22772 0.37927 -0.017896 0.15734 -0.28709 -0.098699 0.23617 -0.39368 -0.16163 0.08327 -0.060438 -0.0065147 -0.33106 -0.013848 -0.15805 -0.12597 0.28845 -0.0049062 -0.13092 -0.082084 0.028903 -0.13928 -0.063821 -0.23908 -0.074494 0.27516 -0.047435 0.13253 -0.077706 0.023555 -0.077867 0.19562 0.30894 0.4056 -0.10139 -0.10959 -0.096368 -0.13436 -0.033641 -0.18215 0.24503 0.073968 0.2639 0.050025 -0.15678 0.071034 -0.14501 0.015623 0.15603 0.12609 -0.052319 -0.22147 -0.084421 0.16017 0.095344 0.075067 0.3072 0.31903 -0.23463 -0.14405 -0.031466 -0.0031055 0.019866 -0.45874 -0.054207 -0.21524 0.034829 -0.41304 0.10204 
produccion -0.25603 -0.53705 0.061321 0.043678 -0.22264 0.37332 0.021833 0.047469 -0.028101 0.18287 0.00054623 0.23067 -0.23801 0.06353 0.15223 0.22247 -0.20562 -0.069698 0.29832 0.43516 0.21755 -0.058044 0.15397 0.34457 -0.13737 0.16573 0.16063 0.16653 -0.3718 -0.10232 -0.016977 -0.066472 -0.011543 0.11828 0.090476 -0.000713 -0.21406 -0.5309 0.22057 0.37612 -0.55547 0.10048 0.21022 0.39099 0.45362 -0.41152 -0.64032 0.0057652 -0.36629 0.15154 0.06901 0.29021 -0.26783 0.096798 0.081373 -0.31923 -0.34409 0.03334 -0.33101 0.085577 0.019037 -0.15117 0.010096 0.16495 0.41091 0.12751 0.11248 -0.19637 -0.53611 0.159 -0.71422 -0.16425 0.13118 0.29494 -0.33703 0.31998 0.15156 -0.24722 0.42743 0.053482 -0.086932 -0.026333 0.4069 -0.45083 0.1424 -0.0056888 -0.13043 0.11794 0.34686 -0.412 0.8182 -0.013289 -0.029532 0.50052 -0.039663 0.20275 -0.48356 0.33252 0.021816 0.12046 0.27993 0.20448 -0.25343 -0.57622 -0.43044 0.1552 -0.37353 0.044389 0.24817 0.22391 0.29778 0.13414 -0.011815 0.17359 -0.20105 0.41015 -0.22383 0.27768 -0.093169 0.17415 0.14073 0.073974 -0.10867 -0.45887 -0.19478 -0.40953 -0.40079 0.32667 -0.17182 0.092544 0.28935 -0.52585 -0.27027 0.13431 -0.10348 -0.00064444 -0.012668 0.23221 -0.085076 0.17475 0.11278 0.49002 0.017827 -0.18338 0.16134 0.36619 0.058806 0.22381 0.197 0.11051 0.057022 0.23785 -0.0213 -0.11324 -0.32278 0.02063 -0.08787 0.17635 0.42563 -0.16737 0.34022 0.31389 -0.044815 -0.036341 0.099817 0.021624 -0.037025 0.44291 -0.11794 0.31245 0.092 -0.43943 -0.1219 0.1559 0.25119 0.13092 -0.21511 0.14577 -0.13986 -0.078041 0.074442 -0.2563 0.41139 0.24615 0.53512 0.20716 -0.11757 0.55915 0.037559 0.32378 -0.020844 -0.08309 -0.062451 -0.43382 -0.20699 0.33801 -0.084942 -0.34856 -0.31273 -0.19858 0.2018 -0.041935 0.62482 -0.017516 -0.098048 -0.26946 0.25148 -0.43338 0.089645 -0.57495 0.22585 0.4169 0.23794 0.16154 -0.62919 -0.41427 0.29675 -0.25971 -0.0037833 -0.51795 -0.4229 -0.46455 0.018794 -0.21487 0.067826 0.27861 -0.61839 -0.40474 0.096552 -0.2387 0.051053 0.018423 0.37091 0.18506 -0.1715 -0.14509 -0.21725 0.20694 0.034441 0.17765 0.15008 -0.0019671 0.29481 0.17107 -0.10299 -0.051728 -0.43202 0.19321 0.21565 -0.16311 0.43747 -0.25006 0.23636 0.604 0.021408 0.37221 0.46716 0.24461 -0.26261 -0.36393 0.14863 -0.045795 -0.040842 0.21072 -0.28444 -0.046002 -0.63808 0.28066 -0.1949 0.39077 -0.33887 0.28868 0.024193 0.15984 0.1974 -0.65237 -0.11366 0.095748 -0.10043 -0.30765 -0.10364 0.29327 -0.14258 -0.14594 0.29867 0.32145 -0.089476 0.24213 -0.1803 0.11164 0.15565 -0.15445 0.18094 -0.42198 -0.3218 0.16825 0.047351 -0.026613 0.53302 0.0040893 
anuncio 0.36298 0.06997 -0.13312 0.13567 -0.06115 0.023162 -0.15555 -0.47042 -0.099093 -0.23103 0.082013 0.12376 -0.21426 0.074819 -0.19929 0.18126 -0.12723 0.17087 0.05571 0.049056 -0.23673 -0.017057 0.23435 -0.040259 -0.25817 0.0089522 -0.23716 0.15171 -0.38918 -0.18939 -0.12073 0.048493 -0.26667 -0.31168 0.13879 -0.045074 -0.50185 0.095485 0.03664 0.1568 0.31227 -0.19068 0.11448 -0.13903 -0.054917 -0.43649 -0.068324 0.29488 -0.24388 -0.15625 0.18067 -0.36384 -0.20374 -0.31808 -0.013507 -0.25583 -0.22172 -0.33699 -0.043434 -0.48911 0.10776 -0.0034609 0.15825 0.13922 -0.084933 0.074414 0.19665 0.22999 -0.22346 0.025354 -0.50376 -0.024395 -0.2123 0.10474 -0.39788 -0.020246 -0.11179 -0.034574 0.090432 0.15209 0.13058 -0.32698 0.18896 0.21563 -0.13996 0.036204 -0.10207 0.25583 0.10197 -0.24794 0.36724 0.13721 0.11584 -0.15346 0.17469 -0.28704 -0.10595 0.1348 0.46784 -0.20286 -0.096607 -0.14081 -0.10116 0.098057 0.082636 0.0092667 0.14333 -0.10336 -0.087759 0.00021918 0.24351 0.038989 0.14446 0.26505 -0.22686 0.072107 0.1814 0.066913 -0.070442 0.18634 0.12431 0.17674 0.2748 -0.13135 -0.097548 -0.066425 0.020056 0.26154 0.3328 0.32838 0.34748 -0.30302 0.0033105 0.045288 -0.30504 -0.094422 0.22647 0.11799 -0.34217 0.10775 -0.21376 -0.10442 -0.048783 -0.26665 0.26628 0.3186 0.067698 -0.0088965 0.17574 0.38946 0.13548 0.12793 0.16604 0.12102 -0.45222 -0.18628 0.23169 -0.088404 -0.037523 0.074947 0.2001 -0.25657 0.056467 0.13085 -0.090543 0.042519 -0.037101 -0.17424 -0.14634 -0.080462 -0.057495 -0.0088345 -0.13876 -0.32725 -0.16923 -0.4332 -0.077655 -0.22758 -0.11473 0.39542 -0.061721 -0.05109 0.2603 0.098868 0.4676 0.2516 -0.17854 0.15066 -0.3168 0.16901 -0.1977 0.071448 -0.18975 -0.15711 -0.56635 -0.38873 -0.035984 0.12335 -0.080042 0.026291 0.054081 0.084065 0.085399 0.17359 0.049369 0.018568 0.055042 -0.23939 0.016014 0.14238 0.11645 -0.029698 0.1051 0.18517 -0.32722 0.17185 0.32031 0.032007 0.14058 0.35099 -0.26329 0.16729 -0.057111 -0.46568 -0.041402 0.099921 -0.12438 -0.015387 -0.16051 -0.2952 0.37934 -0.22772 0.37927 -0.017896 0.15734 -0.28709 -0.098699 0.23617 -0.39368 -0.16163 0.08327 -0.060438 -0.0065147 -0.33106 -0.013848 -0.15805 -0.12597 0.28845 -0.0049062 -0.13092 -0.082084 0.028903 -0.13928 -0.063821 -0.23908 -0.074494 0.27516 -0.047435 0.13253 -0.077706 0.023555 -0.077867 0.19562 0.30894 0.4056 -0.10139 -0.10959 -0.096368 -0.13436 -0.033641 -0.18215 0.24503 0.073968 0.2639 0.050025 -0.15678 0.071034 -0.14501 0.015623 0.15603 0.12609 -0.052319 -0.22147 -0.084421 0.16017 0.095344 0.075067 0.3072 0.31903 -0.23463 -0.14405 -0.031466 -0.0031055 0.019866 -0.45874 -0.054207 -0.21524 0.034829 -0.41304 0.10204 
advertencia -0.072503 -0.29643 -0.17042 0.15759 -0.0094616 -0.20115 -0.077049 -0.22823 -0.19212 -0.27429 -0.23073 0.16595 -0.22558 -0.47217 -0.31539 0.083692 -0.1828 0.32619 0.11753 -0.0030338 -0.24028 0.10335 0.17156 0.32056 -0.13597 0.13562 -0.21953 0.089543 -0.38051 -0.16746 -0.24067 -0.018952 -0.31662 0.23743 0.10936 0.14174 -0.62122 0.19313 -0.27619 0.27288 -0.048073 -0.13359 -0.27999 -0.34967 0.012953 -0.22612 0.21294 0.42319 -0.53649 0.12953 -0.12197 -0.2391 -0.050095 -0.062814 -0.15297 -0.0024326 -0.1101 0.40674 -0.16341 -0.37946 0.030058 0.050807 0.034812 0.034322 0.24905 0.24806 0.28067 0.13696 -0.46536 -0.27039 -0.35939 -0.12139 0.22181 0.14847 -0.41457 0.047774 0.18644 -0.031538 0.34738 0.011679 0.17365 -0.37201 0.25627 -0.025184 -0.13812 0.17331 0.33019 -0.50467 0.063346 -0.12134 -0.083515 -0.063941 0.32768 0.19452 -0.29081 -0.35015 -0.42481 -0.0042479 0.16014 0.16328 -0.023401 0.017442 -0.3104 -0.031364 -0.2039 0.28171 0.0309 -0.072454 -0.59169 0.13511 0.13375 0.10019 0.067814 0.064439 -0.26452 0.010354 -0.13769 -0.13118 -0.30171 -0.54203 -0.2179 0.13178 0.074185 -0.18891 -0.16485 0.011526 0.14721 0.044347 0.34657 0.093629 -0.02877 0.050667 0.30238 0.014783 -0.097961 -0.15921 0.48517 -0.027211 -0.24683 -0.19408 0.1961 -0.017903 0.29717 -0.044521 -0.13632 0.2 0.39747 -0.23857 0.03885 -0.014943 0.11826 0.080587 0.42642 0.08865 -0.47878 -0.1328 -0.12131 0.05759 0.084366 -0.10227 0.086576 0.28304 0.34933 -0.1453 0.09029 -0.03776 0.21489 -0.03052 -0.13895 -0.24621 -0.02732 -0.012558 -0.17257 -0.22753 -0.094357 -0.40176 -0.40392 -0.10221 0.094668 -0.063863 0.015979 0.16238 0.067478 -0.54671 0.3099 0.27647 -0.15969 0.087246 -0.29137 -0.067989 -0.25798 0.11639 0.17956 -0.19199 0.008309 0.053771 0.1208 0.27593 -0.016658 0.11502 0.14596 0.070546 0.30064 0.14558 0.022315 -0.15296 -0.041841 -0.031775 -0.2833 0.23464 0.27147 0.21184 -0.090943 0.071631 -0.25091 -0.062573 0.21634 0.23938 0.18234 0.37602 -0.18761 -0.1985 0.1178 -0.43915 -0.33848 0.31048 -0.61233 0.25428 -0.044778 0.12957 0.5183 0.029798 -0.022727 0.42963 0.13862 0.0024862 0.2115 0.03741 -0.19101 -0.39495 -0.21416 -0.10617 0.32493 -0.047739 0.59185 -0.063177 0.45614 -0.13527 -0.28392 0.040394 -0.18856 0.18521 -0.18783 0.20119 -0.271 0.11757 -0.024648 0.35887 0.039261 -0.18636 0.14285 0.029428 0.060474 -0.28621 0.20984 0.12121 0.039755 -0.054604 0.28199 -0.26871 0.09769 0.12919 0.20821 0.15654 0.13537 -0.2069 0.18254 -0.03644 0.5048 0.23346 -0.065509 0.076503 -0.04747 -0.014457 0.094861 -0.44482 0.4191 0.14219 0.31463 0.13205 0.068937 0.12962 0.066676 0.068503 -0.40811 -0.33614 -0.17666 0.13835 0.42024 0.02663 
Arafat -0.20642 0.014123 0.066145 -0.21874 0.10309 -0.16928 0.087467 -0.034488 0.0926 -0.22098 0.091838 0.11867 -0.080145 -0.014336 -0.15523 -0.065706 0.16374 -0.026345 0.093125 0.24287 -0.13175 0.32115 -0.018362 -0.20929 -0.079941 -0.19796 0.073943 -0.17232 -0.18285 -0.09502 0.010932 0.071049 -0.023283 -0.26853 0.29811 0.32486 -0.26687 0.28363 -0.18281 0.37494 0.29985 -0.33202 -0.013393 -0.23871 0.01238 -0.43218 0.086034 0.13137 0.047868 0.19709 0.23696 0.061619 0.27497 -0.33761 0.20223 -0.20775 0.08031 -0.14419 -0.059808 -0.1053 -0.020216 0.14193 -0.023567 -0.37492 -0.097684 0.21415 -0.28403 -0.1513 -0.096445 -0.15165 -0.35914 0.21186 -0.12487 0.084825 0.064365 -0.097208 -0.12839 -0.49267 0.096808 0.19962 0.1335 0.022014 0.27808 -0.26312 0.13852 -0.12048 0.10314 -0.051088 0.1859 -0.20471 0.0041647 0.19273 -0.12456 -0.19282 -0.14605 -0.18678 0.17131 0.083716 0.043432 -0.12436 -0.032861 0.12986 0.35692 -0.058833 -0.34894 -0.082101 -0.00403 -0.26425 -0.071857 -0.124 0.06877 -0.064365 0.24742 -0.068593 0.14784 -0.00047863 0.20475 -0.0050627 0.30861 0.17013 0.1704 0.3843 -0.111 0.054999 -0.332 -0.062787 -0.12873 0.0036748 0.50031 0.087795 -0.16564 -0.5982 0.10409 0.11503 -0.031833 -0.073877 -0.10959 -0.10716 0.14865 -0.0095021 -0.35912 0.54353 0.018147 -0.10351 0.24312 -0.30552 -0.0021638 -0.050606 0.20902 -0.0092988 0.30038 0.11531 0.15751 -0.16755 0.0033474 -0.19182 0.06666 0.019565 -0.065197 0.13513 0.11951 -0.1483 0.080894 -0.19145 0.062546 0.057818 0.17119 -0.15737 -0.21386 -0.21619 -0.094867 0.43365 -0.0961 -0.56874 -0.7269 -0.44969 -0.40792 0.13259 -0.31389 -0.10535 -0.079043 -0.314 0.1613 -0.40281 -0.22838 0.09389 0.13338 0.060308 -0.42545 -0.20069 -0.16945 -0.045673 -0.14429 -0.027808 0.038412 -0.13357 0.11112 -0.14644 -0.034 -0.28325 -0.023059 0.33939 0.22463 0.098462 0.21607 -0.083819 0.030672 -0.0013852 0.047116 -0.1823 0.090437 0.042399 -0.19726 0.3586 0.083059 0.12853 0.0042639 -0.20093 -0.10698 0.083124 -0.12566 -0.17191 -0.010917 -0.33337 0.2163 -0.24501 -0.097665 -0.129 0.15425 0.26251 0.10445 -0.15462 0.091818 0.063396 0.30411 -0.54363 0.42089 -0.0040299 -0.19015 0.080943 -0.19675 0.06209 0.26034 0.30505 0.072119 0.021765 0.038607 0.20908 0.14574 0.16838 0.074464 0.12572 0.11041 -0.03492 0.072397 0.057573 0.01426 -0.17395 -0.080686 0.023834 0.1199 -0.35417 -0.099245 0.16677 -0.21523 0.10288 -0.11496 0.077824 0.093683 -0.039041 0.065891 0.31586 -0.22108 -0.033691 0.13277 0.053931 0.14662 0.27045 0.31647 0.5405 0.0040281 -0.35291 -0.15974 -0.08001 0.11625 0.37312 -0.2166 -0.07031 0.1332 -0.35882 -0.13722 0.34728 0.22917 0.073398 -0.35759 -0.17169 -0.24889 0.024539 0.040135 -0.2829 
Jackson -0.04313 0.20482 -0.14793 0.13072 0.25159 0.23338 -0.10555 -0.5148 -0.14237 -0.23883 -0.075068 -0.11679 -0.089682 0.0081955 0.00060905 -0.079224 0.41594 -0.022797 0.28842 0.0052364 -0.057578 0.22171 -0.23685 0.009658 -0.052033 -0.24163 -0.24966 -0.033364 -0.040079 0.10924 -0.31761 -0.090284 0.038551 0.18622 -0.32864 0.32465 -0.12413 0.30935 -0.08777 0.24412 -0.20912 0.30658 0.030656 -0.26171 -0.12515 0.039263 -0.28617 0.16717 -0.34407 -0.022282 0.17043 0.077053 0.09828 -0.0013683 0.35072 -0.2869 -0.41882 -0.049712 -0.31431 -0.10209 -0.058793 0.16793 0.49655 -0.09706 -0.30643 0.17334 0.18025 0.092042 -0.001375 -0.10146 -0.17084 0.2913 -0.18054 -0.40295 -0.0038741 0.015871 -0.38118 -0.17688 -0.22202 0.25456 -0.053082 0.13729 0.12626 0.024102 0.33462 0.13779 0.1244 0.15542 -0.43237 -0.25626 -0.13566 0.026888 -0.064049 0.088771 -0.19166 0.024413 0.29138 0.059035 -0.3528 0.11999 0.00586 -0.084587 -0.15285 -0.0030175 -0.24126 0.08056 0.14823 -0.08702 0.45868 0.42461 0.18307 0.2874 -0.18377 -0.10612 0.29593 0.16054 0.11906 0.21151 -0.051052 0.048857 0.44422 -0.17679 0.025033 -0.10702 -0.39347 -0.12294 -0.13177 0.03012 0.18967 0.26112 0.21023 -0.01226 -0.07582 0.012349 -0.2677 -0.19563 0.26239 0.22683 0.12727 -0.081504 0.096872 -0.09081 0.2667 -0.42132 -0.0049236 0.10967 0.10588 -0.056317 0.16726 0.26865 -0.078873 0.21977 0.14456 -0.174 0.096033 -0.05651 0.25491 -0.15651 0.03515 -0.087503 0.34774 0.094253 0.057659 -0.032079 0.044032 0.24701 -0.10249 0.16046 -0.20927 -0.17332 0.25676 0.18616 -0.52479 -0.81867 -0.2459 -0.35856 -0.54096 0.30373 -0.21243 -0.11804 -0.28273 -0.2213 -0.14106 0.098308 -0.16426 0.091492 0.055627 0.26764 -0.18538 0.21621 0.076919 -0.12583 0.086367 -0.19595 -0.059832 -0.037823 -0.04821 -0.20158 0.11707 -0.21776 -0.096368 0.15692 0.13276 0.054727 0.022403 -0.05673 0.19088 0.061958 -0.068797 -0.052602 0.094281 -0.1162 -0.05979 -0.12438 -0.15425 -0.044248 0.010884 -0.28789 0.12979 -0.079111 -0.19455 -0.30315 0.20839 -0.058038 0.0060304 0.14194 -0.29672 -0.35411 -0.32646 -0.20916 0.50153 -0.15015 0.24416 0.15108 0.17725 -0.32316 0.33598 0.16089 0.04953 0.0784 0.081723 -0.060305 0.18357 -0.13488 0.27887 -0.54428 0.065098 0.30172 0.36624 -0.4228 -0.13075 -0.1785 0.16112 -0.0139 -0.38139 -0.39751 0.23138 0.23164 -0.030772 -0.0079713 0.017103 0.2642 0.12926 0.15597 -0.048797 0.10173 0.0053851 0.023097 -0.062057 -0.16286 -0.12195 0.21954 -0.33629 -0.068497 0.138 -0.033187 0.34297 -0.11941 -0.27066 -0.15945 0.11011 0.16929 0.10964 -0.021479 -0.0060187 -0.19539 0.087836 -0.030431 -0.037397 0.089575 -0.0053284 0.23009 0.15357 0.13173 -0.21433 0.0063832 -0.11459 -0.20227 -0.047045 -0.1081 
Arafat -0.20642 0.014123 0.066145 -0.21874 0.10309 -0.16928 0.087467 -0.034488 0.0926 -0.22098 0.091838 0.11867 -0.080145 -0.014336 -0.15523 -0.065706 0.16374 -0.026345 0.093125 0.24287 -0.13175 0.32115 -0.018362 -0.20929 -0.079941 -0.19796 0.073943 -0.17232 -0.18285 -0.09502 0.010932 0.071049 -0.023283 -0.26853 0.29811 0.32486 -0.26687 0.28363 -0.18281 0.37494 0.29985 -0.33202 -0.013393 -0.23871 0.01238 -0.43218 0.086034 0.13137 0.047868 0.19709 0.23696 0.061619 0.27497 -0.33761 0.20223 -0.20775 0.08031 -0.14419 -0.059808 -0.1053 -0.020216 0.14193 -0.023567 -0.37492 -0.097684 0.21415 -0.28403 -0.1513 -0.096445 -0.15165 -0.35914 0.21186 -0.12487 0.084825 0.064365 -0.097208 -0.12839 -0.49267 0.096808 0.19962 0.1335 0.022014 0.27808 -0.26312 0.13852 -0.12048 0.10314 -0.051088 0.1859 -0.20471 0.0041647 0.19273 -0.12456 -0.19282 -0.14605 -0.18678 0.17131 0.083716 0.043432 -0.12436 -0.032861 0.12986 0.35692 -0.058833 -0.34894 -0.082101 -0.00403 -0.26425 -0.071857 -0.124 0.06877 -0.064365 0.24742 -0.068593 0.14784 -0.00047863 0.20475 -0.0050627 0.30861 0.17013 0.1704 0.3843 -0.111 0.054999 -0.332 -0.062787 -0.12873 0.0036748 0.50031 0.087795 -0.16564 -0.5982 0.10409 0.11503 -0.031833 -0.073877 -0.10959 -0.10716 0.14865 -0.0095021 -0.35912 0.54353 0.018147 -0.10351 0.24312 -0.30552 -0.0021638 -0.050606 0.20902 -0.0092988 0.30038 0.11531 0.15751 -0.16755 0.0033474 -0.19182 0.06666 0.019565 -0.065197 0.13513 0.11951 -0.1483 0.080894 -0.19145 0.062546 0.057818 0.17119 -0.15737 -0.21386 -0.21619 -0.094867 0.43365 -0.0961 -0.56874 -0.7269 -0.44969 -0.40792 0.13259 -0.31389 -0.10535 -0.079043 -0.314 0.1613 -0.40281 -0.22838 0.09389 0.13338 0.060308 -0.42545 -0.20069 -0.16945 -0.045673 -0.14429 -0.027808 0.038412 -0.13357 0.11112 -0.14644 -0.034 -0.28325 -0.023059 0.33939 0.22463 0.098462 0.21607 -0.083819 0.030672 -0.0013852 0.047116 -0.1823 0.090437 0.042399 -0.19726 0.3586 0.083059 0.12853 0.0042639 -0.20093 -0.10698 0.083124 -0.12566 -0.17191 -0.010917 -0.33337 0.2163 -0.24501 -0.097665 -0.129 0.15425 0.26251 0.10445 -0.15462 0.091818 0.063396 0.30411 -0.54363 0.42089 -0.0040299 -0.19015 0.080943 -0.19675 0.06209 0.26034 0.30505 0.072119 0.021765 0.038607 0.20908 0.14574 0.16838 0.074464 0.12572 0.11041 -0.03492 0.072397 0.057573 0.01426 -0.17395 -0.080686 0.023834 0.1199 -0.35417 -0.099245 0.16677 -0.21523 0.10288 -0.11496 0.077824 0.093683 -0.039041 0.065891 0.31586 -0.22108 -0.033691 0.13277 0.053931 0.14662 0.27045 0.31647 0.5405 0.0040281 -0.35291 -0.15974 -0.08001 0.11625 0.37312 -0.2166 -0.07031 0.1332 -0.35882 -0.13722 0.34728 0.22917 0.073398 -0.35759 -0.17169 -0.24889 0.024539 0.040135 -0.2829 
paz -0.10522 0.05007 0.22296 0.11347 -0.11503 0.030606 0.08343 -0.088983 0.16948 -0.16802 -0.2404 0.27441 0.2646 -0.15221 -0.095565 0.08662 0.090002 -0.14136 -0.068185 0.29399 0.030124 0.39694 0.16123 0.092442 0.10508 -0.54262 0.24353 -0.35344 -0.44034 0.062964 0.11708 0.17528 0.29403 0.19433 -0.31703 0.17441 -0.49191 0.58591 -0.39708 0.27524 -0.077897 0.037413 0.23323 0.036476 0.19297 -0.31352 0.19608 -0.16411 -0.47379 0.098621 0.041392 0.013087 -0.13686 -0.16706 -0.081859 -0.14914 0.26463 -0.23174 -0.10511 0.10256 0.31963 -0.43762 0.49869 -0.5242 0.22576 -0.33288 0.22311 -0.040698 -0.34408 0.21813 -0.34736 -0.091592 0.18417 -0.2591 -0.16074 -0.33575 -0.22357 0.21003 -0.082728 -0.08606 -0.1635 -0.097646 0.38641 -0.35796 0.082707 -0.1113 0.098045 0.31636 0.050989 -0.23074 0.32191 -0.061978 0.19455 -0.0051297 0.13188 -0.075272 -0.027755 -0.31732 0.22494 -0.26052 0.47109 -0.10078 0.19242 0.019959 0.032637 0.071613 0.26959 -0.065637 -0.1169 -0.086993 -0.34957 0.053684 0.17745 -0.031411 -0.26022 0.15862 -0.065349 0.051226 -0.1976 0.10241 0.048767 0.28557 0.088715 -0.23329 -0.074056 -0.75716 0.073925 0.55302 0.46509 -0.13334 -0.035793 -0.20953 0.32599 -0.13522 -0.34568 -0.14936 -0.24085 -0.47122 0.65726 0.20848 -0.39037 0.13481 -0.002541 0.025772 0.097456 -0.1438 0.15023 -0.10136 0.16566 -0.15427 0.13708 -0.071629 0.019982 0.41763 0.16577 0.20567 0.11085 0.049833 -0.12448 -0.28083 -0.03426 -0.099656 0.056491 0.12169 0.13984 0.26115 0.31063 -0.47037 -0.058419 -0.13725 -0.0292 -0.13744 0.24588 -0.62934 -0.15529 -0.64433 0.1665 -0.018381 0.081977 -0.22987 0.10655 -0.11175 -0.21737 -0.29207 -0.076447 -0.061206 0.2961 -0.065048 -0.0095001 -0.070836 0.22311 0.035415 0.2628 -0.067274 -0.049678 -0.12902 -0.013467 -0.047738 -0.27981 -0.032258 -0.12579 -0.036729 -0.11026 0.31315 0.036833 0.16115 0.21693 -0.0074723 0.012553 -0.29143 -0.12744 -0.094076 0.11553 0.48975 0.078066 -0.073643 0.45652 -0.025192 0.70875 0.10367 -0.1952 -0.4194 -0.1153 -0.033936 0.047987 -0.20289 0.23393 -0.33958 0.048489 -0.29891 0.033192 -0.19435 0.061443 0.12704 -0.29895 0.53287 0.17442 0.10948 -0.12911 -0.28955 0.029609 0.007365 0.40666 0.20798 0.49306 -0.30725 0.37871 0.27653 0.2364 -0.032765 0.27998 0.15662 0.26086 0.24353 -0.2825 -0.2166 -0.15528 -0.27484 0.055087 -0.36422 0.071848 -0.46718 -0.056774 0.42585 -0.129 -0.16479 -0.36768 0.065015 -0.084116 -0.27435 -0.45073 0.40958 -0.13849 0.21981 0.44486 0.17356 0.097127 0.098613 0.42733 0.20672 0.23812 -0.46105 -0.33175 -0.1032 0.44996 0.33729 -0.11612 -0.007334 0.31908 -0.10703 0.010823 -0.0075454 -0.32113 0.097614 -0.1152 -0.38335 -0.3961 -0.11464 0.37513 -0.097827 
Arafat -0.20642 0.014123 0.066145 -0.21874 0.10309 -0.16928 0.087467 -0.034488 0.0926 -0.22098 0.091838 0.11867 -0.080145 -0.014336 -0.15523 -0.065706 0.16374 -0.026345 0.093125 0.24287 -0.13175 0.32115 -0.018362 -0.20929 -0.079941 -0.19796 0.073943 -0.17232 -0.18285 -0.09502 0.010932 0.071049 -0.023283 -0.26853 0.29811 0.32486 -0.26687 0.28363 -0.18281 0.37494 0.29985 -0.33202 -0.013393 -0.23871 0.01238 -0.43218 0.086034 0.13137 0.047868 0.19709 0.23696 0.061619 0.27497 -0.33761 0.20223 -0.20775 0.08031 -0.14419 -0.059808 -0.1053 -0.020216 0.14193 -0.023567 -0.37492 -0.097684 0.21415 -0.28403 -0.1513 -0.096445 -0.15165 -0.35914 0.21186 -0.12487 0.084825 0.064365 -0.097208 -0.12839 -0.49267 0.096808 0.19962 0.1335 0.022014 0.27808 -0.26312 0.13852 -0.12048 0.10314 -0.051088 0.1859 -0.20471 0.0041647 0.19273 -0.12456 -0.19282 -0.14605 -0.18678 0.17131 0.083716 0.043432 -0.12436 -0.032861 0.12986 0.35692 -0.058833 -0.34894 -0.082101 -0.00403 -0.26425 -0.071857 -0.124 0.06877 -0.064365 0.24742 -0.068593 0.14784 -0.00047863 0.20475 -0.0050627 0.30861 0.17013 0.1704 0.3843 -0.111 0.054999 -0.332 -0.062787 -0.12873 0.0036748 0.50031 0.087795 -0.16564 -0.5982 0.10409 0.11503 -0.031833 -0.073877 -0.10959 -0.10716 0.14865 -0.0095021 -0.35912 0.54353 0.018147 -0.10351 0.24312 -0.30552 -0.0021638 -0.050606 0.20902 -0.0092988 0.30038 0.11531 0.15751 -0.16755 0.0033474 -0.19182 0.06666 0.019565 -0.065197 0.13513 0.11951 -0.1483 0.080894 -0.19145 0.062546 0.057818 0.17119 -0.15737 -0.21386 -0.21619 -0.094867 0.43365 -0.0961 -0.56874 -0.7269 -0.44969 -0.40792 0.13259 -0.31389 -0.10535 -0.079043 -0.314 0.1613 -0.40281 -0.22838 0.09389 0.13338 0.060308 -0.42545 -0.20069 -0.16945 -0.045673 -0.14429 -0.027808 0.038412 -0.13357 0.11112 -0.14644 -0.034 -0.28325 -0.023059 0.33939 0.22463 0.098462 0.21607 -0.083819 0.030672 -0.0013852 0.047116 -0.1823 0.090437 0.042399 -0.19726 0.3586 0.083059 0.12853 0.0042639 -0.20093 -0.10698 0.083124 -0.12566 -0.17191 -0.010917 -0.33337 0.2163 -0.24501 -0.097665 -0.129 0.15425 0.26251 0.10445 -0.15462 0.091818 0.063396 0.30411 -0.54363 0.42089 -0.0040299 -0.19015 0.080943 -0.19675 0.06209 0.26034 0.30505 0.072119 0.021765 0.038607 0.20908 0.14574 0.16838 0.074464 0.12572 0.11041 -0.03492 0.072397 0.057573 0.01426 -0.17395 -0.080686 0.023834 0.1199 -0.35417 -0.099245 0.16677 -0.21523 0.10288 -0.11496 0.077824 0.093683 -0.039041 0.065891 0.31586 -0.22108 -0.033691 0.13277 0.053931 0.14662 0.27045 0.31647 0.5405 0.0040281 -0.35291 -0.15974 -0.08001 0.11625 0.37312 -0.2166 -0.07031 0.1332 -0.35882 -0.13722 0.34728 0.22917 0.073398 -0.35759 -0.17169 -0.24889 0.024539 0.040135 -0.2829 
terror 0.29421 -0.15087 -0.063763 -0.17237 0.15551 0.077577 -0.30012 -0.046423 -0.2413 -0.1952 0.15632 0.14579 -0.23332 -0.084814 0.14049 -0.18189 -0.15261 -0.2265 0.11027 -0.158 0.35806 -0.12433 0.0062705 0.22997 -0.09395 0.22801 -0.24273 -0.27713 -0.049759 0.012081 -0.25228 -0.093065 -0.069416 -0.21191 0.31094 0.27352 -0.31856 -0.010893 -0.58297 0.59548 -0.057926 -0.33926 0.25569 0.0078061 -0.034545 0.1557 -0.05553 0.044915 -0.035658 -0.03699 -0.30917 -0.22686 -0.23721 -0.12376 0.36056 -0.10688 -0.010195 0.10999 0.027559 0.031481 0.1332 0.030953 0.063936 0.065179 0.1717 -0.060298 -0.13864 0.042982 -0.28577 -0.065671 0.18518 0.032438 -0.038551 0.27906 0.051209 0.23458 -0.2765 -0.038605 -0.1201 0.083691 -0.10156 -0.063978 0.14598 -0.093915 -0.60787 0.45443 0.14292 0.19239 0.2342 -0.011437 0.25168 -0.068588 -0.16748 0.29745 -0.072117 0.13118 -0.71138 -0.15693 0.017441 0.28843 -0.072866 -0.016177 0.26066 -0.013639 -0.34756 0.40788 0.066773 -0.37993 0.12862 0.11828 0.6055 0.19083 -0.24121 0.16331 0.017238 0.033641 0.058937 0.56156 -0.042123 0.32687 0.17453 -0.29276 -0.078095 0.22295 0.45828 0.16148 -0.087045 0.19067 0.09619 0.28518 0.0048816 -0.39049 0.0053601 -0.069184 -0.047214 -0.055313 -0.23987 -0.3108 0.42444 0.26389 -0.43318 0.16102 0.12115 -0.53015 -0.11879 -0.093358 0.26947 -0.27495 -0.14815 0.046612 0.47575 0.49616 0.4376 0.01595 0.055563 0.091816 -0.7467 0.17555 -0.041639 0.008438 -0.085021 -0.10589 0.29649 0.041124 0.25566 0.040429 0.062771 -0.51101 0.097559 -0.06517 -0.24465 0.089928 -0.10925 -0.023861 -0.1075 -0.16187 0.086947 0.13919 -0.27225 -0.14498 -0.024968 0.27379 -0.027738 -0.073484 0.085616 0.12652 0.3341 0.25415 0.0418 0.33326 0.053398 0.14744 -0.2472 -0.40607 0.067345 0.10498 0.6223 -0.18976 0.16206 0.012914 0.2375 -0.10251 0.32134 -0.047301 0.31648 -0.17011 -0.15618 0.1151 -0.085291 -0.46686 0.11991 -0.20837 -0.43885 0.067968 -0.70699 0.1031 -0.18765 -0.012419 -0.12508 0.19336 0.09727 -0.18099 0.11533 -0.55311 -0.26804 -0.42291 -0.23368 -0.41971 -0.26124 0.39967 0.26223 -0.31595 0.43136 0.45576 -0.18813 0.50683 -0.15495 0.29923 -0.43556 -0.12159 0.058814 0.066391 0.76888 -0.17901 0.087132 -0.50458 0.26531 0.068208 -0.18022 0.16222 -0.043026 -0.0018085 0.14823 0.27062 -0.11538 0.16929 0.12124 0.16973 0.31368 -0.12614 -0.12809 -0.31096 -0.17192 -0.29767 -0.4026 -0.501 -0.12435 0.11813 0.024679 -0.30178 0.3262 0.27338 -0.33293 0.34583 0.44393 0.009485 0.050934 0.27309 0.50619 0.029658 -0.19451 0.24689 -0.34692 -0.045574 -0.26761 0.023937 -0.23148 0.046388 -0.26141 -0.24393 -0.025193 -0.20072 -0.39594 -0.33511 -0.69637 0.2355 -0.19313 0.4072 0.24142 0.21145 
arquitectura -0.56189 0.21146 -0.15744 -0.02507 -0.049185 0.0077909 -0.068329 -0.58451 0.14204 -0.65273 -0.29761 -0.19265 0.67034 0.090022 -0.27531 -0.16869 0.35948 -0.33649 -0.060056 0.24253 0.24554 -0.17431 0.0092874 0.25844 0.3124 0.035429 -0.080156 0.025273 0.1435 -0.036889 -0.13878 -0.066584 0.019348 -0.13647 0.34326 0.049758 0.10001 -0.11704 0.09036 0.35277 0.26877 -0.026895 -0.21623 -0.014286 0.079376 -0.27717 0.34065 -0.4599 -0.23895 0.24308 -0.23886 0.41355 -0.63164 -0.026317 -0.0083828 -0.48781 -0.14346 0.45974 -0.30731 -0.37577 -0.34052 -0.30226 0.14578 -0.017382 0.38141 -0.12904 -0.00042077 0.36138 -0.44279 0.085969 -0.18813 -0.36285 -0.17974 0.035134 0.0091539 0.2451 -0.012235 -0.04737 0.18657 -0.44697 -0.042432 -0.10933 0.39347 -0.18776 0.03327 -0.08005 0.091274 -0.17784 -0.13032 -0.27803 0.34727 0.10019 -0.022478 -0.0028676 -0.27321 -0.00083417 -0.54526 0.057064 0.1247 -0.068935 0.14512 0.039982 0.17024 -0.24131 -0.46924 -0.19515 -0.18127 -0.155 0.40452 -0.021926 0.21194 -0.046536 -0.21427 0.18653 0.042874 0.3738 0.54096 0.054848 -0.33699 -0.064752 0.15312 0.0965 0.14835 0.21525 -0.23148 -0.11424 0.32616 0.12832 0.081084 0.10199 0.26612 -0.11379 0.47305 0.56605 -0.30579 -0.24555 -0.49424 -0.018756 0.49333 0.43849 0.095075 0.057911 -0.2904 -0.044771 -0.44237 0.010483 0.28766 0.008609 -0.1595 0.0023625 0.45165 0.030775 -0.018921 -0.35421 0.39771 -0.31658 -0.1753 -0.45773 0.001728 -0.0097686 -0.2258 0.38458 0.24613 -0.17705 0.23669 -0.22591 0.43051 0.066169 -0.26286 -0.4046 -0.45349 -0.14388 0.12295 0.23988 -0.13566 0.25139 0.14951 -0.068814 -0.038399 0.68349 0.014901 0.69018 -0.28867 -0.23825 -0.17061 0.28257 -0.099329 -0.18421 0.12533 -0.024331 0.3495 -0.12783 0.17386 -0.22216 -0.1331 -0.15789 -0.15241 -0.4826 -0.40802 0.22149 0.27324 0.073585 0.17651 -0.010671 -0.50615 -0.19062 -0.46624 -0.1462 -0.31382 -0.36453 0.23144 -0.41934 -0.062816 0.033022 -0.37476 -0.7005 0.09504 -0.37824 0.39179 0.37875 -0.42346 -0.18216 0.4444 0.082135 -0.13104 -0.21831 -0.056821 -0.54169 0.20722 0.29968 -0.17351 -0.24971 0.5595 0.03348 0.082261 -0.11339 0.058751 -0.50915 0.032622 -0.4543 -0.19736 0.1438 0.10112 0.33041 0.29834 -0.11708 0.07488 0.30096 -0.080476 -0.25229 0.055649 0.3192 -0.02471 0.21935 -0.14108 -0.2469 0.14994 -0.41846 0.078509 0.098061 0.62294 -0.18653 0.25212 0.12007 0.60491 -0.1652 -0.039043 0.47908 0.12596 0.18581 -0.052952 -0.025838 -0.087807 0.00083964 -0.26826 -0.3346 -0.3338 0.35854 -0.34133 0.28733 -0.046518 -0.46003 0.036529 0.02674 -0.10238 0.29202 -0.49664 0.49093 -0.47793 -0.38648 -0.55096 0.2621 -0.095941 -0.24989 -0.4621 0.10239 -0.47966 0.085126 0.2104 -0.017555 
siglo -0.17146 0.16805 0.06919 -0.17882 0.24659 -0.0029741 -0.031349 0.11871 -0.40958 -0.22774 -0.019439 -0.33129 0.22898 0.23145 0.092875 0.03846 -0.077829 0.2609 -0.14698 -0.21818 -0.41457 -0.052971 -0.27344 0.20417 0.42115 -0.095984 -0.049068 -0.6126 -0.25804 -0.0055605 0.29337 0.177 0.077097 -0.088754 0.22776 0.28023 -0.33573 0.31752 -0.081881 0.15344 0.15641 0.227 0.15351 0.27034 -0.20298 0.14673 0.19596 -0.24109 -0.33883 -0.16118 -0.1614 0.043078 -0.055391 -0.10856 0.046464 -0.0049489 -0.35277 -0.11494 -0.2042 0.032021 -0.34644 0.00095136 0.35084 -0.097535 0.56526 -0.18668 0.19945 -0.0035004 0.14228 0.03947 -0.10534 -0.30569 -0.34318 0.25094 -0.05268 0.15933 0.2475 -0.49536 0.68102 -0.012005 -0.018104 0.17258 0.75264 -0.46683 0.31479 0.17803 0.021609 -0.041614 0.038373 -0.082604 0.46772 0.041931 0.12461 -0.29671 0.10396 -0.16962 -0.65148 -0.088937 0.10414 -0.17101 -0.21786 -0.082267 0.43333 -0.43735 -0.11983 0.04833 -0.03515 0.13972 -0.13258 0.10681 0.16465 -0.0035588 0.16414 0.11612 -0.050717 0.17311 0.14811 -0.16702 -0.065539 -0.17435 -0.090751 -0.0801 0.089897 0.6341 -0.0033228 -0.26268 0.33814 -0.035025 0.14711 0.24197 -0.37153 -0.053181 0.085107 0.060648 0.20368 -0.20832 -0.13813 0.043461 0.51151 -0.010907 -0.11485 -0.45259 -0.055756 -0.229 0.041399 -0.16997 -0.18119 -0.058962 -0.10595 0.14831 -0.067485 -0.215 -0.16902 -0.10769 -0.076011 -0.057895 -0.20635 -0.40698 0.0071157 -0.34412 -0.26478 0.56247 0.031912 -0.13635 0.11176 -0.0038982 0.065782 0.082468 -0.10441 -0.024587 -0.52792 0.23579 0.068447 -0.067681 0.17282 -0.31618 0.25557 -0.31175 -0.091813 0.30246 0.31634 0.54567 -0.016423 0.11587 0.21566 0.065108 -0.24367 0.075089 0.078167 0.071743 0.0072238 0.26126 0.31277 0.22806 0.25076 0.46601 0.16627 -0.1405 -0.43285 -0.06686 -0.083334 0.16798 -0.057356 0.23495 -0.41813 0.49982 -0.096731 -0.10203 -0.017435 -0.35171 -0.22859 -0.032947 0.075439 0.031364 0.32015 -0.30215 0.12065 -0.011261 0.037649 0.31635 -0.27023 -0.062145 0.48186 -0.37996 0.41477 -0.44942 -0.097968 -0.72182 -0.13991 -0.013269 0.28456 -0.17539 0.14143 0.29014 0.076164 -0.23135 0.0091822 0.053193 -0.26117 -0.2945 -0.41049 -0.23352 0.1058 -0.14559 -0.078882 -0.091933 0.10045 -0.021314 0.090015 -0.31272 0.29823 -0.14681 0.28137 0.22394 0.028996 -0.43854 -0.22336 -0.4073 0.19856 0.265 0.32397 -0.057835 -0.12158 -0.25614 -0.057307 0.35821 0.053051 -0.028259 0.26457 0.028214 0.068678 0.044157 0.47002 0.33822 0.087064 -0.097423 0.0025967 0.096385 0.49573 -0.019416 -0.39925 0.35428 -0.15976 -0.20641 -0.076716 0.13763 0.016562 -0.17706 -0.34054 -0.46698 -0.43576 -0.09905 -0.36844 -0.36325 -0.83503 -0.32609 -0.32517 -0.40201 -0.27973 0.31544 
alojamiento -0.43809 0.02168 -0.088183 0.055027 -0.24103 0.27267 -0.10333 0.18928 0.23275 -0.16768 0.079683 0.11104 -0.002469 0.2864 0.22369 -0.31769 0.026047 -0.046811 0.27376 0.17999 -0.074701 0.019634 0.103 0.01725 -0.20436 -0.38835 0.34515 -0.017599 -0.069946 -0.16754 0.15825 0.11183 -0.11155 0.10939 -0.040779 -0.22082 -0.1096 0.23348 0.27653 -0.19195 0.29045 0.030009 0.0086191 -0.36579 -0.27141 0.20088 0.034844 -0.15577 -0.40023 0.026323 -0.16293 0.42614 -0.43616 0.27749 0.13008 0.11271 -0.24952 0.16325 0.29879 0.15751 -0.072029 -0.20447 0.073361 0.0612 -0.02236 -0.2595 -0.39004 -0.023612 -0.14223 0.36101 -0.23508 0.062961 -0.26909 0.40366 -0.037025 0.15605 -0.2424 0.086507 0.27308 0.12871 -0.36159 0.17528 0.43021 -0.23459 -0.18078 -0.12955 0.0032489 0.31774 -0.32484 -0.044092 0.14927 0.1411 -0.50781 -0.10161 0.47781 -0.40304 -0.20097 0.22776 0.13504 0.37891 -0.21938 -0.045716 0.084965 0.19852 -0.11671 -0.20691 0.34935 -0.2699 0.4584 -0.19622 -0.002735 0.10188 0.19265 0.14421 -0.19758 -0.16756 0.61173 -0.20142 0.017264 -0.26938 -0.059016 0.2901 0.22611 -0.0067314 0.057693 -0.52657 0.52369 -0.056071 -0.032231 0.17789 -0.0025412 0.046605 0.33299 -0.015316 -0.055527 -0.1592 -0.064687 -0.068885 0.038382 0.041954 -0.49716 -0.43799 -0.015919 0.048001 0.44677 -0.016891 0.26186 -0.093774 0.39369 0.20231 0.27679 0.21421 0.42847 -0.15452 0.50856 -0.44119 -0.21447 0.12392 0.065936 -0.16689 0.23586 -0.04653 0.1165 -0.091905 0.27696 -0.29669 -0.25758 -0.3433 -0.44856 -0.33873 0.22195 0.18333 0.00061863 0.30375 0.18415 -0.66245 -0.49896 -0.51197 0.18391 0.15419 0.085345 0.23956 0.3857 0.045945 0.34003 -0.3514 -0.26413 0.089373 0.019466 0.26328 0.26251 0.25944 0.25473 -0.31824 0.47019 -0.040386 -0.021689 -0.15906 0.16082 0.019337 -0.5676 0.49389 0.0089907 0.30344 0.31826 -0.39079 0.21831 0.12169 -0.2131 0.0019542 0.081343 0.18863 -0.16741 -0.4136 -0.46825 -0.28726 0.088973 -0.1897 -0.15524 0.035918 -0.11455 0.0016086 0.36225 -0.52966 -0.045587 -0.016196 -0.11859 -0.28191 -0.024163 -0.27895 0.21444 -0.12165 0.14025 -0.064736 0.35529 -0.20616 0.14343 0.30336 -0.036691 -0.3904 0.18225 0.17247 0.11787 0.21449 0.24835 0.1316 -0.055586 -0.15741 0.36206 -0.3006 0.20076 0.006915 -0.38425 0.23714 -0.47803 0.28023 -0.05935 0.53007 0.19315 -0.15131 0.61639 -0.12292 -0.15728 0.037267 0.18848 -0.5953 -0.38133 0.31544 -0.043178 -0.022572 0.015272 0.12351 -0.074712 0.13337 -0.030488 -0.10488 -0.015912 0.15732 -0.21707 -0.08498 0.2831 -0.47804 -0.030118 -0.073247 -0.024321 -0.0054789 -0.11648 0.24305 -0.094105 -0.34329 -0.056095 -0.19237 0.055248 -0.14699 -0.27304 -0.17816 -0.18086 0.2894 -0.27876 -0.05036 
arreglo -0.18773 0.25502 0.18627 0.12632 0.17789 0.039548 -0.1162 0.34496 -0.14945 -0.75548 0.35238 0.44612 0.19527 -0.22595 -0.14791 0.38325 0.12144 -0.22882 -0.18285 0.14581 -0.040526 -0.011079 -0.21022 -0.35207 0.14799 -0.084492 0.095173 0.29536 0.037136 -0.26988 0.20268 0.066569 -0.11167 0.17389 -0.026817 0.13256 0.087846 0.0059622 -0.17997 0.10151 0.057336 -0.10479 0.22464 -0.076726 0.47224 -0.26672 -0.16673 -0.27805 -0.069426 -0.12272 -0.3203 -0.1458 -0.39682 -0.25326 0.027702 -0.24898 -0.074761 -0.29447 -0.053147 -0.071321 0.14872 -0.14443 0.21696 -0.10091 0.12653 -0.012681 0.38969 0.018044 -0.12336 0.13026 -0.026656 0.078171 0.082279 0.053237 -0.31373 0.051475 -0.15418 0.36464 -0.060298 0.11013 -0.30426 0.20739 0.3282 -0.02053 -0.088879 -0.40172 0.032134 -0.062501 -0.1652 -0.30021 0.092189 -0.028102 0.33792 0.09436 -0.40903 -0.15866 -0.25729 0.0022916 0.040534 -0.20104 0.15272 -0.043527 0.13894 0.23662 -0.34515 0.059911 0.35726 -0.26971 -0.13657 -0.17606 -0.30524 0.19695 0.056261 -0.10172 -0.33749 0.042414 0.076061 -0.28776 -0.1649 -0.09433 0.19169 0.17889 0.16581 0.1148 -0.23847 -0.1786 -0.082646 0.010438 0.15494 0.083402 0.27763 -0.12117 -0.0080161 0.13042 -0.094529 0.17353 0.30886 0.12958 0.050447 0.10071 -0.22103 0.29766 0.29195 0.53926 0.29672 -0.33478 0.52018 -0.20044 0.29029 -0.13186 -0.032231 -0.30034 0.030727 0.088686 0.091087 -0.31354 -0.1641 -0.018155 0.2079 0.161 0.51474 0.1244 0.01691 0.30868 0.39523 -0.16522 0.099792 -0.072165 -0.024896 -0.34862 0.079561 -0.18077 -0.046865 -0.24852 -0.23899 -0.92989 0.43011 -0.25858 0.03516 -0.15859 -0.282 -0.13475 0.098817 -0.10944 0.24656 -0.018875 -0.1512 0.35407 0.28237 -0.084439 -0.03395 0.039299 -0.072648 -0.18012 -0.29667 -0.079439 0.18535 0.30041 -0.11782 0.037079 -0.20552 -0.096355 0.3454 -0.26941 -0.12309 -0.34909 -0.045335 0.10653 -0.12209 0.16903 -0.077437 -0.098368 -0.084674 -0.056526 -0.24049 -0.24129 0.23944 0.27405 -0.016217 -0.11274 -0.20816 0.11112 -0.12883 -0.12277 -0.17684 -0.016646 0.14128 -0.31692 0.17177 -0.3399 -0.012916 0.0009071 0.31017 0.075876 0.05703 -0.48251 0.087299 -0.0476 0.37873 -0.29231 0.037206 0.10232 -0.34339 0.061605 -0.071563 0.071577 0.12878 0.039066 -0.24192 -0.22141 0.34304 0.042917 0.20515 0.016781 -0.081296 -0.41061 -0.19608 -0.090909 -0.0032063 -0.086419 0.32393 -0.17714 -0.045797 -0.069618 0.016193 -0.35492 -0.022067 -0.29426 -0.061943 -0.4924 -0.46683 0.29873 -0.16879 -0.16462 -0.17461 0.45772 0.072712 -0.40973 -0.1031 -0.14574 -0.076992 0.29005 -0.28355 -0.13746 0.34091 0.089025 -0.20849 0.23233 -0.21855 -0.18702 0.061726 -0.37486 -0.026082 -0.30543 -0.27957 -0.21911 -0.22885 -0.41796 0.14115 0.20847 
llegada 0.10073 -0.225 0.030336 0.0188 -0.21942 0.0010932 0.15624 -0.048751 -0.3268 0.15713 -0.10714 0.02439 0.020695 0.19042 0.093939 -0.11669 -0.53308 -0.16795 0.076116 -0.042593 0.2072 0.15341 0.1826 -0.012146 -0.070618 -0.011386 -0.069097 -0.47573 -0.61237 0.09811 -0.0028377 0.064929 0.029795 0.071464 -0.10569 0.32718 -0.14689 -0.20966 -0.16303 -0.0090681 0.031043 0.27208 0.07667 -0.16655 -0.25136 -0.12053 0.26159 -0.06878 -0.18085 -0.12072 -0.27775 -0.30133 -0.013478 -0.42876 0.039305 -0.14475 0.15514 -0.086678 0.086571 -0.31814 -0.22753 0.089713 0.13129 -0.057148 0.11575 0.22122 0.0052089 -0.22272 0.021976 0.03811 0.11675 -0.1212 -0.37653 0.085295 -0.23785 -0.014924 0.43347 -0.1466 0.25172 -0.14017 -0.11791 -0.089258 0.30594 0.027958 0.052191 -0.19605 -0.18172 0.062301 0.049743 -0.013102 0.34525 0.093528 0.035536 -0.039581 0.026604 -0.21296 -0.52605 0.001403 0.39446 0.0053686 0.057417 -0.19285 0.043558 0.30533 -0.32571 -0.057569 0.072867 0.21907 0.22399 0.26953 -0.092737 -0.0099127 -0.15601 0.0022832 -0.52774 -0.11919 -0.15027 -0.021454 0.11791 0.059076 0.22356 -0.088685 0.085475 -0.10858 -0.24778 -0.070345 0.1793 0.035632 0.55699 0.38867 -0.13473 -0.27908 -0.13066 0.041811 -0.18313 0.050186 -0.042725 0.1283 0.051528 0.17412 -0.0055714 -0.32373 0.22159 -0.2665 0.39435 -0.020895 -0.37008 0.013134 -0.10738 0.0042242 -0.10406 0.15291 0.18364 0.064809 -0.15515 -0.20056 0.012649 -0.10257 -0.051716 -0.027441 0.096252 0.13205 -0.12248 -0.2927 0.23038 -0.13486 -0.17178 -0.22782 0.027426 0.14942 0.1476 0.019255 0.083392 0.23412 -0.032893 -0.53324 -0.21511 0.080048 0.14765 0.53807 -0.24038 0.045134 -0.10213 0.13876 0.076242 0.062694 -0.13592 -0.27142 -0.18286 0.42733 0.28542 0.2349 -0.12251 0.011348 -0.064544 -0.23263 0.038065 0.058665 0.10228 0.18443 -0.1811 -0.0060753 0.19282 0.13813 -0.054374 -0.029081 -0.11703 -0.36956 0.017582 0.20216 0.069157 -0.070716 0.036123 0.076464 -0.38858 -0.2962 0.1854 -0.077608 0.1722 0.32403 -0.33609 -0.20468 -0.014021 -0.078372 -0.043946 0.22204 0.15443 -0.21112 -0.15852 -0.203 -0.06779 0.09778 0.21182 0.34628 0.26559 -0.11622 0.20807 0.065784 -0.099825 -0.21725 0.14064 -0.035095 -0.032384 -0.19269 0.60652 -0.0098723 0.15057 0.18051 0.15651 -0.017141 0.11563 0.24758 0.045664 0.18778 -0.24644 0.24439 -0.20836 -0.028827 -0.00074236 0.057768 0.052872 0.12671 -0.04566 -0.27081 0.1166 0.29701 -0.36888 0.024646 -0.014871 -0.22516 0.10842 0.24968 0.20055 0.29584 0.12288 -0.23492 0.2111 -0.027708 0.25369 0.065852 -0.14867 0.033228 0.11497 -0.13345 0.16531 0.063684 -0.0040784 0.17033 -0.071078 -0.40255 -0.16633 -0.26042 -0.16309 -0.29463 -0.62235 -0.37438 -0.19841 0.18626 -0.031523 0.031386 
hotel 0.0029377 0.009505 0.26066 0.17373 0.036767 0.20721 -0.44357 0.10792 0.013422 -0.38379 0.06189 -0.50456 -0.0066178 0.14351 0.33123 -0.19234 -0.023015 -0.17084 0.1588 -0.038199 0.17906 0.29354 -0.12175 -0.10226 -0.22278 0.23412 -0.069528 0.25228 -0.13591 -0.046735 -0.047734 0.1575 -0.41992 -0.34656 0.24985 0.20792 -0.20773 0.18432 0.11876 0.12547 0.051857 -0.2237 -0.28897 -0.096637 -0.12275 0.47514 -0.010722 -0.26146 -0.31221 0.36356 0.61663 -0.34538 -0.30398 0.092939 -0.40504 0.37281 0.13814 -0.14005 0.14324 0.090416 -0.1793 -0.31742 -0.32751 0.048739 -0.32112 -0.04577 0.0116 -0.10699 0.14533 0.08926 -0.44316 0.2663 -0.15328 -0.24519 -0.14766 -0.21856 -0.25467 0.0036223 -0.022908 0.44102 -0.029037 -0.41971 0.14493 -0.15262 0.24787 -0.11918 0.08092 0.17679 -0.03183 -0.17364 0.15634 -0.094659 -0.45953 -0.1472 0.2369 -0.47732 -0.39334 0.23387 -0.026861 -0.073602 0.2977 -0.10856 0.25755 0.05263 -0.34897 -0.12581 0.058093 -0.081605 0.29904 0.2408 0.046953 0.70547 -0.071358 0.18213 -0.24694 0.37484 0.84052 0.062099 0.48814 -0.12146 -0.044385 0.43054 -0.063565 0.077481 -0.069161 -0.29373 0.1368 -0.01441 0.065328 0.36085 -0.10705 -0.46526 0.030888 0.37755 -0.5336 0.13559 -0.047211 -0.55646 0.45361 0.05407 -0.44779 -0.38374 -0.17629 0.087775 0.2807 0.17798 0.34817 -0.24878 0.3173 0.35893 0.13236 0.06884 -0.081715 0.21079 -0.013432 -0.33367 0.38371 -0.10059 -0.34169 -0.082514 0.083769 -0.074666 0.19109 -0.13301 0.10769 -0.3203 0.0050325 -0.32243 -0.23944 -0.15008 -0.061832 0.28297 -0.12646 -0.19197 -0.22367 -0.44966 -0.56929 -0.27326 -0.036254 0.38799 0.29057 0.39162 -0.10329 -0.25379 -0.065379 -0.4892 0.01027 0.30185 0.010862 0.15045 0.073938 0.14398 0.063575 -0.34357 0.091953 -0.2846 0.18859 0.034826 0.025718 0.019759 -0.11888 0.49068 0.38602 -0.03733 0.13255 -0.029474 0.20933 0.071342 -0.091559 0.073006 -0.14149 -0.079929 0.10797 -0.30148 -0.48334 -0.21318 0.36631 -0.13931 -0.13063 -0.054661 -0.49933 -0.11563 0.19583 0.041187 -0.1775 0.3546 -0.22342 -0.34177 -0.30688 0.2835 -0.093076 -0.30768 -0.064945 0.17847 -0.23748 -0.098813 -0.055198 0.20878 -0.048247 -0.33969 0.22413 0.011704 -0.21511 -0.33336 0.061777 -0.076648 0.13232 -0.18502 0.081474 -0.25312 0.35354 0.16473 -0.40105 -0.0084065 -0.52967 0.12513 0.19627 0.35671 -0.24627 0.012902 0.13762 -0.4558 0.21156 0.31835 0.098905 -0.12196 -0.33398 0.33338 -0.048909 0.083909 -0.22626 -0.061716 -0.57724 -0.17283 0.028955 0.061053 -0.18095 0.49368 -0.14825 0.03783 -0.26005 0.080953 -0.36554 0.042474 -0.1958 0.15293 0.11353 0.53834 0.032035 -0.61872 0.22417 -0.22976 0.2361 -0.20964 -0.46864 -0.097777 -0.37445 -0.23327 -0.082506 -0.16445 
asilo -0.27229 -0.18689 -0.25393 0.20602 -0.21877 0.061293 -0.12625 0.089071 -0.12705 -0.067494 0.11064 0.50537 0.24454 -0.20331 0.32791 -0.23342 0.044466 -0.17162 0.049792 0.20758 -0.33621 0.26517 -0.52174 -0.27261 0.043153 -0.2275 0.11957 -0.44965 0.15556 -0.22239 -0.0022549 0.49053 -0.10343 -0.032056 0.23288 -0.0058573 -0.26185 0.18116 -0.050053 0.49226 -0.083798 -0.2266 -0.26431 -0.37888 0.12482 0.40999 0.11789 0.16519 -0.050006 -0.13551 0.28775 -0.038623 0.28499 -0.074314 0.072643 0.089972 -0.43624 0.2669 0.19513 0.098287 0.013522 -0.31731 0.1046 0.21805 0.5105 0.49739 0.018146 0.06455 0.061513 0.15938 -0.46524 -0.20811 -0.038533 0.45218 -0.0078319 -0.088219 0.020483 -0.25693 0.0016408 0.18039 0.018637 -0.081174 0.052588 -0.56713 -0.10277 0.14904 0.09704 0.32122 -0.22525 0.26237 0.17963 -0.096757 -0.29792 0.14483 0.17182 -0.10501 -0.31683 0.14181 -0.057132 -0.16833 0.16892 -0.071183 0.26803 -0.0004718 0.13253 -0.31027 0.17636 -0.28333 -0.05779 -0.04767 -0.42413 0.24175 0.51553 0.06698 -0.15022 0.25453 -0.037309 0.0086502 -0.085552 -0.56424 -0.10679 0.53159 0.24455 -0.0066397 -0.23449 -0.27963 0.42761 0.30766 0.3016 0.27056 0.0325 -0.014677 0.031624 0.11415 -0.32377 -0.41346 -0.20742 -0.024678 0.31193 0.29921 -0.42814 -0.18721 -0.19342 -0.12113 0.21613 0.0062187 0.42961 -0.48954 0.061417 0.17445 -0.12029 -0.38753 0.20226 -0.037335 0.050999 0.023292 -0.2039 0.19257 0.13652 -0.27802 -0.012512 0.15746 -0.055755 0.52487 0.27617 -0.19983 -0.18188 -0.75197 -0.38691 -0.087085 0.067461 -0.027891 0.03379 0.098154 -0.18834 -0.64135 -0.16325 0.13048 -0.045923 -0.19297 0.40697 0.33972 -0.18629 -0.1026 0.045018 -0.14463 0.32187 0.055308 -0.22104 -0.41675 0.28531 0.34144 0.1283 0.5519 0.0047336 0.13295 0.66214 0.22401 0.065982 -0.028984 -0.16785 0.38037 0.24831 -0.038609 0.56438 -0.11424 0.26297 0.07958 -0.1473 -0.29933 0.018012 0.034949 -0.3088 -0.24389 -0.22224 -0.23714 -0.13442 0.00082558 -0.17447 -0.21663 0.10956 -0.26863 0.32561 -0.37398 -0.40951 0.1611 -0.15274 -0.33509 -0.32055 0.26803 0.10251 -0.35433 0.26794 0.40903 0.11725 -0.080914 0.18297 0.76525 -0.58224 -0.23825 0.17651 0.31988 0.25803 -0.50879 0.19096 -0.017844 0.04204 0.59304 0.081759 -0.020903 0.38038 0.26996 0.083731 -0.022809 -0.47524 -0.062011 -0.14363 0.15715 -0.40433 -0.011051 0.35615 0.021013 0.07586 -0.28485 0.21027 0.0076301 -0.17569 0.084644 -0.046055 -0.2845 0.13775 -0.10555 0.29781 0.28247 0.13938 0.31103 -0.002983 -0.064153 0.027123 -0.2436 -0.092273 -0.32717 -0.031121 -0.37479 0.061326 0.073063 -0.072288 -0.049151 -0.41582 -0.28748 0.021754 -0.080886 0.1713 -0.029858 -0.29961 -0.31243 -0.20658 0.21094 -0.076314 0.16766 
manicomio -0.20755 0.12019 -0.24248 0.11318 -0.15417 0.038158 -0.11906 0.14783 0.073548 -0.12706 0.056289 -0.075301 -0.21177 -0.19117 0.05192 -0.10247 -0.10239 -0.19676 -0.0058005 0.22835 -0.17455 0.31424 -0.35805 -0.083361 0.039061 -0.10177 -0.095955 -0.05427 -0.00066095 -0.34561 -0.070668 0.5297 -0.31999 0.097417 0.35878 -0.067259 -0.054534 -0.029087 -0.15957 0.13278 -0.63531 -0.2628 -0.2216 -0.013593 -0.16021 0.19087 0.11547 0.13273 0.33279 -0.13792 0.086591 -0.10849 0.088224 0.052515 0.23878 -0.0066673 -0.18413 -0.11325 0.066328 0.34935 0.15417 0.17116 -0.084741 0.32328 0.1063 0.15931 0.26949 -0.013933 0.20758 -0.095115 -0.50687 0.28271 0.13765 0.090859 0.061477 0.22108 -0.19446 -0.45433 -0.0092727 0.25756 0.18469 0.25883 0.28179 -0.020854 -0.39353 0.28751 0.078114 0.36018 -0.23285 -0.025634 0.22827 -0.11565 0.10566 -0.39817 0.4859 -0.044211 -0.76524 0.30656 -0.20303 -0.28113 0.18495 -0.19069 0.31713 0.08241 0.00097257 -0.16666 -0.04491 -0.54108 -0.085184 0.079418 -0.020385 0.40024 0.39903 -0.23752 0.18644 -0.095264 0.056453 0.11752 -0.30349 -0.25307 0.16105 0.28658 0.13474 0.1638 -0.24899 -0.29445 -0.14503 0.49936 0.33862 0.27844 0.30372 -0.040542 -0.13782 0.12698 -0.22719 0.0756 -0.024912 -0.13418 0.11392 0.87979 -0.30869 -0.012273 -0.23851 -0.17703 0.12705 0.30605 0.3036 -0.52119 0.3397 0.15269 0.039501 -0.17653 0.35326 0.26347 0.37256 -0.14913 -0.04768 0.088647 0.10821 -0.16459 0.22435 -0.093633 0.28916 0.22045 0.72149 -0.075509 -0.30456 -0.57312 -0.062774 -0.1056 -0.0036119 0.11129 -0.093788 -0.27471 -0.25352 -0.37126 0.11038 -0.4222 -0.22007 -0.068543 0.20707 0.71798 -0.14745 -0.1225 0.005974 0.12174 0.35217 0.30584 -0.1669 -0.30451 0.3753 0.0082288 0.18369 0.52973 -0.44121 -0.096907 0.45184 0.46076 -0.063973 0.25126 0.11976 0.30052 0.1712 0.19936 0.48657 -0.094546 0.17805 -0.021461 0.16817 -0.29184 0.015676 0.19403 -0.19919 0.067677 -0.45642 -0.3686 -0.09671 -0.063784 0.029318 -0.18282 -0.31632 -0.30816 0.10754 -0.40771 -0.10026 -0.019456 -0.096269 -0.1594 -0.31784 0.19115 -0.15162 -0.38074 0.30832 0.33048 -0.0041616 0.1191 0.13844 0.43915 -0.45597 -0.14316 0.15831 0.044265 0.19346 -0.34489 -0.05739 0.29612 0.38303 -0.066941 -0.0068357 -0.0051813 0.38428 0.059523 0.04347 0.088233 -0.30212 -0.23114 0.076442 0.38965 -0.13327 0.050377 0.16184 0.063301 -0.04446 -0.20671 0.10833 0.43847 -0.16876 0.3805 -0.18287 -0.10702 0.072503 -0.21621 -0.18794 0.34205 -0.021464 -0.016976 0.0091388 0.13284 0.074969 -0.12983 -0.36958 -0.053588 0.11899 0.091783 -0.0083084 0.0015468 -0.033013 -0.038311 -0.20231 -0.20389 -0.043432 -0.21732 0.41089 -0.3073 -0.6622 -0.0096428 -0.38717 -0.038022 0.028604 0.12616 
atmosfera -0.49368 -0.55717 0.11353 -0.39709 0.037177 0.16506 0.15076 0.077728 0.063996 -0.13849 -0.41316 -0.019811 -0.76191 -0.14059 0.40808 0.29066 -0.41847 0.51018 0.45391 -0.21441 0.3298 0.25628 -0.22519 0.075347 0.12842 0.4102 0.29895 -0.020828 0.14156 -0.65922 0.32281 0.00076017 0.15277 0.076998 -0.18047 0.4322 -0.43204 -0.58924 -0.71479 0.25622 -0.070056 -0.14268 -0.081795 0.046519 0.15489 -0.47334 0.12495 -0.071698 -0.011741 0.37623 -0.53851 0.13208 -0.22723 -0.11065 0.074143 -0.065482 -0.14719 -0.019235 0.21887 -0.35104 0.20518 0.019298 -0.53767 -0.061448 0.37066 0.13445 -0.67474 0.012529 -0.40517 -0.17874 -0.020639 0.33582 0.007315 -0.031003 -0.60713 0.63197 0.081377 0.062835 0.1661 0.22151 -0.30228 -0.43021 0.34983 -0.25243 -0.46013 0.31986 -0.039193 0.0041363 0.31573 -0.059089 0.24825 0.076218 0.59424 0.11643 0.40541 0.01152 -0.39651 0.26806 -0.19921 0.16847 0.083446 0.20706 -0.40018 -0.19741 -0.23953 -0.23282 -0.10968 -0.13219 -0.071879 0.042213 -0.026022 -0.033007 -0.22832 0.23274 0.064907 0.051469 0.31853 -0.14908 -0.9306 -0.33457 -0.3965 0.45136 -0.20506 0.054848 -0.17268 -0.31961 0.019371 0.46869 0.32234 -0.063222 -0.0080616 -0.21603 -0.08194 0.51219 0.037181 0.62973 -0.40679 0.064101 -0.22681 0.5097 0.1216 0.15843 -0.016518 0.11396 0.23638 -0.25252 0.69057 0.081263 -0.0024044 -0.15464 0.067368 -0.013619 -0.037587 -0.20583 -0.27333 -0.59617 -0.23108 0.33408 -0.28613 0.15123 -0.030045 0.086405 0.39902 0.21278 0.55256 0.17191 -0.15134 -0.038837 -0.017462 -0.30449 -0.50306 -0.26256 -0.23788 -0.042011 -0.044192 0.025385 0.28802 -0.17479 -0.0058609 -0.21816 -0.046507 0.17689 0.61943 -0.26327 -0.026745 -0.040055 0.058524 -0.30271 0.068293 -0.13135 0.25763 0.012106 -0.33884 -0.54126 -0.20504 0.15686 -0.18341 -0.26476 -0.048188 -0.24699 0.22304 0.45735 0.26101 0.21768 -0.24155 0.25753 -0.047288 0.16802 0.51889 -0.14583 0.18304 0.051554 -0.40479 -0.19562 -0.37199 -0.0087691 0.53251 -0.11165 0.116 -0.13504 -0.3462 -0.25344 0.14423 -0.42778 -0.2288 0.12922 0.0052135 0.12364 0.56462 -0.015357 0.54411 -0.055373 0.24752 0.4171 -0.25517 -0.059917 0.33715 0.20112 -0.27265 0.053702 0.0417 -0.19585 0.18878 0.36133 0.46701 -0.29303 0.27009 0.15876 -0.095069 0.025812 -0.046684 -0.065701 -0.25526 -0.12947 -0.20256 0.46509 -0.055668 -0.014386 -0.49102 -0.27934 0.086537 -0.14372 -0.10074 0.47521 0.06282 0.0121 0.028322 -0.14299 -0.098421 -0.087934 0.094972 -0.089841 -0.37563 -0.49931 0.24943 -0.17281 -0.041802 0.068169 -0.27516 0.43495 -0.14635 0.12938 -0.1845 -0.30344 -0.41509 0.1616 -0.096166 -0.38886 -0.078183 -0.11493 -0.13709 -0.29234 -0.16895 0.27439 -0.22644 -0.036476 -0.28309 0.10871 0.68893 0.034946 
paisaje -0.15609 -0.098427 -0.058865 -0.20162 0.10926 0.3305 -0.26486 0.22365 0.50188 -0.56497 0.34024 -0.12451 0.01805 -0.038807 -0.14113 0.12708 -0.31116 0.013047 -0.13997 -0.21872 0.18406 0.2097 -0.0094159 -0.20026 -0.10018 0.1748 0.031051 -0.29957 0.35999 -0.14494 0.28744 0.15168 -0.45869 -0.24681 0.16518 -0.095115 -0.51424 0.19229 0.044625 0.61024 -0.060814 -0.14734 -0.0091077 -0.045915 -0.10543 -0.14912 0.18147 0.010165 -0.094367 0.43979 -0.15812 -0.11814 -0.19191 0.17306 -0.018333 0.063633 -0.27587 0.11985 0.37268 -0.27735 -0.26151 0.12916 -0.066997 -0.012658 0.26128 -0.15632 -0.20902 -0.014732 -0.34773 0.062095 -0.094709 0.15311 -0.49841 -0.093562 -0.48352 0.45552 -0.29461 0.10766 -0.094898 -0.12332 -0.19804 -0.27872 0.35504 -0.19039 0.082204 0.0012085 -0.019383 0.34523 0.40568 -0.16276 0.18524 0.19047 -0.15495 -0.13862 -0.10733 0.023148 -0.55125 0.17858 -0.27677 0.41811 0.17169 0.066485 0.35266 -0.25887 -0.31314 0.048392 -0.40549 0.16481 0.16453 -0.21133 -0.32834 0.21339 -0.2314 -0.14875 -0.11536 0.20911 0.036983 -0.037663 -0.37435 0.16462 -0.041085 0.05899 0.059563 0.060928 0.025744 -0.15071 0.25359 0.36986 0.18028 -0.017782 -0.3087 -0.21149 -0.029661 0.10026 0.011628 -0.21705 -0.38494 -0.037595 0.13047 0.38028 0.56991 0.14859 -0.37496 0.38368 0.091668 0.17045 0.16334 0.1035 -0.056203 0.016998 0.17738 -0.10417 0.03031 -0.11805 0.49416 -0.14023 -0.15614 -0.34731 -0.036452 0.24129 -0.059267 0.53057 0.66546 -0.22509 0.5579 0.04955 0.087804 -0.22499 0.086726 -0.44352 -0.28277 0.27941 0.014745 0.12361 -0.065035 -0.41257 0.26406 -0.026704 -0.14695 0.68211 0.11933 0.15044 0.25072 -0.42914 0.04909 0.28436 -0.024461 0.21904 -0.16343 -0.059779 0.062517 0.19763 0.0047579 -0.40406 0.3516 -0.30285 0.018999 -0.316 -0.40226 0.38036 0.038679 0.35393 0.45436 -0.23924 -0.15599 -0.13178 -0.16004 -0.46506 0.48356 0.11012 -0.33808 -0.30313 0.16441 -0.24706 -0.028967 -0.1489 0.43326 0.04164 -0.078129 0.36914 0.00847 -0.21631 0.38569 0.18333 -0.077833 -0.222 0.088918 -0.24272 0.055766 0.49634 -0.023911 -0.31462 0.63195 -5.1851e-05 -0.03817 0.085256 -0.15737 0.46095 -0.1423 -0.15924 -0.083243 -0.35891 0.1592 -0.2316 0.39762 0.44294 -0.024096 0.20196 0.031373 -0.19108 0.19176 0.21733 0.24665 0.057299 -0.067247 0.056215 0.055922 -0.24909 -0.11502 -0.70387 0.61724 -0.10148 0.21246 0.0003424 0.15186 0.086147 -0.23008 0.12359 0.03021 0.25307 -0.14561 -0.13955 -0.13099 -0.28337 0.20613 -0.12508 -0.014079 0.0032738 -0.16838 0.18583 0.019357 -0.12902 0.040418 -0.043856 -0.16702 0.25851 0.029687 0.21413 -0.33862 -0.19259 -0.080324 0.13437 -0.21308 0.16648 -0.38044 -0.025912 -0.42486 -0.025975 0.22918 -0.24912 
intento -0.020393 -0.0069812 -0.15106 -0.036343 0.1892 -0.32273 -0.13993 -0.12034 -0.0082931 -0.33043 -0.074232 -0.022979 0.095989 -0.030453 -0.19438 -0.067565 -0.30928 -0.098217 -0.12344 -0.17357 0.40495 -0.11423 0.042201 0.031815 0.10304 0.31696 0.10988 -0.00077247 0.10904 -0.13209 0.34472 0.16923 0.093669 -0.20436 0.19086 0.071612 0.0017371 0.019142 -0.15484 0.52978 0.15548 -0.12432 0.34426 -0.2856 0.11694 -0.1842 0.046301 -0.16971 -0.17468 0.044477 0.27352 -0.029521 -0.19781 -0.1358 0.084613 -0.19923 -0.10753 0.16229 0.093685 -0.2178 -0.071448 -0.048318 -0.2028 -0.0717 0.18912 -0.22856 0.37997 0.21007 -0.090906 -0.24098 0.037094 -0.18104 0.057637 0.26278 -0.10854 -0.13555 0.049869 -0.30414 0.11846 0.37818 0.082134 0.059424 0.41033 0.08512 0.12978 -0.048075 -0.24657 -0.21361 0.25102 0.016252 0.098191 -0.023407 0.23637 -0.066692 -0.21617 0.12712 -0.40859 -0.26683 0.4074 -0.23061 -0.32263 0.026295 -0.23614 0.066202 -0.15328 0.18894 0.21733 -0.3531 -0.10963 -0.27161 0.20237 -0.086443 -0.018474 -0.16439 -0.018495 -0.19871 -0.036455 -0.13763 0.031624 0.083351 0.015165 -0.17395 -0.2132 -0.26849 0.11656 0.034471 0.055142 0.060349 0.32794 0.17957 -0.00047835 -0.17756 0.13668 0.30336 0.041261 0.033903 -0.40699 0.0092197 0.033484 0.13586 -0.039251 -0.089587 -0.10176 0.15751 -0.084523 0.36936 -0.13789 -0.088294 0.2516 0.18819 0.2744 0.16974 0.022869 0.30465 -0.18996 -0.33553 0.083364 -0.27116 0.021894 -0.20682 0.35331 -0.23683 0.05112 -0.013744 0.23275 -0.39047 -0.20849 -0.19877 0.1374 0.17796 0.10076 0.29683 0.061947 0.028723 -0.28727 -0.36787 -0.025745 -0.076833 -0.18756 0.21422 -0.09366 0.16994 -0.022378 0.02998 -0.17305 -0.052631 0.0013795 -0.13209 -0.10499 -0.10308 -0.072516 0.3019 0.047013 -0.056848 -0.083149 -0.097589 0.17558 0.13667 0.10306 0.37914 -0.12771 -0.091405 0.38805 -0.23679 0.32521 0.071473 0.042379 -0.35138 -0.13348 -0.045867 -0.16304 -0.23335 -0.24261 -0.051056 -0.41456 -0.15806 -0.024971 -0.30505 -0.086552 0.134 -0.29817 -0.33787 -0.2033 -0.56729 -0.20969 0.15293 -0.33929 -0.27362 -0.35118 -0.086274 0.62702 -0.04894 0.03446 0.23103 -0.010284 0.020303 0.23772 0.21482 -0.28093 -0.17928 0.078464 0.0042262 0.3033 0.062865 0.16223 -0.26222 0.20406 -0.034972 0.13411 -0.11054 0.26527 0.089869 0.12574 0.037895 -0.074889 -0.32028 -0.070706 0.13739 -0.22604 -0.050769 0.044616 0.25893 -0.055541 0.15919 0.11686 0.25673 -0.21624 0.31565 0.0024658 -0.17713 -0.27309 0.17 0.28659 0.30772 0.033073 0.52092 0.24732 -0.16394 -0.07385 0.12343 -0.018254 0.046618 0.10441 -0.090588 0.16546 0.41077 0.064591 0.078332 -0.052899 -0.28857 0.21586 0.29139 0.054179 -0.076638 -0.19115 -0.21135 -0.24554 -0.021565 0.012345 -0.12071 
paz -0.10522 0.05007 0.22296 0.11347 -0.11503 0.030606 0.08343 -0.088983 0.16948 -0.16802 -0.2404 0.27441 0.2646 -0.15221 -0.095565 0.08662 0.090002 -0.14136 -0.068185 0.29399 0.030124 0.39694 0.16123 0.092442 0.10508 -0.54262 0.24353 -0.35344 -0.44034 0.062964 0.11708 0.17528 0.29403 0.19433 -0.31703 0.17441 -0.49191 0.58591 -0.39708 0.27524 -0.077897 0.037413 0.23323 0.036476 0.19297 -0.31352 0.19608 -0.16411 -0.47379 0.098621 0.041392 0.013087 -0.13686 -0.16706 -0.081859 -0.14914 0.26463 -0.23174 -0.10511 0.10256 0.31963 -0.43762 0.49869 -0.5242 0.22576 -0.33288 0.22311 -0.040698 -0.34408 0.21813 -0.34736 -0.091592 0.18417 -0.2591 -0.16074 -0.33575 -0.22357 0.21003 -0.082728 -0.08606 -0.1635 -0.097646 0.38641 -0.35796 0.082707 -0.1113 0.098045 0.31636 0.050989 -0.23074 0.32191 -0.061978 0.19455 -0.0051297 0.13188 -0.075272 -0.027755 -0.31732 0.22494 -0.26052 0.47109 -0.10078 0.19242 0.019959 0.032637 0.071613 0.26959 -0.065637 -0.1169 -0.086993 -0.34957 0.053684 0.17745 -0.031411 -0.26022 0.15862 -0.065349 0.051226 -0.1976 0.10241 0.048767 0.28557 0.088715 -0.23329 -0.074056 -0.75716 0.073925 0.55302 0.46509 -0.13334 -0.035793 -0.20953 0.32599 -0.13522 -0.34568 -0.14936 -0.24085 -0.47122 0.65726 0.20848 -0.39037 0.13481 -0.002541 0.025772 0.097456 -0.1438 0.15023 -0.10136 0.16566 -0.15427 0.13708 -0.071629 0.019982 0.41763 0.16577 0.20567 0.11085 0.049833 -0.12448 -0.28083 -0.03426 -0.099656 0.056491 0.12169 0.13984 0.26115 0.31063 -0.47037 -0.058419 -0.13725 -0.0292 -0.13744 0.24588 -0.62934 -0.15529 -0.64433 0.1665 -0.018381 0.081977 -0.22987 0.10655 -0.11175 -0.21737 -0.29207 -0.076447 -0.061206 0.2961 -0.065048 -0.0095001 -0.070836 0.22311 0.035415 0.2628 -0.067274 -0.049678 -0.12902 -0.013467 -0.047738 -0.27981 -0.032258 -0.12579 -0.036729 -0.11026 0.31315 0.036833 0.16115 0.21693 -0.0074723 0.012553 -0.29143 -0.12744 -0.094076 0.11553 0.48975 0.078066 -0.073643 0.45652 -0.025192 0.70875 0.10367 -0.1952 -0.4194 -0.1153 -0.033936 0.047987 -0.20289 0.23393 -0.33958 0.048489 -0.29891 0.033192 -0.19435 0.061443 0.12704 -0.29895 0.53287 0.17442 0.10948 -0.12911 -0.28955 0.029609 0.007365 0.40666 0.20798 0.49306 -0.30725 0.37871 0.27653 0.2364 -0.032765 0.27998 0.15662 0.26086 0.24353 -0.2825 -0.2166 -0.15528 -0.27484 0.055087 -0.36422 0.071848 -0.46718 -0.056774 0.42585 -0.129 -0.16479 -0.36768 0.065015 -0.084116 -0.27435 -0.45073 0.40958 -0.13849 0.21981 0.44486 0.17356 0.097127 0.098613 0.42733 0.20672 0.23812 -0.46105 -0.33175 -0.1032 0.44996 0.33729 -0.11612 -0.007334 0.31908 -0.10703 0.010823 -0.0075454 -0.32113 0.097614 -0.1152 -0.38335 -0.3961 -0.11464 0.37513 -0.097827 
bebe -0.005094 -0.47232 -0.035451 -0.19921 0.40612 -0.18212 -0.10722 0.45105 -0.17655 0.20598 -0.031443 0.45949 0.28696 -0.094207 0.55289 -0.13062 -0.049113 0.25583 0.38737 -0.11829 0.18549 0.01891 -0.098509 -0.10531 -0.10589 -0.020266 -0.25927 -0.36932 0.21029 -0.26603 0.14581 0.35362 -0.17722 -0.15606 0.18112 0.078858 -0.0039186 0.18033 0.31852 -0.032809 0.030985 -0.015729 0.15776 0.055432 -0.082606 -0.014501 0.24215 0.4808 0.22234 0.12258 0.24633 -0.55792 -0.30335 -0.19399 0.036733 -0.21352 -0.085372 -0.36397 0.016315 0.032189 -0.14587 -0.21726 0.10921 0.10915 0.243 -0.15209 0.020424 -0.068855 0.030087 0.23064 -0.056387 -0.1137 -0.10549 0.25354 0.13436 -0.047109 0.19396 -0.21644 0.34313 0.044699 0.013643 0.0042358 0.17423 0.093249 -0.1295 0.17996 0.2307 0.19928 0.26645 -0.16277 0.55698 0.21246 0.025573 0.047567 0.10639 0.25254 0.32161 0.30293 -0.22981 -0.0072728 -0.39192 0.054952 -0.036003 -0.21193 0.080987 -0.16083 0.10468 -0.29943 0.41869 -0.11401 0.14163 0.26641 -0.14853 0.13031 -0.077765 0.10033 0.44877 0.3706 0.0028156 -0.15708 -0.18697 0.095757 0.5086 -0.31856 -0.28645 0.091053 -0.18486 0.16784 0.52653 0.053785 -0.062827 -0.29644 -0.30188 0.24925 -0.092922 0.38764 -0.45317 -0.1282 -0.26805 0.12985 -0.26578 0.12971 0.029089 -0.19803 0.0034694 -0.12642 -0.12947 0.1542 -0.0047317 0.26044 0.038991 0.13494 0.42091 0.38085 -0.18771 -0.49113 -0.1027 0.2263 0.21044 -0.14454 0.059202 -0.18297 0.075987 0.26461 0.1016 -0.1195 0.15855 0.091873 0.035001 0.095333 0.44579 0.066412 0.10554 -0.076894 -0.14169 -0.2655 -0.58285 -0.11402 -0.075273 0.45183 0.16916 0.069753 -0.062519 -0.071154 0.081977 0.41645 0.40044 0.012115 -0.002336 -0.19207 -0.094483 0.031226 0.21186 -0.1353 -0.10087 -9.0579e-05 0.066335 -0.29501 -0.33154 -0.0041206 -0.019826 0.13415 0.32314 0.10021 0.49273 0.239 -0.0008307 -0.18477 -0.14748 0.0050073 0.021965 0.09361 -0.18685 0.13594 -0.049501 -0.18575 0.41562 0.017477 -0.097343 0.00090624 -0.5753 -0.27498 -0.088157 -0.40216 0.065737 0.19646 0.23177 -0.072164 -0.26875 0.32471 0.66515 -0.22987 0.42917 -0.076274 -0.14322 0.21849 0.31616 0.39375 0.11786 0.047394 -0.03027 -0.026941 -0.36405 0.058003 -0.22558 0.060082 0.71257 0.15232 -0.31007 0.0050831 -0.11361 -0.093218 0.2295 -0.15325 0.28559 -0.093578 0.060973 0.21899 0.12272 0.052554 0.13521 -0.048614 -0.25679 -0.058379 -0.1263 0.19882 -0.24626 0.28511 -0.080994 -0.21796 -0.088211 0.11608 -0.53274 0.12592 -0.26047 -0.027988 0.13047 0.059739 -0.35589 0.13995 -0.37554 -0.086369 -0.2036 -0.25534 -0.17794 -0.20554 0.33514 0.2383 -0.12209 0.3533 -0.11484 -0.32499 -0.0021522 -0.42251 -0.76069 -0.3112 -0.064477 0.077219 0.36818 0.20441 
madre -0.17173 -0.22154 -0.3887 0.22716 0.29588 -0.23318 0.14911 -0.27048 -0.029512 0.48191 0.14118 0.2398 0.53456 -0.028593 0.050404 -0.14758 -0.22213 0.033668 0.27977 0.045653 -0.17509 -0.25691 -0.26727 0.042207 0.17947 -0.096963 -0.039657 -0.095895 0.017297 -0.063669 -0.11533 0.21284 0.029785 0.017198 0.065197 0.023478 -0.31193 0.15896 -0.032301 0.030013 -0.30339 -0.22837 -0.18015 -0.0089603 0.19225 -0.045094 0.29967 0.32666 -0.33019 0.30364 -0.02887 -0.077106 -0.32135 0.025091 -0.35464 -0.15438 0.073858 0.083583 0.22926 -0.10207 -0.084232 -0.052592 -0.12489 -0.0057209 0.36424 -0.028378 0.13226 -0.11528 -0.059552 -0.28182 -0.041494 -0.14368 -0.28732 0.02455 -0.21494 -0.25908 0.15262 -0.34083 0.11037 0.13434 0.14248 -0.034998 0.23012 -0.22051 0.29024 0.090761 0.30851 0.23181 -0.2149 0.17984 0.2554 0.077499 0.12361 0.022039 -0.19803 0.015118 -0.03007 0.34394 0.15488 0.15617 0.010222 -0.34585 -0.1099 -0.1087 0.090062 -0.35138 -0.26931 -0.083334 0.41131 -0.05646 0.074567 -0.059937 -0.028083 0.082594 0.050404 0.048211 0.19801 0.074468 -0.16276 -0.14106 -0.019653 0.3494 0.32858 -0.19023 -0.38818 0.054318 -0.241 0.04781 0.48931 -0.13235 -0.11234 0.013791 0.054884 0.043645 -0.091467 0.19822 -0.073424 0.065942 0.059892 0.40525 -0.14675 0.19098 0.15831 0.30743 0.31533 0.029738 0.41963 -0.20233 0.042069 0.30338 0.023514 -0.13363 0.16545 0.23921 0.050269 0.0038728 0.010202 -0.18599 0.1603 0.30103 -0.14936 0.028185 0.18191 0.08414 0.2143 0.17283 0.2502 -0.31387 -0.20275 -0.00055933 0.10626 0.12648 0.12536 -0.21705 -0.286 -0.18112 0.030194 -0.1771 -0.19838 0.4148 -0.0031243 -0.044209 -0.09314 0.03995 0.15904 -0.26273 0.15912 0.04805 -0.24557 0.23611 0.12429 -0.053707 0.11333 0.18808 -0.38687 -0.024019 -0.013024 0.10716 0.013264 0.2882 0.21056 -0.0012341 0.11724 -0.14016 0.54892 0.0046636 0.093328 0.3215 -0.26493 -0.17202 -0.15807 -0.073496 0.069798 0.22185 0.1778 -0.14854 0.12769 0.2009 -0.090457 -0.1255 -0.20564 -0.54247 0.056192 0.024897 -0.36022 -0.0045591 0.12113 -0.29028 -0.46843 0.13214 0.13795 0.20996 0.21146 -0.050399 0.051118 0.38922 0.58943 0.29778 0.01121 0.27077 0.0079509 0.1002 0.022606 0.12691 0.54094 -0.41975 0.4745 0.22677 -0.04345 0.12786 0.084062 0.055227 -0.11792 -0.13181 0.0057726 0.069147 -0.019897 -0.37678 -0.13131 0.15452 0.34916 0.10551 0.28677 -0.21928 -0.026986 0.071991 -0.23086 0.14302 -0.50558 -0.57275 0.12165 -0.11522 0.065563 0.40553 -0.12944 0.1944 0.12644 0.1745 -0.12684 0.15207 -0.065829 -0.18868 0.075459 -0.18236 0.032541 -0.010626 0.52825 0.33721 -0.13634 -0.08404 -0.20238 -0.16708 -0.096083 -0.39243 -0.77451 0.041635 0.13573 -0.12627 0.31591 0.16447 
banco 0.23537 0.2496 -0.59236 0.041211 -0.053346 0.44384 -0.63739 0.19485 -0.012029 -0.24341 0.26776 0.051665 0.16335 -0.056603 0.11703 -0.51985 -0.14928 -0.10745 -0.29705 0.10499 -0.36561 -0.24761 -0.068448 -0.18493 0.041618 -0.19631 0.16318 -0.17801 -0.28584 0.16492 0.25467 0.17372 -0.26719 -0.28442 0.64576 0.18281 -0.27792 0.25995 0.21102 0.38668 0.12263 -0.40999 -0.15496 0.19161 -0.11548 0.26516 0.26539 -0.098536 -0.19929 0.36715 0.26527 -0.036233 -0.34249 -0.11413 -0.21289 -0.84931 0.058726 -0.064406 0.060755 0.10179 0.056426 -0.15309 0.05574 -0.1165 0.33055 -0.26163 -0.00046339 0.23116 -0.051688 0.11681 -0.4822 0.17498 -0.04422 -0.41627 0.19582 -0.15555 0.079272 0.20505 0.23685 0.3362 -0.056609 -0.12244 0.098176 -0.26169 0.46558 0.40454 -0.17647 -0.084195 0.0058763 -0.47258 0.74645 -0.27518 0.22189 0.011278 -0.53928 0.11335 -0.38094 0.23555 -0.047256 -0.19121 0.42266 -0.20613 -0.1148 -0.21633 -0.12 0.62972 -0.062794 -0.10075 -0.010492 -0.18118 -0.17911 0.30334 0.2695 0.36228 -0.26255 0.23037 0.39793 0.21842 -0.29236 -0.33213 0.60496 0.13643 0.10689 -0.26763 -0.37096 -0.17512 0.11126 0.15643 0.62704 0.52924 0.13937 -0.2404 0.39459 0.50391 0.13324 0.052139 -0.37116 -0.28675 -0.00086971 0.3395 0.028713 -0.034743 -0.04997 0.22656 1.0164 -0.055078 0.23798 -0.35502 0.08036 0.14737 0.10936 -0.18742 -0.14313 0.017579 0.03449 0.061196 0.10309 0.020115 -0.062707 -0.19629 0.097621 0.21822 -0.405 0.2674 0.37225 -0.20384 0.13629 -0.32196 -0.73543 -0.079965 -0.034445 0.25794 -0.1743 -0.093217 -0.35863 -0.077118 0.20412 0.1823 -0.19219 0.19384 0.14698 0.25963 -0.26023 0.23753 0.076376 -0.2637 -0.007 -0.28706 -0.069256 -0.070679 0.37042 0.24563 -0.0072125 -0.064483 -0.0081785 0.04018 0.098719 -0.33226 0.12983 0.095087 -0.21468 0.24661 0.32821 0.22178 -0.50208 0.15767 0.00053445 0.14567 -0.0014235 -0.2408 -0.17201 0.015987 -0.0011034 0.011249 -0.60345 0.038884 0.30693 -0.44703 -0.61942 0.20405 -0.41436 -0.058861 -0.19749 -0.31679 0.036201 0.22194 -0.23402 -0.046297 -0.28357 0.29822 0.19389 -0.24353 0.023153 0.099295 0.0558 0.028258 0.067691 0.3804 -0.098803 -0.31112 0.17816 -0.42777 0.026228 -0.15434 -0.14947 0.044486 0.022656 0.18896 0.15126 -0.056027 0.064792 0.43179 0.021731 -0.24964 0.28289 0.025887 -0.27011 -0.36636 -0.42855 -0.084985 -0.029613 -0.2123 0.28869 -0.10906 -0.057498 -0.20264 0.0053472 -0.14264 -0.45645 0.0262 -0.14442 -0.046555 -0.33203 0.048933 -0.17612 -0.10584 -0.040804 -0.20892 -0.14658 0.20661 0.089966 0.48951 0.39395 -0.21231 0.54061 -0.23391 -0.15165 0.41582 -0.010228 0.57715 -0.3322 -0.18112 0.016688 0.12626 -0.11669 -0.062965 -0.30478 0.019033 -0.038933 0.0049698 
dinero -0.12283 -0.11921 -0.14108 -0.10771 0.0166 0.44693 -0.22836 0.19634 0.14877 0.027335 0.064107 0.091 0.35844 -0.39698 0.048546 -0.10915 0.37819 -0.06317 0.098186 -0.072838 -0.33305 -0.41629 -0.20748 -0.32359 0.0011768 -0.0097463 0.0019391 0.59597 0.16297 -0.0089911 0.02192 -0.047671 -0.080078 0.08591 0.11373 -0.077075 -0.29578 0.23514 0.26028 0.064093 0.23436 0.40194 0.21561 0.10253 0.21204 -0.22524 0.21825 0.24986 0.039837 0.068225 -0.14942 0.020454 -0.1046 0.16278 0.16516 -0.35477 -0.0022147 -0.36053 -0.010199 0.12028 0.064352 0.070987 -0.075955 0.12899 -0.20253 -0.16008 0.086758 0.095344 -0.066228 -0.024314 -0.41253 -0.1363 -0.069051 -0.032739 0.26632 0.21411 -0.0071553 0.13217 0.3331 0.35877 -0.1664 0.046367 0.40298 -0.45238 0.36129 -0.0095072 0.062015 0.27564 0.50986 -0.067524 0.23411 -0.25458 3.1923e-05 0.1143 0.35189 -0.25879 -0.26549 -0.2283 -0.07972 0.012881 -0.16904 -0.12152 -0.10226 -0.047662 -0.13921 0.064916 0.053753 -0.27142 0.20284 -0.31824 -0.11921 0.031693 0.21208 0.19638 -0.029441 0.35248 -0.074991 0.065447 0.033272 -0.1273 0.48887 0.21612 0.087468 -0.060463 -0.12271 -0.085083 0.14986 0.37617 0.066679 0.19267 -0.010293 -0.25485 0.32885 0.3686 -0.0035952 0.02457 0.14048 0.1834 0.24194 0.24089 -0.10078 -0.10743 -0.25285 0.14194 0.33578 -0.28674 0.16515 -0.12447 0.28094 0.054838 -0.089651 0.15495 0.28592 0.21069 -0.016225 -0.2305 -0.2218 0.12243 0.33169 -0.053218 0.17875 -0.11327 -0.018681 0.24029 0.17279 0.02527 0.024849 -0.39267 -0.33905 0.35831 0.38336 -0.030576 -0.10561 -0.11979 -0.29369 -0.43697 0.023767 -0.25067 -0.084888 -0.12376 0.32442 -0.12858 0.034735 0.16719 0.37704 -0.12992 0.25195 -0.099303 -0.2175 -0.072669 0.32258 -0.046417 0.27741 0.012244 0.32716 0.33428 0.064066 -0.07167 0.049742 0.54003 0.061495 0.12718 -0.024522 0.18038 0.27331 -0.12005 0.17706 0.0090446 -0.20743 0.3419 0.043003 0.30108 -0.47207 -0.068728 -0.27505 0.34812 0.11036 -0.25985 -0.097464 0.18113 -0.57418 -0.12281 -0.2078 -0.50623 0.010888 0.32352 0.085313 -0.68782 -0.39252 -0.052761 0.26681 -0.28327 0.30912 -0.27435 -0.10443 -0.089151 0.21615 0.26053 -0.57952 -0.32586 0.29053 -0.0017038 0.02258 -0.24087 -0.11806 -0.03754 0.025938 0.39177 0.11772 -0.28549 -0.014234 0.12548 -0.10219 -0.02883 -0.11612 -0.11361 0.017312 -0.1062 -0.11571 0.17607 0.189 -0.17149 -0.0065355 -0.16898 -0.13703 -0.4367 -0.41464 -0.14059 -0.16534 -0.21496 0.0026428 0.12518 -0.30434 0.48394 -0.24833 0.18991 0.081945 0.19903 -0.23218 -0.14528 -0.01971 0.06082 0.02698 -0.14432 0.25153 0.12506 0.25758 0.38895 0.26468 0.11213 -0.087024 -0.27544 -0.13278 0.052388 -0.43039 -0.15957 -0.77883 0.12874 -0.1658 0.052238 
beisbol 0.77188 -0.062776 -0.087471 0.23984 -0.49763 0.49556 -0.19626 -0.42361 -0.19297 -0.067609 -0.49091 0.72843 0.051849 -0.39787 -0.09072 -0.08464 0.19301 0.27568 -0.46614 0.049968 -0.093877 -0.48828 -0.51203 -0.30221 0.23579 0.14538 0.18808 0.85722 -0.06664 0.7641 0.10053 0.01972 -0.026998 -0.40591 0.14114 -0.20749 -0.063384 -0.32122 0.69541 0.69745 0.37557 -0.92024 0.038519 0.1981 0.10389 -0.091779 -0.27436 -0.077185 -0.53706 0.013662 0.54218 -0.50509 -0.67912 0.39158 0.31688 -0.31007 -0.85115 0.37053 -0.24416 0.65176 -0.077698 -0.34545 -0.023145 -0.79382 0.35975 0.20747 0.44176 0.55914 -0.17913 0.026377 0.52462 -0.26399 -0.074658 -0.16296 -0.26642 0.7652 0.083191 -0.032998 0.48758 1.1596 0.73022 -0.11426 0.72344 -0.14594 -0.014378 -0.21203 0.56787 0.25157 0.0019385 -0.78574 0.2587 0.67917 -0.084737 0.21027 -0.72959 -0.58468 -0.50589 0.92329 0.42544 -0.095239 0.22934 0.31376 -0.3159 -0.2711 0.05636 -0.11445 -0.23985 0.34268 -0.33466 0.29503 0.21274 0.38104 -0.043005 -0.022394 0.044456 0.71754 0.50813 0.12791 -0.36591 0.57316 -0.057004 0.53762 0.4869 -0.096366 -0.59925 -0.26605 -0.3541 0.29512 -0.20333 0.50735 -0.00033606 0.17144 -0.43041 -0.063171 -0.18071 0.13598 0.23276 -1.2572 0.073044 -0.078798 0.2634 -0.1243 0.3012 -0.022425 -0.28892 -0.25749 -0.51735 0.40107 0.75109 0.23782 -0.14347 -0.18958 0.74163 0.067963 -0.9873 0.38962 -0.34706 0.52486 -0.19993 0.28614 0.089766 -0.14256 1.1982 -0.41018 0.28927 -0.23253 -0.040133 0.22274 -0.40268 0.66504 0.12191 -0.16263 0.3711 -0.29742 -0.1116 -0.37144 -0.17131 0.18502 -0.35103 0.044539 -0.10024 0.48748 0.21491 0.81608 -1.0353 -0.59429 -0.13675 0.061222 1.0506 0.61921 -0.28027 -0.4258 -0.25211 0.34891 -0.76859 -0.4752 -0.023194 -0.0014662 0.042533 -0.42699 -0.17833 0.12122 0.42578 -0.17961 0.48589 -0.54344 -0.16469 -0.48045 0.16367 0.010712 0.13783 0.52986 0.0057201 -0.25226 -0.52566 -0.51137 0.272 0.13026 -0.56365 0.15127 -0.60839 -0.32539 0.080886 -0.17777 0.090141 0.25654 -0.72907 -0.54387 0.43214 -0.048239 0.41683 -0.19062 0.60352 0.43801 -0.11191 0.046528 -0.21056 -0.12471 -0.30961 0.12193 -0.17846 0.31963 0.99813 0.14509 0.41826 0.58229 -0.40799 0.31881 0.56262 -0.70832 -0.13269 0.32062 -0.037969 -0.17722 0.57131 -0.21154 0.16964 0.64545 0.22157 -0.43366 0.41731 0.065825 0.81076 0.37992 -0.81072 0.081686 -0.20009 0.32313 0.47069 -0.70054 -0.35283 1.1913 -0.014354 0.44506 0.41812 -0.33179 0.72523 -0.2093 -0.54198 0.9665 -0.51421 0.30823 0.75384 -0.41007 0.051709 -0.18583 -0.91052 0.53421 0.14377 -0.39398 0.0081405 0.12195 0.5244 0.00013638 -0.48175 -0.46124 -0.99018 0.44224 -0.6355 0.098024 
