admission 0.13004 -0.15579 -0.35378 -0.10305 -0.078205 -0.075422 -0.07691 -0.11314 0.054298 0.1909 -0.18844 -0.23135 0.00692 0.027649 0.14456 -0.43913 -0.23667 0.22143 -0.14548 0.2168 0.28323 0.59309 0.14922 -0.1292 0.16561 0.091767 -0.29624 0.40273 -0.10642 0.084591 -0.40173 0.22693 -0.43393 -0.20089 -0.13048 -0.10762 0.25531 -0.0017213 -0.29787 -0.28787 0.31489 0.040968 -0.22323 -0.068057 0.26048 0.20643 0.17358 0.056591 -0.14517 -0.20968 0.33996 -0.19493 0.27845 -0.41342 -0.37894 -0.015854 -0.27369 -0.06567 0.057568 0.24666 0.13368 -0.0015096 0.022167 -0.47537 -0.061135 0.071705 -0.30147 -0.040972 0.31991 -0.32326 0.087315 -0.18351 0.061273 -0.15896 -0.27566 -0.33593 0.50451 0.33593 -0.1558 -0.22987 0.17608 0.13673 -0.14188 0.20888 0.020391 -0.073201 -0.13774 0.34094 -0.33938 -0.062515 -0.50121 -0.419 0.033516 -0.55975 -0.12579 0.27682 0.098542 0.019699 -0.079116 0.16243 0.22725 0.12821 0.36433 -0.073443 -0.049201 -0.048809 -0.074486 0.040642 -0.11825 0.22569 0.028878 0.078028 -0.38892 -0.50892 0.077167 -0.56122 -0.029631 -0.24791 -0.11798 -0.056519 0.42005 0.12323 -0.071617 0.43226 0.20665 0.033421 0.23078 0.16129 0.58772 0.21253 0.24947 -0.25895 0.19948 -0.18591 -0.10572 0.022722 -0.12286 -0.33358 -0.0077594 -0.17731 -0.14595 0.24783 -0.11654 0.065742 0.078441 0.051433 -0.021026 -0.071256 -0.13968 0.15554 0.34067 -0.28856 0.13211 -0.1145 0.0010873 0.20785 -0.13691 -0.10297 -0.014913 0.59792 0.32201 0.2841 -0.3472 0.040283 0.71408 0.51444 0.047626 -0.26 0.33728 0.089156 -0.29794 0.18561 -0.1797 0.27619 -0.27855 0.01201 -0.34157 -0.28282 -0.40232 0.17016 0.0064254 -0.10647 0.059322 0.080459 -0.54179 -0.053562 0.10311 0.052939 0.17263 -0.25741 -0.36862 0.09185 0.27507 0.050475 -0.20315 -0.25677 0.14034 0.0080055 -0.085078 0.077251 0.086174 0.053681 -0.16312 0.072252 -0.092033 0.0008822 0.14124 -0.13969 0.30456 0.24699 0.5965 0.13287 0.11145 0.10227 -0.15953 0.21888 0.14018 -0.34177 0.22662 0.16732 0.042105 0.18167 0.15563 -0.12022 0.27568 0.1072 -0.058061 -0.015054 -0.27726 -0.12531 -0.028008 0.38034 0.16263 -0.068946 0.051746 0.20946 0.24065 -0.13784 -0.25338 0.043408 0.22621 -0.43384 0.058801 0.13635 -0.14679 0.078726 0.17442 0.10745 -0.10845 0.13152 -0.058622 0.080318 0.14596 -0.16108 -0.46317 0.1487 0.042518 -0.39341 0.32292 -0.129 -0.11814 -0.047553 -0.093687 0.13752 -0.067888 0.22247 0.10546 -0.099171 0.11717 0.14823 -0.005938 0.0075168 0.060159 -0.2899 -0.46047 -0.16184 0.071612 0.32826 -0.15031 0.02348 -0.30566 -0.14125 0.25916 -0.026493 0.0051654 -0.085597 0.41436 0.10889 -0.32275 0.020526 0.068087 -0.059592 -0.26859 -0.097151 -0.1143 -0.038756 -0.051705 0.053781 -0.20976 -0.023946
ticket -0.20497 0.051109 -0.076019 -0.054272 0.28653 -0.27911 0.21618 -0.16546 -0.073381 -0.36625 -0.43579 -0.17068 0.12578 0.29056 0.33795 -0.40095 -0.69233 -0.34952 -0.13717 0.3 0.25287 0.32994 -0.15457 -0.072602 -0.23579 -0.022926 -0.15627 0.23028 0.086711 -0.37168 -0.31497 -0.053997 0.23512 -0.13077 0.0059449 0.20745 0.21638 -0.22981 0.1763 -0.15937 0.19633 -0.29829 -0.087588 0.01914 0.24415 0.11717 0.23463 -0.53421 -0.0042287 0.23498 0.42273 -0.16235 0.14302 -0.0072218 -0.3445 0.031988 -0.16083 0.4628 0.16071 -0.14178 0.21279 -0.02414 0.10334 -0.23803 -0.36773 0.51292 -0.44479 0.17418 0.11687 -0.36594 -0.12669 0.45366 0.40941 -0.22843 -0.20645 -0.16597 0.16714 -0.085128 -0.30572 -0.070423 -0.10981 -0.098096 -0.38406 0.16168 0.17237 -0.078476 0.1816 -0.25784 0.10422 -0.20255 -0.093714 -0.41598 0.20542 -0.0018885 -0.054806 0.42505 0.28 -0.35352 -0.15823 0.14535 0.1662 -0.016067 0.57764 -0.26386 -0.059461 -0.30586 -0.10474 -0.10421 -0.26068 0.32041 -0.17335 -0.16848 -0.20201 -0.41198 -0.31499 0.0012953 0.26802 -0.37011 -0.25045 -0.12691 0.38852 -0.013403 0.24903 0.39812 0.14626 0.20592 0.49984 -0.10314 0.62982 -0.0090308 0.17187 -0.53414 0.015849 -0.033568 -0.14685 0.0072392 -0.15461 -0.13245 0.20633 0.65428 -0.27226 0.14317 -0.30267 0.49759 -0.035744 0.32397 -0.0025303 0.056987 0.17709 0.011858 0.45363 -0.056375 -0.18179 0.15501 -0.089055 0.021887 -0.20191 -0.17044 -0.45775 0.21902 -0.01797 0.39868 -0.20848 0.048545 0.70799 0.26893 0.28875 -0.36847 0.0086039 0.063468 -0.10987 0.053374 -0.37729 0.22311 -0.23087 0.52725 -0.21359 0.52885 0.16654 0.29637 -0.26571 -0.29883 -0.076945 0.13642 -0.49316 -0.16107 -0.059061 -0.044215 0.13369 0.039221 -0.24589 -0.31964 0.046664 0.04293 0.069323 -0.084948 -0.026512 -0.096166 -0.32809 0.022069 -0.32991 0.46203 0.12945 0.01104 -0.073112 -0.331 -0.26432 0.44944 0.21959 -0.10415 0.5333 -0.3461 -0.020003 -0.25997 -0.1831 -0.12844 -0.092142 -0.32926 0.084104 0.12551 -0.22812 0.053038 0.088269 -0.12628 0.15335 0.23777 0.1435 0.22703 -0.1999 -0.032359 0.062028 0.27271 0.35296 0.13175 0.26186 -0.055197 -0.013744 -0.067934 0.25621 0.10704 0.24362 0.33098 -0.11579 0.0331 -0.5284 0.085831 0.51815 -0.33659 0.69192 -0.29426 0.30634 -0.070246 0.10193 -0.11577 0.063745 -0.16458 -0.20795 -0.4952 0.076738 -0.38805 -0.29367 0.13123 0.2598 0.021536 -0.65597 0.40764 -0.23373 -0.15097 0.2638 -0.46183 -0.54098 0.37303 -0.075505 -0.029719 -0.38547 -0.42165 0.1142 0.52514 0.12742 -0.095683 0.11907 -0.27062 0.48971 -0.17287 0.16859 0.24378 0.43438 0.24186 -0.052029 0.17473 0.18459 -0.11837 -0.31431 -0.070815 -0.12509 -0.18672 -0.25984 -0.04188 -0.14562 0.20245
alcohol 0.025642 -0.26487 -0.43046 -0.34776 -0.075417 -0.083612 0.51873 -0.55152 0.10336 0.10453 0.21903 0.16245 -0.11951 0.21288 -0.40234 -0.13809 -0.36768 -0.072912 0.22643 -0.038579 0.13569 0.0012989 -0.38618 -0.11218 -0.23235 0.36397 0.026033 -0.13819 0.12244 0.1935 -0.42235 0.17564 -0.30201 0.29136 0.27117 -0.25215 -0.19015 -0.12478 -0.21976 0.41566 0.24326 0.21698 -0.18469 -0.025354 0.15128 0.2394 -0.14748 -0.10002 0.055737 -0.11074 0.034563 0.058011 0.36875 -0.31533 -0.49028 -0.046361 -0.10391 0.071807 -0.14821 -0.047472 -0.3319 -0.38323 0.25045 -0.32526 0.025423 -0.32352 -0.27275 0.1965 0.29583 -0.092766 -0.1827 -0.10636 0.46391 -0.33439 0.09899 0.090823 0.2107 0.19685 -0.15287 0.31231 0.31297 0.1086 -0.30596 -0.37589 -0.31904 -0.028401 -0.2796 0.44573 0.33534 0.18571 0.15737 -0.1268 -0.49008 -0.33132 -0.014835 0.0018111 0.054428 0.419 0.081593 -0.0071697 0.089804 0.1288 0.043419 0.019984 0.36981 -0.36303 -0.076373 0.68796 0.14974 0.44702 -0.41593 0.069239 -0.045821 -0.018081 0.11993 0.22283 -0.011551 0.038885 -0.18795 -0.28 0.48688 -0.47025 -0.029197 0.26004 -0.11573 -0.65211 -0.15319 0.2008 -0.27465 0.43158 0.026697 -0.35035 -0.59899 -0.17619 0.23924 -0.20628 0.42001 -0.23808 -0.54671 -0.10718 0.19667 0.33192 -0.093471 -0.14826 -0.082442 0.17657 0.12667 -0.32356 0.004268 -0.017919 0.64018 -0.25644 0.13283 -0.1814 0.18317 0.085992 -0.26608 -0.16484 0.31738 0.050084 0.18152 -0.14067 -0.38705 0.13108 0.31844 0.37305 -0.077751 -0.55379 0.058553 0.44006 -0.30573 -0.2451 -0.090805 0.17324 -0.38743 -0.34796 -0.019472 0.1797 -0.078212 -0.21688 -0.2122 -0.17023 -0.037126 0.30479 -0.21288 0.10434 0.84183 0.07905 -0.25186 -0.1361 -0.43426 -0.061346 0.026686 -0.27304 -0.29432 0.23567 -0.25426 0.081028 -0.14978 0.19865 -0.06926 -0.010125 0.071229 -0.068608 -0.19779 -0.21546 -0.54644 -0.11399 0.35716 0.1152 0.56473 -0.067252 -0.30457 -0.043203 -0.12294 -0.31528 -0.30453 -0.4443 -0.1994 0.011449 0.0028049 -0.027905 0.26529 -0.083966 -0.021608 0.23915 -0.079708 -0.7147 -0.070865 -0.26387 -0.13311 -0.12312 0.024323 -0.35408 0.22203 -0.010139 0.12154 -0.30544 -0.14792 -0.024398 0.17478 -0.12957 0.0812 0.15369 -0.22282 0.20577 -0.10648 -0.28938 -0.23118 -0.11154 0.0014623 0.28901 -0.081967 -0.040025 -0.23617 -0.15155 0.37415 -0.81396 -0.053516 -0.15007 0.0090481 0.38034 0.26111 -0.27236 -0.098562 0.04223 -0.27045 -0.22407 -0.078649 0.060982 -0.088595 -0.25369 -0.073092 0.48346 -0.18007 -0.037178 0.26238 0.24373 0.19904 -0.0065725 0.48549 0.19726 -0.077105 -0.034363 0.20921 0.19149 0.33905 -0.0072885 -0.56872 0.15936 0.2899 -0.047218 -0.024011 -0.69074 -0.68669 -0.23704 0.23213 0.28422 0.0061259 0.058673
chemistry 0.068651 -0.010901 -0.13975 -0.012988 -0.49803 0.16107 0.3446 -0.34776 -0.03538 0.27998 0.4069 0.19765 -0.17758 0.18077 0.43131 -0.58412 0.21565 0.17257 -0.70226 0.61306 0.034815 -0.020085 -0.047743 -0.3858 -0.43711 0.0084113 0.16937 0.19097 -0.050241 0.27119 -0.087167 0.58302 -0.29255 0.17107 -0.33679 0.24545 -0.12323 0.06902 0.28181 -0.047011 -0.010581 0.26776 -0.15459 -0.20655 0.29668 -0.10854 0.0081638 0.032759 0.027725 -0.53098 0.042263 -0.2423 0.020723 -0.55664 -0.042437 -0.48147 -0.10142 -0.14728 0.14609 0.28468 -0.075327 0.18705 0.055887 -0.16468 -0.063285 -0.30926 0.040686 -0.074447 -0.39178 0.24557 -0.31736 0.16297 0.45762 -0.10883 0.30016 -0.025528 -0.00077119 0.29933 0.38991 -0.4127 0.4295 0.080609 -0.22873 -0.10948 0.05756 -0.35808 0.15106 -0.27197 -0.14158 -0.52166 0.29844 0.23738 0.12065 -0.49011 -0.17142 0.34277 0.065951 0.22615 -0.068827 -0.27868 0.36635 -0.44029 0.28979 0.34711 -0.27281 -0.062868 -0.41575 0.058006 -0.061468 -0.22451 -0.19692 0.072945 0.041125 -0.28281 -0.046672 -0.092696 -0.064778 0.46524 -0.12147 -0.047328 0.25512 -0.49166 -0.46576 0.23402 -0.00028479 0.071137 -0.32058 0.40185 -0.060406 0.084539 0.10624 0.12134 0.07856 0.030228 -0.21522 0.021767 0.33198 0.35237 0.096361 0.33786 -0.046405 0.32724 0.24898 -0.014095 -0.083131 0.37658 0.051178 0.21843 0.0073418 -0.1649 0.18895 0.011953 -0.27906 -0.30007 0.26263 -0.066599 0.055926 -0.035619 -0.2875 0.19552 0.034952 0.61811 -0.51146 -0.4862 0.45236 0.53608 0.15488 0.010372 0.21359 0.36982 -0.4857 -0.15724 -0.075385 -0.1868 0.090692 0.4685 -0.084053 -0.13389 -0.18353 0.047741 0.091133 -0.012904 0.20036 -0.29231 0.055861 0.19213 0.22468 0.23858 -0.19808 -0.13763 -0.50499 -0.2835 0.24857 -0.016376 -0.44931 0.23192 -0.44163 -0.026576 -0.094511 -0.50478 0.078725 0.40805 -0.10145 -0.38185 0.32661 -0.033314 -0.40134 -0.081003 -0.097735 0.26175 0.42007 -0.10261 -0.020703 0.27445 -0.12801 -0.097398 -0.13811 0.15172 -0.33326 0.17154 -0.0039765 -0.23192 -0.21135 0.1729 -0.72729 0.03484 -0.0027161 -0.60497 -0.24219 -0.25707 0.29037 -0.19207 -0.067987 -0.52653 0.15408 0.040268 0.33299 -0.26417 -0.15456 0.22028 -0.13085 -0.13388 -0.058281 0.071693 -0.085251 0.19679 0.18729 0.15094 -0.18123 -0.5456 0.11315 0.19023 -0.20959 -0.18441 0.31748 -0.21874 -0.27439 -0.1655 -0.15142 0.22336 -0.44159 0.37826 0.14272 -0.086364 0.24404 0.045782 0.15578 -0.10751 0.33086 0.25891 0.12892 -0.27422 0.13798 0.027201 -0.37731 -0.27893 -0.080172 0.20737 -0.21333 0.42298 0.39784 0.54151 -0.13004 -0.15704 -0.87303 0.28812 0.041406 0.024603 -0.46348 0.34089 0.20227 0.13406 0.49999 -0.14546 -0.44687 -0.28862 0.19852 0.014491 -0.14275 -0.23537
aluminum -0.19342 -0.14184 0.31273 0.25571 -0.24557 0.10485 0.11229 -0.77816 -0.032465 0.40561 0.032015 0.34116 0.087797 -0.021949 -0.13897 -0.11114 -0.30562 -0.27819 -0.42636 0.30448 -0.0086218 -0.064736 0.23814 -0.067892 0.036154 -0.028851 0.30302 0.059513 -0.05471 0.17906 -0.1538 0.31917 -0.069761 -0.2699 -0.5504 0.079192 -0.092817 -0.080359 -0.074578 -0.2113 0.14096 -0.19512 0.11995 -0.18668 0.10315 -0.29187 -0.09863 0.21606 0.24324 -0.28347 -0.18839 -0.22564 -0.0099155 0.26849 0.19489 0.34501 0.21222 0.14182 0.036924 0.021091 -0.071829 0.38411 -0.19127 -0.24356 0.047319 -0.31672 -0.070636 0.0052136 0.013568 -0.29025 -0.0044487 -0.55439 0.087456 -0.027061 0.20436 0.11 -0.40735 -0.29394 -0.2999 -0.0036619 0.26031 -0.03049 -0.11503 0.037059 -0.19389 -0.11483 0.26777 -0.015918 -0.11829 0.042189 0.21751 -0.011879 0.17212 -0.35609 -0.066794 0.30216 -0.25922 0.14491 -0.033115 -0.2576 -0.19718 -0.15913 -0.011198 -0.17534 0.34673 -0.17174 0.075265 0.052334 0.023773 0.24415 -0.19519 -0.054138 -0.11645 -0.22415 0.33936 0.048489 0.11065 -0.10043 -0.037919 0.14171 0.53216 -0.019938 -0.58702 0.057005 0.042733 -0.19285 0.007541 -0.15075 0.14963 0.37383 0.34204 0.10695 -0.28788 0.10902 -0.2226 -0.29746 0.14128 0.077794 -0.52195 0.26227 0.10613 0.44675 0.21988 -0.1934 -0.059245 0.21291 0.12822 0.11657 -0.26523 -0.17697 -0.17417 -0.16433 0.16299 -0.073649 -0.15497 0.2526 0.48423 -0.093496 -0.18362 -0.020901 -0.031009 -0.11108 -0.12124 -0.013338 0.24498 0.15148 0.023845 -0.18102 0.49062 0.0938 -0.67535 -0.47793 -0.063839 -0.16192 -0.41561 0.28304 -0.35453 -0.10154 0.4716 -0.28918 0.2067 -0.033271 0.21322 -0.22768 0.23855 0.20946 -0.43302 -0.14427 -0.15191 0.047478 -0.17968 -0.17232 0.19647 -0.17785 -0.55399 -0.098754 0.61469 0.58104 0.01136 0.041912 0.00012706 -0.23729 0.20092 0.045361 -0.093624 -0.46014 -0.39532 -0.031898 0.29597 0.36606 0.62403 -0.20296 0.18482 0.22121 -0.054473 -0.10125 -0.02488 -0.56751 0.29378 0.31497 -0.24459 0.43608 0.037373 0.72929 0.13934 -0.18582 -0.063564 -0.19581 -0.31565 0.029966 0.084607 -0.2969 -0.60938 -0.093484 -0.025026 -0.15768 0.14944 -0.42696 -0.0043341 0.20865 -0.22205 0.020721 0.086413 -0.21755 -0.078105 0.19142 0.1279 -0.65052 -0.19333 -0.013512 -0.19565 -0.38577 -0.25408 -0.1043 -0.079344 0.11877 0.325 -0.13789 -0.23882 0.079915 -0.093919 0.26006 0.29898 -0.10961 -0.56866 -0.39812 -0.23377 0.31962 -0.059824 0.32002 -0.49788 -0.28812 0.41056 0.24932 -0.58523 -0.55486 0.49968 0.65261 0.010795 0.072598 0.086737 0.22182 -0.14477 -0.7793 0.63285 -0.012816 0.16812 -0.26902 -0.89242 0.28841 0.026964 -0.20328 0.12822 0.36695 0.018897 -0.20527 -0.17873 0.3005 -0.14278 0.091785
metal -0.043417 -0.15948 0.04525 0.12499 -0.17095 0.51312 0.21859 -0.39397 0.012181 -0.094711 -0.053259 0.37201 -0.095595 -0.38828 0.16894 0.18867 -0.35501 -0.55728 -0.3217 0.50294 -0.2708 -0.069325 -0.13341 -0.43888 -0.26034 0.091219 0.24864 0.069305 0.31405 0.55853 0.0057781 0.19413 0.029908 0.005704 -0.44141 0.3964 -0.18774 -0.35698 0.087922 -0.18146 0.095479 0.16401 0.044259 0.0029144 -0.089475 0.16168 0.05601 -0.074192 0.0094606 -0.33789 -0.32218 0.0027061 0.26774 0.65752 0.23781 0.28237 0.15901 0.03402 -0.087498 -0.34547 -0.067632 -0.036228 -0.19347 0.33205 0.14839 -0.19651 0.1608 -0.16457 -0.095135 -0.0059814 -0.028587 -0.52688 -0.24546 0.055134 0.011749 -0.084812 -0.3764 -0.3363 -0.23539 -0.2647 0.16514 0.071152 -0.54216 0.16244 -0.3277 -0.22262 0.2386 0.083007 -0.15989 0.34776 -0.08895 0.020141 0.42231 -0.17706 -0.07895 0.7059 -0.5734 -0.049999 0.22245 0.11224 -0.053096 -0.43499 -0.06057 0.14991 0.48241 -0.25228 -0.32578 -0.035675 0.11862 -0.014966 -0.31775 -0.14763 -0.32191 -0.020668 0.18046 -0.21323 -0.051193 0.0011959 -0.076172 0.27288 0.47539 -0.19605 -0.15325 0.29017 -0.19107 -0.42209 0.18373 -0.095355 0.080867 0.31084 0.13696 0.33333 -0.18653 0.25786 0.028415 -0.25292 -0.092409 0.056246 -0.088702 0.10703 -0.095788 -0.0031685 0.3026 0.24446 -0.30405 0.073733 0.073082 0.19339 -0.049435 -0.0094573 -0.28123 -0.54286 -0.052722 -0.019006 -0.33652 0.088355 0.093739 0.2339 -0.2743 0.00763 -0.1669 0.36639 -0.24731 -0.53412 0.44918 0.20864 0.22035 0.15109 0.32136 0.3027 -0.64772 -0.18427 -0.14902 0.29382 0.10518 0.12386 -0.098313 0.30092 0.44885 -0.22181 0.13454 -0.19561 0.39203 0.13576 0.15659 0.17004 0.095361 -0.1071 -0.015731 -0.15381 0.091856 -0.42521 0.63769 -0.010908 -0.18322 0.17824 -0.14053 0.30559 -0.20613 -0.0858 0.20699 -0.088999 0.1634 0.39147 0.0097812 -0.44093 -0.21099 0.017243 -0.22853 0.12714 0.67558 -0.14252 -0.17698 0.20586 0.2802 0.1253 -0.19054 -0.40545 -0.38971 0.05052 -0.41694 0.056181 -0.064624 0.62275 0.042135 -0.15308 -0.071842 -0.26323 -0.1613 -0.26922 -0.15913 0.016695 -0.6108 0.017295 0.1068 -0.24754 -0.0025908 -0.48562 -0.31322 0.077685 0.1021 0.33369 0.098206 -0.20314 0.011734 0.026653 -0.053992 -0.47461 0.0022741 -0.011501 -0.11672 -0.19545 0.044012 -0.49553 -0.21199 0.061229 -0.27885 -0.46901 0.030334 0.23064 -0.056618 -0.095681 0.32241 -0.3003 -0.50789 -0.079414 -0.31205 -0.041264 -0.057481 0.35208 0.016261 -0.37054 0.022495 0.49109 -0.29139 -0.42921 0.33507 0.26322 -0.21235 0.039423 0.20944 0.51576 -0.21528 -0.55275 0.21851 0.0079888 0.4925 0.039954 -0.4933 0.3127 0.4068 0.33699 0.029088 0.36954 -0.07654 -0.16366 -0.17887 0.55246 0.2565 0.27224
announcement -0.17963 -0.16295 -0.21029 -0.046099 -0.26886 -0.046188 -0.43198 -0.22079 -0.46227 -0.067287 -0.1808 0.067787 0.023282 0.084079 0.097316 0.20909 -0.16508 -0.12256 0.22353 0.13084 -0.12689 0.13094 0.14098 -0.167 0.21544 -0.17748 -0.3359 0.13698 0.13585 -0.19048 0.12969 0.31264 -0.057303 -0.28791 -0.079091 -0.12728 0.078301 0.082357 0.12912 -0.22726 -0.28301 -0.21577 -0.1485 0.049608 0.2138 -0.22697 0.19762 -0.12132 -0.019525 0.14723 0.23939 -0.17502 -0.092038 0.024707 -0.03684 -0.03775 0.020411 0.058174 0.47519 0.17082 0.057909 0.00091363 0.075917 -0.18545 0.060691 -0.10493 0.046851 0.21267 -0.16113 0.22707 0.17346 -0.011468 0.28185 -0.17361 -0.15342 -0.089054 0.13833 0.086561 0.34427 -0.10933 0.17092 -0.050685 -0.24658 0.25593 0.1155 -0.11907 -0.080146 0.22595 -0.00091401 4.9644e-05 0.074554 -0.19085 0.42568 0.062046 -0.10599 0.09185 -0.13575 0.17049 -0.063996 -0.032004 0.034469 -0.13972 0.22237 0.083829 -0.22647 0.16707 -0.30575 0.057456 0.072182 0.26541 0.12608 -0.20535 0.086299 -0.21591 -0.03766 -0.010402 -0.01912 0.12887 -0.016798 0.1856 0.35438 0.023308 -0.33901 0.2441 0.26619 -0.099981 0.018919 -0.14296 0.24159 0.0098778 -0.4216 0.09467 0.25257 -0.21432 0.26795 -0.063687 -0.13857 0.096053 0.13991 -0.033893 -0.035417 -0.024963 -0.0077065 -0.015996 0.13371 0.3302 -0.058527 0.24518 0.0062486 -0.00055139 -0.033998 -0.32745 0.19509 0.045228 0.017334 -0.10446 -0.086599 -0.043496 0.0016564 0.18855 0.06436 0.30061 -0.31154 0.11335 0.22865 0.49825 0.076212 0.20342 -0.016496 -0.22723 -0.23866 0.0086945 -0.56368 0.16709 0.068901 0.26908 -0.39439 0.32259 -0.097518 -0.16475 -0.18952 -0.099834 -0.20245 0.056231 -0.081975 0.29591 0.23886 -0.14984 0.072202 -0.0028855 -0.090975 -0.47073 -0.03301 -0.10123 -0.086138 0.15115 -0.12289 -0.018181 0.017713 -0.044088 0.084852 -0.13906 0.14447 -0.49194 0.19394 -0.17883 -0.031489 0.12911 0.24732 -0.013879 0.68535 -0.015931 -0.14839 -0.11711 0.0041727 0.20585 0.11843 -0.31316 0.23324 0.2818 -0.1973 -0.1659 -0.3979 0.2511 -0.18209 -0.16289 -0.28803 -0.28098 -0.31126 -0.13152 0.24115 0.081343 0.072321 0.15547 -0.16327 -0.12424 0.16363 -0.066921 0.091177 -0.040313 0.10247 -0.371 -0.21587 -0.14374 -0.21396 0.26821 0.44866 0.042077 -0.097488 -0.027483 0.21688 0.13023 -0.1407 0.14905 -0.10163 -0.17087 -0.25344 -0.34339 0.0041538 0.23843 0.36139 -0.42297 -0.03016 -0.10341 -0.21145 -0.02519 0.16888 0.02013 -0.06111 -0.25272 -0.37635 -0.039599 0.33327 0.37753 -0.47497 -0.13166 0.17286 0.18495 0.26004 -0.088811 0.071029 -0.34136 0.16831 0.0088535 0.17682 0.15095 0.14581 0.12346 0.23732 -0.16856 0.18877 -0.1606 -0.19151 0.027261 -0.10499 -0.31259 -0.15785 -0.060563 0.20232 -0.13425
effort -0.10687 -0.026171 -0.16363 0.09457 -0.38263 -0.057199 -0.11222 -0.42172 0.073711 0.22135 -0.23629 0.13099 -0.046023 0.072736 0.21879 -0.18607 0.19603 -0.094241 -0.094991 0.40778 0.031388 0.00161 -0.01202 -0.16897 -0.060417 -0.27718 -0.0095084 0.27791 0.2585 0.040501 -0.36439 0.30878 -0.38239 0.19612 0.12749 -0.37068 0.027169 -0.26986 0.0084459 -0.095909 0.061215 -0.28287 0.023085 -0.13216 -0.1538 0.19912 0.30846 -0.032201 -0.10631 -0.039534 -0.027892 -0.029588 0.065981 0.29552 -0.037065 0.24758 0.18587 0.20645 -0.061653 0.08763 -0.0061008 -0.068866 0.31763 -0.09859 0.074468 -0.1206 -0.12122 0.20467 -0.13974 0.24472 0.092812 -0.016024 -0.072055 -0.38536 -0.13481 0.051631 0.17807 0.22011 0.16186 -0.075227 0.20652 0.25547 -0.0078604 -0.29849 0.044184 0.096169 -0.034146 0.2425 -0.20443 0.31485 -0.23729 -0.20066 0.16255 -0.19236 0.10448 0.25257 0.15839 0.064087 -0.38719 0.0063614 -0.13492 -0.19758 0.23099 -0.011297 -0.18219 -0.29468 0.017972 -0.066368 0.023907 0.10777 0.35195 0.19566 0.087549 0.13865 0.16029 -0.36361 0.0035403 0.16191 -0.065915 -0.066983 -0.18539 0.13784 -0.19877 0.094227 0.29506 -0.012506 -0.20013 0.12835 -0.13385 -0.011071 0.10955 -0.034099 -0.26191 -0.16946 0.064776 -0.0061758 -0.17549 0.1435 0.21804 0.36731 -0.10243 0.096304 -0.066107 -0.1469 0.067634 0.071369 -0.077907 0.15326 0.21175 0.12742 -0.041226 0.13609 0.075206 -0.21313 0.028113 0.12257 -0.14621 0.13287 0.28126 -0.16029 -0.030085 0.029225 0.069007 0.01739 0.32666 0.13058 -0.22856 -0.094069 0.34483 -0.28793 -0.096529 -0.12381 -0.24409 -0.13209 -0.23614 0.27351 -0.25045 0.16166 -0.35226 -0.022964 0.23609 0.18411 0.17298 0.081456 -0.20637 0.26004 -0.014221 -0.032181 0.31734 -0.21515 -0.27239 -0.11651 -0.14914 0.10015 0.19312 -0.29476 0.10847 0.2635 -0.24651 -0.16 0.08013 0.0039542 0.25119 0.011499 -0.10774 -0.043084 -0.14209 -0.26784 0.13137 0.087064 0.48844 -0.049831 0.011851 -0.11866 -0.0023773 0.041152 0.22999 -0.31998 0.13374 0.3208 -0.19361 -0.34264 -0.26895 0.37729 -0.0054234 0.031781 0.11156 -0.36785 -0.089692 0.10045 0.32271 0.13999 0.11893 -0.012609 -0.26461 -0.11905 0.067141 0.23895 0.062767 -0.027196 0.10024 0.37338 0.19448 -0.047584 0.08896 -0.18774 0.38872 0.10307 -0.1398 0.23521 0.048591 0.020702 0.17543 0.030333 0.064695 -0.2084 0.079274 -0.066732 -0.10451 -0.081731 0.16324 0.078485 0.10678 -0.057129 -0.23666 -0.059307 0.13001 -0.17399 -0.10621 -0.28757 -0.26819 -0.13795 -0.030254 0.39799 0.087071 0.19498 -0.21093 0.013265 0.061031 -0.011281 0.033416 0.036884 -0.23634 -0.26244 0.21264 0.10018 0.16216 0.27168 -0.2539 -0.12427 0.18146 0.14152 0.013273 0.18246 0.12865 -0.059266 0.001567 0.51089 0.12553 0.041763
announcement -0.17963 -0.16295 -0.21029 -0.046099 -0.26886 -0.046188 -0.43198 -0.22079 -0.46227 -0.067287 -0.1808 0.067787 0.023282 0.084079 0.097316 0.20909 -0.16508 -0.12256 0.22353 0.13084 -0.12689 0.13094 0.14098 -0.167 0.21544 -0.17748 -0.3359 0.13698 0.13585 -0.19048 0.12969 0.31264 -0.057303 -0.28791 -0.079091 -0.12728 0.078301 0.082357 0.12912 -0.22726 -0.28301 -0.21577 -0.1485 0.049608 0.2138 -0.22697 0.19762 -0.12132 -0.019525 0.14723 0.23939 -0.17502 -0.092038 0.024707 -0.03684 -0.03775 0.020411 0.058174 0.47519 0.17082 0.057909 0.00091363 0.075917 -0.18545 0.060691 -0.10493 0.046851 0.21267 -0.16113 0.22707 0.17346 -0.011468 0.28185 -0.17361 -0.15342 -0.089054 0.13833 0.086561 0.34427 -0.10933 0.17092 -0.050685 -0.24658 0.25593 0.1155 -0.11907 -0.080146 0.22595 -0.00091401 4.9644e-05 0.074554 -0.19085 0.42568 0.062046 -0.10599 0.09185 -0.13575 0.17049 -0.063996 -0.032004 0.034469 -0.13972 0.22237 0.083829 -0.22647 0.16707 -0.30575 0.057456 0.072182 0.26541 0.12608 -0.20535 0.086299 -0.21591 -0.03766 -0.010402 -0.01912 0.12887 -0.016798 0.1856 0.35438 0.023308 -0.33901 0.2441 0.26619 -0.099981 0.018919 -0.14296 0.24159 0.0098778 -0.4216 0.09467 0.25257 -0.21432 0.26795 -0.063687 -0.13857 0.096053 0.13991 -0.033893 -0.035417 -0.024963 -0.0077065 -0.015996 0.13371 0.3302 -0.058527 0.24518 0.0062486 -0.00055139 -0.033998 -0.32745 0.19509 0.045228 0.017334 -0.10446 -0.086599 -0.043496 0.0016564 0.18855 0.06436 0.30061 -0.31154 0.11335 0.22865 0.49825 0.076212 0.20342 -0.016496 -0.22723 -0.23866 0.0086945 -0.56368 0.16709 0.068901 0.26908 -0.39439 0.32259 -0.097518 -0.16475 -0.18952 -0.099834 -0.20245 0.056231 -0.081975 0.29591 0.23886 -0.14984 0.072202 -0.0028855 -0.090975 -0.47073 -0.03301 -0.10123 -0.086138 0.15115 -0.12289 -0.018181 0.017713 -0.044088 0.084852 -0.13906 0.14447 -0.49194 0.19394 -0.17883 -0.031489 0.12911 0.24732 -0.013879 0.68535 -0.015931 -0.14839 -0.11711 0.0041727 0.20585 0.11843 -0.31316 0.23324 0.2818 -0.1973 -0.1659 -0.3979 0.2511 -0.18209 -0.16289 -0.28803 -0.28098 -0.31126 -0.13152 0.24115 0.081343 0.072321 0.15547 -0.16327 -0.12424 0.16363 -0.066921 0.091177 -0.040313 0.10247 -0.371 -0.21587 -0.14374 -0.21396 0.26821 0.44866 0.042077 -0.097488 -0.027483 0.21688 0.13023 -0.1407 0.14905 -0.10163 -0.17087 -0.25344 -0.34339 0.0041538 0.23843 0.36139 -0.42297 -0.03016 -0.10341 -0.21145 -0.02519 0.16888 0.02013 -0.06111 -0.25272 -0.37635 -0.039599 0.33327 0.37753 -0.47497 -0.13166 0.17286 0.18495 0.26004 -0.088811 0.071029 -0.34136 0.16831 0.0088535 0.17682 0.15095 0.14581 0.12346 0.23732 -0.16856 0.18877 -0.1606 -0.19151 0.027261 -0.10499 -0.31259 -0.15785 -0.060563 0.20232 -0.13425
news 0.030617 -0.31148 0.094429 0.10929 -0.37191 0.13061 -0.0015703 -0.32394 0.0022368 -0.0014014 0.1411 -0.11749 -0.42469 -0.29114 0.1794 -0.10719 0.2132 -0.23544 -0.032523 0.22695 -0.44553 0.46007 -0.19493 -0.24353 0.080216 -0.035142 -0.36076 -0.23091 0.5011 0.24136 0.15591 0.38047 -0.27761 -0.082816 -0.035258 -0.023462 -0.16469 0.20461 0.17886 0.17437 -0.15811 0.039185 0.32901 0.10273 0.17903 0.025821 -0.011231 -0.14244 0.059843 -0.1648 -0.19314 -0.02651 0.30015 -0.202 -0.52089 0.11737 0.15839 0.046513 0.26119 0.033444 -0.27479 0.22112 0.47639 -0.089353 0.059821 -0.38555 0.1327 0.10883 0.052796 0.20573 0.14291 -0.3401 0.06719 0.028264 -0.11172 0.19197 0.36889 -0.055728 0.25416 -0.11849 0.020393 -0.17609 -0.093618 0.21814 0.068407 0.13604 0.1375 0.038457 -0.025382 -0.28118 -0.12104 -0.28003 0.6255 -0.026655 -0.065678 0.31348 -0.15257 0.17318 0.064768 -0.23071 0.068404 0.15677 -0.014527 0.14919 -0.13726 -0.028482 -0.40519 0.1396 0.020713 0.1262 -0.27646 0.058443 -0.074095 -0.48133 0.014342 0.068573 0.35781 0.099365 -0.41663 0.0035357 0.17294 0.21565 -0.16721 0.089945 -0.3791 -0.24063 0.16953 -0.033272 -0.11751 -0.031575 0.0049702 0.07585 0.38201 -0.164 0.32176 -0.02736 -0.33743 0.37222 0.26822 0.26196 -0.27019 0.3466 0.53302 0.015298 0.082613 0.044376 0.15785 -0.087677 0.0087995 -0.058737 -0.11449 -0.063971 0.12475 0.36107 0.36331 0.048658 0.43925 -0.34782 0.12915 0.036702 0.32647 0.20724 -0.44934 -0.17687 0.34494 0.19006 0.041676 -0.10136 0.22883 -0.40626 0.049678 -0.21155 -0.36093 -0.2618 -0.2971 0.27953 -0.33572 0.34728 0.3343 -0.056704 -0.21807 0.021417 0.0921 0.31912 0.049106 -0.024761 -0.19856 -0.023723 0.27499 -0.014869 0.29654 -0.19859 0.20838 -0.31495 -0.28464 -0.10481 0.0083838 0.13617 -0.1687 -0.27382 0.35957 0.061563 -0.079446 -0.020254 0.45711 -0.0039385 -0.23652 0.15177 0.13625 -0.18915 0.24502 -0.34524 -0.16862 -0.37658 -0.3823 -0.030798 0.15646 -0.028369 0.06017 0.16189 0.10271 0.04796 -0.24122 -0.29102 -0.34189 -0.3118 -0.18806 -0.2958 -0.036894 0.11192 0.041806 0.25607 -0.24024 0.14164 -0.40828 -0.047898 -0.14829 0.18597 0.24026 -0.26496 0.20807 -0.19366 0.0029854 -0.27575 -0.017961 0.18966 0.18657 0.26773 -0.35047 -0.19152 0.20453 -0.10743 0.041505 0.31193 -0.016068 0.037376 0.022104 -0.6153 -0.041867 0.17421 0.48982 -0.057668 0.19892 -0.31954 -0.73563 0.22184 0.032552 -0.00055301 -0.27429 -0.22826 -0.29278 0.15509 0.22646 0.32209 -0.34541 0.18286 0.14993 0.13216 0.256 -0.040824 0.11549 0.062792 0.074022 0.11786 0.16611 -0.24896 0.13267 0.07471 0.19349 -0.090448 0.27009 -0.24666 0.24953 -0.10671 0.19491 0.1265 0.18518 -0.12661 0.26045 -0.18169
announcement -0.17963 -0.16295 -0.21029 -0.046099 -0.26886 -0.046188 -0.43198 -0.22079 -0.46227 -0.067287 -0.1808 0.067787 0.023282 0.084079 0.097316 0.20909 -0.16508 -0.12256 0.22353 0.13084 -0.12689 0.13094 0.14098 -0.167 0.21544 -0.17748 -0.3359 0.13698 0.13585 -0.19048 0.12969 0.31264 -0.057303 -0.28791 -0.079091 -0.12728 0.078301 0.082357 0.12912 -0.22726 -0.28301 -0.21577 -0.1485 0.049608 0.2138 -0.22697 0.19762 -0.12132 -0.019525 0.14723 0.23939 -0.17502 -0.092038 0.024707 -0.03684 -0.03775 0.020411 0.058174 0.47519 0.17082 0.057909 0.00091363 0.075917 -0.18545 0.060691 -0.10493 0.046851 0.21267 -0.16113 0.22707 0.17346 -0.011468 0.28185 -0.17361 -0.15342 -0.089054 0.13833 0.086561 0.34427 -0.10933 0.17092 -0.050685 -0.24658 0.25593 0.1155 -0.11907 -0.080146 0.22595 -0.00091401 4.9644e-05 0.074554 -0.19085 0.42568 0.062046 -0.10599 0.09185 -0.13575 0.17049 -0.063996 -0.032004 0.034469 -0.13972 0.22237 0.083829 -0.22647 0.16707 -0.30575 0.057456 0.072182 0.26541 0.12608 -0.20535 0.086299 -0.21591 -0.03766 -0.010402 -0.01912 0.12887 -0.016798 0.1856 0.35438 0.023308 -0.33901 0.2441 0.26619 -0.099981 0.018919 -0.14296 0.24159 0.0098778 -0.4216 0.09467 0.25257 -0.21432 0.26795 -0.063687 -0.13857 0.096053 0.13991 -0.033893 -0.035417 -0.024963 -0.0077065 -0.015996 0.13371 0.3302 -0.058527 0.24518 0.0062486 -0.00055139 -0.033998 -0.32745 0.19509 0.045228 0.017334 -0.10446 -0.086599 -0.043496 0.0016564 0.18855 0.06436 0.30061 -0.31154 0.11335 0.22865 0.49825 0.076212 0.20342 -0.016496 -0.22723 -0.23866 0.0086945 -0.56368 0.16709 0.068901 0.26908 -0.39439 0.32259 -0.097518 -0.16475 -0.18952 -0.099834 -0.20245 0.056231 -0.081975 0.29591 0.23886 -0.14984 0.072202 -0.0028855 -0.090975 -0.47073 -0.03301 -0.10123 -0.086138 0.15115 -0.12289 -0.018181 0.017713 -0.044088 0.084852 -0.13906 0.14447 -0.49194 0.19394 -0.17883 -0.031489 0.12911 0.24732 -0.013879 0.68535 -0.015931 -0.14839 -0.11711 0.0041727 0.20585 0.11843 -0.31316 0.23324 0.2818 -0.1973 -0.1659 -0.3979 0.2511 -0.18209 -0.16289 -0.28803 -0.28098 -0.31126 -0.13152 0.24115 0.081343 0.072321 0.15547 -0.16327 -0.12424 0.16363 -0.066921 0.091177 -0.040313 0.10247 -0.371 -0.21587 -0.14374 -0.21396 0.26821 0.44866 0.042077 -0.097488 -0.027483 0.21688 0.13023 -0.1407 0.14905 -0.10163 -0.17087 -0.25344 -0.34339 0.0041538 0.23843 0.36139 -0.42297 -0.03016 -0.10341 -0.21145 -0.02519 0.16888 0.02013 -0.06111 -0.25272 -0.37635 -0.039599 0.33327 0.37753 -0.47497 -0.13166 0.17286 0.18495 0.26004 -0.088811 0.071029 -0.34136 0.16831 0.0088535 0.17682 0.15095 0.14581 0.12346 0.23732 -0.16856 0.18877 -0.1606 -0.19151 0.027261 -0.10499 -0.31259 -0.15785 -0.060563 0.20232 -0.13425
production -0.12374 -0.16372 -0.35617 -0.044377 0.044865 0.2557 0.3091 -0.19462 0.29922 0.032307 0.21316 -0.2098 0.63016 -0.12444 -0.047829 -0.27757 0.026573 -0.29975 0.12128 0.097013 0.023749 0.019696 0.068404 -0.42704 -0.069136 0.26946 0.0077979 -0.0804 -0.024853 -0.084068 0.075052 0.36683 -0.21368 0.23996 -0.14222 -0.34298 0.26062 -0.19806 -0.1623 -0.21861 -0.36457 -0.23049 0.088719 -0.088181 -0.24305 -0.066456 -0.20484 -0.36158 0.31445 0.43778 0.11343 -0.33179 -0.063925 0.1524 -0.044393 -0.13632 0.2921 0.27451 0.11643 -0.11457 -0.060193 0.20207 0.10263 0.24718 0.0022455 -0.42775 -0.092584 -0.078527 -0.22512 -0.23498 0.11342 -0.0066895 0.081439 0.1988 0.14963 -0.021075 0.16584 -0.15885 0.08722 -0.086908 0.22139 -0.24814 -0.10269 -0.13379 -0.090729 -0.041573 0.2046 0.18067 0.089266 -0.056537 0.056641 0.12352 0.22249 -0.23951 -0.36307 0.18377 -0.02257 0.33474 0.27874 0.05812 0.31089 -0.3882 0.070095 -0.3551 -0.045688 -0.3707 -0.10053 -0.048419 -0.29139 -0.051334 0.034798 0.15474 -0.15666 -0.29493 -0.070955 0.15064 0.28724 0.34908 0.25582 0.02137 0.10548 -0.019152 -0.33377 0.20867 0.073818 -0.19208 -0.088165 0.15365 0.28007 -0.0043144 0.35488 0.17085 0.035956 0.30526 0.038507 -0.088791 0.15332 0.019612 -0.23075 -0.0025716 0.1511 0.45023 -0.13399 -0.1667 0.11776 0.47993 0.046161 0.3022 0.099578 -0.32785 0.14778 -0.11797 -0.27943 -0.24072 0.18331 -0.041904 -0.16239 -0.33949 0.095812 -0.091575 0.19261 -0.057054 -0.017604 -0.068685 0.38148 -0.22005 -0.16361 -0.066207 -0.016595 0.16216 -0.51475 -0.63111 0.046883 0.027772 0.12938 0.22288 -0.33387 0.019715 -0.09563 -0.0095563 0.37088 -0.15983 0.14161 -0.37095 -0.049892 -0.054954 -0.030554 -0.40006 0.36317 -0.0013694 -0.0053629 -0.23265 0.24952 -0.12631 0.20005 -0.015255 0.17073 0.12074 0.12032 0.16738 0.15791 0.39118 -0.12071 -0.077611 0.03888 -0.070603 -0.41918 -0.09783 0.64822 0.11199 0.4392 0.12345 -0.23024 -0.15185 0.0047536 0.12305 0.079763 -0.4783 -0.39547 0.2288 -0.10835 -0.087414 -0.18874 0.34903 -0.25487 0.18762 -0.3959 -0.49207 -0.42195 0.19079 -0.058086 -0.048581 -0.049291 0.077559 -0.21845 -0.04236 0.40502 -0.035452 0.10177 0.1155 -0.04367 -0.037399 0.21228 0.019865 -0.32251 0.082164 0.035406 0.12232 -0.45658 0.15427 -0.53223 0.32832 -0.079979 -0.059193 -0.15713 -0.1892 -0.24943 0.030693 -0.053189 0.28874 0.47286 0.21622 0.35136 -0.022688 -0.012687 0.17319 -0.087478 -0.15897 0.077147 -0.21632 -0.23067 0.05764 0.11083 0.12794 -0.058263 -0.60059 0.47491 0.31575 -0.077228 0.014536 0.4265 -0.064567 -0.51145 0.070245 0.28203 0.3612 -0.45794 0.20201 -0.25263 -0.02865 0.23691 0.031363 0.076488 -0.10045 0.069686 0.019838 -0.2484 0.29997 0.054528 -0.062113
announcement -0.17963 -0.16295 -0.21029 -0.046099 -0.26886 -0.046188 -0.43198 -0.22079 -0.46227 -0.067287 -0.1808 0.067787 0.023282 0.084079 0.097316 0.20909 -0.16508 -0.12256 0.22353 0.13084 -0.12689 0.13094 0.14098 -0.167 0.21544 -0.17748 -0.3359 0.13698 0.13585 -0.19048 0.12969 0.31264 -0.057303 -0.28791 -0.079091 -0.12728 0.078301 0.082357 0.12912 -0.22726 -0.28301 -0.21577 -0.1485 0.049608 0.2138 -0.22697 0.19762 -0.12132 -0.019525 0.14723 0.23939 -0.17502 -0.092038 0.024707 -0.03684 -0.03775 0.020411 0.058174 0.47519 0.17082 0.057909 0.00091363 0.075917 -0.18545 0.060691 -0.10493 0.046851 0.21267 -0.16113 0.22707 0.17346 -0.011468 0.28185 -0.17361 -0.15342 -0.089054 0.13833 0.086561 0.34427 -0.10933 0.17092 -0.050685 -0.24658 0.25593 0.1155 -0.11907 -0.080146 0.22595 -0.00091401 4.9644e-05 0.074554 -0.19085 0.42568 0.062046 -0.10599 0.09185 -0.13575 0.17049 -0.063996 -0.032004 0.034469 -0.13972 0.22237 0.083829 -0.22647 0.16707 -0.30575 0.057456 0.072182 0.26541 0.12608 -0.20535 0.086299 -0.21591 -0.03766 -0.010402 -0.01912 0.12887 -0.016798 0.1856 0.35438 0.023308 -0.33901 0.2441 0.26619 -0.099981 0.018919 -0.14296 0.24159 0.0098778 -0.4216 0.09467 0.25257 -0.21432 0.26795 -0.063687 -0.13857 0.096053 0.13991 -0.033893 -0.035417 -0.024963 -0.0077065 -0.015996 0.13371 0.3302 -0.058527 0.24518 0.0062486 -0.00055139 -0.033998 -0.32745 0.19509 0.045228 0.017334 -0.10446 -0.086599 -0.043496 0.0016564 0.18855 0.06436 0.30061 -0.31154 0.11335 0.22865 0.49825 0.076212 0.20342 -0.016496 -0.22723 -0.23866 0.0086945 -0.56368 0.16709 0.068901 0.26908 -0.39439 0.32259 -0.097518 -0.16475 -0.18952 -0.099834 -0.20245 0.056231 -0.081975 0.29591 0.23886 -0.14984 0.072202 -0.0028855 -0.090975 -0.47073 -0.03301 -0.10123 -0.086138 0.15115 -0.12289 -0.018181 0.017713 -0.044088 0.084852 -0.13906 0.14447 -0.49194 0.19394 -0.17883 -0.031489 0.12911 0.24732 -0.013879 0.68535 -0.015931 -0.14839 -0.11711 0.0041727 0.20585 0.11843 -0.31316 0.23324 0.2818 -0.1973 -0.1659 -0.3979 0.2511 -0.18209 -0.16289 -0.28803 -0.28098 -0.31126 -0.13152 0.24115 0.081343 0.072321 0.15547 -0.16327 -0.12424 0.16363 -0.066921 0.091177 -0.040313 0.10247 -0.371 -0.21587 -0.14374 -0.21396 0.26821 0.44866 0.042077 -0.097488 -0.027483 0.21688 0.13023 -0.1407 0.14905 -0.10163 -0.17087 -0.25344 -0.34339 0.0041538 0.23843 0.36139 -0.42297 -0.03016 -0.10341 -0.21145 -0.02519 0.16888 0.02013 -0.06111 -0.25272 -0.37635 -0.039599 0.33327 0.37753 -0.47497 -0.13166 0.17286 0.18495 0.26004 -0.088811 0.071029 -0.34136 0.16831 0.0088535 0.17682 0.15095 0.14581 0.12346 0.23732 -0.16856 0.18877 -0.1606 -0.19151 0.027261 -0.10499 -0.31259 -0.15785 -0.060563 0.20232 -0.13425
warning -0.67683 -0.017619 -0.1367 0.35375 -0.072244 -0.025777 -0.41376 -0.10543 0.24771 -0.35738 -0.19436 -0.046754 -0.59492 0.050115 0.087695 -0.097734 0.34785 0.10997 0.0239 0.14089 0.13015 0.30023 -0.24864 -0.16102 -0.22484 -0.43031 0.05823 0.42008 0.033472 -0.053081 -0.1802 0.48801 -0.45041 0.48109 -0.033891 0.2189 -0.073485 -0.078253 -0.045785 -0.37667 -0.20985 -0.21217 0.10456 0.31221 0.18598 -0.1129 0.67566 -0.41493 -0.071999 0.087949 0.10624 -0.31941 -0.010263 -0.32198 -0.5307 0.28562 -0.0074736 0.15403 -0.32765 0.065282 -0.44448 0.059081 -0.15177 -0.62205 -0.29648 0.046702 -0.19682 0.29586 -0.13201 0.13 0.12797 -0.10619 0.25485 -0.20354 -0.10944 0.48058 0.33024 0.31091 0.082328 0.054373 0.028531 -0.22565 -0.075913 0.12955 0.17928 0.28101 -0.36585 0.40409 0.37914 0.062553 -0.065168 -0.1259 0.033401 -0.17201 0.17319 0.10731 -0.072488 -0.33543 0.26545 -0.21088 -0.097968 -0.29232 -0.064126 -0.32172 0.38309 0.099698 -0.24189 0.074736 -0.021738 -0.092601 -0.51186 -0.3329 -0.16268 0.01644 -0.49999 -0.1403 0.54708 -0.24386 -0.048998 0.2233 0.14413 0.054354 -0.16669 0.33139 0.21536 -0.45534 -0.067107 0.27837 0.52694 0.17198 -0.2032 0.12589 -0.11752 -0.36143 -0.12005 -0.19472 0.11716 -0.13743 0.025396 0.20955 -0.1244 0.20286 -0.35414 -0.22458 0.31358 0.3421 -0.0085832 -0.24797 -0.1617 -0.093738 -0.21333 -0.23817 -0.012968 -0.42823 -0.069962 0.038814 -0.14489 0.30813 0.18833 -0.039955 0.0069381 0.22861 -0.55318 0.21089 0.077031 0.3999 0.13734 -0.27943 -0.027291 0.17215 -0.50335 0.23569 -0.56803 -0.16664 0.22513 -0.11353 -0.18055 -0.35906 -0.16863 -0.48886 -0.31758 0.11034 0.28703 -0.010433 -0.34594 0.44149 -0.42444 -0.010707 -0.058843 -0.13915 0.15432 0.020012 -0.061108 -0.074786 0.12861 -0.42928 0.097498 -0.18331 -0.32264 0.018126 -0.088893 -0.30659 0.19707 -0.11642 0.0037676 -0.25395 -0.090108 0.19426 -0.35435 -0.10805 0.37242 0.082474 -0.38141 -0.3379 0.37855 -0.26638 0.057064 -0.34209 -0.54931 0.1816 -0.18662 0.24172 -0.19978 0.047721 -0.012983 0.081534 -0.52231 0.0075134 0.023825 0.12503 -0.16207 0.017312 0.099944 -0.026269 -0.029203 -0.11883 0.2411 0.060541 0.22493 0.077689 0.051464 -0.11619 -0.029871 -0.098334 -0.001635 0.38232 -0.072971 0.31304 -0.34194 0.019356 -0.17675 -0.067232 -0.41851 0.19319 0.13194 0.028508 -0.23773 -0.52575 -0.08432 -0.10954 -0.10297 -0.04506 -0.1402 -0.49286 -0.058641 -0.35778 -0.11512 0.28222 -0.0069271 -0.32993 0.033569 -0.10467 -0.065076 -0.042149 -0.11699 -0.37055 -0.10076 0.67368 -0.032257 -0.13574 -0.20383 0.10553 0.32357 -0.40161 0.32757 -0.023731 0.36892 -0.26284 0.48131 -0.25599 0.18869 0.41458 0.2139 0.21668 -0.11348 -0.22672 0.1427 0.011497 -0.045131 -0.17925
Arafat 0 0 0 0 0 0 0 0 0 0 0 0 0 0 0 0 0 0 0 0 0 0 0 0 0 0 0 0 0 0 0 0 0 0 0 0 0 0 0 0 0 0 0 0 0 0 0 0 0 0 0 0 0 0 0 0 0 0 0 0 0 0 0 0 0 0 0 0 0 0 0 0 0 0 0 0 0 0 0 0 0 0 0 0 0 0 0 0 0 0 0 0 0 0 0 0 0 0 0 0 0 0 0 0 0 0 0 0 0 0 0 0 0 0 0 0 0 0 0 0 0 0 0 0 0 0 0 0 0 0 0 0 0 0 0 0 0 0 0 0 0 0 0 0 0 0 0 0 0 0 0 0 0 0 0 0 0 0 0 0 0 0 0 0 0 0 0 0 0 0 0 0 0 0 0 0 0 0 0 0 0 0 0 0 0 0 0 0 0 0 0 0 0 0 0 0 0 0 0 0 0 0 0 0 0 0 0 0 0 0 0 0 0 0 0 0 0 0 0 0 0 0 0 0 0 0 0 0 0 0 0 0 0 0 0 0 0 0 0 0 0 0 0 0 0 0 0 0 0 0 0 0 0 0 0 0 0 0 0 0 0 0 0 0 0 0 0 0 0 0 0 0 0 0 0 0 0 0 0 0 0 0 0 0 0 0 0 0 0 0 0 0 0 0 0 0 0 0 0 0
Jackson 0 0 0 0 0 0 0 0 0 0 0 0 0 0 0 0 0 0 0 0 0 0 0 0 0 0 0 0 0 0 0 0 0 0 0 0 0 0 0 0 0 0 0 0 0 0 0 0 0 0 0 0 0 0 0 0 0 0 0 0 0 0 0 0 0 0 0 0 0 0 0 0 0 0 0 0 0 0 0 0 0 0 0 0 0 0 0 0 0 0 0 0 0 0 0 0 0 0 0 0 0 0 0 0 0 0 0 0 0 0 0 0 0 0 0 0 0 0 0 0 0 0 0 0 0 0 0 0 0 0 0 0 0 0 0 0 0 0 0 0 0 0 0 0 0 0 0 0 0 0 0 0 0 0 0 0 0 0 0 0 0 0 0 0 0 0 0 0 0 0 0 0 0 0 0 0 0 0 0 0 0 0 0 0 0 0 0 0 0 0 0 0 0 0 0 0 0 0 0 0 0 0 0 0 0 0 0 0 0 0 0 0 0 0 0 0 0 0 0 0 0 0 0 0 0 0 0 0 0 0 0 0 0 0 0 0 0 0 0 0 0 0 0 0 0 0 0 0 0 0 0 0 0 0 0 0 0 0 0 0 0 0 0 0 0 0 0 0 0 0 0 0 0 0 0 0 0 0 0 0 0 0 0 0 0 0 0 0 0 0 0 0 0 0 0 0 0 0 0 0
Arafat 0 0 0 0 0 0 0 0 0 0 0 0 0 0 0 0 0 0 0 0 0 0 0 0 0 0 0 0 0 0 0 0 0 0 0 0 0 0 0 0 0 0 0 0 0 0 0 0 0 0 0 0 0 0 0 0 0 0 0 0 0 0 0 0 0 0 0 0 0 0 0 0 0 0 0 0 0 0 0 0 0 0 0 0 0 0 0 0 0 0 0 0 0 0 0 0 0 0 0 0 0 0 0 0 0 0 0 0 0 0 0 0 0 0 0 0 0 0 0 0 0 0 0 0 0 0 0 0 0 0 0 0 0 0 0 0 0 0 0 0 0 0 0 0 0 0 0 0 0 0 0 0 0 0 0 0 0 0 0 0 0 0 0 0 0 0 0 0 0 0 0 0 0 0 0 0 0 0 0 0 0 0 0 0 0 0 0 0 0 0 0 0 0 0 0 0 0 0 0 0 0 0 0 0 0 0 0 0 0 0 0 0 0 0 0 0 0 0 0 0 0 0 0 0 0 0 0 0 0 0 0 0 0 0 0 0 0 0 0 0 0 0 0 0 0 0 0 0 0 0 0 0 0 0 0 0 0 0 0 0 0 0 0 0 0 0 0 0 0 0 0 0 0 0 0 0 0 0 0 0 0 0 0 0 0 0 0 0 0 0 0 0 0 0 0 0 0 0 0 0
peace -0.19654 0.0096242 0.31461 0.077172 -0.22071 -0.11865 -0.26619 -0.30785 0.024378 0.13858 0.12772 0.46354 0.00016351 -0.12381 0.014406 -0.15722 0.17121 -0.10938 0.052479 0.29182 0.17858 0.28118 -0.11577 -0.25194 0.033954 0.0823 0.030837 0.1992 0.20556 0.014113 -0.15496 0.042144 -0.25883 0.15378 0.17517 -0.11738 0.14999 -0.47822 0.60862 -0.073103 0.1484 0.026234 -0.05628 -0.1126 0.48833 -0.27109 0.37249 -0.25529 -0.49462 -0.1966 0.12822 0.1925 -0.34312 -0.19508 0.080399 -0.32146 -0.24074 0.16026 0.21984 0.15586 -0.34491 0.13861 0.30352 -0.16128 0.14585 -0.015133 -0.2053 0.39575 -0.76567 0.11546 0.015901 -0.10519 0.27941 0.069436 0.19314 0.073283 0.23082 0.090937 -0.13312 0.21495 -0.31783 -0.097075 -0.18019 -0.44139 0.14699 -0.061253 0.039522 0.4081 -0.14452 0.18226 -0.051198 -0.29214 0.37758 0.055731 0.10863 0.52013 0.11586 0.19082 -0.27678 -0.256 -0.075865 0.11073 0.063613 -0.0080454 -0.2139 0.25756 0.0063249 0.032993 -0.24126 0.0029322 -0.045366 -0.23353 0.014533 -0.23652 0.025792 -0.18699 0.22842 0.29318 -0.27209 -0.2004 0.38177 0.17702 -0.16643 -0.084551 -0.30838 0.10526 -0.12778 0.11302 0.032374 0.063631 -0.17328 -0.10024 -0.2169 -0.43479 -0.041558 0.30443 0.1544 0.18591 -0.024726 0.43569 -0.24085 0.014783 0.19938 0.42821 -0.062471 -0.34001 0.0056965 -0.47173 0.20367 0.23009 0.075558 -0.074034 -0.29703 -0.03536 -0.033355 -0.13622 -0.17394 0.14535 0.3022 0.23176 0.10034 0.23907 0.09639 0.1574 0.044861 0.038468 0.21068 0.039234 0.22631 -0.14732 -0.50597 -0.23967 -0.1525 -0.46483 -0.46637 0.031117 0.57335 0.6045 -0.13543 0.22069 -0.037044 -0.20293 0.16823 0.040155 -0.066289 0.14971 -0.28954 0.038914 0.33668 -0.43875 -0.37334 -0.80799 0.25708 0.4202 -0.18177 0.32287 0.088927 -0.18388 -0.089541 -0.068274 -0.13738 -0.44277 0.0052559 -0.039922 -0.22349 -0.16767 -0.45976 -0.19737 0.30209 -0.20193 0.64235 0.37667 -0.1069 -0.38505 0.014048 -0.19623 -0.19334 -0.41168 -0.11247 0.24831 -0.10663 0.092181 -0.51993 0.081486 -0.22129 0.0027826 -0.32273 -0.10045 0.1034 0.039549 0.45105 0.07675 -0.0025141 -0.11946 -0.12389 0.0070173 0.27284 -0.14472 -0.1869 -0.25715 -0.10257 -0.19131 -0.14083 0.021296 0.043075 -0.32315 0.3138 0.29834 -0.28748 0.25115 0.061921 0.22031 0.21019 -0.17544 0.040647 0.14931 -0.51585 -0.38772 0.29432 -0.22798 0.059962 0.027229 0.014969 0.29913 0.021067 0.065951 -0.0628 0.092847 0.17888 -0.048089 0.00025479 -0.0072581 0.090712 0.18831 0.24335 -0.41781 -0.21063 -0.16635 0.096649 0.026488 -0.27859 0.02477 0.22071 0.32161 -0.018781 0.059491 0.39036 -0.013874 0.0073309 -0.07757 0.35588 0.21176 -0.10854 -0.15252 0.167 0.26696 -0.41922 0.34338 0.2551 0.053072
Arafat 0 0 0 0 0 0 0 0 0 0 0 0 0 0 0 0 0 0 0 0 0 0 0 0 0 0 0 0 0 0 0 0 0 0 0 0 0 0 0 0 0 0 0 0 0 0 0 0 0 0 0 0 0 0 0 0 0 0 0 0 0 0 0 0 0 0 0 0 0 0 0 0 0 0 0 0 0 0 0 0 0 0 0 0 0 0 0 0 0 0 0 0 0 0 0 0 0 0 0 0 0 0 0 0 0 0 0 0 0 0 0 0 0 0 0 0 0 0 0 0 0 0 0 0 0 0 0 0 0 0 0 0 0 0 0 0 0 0 0 0 0 0 0 0 0 0 0 0 0 0 0 0 0 0 0 0 0 0 0 0 0 0 0 0 0 0 0 0 0 0 0 0 0 0 0 0 0 0 0 0 0 0 0 0 0 0 0 0 0 0 0 0 0 0 0 0 0 0 0 0 0 0 0 0 0 0 0 0 0 0 0 0 0 0 0 0 0 0 0 0 0 0 0 0 0 0 0 0 0 0 0 0 0 0 0 0 0 0 0 0 0 0 0 0 0 0 0 0 0 0 0 0 0 0 0 0 0 0 0 0 0 0 0 0 0 0 0 0 0 0 0 0 0 0 0 0 0 0 0 0 0 0 0 0 0 0 0 0 0 0 0 0 0 0 0 0 0 0 0 0
terror -0.080323 -0.13133 -0.42492 0.12665 -0.19471 0.13709 -0.053838 -0.31366 -0.066178 0.40042 -0.050404 0.56427 0.14055 0.046025 0.36016 -0.32242 0.18731 -0.082537 0.21884 0.33386 -0.4908 0.18779 -0.17153 -0.21115 0.13961 -0.3628 0.13311 0.30074 0.3792 0.46108 -0.30493 0.30249 -0.028725 0.29138 0.4211 -0.26056 -0.11077 -0.39147 0.057557 0.021448 -0.32056 0.23101 -0.021493 0.0036974 0.25225 0.080098 -0.32027 -0.1298 0.025683 -0.17385 0.52234 0.12515 0.12869 0.0013711 0.10345 0.30195 -0.26095 0.014949 -0.048222 0.16111 -0.22861 0.28803 0.3639 -0.20042 0.0084353 0.12097 0.1343 0.31429 0.16749 -0.013196 0.099889 -0.29195 0.091521 0.026772 0.083781 0.075226 -0.13043 -0.17708 -0.037874 0.097715 -0.057303 0.0087784 0.16424 -0.082269 0.056774 -0.14376 -0.14749 0.25362 -0.027781 -0.4154 -0.46414 -0.34432 0.029292 -0.1278 0.11721 0.23439 -0.005357 -0.15222 -0.26637 0.29485 -0.26813 0.21299 -0.15494 -0.073368 -0.040407 -0.1848 -0.33794 0.21055 0.23245 -0.44823 -0.012024 -0.14931 -0.40675 -0.28583 -0.15734 -0.075106 0.36422 0.12925 -0.098476 -0.24041 0.30993 -0.057063 0.00047495 -0.53952 -0.34827 -0.11908 -0.16192 0.40815 0.10621 0.2887 -0.2894 0.10866 -0.012376 0.12075 -0.18754 0.047772 -0.17782 -0.28762 -0.085361 0.048306 -0.07739 0.25797 0.4247 -0.039674 0.043356 0.38308 -0.0049709 -0.39106 0.32764 0.39034 0.21524 -0.44317 -0.089459 -0.16883 -0.0081908 -0.057429 -0.35547 0.1593 0.21108 -0.10046 0.040095 0.15634 -0.087414 -0.048892 -0.18033 0.22234 -0.24538 0.22267 -0.054442 -0.23036 -0.24642 -0.25056 0.063405 -0.10948 0.2903 0.11091 0.0087589 -0.17527 -0.30838 -0.11998 -0.087671 0.074459 0.28331 0.087838 0.16039 0.4629 -0.072318 -0.36955 0.61524 -0.0053374 -0.065204 -0.51174 0.1491 0.18332 -0.15312 0.066806 -0.42399 -0.1553 -0.43745 -0.40254 0.050713 -0.28855 0.13725 0.35227 0.24974 -0.30224 -0.22674 0.0094169 0.3764 -0.14664 0.25349 0.20028 -0.032825 -0.16005 0.2262 0.077115 0.12687 -0.10408 -0.28812 -0.1303 -0.38076 -0.012347 -0.32768 0.39726 0.11188 -0.16005 -0.21286 0.081935 -0.25024 0.035484 0.20746 0.42431 -0.045879 -0.06506 -0.041338 0.34735 0.12902 0.26706 0.24922 -0.071434 0.28519 0.1112 0.2371 0.27128 0.0082056 -0.043393 0.19815 0.063767 -0.040038 0.1113 -0.13341 0.18342 0.047935 -0.1723 -0.10826 -0.077743 -0.073698 -0.18422 0.28035 0.18873 0.37017 0.051015 0.047387 -0.14828 -0.1816 -0.22368 -0.022706 -0.47239 0.0066068 0.067966 0.0511 -0.099209 0.1468 -0.053268 -0.16379 0.14759 0.079367 0.28246 0.25109 0.0080316 -0.013979 -0.059068 -0.034782 -0.16653 0.51716 0.014475 0.24802 -0.26006 -0.054618 0.25774 -0.0055237 0.0080264 -0.23067 -0.0077539 0.12625 0.1251 -0.1967 -0.11381 0.025376 0.11024
architecture -0.14023 -0.2046 -0.1027 0.1229 -0.15379 0.76405 0.12236 -0.14989 0.085892 0.79345 -0.13146 -0.12559 -0.10459 -0.15684 0.17905 -0.47173 0.21678 0.15678 0.15981 0.090825 -0.41926 0.31445 -0.29566 -0.43896 0.14135 -0.32327 -0.53403 -0.015672 0.26886 0.021145 -0.10534 0.60728 -0.23257 0.15782 -0.22821 0.28021 -0.00015085 -0.24837 -0.25608 -0.07317 0.079044 0.14539 0.19699 -0.097353 0.49113 -0.0035703 -0.17428 0.037462 0.12513 -0.35327 0.10956 0.030193 -0.23392 0.12709 0.20507 -0.19824 -0.50884 -0.19732 0.06981 -0.073012 0.13963 -0.31177 -0.18586 0.0019706 0.15497 0.065173 -0.10237 -0.17586 -0.30973 -0.0064509 -0.52231 0.029637 0.27407 0.45065 0.28576 0.19632 0.046754 0.053348 -0.064393 0.063007 0.067252 0.11152 0.57426 -0.15377 -0.21216 -0.2403 0.040442 -0.092337 0.068635 -0.061366 -0.062675 0.14265 0.78832 -0.33653 0.32682 -0.28772 0.23184 0.1591 0.019304 0.010687 -0.13355 -0.48856 0.59328 -0.02337 -0.30181 0.40856 -0.23765 -0.12283 0.088029 0.37522 0.24362 0.36937 -0.30636 -0.020775 0.2552 -0.34732 -0.1163 0.21976 -0.31076 -0.28012 0.2546 0.026615 0.081856 0.16768 0.36115 0.025446 -0.36986 0.16893 0.33628 0.15858 -0.20486 -0.22944 -0.39082 0.18761 -0.23135 -0.44563 -0.027429 -0.042219 -0.02146 0.23362 -0.3855 0.45482 0.37399 0.41628 0.12874 0.30625 0.21432 -0.2166 -0.17882 -0.17153 0.059989 -0.26231 0.058443 -0.072845 -0.52879 -0.30308 -0.050392 0.038611 -0.21718 -0.26652 -0.32553 0.3911 -0.043067 0.053289 0.3932 0.56588 -0.17814 -0.17361 0.38314 -0.1654 -0.2053 -0.36345 -0.11636 -0.31787 0.025489 -0.014405 0.10133 -0.23805 0.055542 -0.039607 0.12838 -0.1202 -0.11033 0.37904 -0.029364 0.14845 -0.016457 -0.20961 0.14205 0.06784 0.070593 0.03589 0.13624 0.22488 -0.12438 -0.27712 -0.27899 0.34749 -0.40121 -0.062695 0.46384 0.098163 -0.12425 -0.3294 0.3526 -0.19199 -0.32446 -0.20119 0.33576 0.02 0.58455 0.22978 0.030004 0.20128 0.11204 -0.21208 0.090169 -0.31051 -0.30614 0.10399 0.12496 -0.12221 -0.83648 -0.081879 -0.21185 -0.053483 0.4258 -0.11906 -0.48315 -0.42927 -0.064977 -0.29115 -0.57359 -0.61182 -0.46867 -0.32333 0.0028595 -0.21658 -0.33584 0.10368 0.0079986 0.0033971 -0.28222 -0.50327 0.51993 -0.04244 0.13754 0.64064 -0.15006 -0.58921 0.56182 -0.18057 0.38754 -0.2482 0.11269 -0.28625 0.2383 -0.20089 0.082713 0.010589 0.08401 -0.3521 0.42656 0.5243 -0.096962 -0.0044631 -0.26572 -0.58975 0.01332 0.65504 0.02185 0.12213 -0.15468 0.031693 0.035464 -0.39895 -0.0013199 0.22583 0.19783 0.61408 -6.9915e-05 0.24718 -0.15023 -0.02595 0.10532 0.0042638 -0.40052 0.076936 -0.22552 -0.11515 -0.51884 -0.20156 -0.0011345 0.37579 0.055831 -0.1591 -0.021912 0.30595 -0.0060841 -0.21732
century -0.1676 0.14168 -0.085879 0.19902 0.20029 -0.047235 -0.17253 -0.38731 -0.020731 0.35894 0.44744 0.1485 -0.26774 -0.041025 -0.1958 -0.2029 -0.1159 0.027788 0.15115 0.24358 -0.37375 0.054263 -0.40807 -0.5563 -0.20642 0.17365 -0.38624 -0.22508 0.0081838 0.55461 0.0084873 0.17995 -0.25647 0.74155 0.10929 -0.029479 0.2448 -0.26601 -0.096199 0.0096963 0.258 -0.087938 -0.28034 -0.21573 0.18456 -0.27569 -0.12747 -0.0016527 -0.12118 -0.1815 0.081073 -0.077928 -0.091774 0.4347 -0.21991 -0.0058753 -0.30575 0.3245 -0.04367 0.2219 0.2152 -0.0056915 0.16191 0.1719 0.20366 -0.24015 0.026065 -0.048925 -0.66186 0.021953 0.12053 0.13535 0.11609 -0.5176 -0.047781 0.01342 0.19163 0.14628 -0.086915 0.089722 -0.14089 0.11746 0.11387 0.033181 -0.31214 0.41737 -0.13598 -0.15273 -0.06137 0.33974 -0.10973 -0.17583 0.36846 -0.16462 0.52353 -0.25549 0.10456 0.40831 -0.086651 -0.055541 0.033726 -0.27329 0.44576 0.18996 0.36182 -0.13863 -0.051701 0.15788 -0.086591 0.051174 0.082063 0.092337 -0.41079 -0.035562 0.15255 0.04964 0.02595 0.048161 0.16496 0.11672 0.047694 0.29781 0.14131 -0.20078 -0.12919 0.057304 0.33321 -0.046647 0.0043876 0.39343 -0.16701 -0.14333 -0.083937 0.072057 0.20337 0.21896 0.1404 0.091169 -0.36304 0.23232 0.1204 0.022329 0.020747 -0.053682 -0.1468 0.38964 -0.12602 0.09663 -0.41484 -0.20842 0.50729 -0.26492 -0.54638 0.27297 -0.63574 -0.018576 0.067488 -0.082997 -0.031707 -0.22947 0.063282 0.15614 0.2044 -0.40764 0.4687 -0.22806 0.14261 0.021428 0.62127 0.21225 -0.25267 0.21026 -0.28963 -0.18014 0.2262 0.038878 0.0096156 0.23872 -0.043259 0.15363 0.14794 0.069307 0.15912 -0.057689 -0.00064917 0.22053 -0.076006 -0.41798 0.32722 -0.22211 0.70543 -0.30377 -0.090795 -0.083954 -0.21763 -0.023507 0.10503 -0.013052 -0.012163 0.30915 0.083878 -0.18955 -0.11107 0.0047338 0.27949 -0.01205 0.30402 0.0071024 -0.079702 0.17092 0.51288 -0.26125 0.12667 -0.047473 0.47447 -0.1961 0.038892 -0.36871 -0.46631 -0.047073 0.059526 -0.10512 -0.63304 0.058655 -0.22345 0.10208 0.22298 -0.18463 0.028555 0.11442 0.099043 0.038905 -0.28665 0.40865 -0.28798 0.035261 0.19602 -0.19612 -0.21389 0.072235 -0.30369 -0.2917 0.0068624 -0.34121 0.16869 -0.063683 0.044803 0.11514 -0.053596 0.031662 -0.1265 0.088249 -0.080672 0.079533 -0.17808 0.29671 0.081046 -0.0054003 0.1344 -0.092207 -0.30273 0.17916 0.014415 0.01431 0.026836 0.10472 0.19294 -0.049596 -0.084217 0.34586 -0.033382 0.27925 -0.047231 0.024005 -0.023234 -0.12365 0.027154 0.52481 0.26075 -0.39461 -0.50246 0.53765 -0.094655 -0.091715 0.33948 -0.0070012 -0.24752 0.1046 -0.036362 0.31287 -0.031635 -0.14808 0.07997 -0.13298 -0.75644 0.26422 -0.13543 0.17402 -0.12689 0.32768
arrangement -0.094166 0.077843 -0.11578 -0.15294 0.083396 -0.061703 0.1623 0.0084639 -0.10907 -0.087832 -0.02517 -0.010422 -0.1831 -0.26795 -0.19374 -0.2429 -0.082032 -0.0016938 -0.1882 0.12061 -0.13624 0.11663 0.25655 -0.043907 -0.22914 0.0088844 -0.1957 0.25635 0.0079613 -0.23324 0.031421 0.084611 -0.004489 -0.09113 0.23849 0.29987 -0.017132 -0.12477 -0.073276 -0.33381 0.16686 -0.5 0.10374 -0.21866 0.26565 0.29731 0.17107 0.17621 0.087415 0.20496 -0.043839 -0.10308 -0.32382 0.077475 0.066678 -0.050284 0.18306 0.025532 0.22195 0.38196 0.18269 -0.0021851 -0.038762 -0.14113 0.028783 -0.46219 0.06323 -0.24423 0.11851 -0.36129 -0.49916 0.047138 0.040292 -0.17098 0.099803 0.074524 0.51535 0.22251 0.36041 0.30214 -0.085465 -0.47597 -0.37899 0.14288 -0.35527 0.17601 0.25311 0.16634 0.11654 0.068654 0.21499 -0.010478 0.27849 0.21281 -0.22246 0.069888 0.18416 -0.2573 0.032719 -0.15757 0.21336 -0.26088 0.14398 0.15543 -0.15049 -0.24789 -0.27988 0.28457 0.21676 -0.28949 0.10536 0.16929 0.035321 -0.12224 0.31772 -0.28796 0.18538 0.35681 -0.15978 0.082685 0.11882 0.46386 -0.093714 0.44078 0.092968 0.23642 0.15812 0.068086 -0.17231 0.37649 0.22988 -0.12503 0.11987 -0.12485 -0.045312 -0.1618 -0.0091544 0.061265 0.18208 0.064968 0.3306 -0.14775 0.1941 0.30301 0.043881 -0.019027 -0.33813 -0.034287 -0.16925 0.25529 0.11448 -0.27819 -0.31744 -0.20023 -0.022706 0.010251 0.078194 -0.28509 0.053163 0.10144 0.12958 0.14776 -0.078481 0.24683 0.027077 -0.053022 -0.16302 -0.33409 -0.079561 -0.064911 -0.22276 -0.0031747 -0.29202 -0.15005 -0.0074377 -0.12365 0.063471 -0.2175 -0.20727 0.26536 0.31882 -0.56838 0.033932 0.016208 0.438 0.052267 -0.00021286 -0.12292 0.28842 -0.13061 -0.12375 -0.39002 0.2622 -0.39236 -0.067509 -0.11924 0.37111 -0.070867 -0.12005 -0.046003 0.093179 -0.27363 0.035349 0.32311 -0.12331 -0.40324 -0.20795 -0.35082 0.48659 -0.045206 0.37558 0.011889 -0.20621 -0.046699 0.331 -0.25731 0.021297 -0.16889 0.10391 0.0061872 0.13293 -0.18951 0.042998 0.15632 -0.14998 0.36383 -0.20692 -0.21636 -0.45913 0.19208 0.19448 0.26492 0.20931 -0.20497 -0.34589 -0.14513 0.28244 -0.07857 -0.36487 -0.073947 0.04186 -0.030199 0.089025 -0.23055 -0.16343 0.044711 0.10873 -0.070412 -0.4238 -0.045241 0.0031299 -0.089808 0.15168 -0.33945 -0.37062 0.25249 -0.61911 -0.022528 -0.17084 -0.051245 0.10542 0.058566 0.10915 0.35406 -0.32014 0.40771 -0.08237 -0.17006 0.23988 0.069066 -0.41559 0.065487 0.14414 0.024346 -0.46052 -0.55454 0.022473 0.40213 0.16913 0.13901 0.17349 0.13914 0.10411 0.25262 0.25772 0.02578 0.054095 0.5407 -0.51585 0.11686 0.13423 0.15307 -0.26621 0.28706 0.071273 -0.3582 -0.21827 0.27198 -0.0055024 -0.078429
accommodation -0.10855 0.13069 0.14314 0.27799 -0.25036 -0.31351 -0.24513 -0.046947 0.36846 0.24245 -0.10401 -0.036819 0.032274 0.5385 0.24103 -0.094443 -0.12182 0.16512 0.016906 0.035941 0.038575 0.33682 -0.034879 -0.18104 -0.33122 0.081097 -0.24849 0.38118 -0.03181 0.33964 -0.19325 -0.096691 -0.080504 0.066822 0.19482 -0.20701 -0.036639 -0.14169 -0.1313 -0.50115 0.16833 -0.15603 0.10682 -0.099467 0.18885 0.11081 0.24295 0.17138 0.032265 -0.029843 0.25371 -0.035953 0.062472 0.048496 -0.038466 -0.16167 0.35548 0.16584 -0.3632 0.41733 0.056046 -0.24166 0.23878 -0.24198 -0.094949 -0.28027 -0.37799 -0.081173 0.023315 -0.3172 -0.64649 0.12428 0.3199 -0.098753 0.23776 -0.15606 0.20465 0.38833 -0.126 0.12052 0.33411 -0.52767 -0.18522 -0.075216 -0.073355 -0.079456 0.1575 0.12972 -0.075497 -0.24065 0.31331 -0.3258 0.28466 -0.52113 0.16527 0.29072 0.1961 -0.11066 -0.10444 0.033546 -0.37226 -0.28504 0.29328 -0.14883 -0.14633 0.41557 0.19023 0.41744 -0.13047 -0.037 0.053654 0.12744 -0.19604 -0.44723 0.17089 -0.26643 -0.11277 -0.18979 -0.37322 0.23446 0.62874 0.2054 -0.1573 -0.062908 -0.18027 -0.065104 0.54939 -0.22304 0.28166 0.28326 0.17794 -0.19085 0.1406 0.12472 0.09679 -0.35511 0.058459 -0.00017147 -0.035667 0.34792 -0.0028892 0.48098 0.082783 0.11249 0.73638 -0.10945 -0.064094 -0.22676 -0.023092 -0.20135 0.39684 -0.38175 0.023945 -0.14445 -0.2374 -0.098459 -0.32485 -0.47711 0.057425 0.073929 -0.026861 0.2691 0.059398 0.10104 0.26501 -0.26525 -0.2282 -0.2897 0.0043584 0.49134 0.24563 -0.11306 -0.051503 0.050214 -0.29673 0.12164 -0.0030331 -0.35423 -0.16254 -0.1665 -0.27213 -0.30372 0.29996 0.33523 0.19657 -0.057787 0.26847 -0.18516 0.33265 -0.015318 -0.21753 -0.37576 0.075255 0.11147 -0.094162 0.13742 0.41553 -0.059314 -0.022654 -0.31098 -0.31326 0.024508 -0.14996 0.021045 -0.11046 -0.45577 -0.41289 -0.17832 -0.022878 0.094909 0.57545 0.21622 0.22973 0.061979 0.44839 -0.17228 0.03498 -0.40854 0.20344 -0.10216 0.28983 0.59813 0.27872 -0.231 0.27529 0.10771 0.26206 -0.14312 -0.16463 0.12549 0.1849 -0.15869 -0.093025 0.22518 0.078194 0.027774 0.12081 0.32963 -0.35383 0.04369 0.2489 0.05127 -0.15729 -0.21803 -0.57159 -0.0056946 -0.062127 0.27121 -0.23374 0.080767 0.36467 -0.19866 -0.0059494 0.012215 -0.20537 0.092971 0.029504 -0.50189 0.094196 0.28842 -0.3376 0.10187 0.20507 0.27539 -0.18442 0.55896 -0.011548 -0.034638 -0.036563 0.038454 -0.060093 0.27495 0.019014 -0.080101 -0.42592 0.017364 -0.085832 0.49245 -0.032023 -0.1558 -0.056641 0.21629 -0.032775 0.033097 0.16635 0.4001 -0.372 -0.00074434 -0.39346 0.13186 -0.067474 -0.33091 -0.55268 -0.038221 -0.13333 0.17329 -0.1079 0.31351 -0.11548 0.0093393
arrival -0.25934 -0.38897 0.012123 0.093994 0.079091 0.077808 -0.27716 0.040579 0.067159 0.057984 -0.082546 0.10569 -0.21846 0.23841 -0.0087712 -0.20566 -0.056654 -0.27899 0.1088 0.20415 -0.16283 0.1846 -0.23611 -0.60177 -0.25329 -0.10212 0.036498 0.060052 -0.27884 -0.30306 0.38028 0.353 -0.40199 -0.013298 -0.0096907 -0.00338 0.18522 0.014857 0.4266 0.11098 0.21501 -0.028524 -0.14882 -0.01149 0.20332 -0.30244 0.24626 0.014284 0.011632 0.15267 -0.1662 -0.072495 0.0046011 0.32086 -0.095996 -0.056175 -0.088102 0.11255 0.149 0.16505 0.0043954 -0.11444 0.22866 -0.12676 -0.038771 -0.00065862 -0.24197 -0.025647 -0.18053 0.030466 0.041498 0.21759 0.27493 -0.49462 -0.095812 0.11538 0.4791 0.095147 0.39153 -0.44182 0.17533 -0.15219 -0.47645 0.20131 -0.24284 0.037268 0.022957 0.37881 0.28501 -0.20851 -0.22684 -0.33652 0.12041 0.11198 0.18023 0.10933 0.14744 -0.077368 -0.27575 0.016602 0.098608 -0.45045 0.099385 -0.10348 -0.029994 -0.05181 0.058736 0.029027 -0.07954 0.1224 0.10121 -0.25751 -0.019754 -0.35845 0.42625 -0.34241 -0.089695 -0.093454 0.025713 -0.092398 0.37264 0.42434 -0.080498 -0.092768 0.050965 -0.16206 0.20661 -0.0021612 0.39931 0.10989 -0.24351 0.174 0.088173 0.22101 0.036076 -0.12939 0.21785 0.069058 -0.028572 0.12741 -0.17067 0.29054 0.11746 0.022438 -0.044876 0.48073 -0.11927 0.070174 0.096486 -0.21182 0.32984 -0.29683 -0.087048 0.23568 -0.32695 -0.13659 -0.39318 -0.23029 0.082738 -0.10248 0.040917 0.14658 -0.13621 0.43727 0.17585 0.20089 0.039979 -0.02737 0.39466 -0.12848 0.015723 0.23752 -0.16567 -0.092945 0.21832 0.010728 -0.24776 -0.010336 0.15031 -0.24499 -0.043387 -0.15913 0.40571 0.082752 0.15155 0.20454 -0.034976 -0.25181 0.24093 -0.20844 0.047465 -0.30839 -0.056193 0.27824 0.10126 0.079222 -0.35665 0.058967 0.036958 0.061098 -0.11857 -0.040067 -0.24643 -0.15405 0.15606 -0.30107 0.022804 0.23207 0.30585 0.22592 0.49143 -0.099283 0.087249 -0.28448 0.0060376 -0.16735 0.08142 -0.059984 -0.12517 0.0072553 0.080086 0.08161 0.050318 0.14788 -0.022747 -0.07746 0.088584 -0.33426 -0.2304 -0.0069533 0.19574 0.080181 0.071103 0.48195 -0.17589 0.18279 0.17815 0.1442 0.13508 -0.061005 -0.013032 -0.34636 0.23333 -0.26762 -0.37877 0.15273 0.069578 0.21079 -0.069466 -0.13729 -0.14947 0.3125 0.031896 -0.19862 -0.30636 -0.27364 -0.17002 -0.17298 0.072821 0.23914 0.22455 -0.086589 0.042438 0.083029 -0.28552 0.018921 0.048775 -0.16911 0.21572 0.050754 -0.14686 -0.31008 0.13383 0.13573 -0.25355 -0.20406 0.13853 -0.087365 0.37695 -0.17674 -0.42876 -0.23232 0.47124 -0.061774 -0.072954 0.056193 0.033617 -0.0058233 0.32483 0.14903 -0.058085 0.023848 0.053844 -0.16214 -0.28017 -0.061561 -0.21573 0.34162 0.085345 0.016504
hotel 0.1217 -0.21299 -0.28334 -0.072085 -0.19545 0.033213 0.1704 -0.33755 0.18469 0.1754 0.21703 -0.01506 0.033684 -0.052734 -0.3464 -0.61632 -0.16971 -0.093158 0.060134 0.15165 -0.41128 0.61144 -0.48379 0.20676 -0.23271 -0.40101 -0.19835 0.10578 0.05516 0.1758 -0.59369 -0.0047398 0.21946 0.048246 0.07938 0.082016 -0.053536 -0.23284 -0.36788 -0.27966 0.27631 0.070961 -0.13305 -0.13921 0.29421 -0.16522 -0.10199 -0.050765 0.24111 0.061419 0.13984 0.16035 0.31965 0.13825 0.0010834 0.21815 0.15403 0.23812 0.1413 0.27274 0.089573 -0.052981 -0.040128 0.07121 -0.26751 0.0012875 0.018026 -0.13805 0.10554 0.024673 -0.1416 0.38718 0.2601 -0.1777 0.32553 -0.17436 0.16197 0.3404 -0.27381 0.18785 0.34456 -0.28103 -0.00080328 -0.15451 0.16203 -0.11925 -0.052626 0.061255 -0.008943 0.023125 -0.040928 -0.45256 0.39277 -0.10168 0.31251 0.53328 0.029214 0.35197 -0.19445 0.13999 0.28503 -0.19241 -0.2638 -0.39002 -0.2649 0.48075 0.071246 0.24547 0.15044 0.046342 0.0092715 -0.32086 0.1622 -0.11177 0.06352 -0.27271 -0.019048 -0.37266 -0.12855 0.049926 0.92889 0.18368 0.36123 0.097905 0.30002 -0.16144 0.5158 0.49766 0.49997 -0.037182 0.16793 0.009836 0.095322 0.10613 0.15656 -0.02603 0.17879 -0.088825 -0.3394 0.2512 -0.1188 0.43096 -0.10925 0.0064688 0.16963 0.079832 0.22614 -0.32337 0.01592 -0.36514 0.15825 -0.21652 -0.20846 -0.3081 -0.28843 -0.76127 -0.051121 -0.77432 0.20363 -0.0026364 -0.038546 0.42977 -0.23528 0.086417 0.050923 0.079983 -0.41801 0.073719 0.1516 0.38777 0.19153 -0.021978 -0.095852 -0.18863 -0.25991 0.16418 0.034768 -0.15782 0.056841 -0.285 -0.44671 0.11306 0.036899 -0.105 0.04371 0.3105 -0.51418 -0.19279 0.037247 0.29986 0.39294 0.12204 -0.13072 0.28851 -0.033592 0.12443 -0.064736 0.21502 -0.12423 -0.3452 -0.15207 0.099744 0.039187 0.046236 0.10328 -0.1571 -0.39484 -0.06231 0.41152 -0.36017 0.44799 0.055809 -0.16692 0.0049399 -0.12361 0.082201 -0.39122 -0.094171 -0.18829 0.0090664 0.1374 0.34459 0.29235 -0.15511 0.0012133 0.32733 0.025575 -0.25043 -0.20911 -0.027565 0.37076 -0.3237 0.10465 0.36468 -0.15216 -0.23002 0.085448 0.63869 -0.34418 0.16596 0.50438 -0.19742 -0.098512 0.28986 -0.36204 -0.36889 0.068843 0.24998 0.46994 -0.30778 0.45313 0.13223 -0.14978 -0.051049 0.30396 0.16085 0.34697 -0.19241 0.48984 -0.048882 -0.024712 0.0020896 0.13424 -0.45297 -0.14864 0.57964 -0.25732 -0.085288 0.24615 0.1241 -0.020272 0.20772 0.010677 0.029134 -0.15616 -0.33116 0.15477 0.59188 0.2392 -0.017115 0.075431 0.17464 0.24188 0.010536 0.025096 0.31236 -0.017298 0.084513 0.0035186 0.16777 0.20566 -0.28764 -0.00072541 0.059068 -0.2684 -0.11629 0.048818 0.34578 -0.1419 0.14228
asylum 0.13149 -0.30432 0.030375 0.21523 -0.18599 -0.1743 0.16456 0.0615 -0.19818 0.16705 -0.08913 0.16672 -0.19502 0.15751 0.48267 -0.57687 0.10734 -0.22477 -0.2943 0.54308 0.11568 0.74775 -0.34934 -0.27283 0.03701 0.34337 0.09843 0.1711 0.21421 0.56387 -0.14153 -0.13139 -0.37196 0.27676 0.19968 -0.25815 0.58307 -0.72137 0.081471 -0.30846 0.041051 -0.44578 -0.1657 0.19423 0.14988 0.013387 -0.033207 -0.28776 0.074741 0.013575 0.1278 0.2992 0.27801 0.016539 0.26211 -0.38345 0.058264 -0.3901 0.23732 0.28571 0.058007 0.013576 0.49087 -0.1187 0.40261 0.17076 -0.18786 0.20034 0.2422 0.0070586 0.49214 0.016064 0.37529 -0.27609 -0.40147 0.034562 0.26927 -0.37881 -0.46118 -0.19944 0.12612 -0.16105 0.058438 0.1761 -0.022766 -0.5251 -0.20449 -0.21374 0.063455 -0.087058 -0.29581 -0.48201 0.30591 -0.38382 -0.045021 0.33881 0.3492 -0.23094 -0.32487 0.11541 -0.073533 -0.054449 -0.059021 -0.22866 -0.18865 -0.060902 -0.4029 0.19352 0.13724 0.30611 -0.29003 -0.15431 -0.47599 -0.53112 -0.0081632 -0.3097 0.26983 -0.11358 -0.13362 0.091099 0.46863 0.24243 0.30695 0.11707 -0.34514 -0.3603 0.13469 0.27369 0.30917 0.53339 0.028146 0.104 0.030008 0.027933 0.14109 0.3808 -0.00056757 -0.5149 -0.33354 0.33617 -0.072459 0.16489 0.046861 -0.032879 0.10175 0.026119 -0.13416 -0.073007 0.1766 0.13818 0.25952 -0.12684 0.055529 -0.17462 -0.41081 -0.58788 -0.2053 -0.013306 -0.11647 -0.14145 -0.06564 0.26839 -0.1411 0.17175 0.2091 0.054896 -0.11675 -0.37198 0.33026 0.18051 -0.12001 0.13068 0.34312 0.40238 -0.10612 -0.22205 0.11809 -0.2553 -0.35126 -0.086797 -0.1801 -0.28818 0.033492 0.40493 0.15398 -0.22646 -0.1117 -0.17326 0.29592 -0.17522 0.22703 -0.7945 0.14123 0.37364 0.15095 0.66868 -0.15014 -0.41088 -0.30163 0.13934 0.056828 -0.027465 -0.12018 -0.10372 0.052535 -0.68935 0.1219 0.092071 -0.15328 0.321 0.28126 0.33886 -0.17155 -0.1474 -0.11845 -0.31634 0.1361 -0.39717 -0.16152 -0.14227 -0.17268 0.088937 0.085095 -0.22761 0.35058 -0.22447 -0.38335 -0.11089 0.052751 -0.13991 0.17564 0.19627 -0.33219 0.18287 0.1145 0.19117 -0.23594 0.38435 -0.25509 -0.15936 0.20616 0.19787 0.40291 0.21545 -0.1298 0.091192 -0.2493 0.16572 -0.44919 0.40681 -0.044711 0.12368 -0.053057 -0.49532 0.098473 0.057887 0.088937 0.12371 0.34036 0.17795 0.35267 -0.14504 0.22897 0.12698 0.30152 0.18616 -0.23999 0.037657 0.3269 0.14058 0.17868 0.21086 0.20662 0.23157 -0.62415 0.33129 0.21344 0.60051 0.19934 -0.56865 -0.24362 0.17434 0.31915 0.090168 0.07198 0.28257 -0.030035 -0.33797 0.16516 -0.23047 0.18965 0.27036 -0.0063638 -0.012757 -0.36695 0.049187 -0.070685 0.097781 -0.0028864 0.27516
madhouse 0.040188 -0.13299 -0.22217 -0.048046 -0.29707 0.20845 0.22188 -0.038536 -0.20284 0.095212 0.21084 0.083392 -0.2184 -0.20268 0.26881 0.11956 -0.0070964 -0.15381 -0.42067 0.39402 -0.0048214 0.37918 -0.31212 -0.38584 -0.017725 -0.21755 -0.15265 -0.052608 0.41773 0.35135 -0.1572 0.033278 -0.27415 0.23945 0.059966 -0.12564 -0.10573 -0.079117 -0.30096 -0.10942 0.088779 -0.068954 0.11252 0.10151 0.022981 0.16894 -0.42522 -0.22179 -0.13902 0.5014 0.077883 -0.40103 0.081834 0.14032 0.21157 0.19369 0.25202 0.00011828 0.44331 -0.075737 0.0095521 0.16901 -0.048693 0.14998 -0.089696 -0.25663 -0.10196 0.11709 0.14922 -0.27011 -0.0027836 -0.1473 -0.077305 0.26029 -0.08461 0.21327 0.080589 -0.16362 -0.28598 -0.18791 -0.28557 -0.55029 0.1477 -0.035205 -0.021072 -0.05971 -0.25099 0.17713 0.21652 0.013455 0.1134 -0.3808 -0.088158 -0.2735 -0.28006 0.1439 -0.0087779 0.15595 -0.15428 0.1618 0.46652 -0.036329 0.36683 -0.096492 -0.37347 0.14258 -0.49176 0.0095865 0.47147 -0.21654 -0.12929 -0.13954 -0.091133 -0.41924 -0.06543 0.015961 0.56288 0.16413 -0.46116 0.37008 0.54533 -0.13675 0.075208 0.54106 -0.016757 -0.077071 0.27249 0.30278 0.060789 0.64268 0.45003 0.23058 -0.41364 0.18114 0.10474 0.057165 -0.089779 -0.080699 -0.37367 0.17849 0.26314 -0.18866 -0.22579 0.12027 0.35925 -0.15668 -0.096784 -0.32165 0.38809 0.17234 0.079242 -0.33395 -0.073027 -0.071136 -0.10459 0.28417 -0.18614 -0.33425 -0.20465 -0.14852 -0.11254 0.034823 -0.37449 -0.0049237 0.026828 -0.14296 -0.20781 0.15485 0.2635 0.30082 -0.33325 0.15651 0.080057 -0.076863 0.43592 0.090188 -0.40623 -0.44903 -0.25499 0.20751 -0.14192 -0.03487 -0.079284 -0.21289 -0.10859 0.010208 -0.15967 -0.095645 0.38538 0.52936 -0.17007 -0.44055 0.071242 0.10654 0.064916 0.0096436 -0.13094 -0.27337 -0.3187 -0.11382 0.27474 0.21633 0.062635 -0.099469 0.052208 -0.44749 0.027315 -0.17934 0.26161 -0.15807 0.62276 0.041555 -0.0048756 -0.14182 0.05605 0.087723 0.039382 -0.57029 -0.1895 -0.21097 0.058426 -0.42109 -0.25402 0.26579 0.015908 0.010622 0.16859 -0.15899 -0.064114 0.10174 0.17275 0.49327 0.13428 0.28984 -0.1723 -0.14241 0.18884 0.29657 -0.15207 0.047164 0.24971 -0.065925 0.27432 0.27907 -0.15829 -0.12278 -0.014049 0.61292 -0.26513 0.30114 -0.21032 -0.11775 -0.19031 -0.25909 0.1438 0.013272 -0.23978 -0.17938 0.35508 -0.19403 0.28458 -0.1027 0.32826 0.094906 0.0056282 0.24575 -0.10452 -0.21144 0.021176 -0.018834 -0.059295 0.27499 0.16223 0.61614 -0.22202 -0.2466 0.22887 0.28194 0.19164 0.030108 0.20697 0.26878 0.031956 -0.050176 0.29888 0.13437 0.16765 0.59584 0.052846 -0.055875 0.23231 -0.3591 -0.22924 -0.14087 -0.39667 -0.0066252 -0.17957 -0.14656 -0.044385 0.29583
atmosphere -0.037263 0.16008 -0.25649 0.26818 -0.1759 -0.093177 -0.28793 -0.1924 0.10321 0.39252 0.10631 0.15681 -0.025073 0.090351 -0.019766 -0.084304 0.27858 0.079617 -0.013826 0.37456 0.1122 0.080569 -0.2727 -0.10418 -0.14133 -0.023882 0.07603 0.14956 0.1721 -0.063895 -0.60155 0.29903 -0.20124 0.1676 -0.095057 -0.083002 0.00065284 -0.065233 -0.21452 -0.24098 0.14105 0.37613 -0.33732 -0.22203 0.081897 0.041581 -0.10304 0.031262 -0.26449 -0.12278 0.063541 -0.11017 -0.19797 -0.36891 0.38103 0.38269 0.071753 0.25662 0.34509 -0.10627 -0.36465 -0.028499 0.093631 -0.18839 -0.19568 -0.28762 -0.17167 0.15517 -0.071413 -0.014498 -0.26218 0.58746 -0.17033 -0.11356 0.081461 0.21368 0.11399 -0.1215 0.15965 0.036649 0.042038 0.13261 0.11912 0.11919 -0.23767 0.32131 0.24514 0.30365 0.084205 0.0068928 -0.021107 -0.12015 0.17116 -0.015174 0.15941 0.24586 0.20977 0.26888 -0.064124 -0.13187 -0.097118 -0.56769 0.48277 -0.21176 -0.37934 -0.26948 -0.45033 0.39296 -0.011634 -0.22843 -0.2479 0.25529 -0.019625 -0.33396 -0.14325 -0.065862 0.42075 0.21232 -0.070566 0.22395 0.10724 -0.35023 0.14658 -0.23266 -0.029802 0.085959 0.017396 0.36349 -0.46339 0.12726 -0.10157 -0.053304 -0.1716 -0.01634 0.083843 -0.13189 0.0050671 0.23143 -0.0249 0.31567 -0.062973 0.50405 -0.16846 0.15325 -0.19505 -0.22626 -0.076097 -0.0080501 0.53793 -0.33736 0.52772 -0.25801 0.15345 -0.40116 0.18949 -0.22337 -0.23973 -0.10346 0.0066541 -0.015036 -0.13763 0.23503 -0.22869 -0.14303 0.17796 0.066886 -0.0067668 -0.0024318 0.19218 -0.045457 0.064649 -0.035319 0.1553 0.32449 -0.021094 0.36535 -0.27051 -0.48474 0.085064 -0.28672 0.34135 0.30851 0.28517 0.0069628 -0.10181 0.59028 0.2503 0.31274 0.21125 -0.34199 0.018516 -0.23937 0.14452 0.051536 -0.0725 -0.36001 -0.12916 0.2997 -0.13641 -0.089996 0.070135 -0.26283 0.0083194 0.25223 -0.082908 -0.4665 0.029823 -0.21204 0.0033511 0.15112 0.79723 0.33055 -0.034129 0.37611 -0.041303 -0.39894 -0.095221 -0.60657 -0.31855 -0.011039 0.066978 -0.067072 -0.080172 0.042964 0.034567 0.26405 -0.40988 -0.41746 -0.17602 0.17533 0.25256 0.33906 0.052535 0.25615 0.054636 -0.068522 0.13183 -0.16601 -0.10037 0.42672 -0.0045543 -0.28363 -0.087861 -0.32197 -0.39264 -0.46391 0.14897 -0.24398 -0.48416 -0.0095589 0.1853 0.014306 -0.1583 -0.054677 -0.21849 -0.022428 -0.0059643 -0.43226 -0.25406 0.26505 0.041108 0.089531 0.061233 -0.095696 -0.13998 -0.57609 -0.16983 -0.13147 -0.05207 -0.25391 0.13558 -0.20073 -0.065103 0.10282 -0.45096 -0.23746 -0.088893 0.1132 -0.0056813 0.15491 0.4702 -0.14926 0.29195 -0.029067 -0.11804 -0.31219 0.37096 -0.080489 -0.4828 0.56571 0.040263 0.14804 -0.24391 0.1373 0.050308 -0.071406 0.12464 0.25593 0.14656 0.40098
landscape -0.16874 0.27323 -0.026716 0.025835 -0.055934 0.36676 -0.21034 0.20928 -0.0056084 0.58082 0.18772 0.36334 0.076123 0.039245 0.53482 -0.42352 -0.34432 0.024905 0.0054045 0.44721 0.13639 0.32208 -0.21723 0.049988 0.14741 -0.13978 0.0043732 0.15027 0.30542 -0.20961 0.090036 0.76773 -0.34857 0.16935 -0.21077 0.10126 -0.1521 -0.0014279 -0.16278 0.071257 -0.1352 0.25543 0.32461 -0.055564 0.26476 0.040097 -0.059832 -0.0076206 -0.16001 0.08279 0.26014 0.17346 -0.21511 -0.37533 0.27045 0.14282 -0.11395 0.38841 0.091927 0.49304 0.047119 -0.14173 0.1372 -0.068887 0.19192 -0.31271 0.1182 0.019029 0.12361 -0.13797 -0.56053 0.32635 -0.14236 0.026498 0.21336 0.080526 0.37013 -0.089807 -0.2372 -0.17311 -0.29427 0.16831 0.1694 -0.24807 -0.21908 -0.044686 0.13066 -0.035244 0.31073 0.15387 0.3061 0.055603 0.5481 0.03191 0.41914 -0.24761 0.2888 0.29107 -0.09292 -0.13677 0.27608 -0.22227 0.55422 -0.13667 -0.52631 0.15346 -0.26924 -0.059066 -0.37983 -0.14717 0.21791 0.064511 -0.11558 0.2044 0.024767 0.015736 0.11086 -0.064684 -0.37125 -0.10446 0.42849 0.0023538 0.18791 -0.171 -0.10108 -0.054598 -0.28581 0.27778 0.10144 0.054772 -0.28199 -0.2864 0.2119 -0.050175 0.045725 0.096084 -0.080077 0.15286 -0.24795 0.26788 0.2963 0.6442 0.030185 0.43865 -0.0068841 0.24748 -0.17683 -0.16297 -0.24896 -0.15597 0.24875 -0.081696 0.17513 -0.22368 -0.46739 -0.11767 0.0031029 -0.070769 0.13622 0.047808 0.13418 0.49272 -0.16226 0.08928 0.3583 -0.23216 0.022695 0.26384 0.49399 -0.069344 -0.20871 -0.21414 -0.57059 -0.19076 -0.16344 0.33401 0.445 0.093263 -0.18159 -0.13918 0.18228 -0.24238 0.10135 0.081193 0.29697 0.2293 0.045773 -0.25584 0.20914 0.24941 0.36023 -0.17723 0.24831 0.26296 0.20701 -0.22576 -0.32858 0.16474 -0.55835 0.047257 0.16471 -0.028181 -0.29994 0.010105 0.030859 -0.48623 0.088613 0.1077 0.15499 0.36639 0.24894 0.12148 -0.21879 0.38529 -0.12107 0.22375 -0.010744 -0.48312 -0.36012 -0.072851 0.21989 -0.1167 -0.0063237 0.5032 -0.070971 0.016575 -0.016339 -0.15878 -0.14423 -0.091319 -0.31571 -0.10721 -0.49369 0.19579 -0.30961 -0.18253 -0.23834 -0.042587 0.1077 -0.014236 0.01086 -0.035474 -0.17132 -0.41274 0.35112 -0.0093463 -0.039847 -0.42256 -0.46157 -0.2618 0.22956 -0.38525 0.3265 0.043408 0.23026 0.029674 -0.016333 0.053011 0.20296 0.14469 -0.28317 0.19128 -0.016995 0.35504 0.028064 -0.030093 -0.00036135 -0.28973 0.15344 0.24053 0.34959 0.26666 -0.049344 0.39002 -0.048962 -0.46845 -0.39475 0.44987 -0.32517 0.34815 0.022093 0.17747 -0.17707 0.29114 -0.081739 0.080634 -0.17118 0.22331 0.07616 -0.041219 -0.22351 0.01935 -0.026064 0.12164 -0.041796 0.13385 -0.017685 0.67492 0.0165 0.24227
attempt -0.084888 -0.10645 -0.35614 -0.14764 -0.29428 0.075773 -0.28211 -0.25986 -0.020988 0.15335 0.034354 0.16377 -0.19184 -0.14375 0.18242 -0.10131 -0.064129 -0.01845 -0.16698 0.21624 -0.099944 0.1103 -0.045731 -0.16494 -0.17807 -0.27547 0.078862 0.26692 0.11633 0.048485 -0.17449 0.25685 -0.23825 0.2978 0.035161 -0.18222 0.13808 -0.23802 0.10253 -0.1514 0.38118 -0.23226 -0.28884 0.17842 -0.059778 0.20108 0.30876 0.033269 -0.091379 0.040205 0.16704 -0.039318 0.35271 -0.023969 -0.22283 0.20002 0.1301 0.15165 0.27579 0.0062511 0.015139 -0.24228 0.58479 -0.083564 0.13825 -0.087583 -0.1772 0.15871 0.0084328 0.089588 0.14613 0.20257 -0.1196 -0.54898 -0.027152 0.063737 0.29318 0.28967 -0.12412 0.092223 0.13434 0.20124 -0.019391 -0.38487 0.14336 0.26483 0.11397 0.029374 -0.011456 0.15334 -0.1085 -0.275 0.097986 -0.23275 0.16567 0.14263 0.12421 0.076325 -0.20588 -0.11862 -0.18077 -0.24192 -0.060249 -0.042353 0.077516 -0.13968 0.18235 -0.18152 0.22971 0.20204 0.1098 0.12569 0.15899 -0.2747 0.083023 -0.26959 0.010166 -0.062029 0.0068814 0.13062 -0.11347 0.33361 -0.081043 0.24943 0.19135 -0.14454 -0.06059 0.2851 -0.080335 0.0029745 0.029956 -0.37658 -0.12946 -0.17399 0.019677 -0.039392 -0.083576 0.092471 0.23676 0.12191 -0.39081 0.12618 -0.010333 -0.392 0.1686 0.37051 0.1433 -0.098284 0.1093 0.3712 0.084617 0.12785 0.0049675 -0.15355 -0.12636 0.23984 0.02204 0.16262 0.34419 -0.14079 -0.25779 -0.07311 -0.041651 -0.038094 -0.035134 0.10718 -0.4031 -0.0030927 0.38689 -0.15368 -0.017406 0.080618 -0.13844 0.08655 -0.13254 0.22471 0.02977 0.21305 -0.18819 -0.16859 -0.0098522 0.22238 0.1839 -0.075791 -0.14105 0.44351 -0.15744 0.11585 0.34848 -0.01345 -0.26702 -0.15909 -0.10564 0.091917 0.18108 -0.099674 -0.017728 0.19064 -0.22742 -0.060629 -0.017246 0.16302 0.19591 0.17672 -0.16376 -0.14087 0.020232 -0.077436 0.030582 0.153 0.34599 0.1553 -0.048533 -0.21546 0.0070089 -0.10369 0.26892 -0.30703 -0.20299 0.15055 -0.17954 -0.45662 -0.16629 0.21286 0.08862 -0.037885 0.11409 -0.18586 -0.00067641 -0.12985 0.3511 0.28941 0.017847 0.21576 -0.44997 0.054377 0.038845 0.48363 0.15294 0.1451 0.05864 0.082269 0.21749 0.0016538 0.092829 0.098402 0.18509 0.10996 0.048661 0.075009 0.023918 -0.27395 -0.24464 0.0035043 0.0586 -0.19742 0.20901 -0.28647 -0.14584 -0.10065 0.1104 0.10397 -0.10452 0.039988 -0.36907 -0.34754 0.049114 -0.16258 0.10816 -0.086494 -0.29027 -0.49392 -0.18569 0.30004 -0.22525 0.098071 -0.17344 0.21162 -0.034931 0.17537 -0.021651 0.13975 -0.11855 -0.30389 0.20739 0.20925 0.31881 0.37624 0.039457 -0.23672 0.1651 0.2703 -0.029299 0.1473 0.16829 -0.13493 -0.15608 0.28362 -0.32547 0.1663
peace -0.19654 0.0096242 0.31461 0.077172 -0.22071 -0.11865 -0.26619 -0.30785 0.024378 0.13858 0.12772 0.46354 0.00016351 -0.12381 0.014406 -0.15722 0.17121 -0.10938 0.052479 0.29182 0.17858 0.28118 -0.11577 -0.25194 0.033954 0.0823 0.030837 0.1992 0.20556 0.014113 -0.15496 0.042144 -0.25883 0.15378 0.17517 -0.11738 0.14999 -0.47822 0.60862 -0.073103 0.1484 0.026234 -0.05628 -0.1126 0.48833 -0.27109 0.37249 -0.25529 -0.49462 -0.1966 0.12822 0.1925 -0.34312 -0.19508 0.080399 -0.32146 -0.24074 0.16026 0.21984 0.15586 -0.34491 0.13861 0.30352 -0.16128 0.14585 -0.015133 -0.2053 0.39575 -0.76567 0.11546 0.015901 -0.10519 0.27941 0.069436 0.19314 0.073283 0.23082 0.090937 -0.13312 0.21495 -0.31783 -0.097075 -0.18019 -0.44139 0.14699 -0.061253 0.039522 0.4081 -0.14452 0.18226 -0.051198 -0.29214 0.37758 0.055731 0.10863 0.52013 0.11586 0.19082 -0.27678 -0.256 -0.075865 0.11073 0.063613 -0.0080454 -0.2139 0.25756 0.0063249 0.032993 -0.24126 0.0029322 -0.045366 -0.23353 0.014533 -0.23652 0.025792 -0.18699 0.22842 0.29318 -0.27209 -0.2004 0.38177 0.17702 -0.16643 -0.084551 -0.30838 0.10526 -0.12778 0.11302 0.032374 0.063631 -0.17328 -0.10024 -0.2169 -0.43479 -0.041558 0.30443 0.1544 0.18591 -0.024726 0.43569 -0.24085 0.014783 0.19938 0.42821 -0.062471 -0.34001 0.0056965 -0.47173 0.20367 0.23009 0.075558 -0.074034 -0.29703 -0.03536 -0.033355 -0.13622 -0.17394 0.14535 0.3022 0.23176 0.10034 0.23907 0.09639 0.1574 0.044861 0.038468 0.21068 0.039234 0.22631 -0.14732 -0.50597 -0.23967 -0.1525 -0.46483 -0.46637 0.031117 0.57335 0.6045 -0.13543 0.22069 -0.037044 -0.20293 0.16823 0.040155 -0.066289 0.14971 -0.28954 0.038914 0.33668 -0.43875 -0.37334 -0.80799 0.25708 0.4202 -0.18177 0.32287 0.088927 -0.18388 -0.089541 -0.068274 -0.13738 -0.44277 0.0052559 -0.039922 -0.22349 -0.16767 -0.45976 -0.19737 0.30209 -0.20193 0.64235 0.37667 -0.1069 -0.38505 0.014048 -0.19623 -0.19334 -0.41168 -0.11247 0.24831 -0.10663 0.092181 -0.51993 0.081486 -0.22129 0.0027826 -0.32273 -0.10045 0.1034 0.039549 0.45105 0.07675 -0.0025141 -0.11946 -0.12389 0.0070173 0.27284 -0.14472 -0.1869 -0.25715 -0.10257 -0.19131 -0.14083 0.021296 0.043075 -0.32315 0.3138 0.29834 -0.28748 0.25115 0.061921 0.22031 0.21019 -0.17544 0.040647 0.14931 -0.51585 -0.38772 0.29432 -0.22798 0.059962 0.027229 0.014969 0.29913 0.021067 0.065951 -0.0628 0.092847 0.17888 -0.048089 0.00025479 -0.0072581 0.090712 0.18831 0.24335 -0.41781 -0.21063 -0.16635 0.096649 0.026488 -0.27859 0.02477 0.22071 0.32161 -0.018781 0.059491 0.39036 -0.013874 0.0073309 -0.07757 0.35588 0.21176 -0.10854 -0.15252 0.167 0.26696 -0.41922 0.34338 0.2551 0.053072
baby -0.014687 -0.11762 -0.0042118 0.16084 -0.18936 -0.15461 -0.075847 0.20266 0.0074485 -0.13727 0.24986 0.23557 -0.058379 0.04064 -0.10599 -0.357 -0.01099 -0.26213 -0.52175 0.084148 0.10423 0.20944 -0.26697 -0.21566 0.042243 0.21457 -0.15465 -0.050227 -0.022311 0.021752 0.35358 0.23919 -0.20445 0.049857 0.001139 0.20501 0.2272 -0.20712 0.075778 -0.2261 0.025931 -0.29489 -0.090333 -0.15058 0.28732 0.22542 0.01996 0.024209 0.010526 0.10939 0.16225 -0.065222 0.075611 -0.099311 0.33964 0.084519 0.21418 0.17403 0.15191 0.28007 0.16337 -0.03236 0.027605 -0.020156 -0.20684 -0.27756 0.26216 0.27868 -0.0017933 0.093888 0.17772 0.02079 0.37544 -0.23023 -0.19205 0.042362 0.39526 0.12283 -0.33065 0.25583 0.0059621 -0.3477 -0.14559 0.40668 -0.061228 -0.11537 -0.38145 0.049063 0.23726 -0.17023 0.16483 -0.0081163 -0.045631 -0.053126 0.26444 0.40711 0.012023 0.045944 -0.11757 0.040848 -0.11229 -0.037921 -0.25063 -0.2595 -0.09467 -0.1679 -0.21415 0.18444 0.094172 -0.066701 0.03359 -0.10621 -0.54804 0.18407 -0.043676 -0.33973 0.019796 -0.089018 -0.1925 0.0090337 0.11475 -0.075314 -0.19307 0.33185 0.23697 -0.24875 0.099574 0.11952 0.16196 0.34619 -0.18232 0.10546 -0.14827 0.34904 0.2133 -0.058542 -0.46622 0.46835 -0.1849 -0.10554 0.22647 0.068898 0.30222 -0.040488 0.13073 0.34882 0.052389 -0.17682 -0.042306 0.32042 -0.053314 0.038471 -0.012204 -0.11724 0.074698 0.2177 -0.12222 -0.26937 0.096831 -0.13494 0.39781 0.12455 -0.051417 0.15698 -0.082229 0.21345 0.39119 -0.061855 0.25416 0.24247 -0.046736 -0.28444 -0.25004 0.028408 0.15247 0.059256 -0.10557 -0.10794 -0.10098 -0.22886 0.2514 -0.4686 0.06218 -0.070517 -0.13165 -0.056764 -0.03378 -0.1157 0.34272 0.079004 -0.19138 -0.013299 -0.036097 0.51769 -0.25658 -0.23886 0.060219 -0.088108 -0.31185 -0.097113 0.17652 0.48566 0.45509 0.12051 0.044565 -0.26133 -0.77694 -0.28548 0.22496 -0.14769 0.68599 0.018292 -0.25126 -0.37424 0.30791 -0.33509 -0.047733 -0.046981 0.3025 -0.053168 -0.31626 -0.25275 0.00011141 0.14415 -0.45101 0.028396 -0.33381 -0.027286 0.2784 -0.025077 0.046004 -0.031139 0.19951 -0.22587 -0.20605 0.020269 -0.54847 0.084398 0.072174 -0.045838 -0.3572 0.055093 0.35012 0.14992 -0.43296 0.27753 -0.16866 0.1112 -0.14292 -0.071489 0.064143 0.26728 -0.39303 0.2753 0.25009 0.10383 -0.083999 0.066572 0.27067 0.24169 0.24287 0.54096 -0.13559 -0.40881 -0.27108 -0.26681 -0.2592 0.13068 0.18379 0.14404 -0.2557 -0.36412 0.2706 0.20595 -0.3805 0.12704 0.47675 0.01425 -0.10818 0.12644 0.2263 -0.21362 0.040232 0.41195 0.13566 0.17102 -0.060544 0.22786 0.2254 0.080316 0.092423 -0.1124 0.28744 -0.16397 -0.30255 -0.2573 -0.032882 0.18813 0.22884 0.32529
mother -0.037338 -0.03903 -0.1397 0.087637 -0.12458 0.13656 0.11746 0.095905 0.16807 0.45565 0.14442 0.034403 -0.2779 0.17815 -0.27119 -0.48471 0.10128 -0.47086 -0.23076 0.15445 0.045702 0.36209 -0.43556 -0.26191 -0.17694 0.39455 -0.071678 -0.084294 -0.29062 0.17178 0.1672 0.31741 -0.2613 -0.11647 -0.32332 -0.19483 -0.022068 -0.10456 0.18956 0.041028 0.18333 -0.067242 -0.047908 -0.15034 0.18032 0.072854 0.10151 0.25627 0.24892 0.32743 0.19403 -0.17313 0.051973 -0.14267 0.027883 -0.16388 0.27619 0.070686 0.11476 0.062007 -0.01514 -0.064339 -0.30212 -0.2887 -0.15569 -0.018706 0.12882 0.38569 0.20305 0.1162 0.040263 -0.16947 0.48174 -0.15798 -0.23243 -0.042388 0.6642 0.29527 -0.34098 -0.14039 -0.21163 0.048638 -0.10151 0.19654 -0.018509 0.14001 -0.25918 -0.0029364 -0.08896 0.039991 0.28062 -0.19039 0.12545 -0.13957 0.28271 0.27826 0.32458 -0.017658 -0.21559 0.036418 -0.085233 -0.047503 -0.073374 0.076483 0.074098 -0.11896 -0.078763 -0.026313 0.28226 0.21858 0.42007 -0.34679 -0.44292 -0.060857 0.0056097 -0.43942 0.18073 0.1314 -0.23315 -0.17099 0.20441 0.066043 0.21352 0.075631 0.15981 -0.093391 -0.22208 -0.22059 0.057573 0.22546 -0.1852 -0.11245 -0.019221 0.09643 0.17042 -0.16563 -0.48678 0.12382 -0.15589 -0.037749 -0.05227 -0.0076687 0.35769 0.20332 -0.0056556 0.30161 0.016958 -0.24288 0.13247 0.429 -0.0595 0.022078 -0.07433 0.024244 -0.10355 0.043911 -0.54596 -0.30234 0.43515 -0.1443 -0.18749 0.39634 -0.059285 0.080377 0.15016 -0.11094 0.10968 -0.075146 0.0975 0.11181 -0.15657 -0.13767 -0.37253 -0.034476 0.026939 -0.086306 -0.030274 0.20265 -0.0057662 -0.14953 0.36851 0.09362 -0.049011 0.20963 0.045583 0.058268 0.046404 -0.10849 0.22738 0.076338 0.34654 -0.12175 0.047564 0.35362 -0.49105 0.030993 -0.24706 -0.13859 0.061751 -0.031601 0.20357 -0.057644 0.083193 0.1421 0.14643 0.065824 -0.3873 0.0007455 0.12835 0.068089 0.80047 -0.022667 0.035695 -0.079778 0.11385 -0.011931 -0.16471 -0.17625 -0.0038258 0.18324 -0.1165 -0.29079 0.085286 0.44472 -0.33054 0.11075 -0.25245 -0.07185 0.089261 -0.029675 0.007455 -0.078367 -0.10858 -0.26209 -0.11571 0.35717 0.082501 0.032786 0.085211 -0.038643 -0.19561 -0.043422 0.26864 0.11756 -0.34813 0.092415 -0.29966 0.10881 -0.16642 -0.079589 0.014634 0.14438 0.011918 0.042748 0.01876 0.049366 0.28737 0.078264 0.49556 0.097138 0.084432 0.13808 0.2162 -0.17208 0.11494 -0.16097 -0.087227 -0.043057 0.35294 0.015485 -0.096996 -0.49612 -0.084267 0.041995 -0.38399 -0.27025 0.36084 -0.17396 -0.077914 0.10891 0.13553 -0.070037 0.19919 0.34125 -0.11831 0.27442 -0.30038 0.0016623 0.22008 -0.35641 0.1566 -0.18451 0.11635 0.01436 -0.13331 -0.0058124 -0.0028042 0.034817 0.066753 0.31278
bank -0.52951 -0.27017 0.15648 0.21545 -0.075586 -0.017252 0.022509 -0.21785 0.0070316 -0.11559 0.073449 0.31059 -0.070712 -0.34986 -0.21463 -0.096034 0.29364 -0.066497 -0.23575 0.31089 -0.13745 0.47576 -0.26692 -0.4861 0.14175 0.064525 -0.12608 -0.57571 0.012233 -0.022723 -0.49103 0.39508 -0.41337 0.23553 -0.10041 -0.063752 0.30408 0.064882 -0.2343 0.09289 0.3106 -0.064653 0.0043229 0.32882 0.0032889 0.028491 -0.28649 0.23265 0.12642 -0.015997 0.13813 0.39664 0.096072 0.34757 -0.28291 -0.13445 0.079721 0.24893 0.12266 -0.16416 -0.032686 -0.36308 -0.061952 -0.5679 -0.25496 -0.32046 -0.33913 -0.21213 -0.14554 -0.2553 -0.040539 0.067801 0.23126 -0.14981 -0.10486 -0.12106 0.2002 -0.17525 -0.36002 0.15415 0.23589 -0.097177 -0.051725 -0.011632 -0.61396 -0.33015 -0.21731 -0.1882 -0.23092 -0.25858 -0.11994 -0.19079 0.24363 -0.19003 -0.32326 0.37124 0.3465 0.34412 -0.013636 0.15205 0.29533 0.11391 -0.27074 -0.41251 0.058124 0.00012888 0.18404 0.24689 -0.48443 -0.04951 -0.40473 -0.34343 -0.067147 -0.021946 -0.13773 0.31328 -0.15581 -0.13191 -0.21852 0.0086221 0.79397 0.24688 0.16889 0.0096531 0.096621 0.38109 -0.5113 0.0876 0.25017 -0.06114 0.052789 -0.11865 0.11667 -0.074265 -0.11074 0.052411 -0.17721 0.056191 -0.020378 0.18565 -0.069595 0.42814 -0.026531 0.28105 0.11673 0.29192 0.086447 -0.15802 -0.21733 0.28996 0.3281 0.30618 -0.24203 -0.085491 0.30311 -0.48874 -0.063035 -0.12496 -0.0058204 -0.11142 0.1737 0.33443 -0.03067 -0.11439 0.67489 -0.14978 -0.56086 0.093759 0.3368 -0.28061 -0.18128 0.1929 -0.27501 -0.45048 -0.48814 -0.059732 0.58556 0.33731 0.11312 0.21772 0.048688 -0.47972 -0.77341 -0.13826 0.4493 0.34529 -0.40437 -0.13688 0.42975 -0.13384 -0.003294 -0.24205 -0.46357 0.38613 -0.24911 -0.12011 0.037108 0.038669 -0.5048 -0.58853 0.067248 0.40036 0.045251 -0.19059 -0.27112 -0.29208 -0.07122 0.11855 0.18914 -0.16415 0.10209 0.32866 0.17398 0.096012 -0.39287 0.19913 -0.17868 -0.15366 0.09034 -0.015751 -0.063573 0.075751 -0.087331 0.021371 0.28329 0.059384 -0.17918 -0.18655 0.049486 -0.43822 0.28882 -0.19077 0.038539 0.07555 -0.034877 -0.16102 -0.22984 -0.040298 -0.25701 -0.062721 0.10957 0.033587 0.20491 0.013532 -0.10887 0.19175 0.18894 0.28205 0.078894 -0.05157 0.074589 -0.071651 0.050874 -0.4531 0.25832 -0.10782 0.07168 0.08574 0.28379 0.43377 -0.056408 0.3319 -0.1995 7.8651e-05 -0.44834 0.22025 0.12166 -0.19038 -0.13161 0.15304 -0.23972 0.12496 0.18507 0.13736 -0.44207 0.16153 0.49543 0.52626 0.72282 0.30474 0.20311 0.070144 0.20033 -0.087273 -0.16542 -0.17319 0.38893 0.45834 0.022404 -0.0054231 0.11525 0.084332 0.068201 0.22267 0.077581 -0.19044 -0.11732 -0.095321 -0.21611 0.181
money -0.072212 -0.12122 0.0083495 0.066983 -0.1011 -0.055209 0.15474 -0.25875 -0.089381 0.14171 0.064301 0.02386 -0.017409 -0.019186 -0.069713 -0.20381 -0.030459 0.24122 -0.28487 -0.025858 0.057646 0.048677 -0.24167 -0.28866 0.10577 0.005569 -0.44812 0.17661 0.16483 0.16363 -0.4982 0.14832 -0.45637 0.030324 -0.071514 -0.25234 0.11824 -0.15762 -0.088507 0.03971 0.28983 -0.27517 0.021727 -0.20035 -0.25484 -0.073256 0.40227 -0.20702 -0.039942 -0.18941 0.18249 0.11302 0.064947 0.21899 -0.35557 -0.12028 0.19641 0.29043 0.043095 0.0059951 -0.15139 -0.29875 0.18701 0.00062026 -0.065254 -0.03202 -0.086118 0.1213 -0.097814 -0.12532 0.12356 0.033001 -0.026238 -0.15931 -0.072219 -0.074825 0.34489 0.032698 -0.27393 -0.15705 0.3062 -0.10618 -0.39087 0.088594 -0.052509 0.088582 -0.22309 -0.011363 -0.22883 0.067459 -0.046648 -0.13029 0.24461 -0.014708 0.055922 0.34395 0.17429 -0.083945 -0.3315 0.12365 0.17126 0.16624 0.20631 -0.019081 -0.22893 -0.19551 -0.18537 0.1994 -0.12901 0.061052 -0.052398 -0.15315 -0.26839 0.21769 -0.28546 0.025107 0.43706 -0.0067944 -0.30993 -0.24429 0.31855 0.28626 0.077229 -0.15581 -0.24455 0.29042 -0.2172 -0.044171 0.12739 -0.14081 -0.1093 -0.31367 -0.28237 -0.092344 0.24307 0.085814 -0.29548 -0.20996 -0.033509 0.22518 0.072007 0.047156 -0.054787 -0.15611 0.058645 0.29705 0.015929 0.04458 0.0085846 0.0944 0.46615 0.16072 -0.36381 -0.060373 0.16911 -0.076501 -0.38424 -0.38824 -0.17846 -0.25447 0.036481 0.28734 0.12464 0.11372 0.33927 0.040613 -0.10448 -0.25728 0.3922 0.073876 -0.18622 -0.26221 -0.29758 -0.022909 -0.058325 0.17728 -0.12251 0.059831 -0.13633 0.20156 0.10098 -0.59599 0.029344 0.31418 -0.041365 -0.022765 0.19451 0.067433 0.046929 -0.40412 -0.14372 -0.45182 -0.10562 0.041782 -0.44736 0.13007 0.11559 -0.13883 -0.42062 -0.2419 0.097156 0.15785 0.69666 -0.089565 -0.16425 -0.051447 -0.099969 -0.28069 0.26629 -0.55215 0.49637 -0.16257 0.16146 -0.017071 -0.11453 0.0081668 0.021694 -0.017401 0.14624 0.27817 -0.42675 -0.22497 0.16204 -0.12816 0.04681 0.1639 -0.42169 -0.059818 0.084419 0.055665 0.031477 0.25269 0.16209 0.18736 -0.038222 -0.39201 0.11026 0.0025177 -0.16815 -0.28399 -0.070838 0.25871 0.3156 0.29724 -0.15427 0.34101 0.039764 0.1316 0.044516 0.17626 0.13267 -0.041081 0.033483 -0.095489 0.38813 -0.21989 -0.11024 -0.22931 0.31852 -0.048076 -0.13856 0.023388 0.29904 -0.21152 -0.35908 0.14667 -0.034028 -0.44965 -0.20304 0.11576 -0.55697 -0.036301 0.10321 -0.046144 -0.44341 0.16561 0.31775 0.31012 -0.06361 -0.0073335 0.55833 -0.04453 0.1098 -0.22064 0.16679 0.25467 -0.047074 0.096569 -0.14952 -0.27105 0.24853 -0.061917 -0.1245 -0.0051085 0.27742 -0.036148 -0.052052 0.14723 0.33501 0.059629
baseball 0.044589 -0.089292 0.18082 0.54954 -0.25423 -0.2476 0.28068 -0.18168 -0.25529 0.051185 0.59903 -0.19062 -0.29689 -0.4394 -0.12311 0.047797 -0.35199 0.057561 -0.25811 0.44459 -0.28992 0.055862 -0.1291 -0.029133 0.23655 0.12258 0.25866 0.37817 0.053034 0.13316 0.27402 0.20955 -0.36151 -0.035822 0.03414 0.40469 -0.31812 -0.15154 -0.18649 -0.25233 0.099916 -0.43451 -0.045355 0.2047 -0.10079 -0.073453 -0.10201 0.43836 -0.23609 0.39665 -0.19653 -0.22506 0.33579 -0.3962 -0.48856 0.053015 0.028444 0.13737 0.028869 0.5553 0.070949 0.075323 0.39884 -0.067244 -0.020498 0.070166 0.24905 -0.18833 0.40964 -0.13263 -0.0051273 0.0054328 0.13983 -0.4401 -0.12762 0.078838 0.41906 -0.16995 0.10384 0.065498 -0.32397 0.45922 -0.032196 -0.11161 -0.015283 -0.4089 -0.068925 0.16027 0.29227 -0.50308 -0.31638 -0.35719 0.29703 -0.56807 0.0019191 -0.17861 -0.029699 0.11347 -0.48401 -0.13282 0.061533 -0.40899 0.20099 -0.3173 0.19899 0.32561 0.062265 -0.15998 -0.11535 0.080704 0.22717 -0.54927 0.35666 -0.10474 -0.45472 -0.36995 0.30037 0.30997 -0.33518 -0.42528 0.51483 -0.40698 -0.28458 0.53161 -0.056892 0.32313 0.27626 0.36752 -0.15043 -0.011616 -0.38675 -0.21384 -0.37119 -0.056618 0.035382 0.45329 0.1555 -0.77435 -0.02685 -0.13658 0.62214 0.41433 0.0088353 0.41216 -0.05682 0.20091 0.47099 -0.33568 -0.070905 0.044363 0.074895 -0.058506 -0.25274 0.056731 -0.039406 0.086113 0.14257 -0.24911 -0.091323 0.18333 0.2242 -0.37861 -0.60691 0.11083 0.30902 0.5148 -0.15658 0.17317 0.10931 0.0098348 -0.4594 -0.2892 -0.42109 -0.19699 0.20407 0.54855 -0.069953 -0.20145 0.037544 0.22309 -0.057445 -0.17259 -0.27613 -0.31878 0.02096 -0.061573 0.1038 0.12875 0.33248 -0.15409 -0.29164 -0.4562 -0.21164 0.14103 -0.29622 0.024493 -0.10458 1.0008 -0.69447 0.16972 0.17871 -0.33286 -0.0010873 -0.22073 0.57884 0.46141 0.052098 -0.36923 0.17898 -0.073335 0.43717 -0.40328 -0.47557 -0.48637 0.22239 -0.33879 -0.018437 -0.18173 -0.043977 0.17509 -0.43515 -0.20898 -0.22082 -0.038934 0.14289 0.018458 0.59133 -0.45988 0.1347 -0.33806 -0.025033 -0.3666 0.063942 -0.23713 0.16014 0.34077 0.022276 -0.1494 0.13142 -0.075974 -0.62955 0.20646 0.5793 -0.24046 0.20158 -0.38362 0.084264 0.15375 0.2507 0.074535 0.47319 0.31227 0.291 -0.054775 -0.05175 0.13593 0.10947 -0.74545 0.2731 0.80508 -0.020367 -0.012528 0.40567 -0.44177 -0.86541 0.49686 0.03677 0.56919 0.0021515 -0.22147 0.17524 0.42045 -0.068719 0.15096 -0.18501 0.015066 0.2051 0.47936 0.12614 0.12386 0.49229 0.48999 -0.076799 -0.37592 0.57226 -0.12226 0.13023 0.35067 0.0014023 -0.19956 -0.002195 -0.29148 0.41788 -0.020679 0.0064064 0.45613 -0.33529 -0.050292 -0.20905 0.032764
season -0.48779 -0.066686 -0.1128 0.21199 0.1422 0.26111 0.24231 -0.15623 -0.33951 0.049852 0.37855 0.09889 0.43315 -0.21502 -0.20631 -0.082762 -0.35811 0.19984 0.12032 0.31172 -0.14378 0.36236 -0.25209 -0.15619 -0.075627 0.053134 -0.22131 -0.26024 -0.32957 -0.16668 0.32741 -0.13396 -0.11319 -0.23115 0.46375 -0.18986 0.022415 -0.32071 -0.20088 -0.35545 0.05065 -0.30055 -0.23239 0.030843 0.17213 -0.10994 0.17586 0.37696 -0.0047246 0.23047 0.11651 -0.48883 -0.022701 -0.15133 -0.058064 0.16984 -0.10996 0.34662 0.2278 0.44897 0.27705 0.19972 0.042253 -0.11353 -0.080914 -0.046093 -0.33023 0.50158 -0.35457 0.036312 0.019403 0.25941 -0.16075 -0.36154 0.29131 0.39911 0.35198 -0.053148 -0.13302 -0.27307 0.23903 0.30309 -0.060014 0.11687 -0.11124 -0.058467 -0.1883 -0.3096 0.077047 -0.41468 -0.35426 -0.20242 0.52875 0.1521 -0.016914 0.12874 -0.19088 -0.28115 0.000338 -0.21119 0.3442 -0.21953 -0.038515 -0.35481 0.10003 -0.04005 0.21838 0.16488 0.071623 -0.34037 0.14206 -0.05541 -0.15217 0.11509 0.3183 0.053563 0.20034 0.37886 0.096308 0.14055 0.51027 0.064057 -0.33937 0.28366 0.12058 0.016042 0.16392 0.055883 -0.0098168 -0.031986 -0.46741 0.16215 -0.12832 0.15103 -0.5065 0.22033 -0.18401 -0.61519 -0.034122 0.38208 -0.11425 0.20836 0.107 0.01207 0.1256 0.037234 0.10861 -0.015081 0.19163 -0.16154 0.26592 0.011856 -0.30206 -0.22991 0.049093 -0.14361 0.022061 -0.082504 0.2832 0.21427 0.52876 -0.024486 -0.29313 0.10858 0.54781 -0.1859 -0.40608 0.23241 0.10204 0.30048 0.19457 0.070145 -0.18606 -0.14912 0.36381 0.34926 -0.50262 -0.0182 -0.10784 -0.23209 -0.049735 -0.23982 0.05922 -0.43976 -0.25211 -0.14421 0.21987 -0.36052 -0.013164 -0.097608 0.032386 0.30333 0.14616 0.5536 -0.20349 0.61342 -0.0023953 0.26754 0.3086 -0.1348 -0.011672 -0.058975 0.27857 -0.43739 0.36679 0.10924 -0.10751 0.2281 0.24526 0.1299 0.66737 -0.04023 -0.050259 -0.13645 0.094246 -0.053916 -0.24355 -0.35463 -0.11068 -0.16997 -0.27606 -0.07537 -0.27672 0.36137 0.076531 0.060895 0.031827 -0.63637 -0.1379 0.11846 -0.24378 -0.080459 -0.24944 0.054069 -0.52096 -0.22267 0.063112 -0.041579 0.33444 0.24616 -0.093033 0.10451 0.25487 0.23756 0.10125 0.26341 0.18161 0.085772 -0.31986 -0.01226 0.10052 -0.10796 -0.019782 -0.041379 -0.016709 0.061391 -0.22608 -0.41482 0.084013 0.56217 0.0018242 0.53825 0.5015 -0.55417 0.063839 0.10915 0.10441 -0.13573 0.038605 -0.35658 -0.076357 0.04983 -0.11528 0.24842 -0.49369 -0.1223 -0.49407 0.21951 0.10489 0.18985 0.1391 0.32503 0.0017745 -0.079724 0.080651 -0.33127 0.53403 0.37907 -0.051018 -0.43562 0.33645 -0.38788 0.072006 -0.12263 -0.016811 0.027754 -0.14718 -0.16271 -0.24898 -0.28795
bed 0.10773 0.078835 -0.46053 0.38998 -0.099718 -0.056339 0.14538 0.1817 -0.068497 0.22746 0.24653 0.19958 -0.0041166 0.19647 -0.067097 -0.44138 -0.12404 -0.13333 -0.37004 0.35775 0.12192 0.058367 -0.21093 -0.16852 0.030534 -0.11551 -0.14711 -0.05782 -0.08325 0.26112 0.22992 0.45754 -0.19675 -0.19314 -0.13923 -0.25078 0.069645 -0.30065 -0.12734 -0.26983 0.41919 -0.091362 -0.23541 -0.12889 0.047421 0.14745 -0.1915 -0.43009 0.31884 0.27203 -0.14925 -0.16926 -0.044382 -0.19216 0.13594 -0.006394 0.02846 0.30784 0.1176 0.51291 0.12319 -0.067169 0.18711 -0.21625 -0.26337 0.082283 -0.42443 0.016873 0.27797 0.039911 -0.16979 0.075937 0.3473 -0.44384 0.036978 0.18528 0.25166 0.069119 -0.14765 0.11995 0.099558 -0.57146 -0.13841 -0.19925 -0.31673 0.1507 -0.12661 -0.074907 -0.0776 -0.13425 0.14336 -0.067443 0.26732 0.093777 -0.00056092 0.31846 -0.03561 -0.17622 -0.38683 0.13324 -0.12176 0.098972 0.22091 0.058732 0.13028 -0.14859 -0.35649 0.1822 -0.19824 -0.10256 -0.041935 -0.20509 -0.17039 0.11486 -0.071207 -0.41662 -0.37828 -0.23434 -0.25858 0.52128 0.51951 0.30986 -0.12822 0.13466 0.15413 0.034698 0.40698 -0.17728 0.093285 0.17239 0.27973 -0.099109 -0.069634 0.34846 0.53421 0.05158 0.014447 0.3302 0.0020113 0.26822 0.033756 0.28112 -0.02885 0.043612 0.47554 -0.015356 -0.13805 -0.29854 -0.12091 0.27753 0.14489 0.035563 -0.35283 -0.17452 0.09038 0.15661 0.10035 -0.49937 0.15024 -0.32786 0.052707 0.20078 -0.45348 -0.018243 -0.31718 0.24455 -0.094771 -0.19427 0.079646 0.2723 -0.1408 -0.23895 0.089555 -0.060948 -0.21938 0.099388 0.043659 0.0092413 -0.087098 -0.21864 0.020951 -0.40177 -0.17412 -0.2572 -0.25113 0.24193 -0.0032363 0.24006 0.2346 0.026256 0.095119 -0.050908 0.31444 0.30867 -0.033729 -0.001565 -0.1158 -0.38394 -0.27096 -0.23386 0.070556 0.1012 0.063056 0.011819 0.00052659 -0.44267 -0.41771 -0.45043 -0.0047111 -0.11116 0.82793 0.24438 -0.17194 -0.014622 0.13049 0.13222 -0.2874 -0.23862 0.22486 0.23138 0.099314 0.21753 0.41318 0.19866 0.10112 -0.28975 -0.5808 0.018014 -0.046197 -0.11141 -0.0025034 -0.12784 -0.12432 0.20536 0.13384 -0.16736 -0.082229 0.19174 -0.14124 -0.24663 -0.073228 -0.10486 -0.02797 -0.072947 -0.12562 0.4438 -0.16888 -0.19288 -0.31499 -0.22996 0.38119 0.023215 -0.068472 0.082536 -0.34666 -0.12659 -0.15891 -0.14776 0.011585 0.0060105 -0.029486 0.23886 -0.21694 -0.27355 0.072668 0.16548 -0.43652 0.23049 0.15626 0.060463 0.0568 -0.075808 0.35779 0.22007 0.012158 -0.1477 0.47839 0.2395 -0.08944 0.08886 0.036903 0.13802 0.074515 -0.2172 0.051877 0.25412 -0.20566 -0.11652 -0.11389 0.19842 -0.060875 -0.12362 -0.089943 -0.14168 -0.27511 0.0007359 0.11922 0.13438 0.37232 0.18001
closet 0.31849 -0.030083 -0.39995 0.39911 0.053325 -0.074824 0.068516 0.15051 0.043481 0.13668 0.26978 -0.11173 -0.11141 0.17703 0.077417 -0.16624 -0.1075 0.31527 -0.40226 0.012486 -0.12116 0.55867 -0.19072 -0.36793 0.17978 0.081524 -0.037521 -0.030027 -0.052921 0.24934 -0.085389 0.026301 0.078486 -0.027848 0.063198 -0.13064 0.21691 -0.34379 -0.11386 -0.41034 0.1076 -0.036554 -0.28433 -0.28157 -0.25412 0.40037 0.019608 -0.096828 -0.051099 -0.11682 -0.16967 0.18956 0.12082 -0.16437 -0.046714 0.27351 0.057036 0.16175 0.36136 0.68948 0.2222 0.1927 0.1165 0.06189 -0.22694 0.11811 -0.21731 0.1338 0.44462 -0.30668 -0.16284 0.15479 0.1382 -0.10654 -0.17106 0.11822 -0.16496 -0.12064 -0.17677 0.18043 -0.027656 -0.41244 -0.25761 -0.19459 -0.28297 -0.18745 -0.105 -0.3389 0.0594 0.34154 -0.004071 -0.22778 0.094621 -0.19453 -0.2045 0.41355 -0.31361 0.22958 -0.28627 0.11678 -0.10198 -0.086022 0.078037 0.23046 0.025113 -0.29389 -0.38354 0.29557 0.082086 -0.23819 0.24067 -0.13292 -0.19083 0.096632 -0.10191 -0.23062 -0.02892 -0.63136 -0.16514 0.2426 -0.15247 -0.041387 0.07681 -0.064455 0.14321 -0.063326 0.47796 0.32774 0.1316 0.27349 0.16879 -0.12565 -0.50929 0.08068 0.19976 0.206 -0.070725 -0.091538 0.13235 0.32437 0.40721 0.18918 0.15008 -0.11462 0.019169 0.19523 0.1823 -0.37074 -0.0077136 0.30621 0.27699 -0.084805 -0.53187 0.13813 -0.051268 0.21955 -0.50491 -0.61163 0.13895 0.081466 0.12665 0.28391 -0.27164 0.026403 -0.40679 0.17596 -0.0034625 -0.23164 -0.15516 0.16442 -0.33668 -0.39301 -0.23864 0.26823 -0.1265 0.19384 0.056778 -0.16724 0.17357 -0.14483 0.008912 -0.18888 0.068725 -0.032644 -0.20334 0.43344 -0.011109 0.050644 0.041937 -0.026755 0.065484 -0.10632 0.41963 0.6174 0.035053 0.091498 -0.27608 -0.18241 -0.35762 -0.12291 0.22635 0.034393 0.2049 -0.053855 0.078216 -0.5005 -0.38242 -0.2525 -0.20079 -0.20823 0.76052 -0.25603 -0.0040107 -0.037315 0.62157 -0.099372 -0.10412 -0.15125 0.021407 -0.13941 -0.092963 -0.38836 -0.18883 0.30391 -0.27572 0.14706 -0.19393 -0.18699 -0.099113 0.24614 0.17979 -0.0054309 -0.13576 -0.035623 0.28371 -0.0051028 0.32815 -0.078135 -0.058115 0.19914 -0.12918 0.23546 0.11975 0.078701 -0.015956 0.10079 0.077249 0.15329 0.013438 -0.2803 -0.005413 -0.0032671 -0.15004 0.25535 0.17203 -0.11743 0.035095 -0.044535 -0.26823 0.27632 -0.24585 -0.06109 0.028534 -0.42998 -0.004165 -0.039776 -0.095975 -0.098706 -0.099194 0.016095 0.014368 0.025272 0.55182 0.27162 -0.38404 -0.15459 0.6562 0.067824 0.2596 -0.087415 0.19035 0.21851 0.066523 -0.019564 0.21373 0.19849 0.14851 0.088722 0.066073 0.41225 0.17629 -0.29433 -0.14615 -0.057365 0.042974 -0.07847 -0.24964 0.44272 0.19999 0.31854
benchmark 0.027383 0.20472 -0.15971 0.39912 -0.17913 0.51307 0.16853 -0.12457 -0.11528 0.081643 0.052038 0.06854 0.27024 -0.27335 0.25036 -0.39728 0.42416 -0.05855 0.23565 0.64255 0.20916 -0.38888 0.080497 -0.15681 0.099023 -0.27198 -0.28027 0.037005 -0.054235 -0.041196 -0.082456 0.32414 -0.12052 0.44375 0.025494 0.064925 0.046821 0.29922 -0.34383 0.2696 0.20481 0.18509 -0.26053 0.081771 0.014872 -0.036661 0.010293 0.078886 0.16222 -0.2887 0.15737 0.087082 -0.16116 -0.0026081 -0.057741 0.18112 0.021647 0.13908 0.16322 0.11979 -0.0096991 -0.018328 0.21514 -0.39765 0.1148 -0.10961 0.1317 -0.068738 0.019016 0.70407 0.3136 0.15942 0.16342 -0.059086 0.15258 0.10297 0.22211 -0.22798 0.36647 -0.24951 0.47703 0.57985 -0.14824 -0.25632 -0.27813 -0.31873 0.15318 0.25691 -0.11607 0.0146 0.073036 0.0098522 0.31789 -0.35532 0.043071 -0.2675 -0.26257 0.34672 0.061315 0.4614 0.31406 0.071878 0.54821 0.037784 -0.12238 0.20333 0.19029 0.17122 0.071478 0.24843 -0.084003 -0.14259 -0.63341 0.4 -0.030568 0.18771 0.12014 0.073155 -0.062046 -0.23799 0.41486 -0.28451 -0.35895 -0.029987 0.48163 0.19014 0.36301 0.028389 -0.33229 -0.09392 0.23785 -0.066988 0.10444 0.10916 0.16427 0.15556 0.006478 0.0089708 0.059396 0.2084 -0.095128 0.31935 0.13846 -0.14839 -0.043898 0.18502 0.05865 -0.199 -0.25128 -0.1818 0.1396 -0.23057 -0.067335 -0.32631 -0.11571 -0.14117 0.15199 0.11875 0.021598 0.078844 0.20388 0.24489 0.14107 -0.081658 0.11083 0.33488 0.015265 -0.19187 0.15809 0.2161 -0.17109 -0.22112 0.12076 -0.073044 -0.33186 0.087494 -0.21032 0.48974 -0.050269 0.010336 -0.10384 -0.076528 0.023446 0.21864 -0.42044 0.25405 -0.037526 0.27796 0.28944 -0.15698 -0.28243 -0.16381 0.078767 0.18856 -0.13239 -0.21179 -0.12644 0.10101 -0.40063 -0.18483 0.27694 0.33987 0.21332 -0.21994 -0.1637 -0.024232 -0.13188 0.046996 0.41429 -0.23346 0.44557 0.36983 -0.053539 -0.042633 -0.014733 -0.18155 0.33966 -0.19925 -0.16869 0.081605 0.3824 0.31482 -0.2689 0.088663 0.090138 0.36776 -0.13277 -0.38789 -0.22045 0.1134 -0.18715 0.042354 0.0016613 -0.16174 -0.18362 -0.17041 -0.10458 -0.16222 -0.24472 0.11524 0.48396 -0.15758 -0.098914 -0.05214 0.0034042 -0.020902 0.064517 -0.16673 -0.11974 0.264 0.15259 -0.20143 -0.26888 0.27523 0.11161 0.0067821 0.097063 -0.0022732 0.15118 0.20581 0.1629 0.027244 -0.27025 -0.10633 -0.36721 0.059755 0.1253 0.068639 -0.17433 -0.046505 -0.40305 0.20163 -0.11932 -0.1628 -0.21353 -0.094779 0.5037 0.60576 0.030308 0.15834 -0.02466 -0.18814 -0.19889 -0.019584 0.23236 -0.19335 0.11388 0.074735 -0.028901 -0.086378 0.17876 -0.023229 0.10836 0.11983 0.30964 -0.28883 -0.23436 0.052858 0.19877 -0.20852
