corde -0.13111 -0.072301 -0.30386 0.37357 0.51477 -0.30166 0.17845 -0.01112 -0.55625 0.11264 -0.45077 -0.44486 0.35885 -0.077269 -0.28611 0.068829 0.13794 -0.021652 -0.21247 -0.20518 -0.091308 -0.11014 -0.15065 0.1255 0.19567 -0.014246 -0.059689 0.040836 0.057692 -0.59237 -0.065463 -0.1623 0.14253 0.37916 -0.090736 0.38672 0.14209 -0.0088522 -0.16128 0.27531 -0.11579 -0.18834 -0.25241 0.30626 0.29986 0.15996 -0.46778 0.16696 0.23023 -0.050294 0.26197 -0.15675 -0.10533 0.36564 0.40103 -0.12848 -0.27445 0.4502 0.10458 -0.012397 -0.48439 0.24618 0.019556 0.040402 -0.043613 0.089811 0.30564 -0.0020063 -0.51164 -0.4786 -0.33307 0.15129 -0.16139 0.014704 -0.45677 -0.090776 0.11107 0.19616 -0.27922 0.076731 -0.42528 -0.042771 0.32832 0.2118 -0.12317 0.23114 -0.053363 0.30763 -0.098367 -0.17543 -0.28938 -0.12164 -0.24381 0.46791 0.13211 -0.12253 -0.31651 0.13548 -0.16492 -0.22351 0.1008 -0.36546 0.039003 0.1535 0.016501 0.014961 0.2624 -0.21335 -0.25246 0.51542 -0.072504 -0.28019 -0.15326 0.26654 0.17519 0.40586 0.36997 0.24644 -0.23563 0.24484 -0.089642 0.283 -0.048304 0.416 0.32876 -0.0099673 0.0055223 -0.14921 0.3122 0.1018 -0.96176 0.34176 0.54137 -0.12474 0.31149 0.15338 0.14477 -0.15777 -0.17038 -0.22246 0.13587 0.23178 -0.15684 0.25039 -0.29903 0.57951 -0.2687 0.023326 0.35347 -0.015099 -0.14273 0.43487 -0.2109 0.26428 -0.076627 0.23919 0.22133 -0.011758 -0.18781 0.40825 -0.17069 -0.30631 0.18737 0.063889 -0.022851 0.40029 0.31787 0.064045 -0.18412 -0.38456 0.059504 -0.52832 -0.094538 0.31873 0.57157 0.48235 -0.18229 -0.07714 0.079368 -0.088711 -0.263 0.048836 0.13806 -0.41962 -0.10871 0.59575 0.081553 0.19006 -0.55052 -0.42158 -0.034715 0.14851 0.22067 -0.50539 -0.095766 0.14309 -0.24444 0.18893 -0.074216 0.62612 0.16543 0.17698 -0.1093 0.28769 -0.47603 -0.17417 -0.33547 0.018131 0.058124 0.12431 -0.099615 0.16595 0.23954 -0.10832 -0.22661 0.19555 0.32657 -0.47597 0.25046 0.25967 0.049587 0.14913 0.043044 -0.2631 -0.15929 -0.33715 0.19598 -0.4414 -0.050954 0.032423 0.31193 -0.17912 -0.005342 -0.15568 -0.021098 0.25521 -0.14766 -0.35943 -0.11467 0.069269 -0.59596 0.16481 0.2438 0.17939 -0.047283 -0.17025 -0.33706 -0.04378 0.24027 -0.0083975 0.39323 -0.28178 0.22892 -0.25953 0.24867 0.19887 -0.12661 -0.4407 0.18672 0.054588 -0.33758 -0.14643 -0.16388 -0.033826 -0.044798 -0.10881 -0.15991 0.18664 0.15685 0.0020645 -0.44906 -0.20099 0.281 0.094929 0.20352 -0.27528 -0.26252 0.020538 -0.25706 -0.3622 -0.098858 0.5929 -0.17862 -0.12478 -0.058365 0.61815 -0.29004 0.43567 -0.26356 -0.24641 -0.015678 -0.2467 0.091204 0.73616 0.12987 0.1441 -0.034779 0.045977 -0.075886 -0.007155
sourire -0.25845 -0.17288 -0.62477 -0.34181 -0.38513 0.11231 -0.14302 0.31561 0.060556 -0.0023754 -0.094546 -0.061563 0.015602 0.13122 0.14286 -0.078734 -0.28079 0.28394 -0.27804 -0.21809 0.091236 -0.046903 -0.05933 0.563 -0.19886 -0.0030882 -0.17969 -0.50903 -0.20367 -0.51858 0.35568 -0.039493 -0.44639 -0.024407 0.27702 0.24918 -0.30928 -0.23077 0.50221 0.31201 0.36625 0.20314 -0.041726 -0.32935 0.40211 -0.13993 -0.24668 0.18726 0.10392 0.29599 0.30954 -0.066365 -0.28922 0.2048 -0.038052 -0.55128 -0.1948 0.34697 0.0069815 -0.22147 0.094899 0.032341 0.084005 -0.046521 -0.13942 -0.071976 0.30516 -0.13194 -0.097457 -0.69156 0.069363 -0.33771 0.047174 0.1313 -0.032842 0.28273 0.05291 0.65679 -0.043326 0.57749 -0.24772 0.16026 0.24303 -0.034091 0.03699 -0.045594 -0.49295 0.32139 -0.14569 -0.54141 -0.33654 0.26037 -0.29596 -0.035939 0.31541 0.29217 0.06777 0.31465 -0.52318 -0.49972 0.2969 -0.11919 -0.26716 0.33905 -0.24027 0.25951 0.073852 -0.18597 0.13614 0.38827 -0.061217 -0.15286 0.04545 0.072364 0.068918 -0.0019506 0.39748 0.22959 0.12604 0.18933 0.094182 0.077987 0.21837 -0.13601 -0.066114 -0.57053 -0.097404 -0.47092 0.14736 0.11223 -0.29001 0.023825 0.055612 -0.028596 0.043567 0.077304 -0.10609 0.35821 -0.20891 0.12994 0.0081879 -0.002179 -0.61334 0.39082 -0.34495 -0.29096 0.11184 -0.32021 0.32052 -0.053369 0.38766 -0.033269 0.0093875 0.22154 0.020509 0.20888 -0.11415 0.041969 0.01393 0.28238 0.19778 -0.029008 -0.071912 -0.17058 -0.28349 0.18438 -0.17732 -0.47955 0.14268 -0.14978 0.00051303 -0.1552 -0.027863 0.13047 -0.10962 -0.34867 0.15118 -0.03523 -0.073485 -0.53699 0.048018 -0.24951 -0.14502 0.31882 -0.071327 0.10363 -0.14522 0.37779 -0.12304 -0.11905 -0.040614 -0.18845 -0.043162 -0.29375 0.011413 -0.10339 0.13187 0.089486 -0.13055 0.11864 -0.040588 0.2897 0.36604 0.024362 -0.46537 -0.072732 0.12881 0.32231 0.086606 0.37004 -0.097476 0.25752 -0.11506 -0.66854 -0.61742 -0.24071 -0.090594 -0.31216 -0.28044 0.050292 -0.26794 -0.2332 -0.022507 0.27101 -0.050208 0.038979 -0.10157 0.0050701 -0.40517 0.22225 0.017439 -0.071792 -0.032088 0.40997 -0.40722 0.33278 -0.18015 -0.30773 -0.14023 0.26363 -0.47518 0.3153 0.23425 0.28353 -0.087344 -0.013596 -0.4391 0.074634 0.25189 0.13615 -0.19252 -0.28344 -0.12718 0.028072 0.19539 -0.50937 0.12109 0.07471 0.10274 0.1971 0.18493 -0.28382 -0.16562 0.42736 0.084753 -0.16657 -0.033303 -0.23823 0.059191 -0.023099 -0.28249 -0.51595 0.25973 -0.22421 -0.3476 0.0236 0.37783 -0.30397 -0.39269 -0.19887 -0.22915 -0.12102 -0.018955 -0.12931 -0.15812 0.19822 0.17247 0.33379 -0.12784 0.14082 -0.27241 0.072099 0.01656 0.013976 0.18988 -0.27792 -0.15491 0.32228 -0.20627 0.20477
midi -0.12697 0.19478 -0.22821 0.35258 -0.21617 -0.15114 -0.15828 0.44267 0.26023 0.18232 -0.29123 -0.0022686 -0.19229 0.274 -0.24702 0.21752 -0.31993 -0.28739 -0.15323 0.22651 0.090705 -0.41186 -0.10919 -0.025386 -0.097446 -0.27454 -0.082216 0.33873 0.099457 -0.091546 0.021558 0.14126 0.027465 -0.1006 0.19596 0.38413 -0.27151 -0.23785 0.24583 -0.057754 -0.044112 -0.097026 -0.31955 0.15299 -0.099459 -0.13185 0.074549 0.14216 0.08694 -0.078108 0.079472 -0.055249 -0.2183 0.21985 -0.20946 -0.10417 0.061324 -0.44384 0.35967 0.10717 0.1648 -0.1212 0.59175 -0.26318 -0.16284 0.23685 0.05891 0.26227 -0.21379 -0.64965 0.227 0.57889 0.0085434 -0.14319 -0.43545 0.36666 0.23431 0.31167 -0.097235 0.002252 0.17384 0.25018 -0.022422 0.26078 0.42842 0.70359 -0.57323 0.20454 -0.032983 -0.65836 -0.011844 0.20168 0.12835 -0.025848 -0.15094 0.13124 0.53565 -0.30171 0.12997 -0.77867 -0.2433 0.079108 -0.21232 0.23908 -0.43631 0.095929 -0.31713 -0.084021 0.5206 -0.14234 -0.34118 0.19146 0.0078719 0.066584 0.77106 0.14467 0.38254 0.28129 0.33407 -0.076797 0.11427 0.099014 0.1489 -0.11454 0.012716 -0.16277 0.17795 0.18424 -0.20473 0.086652 -0.072242 -0.16713 0.37614 -0.062411 -0.37333 0.2175 0.8923 0.27728 -0.23673 0.1456 -0.19341 0.065701 0.13942 0.46116 -0.18821 0.036554 -0.14659 0.18263 -0.010347 -0.31807 0.12984 0.15437 -0.61683 0.24498 -0.147 0.16166 0.41104 -0.094988 -0.13489 0.1805 -0.25043 -0.12698 -0.19308 -0.0079391 0.23919 0.12756 0.43631 -0.55616 -0.25159 -0.16306 0.046121 -0.0009423 0.14189 0.25286 0.13187 -0.022003 0.10463 -0.041697 0.16155 0.16335 0.035735 -0.018875 -0.42909 0.1255 -0.0010393 -0.15283 -0.12355 0.15132 -0.091524 -0.23942 -0.071969 0.24194 0.045588 0.02769 0.64943 -0.29214 0.016756 -0.30627 -0.54249 -0.33405 0.026691 -0.063571 0.082729 -0.067509 -0.48523 -0.5634 -0.35961 -0.13808 -0.14221 -0.34565 0.39849 -0.34644 0.24669 -0.10452 -0.11745 -0.024568 -0.092104 -0.31714 0.16846 0.70888 -0.17792 0.55426 -0.029014 0.18831 -0.092305 -0.37164 -0.040204 -0.057035 0.075665 -0.008542 0.25127 0.367 0.26272 0.19748 0.18039 -0.10198 -0.080288 0.098555 0.015602 0.2627 -0.047895 0.26022 -0.11064 0.72731 0.020894 0.20218 0.035589 -0.18259 0.6397 -0.44723 0.46131 0.2607 0.13619 -0.162 0.16839 0.070538 -0.040438 -0.52821 -0.059846 0.057219 -0.28932 -0.14177 0.038102 -0.21804 0.24417 0.19634 0.084886 -0.49855 -0.21602 0.089477 0.069153 -0.3096 0.11467 -0.25705 0.040942 0.21858 -0.2355 -0.31783 -0.093873 -0.11368 -0.35221 -0.011478 0.31358 0.16831 0.055562 0.11247 0.031438 -0.08295 0.062558 -0.20593 0.24736 -0.27514 -0.23996 0.15145 0.070721 -0.072514 0.14626 0.13788 0.24829 0.079847
ficelle -0.40498 -0.33414 -0.35669 0.25992 0.33885 0.097891 0.065177 0.039707 -0.29364 0.25655 -0.2921 -0.01761 0.081108 -0.02169 -0.29417 -0.04181 -0.048899 0.15691 -0.089324 0.0751 -0.44461 -0.27005 -0.37037 0.25107 -0.17503 -0.38644 -0.043692 -0.097205 -0.054507 -0.34878 0.84182 0.096581 0.10763 0.24314 0.26463 0.087032 0.2728 -0.25293 0.05277 0.13621 0.055034 0.0777 -0.19146 0.21361 0.10648 -0.056786 -0.14048 0.26791 0.16744 -0.13576 -0.29248 -0.16697 0.03185 0.38211 0.38196 -0.38047 -0.43214 0.34568 0.076889 0.18577 -0.5823 -0.17815 0.30784 -0.020232 -0.56901 -0.068933 0.22517 0.17307 -0.044554 -0.38549 -0.054663 -0.053751 -0.26531 -0.062871 -0.3068 0.075451 0.5985 0.65993 -0.04404 0.30858 -0.11548 0.1307 0.155 0.139 0.057994 0.33979 0.012775 0.31424 -0.046318 -0.1014 -0.16333 0.10993 -0.18623 -0.18783 0.18293 -0.42416 -0.3374 0.092309 -0.074134 -0.22944 -0.081286 -0.23122 0.15056 0.035238 -0.060803 0.068288 0.091749 -0.21142 0.13823 0.28272 0.048875 -0.12855 -0.21723 0.11527 -0.06208 -0.0078035 0.47895 0.11268 0.32348 0.30969 -0.26963 0.087579 -0.0081957 0.12553 0.15744 -0.078826 -0.26684 -0.013337 0.14684 0.04301 -0.82329 0.33763 0.38031 -0.20773 0.3135 0.015466 0.040226 0.18146 -0.15563 -0.058329 0.088017 -0.22823 0.11471 0.062534 -0.071813 0.45523 -0.21604 0.059189 0.3706 0.12179 -0.013336 0.70492 -0.00025013 -0.037252 -0.031755 0.00063975 0.046691 -0.31581 -0.18625 0.25781 -0.22877 -0.26233 0.27673 0.13228 -0.17865 0.30161 -0.16863 -0.26481 -0.53317 -0.22419 0.040415 -0.40491 0.099171 0.1421 0.42939 -0.017087 -0.23344 -0.11929 0.22717 -0.087079 -0.089923 -0.12733 0.17807 -0.27541 0.1058 0.33822 0.078983 -0.15547 -0.33027 -0.12642 0.089602 -0.16989 0.25389 -0.23695 0.22426 0.39065 0.3282 0.19315 -0.35381 0.4486 -0.13407 0.15278 -0.066781 0.035488 -0.11677 -0.24294 -0.22113 -0.12945 -0.064159 0.49013 -0.11687 0.19906 0.43187 -0.15567 -0.36333 -0.32423 -0.074218 -0.14495 0.098436 0.22877 0.19287 0.18467 -0.060554 -0.21655 -0.45564 -0.20334 0.31076 -0.6764 0.1069 -0.17213 -0.091227 -0.052685 0.22158 0.015069 -0.22412 0.022056 -0.11179 -0.24516 -0.018358 -0.06666 -0.73674 -0.21154 0.38637 0.29648 -0.045265 -0.19327 -0.28667 0.081309 0.049429 0.1011 0.22206 -0.028155 -0.11129 -0.15745 0.26835 0.090694 -0.27687 -0.21609 0.20861 -0.17429 -0.18186 -0.17753 0.037724 0.015178 -0.1486 -0.17323 -0.33117 -0.27006 0.14659 0.19254 -0.051394 -0.32142 -0.13589 -0.083703 0.017974 -0.076793 0.1139 -0.33991 -0.050098 -0.28013 -0.22829 0.099345 -0.00034787 0.084741 -0.31214 0.43554 -0.45156 0.35678 -0.11315 -0.20676 -0.0022121 -0.24764 0.30803 0.11961 0.0072897 0.32145 -0.074718 -0.1366 -0.15272 0.16125
autographe -0.20824 -0.18147 -0.61726 -0.40183 0.11684 -0.14639 0.20225 0.20778 -0.09109 -0.075588 0.11641 0.11824 -0.16159 -0.090353 0.052377 -0.39241 -0.45394 0.21692 0.29948 -0.37786 0.14535 -0.32354 -0.017959 0.085734 0.020877 -0.20726 -0.21622 -0.30002 -0.23432 -0.14833 0.34203 0.020441 0.26376 0.44557 0.15667 0.31886 0.35859 0.13371 0.05508 -0.5657 0.20545 0.057238 -0.25983 -0.33455 0.31194 -0.41768 -0.1071 0.54481 0.32717 0.40886 -0.1325 -0.19967 -0.07382 -0.30552 0.51278 0.36902 0.49503 -0.05306 0.51192 -0.23911 -0.15112 -0.24485 0.018059 0.043099 0.15603 0.051468 0.02387 0.18582 -0.67527 -0.17321 0.47325 -0.077764 -0.25437 0.1209 0.10046 0.3518 0.50864 -0.22117 0.1453 -0.01896 -0.28101 -0.098592 -0.076276 -0.017521 -0.13422 0.094194 -0.17294 0.42053 0.14415 -0.2515 -0.18742 0.14386 -0.081394 -0.22622 -0.24034 -0.29008 0.15284 0.31585 -0.028688 -0.37098 0.15245 -0.28064 0.24626 -0.21536 -0.27427 -0.2713 -0.093677 -0.2046 -0.10595 0.050615 0.09581 0.022167 -0.127 -0.070075 0.53699 -0.20997 -0.053443 0.18445 -0.2584 0.2407 0.12196 0.29292 -0.33038 -0.1597 0.11948 -0.011972 -0.23779 -0.17137 -0.18861 0.56015 -0.33361 -0.21993 0.16928 0.044456 0.079793 -0.10678 -0.30238 0.48108 -0.019665 0.071777 0.029045 -0.14223 0.24602 -0.16252 -0.082729 0.17658 0.19752 -0.12073 -0.14112 -0.22967 -0.15998 -0.045318 -0.036727 0.29966 0.0065128 -0.31145 0.35749 0.10838 0.076775 0.5888 0.16122 -0.61861 -0.090304 0.35982 -0.13118 0.029644 0.071334 -0.053123 0.18371 -0.33274 -0.072521 -0.022904 0.40526 0.67931 0.13518 -0.3163 0.21497 -0.22859 0.54621 0.18534 0.063708 -0.49742 -0.042192 0.020171 0.68224 0.22452 -0.098193 0.27477 -0.026358 -0.53817 -0.22446 -0.21664 0.30758 -0.39944 -0.017795 0.083392 0.10815 -0.034229 0.12592 0.34815 0.45267 0.12333 0.01591 0.021778 -0.56806 0.014425 -0.071797 -0.22129 -0.34434 -0.064848 0.15519 0.45824 -0.07497 -0.31669 -0.21428 0.33168 0.28 -0.29702 -0.10145 0.21399 0.16573 -0.18503 -0.37283 0.21572 -0.20938 -0.43304 0.19458 0.02115 0.014392 0.11496 0.20256 -0.0301 -0.0038978 -0.0019507 -0.35269 -0.071153 -0.25331 -0.31074 0.049268 -0.14284 -0.54561 0.0255 0.21222 0.2894 -0.28664 -0.23587 -0.029043 0.15255 0.19584 -0.077846 -0.11299 -0.050141 -0.16007 0.021143 0.33597 -0.2383 -0.03802 -0.044706 -0.25103 0.14001 0.12398 -0.41645 -0.009881 -0.1206 -0.016268 -0.25852 -0.046548 -0.08164 -0.10791 -0.25498 -0.23276 -0.47751 0.21642 0.2239 0.12558 0.27723 0.11456 -0.12718 0.13047 0.15787 -0.064841 -0.22144 0.016968 0.096868 -0.067516 -0.25055 0.22448 0.28152 -0.11651 -0.046486 -0.28863 -0.5129 0.201 -0.25377 -0.19618 0.17187 0.043923 -0.29466 0.036946 0.11339
rivage 0.054485 0.19712 -0.51219 -0.12299 -0.33391 0.35381 -0.43443 0.44724 -0.42975 0.12045 -0.4215 0.11409 -0.0060308 0.043794 -0.082126 -0.022604 -0.0031796 -0.37998 -0.20092 -0.087713 0.18641 0.2222 0.052894 0.31648 0.13275 -0.2169 0.30496 -0.12028 0.22051 0.19202 0.19019 0.2932 0.097702 0.26197 0.2044 0.36809 -0.33792 0.069917 0.053139 -0.1181 0.056542 0.0062854 0.066369 -0.27042 -0.4171 -0.0077131 0.31818 -0.13205 0.0017664 0.30483 0.21298 0.093807 -0.020866 0.62099 -0.24825 -0.031288 -0.1053 0.24493 0.13578 -0.58311 0.12185 0.34316 0.22817 0.095075 -0.076819 0.089722 0.51069 -0.095855 -0.17842 0.090276 0.24045 0.020658 0.0029802 -0.042988 -0.59122 0.25729 -0.099133 0.33021 -0.40345 -0.27822 0.0038645 0.060713 0.018114 0.0024044 0.085181 0.04731 -0.13693 0.23197 -0.19944 -0.09234 -0.65013 0.41327 0.13669 0.2319 0.095496 0.34269 0.060721 -0.20984 0.27376 -0.46908 -0.32454 -0.019282 0.13684 0.068634 -0.080882 -0.24004 0.27239 -0.37244 -0.069166 0.17955 0.21324 -0.55035 0.28235 -0.015315 -0.24704 0.20745 0.65764 0.017259 -0.050763 0.37385 -0.016377 0.47823 -0.11975 -0.40597 0.010154 -0.20457 0.22558 0.11663 -0.28406 -0.12119 -0.072597 0.16349 0.17949 0.10223 -0.068145 -0.028808 0.059814 -0.035663 0.11281 -0.49139 0.21319 0.014394 0.37413 0.098001 -0.065801 -0.028355 -0.023026 0.047725 0.16033 -0.20778 0.044352 -0.08396 -0.30684 0.13497 0.15344 -0.26455 0.33683 0.28148 0.33402 0.38216 -0.45047 0.10705 0.28348 0.26731 -0.16507 -0.10686 0.18406 -0.2624 0.16453 0.11085 -0.37797 -0.12867 -0.099678 0.42442 -0.072286 0.20116 -0.072673 -0.15855 0.031578 -0.19774 0.16899 0.18559 0.2326 0.20091 -0.0032465 0.29418 -0.17397 -0.19884 0.19574 -0.17137 0.063428 0.30416 0.15339 -0.045177 0.2242 -0.29233 -0.095617 -0.12552 -0.4808 0.51 0.40093 0.15445 -0.10629 0.1192 0.026514 -0.68122 0.0801 -0.52958 -0.094369 0.062711 0.058684 0.053478 0.62029 -0.29607 -0.19052 -0.54875 0.24522 -0.085547 -0.13229 0.17081 0.025377 0.41735 -0.17865 -0.20397 0.063688 -0.16863 0.19712 0.15292 0.045756 -0.23827 -0.036263 0.19968 -0.051027 0.29016 -0.076837 0.19121 0.12892 0.072628 0.16407 0.44204 -0.022932 0.03668 -0.11894 0.050411 -0.14805 -0.037524 0.12501 -0.099562 -0.10249 0.18931 0.030871 -0.06068 -0.21219 -0.06469 0.31703 -0.42087 0.28029 -0.097624 -0.28942 0.053642 0.012344 -0.24921 0.12072 -0.12246 0.21488 0.11228 0.10329 -0.087878 -0.045306 -0.24783 -0.15172 0.39379 0.16509 0.19846 0.01636 0.13862 0.063845 -0.1187 -0.217 0.20175 -0.00022051 -0.053037 0.38144 0.51451 -0.0080469 0.59082 0.11729 0.36443 -0.27886 -0.68107 0.16303 -0.4556 -0.15006 0.67495 -0.19996 0.064657 0.20123 -0.19066 -0.39327 0.23167
automobile 0.31442 -0.12892 -0.046169 -0.11207 0.18185 -0.11073 -0.00091306 0.2116 0.50318 0.29475 0.27297 0.17319 -0.17992 -0.16974 -0.29541 0.051699 0.37925 -0.054534 0.11705 -0.35998 0.21504 0.26107 -0.065746 -0.14251 0.057694 -0.011959 -0.073765 -0.1516 -0.21436 -0.33752 -0.17118 0.25625 -0.19474 0.11072 -0.072279 0.092828 0.0032348 0.23427 -0.14367 0.56507 -0.17025 -0.49073 0.1077 0.11415 0.2708 -0.23881 -0.35186 0.39617 0.23402 0.033092 -0.66818 -0.31935 -0.15999 0.39255 0.28654 -0.33551 -0.25008 0.53602 0.28909 -0.45366 -0.32116 -0.24041 0.85586 0.032291 0.28353 0.1519 0.15372 0.24237 -0.34097 -0.32674 -0.045477 0.23198 -0.034453 -0.16407 -0.57744 -0.13791 0.44865 0.19687 0.33029 -0.18124 -0.91737 -0.48206 0.099211 -0.17966 0.31602 0.68361 0.23573 0.30621 -0.23374 -0.64621 -0.38728 0.071651 0.17071 0.16267 -0.43457 0.061536 -0.41839 -0.11135 -0.30177 -0.30911 0.22045 0.28186 0.045029 -0.30975 -0.24254 0.53239 -0.10399 -0.71419 -0.43101 0.049807 -0.28253 0.1607 0.14182 -0.19526 -0.016803 0.17363 0.34488 -0.10157 0.12943 0.24295 0.44345 0.37527 -0.27404 0.35846 -0.1736 0.046888 -0.092928 -0.11481 -0.11019 0.071989 0.12654 0.091068 0.17583 0.2628 -0.32764 -0.32888 -0.2743 -0.27698 -0.19978 0.35909 0.43343 -0.14834 -0.35907 -0.40916 -0.24109 0.12871 -0.49326 0.24574 -0.24154 0.27915 -0.11613 -0.010884 0.21758 -0.017951 -0.095848 0.059852 -0.078772 -0.066292 -0.36446 0.035751 -0.088851 0.3441 0.33729 -0.2735 0.26818 0.41321 0.32216 -0.023927 0.1633 -0.098903 0.069179 -0.04528 0.26557 0.092474 0.026247 -0.32484 0.45574 0.59166 -0.13638 0.049359 0.23067 -0.33726 -0.16989 0.0055349 -0.078079 0.13191 0.042664 -0.48062 -0.26069 -0.52998 -0.20567 0.10103 -0.05215 -0.37036 -0.31613 0.12832 -0.18892 0.022514 -0.59324 0.20452 0.43699 -0.32275 0.25342 0.092771 -0.025416 -0.55725 -0.2275 0.32479 -0.33446 -0.1633 0.069409 -0.039318 0.53676 -0.58487 -0.53098 -0.56434 -0.36136 -0.18098 -0.20972 0.037124 -0.073538 -0.27319 -0.030921 -0.092745 0.43025 0.030398 -0.045638 -0.034888 0.1519 -0.39473 0.017111 -0.063678 -0.12265 0.061264 -0.19479 -0.16998 0.085059 -0.16424 0.40731 -0.55193 0.23409 -0.12039 0.15231 0.02612 -0.19178 0.010851 0.28467 -0.18228 -0.4749 0.14239 0.20918 0.0034619 -0.26117 -0.086131 0.070064 0.53171 0.12305 -0.23575 -0.15215 -0.03111 0.27879 -0.044068 0.6092 -0.31319 -0.20278 0.25053 0.72855 -0.15381 -0.062423 0.29385 0.30663 -0.17239 0.031638 0.19177 -0.10744 0.10834 0.27758 0.16255 0.070022 -0.0050557 0.066112 0.16418 -0.55102 0.23875 -0.37126 0.12943 0.21798 0.24368 0.52891 -0.16994 -0.62237 0.13415 0.4018 -0.39446 -0.48464 -0.23505 -0.027142 0.015067 0.38485 0.22673
sorcier -0.46942 -0.10666 -0.35383 0.3741 0.14565 0.10182 0.015129 -0.104 -0.45487 -0.2868 -0.43906 0.26696 0.11414 -0.062265 -0.29393 -0.1178 0.35104 0.077081 -0.21542 -0.21314 0.29597 -0.31256 0.064687 0.19511 0.087776 0.17469 0.15778 0.10383 -0.093695 0.087111 -0.17681 0.23442 -0.077557 0.0012257 0.11401 -0.32976 -0.12515 -0.22993 0.3359 -0.10774 -0.24314 0.13506 0.10349 0.15811 0.070016 0.22126 -0.25469 0.059168 0.3777 0.069729 -0.42726 -0.11601 0.10285 -0.096631 -0.32537 0.15413 0.18816 0.3806 0.11756 -0.25648 0.24008 -0.065248 0.30097 0.32867 -0.11121 -0.11096 0.37748 -0.11619 0.088881 -0.16253 -0.14165 0.014189 -0.7468 -0.088678 -0.29129 0.0034873 0.53533 0.099204 -0.14371 0.18841 -0.1385 -0.38807 -0.13316 -0.030319 -0.21788 0.10669 -0.41312 0.37363 0.053675 -0.38225 -0.13729 0.26334 -0.34395 -0.18421 0.055948 0.095463 0.083545 0.025184 0.5485 -0.2365 -0.0099855 -0.13545 -0.19601 0.46206 -0.41872 0.092236 -0.13038 -0.38133 -0.20332 -0.1962 -0.13698 -0.17231 0.2937 0.23577 0.28725 0.14071 0.26013 0.092547 0.22445 -0.010927 0.37729 0.11396 -0.053629 0.096555 0.34699 -0.20244 0.22057 -0.19838 0.23974 0.29337 -0.21991 0.37995 0.024739 0.31329 0.43477 -0.44949 0.087256 0.018936 0.099927 0.19121 -0.086893 -0.010967 -0.050754 -0.30053 -0.16755 -0.19431 0.36972 -0.021616 0.4506 0.11185 0.043419 0.36602 -0.70603 0.28704 -0.055024 0.31057 0.32708 0.3332 -0.17411 0.10509 -0.20327 0.30202 0.14699 0.55021 -0.14019 0.20131 0.048843 -0.45702 0.13257 -0.010051 -0.090921 -0.54799 0.3283 -0.15442 0.19764 -0.25718 0.054322 0.19818 0.17974 -0.24746 0.19156 -0.64145 0.19991 0.25894 0.21872 0.27199 0.095596 0.018161 -0.21026 0.23827 -0.093248 0.071894 0.22987 -0.11112 0.15027 0.29669 -0.047123 0.27082 -0.27631 0.2648 -0.11084 0.22491 0.080949 0.43144 -0.45199 0.31587 0.23519 -0.36104 -0.42773 0.42736 0.24003 0.40639 -0.18827 -0.16767 0.30595 -0.25559 -0.2217 0.045913 -0.087139 -0.055604 0.034343 -0.24516 -0.20365 0.1595 0.13478 -0.11759 0.41486 0.086722 -0.41394 -0.22594 0.11016 0.025709 0.22232 0.018318 -0.48267 -0.44229 -0.23855 0.27242 -0.03714 0.048091 -0.79091 -0.56395 -0.119 -0.21881 -0.21377 -0.026642 0.14591 0.088457 0.64169 -0.29758 0.19069 -0.075038 -0.19305 0.18663 -0.31437 -0.14081 0.133 -0.90851 0.04874 -0.30784 0.0033029 -0.22249 0.24275 -0.18161 0.19276 -0.058173 -0.18426 -0.071872 -0.19384 0.008335 -0.23898 0.06515 0.097356 0.35979 -0.4699 0.26761 -0.090091 -0.57134 -0.10851 -0.24957 0.07173 0.17436 -0.042501 0.099132 0.12138 0.28148 0.3301 0.25925 0.035791 -0.218 -0.07736 0.090202 0.19975 -0.11185 0.28063 0.16768 -0.11911 0.2364 0.061476 0.53002
grimace -0.38032 -0.24066 -0.26562 -0.10432 -0.043154 -0.25343 0.11254 0.22065 -0.19795 0.026244 -0.37899 0.21367 -0.126 -0.28404 -0.24788 0.10069 -0.4262 0.19824 -0.090574 -0.34372 0.24585 -0.18561 -0.18737 0.48034 0.15461 0.014928 -0.14813 -0.48406 -0.032206 -0.083727 0.055186 -0.041275 -0.23902 0.29383 0.4001 -0.091548 -0.33975 -0.18197 0.5214 0.049171 0.10154 0.3271 -0.26371 -0.46525 0.46207 -0.18937 -0.018649 0.056542 -0.32333 -0.041794 0.067129 0.17254 -0.042392 0.50482 -0.13456 -0.34501 -0.29999 0.1252 0.11716 -0.043711 0.060217 -0.1664 0.16993 -2.1577e-05 -0.4595 0.16613 0.13151 -0.29079 -0.014658 -0.36646 -0.20009 -0.22326 -0.40402 0.15742 0.071864 0.083356 0.14722 0.51959 0.070968 0.11014 -0.14019 -0.041164 0.040713 -0.28285 0.11063 0.379 -0.27623 0.32518 -0.24713 -0.35461 -0.53794 0.017115 -0.3854 -0.21509 -0.019388 -0.16004 0.021215 0.07768 -0.36539 -0.34652 -0.11215 0.21282 -0.32958 0.10543 -0.3084 -0.37179 -0.29621 0.0048544 -0.036094 0.29849 -0.25444 0.02966 -0.212 0.33713 -0.0079474 0.11479 0.33776 0.28369 -0.33029 0.13088 0.30285 0.095554 0.0096051 0.22521 -0.031408 -0.24308 -0.30434 -0.2777 0.24466 -0.070787 -0.39996 0.13368 0.070366 0.40389 0.3678 -0.13784 0.2284 0.14751 -0.10177 0.15692 0.008086 -0.22944 -0.1392 0.084871 0.19463 0.2164 -0.13837 -0.098308 0.38273 0.010014 0.0087174 0.59815 -0.2801 -0.088844 0.15452 0.24826 0.31195 0.06408 -0.14898 0.34745 0.12398 -0.36825 -0.19873 0.32594 -0.089787 0.24268 0.12871 -0.25158 -0.047223 -0.25402 -0.15274 -0.66526 -0.20672 0.41955 -0.30134 0.13243 0.14029 -0.1678 0.13729 -0.46448 0.16579 -0.36574 -0.13097 -0.15722 0.49124 0.10889 -0.14964 0.012027 -0.17771 -0.093653 0.00085577 -0.06592 -0.15253 -0.16842 0.13017 -0.18257 0.1049 -0.046071 -0.19721 0.11997 -0.064567 0.38919 0.15807 0.217 -0.44968 -0.14174 0.24886 -0.047173 0.18805 0.18481 -0.0045772 0.28631 -0.17668 -0.40438 -0.42176 0.069971 0.18227 -0.1044 0.073716 0.45028 -0.32454 0.28997 0.095848 0.086331 -0.22185 0.23457 -0.13692 -0.0052614 -0.52691 0.10097 0.20723 0.070276 0.39782 0.52152 -0.28177 -0.061792 -0.38035 -0.11952 -0.24552 0.15148 -0.31578 0.27022 -0.20439 -0.14622 -0.14188 -0.14736 -0.029911 -0.060563 0.33388 0.017632 -0.14577 -0.20409 -0.089027 0.29985 0.23652 -0.15446 0.3225 -0.3053 0.4926 0.056374 -0.14757 -0.14344 0.22936 0.072362 0.023724 -0.05287 -0.050414 0.041726 0.093326 -0.086243 0.060669 -0.13446 0.36446 -0.0099028 -0.45569 0.23536 0.43501 -0.37799 -0.38327 -0.30377 -0.16185 -0.44886 0.12548 -0.10878 0.0038864 0.13961 0.037792 0.13294 0.0011917 -0.12205 -0.13483 -0.14979 0.18715 -0.39571 0.23745 0.088982 -0.19294 0.21877 -0.012718 0.31455
instrument -0.59117 -0.045159 -0.20448 0.12463 0.2309 -0.25944 0.31836 0.01877 -0.20602 0.53721 -0.54904 0.091356 -0.10471 -0.17627 -0.29597 -0.28119 -0.24689 -0.030859 -0.25198 -0.41544 0.44472 -0.088401 -0.040207 0.10081 -0.36229 0.18075 -0.17674 -0.20945 0.35065 -0.21605 -0.039237 -0.1914 0.38792 0.097983 0.10893 -0.00047184 -0.25018 0.059275 0.37998 -0.24228 0.14531 -0.43676 -0.050756 -0.27404 -0.12162 0.060005 -0.28144 0.16977 -0.046297 -0.14712 -0.14087 -0.33957 -0.29394 0.043863 0.32523 -0.42822 0.33225 0.084194 -0.13622 -0.10106 0.034952 0.27715 -0.081129 0.25326 -0.13954 -0.32754 0.068027 0.1701 -0.2511 0.083224 0.15307 0.65111 -0.6096 -0.1936 -0.3654 -0.10548 0.18527 0.10806 0.36791 0.10775 -0.35311 0.13994 -0.053706 -0.12881 0.27786 0.45934 -0.11671 -0.049094 0.44723 -0.19429 0.15598 -0.39008 -0.11825 0.33359 0.36932 -0.18888 -0.44306 -0.53316 -0.1712 0.052835 0.25432 -0.10155 0.22601 0.44772 -0.35459 -0.097412 0.13446 -0.17315 -0.55422 0.19875 -0.2962 -0.57864 0.25171 0.20731 -0.0043926 -0.049969 0.066197 -0.13723 -0.15635 0.37768 -0.23377 0.022569 -0.066411 0.011696 0.25485 -0.037867 0.24916 -0.6574 -0.049771 0.1809 -0.093517 -0.040944 0.49449 0.089144 0.17828 0.26135 0.098988 0.32365 -0.24887 -0.25091 0.061323 0.49159 0.14874 -0.15451 -0.22416 0.2907 -0.10679 -0.12541 0.012354 0.26597 -0.066218 -0.34857 -0.12738 -0.068636 -0.21524 0.41371 0.31649 0.095222 0.060773 0.24976 -0.29286 -0.19541 0.083568 -0.057176 -0.066401 -0.17616 0.0077756 0.019705 -0.26547 -0.16239 0.10059 -0.39696 0.36558 0.14367 0.37074 -0.009898 -0.12557 0.019718 0.42761 -0.13352 -0.55315 0.16483 -0.51447 -0.036364 0.13859 0.11878 0.14267 0.080991 -0.52331 -0.04355 -0.13071 0.13528 0.31486 -0.047589 0.10151 -0.065219 -0.39676 0.032193 0.11754 -0.25875 -0.033584 0.14277 0.02214 0.26401 -0.5194 -0.28331 0.089064 0.042784 0.34102 -0.0014855 -0.19804 -0.38351 0.082711 -0.11419 -0.34363 -0.10913 0.31812 -0.32082 0.03051 0.79239 -0.093018 0.11469 -0.066895 0.22668 0.25464 -0.43323 0.35281 -0.20311 0.11763 0.03636 -0.10259 -0.23072 -0.093752 -0.11207 -0.19692 0.30324 -0.23978 -0.36208 0.24724 0.34587 -0.74741 0.45208 0.14298 0.012038 -0.043646 0.25455 -0.096893 0.16669 0.24024 0.29489 0.28919 0.2015 -0.25718 0.0072152 0.33442 -0.14612 -0.49901 -0.32946 -0.18256 -0.076788 -0.094493 0.03188 0.12696 -0.15907 0.093342 -0.27751 0.5768 -0.26605 0.56539 7.3946e-05 -0.27097 -0.071081 0.03111 -0.016172 -0.10517 -0.16539 0.036369 -0.12014 -0.26054 -0.29733 0.12649 -0.10359 -0.24247 0.27537 -0.18734 -0.17658 -0.25358 0.11039 0.18069 0.035565 -0.124 -0.55252 0.42439 0.019337 -0.067151 0.16955 -0.47458 0.19202 0.29566 0.17042
refuge 0.42066 0.32122 -0.06975 0.41662 0.23781 0.37268 -0.23721 -0.018825 0.54082 0.44104 -0.38754 0.24033 -0.6045 0.25715 -0.14413 0.24002 0.22451 -0.016214 -0.057247 -0.22455 0.038409 -0.18244 -0.076901 0.047253 -0.012702 -0.16122 0.23496 0.3378 -0.46632 0.096544 0.38851 0.4861 0.038045 0.13979 -0.10533 -0.12776 -0.1729 0.34228 -0.13721 -0.119 0.30159 0.25281 0.011712 -0.012854 0.14052 -0.29617 -0.054327 0.18912 0.19618 0.043846 -0.51233 -0.13887 0.090518 -0.34584 -0.54361 -0.11343 0.18 -0.18499 0.13104 -0.31007 -0.085884 0.4853 0.14241 -0.11274 0.22077 0.20129 0.5006 0.13127 -0.083474 -0.21617 0.1418 0.036239 -0.66485 0.25972 -0.55264 -0.4098 0.28111 -0.0078645 -0.35957 -0.12653 0.007358 -0.062252 0.09919 0.11191 0.018768 0.1362 -0.29522 0.18633 -0.64003 -0.34437 -0.23819 0.39145 0.0077123 -0.012289 0.11695 0.20457 -0.0466 -0.11569 0.51694 -0.71795 -0.74414 -0.18374 0.36212 0.038806 -0.063023 0.42115 0.43371 -0.31607 -0.077658 0.084479 0.27146 -0.30744 0.26324 0.36052 -0.066294 0.36028 0.39715 -0.026528 -0.57997 0.50354 0.29029 -0.14163 0.073652 -0.18787 -0.012112 0.15751 0.17482 -0.28692 0.21112 0.23293 -0.13894 -0.36149 -0.21675 -0.02643 -0.057177 -0.025848 0.14501 -0.15278 0.22568 -0.14219 -0.1124 0.21709 0.37457 -0.056725 0.16543 -0.018246 0.15984 -5.9471e-06 0.39338 -0.18946 -0.34841 -0.00037722 0.43131 -0.05787 0.16381 -0.13833 0.99046 -0.12562 -0.12966 0.31288 -0.28084 0.022228 0.08307 -0.12494 -0.21789 0.58053 0.19083 -0.072549 0.13625 0.14001 0.018032 -0.036654 -0.10792 0.18967 -0.079722 0.19111 0.074211 -0.57665 0.038202 0.18408 0.034069 0.55035 0.22633 0.43776 -0.22856 0.040181 0.17985 -0.014312 0.10769 -0.16692 -0.44433 0.27566 0.33345 0.097534 0.33158 -0.33834 0.050827 0.22445 0.099547 0.47106 0.45302 -0.037362 0.10886 0.0032432 -0.26604 -0.063391 -0.52452 -0.065783 0.19192 0.3005 -0.023269 -0.00074119 0.19052 0.088467 0.29785 -0.22449 0.15503 -0.16373 0.043265 -0.026978 -0.39982 -0.43298 0.073449 0.148 0.015371 -0.55994 -0.14176 -0.056479 -0.073667 -0.20876 0.0096873 0.21994 -0.05621 -0.51423 0.02764 -0.45425 -0.070934 0.35081 -0.0002016 0.32783 -0.062366 0.23836 0.0097256 0.16748 -0.58251 0.15966 0.39741 -0.19793 0.23269 0.042334 0.056777 0.29839 0.062874 -0.070387 0.31444 -0.42653 0.11144 -0.012328 -0.36937 0.073427 -0.022445 -0.14873 0.52547 0.44905 0.075331 -0.34489 0.19022 -0.1375 -0.11012 -0.025779 -0.56783 -0.072447 0.23232 -0.091957 -0.41195 0.019172 -0.026978 -0.22622 -0.23332 -0.38714 0.21755 0.23438 0.16539 0.40582 0.38483 -0.24798 0.19879 0.1936 -0.12147 0.036877 -0.074913 -0.44702 0.1303 0.17272 -0.15783 -0.16358 -0.11639 -0.22689 -0.17252 -0.12767
fruit -0.27042 0.39986 0.14982 -0.17497 -0.090574 0.40517 0.13843 -0.0017995 -0.14563 -0.2313 -0.1245 -0.18799 -0.45342 0.32379 0.13096 -0.39457 0.21507 0.096179 -0.15377 -0.095911 0.29597 0.11645 0.083322 -0.25428 -0.12054 -0.22763 -0.12336 -0.31292 -0.46393 0.20864 0.31247 -0.18981 0.20728 -0.16293 -0.058629 -0.044608 -0.28976 -0.20487 0.23459 -0.26002 -0.063312 0.010255 -0.022586 0.19169 0.083786 -0.11273 0.078092 0.3754 -0.1763 0.0094635 -0.21604 -0.32062 -0.12829 0.055457 0.049104 -0.49001 -0.17779 0.0455 0.19594 -0.024785 -0.003741 -0.23477 -0.17325 0.20585 0.089541 -0.30904 0.64272 -0.13016 0.23854 -0.23594 0.16399 -0.29904 -0.26452 0.16708 -0.21976 -0.14115 -0.18876 0.3296 0.2039 0.30002 -0.069846 -0.28792 -0.14743 -0.30349 0.18723 -0.19088 -0.11342 0.40468 0.1945 -0.18494 -0.19619 0.02958 -0.21286 -0.32806 -0.012701 -0.13443 0.083488 -0.35777 -0.033366 -0.0059689 -0.0055867 -0.31488 -0.33958 0.28433 -0.39192 -0.27385 -0.063094 -0.1357 0.13466 0.17788 -0.33712 -0.18738 -0.055043 0.36288 0.14173 0.034622 0.1042 0.30798 0.24387 0.16005 -0.14345 -0.30752 -0.31339 0.56164 -0.19105 0.1615 -0.29972 0.32587 0.096712 0.25962 0.27412 -0.0059309 0.00049275 -0.026137 0.16035 -0.27889 0.15293 0.19775 -0.35758 -0.2659 0.035782 0.12654 -0.11145 -0.079121 -0.20141 0.33416 -0.55794 -0.12013 0.71387 -0.24157 -0.45563 0.34273 -0.38048 -0.19414 0.40926 0.054967 0.35459 0.14089 -0.095047 0.59651 0.23978 -0.16547 0.39176 -0.25059 -0.38052 -0.14762 -0.12672 -0.07926 -0.31055 0.059518 0.014596 0.34613 -0.30898 0.13089 0.082094 -0.20338 -0.012255 -0.025424 0.35016 -0.15801 -0.0090731 -0.34081 -0.26745 -0.049863 -0.26428 -0.022429 -0.0018165 -0.40694 -0.29549 0.065179 -0.45404 -0.059491 -0.042849 -0.21592 -0.070927 -0.32291 0.30081 -0.075202 -0.14804 -0.063374 0.088315 0.28174 0.2488 -0.12452 -0.20657 -0.13002 0.10201 0.15156 -0.07172 0.53034 0.21155 -0.23699 0.13366 -0.16549 -0.40746 -0.094719 -0.29767 -0.38579 -0.12532 0.17722 0.063825 0.17538 -0.419 0.26657 -0.48637 -0.046025 0.1349 -0.19078 0.15414 -0.066347 -0.14096 0.057012 -0.057242 0.32326 0.15231 0.25933 -0.010695 0.12594 0.27871 -0.14839 -0.36834 -0.029234 -0.12725 -0.0013291 -0.54833 0.0077775 -0.052772 -0.11955 0.050711 0.29385 0.21776 0.1142 0.018892 0.20689 -0.23144 -0.76842 -0.25073 -0.0068412 -0.23707 -0.019738 -0.018272 -0.36237 -0.075804 -0.078076 0.071408 0.010293 0.13458 0.22326 0.02657 0.012945 0.040068 0.28084 0.31848 0.21833 0.079997 -0.09537 0.31485 -0.073339 -0.28046 -0.025215 0.11642 0.23336 -0.0075628 0.24498 -0.3914 0.1769 -0.12733 0.4153 0.090297 -0.015787 0.0043403 0.1492 0.33237 -0.35602 0.34161 -0.0017649 0.15115 0.18354 0.16918 -0.045213
coq -0.30494 0.16989 0.011993 -0.38093 -0.1855 0.52398 0.52177 0.34738 -0.18152 0.43236 -0.57619 0.32629 -0.10042 0.47137 -0.25187 0.14298 0.22764 -0.37351 -0.30387 -0.34568 -0.18497 -0.11204 -0.3906 0.36269 -0.40172 -0.23599 -0.56425 -0.082923 0.059713 0.011567 0.23213 -0.29098 0.29098 -0.36948 0.42431 0.45962 -0.14053 0.0083394 0.60672 0.032291 -0.22146 0.26006 -0.29984 0.17815 0.11836 -0.40236 -0.19639 0.042506 -0.19508 0.34362 -0.41575 0.3994 0.070061 0.40225 0.23459 -0.07311 -0.41082 0.17305 0.13732 -0.1436 0.34216 0.59507 0.057229 0.34959 0.078332 -0.26757 0.16846 0.17532 -0.24042 -0.36474 -0.22274 0.066019 -0.18303 0.51126 -0.6337 0.25278 0.39258 0.089919 0.25857 0.092341 -0.24704 0.18551 0.0056761 -0.40659 0.21393 0.23096 0.016864 0.39455 0.081526 -0.46231 -0.29638 0.043301 -1.0579 -0.026889 0.31614 -0.10086 -0.026322 0.21338 -0.031427 -0.18407 0.080368 0.21032 -0.13457 0.37062 0.11654 0.24378 -0.20801 -0.34305 0.16039 -0.24107 0.15823 -0.058551 -0.42298 0.024775 0.35556 0.18745 0.018125 0.010035 0.22714 -0.06192 -0.28313 0.12567 0.16763 0.090571 0.35258 -0.014623 -0.48711 -0.2751 0.051911 0.18058 -0.16288 0.16045 0.27365 0.18611 -0.045101 -0.022534 -0.063725 0.021427 0.16693 -0.32631 0.091432 0.37203 0.16538 -0.072139 -0.28374 -0.211 -0.021019 0.1188 0.14991 0.083686 -0.0014998 0.81589 0.022461 -0.2572 0.023519 -0.56365 0.12455 -0.12271 0.257 -0.052401 -0.12416 0.13412 0.18404 0.093437 -0.70144 0.098296 -0.064325 0.04292 -0.16389 -0.42865 0.16637 -0.34299 0.34434 0.29525 0.17595 0.32313 -0.48776 -0.070642 0.13662 -0.23538 -0.35773 -0.18274 0.098739 -0.24343 0.28223 0.035401 -0.17537 0.15059 0.26395 0.094517 -0.609 -0.23304 0.39766 0.17867 0.25726 0.0097591 -0.010898 0.21898 -0.71283 -0.034128 0.026207 0.080149 0.30307 -0.25143 0.1419 -0.11052 -0.0055034 -0.042651 0.2522 0.16297 0.43021 -0.2325 -0.33295 -0.47353 -0.16957 0.18439 0.010701 -0.092226 0.29048 -0.25236 0.090954 0.23933 0.30458 -0.070787 -0.28938 0.39117 -0.12927 -0.24059 0.29499 0.21121 0.065582 0.030666 0.6829 0.016531 0.013492 -0.42519 -0.038663 0.18917 -0.16543 0.13331 -0.34046 -0.032181 -0.143 0.095146 0.16714 -0.41127 0.41183 -0.13583 0.13992 0.099964 -0.19298 0.10683 0.073916 0.18689 0.38356 -0.25275 0.48954 0.16645 -0.14583 -0.012941 0.30169 -0.59822 0.15361 -0.073571 0.018586 0.49745 0.0977 -0.37862 0.23634 0.15888 -0.22601 -0.24871 0.77307 -0.20399 -0.41421 -0.01319 0.071179 -0.12084 -0.4253 0.03925 0.011849 0.30578 0.2437 0.02843 -0.12964 0.18592 0.25081 0.46346 0.23252 -0.13265 0.30445 -0.30001 -0.19931 -0.083199 0.064365 -0.20449 -0.26516 -0.12196 0.15386 0.024588
périple -0.33076 0.22711 -0.27131 0.096139 -0.039349 0.28903 -0.25692 0.10563 -0.20547 -0.078234 -0.10339 -0.17671 0.052276 -0.12434 -0.58665 -0.21362 0.10306 0.017559 -0.097286 -0.31192 0.25313 -0.15427 -0.40308 0.34014 0.030858 0.035484 0.19116 0.032246 0.0074182 0.086594 0.25273 0.90774 0.50067 -0.28133 0.090781 0.0071398 -0.13773 -0.00089522 0.31058 -0.26252 0.13716 -0.044869 0.036516 -0.18171 -0.34669 -0.10584 -0.35104 0.031786 0.073434 -0.10721 -0.27709 -0.095814 -0.26802 0.11497 -0.15176 -0.17052 0.213 0.064535 0.28124 -0.26455 -0.28858 0.19786 0.29678 0.019138 -0.50393 -0.080145 0.18446 -0.01267 -0.072766 -0.63306 -0.029802 0.30718 -0.089748 -0.22007 -0.45891 0.042078 0.38075 0.24384 -0.38371 -0.025262 -0.1138 0.039598 0.048684 0.027801 -0.30007 -0.22413 -0.1017 0.22683 0.050189 -0.1589 -0.099701 0.0027464 0.025667 0.054864 -0.037611 0.12567 -0.3875 -0.023793 0.080065 -0.24836 -0.36364 0.0072304 0.32945 0.20675 -0.73018 0.0054539 -0.13036 -0.12221 0.014957 0.29025 0.033607 -0.10507 0.36414 -0.26372 0.10709 0.10487 0.35224 0.23449 -0.069439 0.85039 0.20031 0.11844 -0.14395 0.29367 -0.11615 0.16108 0.19017 -0.092152 -0.068464 0.21182 -0.20258 -0.10265 0.14495 0.12392 -0.13986 0.227 0.20091 -0.1872 0.018072 -0.18132 0.2727 -0.18225 0.61809 -0.2821 0.02173 0.0717 0.1167 0.31294 -0.26229 0.25112 -0.056521 0.0048181 -0.14696 -0.021115 -0.12583 -0.21159 -0.1123 0.047593 0.049693 0.11273 -0.18742 0.08055 0.010569 0.093573 0.060888 -0.17495 0.14174 -0.22399 -0.036175 0.11288 -0.33512 -0.21311 0.056684 0.46593 0.2358 -0.048326 -0.090395 -0.31268 -0.19494 -0.15126 -0.014543 -0.60867 -0.068131 0.23579 0.20424 0.26959 -0.26841 -0.30493 0.212 0.17153 -0.16396 0.085798 0.11017 -0.23122 -0.1593 -0.1654 0.21143 -0.003451 -0.15805 -0.12195 0.43024 0.44654 0.010048 -0.16091 -0.22217 -0.43486 0.51025 -0.31039 -0.051226 0.21242 0.12825 -0.17357 0.10695 -0.25331 0.15642 -0.15712 0.12522 -0.22832 0.0021023 0.096299 0.16054 -0.37279 0.03301 0.1539 0.13504 -0.21558 0.0028357 -0.24494 -0.48246 -0.29954 0.007686 0.12703 0.37039 0.52201 -0.11438 0.010555 -0.17853 -0.1345 0.024553 0.13355 0.12217 0.364 0.29643 0.31236 -0.60424 0.27963 0.11157 -0.2382 0.09948 -0.032862 -0.12127 0.20616 -0.13586 0.16741 0.20404 -0.50323 0.41379 0.36027 -0.27919 -0.22615 0.3676 -0.15267 -0.051537 0.14459 0.023805 -0.12848 -0.21039 -0.019078 -0.29427 -0.18913 -0.1287 0.094288 0.11936 0.33488 -0.52955 -0.14141 0.16686 -0.14378 -0.552 -0.36107 0.021713 -0.12503 -0.085688 0.34031 -0.18185 0.55603 -0.042267 0.072166 -0.0080782 -0.086681 -0.54413 0.017596 -0.32383 0.051712 0.065192 -0.038945 0.20176 -0.27618 -0.26124 -0.1727
monticule 0.36776 0.21599 -0.2899 0.24497 0.23839 0.13367 -0.29853 0.11331 -0.5098 0.0079827 -0.44373 -0.16321 -0.45664 0.40553 -0.16056 -0.43043 -0.31013 -0.37932 -0.31754 -0.22517 0.30404 -0.19746 -0.024451 0.030778 -0.37849 -0.17601 -0.054682 -0.10876 -0.063696 -0.27139 0.46421 0.14665 0.35263 0.14724 0.40624 -0.077537 -0.019127 -0.50144 -0.47591 -0.2302 0.095209 0.09552 -0.11618 0.22874 -0.45343 -0.31117 -0.31105 0.037384 -0.048484 0.28941 -0.33955 -0.039696 0.42788 0.014191 0.27763 -0.20011 -0.088755 0.043101 -0.26621 -0.14912 -0.026813 0.35585 0.13996 -0.060319 -0.14274 -0.33122 -0.16581 0.25606 0.060545 -0.45267 0.20311 0.054224 -0.26473 -0.24417 -0.235 0.00031488 0.36398 -0.0015804 -0.025919 -0.26479 -0.67799 0.16157 0.010579 0.34528 -0.052808 0.27339 -0.24851 0.15162 -0.29628 -0.52852 -0.27985 0.83612 0.17852 -0.0046254 -0.32422 -0.28783 -0.2552 -0.25697 0.47656 -0.3793 0.096028 -0.72427 0.17196 0.41528 0.2884 -0.17977 0.055095 -0.26201 0.10642 0.3781 -0.12967 -0.35255 0.69353 0.17314 -0.063537 1.4585 0.37787 0.017969 0.018056 -0.16499 0.43776 0.26001 -0.69939 0.33723 0.013429 -0.19709 -0.21274 0.25518 -0.31231 0.15929 -0.62784 -0.13031 0.021138 0.41911 0.23487 -0.076386 -0.35581 0.018124 0.48745 -0.20116 0.075181 0.45385 0.38821 0.49187 -0.14704 -0.060199 -0.11581 0.4869 0.71401 0.38736 0.53443 0.35562 0.34942 0.23585 -0.26328 -0.32434 0.36033 0.23747 0.18205 0.1557 -0.43952 -0.35493 -0.085344 -0.038472 -0.00065559 0.15816 0.17726 -0.14471 0.35083 0.11708 -0.092023 -0.50723 -0.31043 0.24537 0.36771 0.53234 0.015335 -0.072173 0.035941 -0.014817 0.0067574 -0.49326 -0.15653 -0.070369 -0.086923 -0.26828 -0.051208 0.17507 0.2583 0.33979 0.033735 -0.042245 0.12214 0.33585 0.098203 0.10391 -0.1734 0.37301 -0.039981 0.24763 0.38991 0.15125 0.090331 -0.21586 -0.42686 -0.33624 -0.28554 0.12051 0.074216 0.055426 -0.055207 0.36003 0.13216 -0.34347 -0.21606 -0.29593 -0.16916 -0.45039 -0.069322 -0.14773 0.032382 -0.27346 -0.23993 -0.26503 0.22577 -0.32092 0.2468 -0.010489 0.13731 0.05376 0.24089 0.051592 -0.20207 0.19196 0.17413 0.18803 -0.10252 0.24857 0.12624 0.30384 -0.0082989 0.13279 0.16943 -0.35473 0.020476 -0.087704 -0.26167 -0.11954 -0.09611 -0.10778 -0.16019 -0.042479 0.32151 0.12102 0.14597 0.070575 0.11488 -0.14333 -0.2195 0.33991 -0.0062541 -0.4513 0.21401 -0.13777 -0.26766 -0.33051 0.019443 -0.02691 -0.20552 0.35113 -0.065784 -0.023102 0.072454 0.42105 0.073171 0.27886 0.25068 -0.038131 -0.35744 0.68004 0.095966 0.22582 -0.14239 0.16283 -0.27729 -0.14423 -0.035401 0.31264 -0.30719 0.084939 0.28659 -0.14561 -0.18432 -0.16162 -0.26661 0.064991 -0.28708 0.20709 -0.15018 -0.17231
four -0.56488 0.35605 -0.44651 0.09848 0.16412 0.20877 0.12037 0.10401 -0.038102 0.18212 -0.23666 0.19614 0.0019691 0.49699 -0.1854 -0.23333 -0.47702 -0.13593 -0.01685 -0.18096 0.22996 -0.021703 0.019222 -0.058959 0.11631 -0.12529 -0.36396 -0.57162 -0.019557 -0.27094 0.4233 0.29339 0.16817 0.089745 0.090761 -0.38062 -0.24513 -0.57056 -0.55482 0.065316 0.45087 0.26795 0.2782 -0.10692 -0.27661 -0.58188 0.18776 0.79518 0.24751 0.47439 0.33838 0.34912 -0.41393 0.019845 0.14979 -0.19812 -0.55349 0.57561 0.027668 0.040859 0.15645 0.1064 -0.2147 0.22767 0.094584 0.037621 -0.068767 -0.047783 0.41777 0.16775 -0.29186 0.054012 0.092245 -0.23332 -0.8031 -0.11409 0.10036 -0.48252 0.20922 0.016313 -0.28197 0.38574 -0.32051 0.09758 0.21276 -0.14224 0.14714 0.16137 0.022322 -0.10223 -0.10477 -0.021354 -0.18612 -0.15438 -0.22163 -0.089125 0.023542 -0.33928 -0.030633 -0.77569 -0.47901 0.025929 -0.3731 0.23158 -0.1395 -0.050513 -0.045398 -0.13403 0.28515 0.33433 -0.022407 -0.16114 0.12594 0.076218 0.096896 -0.023176 0.30349 -0.22807 -0.21355 0.5068 -0.051448 -4.9265e-05 -0.17892 0.20545 -0.22786 0.21993 -0.076279 -0.035127 0.0098551 -0.14731 -0.2052 -0.051993 -0.088024 0.60109 0.1222 0.03255 -0.27574 -0.45249 -0.19218 0.40684 -0.25189 0.15881 0.54123 -0.40172 -0.29289 0.24397 -0.30526 0.13231 -0.052054 0.21214 -0.43149 -0.017276 -0.22203 -0.18053 0.055323 0.19225 0.32665 0.056862 -0.26684 0.44789 -0.29983 -0.11089 0.41256 -0.15191 -0.47316 0.59933 0.31904 -0.32544 -0.060973 -0.20001 0.45931 -0.5564 -0.40997 -0.025649 -0.047574 0.14751 -0.38658 -0.25635 0.14975 0.010275 -0.15588 0.5715 0.56086 -0.30583 -0.019586 -0.20649 0.012426 0.10075 0.26654 -0.032404 0.030485 0.56193 0.3465 -0.64942 -0.1458 -0.22441 0.21841 0.021827 -0.67994 -0.1841 -0.1871 0.36742 -0.16511 0.46847 0.13725 -0.25528 -0.24924 -0.041584 -0.068428 -0.29319 0.20795 -0.22816 0.25893 -0.36983 -0.15456 0.0061803 0.27282 -0.3309 0.33597 0.81463 -0.053544 -0.1535 -0.060993 0.42334 0.65856 0.071164 0.126 0.20431 0.00878 0.093165 0.051937 -0.33564 0.13031 0.018919 -0.015994 -0.42848 0.051005 0.10953 0.28711 -0.33844 -0.11597 -0.65236 0.50645 -0.2506 -0.12622 -0.036118 -0.45172 -0.15763 0.19101 -0.16009 0.10266 -0.091651 -0.22136 0.1175 0.37832 -0.23231 -0.39736 -0.23503 0.13458 0.15301 -0.49647 -0.35653 -0.21397 -0.026188 0.30542 0.32682 0.28061 0.16003 -0.10884 0.1676 0.21079 0.09624 -0.15196 0.13307 -0.67782 0.24031 0.0049064 -0.27267 -0.37829 -0.052592 0.021375 -0.14462 0.010904 0.16959 -0.095105 -0.049423 -0.093522 0.80867 -0.055983 -0.26005 -0.22732 -0.1977 0.36197 0.17258 -0.086715 -0.28672 -0.84616 0.013573 0.43149 -0.010553
verre -0.15101 -0.46382 -0.44014 -0.082359 -0.078476 0.2321 0.49364 0.23101 -0.11234 0.032978 -0.10702 0.17806 -0.37895 0.17454 -0.11277 0.20393 0.13631 -0.20176 -0.43316 -0.30921 0.30125 0.042292 0.087102 -0.10716 0.030716 -0.40375 -0.21525 -0.1238 -0.12478 0.27245 0.68222 -0.27125 0.0033342 0.32947 0.35979 0.26686 -0.22473 -0.20822 0.21104 0.069531 0.028528 0.12374 0.16264 -0.13519 0.23712 -0.12325 0.28904 -0.11586 -0.22268 0.29594 -0.22862 -0.10819 -0.40814 0.27175 0.2779 -0.20216 -0.12446 0.1689 0.2883 0.13464 0.046675 -0.037115 0.15143 0.4263 -0.44283 0.1478 0.2205 -0.048013 0.14485 -0.11185 0.18255 0.38853 0.12349 -0.10392 -0.45816 0.21235 -0.012121 0.31568 0.007433 0.36711 -0.32438 -0.087318 0.0059409 0.23532 0.35893 0.31812 0.0073404 0.0044799 0.052085 0.0042863 -0.09024 0.053258 -0.22104 -0.34215 0.13134 0.029755 -0.42619 -0.24873 -0.22943 -0.34651 -0.021166 0.26253 0.33337 -0.038178 -0.0029879 -0.065052 -0.0089533 -0.18202 0.36805 0.18058 0.10895 -0.095068 0.22083 0.17937 -0.055098 0.064723 -0.3134 0.045743 0.011587 0.4849 0.29635 0.084802 -0.2063 0.14734 -0.097576 -0.096705 -0.062086 -0.025199 -0.021431 -0.018815 -0.76131 0.099118 -0.083984 0.044967 0.064668 0.47359 -0.37854 0.25581 -0.27307 0.42383 -0.35202 0.4432 -0.16254 0.095443 -0.13191 0.40072 -0.32154 0.088848 -0.29816 0.26554 0.010827 -0.024632 -0.12047 -0.089652 -0.027227 -0.34747 -0.21679 -0.10382 0.1348 0.50649 -0.0099425 -0.19769 0.24475 -0.28813 -0.077146 0.98941 -0.054919 0.08485 0.19095 0.034479 0.13363 7.0047e-05 0.11325 0.14925 0.61177 -0.010752 -0.091598 -0.28289 0.50569 -0.30156 0.26116 0.00058214 0.18377 -0.1032 0.033343 -0.015563 -0.053962 -0.20127 -0.71071 -0.19733 -0.23282 -0.074097 0.36107 -0.38249 -0.13979 0.06836 0.5503 -0.15931 -0.5547 0.20503 -0.040941 0.10388 0.18726 0.030729 0.082045 -0.18509 -0.086589 0.0058971 -0.32962 0.5025 -0.10741 0.0021574 0.0035862 -0.20835 -0.45999 -0.36208 -0.29794 -0.58609 -0.11262 0.19191 -0.049356 -0.050913 0.059018 0.10257 0.03529 -0.16831 -0.036467 0.218 0.038716 -0.34428 -0.059826 -0.24315 -0.28784 0.0042501 0.26042 -0.101 0.16183 -0.189 -0.072586 -0.13947 -0.26963 0.23202 0.13697 0.05711 0.12673 0.059371 -0.16976 0.12839 0.58358 0.13861 -0.067525 -0.20982 -0.10076 -0.55158 -0.020389 -0.15376 0.064348 -0.54071 -0.13276 0.31225 0.072708 -0.10586 0.37299 0.065141 0.25561 -0.23783 -0.095862 -0.072598 -0.12297 -0.013538 0.12008 0.15773 0.37988 0.027423 -0.22486 -0.021281 -0.15438 -0.060296 -0.081497 -0.048211 0.0042536 -0.012342 -0.017096 0.47436 -0.48152 0.10655 -0.03216 0.55241 -0.083659 -0.29124 -0.11508 -0.20415 0.3464 0.05022 -0.36407 0.1132 -0.18345 0.2048 -0.12572 0.10651
magicien -0.253 -0.14558 -0.35725 0.091179 -0.059852 0.124 0.11734 0.0028909 -0.6095 0.067308 -0.088796 0.29051 0.24709 -0.15285 -0.12322 0.050853 0.47107 0.22607 -0.52299 -0.26264 0.44242 -0.10623 0.14276 0.49536 -0.1276 0.02703 -0.037175 0.21862 0.013864 0.04101 0.017597 0.33056 0.0262 0.21777 -0.045288 -0.13152 -0.50371 -0.13495 0.28458 -0.16639 -0.11334 0.095903 0.13725 -0.075836 0.1775 0.10265 -0.18589 0.083751 0.20739 0.25558 -0.64092 -0.045563 0.053421 0.001357 -0.071129 0.14271 0.14686 0.27564 -0.075349 -0.15123 0.31745 -0.11231 0.21558 0.073155 -0.15133 -0.07407 0.17525 0.25167 0.28698 -0.16646 -0.16144 -0.046646 -0.6794 -0.011525 -0.31234 0.36191 0.32376 0.29756 -0.10516 0.22474 0.13613 -0.39077 0.1055 -0.057688 -0.11363 0.16813 -0.2977 0.23485 0.23118 -0.4797 -0.01421 0.095467 -0.1796 -0.31289 -0.1138 -0.10764 0.1944 0.094072 0.24377 -0.1913 0.18993 0.30394 -0.048578 -0.25565 -0.22433 0.11331 -0.078459 -0.70071 -0.25067 0.020763 -0.22371 -0.26969 0.054539 0.17756 0.040434 -0.24846 0.38159 0.18313 -0.070924 0.0053688 0.44824 0.23285 0.03544 0.39744 0.0050263 -0.16263 0.010557 -0.37208 0.1359 0.41077 -0.36022 0.28291 -0.032388 -0.069209 0.32794 -0.037524 0.0010753 0.21591 0.32301 0.067781 -0.030138 -0.25977 0.27638 -0.27598 -0.074909 -0.17641 0.2097 -0.070157 0.15902 0.24005 -0.079504 0.22836 -0.35637 0.20866 -0.22873 0.26204 -0.053087 0.21509 -0.36118 0.29733 -0.39888 0.049841 0.1796 0.56559 -0.074853 0.49436 -0.084849 -0.59697 0.040559 -0.045792 -0.32782 -0.37065 0.3175 0.045081 0.21914 -0.31066 0.13023 -0.079094 0.12405 -0.47892 0.0073891 -0.57083 0.2246 0.33189 0.20058 0.27875 -0.078459 0.027158 -0.30685 0.27747 -0.2824 -0.085196 -0.020218 -0.27878 -0.024788 0.56157 0.39915 0.53027 -0.024739 0.069755 -0.0058252 0.10679 0.22051 0.12331 -0.48427 0.076823 0.57004 -0.37356 -0.70394 0.2759 0.1873 0.47844 0.26566 -0.19798 0.24704 -0.11157 0.085951 -0.28538 -0.16557 0.0067395 0.014813 -0.18599 -0.16365 0.0082845 0.027787 0.22559 0.024408 0.040076 -0.56774 -0.23104 0.18706 -0.1189 0.40098 0.11475 -0.34794 -0.46373 -0.11351 0.081839 -0.0044121 -0.34401 -0.44502 -0.10671 0.098693 -0.47119 -0.043772 -0.030325 -0.12805 -0.031624 0.28678 -0.20418 0.063918 -0.0061848 0.07797 0.30225 -0.23975 -0.17323 0.10356 -0.82129 0.096533 -0.20472 0.2941 -0.23248 0.4111 0.010012 0.1283 -0.3024 -0.2338 -0.046722 -0.15533 -0.287 -0.34654 0.20926 0.11471 0.24987 -0.36697 0.26863 -0.10458 -0.52364 -0.21851 -0.51226 0.21852 0.082479 -0.21208 -0.027874 -0.0040911 -0.058266 0.056152 0.0094841 0.08367 -0.2809 0.037324 -0.070499 0.44243 -0.12184 0.039353 0.089583 -0.12753 -0.063139 -0.079415 0.37395
automobile 0.31442 -0.12892 -0.046169 -0.11207 0.18185 -0.11073 -0.00091306 0.2116 0.50318 0.29475 0.27297 0.17319 -0.17992 -0.16974 -0.29541 0.051699 0.37925 -0.054534 0.11705 -0.35998 0.21504 0.26107 -0.065746 -0.14251 0.057694 -0.011959 -0.073765 -0.1516 -0.21436 -0.33752 -0.17118 0.25625 -0.19474 0.11072 -0.072279 0.092828 0.0032348 0.23427 -0.14367 0.56507 -0.17025 -0.49073 0.1077 0.11415 0.2708 -0.23881 -0.35186 0.39617 0.23402 0.033092 -0.66818 -0.31935 -0.15999 0.39255 0.28654 -0.33551 -0.25008 0.53602 0.28909 -0.45366 -0.32116 -0.24041 0.85586 0.032291 0.28353 0.1519 0.15372 0.24237 -0.34097 -0.32674 -0.045477 0.23198 -0.034453 -0.16407 -0.57744 -0.13791 0.44865 0.19687 0.33029 -0.18124 -0.91737 -0.48206 0.099211 -0.17966 0.31602 0.68361 0.23573 0.30621 -0.23374 -0.64621 -0.38728 0.071651 0.17071 0.16267 -0.43457 0.061536 -0.41839 -0.11135 -0.30177 -0.30911 0.22045 0.28186 0.045029 -0.30975 -0.24254 0.53239 -0.10399 -0.71419 -0.43101 0.049807 -0.28253 0.1607 0.14182 -0.19526 -0.016803 0.17363 0.34488 -0.10157 0.12943 0.24295 0.44345 0.37527 -0.27404 0.35846 -0.1736 0.046888 -0.092928 -0.11481 -0.11019 0.071989 0.12654 0.091068 0.17583 0.2628 -0.32764 -0.32888 -0.2743 -0.27698 -0.19978 0.35909 0.43343 -0.14834 -0.35907 -0.40916 -0.24109 0.12871 -0.49326 0.24574 -0.24154 0.27915 -0.11613 -0.010884 0.21758 -0.017951 -0.095848 0.059852 -0.078772 -0.066292 -0.36446 0.035751 -0.088851 0.3441 0.33729 -0.2735 0.26818 0.41321 0.32216 -0.023927 0.1633 -0.098903 0.069179 -0.04528 0.26557 0.092474 0.026247 -0.32484 0.45574 0.59166 -0.13638 0.049359 0.23067 -0.33726 -0.16989 0.0055349 -0.078079 0.13191 0.042664 -0.48062 -0.26069 -0.52998 -0.20567 0.10103 -0.05215 -0.37036 -0.31613 0.12832 -0.18892 0.022514 -0.59324 0.20452 0.43699 -0.32275 0.25342 0.092771 -0.025416 -0.55725 -0.2275 0.32479 -0.33446 -0.1633 0.069409 -0.039318 0.53676 -0.58487 -0.53098 -0.56434 -0.36136 -0.18098 -0.20972 0.037124 -0.073538 -0.27319 -0.030921 -0.092745 0.43025 0.030398 -0.045638 -0.034888 0.1519 -0.39473 0.017111 -0.063678 -0.12265 0.061264 -0.19479 -0.16998 0.085059 -0.16424 0.40731 -0.55193 0.23409 -0.12039 0.15231 0.02612 -0.19178 0.010851 0.28467 -0.18228 -0.4749 0.14239 0.20918 0.0034619 -0.26117 -0.086131 0.070064 0.53171 0.12305 -0.23575 -0.15215 -0.03111 0.27879 -0.044068 0.6092 -0.31319 -0.20278 0.25053 0.72855 -0.15381 -0.062423 0.29385 0.30663 -0.17239 0.031638 0.19177 -0.10744 0.10834 0.27758 0.16255 0.070022 -0.0050557 0.066112 0.16418 -0.55102 0.23875 -0.37126 0.12943 0.21798 0.24368 0.52891 -0.16994 -0.62237 0.13415 0.4018 -0.39446 -0.48464 -0.23505 -0.027142 0.015067 0.38485 0.22673
coussin -0.06661 -0.16668 -0.228 0.026534 0.09008 0.021226 0.57263 0.089924 -0.30871 0.50089 -0.31171 0.32806 -0.3343 0.13651 0.11448 -0.10533 -0.21558 -0.34657 -0.034823 -0.51813 0.0081256 0.096998 -0.065417 0.44028 -0.48661 -0.040267 -0.077518 -0.22141 0.40377 -0.18445 0.18082 0.020762 0.15377 -0.080186 -0.22485 0.57448 0.20297 -0.36489 -0.13784 0.013253 -0.32863 -0.053341 0.04523 0.3575 -0.085211 -0.19717 -0.043895 -0.37279 0.064413 -0.039357 -0.45317 -0.14347 0.083608 0.43786 -0.010941 -0.26349 -0.47846 0.28622 0.11551 0.042755 -0.080677 -0.023833 0.25286 -0.19917 -0.56791 0.028276 -0.085238 0.087482 -0.13741 -0.45107 -0.064358 -0.16998 0.020113 0.23835 -0.20436 0.48203 0.23135 0.43793 -0.11022 -0.10367 -0.34064 -0.11574 0.046067 0.28262 -0.147 -0.18138 0.085208 -0.10633 -0.32773 -0.59176 -0.55475 0.57938 0.029634 0.10601 -0.034194 -0.51949 -0.094685 0.0827 -0.07734 -0.19371 0.50147 -0.15706 0.11393 -0.081915 0.3928 -0.0040882 0.15256 -0.33043 -0.17315 0.2609 -0.20291 -0.49816 0.43353 0.4671 -0.074008 0.25609 0.59402 0.086352 0.36096 0.3122 -0.18887 0.11258 -0.5858 0.50979 0.11267 -0.23866 0.044676 -0.37157 -0.29493 0.29259 -0.42107 0.11733 -0.00121 -0.0069719 0.28268 0.13971 -0.38839 0.063061 0.096193 -0.086822 0.03228 0.053844 -0.13649 0.28869 0.028284 0.50412 0.14726 0.07194 -0.064431 -0.14635 -0.14558 0.24766 0.24065 0.11746 -0.23083 -0.25014 0.52875 -0.011153 0.35631 0.2199 -0.18638 -0.60483 0.51344 -0.61621 -0.18712 0.27922 0.17916 -0.21115 0.29051 -0.37665 -0.106 -0.38717 0.092266 0.015608 0.17347 0.68617 0.18406 -0.27083 0.029415 -0.15057 0.20845 -0.021823 -0.32246 -0.42493 -0.29749 0.25209 0.15728 -0.3666 -0.59569 0.22061 -0.18694 -0.018425 0.5527 -0.21674 0.17393 -0.19582 -0.0039538 0.046493 0.078129 0.28854 0.24868 0.265 0.18731 -0.043583 -0.76511 -0.37398 -0.17161 -0.06357 0.068707 0.034897 0.012172 0.17711 0.048901 -0.15985 -0.38925 -0.3194 0.068355 -0.29614 0.12382 -0.30882 -0.1554 -0.039607 -0.21588 0.059284 -0.01874 -0.32289 -0.10593 -0.22747 0.41975 -0.27485 -0.028141 -0.14923 0.30977 -0.048625 -0.012179 -0.015589 -0.037734 -0.087293 0.026467 -0.070374 -0.31042 -0.00050043 0.33595 -0.0028122 -0.092881 0.041848 -0.36327 -0.40389 0.21216 0.024547 0.080886 -0.12441 0.18968 -0.0061054 0.12872 -0.48861 -0.021138 0.075932 0.02818 0.067981 -0.096971 -0.24443 0.27715 0.21565 -0.33655 -0.23319 0.32864 -0.29905 0.10858 0.3949 0.26373 0.11688 0.2207 -0.61083 0.36181 -0.024662 0.14966 -0.23993 -0.033503 0.36979 0.060189 0.23401 -0.28606 0.064253 -0.20015 -0.12642 -0.59077 0.015342 -0.0098732 -0.14273 -0.064171 0.21096 0.12237 0.10452 0.063738 0.23672 -0.034338 0.017029 -0.12601 0.37985
oiseau -0.12232 0.037497 -0.59342 0.4125 -0.23535 0.080412 0.18018 0.33044 -0.16123 0.16963 -0.38061 0.19592 0.13611 0.437 -0.41181 -0.19538 -0.013682 0.0096493 -0.29026 -0.23766 0.40565 0.1627 0.11692 -0.31767 0.50444 -0.020521 -0.010734 -0.64457 -0.14503 -0.044255 0.018154 0.31795 -0.035073 -0.080504 0.26141 -0.57135 0.083253 0.017325 0.17722 0.061266 0.10372 0.22238 -0.054367 -0.079399 0.25279 0.032533 -0.36599 0.49557 -0.2997 0.48144 -0.11803 0.12547 -0.089516 0.35781 -0.27878 -0.040619 -0.27722 0.22027 0.35155 -0.53997 0.44038 0.21978 -0.015499 -0.18344 0.053922 -0.087364 0.51162 0.073521 -0.16714 -0.0069134 -0.039578 -0.087894 -0.36365 -0.12823 -0.31998 -0.011273 -0.0097964 0.1615 0.05521 0.15208 -0.36946 0.067938 0.13897 -0.17149 -0.27203 -0.083875 0.19633 0.66292 0.27199 -0.21247 -0.10407 0.036431 -0.28608 0.098143 0.01523 0.20055 -0.49814 -0.12958 -0.0098649 -0.23897 -0.080746 0.051746 0.0092796 0.14672 -0.16758 0.13996 0.12938 -0.32472 0.25132 -0.41774 0.33541 -0.54061 -0.20161 0.036103 0.077015 -0.12326 0.17686 0.13542 0.45892 0.082564 -0.10363 0.31153 -0.16825 -0.14778 0.28555 -0.19525 -0.086351 -0.48798 0.1936 0.33429 0.036957 0.014153 0.11349 -0.34727 0.16437 0.020374 -0.11613 0.054518 0.071093 -0.46717 -0.098818 0.53601 0.17265 -0.15332 -0.31696 0.46925 0.015832 -0.091195 0.72346 0.48716 -0.12903 0.17588 -0.14211 0.097585 0.24825 -0.017916 0.14046 -0.10737 0.37066 0.049966 -0.51044 -0.024768 0.48179 -0.18573 -0.26644 -0.15292 -0.046238 -0.14904 -0.26644 -0.40281 -0.33598 -0.059078 0.56931 0.63429 -0.17487 0.17504 0.14248 -0.2496 0.21819 -0.26061 -0.21478 -0.17772 -0.29669 0.12638 0.25089 -0.16514 -0.36053 -0.10591 -0.4153 0.031428 -0.3755 -0.23216 0.39518 0.22321 0.21833 -0.17253 -0.037906 0.27204 -0.67183 0.13934 -0.037425 0.26488 0.46346 0.14105 0.056019 -0.34045 0.093451 -0.51088 0.11256 0.319 -0.091041 0.5647 0.091232 -0.38585 -0.46858 -0.21288 0.11881 -0.52251 -0.18921 0.33412 0.26162 0.30013 -0.26364 -0.11782 -0.27674 -0.38213 -0.078257 -0.059232 -0.29029 0.014992 0.12572 -0.020719 0.21791 -0.45674 -0.22202 -0.22221 -0.12136 -0.20265 0.18004 0.001496 -0.15035 0.51354 -0.20904 -0.069267 -0.0053296 -0.33352 0.43494 -0.36011 0.22983 0.12452 -0.34818 -0.20173 0.38792 0.087653 0.32966 -0.39927 0.3424 -0.37965 0.016328 -0.027763 0.037953 -0.58785 0.37959 0.35988 0.31784 -0.24814 -0.35078 -0.21128 0.089629 0.2236 -0.50139 0.00080072 0.43857 -0.0031357 -0.27305 -0.078719 0.09181 -0.6555 -0.033607 -0.15891 0.045528 0.06159 0.48454 0.42818 0.2381 0.17877 0.021834 0.037049 -0.11083 -0.034066 0.072407 0.23139 0.16696 -0.30709 0.17022 -0.26553 -0.054548 0.088775 -0.020953 0.40769
bois -0.37897 0.15536 -0.324 -0.16184 0.5908 0.28827 0.021808 -0.051428 -0.35365 0.096891 -0.36335 0.010309 -0.28006 0.46396 -0.057303 0.17697 -0.065176 -0.16451 -0.28382 -0.36736 0.20423 -0.082675 0.33233 0.052793 0.049978 0.025493 -0.035749 -0.053653 -0.26882 0.1954 0.46847 0.16401 0.041407 -0.078963 0.28409 0.13503 -0.35751 -0.20975 -0.075019 -0.03308 -0.066004 0.13868 0.076728 0.29223 0.45853 -0.34724 0.16591 -0.066569 0.10256 0.24066 -0.14406 -0.003882 -0.31272 0.48478 0.11384 -0.14079 0.30072 0.14969 0.22247 0.088285 -0.23827 0.19266 0.074492 0.59701 -0.18925 -0.011842 0.12213 0.070516 -0.16805 -0.40293 0.23253 0.4179 -0.054549 -0.25389 -0.36623 0.19295 -0.011256 -0.018832 0.27127 -0.55417 -0.26303 -0.17452 0.076104 -0.17921 0.41157 0.21284 -0.14339 0.52808 -0.34827 0.058709 -0.25251 0.38303 -0.16956 0.17017 0.31466 -0.063107 -0.16201 -0.15167 0.13803 -0.13397 -0.40181 -0.11947 0.29713 -0.053658 -0.042818 -0.16689 -0.0077983 -0.036145 -0.11711 0.044986 0.12832 0.014163 -0.15072 0.24358 0.10958 0.36797 0.2279 -0.19434 0.40058 0.11295 -0.32956 -0.38745 -0.26519 0.19239 -0.036168 0.019928 -0.1046 -0.017604 -0.26041 0.014699 -0.58713 -0.028236 0.39112 -0.40383 -0.042842 -0.20592 0.095654 0.41 0.46929 -0.20754 -0.22863 0.40584 -0.023268 -0.16501 0.41935 0.18667 -0.081216 0.022128 0.094497 0.20764 -0.1728 0.11919 -0.29759 -0.16817 -0.19055 -0.097851 -0.11263 -0.12849 0.18347 0.11921 -0.46421 -0.26355 0.26089 0.35684 0.20932 0.068484 0.12841 0.082418 -0.1183 -0.043072 -0.075712 -0.050702 -0.053257 -0.1596 0.537 0.2046 0.13978 -0.14353 0.29233 0.087606 -0.23095 -0.093504 0.11488 -0.075836 -0.40319 -0.0051254 0.32145 -0.33831 0.0037936 -0.47267 -0.03959 0.10811 0.01936 -0.062005 -0.049218 -0.021897 0.064015 0.14778 -0.46209 0.54762 -0.24883 0.11736 0.053609 0.14695 0.15679 -0.32512 -0.48468 -0.16548 -0.64242 0.086257 0.23973 -0.12708 0.38266 -0.31016 -0.30205 -0.14043 0.014382 -0.014653 -0.062705 0.20673 0.22121 -0.50057 -0.13674 -0.33699 -0.034583 0.064445 0.14242 -0.14715 0.27526 -0.22567 -0.32991 -0.38597 -0.15792 0.050815 0.065336 -0.66724 0.031784 -0.10362 -0.12382 0.055249 -0.26383 0.28895 -0.21875 -0.015698 -0.12525 -0.10737 -0.38222 0.17449 0.42313 0.10567 0.17126 0.019524 0.099554 0.069994 0.097896 -0.11517 -0.34814 -0.49377 0.060838 0.19386 -0.12364 -0.51938 0.4407 0.2119 0.49144 -0.32894 -0.092824 -0.39004 0.065412 0.13653 -0.31218 0.34839 0.21151 0.03609 0.045107 -0.45921 0.042322 0.17556 -0.27055 -0.17767 0.14193 0.20236 0.2002 0.11922 -0.23199 0.40872 0.3401 0.1165 0.14995 -0.14929 0.064772 -0.15472 0.13365 0.43506 -0.10634 -0.39499 -0.34581 0.22037 0.041915 0.18666
fruit -0.27042 0.39986 0.14982 -0.17497 -0.090574 0.40517 0.13843 -0.0017995 -0.14563 -0.2313 -0.1245 -0.18799 -0.45342 0.32379 0.13096 -0.39457 0.21507 0.096179 -0.15377 -0.095911 0.29597 0.11645 0.083322 -0.25428 -0.12054 -0.22763 -0.12336 -0.31292 -0.46393 0.20864 0.31247 -0.18981 0.20728 -0.16293 -0.058629 -0.044608 -0.28976 -0.20487 0.23459 -0.26002 -0.063312 0.010255 -0.022586 0.19169 0.083786 -0.11273 0.078092 0.3754 -0.1763 0.0094635 -0.21604 -0.32062 -0.12829 0.055457 0.049104 -0.49001 -0.17779 0.0455 0.19594 -0.024785 -0.003741 -0.23477 -0.17325 0.20585 0.089541 -0.30904 0.64272 -0.13016 0.23854 -0.23594 0.16399 -0.29904 -0.26452 0.16708 -0.21976 -0.14115 -0.18876 0.3296 0.2039 0.30002 -0.069846 -0.28792 -0.14743 -0.30349 0.18723 -0.19088 -0.11342 0.40468 0.1945 -0.18494 -0.19619 0.02958 -0.21286 -0.32806 -0.012701 -0.13443 0.083488 -0.35777 -0.033366 -0.0059689 -0.0055867 -0.31488 -0.33958 0.28433 -0.39192 -0.27385 -0.063094 -0.1357 0.13466 0.17788 -0.33712 -0.18738 -0.055043 0.36288 0.14173 0.034622 0.1042 0.30798 0.24387 0.16005 -0.14345 -0.30752 -0.31339 0.56164 -0.19105 0.1615 -0.29972 0.32587 0.096712 0.25962 0.27412 -0.0059309 0.00049275 -0.026137 0.16035 -0.27889 0.15293 0.19775 -0.35758 -0.2659 0.035782 0.12654 -0.11145 -0.079121 -0.20141 0.33416 -0.55794 -0.12013 0.71387 -0.24157 -0.45563 0.34273 -0.38048 -0.19414 0.40926 0.054967 0.35459 0.14089 -0.095047 0.59651 0.23978 -0.16547 0.39176 -0.25059 -0.38052 -0.14762 -0.12672 -0.07926 -0.31055 0.059518 0.014596 0.34613 -0.30898 0.13089 0.082094 -0.20338 -0.012255 -0.025424 0.35016 -0.15801 -0.0090731 -0.34081 -0.26745 -0.049863 -0.26428 -0.022429 -0.0018165 -0.40694 -0.29549 0.065179 -0.45404 -0.059491 -0.042849 -0.21592 -0.070927 -0.32291 0.30081 -0.075202 -0.14804 -0.063374 0.088315 0.28174 0.2488 -0.12452 -0.20657 -0.13002 0.10201 0.15156 -0.07172 0.53034 0.21155 -0.23699 0.13366 -0.16549 -0.40746 -0.094719 -0.29767 -0.38579 -0.12532 0.17722 0.063825 0.17538 -0.419 0.26657 -0.48637 -0.046025 0.1349 -0.19078 0.15414 -0.066347 -0.14096 0.057012 -0.057242 0.32326 0.15231 0.25933 -0.010695 0.12594 0.27871 -0.14839 -0.36834 -0.029234 -0.12725 -0.0013291 -0.54833 0.0077775 -0.052772 -0.11955 0.050711 0.29385 0.21776 0.1142 0.018892 0.20689 -0.23144 -0.76842 -0.25073 -0.0068412 -0.23707 -0.019738 -0.018272 -0.36237 -0.075804 -0.078076 0.071408 0.010293 0.13458 0.22326 0.02657 0.012945 0.040068 0.28084 0.31848 0.21833 0.079997 -0.09537 0.31485 -0.073339 -0.28046 -0.025215 0.11642 0.23336 -0.0075628 0.24498 -0.3914 0.1769 -0.12733 0.4153 0.090297 -0.015787 0.0043403 0.1492 0.33237 -0.35602 0.34161 -0.0017649 0.15115 0.18354 0.16918 -0.045213
fournaise -0.40509 -0.25254 -0.17216 0.048226 -0.26431 -0.00092703 0.1329 0.11013 -0.37613 0.29062 -0.25216 -0.36505 -0.54683 0.93152 0.15524 -0.11327 0.47707 0.01599 0.0070574 -0.076196 0.15493 -0.48797 0.24009 0.16596 0.089684 -0.089522 -0.020816 -0.31841 0.13779 -0.12201 0.093717 0.037241 -0.29506 -0.14682 0.059321 -0.028515 0.26501 -0.16176 0.11105 0.3702 0.073414 -0.2635 -0.039021 -0.35557 -0.42216 -0.38647 -0.048706 0.22424 -0.065287 -0.027709 0.20805 0.40458 -0.040736 0.16585 0.036435 -0.53194 -0.28508 -0.054456 0.1948 -0.25549 -0.21852 0.2846 0.28137 0.38541 0.14589 0.25871 0.17324 -0.033264 0.23528 -0.38843 0.028905 0.26064 -0.25089 -0.21179 -0.34367 0.21304 0.28125 -0.23515 -0.39823 0.17753 -0.13713 0.095715 -0.11745 0.24516 0.064289 -0.15367 -0.2615 0.20517 -0.24056 -0.44687 -0.4746 0.2163 -0.24705 0.25913 -0.60226 -0.16084 -0.23471 -0.24158 0.05667 -0.28971 -0.51432 -0.4782 0.44401 0.28058 -0.19325 -0.30991 -0.23903 -0.61855 0.16695 0.60904 0.085678 0.21137 0.22991 0.28744 0.45739 0.056541 0.208 0.30266 -0.29025 0.33593 -0.25904 0.28185 -0.2909 0.078733 0.281 -0.070484 -0.19122 0.12839 -0.1222 -0.13053 0.030327 -0.16505 0.47973 0.44693 -0.0080119 0.0078774 -0.0070021 0.2147 -0.35687 0.17509 0.18021 0.032533 0.1238 0.59901 -0.073557 0.17287 0.0055547 0.19436 0.34817 0.0014675 -0.40782 0.1659 -0.18487 0.2769 -0.34262 0.046518 0.44547 -0.14237 0.37954 0.12967 -0.071343 -0.21525 0.36087 -0.1425 -0.22563 0.6376 0.25995 -0.64024 0.19005 -0.33724 0.29776 0.20045 0.058676 0.46424 -0.12916 0.26041 0.21056 -0.28586 0.38449 -0.31947 0.024864 -0.28257 0.57478 -0.33389 -0.094103 0.25967 0.19551 -0.44778 0.28426 -0.17827 -0.59687 0.15428 0.22259 -0.29182 -0.1402 0.11973 0.12367 0.33188 -0.2265 -0.09796 0.2408 0.3946 0.12579 -0.1155 -0.27858 0.011792 -0.061172 -0.12 -0.19434 0.54985 0.080603 -0.058107 0.08757 -0.1989 -0.067509 -0.32312 -0.29219 -0.14265 0.23939 -0.063526 0.24857 0.1117 -0.39724 0.12911 0.27338 -0.2161 0.11817 0.14004 -0.15313 0.12626 -0.059297 0.21581 -0.12085 0.0086322 -0.010464 -0.42133 0.27403 0.54092 0.015608 -0.017095 -0.016847 -0.064866 0.095688 0.13428 -0.25025 -0.29411 -0.23162 0.20144 0.37723 -0.23821 0.47963 -0.12021 -0.020362 -0.33185 0.20091 -0.14683 0.45201 -0.21585 0.032979 0.016056 0.03021 -0.16775 0.066083 -0.25013 -0.32119 -0.31301 -0.028585 -0.047325 -0.14997 -0.10323 0.13868 -0.093117 0.043377 0.55047 -0.33445 -0.13528 -0.18121 -0.24497 -0.32216 0.048387 -0.2837 0.25226 -0.060401 0.3707 0.20192 -0.028077 -0.045541 0.025824 -0.14331 -0.28983 -0.028402 0.061176 0.11227 0.19129 0.089026 -0.39208 -0.13881 -0.30584 -0.072253 -0.2192
grimace -0.38032 -0.24066 -0.26562 -0.10432 -0.043154 -0.25343 0.11254 0.22065 -0.19795 0.026244 -0.37899 0.21367 -0.126 -0.28404 -0.24788 0.10069 -0.4262 0.19824 -0.090574 -0.34372 0.24585 -0.18561 -0.18737 0.48034 0.15461 0.014928 -0.14813 -0.48406 -0.032206 -0.083727 0.055186 -0.041275 -0.23902 0.29383 0.4001 -0.091548 -0.33975 -0.18197 0.5214 0.049171 0.10154 0.3271 -0.26371 -0.46525 0.46207 -0.18937 -0.018649 0.056542 -0.32333 -0.041794 0.067129 0.17254 -0.042392 0.50482 -0.13456 -0.34501 -0.29999 0.1252 0.11716 -0.043711 0.060217 -0.1664 0.16993 -2.1577e-05 -0.4595 0.16613 0.13151 -0.29079 -0.014658 -0.36646 -0.20009 -0.22326 -0.40402 0.15742 0.071864 0.083356 0.14722 0.51959 0.070968 0.11014 -0.14019 -0.041164 0.040713 -0.28285 0.11063 0.379 -0.27623 0.32518 -0.24713 -0.35461 -0.53794 0.017115 -0.3854 -0.21509 -0.019388 -0.16004 0.021215 0.07768 -0.36539 -0.34652 -0.11215 0.21282 -0.32958 0.10543 -0.3084 -0.37179 -0.29621 0.0048544 -0.036094 0.29849 -0.25444 0.02966 -0.212 0.33713 -0.0079474 0.11479 0.33776 0.28369 -0.33029 0.13088 0.30285 0.095554 0.0096051 0.22521 -0.031408 -0.24308 -0.30434 -0.2777 0.24466 -0.070787 -0.39996 0.13368 0.070366 0.40389 0.3678 -0.13784 0.2284 0.14751 -0.10177 0.15692 0.008086 -0.22944 -0.1392 0.084871 0.19463 0.2164 -0.13837 -0.098308 0.38273 0.010014 0.0087174 0.59815 -0.2801 -0.088844 0.15452 0.24826 0.31195 0.06408 -0.14898 0.34745 0.12398 -0.36825 -0.19873 0.32594 -0.089787 0.24268 0.12871 -0.25158 -0.047223 -0.25402 -0.15274 -0.66526 -0.20672 0.41955 -0.30134 0.13243 0.14029 -0.1678 0.13729 -0.46448 0.16579 -0.36574 -0.13097 -0.15722 0.49124 0.10889 -0.14964 0.012027 -0.17771 -0.093653 0.00085577 -0.06592 -0.15253 -0.16842 0.13017 -0.18257 0.1049 -0.046071 -0.19721 0.11997 -0.064567 0.38919 0.15807 0.217 -0.44968 -0.14174 0.24886 -0.047173 0.18805 0.18481 -0.0045772 0.28631 -0.17668 -0.40438 -0.42176 0.069971 0.18227 -0.1044 0.073716 0.45028 -0.32454 0.28997 0.095848 0.086331 -0.22185 0.23457 -0.13692 -0.0052614 -0.52691 0.10097 0.20723 0.070276 0.39782 0.52152 -0.28177 -0.061792 -0.38035 -0.11952 -0.24552 0.15148 -0.31578 0.27022 -0.20439 -0.14622 -0.14188 -0.14736 -0.029911 -0.060563 0.33388 0.017632 -0.14577 -0.20409 -0.089027 0.29985 0.23652 -0.15446 0.3225 -0.3053 0.4926 0.056374 -0.14757 -0.14344 0.22936 0.072362 0.023724 -0.05287 -0.050414 0.041726 0.093326 -0.086243 0.060669 -0.13446 0.36446 -0.0099028 -0.45569 0.23536 0.43501 -0.37799 -0.38327 -0.30377 -0.16185 -0.44886 0.12548 -0.10878 0.0038864 0.13961 0.037792 0.13294 0.0011917 -0.12205 -0.13483 -0.14979 0.18715 -0.39571 0.23745 0.088982 -0.19294 0.21877 -0.012718 0.31455
gars 0.06464 -0.091837 -0.39675 0.34366 0.12026 -0.2597 0.079845 -0.17748 -0.37133 0.13051 -0.3174 0.31985 -0.16515 0.33435 -0.30594 -0.35282 0.23005 0.061731 -0.35545 0.0422 0.013238 -0.082941 0.14448 0.56752 -0.1614 -0.060706 -0.053644 -0.19047 -0.41438 -0.25152 0.38297 -0.13189 0.19905 0.23108 -0.15283 0.14003 -0.068212 -0.39291 -0.058934 0.26335 -0.10673 0.017502 0.34291 -0.34192 0.10379 -0.35666 -0.21722 0.10545 -0.11485 0.20293 0.13598 -0.18161 0.30293 0.53252 -0.0080823 -0.33314 -0.54892 0.17755 0.47857 -0.18291 0.15801 -0.012497 0.41965 0.051513 -0.19679 0.085786 0.077738 0.44579 0.33481 -0.04388 0.21467 0.24782 -0.23459 0.17433 -0.32322 0.37209 0.23107 0.20367 -0.20206 0.052471 0.038431 0.00010386 0.29867 -0.44014 0.03846 0.22442 0.060572 0.24265 -0.13499 -0.40387 -0.29915 0.1051 -0.1973 -0.27006 0.33641 0.084016 -0.22884 0.24428 -0.1459 -0.78463 -0.004558 -0.20909 -0.16814 0.3121 0.13791 0.26973 -0.22521 0.18941 -0.23041 0.18099 0.19474 -0.12215 0.19836 0.33294 0.31218 -0.16702 0.23086 -0.044747 0.23845 0.15551 -0.060414 -0.18773 -0.041107 -0.17565 -0.33444 -0.16975 -0.043127 0.055599 -0.062454 0.10808 -0.47007 0.22192 0.054692 0.10061 -0.12839 -0.62799 0.43003 0.0625 0.1367 0.15533 0.009713 -0.27615 0.11554 0.49651 0.11046 -0.063885 -0.31474 0.24375 -0.04078 -0.085994 0.043343 -0.2174 -0.10995 -0.043123 0.25993 -0.19759 0.40517 0.15929 -0.24007 0.31985 -0.19674 0.1047 -0.24529 -0.13901 -0.32351 0.24129 0.25305 0.16046 -0.4371 -0.28363 0.25945 -0.27597 0.11874 -0.29288 -0.22213 -0.24093 -0.12225 -0.32391 0.1419 -0.26033 0.33964 -0.59909 -0.071476 0.24764 -0.13632 -0.1191 -0.23171 -0.039016 0.48171 -0.035973 -0.12151 0.30593 0.08209 0.085575 0.13671 -0.30951 -3.4023e-05 0.082222 -0.34275 0.29026 -0.14287 -0.26261 0.23826 0.11819 -0.34422 -0.23441 0.038951 0.23551 -0.06929 0.20776 0.1626 0.087633 -0.044781 0.039173 -0.068768 -0.12486 0.19244 0.013423 -0.16593 0.2558 0.054598 -0.018662 -0.39498 -0.12488 0.010764 0.11387 0.049433 -0.19181 -0.4885 0.030112 -0.009604 -0.13068 -0.26499 -0.23554 -0.43741 -0.13178 -0.095413 -0.067832 0.12924 -0.0453 -0.10948 -0.056072 0.013339 0.060472 0.12057 -0.10544 0.11061 0.024839 0.031803 -0.082932 -0.21439 0.10369 0.03579 -0.47236 -0.0012002 0.12902 -0.073831 -0.27604 0.097173 0.5698 0.072681 0.05378 -0.35367 0.36467 0.03033 0.011418 0.30115 -0.2733 0.14753 0.3699 0.10135 -0.14597 0.11876 -0.19712 -0.25468 0.19726 0.31345 -0.61101 -0.017572 -0.29104 -0.044421 0.17158 0.18828 -0.37741 -0.28955 0.44601 0.054136 0.25439 -0.040618 0.0025153 -0.055106 -0.35134 -0.013892 -0.32023 0.19424 0.075572 -0.10299 -0.13158 -0.16387 -0.015058
cimetière -0.21962 0.23479 0.087124 -0.070788 0.17027 0.39038 -0.41258 0.32973 -0.24899 0.12119 -0.12476 -0.27256 -0.50606 -0.13108 0.29399 -0.10039 0.45448 -0.80125 -0.11155 -0.60696 0.40715 -0.3774 -0.22772 -0.43443 -0.53514 -0.081747 0.030908 -0.0488 0.092991 0.19217 0.27285 0.74707 0.061374 0.51362 0.026391 0.077088 -0.012986 -0.39847 0.20003 0.019298 0.53967 0.3107 0.088199 -0.0060733 0.33884 -0.33096 -0.1442 -0.072566 0.27359 0.45522 -0.15555 0.12566 -0.32125 0.24699 0.11444 -0.19843 -0.37596 0.039672 0.14417 -0.068765 0.034811 0.2791 0.076576 -0.19808 0.26371 0.070061 0.009363 0.11854 0.024 -0.32431 -0.0057352 0.38031 -0.17752 0.0025128 -0.14801 -0.25473 0.11802 0.0074432 0.34953 -0.36904 -0.64643 0.10791 -0.30234 0.14191 0.36503 -0.16972 -0.38074 0.068875 -0.17537 0.20288 -0.39521 -0.20104 -0.13733 0.10145 0.30531 -0.081051 0.45312 -0.012037 0.34773 -0.84914 -0.17352 -0.51867 0.21134 -0.10179 -0.37069 -0.1336 -0.20178 0.0045629 -0.088602 0.18781 -0.35359 -0.12803 0.065122 0.36372 0.24243 -0.21131 0.30713 -0.35308 -0.57755 0.15977 -0.12236 -0.097362 -0.73431 -0.0033509 0.28594 -0.034774 0.12053 0.24018 -0.68724 0.36411 -0.26069 -0.10273 0.22673 0.030898 0.25547 -0.38164 0.01401 0.32373 0.21151 -0.16911 0.087096 -0.24547 -0.025751 0.18347 -0.34306 -0.37995 -0.52564 0.79644 1.0048 0.60069 0.13644 -0.0046589 0.69307 0.058796 -0.25558 0.11259 0.16155 0.36158 0.33323 0.60804 0.025874 0.060256 0.15269 0.31763 -0.42123 -0.26539 0.38224 -0.083746 0.31802 -0.12769 -0.21456 0.24697 0.044563 -0.015523 -0.035108 -0.32583 0.25665 0.2894 0.014746 -0.14454 0.15329 -0.19908 0.20639 0.261 -0.076168 -0.11358 0.21022 0.084993 0.2014 -0.73904 -0.37344 0.54569 0.33406 -0.068697 0.033534 0.10727 0.17235 0.22693 -0.41414 0.034967 0.54164 -0.47183 -0.068196 0.13526 0.2629 -0.1283 -0.26721 0.24039 0.071542 0.038917 0.03141 -0.17569 0.35572 -0.30664 0.17337 -0.16967 0.19606 0.093681 -0.013967 0.15353 -0.13723 -0.87108 -0.23498 -0.2894 0.52706 -0.15553 0.019025 0.16769 -0.13186 0.10479 0.16269 -0.32407 0.24677 -0.073323 0.1708 -0.38233 0.081796 -0.070179 -0.032668 0.31351 0.25159 0.35798 -0.17742 0.19406 -0.068377 0.2334 -0.34228 0.28893 -0.048754 -0.26881 -0.025896 0.096803 0.045966 0.085307 0.64971 -0.20946 0.20703 0.052887 0.064701 -0.14981 0.055673 -0.48226 0.60925 -0.14562 -0.11026 0.22753 0.17875 -0.16783 0.0956 0.25602 -0.2429 -0.1181 0.067104 0.16018 -0.50662 -0.23358 -0.29917 -0.51648 0.18978 0.45688 -0.16889 -0.087398 0.12894 0.50791 0.22403 0.066597 -0.24881 0.30498 -0.03138 -0.17555 -0.13089 -0.074949 0.44184 0.51807 -0.087536 0.20273 -0.097819 -0.12891 -0.08899 -0.050673
bois -0.37897 0.15536 -0.324 -0.16184 0.5908 0.28827 0.021808 -0.051428 -0.35365 0.096891 -0.36335 0.010309 -0.28006 0.46396 -0.057303 0.17697 -0.065176 -0.16451 -0.28382 -0.36736 0.20423 -0.082675 0.33233 0.052793 0.049978 0.025493 -0.035749 -0.053653 -0.26882 0.1954 0.46847 0.16401 0.041407 -0.078963 0.28409 0.13503 -0.35751 -0.20975 -0.075019 -0.03308 -0.066004 0.13868 0.076728 0.29223 0.45853 -0.34724 0.16591 -0.066569 0.10256 0.24066 -0.14406 -0.003882 -0.31272 0.48478 0.11384 -0.14079 0.30072 0.14969 0.22247 0.088285 -0.23827 0.19266 0.074492 0.59701 -0.18925 -0.011842 0.12213 0.070516 -0.16805 -0.40293 0.23253 0.4179 -0.054549 -0.25389 -0.36623 0.19295 -0.011256 -0.018832 0.27127 -0.55417 -0.26303 -0.17452 0.076104 -0.17921 0.41157 0.21284 -0.14339 0.52808 -0.34827 0.058709 -0.25251 0.38303 -0.16956 0.17017 0.31466 -0.063107 -0.16201 -0.15167 0.13803 -0.13397 -0.40181 -0.11947 0.29713 -0.053658 -0.042818 -0.16689 -0.0077983 -0.036145 -0.11711 0.044986 0.12832 0.014163 -0.15072 0.24358 0.10958 0.36797 0.2279 -0.19434 0.40058 0.11295 -0.32956 -0.38745 -0.26519 0.19239 -0.036168 0.019928 -0.1046 -0.017604 -0.26041 0.014699 -0.58713 -0.028236 0.39112 -0.40383 -0.042842 -0.20592 0.095654 0.41 0.46929 -0.20754 -0.22863 0.40584 -0.023268 -0.16501 0.41935 0.18667 -0.081216 0.022128 0.094497 0.20764 -0.1728 0.11919 -0.29759 -0.16817 -0.19055 -0.097851 -0.11263 -0.12849 0.18347 0.11921 -0.46421 -0.26355 0.26089 0.35684 0.20932 0.068484 0.12841 0.082418 -0.1183 -0.043072 -0.075712 -0.050702 -0.053257 -0.1596 0.537 0.2046 0.13978 -0.14353 0.29233 0.087606 -0.23095 -0.093504 0.11488 -0.075836 -0.40319 -0.0051254 0.32145 -0.33831 0.0037936 -0.47267 -0.03959 0.10811 0.01936 -0.062005 -0.049218 -0.021897 0.064015 0.14778 -0.46209 0.54762 -0.24883 0.11736 0.053609 0.14695 0.15679 -0.32512 -0.48468 -0.16548 -0.64242 0.086257 0.23973 -0.12708 0.38266 -0.31016 -0.30205 -0.14043 0.014382 -0.014653 -0.062705 0.20673 0.22121 -0.50057 -0.13674 -0.33699 -0.034583 0.064445 0.14242 -0.14715 0.27526 -0.22567 -0.32991 -0.38597 -0.15792 0.050815 0.065336 -0.66724 0.031784 -0.10362 -0.12382 0.055249 -0.26383 0.28895 -0.21875 -0.015698 -0.12525 -0.10737 -0.38222 0.17449 0.42313 0.10567 0.17126 0.019524 0.099554 0.069994 0.097896 -0.11517 -0.34814 -0.49377 0.060838 0.19386 -0.12364 -0.51938 0.4407 0.2119 0.49144 -0.32894 -0.092824 -0.39004 0.065412 0.13653 -0.31218 0.34839 0.21151 0.03609 0.045107 -0.45921 0.042322 0.17556 -0.27055 -0.17767 0.14193 0.20236 0.2002 0.11922 -0.23199 0.40872 0.3401 0.1165 0.14995 -0.14929 0.064772 -0.15472 0.13365 0.43506 -0.10634 -0.39499 -0.34581 0.22037 0.041915 0.18666
coussin -0.06661 -0.16668 -0.228 0.026534 0.09008 0.021226 0.57263 0.089924 -0.30871 0.50089 -0.31171 0.32806 -0.3343 0.13651 0.11448 -0.10533 -0.21558 -0.34657 -0.034823 -0.51813 0.0081256 0.096998 -0.065417 0.44028 -0.48661 -0.040267 -0.077518 -0.22141 0.40377 -0.18445 0.18082 0.020762 0.15377 -0.080186 -0.22485 0.57448 0.20297 -0.36489 -0.13784 0.013253 -0.32863 -0.053341 0.04523 0.3575 -0.085211 -0.19717 -0.043895 -0.37279 0.064413 -0.039357 -0.45317 -0.14347 0.083608 0.43786 -0.010941 -0.26349 -0.47846 0.28622 0.11551 0.042755 -0.080677 -0.023833 0.25286 -0.19917 -0.56791 0.028276 -0.085238 0.087482 -0.13741 -0.45107 -0.064358 -0.16998 0.020113 0.23835 -0.20436 0.48203 0.23135 0.43793 -0.11022 -0.10367 -0.34064 -0.11574 0.046067 0.28262 -0.147 -0.18138 0.085208 -0.10633 -0.32773 -0.59176 -0.55475 0.57938 0.029634 0.10601 -0.034194 -0.51949 -0.094685 0.0827 -0.07734 -0.19371 0.50147 -0.15706 0.11393 -0.081915 0.3928 -0.0040882 0.15256 -0.33043 -0.17315 0.2609 -0.20291 -0.49816 0.43353 0.4671 -0.074008 0.25609 0.59402 0.086352 0.36096 0.3122 -0.18887 0.11258 -0.5858 0.50979 0.11267 -0.23866 0.044676 -0.37157 -0.29493 0.29259 -0.42107 0.11733 -0.00121 -0.0069719 0.28268 0.13971 -0.38839 0.063061 0.096193 -0.086822 0.03228 0.053844 -0.13649 0.28869 0.028284 0.50412 0.14726 0.07194 -0.064431 -0.14635 -0.14558 0.24766 0.24065 0.11746 -0.23083 -0.25014 0.52875 -0.011153 0.35631 0.2199 -0.18638 -0.60483 0.51344 -0.61621 -0.18712 0.27922 0.17916 -0.21115 0.29051 -0.37665 -0.106 -0.38717 0.092266 0.015608 0.17347 0.68617 0.18406 -0.27083 0.029415 -0.15057 0.20845 -0.021823 -0.32246 -0.42493 -0.29749 0.25209 0.15728 -0.3666 -0.59569 0.22061 -0.18694 -0.018425 0.5527 -0.21674 0.17393 -0.19582 -0.0039538 0.046493 0.078129 0.28854 0.24868 0.265 0.18731 -0.043583 -0.76511 -0.37398 -0.17161 -0.06357 0.068707 0.034897 0.012172 0.17711 0.048901 -0.15985 -0.38925 -0.3194 0.068355 -0.29614 0.12382 -0.30882 -0.1554 -0.039607 -0.21588 0.059284 -0.01874 -0.32289 -0.10593 -0.22747 0.41975 -0.27485 -0.028141 -0.14923 0.30977 -0.048625 -0.012179 -0.015589 -0.037734 -0.087293 0.026467 -0.070374 -0.31042 -0.00050043 0.33595 -0.0028122 -0.092881 0.041848 -0.36327 -0.40389 0.21216 0.024547 0.080886 -0.12441 0.18968 -0.0061054 0.12872 -0.48861 -0.021138 0.075932 0.02818 0.067981 -0.096971 -0.24443 0.27715 0.21565 -0.33655 -0.23319 0.32864 -0.29905 0.10858 0.3949 0.26373 0.11688 0.2207 -0.61083 0.36181 -0.024662 0.14966 -0.23993 -0.033503 0.36979 0.060189 0.23401 -0.28606 0.064253 -0.20015 -0.12642 -0.59077 0.015342 -0.0098732 -0.14273 -0.064171 0.21096 0.12237 0.10452 0.063738 0.23672 -0.034338 0.017029 -0.12601 0.37985
bijou -0.56239 0.10465 -0.023478 0.20975 -0.2143 0.077184 0.06462 0.28053 -0.42696 0.17059 -0.30393 0.2806 -0.1105 0.20086 -0.27422 0.019384 -0.11342 -0.070753 -0.44866 -0.66771 0.24825 0.12192 -0.20102 0.15395 -0.26148 -0.27959 -0.072143 -0.20618 -0.32745 0.29323 0.002338 0.31691 0.080705 0.18061 0.20283 -0.083287 -0.34797 -0.075791 0.35204 -0.11319 0.034428 0.2333 0.031027 -0.0010919 0.28173 -0.38407 0.47056 0.076117 -0.13759 0.082421 -0.43453 -0.40877 -0.27804 0.38157 0.30466 -0.20294 0.078746 0.41703 0.33558 -0.25518 -0.58367 -0.078274 0.18125 0.2663 -0.0030747 0.030537 -0.08677 0.12812 -0.21957 0.11255 0.26223 0.026117 -0.37315 0.13399 -0.14045 0.35492 0.1439 0.31927 0.29333 0.41291 -0.43547 -0.17465 -0.0070344 0.047527 0.24561 0.29848 0.087501 0.084417 0.032259 -0.30667 -0.037719 -0.18512 -0.6059 -0.033259 0.13204 -0.14653 0.16598 0.018512 -0.1895 -0.27414 0.25896 -0.16407 -0.015099 -0.077073 -0.41439 0.05253 0.10959 -0.34308 0.13905 -0.093924 0.16529 -0.34195 0.19005 -0.07461 0.19437 0.18045 0.057891 0.067562 0.42746 0.16126 0.10413 0.23994 -0.038878 0.15134 -0.23812 -0.30513 0.15231 -0.48885 0.32 0.34041 -0.43587 0.37931 0.24392 -0.057417 -0.14981 0.033224 0.047755 0.40604 -0.158 -0.231 -0.10105 -0.13849 -0.19459 0.18816 -0.10381 -0.1382 -0.12894 0.12775 -0.23885 0.5773 0.063562 0.27536 -0.059521 -0.0048159 0.1289 -0.37661 0.11643 0.096715 0.095398 0.45073 -0.44575 -0.35956 -0.049696 -0.17668 -0.046685 0.42433 -0.016681 -0.24885 0.40708 -0.1915 -0.10921 0.028834 0.12117 -0.16258 0.21765 -0.061631 0.12995 -0.47548 0.15295 0.35897 -0.0039152 0.097077 0.32742 -0.018295 0.25639 0.11303 -0.32378 0.10296 -0.3296 -0.032557 0.044828 -0.12184 0.10312 -0.23683 0.067607 0.20655 0.17003 -0.17337 0.0021152 0.092226 0.35967 0.20497 -0.016734 -0.31562 -0.49454 -0.1395 -0.12091 0.19385 -0.16514 0.28239 0.060832 0.36897 0.056677 -0.33204 -0.086329 0.031352 -0.0070267 -0.038852 0.12459 0.053295 0.12484 -0.099969 0.1067 0.23679 -0.13751 -0.2102 0.33378 0.11938 -0.006707 -0.11844 0.30652 0.50666 0.16032 -0.23454 -0.11182 -0.26658 -0.31529 -0.29119 -0.37828 0.18281 -0.70239 -0.10327 -0.24233 0.062635 -0.046924 0.052363 -0.016206 0.029733 0.087315 0.23175 -0.061843 -0.016983 -0.1029 -0.54436 -0.28644 -0.45456 -0.13214 -0.3391 0.10285 -0.098374 0.13741 -0.15794 0.15112 0.30506 -0.015852 0.22414 0.066766 -0.12504 0.37508 -0.04477 -0.60437 -0.24207 0.3118 0.031119 -0.096417 -0.28881 -0.026916 -0.66273 -0.32865 0.17425 0.21667 0.040139 -0.048837 0.36595 -0.19749 0.16305 -0.49097 0.047971 0.11371 0.1149 -0.12893 0.021967 0.41452 -0.14966 -0.036227 -0.051872 0.029356 -0.18357 -0.0053137 0.27744
moine 0.3529 0.0069135 -0.74641 -0.2599 -0.087322 -0.020066 -0.0068103 0.24293 -0.28486 0.31286 -0.020369 -0.27745 0.18492 -0.0047606 -0.57028 -0.0061133 0.0051063 -0.16908 0.31844 -0.53466 -0.047303 0.33206 -0.0071623 0.49893 -0.30466 0.051997 -0.46123 -0.24781 -0.34534 -0.23416 0.56553 0.10918 0.29478 0.16931 0.58047 -0.043997 -0.40228 -0.20349 0.44034 -0.18973 0.14423 -0.098766 0.33897 -0.057973 0.07197 -0.35978 -0.55354 -0.033536 -0.071336 0.23217 0.11766 -0.018398 -0.18821 0.14448 -0.16465 -0.38437 0.23828 -0.56693 -0.31181 -0.61797 -0.13954 0.080399 -0.040716 0.18075 0.40956 -0.026158 0.26253 0.20071 -0.087025 -0.29723 -0.01504 0.032615 -0.70083 0.53102 0.024006 0.30923 0.4362 0.17591 0.11347 0.22558 0.090794 -0.25272 0.24788 0.48319 -0.036362 -0.22749 -0.35427 0.32295 -0.27039 -0.15655 -0.13996 -0.08848 -0.1614 0.079771 0.38452 -0.28336 0.022922 0.15419 -0.41082 -0.22236 -0.36844 0.36205 -0.049936 0.067921 -0.086678 0.065709 -0.10087 0.054513 0.14743 -0.013213 0.41197 -0.14544 -0.060696 0.19751 0.15482 0.19297 0.2797 0.14326 -0.36246 0.093723 0.30295 0.28045 -0.81052 0.10692 0.051437 0.21526 0.11938 0.064171 -0.0075542 0.14143 -0.066321 0.072927 0.12714 0.091971 -0.11543 -0.053709 0.0088858 0.44626 0.33434 -0.30769 -0.1155 0.067381 0.6413 -0.52058 -0.024202 0.22268 0.25406 0.21046 0.191 -0.20901 -0.38279 0.27633 -0.27522 0.087194 -0.085998 0.041211 0.24347 0.12199 0.274 0.35717 -0.14596 0.23805 0.053292 0.22879 -0.31472 0.34446 0.15385 0.057957 -0.03659 0.11127 -0.34862 -0.19733 -0.070048 -0.012391 0.1468 -0.078971 0.39125 -0.085316 0.39202 -0.054027 -0.20105 -0.13365 -0.3549 0.22918 -0.073495 0.43176 0.14461 0.066891 0.35243 0.17588 -0.33427 0.076425 0.36677 0.17344 0.29408 0.35102 0.13187 0.15961 0.032854 0.53115 0.64099 0.24687 0.25152 -0.21424 -0.16365 -0.086368 0.26188 -0.26276 -0.12007 -0.14971 0.018455 -0.12555 0.026882 -0.10683 0.057341 -0.10041 0.070466 -0.38647 -0.14339 -0.023466 -0.31118 -0.25457 -0.010479 0.026656 -0.058494 -0.1253 0.094972 0.29893 -0.6198 -0.21896 0.078342 0.052227 -0.0188 -0.31508 -0.33204 -0.3746 0.40241 -0.25231 0.13176 -0.082078 -0.23006 -0.1465 0.078907 0.11596 -0.28669 0.081815 0.47878 -0.16767 -0.060471 -0.47017 0.15973 0.014638 0.026292 0.64866 -0.52715 -0.22855 0.56161 -0.56402 -0.36985 0.1818 0.52719 -0.29603 -0.0012769 0.52864 0.1379 -0.23431 -0.23698 -0.28422 -0.27965 0.054365 -0.28406 -0.30105 -0.1116 0.21657 -0.6527 0.29614 0.13161 0.026403 0.092879 0.30716 -0.26116 0.34954 -0.02226 0.088122 -0.13831 0.39512 0.52653 0.15363 -0.059559 -0.40081 0.095008 -0.087196 0.042284 -0.0074695 0.21745 0.082305 0.077052 -0.057513 -0.21832 0.36699
esclave -0.036239 0.2516 0.035802 -0.19214 -0.014576 -0.079352 0.1622 -0.091915 -0.48942 0.31803 -0.33246 0.024881 -0.1536 0.070684 -0.26338 -0.03976 0.18111 0.27136 0.078062 0.046947 0.46308 -0.48527 0.17837 0.017026 -0.33854 -0.45718 0.15704 -0.28769 0.091757 -0.198 0.30959 0.2299 0.16196 0.17165 0.098457 -0.28 -0.33631 -0.046164 0.64966 -0.13676 0.37442 0.073925 -0.12141 -0.12403 -0.031716 0.18583 0.040811 0.42309 -0.067425 -0.21935 -0.35252 -0.53733 0.088453 -0.20447 -0.05791 0.02473 0.070678 -0.011327 0.41577 -0.17781 -0.28632 0.21555 0.63584 0.45751 0.40499 -0.077938 0.17283 0.19482 -0.015407 0.02195 0.14165 0.059462 -0.71182 -0.11545 -0.10566 -0.29752 0.0014933 0.22756 -0.46825 0.046507 -0.31255 -0.11121 -0.0065378 0.31302 0.055756 -0.33689 -0.15663 0.56183 0.057835 0.10877 -0.60346 0.23103 -0.46425 -0.03405 -0.27561 0.080748 -0.20559 -0.091526 -0.14302 0.35149 0.38461 -0.35753 0.10253 0.1777 -0.091261 0.33293 0.28794 -0.48209 0.053507 0.2352 -0.12695 0.27667 0.059212 -0.17566 0.39819 0.071895 0.23455 0.07682 -0.35087 -0.1074 0.38673 0.00047587 -0.25168 0.093017 0.25111 0.39185 -0.12001 -0.9301 -0.055919 0.016165 0.015297 0.24166 -0.16784 0.11554 -0.074494 0.084744 -0.19392 0.41299 -0.0078132 -0.11908 0.2682 -0.14009 -0.089417 0.21151 0.70823 0.045471 0.10041 -0.26538 -0.045516 0.00031269 -0.22744 -0.20797 -0.32195 -0.0060813 0.3227 0.050877 0.57163 -0.11923 0.29649 0.32372 -0.050951 0.065664 0.33187 0.48358 0.31275 0.18744 0.34177 0.16808 -0.53051 -0.33868 0.18273 -0.28566 -0.15834 0.0035566 0.49221 -0.20039 -0.010815 -0.26332 0.43701 -0.18031 -0.2344 -0.075906 0.23867 0.18311 -0.11235 0.086114 0.057569 -0.31576 -0.54659 -0.12107 -0.034997 0.019747 0.18445 -0.12714 -0.032913 0.23334 0.05144 0.16629 -0.24108 -0.0028551 0.17799 0.11787 -0.061498 0.097951 -0.22872 -0.13084 -0.21536 -0.081105 -0.048823 -0.2053 0.27963 -0.12485 0.17625 -0.42317 0.10581 -0.29991 0.50825 -0.66688 -0.038467 0.15983 0.39155 0.17817 0.068037 0.26146 0.068676 -0.36043 0.43179 0.14642 -0.36829 -0.29265 0.094768 -0.11191 0.3615 0.20019 -0.4023 0.12209 0.13298 -0.027892 -0.24559 0.25054 -0.77848 -0.08145 0.0068979 -0.070155 -0.31108 -0.52346 -0.048356 -0.2127 0.063835 0.27022 -0.096768 -0.10035 0.045996 0.24731 -0.2484 -0.23239 0.042307 -0.28889 0.3402 -0.1457 0.40205 -0.058144 0.0039132 -0.014548 -0.0029274 0.10313 0.10248 -0.025478 0.061782 0.00094695 0.032573 0.47775 0.12326 0.21392 -0.46022 -0.088285 0.3133 -0.77356 -0.33788 -0.44587 -0.1318 0.27936 -0.019671 0.45539 -0.21697 0.034955 0.41609 0.01123 0.048062 0.0033556 -0.18246 -0.094223 -0.38414 0.13327 0.11958 0.30377 -0.40158 -0.12174 -0.64321 0.18424
monticule 0.36776 0.21599 -0.2899 0.24497 0.23839 0.13367 -0.29853 0.11331 -0.5098 0.0079827 -0.44373 -0.16321 -0.45664 0.40553 -0.16056 -0.43043 -0.31013 -0.37932 -0.31754 -0.22517 0.30404 -0.19746 -0.024451 0.030778 -0.37849 -0.17601 -0.054682 -0.10876 -0.063696 -0.27139 0.46421 0.14665 0.35263 0.14724 0.40624 -0.077537 -0.019127 -0.50144 -0.47591 -0.2302 0.095209 0.09552 -0.11618 0.22874 -0.45343 -0.31117 -0.31105 0.037384 -0.048484 0.28941 -0.33955 -0.039696 0.42788 0.014191 0.27763 -0.20011 -0.088755 0.043101 -0.26621 -0.14912 -0.026813 0.35585 0.13996 -0.060319 -0.14274 -0.33122 -0.16581 0.25606 0.060545 -0.45267 0.20311 0.054224 -0.26473 -0.24417 -0.235 0.00031488 0.36398 -0.0015804 -0.025919 -0.26479 -0.67799 0.16157 0.010579 0.34528 -0.052808 0.27339 -0.24851 0.15162 -0.29628 -0.52852 -0.27985 0.83612 0.17852 -0.0046254 -0.32422 -0.28783 -0.2552 -0.25697 0.47656 -0.3793 0.096028 -0.72427 0.17196 0.41528 0.2884 -0.17977 0.055095 -0.26201 0.10642 0.3781 -0.12967 -0.35255 0.69353 0.17314 -0.063537 1.4585 0.37787 0.017969 0.018056 -0.16499 0.43776 0.26001 -0.69939 0.33723 0.013429 -0.19709 -0.21274 0.25518 -0.31231 0.15929 -0.62784 -0.13031 0.021138 0.41911 0.23487 -0.076386 -0.35581 0.018124 0.48745 -0.20116 0.075181 0.45385 0.38821 0.49187 -0.14704 -0.060199 -0.11581 0.4869 0.71401 0.38736 0.53443 0.35562 0.34942 0.23585 -0.26328 -0.32434 0.36033 0.23747 0.18205 0.1557 -0.43952 -0.35493 -0.085344 -0.038472 -0.00065559 0.15816 0.17726 -0.14471 0.35083 0.11708 -0.092023 -0.50723 -0.31043 0.24537 0.36771 0.53234 0.015335 -0.072173 0.035941 -0.014817 0.0067574 -0.49326 -0.15653 -0.070369 -0.086923 -0.26828 -0.051208 0.17507 0.2583 0.33979 0.033735 -0.042245 0.12214 0.33585 0.098203 0.10391 -0.1734 0.37301 -0.039981 0.24763 0.38991 0.15125 0.090331 -0.21586 -0.42686 -0.33624 -0.28554 0.12051 0.074216 0.055426 -0.055207 0.36003 0.13216 -0.34347 -0.21606 -0.29593 -0.16916 -0.45039 -0.069322 -0.14773 0.032382 -0.27346 -0.23993 -0.26503 0.22577 -0.32092 0.2468 -0.010489 0.13731 0.05376 0.24089 0.051592 -0.20207 0.19196 0.17413 0.18803 -0.10252 0.24857 0.12624 0.30384 -0.0082989 0.13279 0.16943 -0.35473 0.020476 -0.087704 -0.26167 -0.11954 -0.09611 -0.10778 -0.16019 -0.042479 0.32151 0.12102 0.14597 0.070575 0.11488 -0.14333 -0.2195 0.33991 -0.0062541 -0.4513 0.21401 -0.13777 -0.26766 -0.33051 0.019443 -0.02691 -0.20552 0.35113 -0.065784 -0.023102 0.072454 0.42105 0.073171 0.27886 0.25068 -0.038131 -0.35744 0.68004 0.095966 0.22582 -0.14239 0.16283 -0.27729 -0.14423 -0.035401 0.31264 -0.30719 0.084939 0.28659 -0.14561 -0.18432 -0.16162 -0.26661 0.064991 -0.28708 0.20709 -0.15018 -0.17231
rivage 0.054485 0.19712 -0.51219 -0.12299 -0.33391 0.35381 -0.43443 0.44724 -0.42975 0.12045 -0.4215 0.11409 -0.0060308 0.043794 -0.082126 -0.022604 -0.0031796 -0.37998 -0.20092 -0.087713 0.18641 0.2222 0.052894 0.31648 0.13275 -0.2169 0.30496 -0.12028 0.22051 0.19202 0.19019 0.2932 0.097702 0.26197 0.2044 0.36809 -0.33792 0.069917 0.053139 -0.1181 0.056542 0.0062854 0.066369 -0.27042 -0.4171 -0.0077131 0.31818 -0.13205 0.0017664 0.30483 0.21298 0.093807 -0.020866 0.62099 -0.24825 -0.031288 -0.1053 0.24493 0.13578 -0.58311 0.12185 0.34316 0.22817 0.095075 -0.076819 0.089722 0.51069 -0.095855 -0.17842 0.090276 0.24045 0.020658 0.0029802 -0.042988 -0.59122 0.25729 -0.099133 0.33021 -0.40345 -0.27822 0.0038645 0.060713 0.018114 0.0024044 0.085181 0.04731 -0.13693 0.23197 -0.19944 -0.09234 -0.65013 0.41327 0.13669 0.2319 0.095496 0.34269 0.060721 -0.20984 0.27376 -0.46908 -0.32454 -0.019282 0.13684 0.068634 -0.080882 -0.24004 0.27239 -0.37244 -0.069166 0.17955 0.21324 -0.55035 0.28235 -0.015315 -0.24704 0.20745 0.65764 0.017259 -0.050763 0.37385 -0.016377 0.47823 -0.11975 -0.40597 0.010154 -0.20457 0.22558 0.11663 -0.28406 -0.12119 -0.072597 0.16349 0.17949 0.10223 -0.068145 -0.028808 0.059814 -0.035663 0.11281 -0.49139 0.21319 0.014394 0.37413 0.098001 -0.065801 -0.028355 -0.023026 0.047725 0.16033 -0.20778 0.044352 -0.08396 -0.30684 0.13497 0.15344 -0.26455 0.33683 0.28148 0.33402 0.38216 -0.45047 0.10705 0.28348 0.26731 -0.16507 -0.10686 0.18406 -0.2624 0.16453 0.11085 -0.37797 -0.12867 -0.099678 0.42442 -0.072286 0.20116 -0.072673 -0.15855 0.031578 -0.19774 0.16899 0.18559 0.2326 0.20091 -0.0032465 0.29418 -0.17397 -0.19884 0.19574 -0.17137 0.063428 0.30416 0.15339 -0.045177 0.2242 -0.29233 -0.095617 -0.12552 -0.4808 0.51 0.40093 0.15445 -0.10629 0.1192 0.026514 -0.68122 0.0801 -0.52958 -0.094369 0.062711 0.058684 0.053478 0.62029 -0.29607 -0.19052 -0.54875 0.24522 -0.085547 -0.13229 0.17081 0.025377 0.41735 -0.17865 -0.20397 0.063688 -0.16863 0.19712 0.15292 0.045756 -0.23827 -0.036263 0.19968 -0.051027 0.29016 -0.076837 0.19121 0.12892 0.072628 0.16407 0.44204 -0.022932 0.03668 -0.11894 0.050411 -0.14805 -0.037524 0.12501 -0.099562 -0.10249 0.18931 0.030871 -0.06068 -0.21219 -0.06469 0.31703 -0.42087 0.28029 -0.097624 -0.28942 0.053642 0.012344 -0.24921 0.12072 -0.12246 0.21488 0.11228 0.10329 -0.087878 -0.045306 -0.24783 -0.15172 0.39379 0.16509 0.19846 0.01636 0.13862 0.063845 -0.1187 -0.217 0.20175 -0.00022051 -0.053037 0.38144 0.51451 -0.0080469 0.59082 0.11729 0.36443 -0.27886 -0.68107 0.16303 -0.4556 -0.15006 0.67495 -0.19996 0.064657 0.20123 -0.19066 -0.39327 0.23167
forêt -0.22192 0.33269 -0.44683 -0.078096 0.20498 0.24545 -0.12292 0.013482 0.0099996 0.20986 -0.23455 0.11533 -0.1536 0.66758 -0.27845 0.11741 0.43443 -0.0096947 -0.1392 -0.55359 0.60441 -0.40443 0.072454 0.13298 0.24477 -0.088104 0.15044 -0.079587 0.0015043 0.40694 0.4623 0.1329 -0.14773 -0.020276 0.22531 0.054415 -0.26762 0.0649 0.087838 0.28085 0.31718 -0.17308 0.0078229 0.10195 0.38503 0.30379 0.33369 -0.10059 -0.094655 0.38666 -0.32096 0.20064 -0.41686 0.0344 -0.42829 -0.11652 0.20569 0.41997 0.045119 -0.30213 0.088939 0.44781 0.19802 0.27372 -0.056088 -0.17367 0.40032 0.052747 0.0025881 -0.32999 0.37234 0.18604 -0.1138 -0.36076 -0.17872 -0.042836 0.026572 -0.14237 -0.093738 -0.48049 -0.50719 0.18908 -0.20996 -0.02881 0.23831 0.12714 -0.17969 0.20619 -0.55205 -0.095899 -0.34449 0.22516 -0.020263 -0.15981 0.36283 0.19336 -0.28622 -0.19233 0.34566 -0.065597 -0.54611 -0.092899 0.40757 0.17757 0.11933 -0.20764 0.056694 -0.62253 -0.024329 -0.017821 -0.15039 0.032811 0.32837 0.3463 0.41487 -0.063715 0.065293 -0.34559 0.30936 -0.072321 -0.0015527 -0.32414 -0.48498 -0.02163 0.14013 -0.13123 0.16633 -0.036648 -0.051841 -0.055834 -0.39893 -0.15248 0.3541 -0.037425 0.1377 -0.21877 0.15098 0.029934 0.72184 -0.17274 0.20699 0.16377 -0.085801 -0.24827 0.19023 -0.2485 0.17835 0.27923 0.59834 -0.044174 -0.057424 -0.15181 -0.76972 0.13213 -0.17417 -0.1924 0.13092 -0.093593 0.26587 0.62471 0.032514 -0.29092 0.24681 -0.12853 0.51588 0.11466 0.25062 -0.18419 -0.24673 0.35825 -0.3919 0.15589 -0.021412 0.6042 0.039264 -0.076059 0.10387 -0.22589 -0.15159 0.26742 -0.19794 -0.17377 0.040652 0.23929 0.15127 0.39539 -0.035164 -0.085827 0.035439 -0.34663 -0.0076886 0.24281 0.044819 -0.0276 0.31049 0.23015 0.024045 -0.0035677 -0.13648 0.34217 -0.00020252 0.54176 0.50368 0.069645 -0.24776 0.014207 -0.15211 -0.52357 -0.28006 0.22405 -0.29797 0.047373 0.21909 -0.33359 -0.51743 0.055388 0.018772 -0.14237 0.28263 0.10162 -0.17391 -0.40789 -0.31152 -0.47811 0.18038 -0.42423 -0.16434 -0.13154 0.22727 0.20147 -0.26352 0.11057 0.01542 -0.19477 0.093823 -0.55486 -0.065724 0.34078 0.34323 0.086819 0.18374 -0.099186 -0.3687 -0.16455 -0.35423 -0.058028 0.036396 0.38761 0.56072 0.26391 0.20125 0.17685 0.23687 0.16739 -0.25519 0.034785 0.16942 -0.11544 -0.065874 -0.37079 0.018284 -0.13968 0.45542 0.066625 0.057493 -0.3294 -0.21264 -0.49502 -0.16891 0.026923 -0.51887 0.10144 0.15811 0.74445 0.19062 -0.12989 -0.38818 0.16347 0.018021 0.0034233 -0.052744 0.041032 0.093797 -0.057785 0.037433 0.54789 0.0077667 -0.0043161 -0.027257 -0.049048 0.024745 0.066969 0.33158 0.2702 0.078264 -0.18553 -0.45161 0.0089693 -0.34295 0.3923
cimetière -0.21962 0.23479 0.087124 -0.070788 0.17027 0.39038 -0.41258 0.32973 -0.24899 0.12119 -0.12476 -0.27256 -0.50606 -0.13108 0.29399 -0.10039 0.45448 -0.80125 -0.11155 -0.60696 0.40715 -0.3774 -0.22772 -0.43443 -0.53514 -0.081747 0.030908 -0.0488 0.092991 0.19217 0.27285 0.74707 0.061374 0.51362 0.026391 0.077088 -0.012986 -0.39847 0.20003 0.019298 0.53967 0.3107 0.088199 -0.0060733 0.33884 -0.33096 -0.1442 -0.072566 0.27359 0.45522 -0.15555 0.12566 -0.32125 0.24699 0.11444 -0.19843 -0.37596 0.039672 0.14417 -0.068765 0.034811 0.2791 0.076576 -0.19808 0.26371 0.070061 0.009363 0.11854 0.024 -0.32431 -0.0057352 0.38031 -0.17752 0.0025128 -0.14801 -0.25473 0.11802 0.0074432 0.34953 -0.36904 -0.64643 0.10791 -0.30234 0.14191 0.36503 -0.16972 -0.38074 0.068875 -0.17537 0.20288 -0.39521 -0.20104 -0.13733 0.10145 0.30531 -0.081051 0.45312 -0.012037 0.34773 -0.84914 -0.17352 -0.51867 0.21134 -0.10179 -0.37069 -0.1336 -0.20178 0.0045629 -0.088602 0.18781 -0.35359 -0.12803 0.065122 0.36372 0.24243 -0.21131 0.30713 -0.35308 -0.57755 0.15977 -0.12236 -0.097362 -0.73431 -0.0033509 0.28594 -0.034774 0.12053 0.24018 -0.68724 0.36411 -0.26069 -0.10273 0.22673 0.030898 0.25547 -0.38164 0.01401 0.32373 0.21151 -0.16911 0.087096 -0.24547 -0.025751 0.18347 -0.34306 -0.37995 -0.52564 0.79644 1.0048 0.60069 0.13644 -0.0046589 0.69307 0.058796 -0.25558 0.11259 0.16155 0.36158 0.33323 0.60804 0.025874 0.060256 0.15269 0.31763 -0.42123 -0.26539 0.38224 -0.083746 0.31802 -0.12769 -0.21456 0.24697 0.044563 -0.015523 -0.035108 -0.32583 0.25665 0.2894 0.014746 -0.14454 0.15329 -0.19908 0.20639 0.261 -0.076168 -0.11358 0.21022 0.084993 0.2014 -0.73904 -0.37344 0.54569 0.33406 -0.068697 0.033534 0.10727 0.17235 0.22693 -0.41414 0.034967 0.54164 -0.47183 -0.068196 0.13526 0.2629 -0.1283 -0.26721 0.24039 0.071542 0.038917 0.03141 -0.17569 0.35572 -0.30664 0.17337 -0.16967 0.19606 0.093681 -0.013967 0.15353 -0.13723 -0.87108 -0.23498 -0.2894 0.52706 -0.15553 0.019025 0.16769 -0.13186 0.10479 0.16269 -0.32407 0.24677 -0.073323 0.1708 -0.38233 0.081796 -0.070179 -0.032668 0.31351 0.25159 0.35798 -0.17742 0.19406 -0.068377 0.2334 -0.34228 0.28893 -0.048754 -0.26881 -0.025896 0.096803 0.045966 0.085307 0.64971 -0.20946 0.20703 0.052887 0.064701 -0.14981 0.055673 -0.48226 0.60925 -0.14562 -0.11026 0.22753 0.17875 -0.16783 0.0956 0.25602 -0.2429 -0.1181 0.067104 0.16018 -0.50662 -0.23358 -0.29917 -0.51648 0.18978 0.45688 -0.16889 -0.087398 0.12894 0.50791 0.22403 0.066597 -0.24881 0.30498 -0.03138 -0.17555 -0.13089 -0.074949 0.44184 0.51807 -0.087536 0.20273 -0.097819 -0.12891 -0.08899 -0.050673
refuge 0.42066 0.32122 -0.06975 0.41662 0.23781 0.37268 -0.23721 -0.018825 0.54082 0.44104 -0.38754 0.24033 -0.6045 0.25715 -0.14413 0.24002 0.22451 -0.016214 -0.057247 -0.22455 0.038409 -0.18244 -0.076901 0.047253 -0.012702 -0.16122 0.23496 0.3378 -0.46632 0.096544 0.38851 0.4861 0.038045 0.13979 -0.10533 -0.12776 -0.1729 0.34228 -0.13721 -0.119 0.30159 0.25281 0.011712 -0.012854 0.14052 -0.29617 -0.054327 0.18912 0.19618 0.043846 -0.51233 -0.13887 0.090518 -0.34584 -0.54361 -0.11343 0.18 -0.18499 0.13104 -0.31007 -0.085884 0.4853 0.14241 -0.11274 0.22077 0.20129 0.5006 0.13127 -0.083474 -0.21617 0.1418 0.036239 -0.66485 0.25972 -0.55264 -0.4098 0.28111 -0.0078645 -0.35957 -0.12653 0.007358 -0.062252 0.09919 0.11191 0.018768 0.1362 -0.29522 0.18633 -0.64003 -0.34437 -0.23819 0.39145 0.0077123 -0.012289 0.11695 0.20457 -0.0466 -0.11569 0.51694 -0.71795 -0.74414 -0.18374 0.36212 0.038806 -0.063023 0.42115 0.43371 -0.31607 -0.077658 0.084479 0.27146 -0.30744 0.26324 0.36052 -0.066294 0.36028 0.39715 -0.026528 -0.57997 0.50354 0.29029 -0.14163 0.073652 -0.18787 -0.012112 0.15751 0.17482 -0.28692 0.21112 0.23293 -0.13894 -0.36149 -0.21675 -0.02643 -0.057177 -0.025848 0.14501 -0.15278 0.22568 -0.14219 -0.1124 0.21709 0.37457 -0.056725 0.16543 -0.018246 0.15984 -5.9471e-06 0.39338 -0.18946 -0.34841 -0.00037722 0.43131 -0.05787 0.16381 -0.13833 0.99046 -0.12562 -0.12966 0.31288 -0.28084 0.022228 0.08307 -0.12494 -0.21789 0.58053 0.19083 -0.072549 0.13625 0.14001 0.018032 -0.036654 -0.10792 0.18967 -0.079722 0.19111 0.074211 -0.57665 0.038202 0.18408 0.034069 0.55035 0.22633 0.43776 -0.22856 0.040181 0.17985 -0.014312 0.10769 -0.16692 -0.44433 0.27566 0.33345 0.097534 0.33158 -0.33834 0.050827 0.22445 0.099547 0.47106 0.45302 -0.037362 0.10886 0.0032432 -0.26604 -0.063391 -0.52452 -0.065783 0.19192 0.3005 -0.023269 -0.00074119 0.19052 0.088467 0.29785 -0.22449 0.15503 -0.16373 0.043265 -0.026978 -0.39982 -0.43298 0.073449 0.148 0.015371 -0.55994 -0.14176 -0.056479 -0.073667 -0.20876 0.0096873 0.21994 -0.05621 -0.51423 0.02764 -0.45425 -0.070934 0.35081 -0.0002016 0.32783 -0.062366 0.23836 0.0097256 0.16748 -0.58251 0.15966 0.39741 -0.19793 0.23269 0.042334 0.056777 0.29839 0.062874 -0.070387 0.31444 -0.42653 0.11144 -0.012328 -0.36937 0.073427 -0.022445 -0.14873 0.52547 0.44905 0.075331 -0.34489 0.19022 -0.1375 -0.11012 -0.025779 -0.56783 -0.072447 0.23232 -0.091957 -0.41195 0.019172 -0.026978 -0.22622 -0.23332 -0.38714 0.21755 0.23438 0.16539 0.40582 0.38483 -0.24798 0.19879 0.1936 -0.12147 0.036877 -0.074913 -0.44702 0.1303 0.17272 -0.15783 -0.16358 -0.11639 -0.22689 -0.17252 -0.12767
moine 0.3529 0.0069135 -0.74641 -0.2599 -0.087322 -0.020066 -0.0068103 0.24293 -0.28486 0.31286 -0.020369 -0.27745 0.18492 -0.0047606 -0.57028 -0.0061133 0.0051063 -0.16908 0.31844 -0.53466 -0.047303 0.33206 -0.0071623 0.49893 -0.30466 0.051997 -0.46123 -0.24781 -0.34534 -0.23416 0.56553 0.10918 0.29478 0.16931 0.58047 -0.043997 -0.40228 -0.20349 0.44034 -0.18973 0.14423 -0.098766 0.33897 -0.057973 0.07197 -0.35978 -0.55354 -0.033536 -0.071336 0.23217 0.11766 -0.018398 -0.18821 0.14448 -0.16465 -0.38437 0.23828 -0.56693 -0.31181 -0.61797 -0.13954 0.080399 -0.040716 0.18075 0.40956 -0.026158 0.26253 0.20071 -0.087025 -0.29723 -0.01504 0.032615 -0.70083 0.53102 0.024006 0.30923 0.4362 0.17591 0.11347 0.22558 0.090794 -0.25272 0.24788 0.48319 -0.036362 -0.22749 -0.35427 0.32295 -0.27039 -0.15655 -0.13996 -0.08848 -0.1614 0.079771 0.38452 -0.28336 0.022922 0.15419 -0.41082 -0.22236 -0.36844 0.36205 -0.049936 0.067921 -0.086678 0.065709 -0.10087 0.054513 0.14743 -0.013213 0.41197 -0.14544 -0.060696 0.19751 0.15482 0.19297 0.2797 0.14326 -0.36246 0.093723 0.30295 0.28045 -0.81052 0.10692 0.051437 0.21526 0.11938 0.064171 -0.0075542 0.14143 -0.066321 0.072927 0.12714 0.091971 -0.11543 -0.053709 0.0088858 0.44626 0.33434 -0.30769 -0.1155 0.067381 0.6413 -0.52058 -0.024202 0.22268 0.25406 0.21046 0.191 -0.20901 -0.38279 0.27633 -0.27522 0.087194 -0.085998 0.041211 0.24347 0.12199 0.274 0.35717 -0.14596 0.23805 0.053292 0.22879 -0.31472 0.34446 0.15385 0.057957 -0.03659 0.11127 -0.34862 -0.19733 -0.070048 -0.012391 0.1468 -0.078971 0.39125 -0.085316 0.39202 -0.054027 -0.20105 -0.13365 -0.3549 0.22918 -0.073495 0.43176 0.14461 0.066891 0.35243 0.17588 -0.33427 0.076425 0.36677 0.17344 0.29408 0.35102 0.13187 0.15961 0.032854 0.53115 0.64099 0.24687 0.25152 -0.21424 -0.16365 -0.086368 0.26188 -0.26276 -0.12007 -0.14971 0.018455 -0.12555 0.026882 -0.10683 0.057341 -0.10041 0.070466 -0.38647 -0.14339 -0.023466 -0.31118 -0.25457 -0.010479 0.026656 -0.058494 -0.1253 0.094972 0.29893 -0.6198 -0.21896 0.078342 0.052227 -0.0188 -0.31508 -0.33204 -0.3746 0.40241 -0.25231 0.13176 -0.082078 -0.23006 -0.1465 0.078907 0.11596 -0.28669 0.081815 0.47878 -0.16767 -0.060471 -0.47017 0.15973 0.014638 0.026292 0.64866 -0.52715 -0.22855 0.56161 -0.56402 -0.36985 0.1818 0.52719 -0.29603 -0.0012769 0.52864 0.1379 -0.23431 -0.23698 -0.28422 -0.27965 0.054365 -0.28406 -0.30105 -0.1116 0.21657 -0.6527 0.29614 0.13161 0.026403 0.092879 0.30716 -0.26116 0.34954 -0.02226 0.088122 -0.13831 0.39512 0.52653 0.15363 -0.059559 -0.40081 0.095008 -0.087196 0.042284 -0.0074695 0.21745 0.082305 0.077052 -0.057513 -0.21832 0.36699
