intrare -0.09608524 0.08838416 0.25528643 -0.09281018 0.02712476 -0.104123086 -0.31430817 0.2737417 0.15109736 -0.11021399 0.27117506 -0.15813273 0.006695038 -0.20476016 -0.39051247 -0.1632625 0.06653576 -0.33896363 -0.4608122 -0.4065015 -0.045191377 -0.31752723 0.071224526 0.08905096 -0.1335355 -0.3636877 -0.19065946 0.043477803 -0.58031934 -0.2589014 -0.011092975 -0.29921937 0.38033065 -0.18779522 0.24127156 0.10937598 0.022343913 -0.23746677 -0.2893089 -0.033079725 0.43724892 -0.12491868 0.3619658 -0.14133786 0.118385136 -0.50939924 0.09210944 -0.10769873 0.14418279 0.42276934 0.116772726 -0.20740947 -0.6218692 0.46366826 -0.53692687 0.23003998 0.036588315 0.31738147 -0.13789076 0.44312286 -0.1681746 -0.012496918 -0.19153059 -0.23898341 -0.21383627 -0.27949226 0.29414722 -0.2082429 0.19854552 -0.18491206 0.012889793 0.13042675 0.21798721 0.022162028 0.060650527 -0.46713483 -0.1057059 -0.24986826 0.07044411 0.17986871 -0.041104928 -0.09259046 0.16899186 0.65058166 -0.1594102 0.37473026 0.44757888 -0.07777384 0.5035272 -0.36910146 0.022639006 -0.05887706 0.34503016 0.057081304 0.878869 -0.06771796 0.36164156 -0.21146871 -0.62720263 -0.45139918 0.36822414 0.36426508 0.096224055 0.024290372 0.17727791 -0.0469222 -0.20417854 0.11735323 -0.003627025 0.009680346 0.31115046 0.3321722 0.002296823 0.67159134 -0.27327672 -0.27743748 -0.11213055 0.017557045 -0.016295936 -0.41502678 -0.04306763 -0.09181213 0.061194416 -0.30604258 -0.13485418 -0.13676971 -0.19447403 -0.11808874 0.21548028 0.12488003 -0.060663253 0.08883746 -0.10387524 -0.27124915 -0.10927267 0.116055936 -0.17102335 -0.46439216 -0.062949285 -0.33875194 -0.35600513 -0.25686583 0.42801917 0.07618853 0.36683866 0.109275915 -0.20390673 0.19696411 -0.4096048 -0.23508614 0.24648853 -0.018284025 0.3104536 0.15736166 0.18235107 0.05184624 -0.43782339 -0.1160339 0.12243465 0.47171673 0.21104231 0.15568638 -0.13789484 -0.26737842 0.11906219 -0.19638184 -0.5746886 0.03402976 0.3941169 0.30295852 0.21193849 -0.11965214 0.28482455 -0.025978869 -0.045468837 -0.17274193 0.14167625 -0.19530438 -0.031867154 -0.29171094 0.03986095 0.30856392 0.17649104 0.06748138 -0.35899675 -0.60496235 0.107210904 0.45958552 0.23954587 0.43038723 -0.016266812 -0.1443901 -0.38734153 -0.1038768 -0.5008754 -0.10499871 0.1726054 0.098734915 -0.13564947 0.06678653 -0.44122055 -0.06515186 -0.09172892 -0.5306545 -0.12724425 -0.33723015 0.10159825 0.06828647 0.048730556 0.3004414 -0.24488309 0.0876934 -0.004297745 0.14138626 0.14895336 0.049480464 0.03506289 -0.26226726 -0.5973463 -0.14487179 0.013292703 0.08333653 -0.14601427 -0.3021704 0.38159218 -0.18688627 -0.33690134 0.20701718 -0.10092266 0.03639141 0.19394916 0.318396 -0.15189026 -0.46340474 -0.6066027 0.053663436 -0.056338742 0.039834555 0.44165686 -0.13478869 0.3926352 -0.35464257 -0.13668665 0.2637136 0.3297868 -0.28606308 0.22540216 0.54654056 0.2617244 0.13165966 -0.03874626 0.104323 0.49493223 -0.07986869 -0.31180015 -0.10812278 -0.20966336 0.24093668 -0.2970424 -0.4989455 -0.4437271 -0.0038167608 0.16223696 0.09918297 -0.45171127 0.12066064 0.5184723 0.23839107 -0.38715708 0.3088865 0.08423207 -0.30318385 -0.08290103 -0.113386236 0.19541371 0.17294087 -0.1525341 -0.26520297 -0.23698913 0.072142474 0.03962315 0.308203 -0.089703985 -0.27129483 0.08731273 -0.3138006 -0.22148862 0.34557942 0.005741294 -0.46055922 -0.20968471 -0.04009799 -0.12720591 0.20388706 -0.3610009 0.07892312 -0.011891141 -0.1447836 0.014244277 -0.39453024
bilet 0.044943865 0.15846297 -0.15414217 -0.0038312385 -0.19151449 0.02591311 0.082260534 0.57722044 0.31185713 -0.425492 0.21681103 -0.10203559 0.14486289 -0.34574524 -0.13543782 -0.30140197 0.11339867 -0.045699347 -0.28474516 -0.46362656 0.21999858 0.16946058 -0.09086029 -0.21223214 -0.15479739 -0.17375204 0.054299407 0.24378045 -0.08523453 -0.18372186 -0.28381917 -0.20360021 -0.38522574 0.038299847 -0.33892012 -0.57311195 -0.07210554 -0.071378924 0.7197166 -0.15685827 0.49331704 -0.31678277 0.47200432 -0.54460853 0.022827055 -0.2536893 -0.20613794 0.16640708 -0.40633288 0.1528964 -0.1098169 -0.15275723 -0.4852477 0.26024416 -0.046350073 -0.24566263 0.2726097 -0.24381652 -0.26689875 0.13869558 0.13632354 -0.08285497 0.12437572 -0.094083406 -0.080216974 -0.019615136 0.23973283 0.2751559 -0.09741632 0.18450786 -0.39541033 0.21888308 0.23199078 -0.54741114 0.3804473 -0.59768057 -0.34940684 0.1475613 0.037667084 0.010664446 0.06483008 -0.021370994 -0.50000685 1.1854016 -0.30932793 -0.29737195 0.06182342 0.07159972 -0.15060994 0.112864584 -0.15858799 -0.32111996 -0.2669438 -0.62522745 0.12671493 -0.057496693 0.33650732 -0.21197914 -0.11812641 -0.06081325 -0.23087591 -0.06159506 -0.4236122 -0.11727619 0.11835094 -0.332664 -0.35829547 -0.036453336 -0.71671444 0.2890646 -0.38286698 -0.18234508 -0.06688538 0.2550394 0.00909549 0.22582372 0.22284257 -0.03660751 -0.06259171 0.11048367 -0.07459 0.22604895 0.051505614 -0.011070648 -0.19295202 0.20922326 -0.033329833 -0.093417324 -0.025634412 0.21124247 -0.09392038 -0.094959274 0.20247184 -0.3410614 -0.26305455 -0.029963804 -0.09576198 -0.19500062 -0.37886345 0.20648657 -0.26815838 -0.16590874 -0.15779032 0.16527183 0.19952501 0.19206518 0.14490964 0.16729279 0.13188124 0.2491473 0.098505385 0.006805015 0.14059825 -0.054774016 -0.13204604 0.050919082 -0.22061297 0.099390574 0.065621845 0.3797032 -0.075694084 -0.20244628 -0.15371847 -0.22462574 0.33822396 0.5722335 0.27741358 -0.5120222 0.11411927 0.14220394 0.15740094 0.04917337 0.3284197 0.32016325 0.20145881 -0.037565477 -0.1703254 -0.49619663 -0.24564733 -0.7436235 -0.17809287 -0.19814754 -0.12686326 0.21792576 -0.092256874 0.35097054 -0.22752427 0.21616071 0.3025619 0.28968722 0.39730468 0.14776242 -0.57928497 -0.2568167 0.072615884 0.14541742 -0.22219892 0.040342066 0.13763925 0.21368465 -0.31539804 0.016480934 0.01753178 -0.2795748 -0.0243015 -0.15697299 0.6631813 0.035521902 -0.08111342 0.16725396 -0.09550045 -0.11376054 -0.1344141 0.29834452 -0.01268289 -0.30347925 -0.028886715 -0.17445074 -0.26183754 -0.37263334 0.060011737 0.17535773 0.04763636 -0.35425895 0.3421925 -0.1670479 0.113811515 0.011338337 0.4880129 -0.062012535 0.22523399 0.021793446 -0.3822639 -0.41940877 -0.4304024 -0.33454475 0.26297897 -0.06649105 0.1262379 -0.5460039 0.15759729 -0.1060771 0.13322027 -0.11193565 -0.2276498 -0.06809902 0.27722123 0.1820753 0.22260053 0.5477309 0.07462066 -0.12686995 -0.29041088 0.14202543 -0.036185406 -0.11255943 -0.26044902 -0.15472224 -0.23028651 -0.3242662 0.40034866 -0.29291624 0.13305609 0.048715115 -0.26974267 -0.13373485 0.2819076 0.52667546 -0.2506002 0.29875317 -0.32885292 -0.11937934 0.25889626 0.2933085 0.24032205 -0.06693617 0.22905926 0.36012098 0.25338113 0.23040996 -0.26444453 -0.10239567 -0.16160701 -0.04276984 0.591339 -0.2872248 -0.5848486 -0.39632505 0.088345565 0.03999214 -0.14959212 0.4503413 0.09522666 -0.15538192 0.30128205 -0.07494766 0.29182318 -0.1735145 0.2858317 -0.38799807
alcool 0.29074675 0.19257025 -0.052430548 -0.49819747 -0.38280636 0.39424166 0.1899278 0.36355928 0.09635586 -0.37828472 -0.065484785 -0.35037524 -0.18362437 0.61193675 -0.0717556 0.076141484 -0.3426471 0.2347299 0.2103483 -0.0616688 -0.13660836 0.35777724 -0.2698714 -0.18355733 0.39936158 -0.32039058 0.07851446 0.22774267 -0.80593807 -0.18236618 0.026964605 -0.03487397 -0.22134587 -0.025708573 -0.08455672 -0.094927736 -0.4892752 -0.4288911 0.0066222483 0.051787507 0.4081494 0.16391452 -0.12024854 -0.089178756 0.1573406 0.88753855 -0.046180494 0.22188401 0.20174475 0.34340298 -0.03527908 -0.13147648 -0.056936756 -0.19675684 -0.45077428 0.2942741 0.7648947 0.20640135 0.632852 0.3061537 -0.30799955 0.4768969 -0.3658289 -0.1570144 0.3679454 0.07167067 -0.5561438 0.12588918 -0.078791164 -0.08106757 -0.3120647 -0.32671607 0.09473849 -0.40501997 0.08308132 -0.24313615 -0.1658801 -0.059470516 0.27981925 0.11824886 0.08162805 -0.015949862 -0.03047007 0.57033235 -0.29172498 0.060703635 0.33914953 -0.034726284 0.025161568 -0.20563108 -0.2579901 0.23118022 -0.46862826 -0.47860447 0.15929992 -0.16940527 0.12365372 -0.26741934 -0.5813943 0.05230251 0.08932085 0.28215376 -0.2548761 0.024302801 0.03158714 0.05807859 -0.32833707 0.44412667 -0.291063 -0.25160766 -0.09345344 0.042392522 0.19379637 -0.01264454 0.36151823 -0.08370053 0.032026786 -0.31931442 -0.20052584 -0.39088312 0.14595321 -0.17907181 0.6679079 -0.06972237 0.1474679 -0.24 -0.32898584 0.041758955 -0.36895084 0.072674975 0.48720685 -0.19860198 -0.09023836 -0.30128482 0.42561558 -0.0872106 -0.0385661 -0.35413086 -0.084627025 -0.31833974 0.16753659 -0.03046923 0.26507545 -0.038916968 0.0744566 0.51434 -0.31575456 0.24021186 0.24293225 0.28927967 0.52266675 -0.38265514 0.10835243 -0.062307183 0.40230632 0.032047085 0.1096398 0.33730224 0.19711274 -0.0820394 -0.020451646 0.23748636 0.07900502 0.18226239 -0.11195798 -0.25238892 -0.4041249 -0.29598972 -0.008011371 -0.13763005 0.114708215 -0.14816257 0.25183862 0.5633933 -0.32540458 0.78813493 0.19025682 -0.12445979 -0.11935539 -0.48740909 -0.11890304 0.06919327 0.104924046 0.030656245 0.47719076 0.3905374 0.16429393 0.020986779 0.52373016 -0.1985035 0.2153943 -0.25475973 -0.08433747 -0.45105767 0.6890314 -0.4648042 -0.31954 0.29350638 0.17085427 0.14959542 0.2937218 0.4036725 -0.116821036 -0.41981724 0.10452311 0.2425097 0.31211716 0.3027645 -0.03151664 0.45135817 0.81211865 -0.2939333 -0.5712473 -0.27240747 0.43890992 -0.120776914 -0.13203536 0.03155675 -0.3039254 -0.6775888 -0.093253225 0.29255074 0.119037546 -0.56308377 0.23814619 -0.3823666 0.17457916 -0.5125085 0.10459554 -0.20854658 -0.17261831 0.04713412 -0.44531232 0.22121675 0.17516413 -0.23620488 -0.38885906 -0.013994192 0.062277775 -0.24453382 0.23168766 -0.05963913 -0.056831777 0.3809274 0.053643573 -0.3747758 0.26890442 0.31269956 0.15326123 0.41406837 -0.07864902 0.24829353 -0.0537292 0.023097591 -0.21200065 -0.58185095 0.055208217 0.5831906 -0.118381314 -0.115936734 0.020580877 -0.19759887 -0.28509626 0.44293767 -0.14218345 0.15167813 0.04177994 -0.101637416 0.017842958 -0.076929905 -0.16913705 -0.3005052 -0.0066963397 0.29682675 0.3365014 -0.19162409 0.051462673 0.021682758 0.2657078 0.022710966 0.46283007 -0.37416604 0.30341107 -0.11542036 -0.14554499 0.20128985 -0.360378 0.56838137 0.338241 0.36876932 0.1932734 0.4947934 0.11247869 0.12235146 0.6684168 -0.2997023 0.09269968 0.01544308 0.20353845 -0.23128295
chimie -0.45001793 0.21258496 -0.35599312 -0.22579302 -0.3343282 0.54368633 -0.09342195 0.006775134 -0.49664786 -0.5779087 -0.27499452 -0.17651512 0.13956733 -0.1524655 -0.2844556 -0.036875077 0.062261123 -0.21219556 0.11267523 0.087976485 -0.058842152 0.17071941 0.12668222 -0.04078882 0.728678 -0.12135897 -0.009003739 0.55335945 -0.5258684 -0.43693465 0.04306303 -0.12047054 -0.25959155 0.3272104 -0.7541907 -0.1783954 0.13788004 -0.49398804 0.14184716 -0.025061423 -0.01006918 0.107050866 -0.18396614 -0.09304618 0.53669673 0.02339718 0.07063282 0.7164715 -0.3757763 0.44150266 -0.3154091 0.6717453 -0.0911722 0.33309683 -0.20963812 0.031612977 0.51709217 0.14487293 0.37437335 -0.08531553 0.11326762 0.80710894 0.012639747 -0.5887821 -0.24049261 -0.32360289 -0.5712054 0.45631638 0.014620431 -0.30717504 -0.17538589 0.0027562114 -0.3174827 -0.19562884 0.1003718 0.09539196 0.14340909 -0.2236259 0.051386524 -0.3912639 -0.0454938 0.114835605 0.31278604 0.5125712 -0.1818259 0.21485251 -0.15906566 -0.44877636 0.13979436 0.09207869 0.055326782 0.109135926 -0.14569275 -0.6256307 0.39763156 -0.21758032 0.10166902 -0.16823906 0.3810214 -0.0473592 -0.10713917 0.17552784 -0.5017784 0.7629797 0.14798644 -0.09459184 0.25722536 0.48121697 -0.18723613 -0.05035767 0.026859706 0.064105816 -0.06390092 0.15082967 -0.5605042 0.16059351 0.30112702 0.1462254 0.05289354 -0.366887 -0.27195084 -0.33060718 -0.034367394 -0.0047284723 -0.10992717 0.29342425 0.09283355 -0.3519825 -0.23375393 0.12232132 0.2603665 -0.09860329 -0.3294162 -0.7560047 -0.1313618 -0.051982798 -0.3080066 0.0011250997 0.33141428 0.2782185 0.008064988 0.4565238 -0.098327406 0.31711814 0.24244255 0.40275878 -0.60794896 0.38901424 0.14630717 0.17225307 -0.08065332 -0.049816955 0.20844558 -0.35112262 0.466321 -0.23815908 -0.0847105 -0.25488314 0.50188506 0.08279038 0.05720541 0.43860063 -0.21226218 0.05641139 -0.39885175 -0.4070937 -0.0035017189 0.12779295 0.17522036 0.08395134 0.29054412 0.38183323 0.13036907 -0.09083835 -0.27234262 -0.06246595 0.22772987 -0.2673957 -0.44571722 -0.5011891 0.023664365 -0.11668329 0.7498072 -0.06091713 -0.215622 -0.5646908 0.76509076 1.0005355 0.0025387888 -0.44990024 -0.38137776 0.47668964 -0.056482602 -0.050707616 0.09699318 -0.37485933 -0.33174062 -0.33427936 -0.48488718 0.25792164 -0.18821903 0.52836734 0.22431538 -0.31502077 0.049580477 0.31655556 0.702323 0.13707522 0.25229356 -0.13677557 0.1380326 -0.16923971 0.52440786 -0.27545696 0.35875225 -0.43321884 0.22050966 -0.19132775 -0.50368017 -0.1435517 -0.24073122 0.33497047 -0.8851826 -0.016066086 -0.12263998 -0.18368857 -0.15583633 -0.20152585 -0.27286825 0.0795204 0.32060245 0.19228673 -0.0878968 -0.08532561 0.008417414 -0.09690618 -0.4053305 -0.11894254 -0.16762953 -0.7286771 0.3738146 -0.40340716 0.033927634 -0.30063 0.15166964 -0.5549621 -0.014002441 -0.000519812 0.2485409 0.16917174 0.1467495 -0.030841138 -0.7498875 -0.37762597 0.331549 -0.062407546 -0.009078316 0.74114496 0.17027597 0.13398768 -0.085554495 -0.21850285 0.17507973 0.39791098 0.100690454 -0.28061846 -0.11571998 -0.05711492 -0.27417243 -0.57383245 0.01553626 0.069056965 0.03863379 0.22287385 -0.34418994 -0.07820324 0.17954455 0.4566693 0.5540756 -0.4367512 0.14438008 0.02570307 -0.30218402 -0.038544 0.41769767 -0.4200559 -0.5254402 0.6582878 -0.021448629 -0.14296766 0.2791784 0.26735052 0.067952335 -0.41699606 -0.18232848 0.36998782 0.004657227 -0.266903 0.20602994 0.09906646
aluminiu -0.11560583 0.41304365 -0.09961933 -0.07467791 -0.039010335 -0.2809914 0.71777153 0.443111 0.15923777 -0.514694 -0.06424467 0.114243805 0.08493975 0.40011403 -0.36039206 -0.24002098 -0.12320901 -0.5097665 -0.35919768 -0.031897746 -0.36155662 0.19023924 0.14720364 -0.10510954 0.4263972 -0.35822552 -0.070856735 -0.22432351 -0.81672823 -0.1656294 0.070000485 -0.23126988 -0.42979628 -0.1369599 -0.01895489 0.008282642 -0.25023764 -0.4335939 0.039912146 0.16633174 0.22194973 -0.26621434 -0.19042556 -0.47382244 0.044550657 0.38746443 0.032644972 0.29447672 -0.6589999 0.60583216 0.18828604 0.02124802 -0.26126683 0.30846325 -0.61045665 -0.0044607534 0.1802154 -0.0060751145 -0.1679929 0.3786598 0.048394002 0.09565663 -0.17857969 -0.32945725 0.5029257 0.0816937 -0.418107 -0.37924784 0.21554579 0.2875731 -0.06274784 -0.32213116 0.44649002 -0.09182901 0.2985607 -0.024402397 0.16361828 -0.376376 0.2573628 -0.28009048 -0.101668425 0.39669228 -0.06163389 0.5446873 -0.2019949 -0.29293755 -0.1754616 -0.36051077 0.22467859 0.40772372 0.17865227 0.25922918 0.018177213 -0.5700983 0.36946204 0.04508497 0.35848755 0.051584613 -0.38943613 -0.07480398 -0.004779821 0.32322195 0.09331631 0.022039935 0.06280258 0.35198444 0.18936466 0.5610629 -0.002725379 -0.23193525 -0.38717878 0.16746947 0.22340831 0.12113824 -0.24282354 0.2765996 0.18647964 -0.039981075 0.38668537 -0.58328724 0.077778906 -0.18899159 0.461662 0.20202465 -0.5356475 0.22543184 0.03979741 -0.5429401 0.119033046 -0.010851012 0.3923526 0.14055522 -0.18615316 -0.21825263 0.09869865 -0.13751946 -0.05099152 -0.08883584 -0.45896855 -0.25107422 0.28468782 0.012021482 -0.24611059 -0.4312665 0.20392753 -0.06747677 -0.24135898 0.35125425 0.025908586 0.22027342 0.47704116 -0.015025637 -0.33562556 -0.14409617 0.17680518 -0.1280802 0.2714217 -0.34240824 0.18419369 0.004345518 -0.38113317 0.04633436 0.41908157 0.16452114 -0.20841372 -0.41687882 0.19540243 -0.07661288 0.12669224 0.38400337 0.8325741 0.10547969 0.26872042 0.20637116 -0.18325864 -0.21330616 0.597119 -0.11646051 -0.38177383 -0.24661444 -0.3541436 0.289298 0.35588026 0.0030763862 -0.23222454 -0.06918537 0.05027742 0.23677514 0.1252358 0.21272254 0.2710363 -0.14438961 0.11164719 -0.43957117 0.09952667 0.01167209 -0.21981505 0.18574165 -0.06262364 -0.15974066 0.5019889 -0.21157336 0.09873142 -0.029146744 -0.15946291 0.37207374 0.46113074 0.033684574 -0.17069459 -0.12790264 -0.060310487 -0.17638226 -0.38055322 -0.11799256 0.5487295 0.14316197 0.035826836 -0.23961115 -0.59495276 -0.33200034 -0.07397314 0.020376027 0.019084599 -0.23918712 0.14972074 -0.089609385 -0.3087523 -0.70745194 -0.75924057 -0.36240348 0.14535171 0.53799176 -0.2599501 0.023122191 0.08215569 -0.064011596 -0.16378373 0.24318741 0.20043582 -0.5318113 0.038455997 -0.54824495 -0.3152312 0.18065663 0.13581137 -0.44674665 0.078591734 0.031571925 -0.44081432 0.22858895 0.16277128 0.24355806 -0.1895708 -0.118729666 -0.11433155 -0.3012033 0.49842235 0.46766347 -0.009908082 0.040970623 0.2516252 -0.40488178 -0.8209683 0.1765654 0.02485083 0.13586988 -0.31453258 0.1043805 0.21154633 -0.3408807 0.26762497 -0.28516817 -0.20024303 0.21285716 -0.18582925 0.3175717 0.10284685 0.4109597 -0.16319771 0.3805497 -0.2026969 0.19443981 0.2578052 0.010147948 0.19809951 0.02533048 -0.6141221 0.59079754 -0.098792136 0.19185345 0.12893929 0.0545315 0.2063137 0.28390756 0.1553066 -0.07440686 -0.1282398 -0.4193094 0.3164916 -0.3059805
metal -0.104700536 0.64992005 0.13280605 -0.1226386 -0.57474744 0.15046273 0.6362345 0.71665925 0.2592028 -0.33891937 0.034939457 -0.061413404 -0.5779386 0.28290686 -0.06468074 -0.013885301 -0.6744641 -0.08798684 -0.0003462338 0.26236472 -0.18241714 0.10116851 0.3968897 -0.12600198 0.1583332 -0.12316109 -0.34694037 0.26178336 -0.18653628 -0.43833798 -0.3342562 -0.20575643 -0.22657579 0.001664375 -0.1254063 -0.2582044 -0.023071233 -0.534201 -0.17389806 -0.010320841 -0.585083 -0.4176753 0.22160193 -0.2096479 0.08021089 0.01563345 -0.18207663 0.63876736 0.08250193 0.0968304 -0.17500706 -0.38397947 -0.1659013 0.25807825 -0.23217583 0.18897648 0.4373901 0.26712438 -0.39363363 0.29166195 -0.1856494 0.7991898 -0.64401835 0.5058972 0.37399918 -0.015901217 0.14299753 0.19373654 0.46261463 -0.13892436 -0.18453595 -0.42651343 -0.41330218 -0.29128474 0.21600357 -0.24532028 0.000580798 -0.4657827 0.42063797 -0.7707006 -0.21551174 0.016704049 -0.3142123 0.31057018 -0.20565286 0.24809758 -0.40762576 -0.19609013 -0.062925115 -0.259815 -0.14351185 -0.034171306 0.073717356 -0.20023149 -0.062579945 -0.05685162 0.48793328 -0.11262622 -0.17362589 -0.5521052 0.21620421 0.12366289 -0.29351634 0.3510746 -0.17941174 0.5874415 0.3478314 0.27022728 0.3750818 0.16628256 -0.63955677 0.3450932 -0.26151636 0.37728316 0.09007832 -0.45516217 0.22077662 -0.45760062 0.24428017 -0.5886938 0.46694717 0.2007681 0.33813766 0.33392343 -0.5166046 -0.027324023 -0.16479433 -0.45245993 -0.15245159 -0.3363373 0.62505877 0.02839369 -0.19362257 -0.29641375 -0.0010641089 0.04172854 -0.29278252 -0.28102663 -0.18379448 -0.33523136 -0.13876395 0.18783562 -0.5149845 -0.25802776 0.37582794 0.31575137 0.20518632 -0.15018032 -0.09987831 0.34439924 0.42308354 0.15282671 -0.3275839 0.35784206 -0.10584598 -0.021746352 0.019332414 -0.100291185 0.41468856 0.19397415 0.3512678 -0.34315798 0.29747033 0.46595743 -0.4091391 -0.21998312 0.063482404 -0.32115287 0.28783947 0.65980697 -0.0012197762 0.70346 -0.13760383 -0.12666091 -0.05065092 -0.40740204 -0.19085117 -0.57158905 -0.16480738 -0.3002507 -0.30668962 0.3259708 -0.07867168 -0.43120265 -0.03423646 -0.003509824 0.19170581 0.23467493 0.68513316 0.28382552 -0.09815093 -0.11382961 -0.2658118 0.18746862 0.04902334 -0.0036332756 0.18437915 0.28547075 -0.26617643 0.0602312 -0.035452563 -0.009917029 0.13643894 -0.28052208 0.058811616 0.050478093 0.087497815 -0.054361645 0.2189807 0.13650379 -0.3742716 -0.30888018 -0.11024972 -0.33538592 0.50933796 -0.13642538 0.6455349 -0.46803358 -0.42616963 -0.67303205 -0.40407735 0.22222246 0.20684884 -0.6796056 -0.4809783 0.2246533 -0.01401063 -0.045173906 0.025165621 -0.19759125 -0.3916302 0.60298824 -0.106568255 -0.028369099 -0.28148037 -0.3188732 -0.55279076 0.37697947 0.054194268 -0.49743387 -0.4094129 -0.83511424 -0.09255622 0.32401505 -0.12584026 -0.21282907 0.19822925 -0.07261472 -0.48858035 0.3823295 0.14339183 0.3992118 0.059307117 -0.1068422 0.27054873 -0.40044025 0.60959363 0.7139321 0.49428988 -0.07690355 -0.047456667 0.036213547 -0.53378564 0.00902035 0.076647274 -0.4020139 0.06737061 -0.052337196 -0.19329678 0.28997594 0.5412513 -0.0022349898 -0.79236454 0.15001589 -0.47784677 0.08820284 -0.11899116 -0.4661371 0.0047938 0.22094446 0.31433082 -0.0073541612 0.04541548 0.31868106 0.10762026 -0.28566638 -0.3591242 0.2210227 0.07926954 -0.112792425 0.13621846 0.083491534 0.13186222 0.28244555 -0.15710644 0.33313173 0.42256403 -0.133238 -0.22027655 -0.4965406
anunţ 0 0 0 0 0 0 0 0 0 0 0 0 0 0 0 0 0 0 0 0 0 0 0 0 0 0 0 0 0 0 0 0 0 0 0 0 0 0 0 0 0 0 0 0 0 0 0 0 0 0 0 0 0 0 0 0 0 0 0 0 0 0 0 0 0 0 0 0 0 0 0 0 0 0 0 0 0 0 0 0 0 0 0 0 0 0 0 0 0 0 0 0 0 0 0 0 0 0 0 0 0 0 0 0 0 0 0 0 0 0 0 0 0 0 0 0 0 0 0 0 0 0 0 0 0 0 0 0 0 0 0 0 0 0 0 0 0 0 0 0 0 0 0 0 0 0 0 0 0 0 0 0 0 0 0 0 0 0 0 0 0 0 0 0 0 0 0 0 0 0 0 0 0 0 0 0 0 0 0 0 0 0 0 0 0 0 0 0 0 0 0 0 0 0 0 0 0 0 0 0 0 0 0 0 0 0 0 0 0 0 0 0 0 0 0 0 0 0 0 0 0 0 0 0 0 0 0 0 0 0 0 0 0 0 0 0 0 0 0 0 0 0 0 0 0 0 0 0 0 0 0 0 0 0 0 0 0 0 0 0 0 0 0 0 0 0 0 0 0 0 0 0 0 0 0 0 0 0 0 0 0 0 0 0 0 0 0 0 0 0 0 0 0 0 0 0 0 0 0 0
efort 0.2346282 0.031690933 -0.15318348 -0.0064030113 0.11553769 0.034633324 0.10522424 0.28544664 0.22961375 0.037917454 0.27128804 0.18591304 0.39378348 0.18528897 0.2264976 -0.63236314 0.16736664 0.2766671 0.26248395 0.062218003 0.09046211 -0.122219965 -0.2847117 0.10325954 0.06698474 -0.54637575 -0.08149433 -0.052629475 0.08316623 -0.42028737 0.16374695 -0.17284195 -0.14956181 -0.309356 -0.08319584 -0.004856526 -0.12513956 0.056126505 -0.13718587 0.32298258 -0.24266924 0.19172335 0.25474718 -0.26603654 0.071782365 0.37215924 0.37356815 0.3632539 0.30595082 0.35861254 -0.39625832 -0.16314527 -0.27817416 0.08811364 -0.09937055 0.05665266 0.57828337 -0.06645789 -0.07333336 -0.052703656 0.005524442 -0.14944266 -0.18063605 0.78607386 0.28984058 0.124562606 -0.30799586 0.09434821 -0.0010969602 0.1406254 -0.3036499 0.45018256 0.22425486 -0.5838584 -0.016946306 0.19165826 0.06793621 0.14154886 0.01412996 -0.013922521 0.17524803 -0.2854278 -0.47480306 0.8586649 -0.05559011 -0.10014545 -0.0076861535 0.4451557 0.005208863 0.23869888 0.037257444 -0.28029978 -0.25970316 -0.15203741 -0.13346237 -0.013047246 0.22261521 -0.060549375 -0.16317552 0.4522711 0.22100586 0.014122483 -0.20229104 0.021081297 0.37151042 0.17197846 0.3186798 0.004198535 -0.33883235 0.19904348 -0.4792045 0.20870799 -0.0287148 0.19107392 -0.18025681 -0.11831275 -0.08169267 -0.22017404 0.12621816 0.2644359 -0.05636971 -0.36802596 0.28409094 -0.2303423 0.34714606 0.25757673 -0.17385586 0.043144464 -0.044348124 0.55702645 0.28410387 0.23897809 -0.15684816 -0.63753325 -0.3262306 0.33140105 -0.25299823 -0.49326566 -0.4312997 -0.41274682 0.020061983 -0.24154086 0.11635896 0.25955504 0.42902285 0.4055615 0.054193716 0.3392711 0.3083813 0.010730397 0.57598263 -0.24846847 0.15281889 -0.13163644 -0.27080825 -0.02922744 0.093325645 -0.12222786 -0.2321973 -0.017589126 -0.118279055 0.4953994 -0.012070882 -0.045416962 0.12732719 -0.009225236 0.15298027 0.062107176 0.32539627 0.08607789 -0.36807096 -0.2132881 0.15215512 0.096378066 -0.29937318 -0.011414527 0.1516099 -0.08434134 0.0021359366 -0.40264452 -0.16569863 0.18192407 -0.3344984 -0.4412221 0.21836784 0.03526746 -0.041211057 0.32602844 0.19147891 -0.15569717 0.31024763 -0.097772084 -0.44790938 -0.2012803 0.14483123 -0.10607016 0.11167943 -0.4874358 0.21715263 -0.54908764 0.027243135 0.42505667 -0.41508767 0.09591274 0.31921682 0.1559816 -0.16104247 0.21935125 -0.09094197 0.30688858 0.420431 -0.065317966 -0.2968268 -0.3727371 0.07202462 0.10122098 -0.33363274 -0.6125875 -0.46444973 0.03451811 -0.10278553 0.19705175 -0.21402855 -0.45506045 0.33413252 -0.26089373 0.04061229 0.08038509 -0.17546374 -0.09271393 -0.019580362 0.113568984 0.27461243 -0.106552616 -0.37650722 0.29525056 0.2362956 0.1186892 0.21040218 -0.5071319 0.18472447 -0.6479259 0.08224681 -0.19193381 -0.17422208 -0.11115703 0.23503894 0.39818078 -0.015651451 0.039841697 0.38786498 -0.10268117 -0.21135092 -0.020451041 0.27249214 0.06639123 0.029253738 -0.16683611 -0.018400788 -0.26831004 0.052735377 0.18553184 -0.116787255 -0.28433573 0.095262006 0.072874114 0.09138732 -0.0034102728 -0.7102173 0.13399497 -0.0640452 0.17967686 0.042774316 0.24732807 0.20870064 -0.1274385 -0.1841557 0.35453984 -0.10007879 0.023454484 0.07384224 0.10617388 -0.0056223786 -0.27567577 -0.11393951 0.040954925 0.19148412 0.05497796 0.10076403 0.110613614 -0.1852909 0.6450838 -0.44850585 0.1500382 0.28466707 0.21742187 -0.10257203 -0.039825477 0.2697545 -0.3537497
anunţ 0 0 0 0 0 0 0 0 0 0 0 0 0 0 0 0 0 0 0 0 0 0 0 0 0 0 0 0 0 0 0 0 0 0 0 0 0 0 0 0 0 0 0 0 0 0 0 0 0 0 0 0 0 0 0 0 0 0 0 0 0 0 0 0 0 0 0 0 0 0 0 0 0 0 0 0 0 0 0 0 0 0 0 0 0 0 0 0 0 0 0 0 0 0 0 0 0 0 0 0 0 0 0 0 0 0 0 0 0 0 0 0 0 0 0 0 0 0 0 0 0 0 0 0 0 0 0 0 0 0 0 0 0 0 0 0 0 0 0 0 0 0 0 0 0 0 0 0 0 0 0 0 0 0 0 0 0 0 0 0 0 0 0 0 0 0 0 0 0 0 0 0 0 0 0 0 0 0 0 0 0 0 0 0 0 0 0 0 0 0 0 0 0 0 0 0 0 0 0 0 0 0 0 0 0 0 0 0 0 0 0 0 0 0 0 0 0 0 0 0 0 0 0 0 0 0 0 0 0 0 0 0 0 0 0 0 0 0 0 0 0 0 0 0 0 0 0 0 0 0 0 0 0 0 0 0 0 0 0 0 0 0 0 0 0 0 0 0 0 0 0 0 0 0 0 0 0 0 0 0 0 0 0 0 0 0 0 0 0 0 0 0 0 0 0 0 0 0 0 0
ştiri 0 0 0 0 0 0 0 0 0 0 0 0 0 0 0 0 0 0 0 0 0 0 0 0 0 0 0 0 0 0 0 0 0 0 0 0 0 0 0 0 0 0 0 0 0 0 0 0 0 0 0 0 0 0 0 0 0 0 0 0 0 0 0 0 0 0 0 0 0 0 0 0 0 0 0 0 0 0 0 0 0 0 0 0 0 0 0 0 0 0 0 0 0 0 0 0 0 0 0 0 0 0 0 0 0 0 0 0 0 0 0 0 0 0 0 0 0 0 0 0 0 0 0 0 0 0 0 0 0 0 0 0 0 0 0 0 0 0 0 0 0 0 0 0 0 0 0 0 0 0 0 0 0 0 0 0 0 0 0 0 0 0 0 0 0 0 0 0 0 0 0 0 0 0 0 0 0 0 0 0 0 0 0 0 0 0 0 0 0 0 0 0 0 0 0 0 0 0 0 0 0 0 0 0 0 0 0 0 0 0 0 0 0 0 0 0 0 0 0 0 0 0 0 0 0 0 0 0 0 0 0 0 0 0 0 0 0 0 0 0 0 0 0 0 0 0 0 0 0 0 0 0 0 0 0 0 0 0 0 0 0 0 0 0 0 0 0 0 0 0 0 0 0 0 0 0 0 0 0 0 0 0 0 0 0 0 0 0 0 0 0 0 0 0 0 0 0 0 0 0
anunţ 0 0 0 0 0 0 0 0 0 0 0 0 0 0 0 0 0 0 0 0 0 0 0 0 0 0 0 0 0 0 0 0 0 0 0 0 0 0 0 0 0 0 0 0 0 0 0 0 0 0 0 0 0 0 0 0 0 0 0 0 0 0 0 0 0 0 0 0 0 0 0 0 0 0 0 0 0 0 0 0 0 0 0 0 0 0 0 0 0 0 0 0 0 0 0 0 0 0 0 0 0 0 0 0 0 0 0 0 0 0 0 0 0 0 0 0 0 0 0 0 0 0 0 0 0 0 0 0 0 0 0 0 0 0 0 0 0 0 0 0 0 0 0 0 0 0 0 0 0 0 0 0 0 0 0 0 0 0 0 0 0 0 0 0 0 0 0 0 0 0 0 0 0 0 0 0 0 0 0 0 0 0 0 0 0 0 0 0 0 0 0 0 0 0 0 0 0 0 0 0 0 0 0 0 0 0 0 0 0 0 0 0 0 0 0 0 0 0 0 0 0 0 0 0 0 0 0 0 0 0 0 0 0 0 0 0 0 0 0 0 0 0 0 0 0 0 0 0 0 0 0 0 0 0 0 0 0 0 0 0 0 0 0 0 0 0 0 0 0 0 0 0 0 0 0 0 0 0 0 0 0 0 0 0 0 0 0 0 0 0 0 0 0 0 0 0 0 0 0 0
producţie -0.09492158 0.16831662 -0.14862669 0.00010532289 0.019367015 -0.044323135 0.03215552 0.16121322 0.0382147 -0.09761997 0.09209187 0.0043678596 0.14901981 0.017360842 -0.089568146 -0.13203426 -0.114908315 -0.1625196 0.07265153 -0.03613239 0.008891194 0.089828596 0.18080725 -0.03093181 0.022932282 -0.096172415 -0.06537816 0.038852792 -0.21797173 -0.077044174 -0.004768682 -0.09356117 0.09259724 -0.0006206931 -0.079911366 0.08904836 0.06582479 -0.16937748 -0.036631316 0.07642595 0.06986466 -0.09131378 0.044097833 -0.115228735 0.0659981 0.038937647 0.09043702 0.026714437 -0.07704444 0.17002611 -0.052823525 -0.08294437 -0.12359177 0.009752282 -0.07055011 -0.0661095 0.104216136 0.06448765 -0.017300088 -0.014423598 -0.025052318 0.018387783 -0.13199864 -0.032330718 -0.008307742 0.11828703 -0.10927013 0.09324259 0.09765679 -0.073118776 -0.02671222 0.03113712 0.19530019 0.01265501 -0.026581885 0.05125522 -0.047920667 -0.05335618 0.035959944 0.07239308 0.03541895 -0.004749342 0.096335255 0.21003197 0.11105932 0.042832717 0.009677515 -0.011256238 -0.029839668 0.0790359 -0.050949 -0.11462522 -0.08896627 0.091348186 0.11285595 0.042775124 0.046678085 -0.017278962 -0.17543536 -0.1365848 0.053239506 -0.009053512 0.017913029 0.061239038 0.122649394 0.027594926 -0.042322196 0.14561819 0.008901731 -0.024903439 -0.1707899 -0.0552754 -0.092920355 -0.007344192 -0.020164307 0.08587557 -0.09240743 0.108777456 -0.009189764 -0.026711153 0.025124114 -0.08049367 0.09006107 0.049767632 0.01599789 0.10120206 -0.019671716 -0.06182703 -0.064434536 0.14660066 0.06948139 0.05387891 -0.083444916 -0.17235331 0.10299052 0.018121555 -0.10363348 -0.024382886 -0.057652466 -0.025906399 0.05649135 0.010353894 0.006453277 -0.012977788 0.14507268 0.08322613 -0.10010511 0.11187886 0.07271913 0.009371923 0.14221334 -0.050586805 -0.034854375 -0.089537755 -0.054604903 -0.012934281 0.089943595 -0.028990619 -0.013093476 0.07543569 0.06067598 0.123578385 -0.078325555 0.01407371 0.09597224 -0.04492519 -0.019736158 -0.025709506 0.025559012 0.10444103 0.09856766 0.029666055 0.17779414 0.03568032 -0.19737801 -0.009153139 0.06091502 -0.17629561 0.0095687285 -0.10168634 -0.07153995 0.029373147 -0.07138278 -0.056263365 -0.011296559 0.016860737 0.03180562 0.103027865 0.06316108 -0.048439685 -0.0038148325 -0.030255584 -0.05923827 -0.08691776 -0.10444662 -0.11955682 0.076732 0.0060561867 -0.022023646 -0.090627946 0.013586378 -0.0172898 0.11633454 -0.023893049 0.08344204 0.0064529637 -0.004571277 0.12100972 -0.102712296 0.02573838 0.046471845 -0.031530157 -0.16213539 -0.004089118 0.06435354 -0.022532536 -0.06804785 -0.09402467 -0.18093403 -0.10118274 -0.035009556 0.018497722 0.0069105923 -0.05548319 0.02600056 -0.1203065 0.025783002 -0.08892213 -0.10236781 0.0065143676 0.177962 0.050925378 -0.10594427 0.021562163 -0.1281819 0.101897754 -0.05264147 0.12834305 0.07479378 -0.10575077 0.04434518 -0.036284033 -0.02914651 0.057118896 -0.051000934 0.0064768414 0.068787485 0.10836989 0.07262668 0.097106025 -0.031532064 -0.032360446 0.063598014 0.0015700897 -0.028736329 -0.06005508 0.045210928 0.073911004 -0.08086008 -0.1256358 -0.114987634 0.084003 -0.011953168 -0.06318071 -0.13011847 -0.03895317 0.10366629 0.030420588 -0.0068911794 -0.007771729 -0.02877383 -0.02348672 0.13098289 -0.13946347 -0.019472644 -0.005408173 -0.051226553 0.12365336 0.03480472 -0.04678993 0.07712646 -0.10879635 -0.022890816 -0.027559793 -0.024745949 -0.022432266 -0.15540208 0.065811075 0.033561237 0.09646565 -0.010957377 0.020412002 0.051841147 -0.06649085 -0.015362217 0.20435698 -0.040404674 -0.09201582 0.09485838 -0.01698266
anunţ 0 0 0 0 0 0 0 0 0 0 0 0 0 0 0 0 0 0 0 0 0 0 0 0 0 0 0 0 0 0 0 0 0 0 0 0 0 0 0 0 0 0 0 0 0 0 0 0 0 0 0 0 0 0 0 0 0 0 0 0 0 0 0 0 0 0 0 0 0 0 0 0 0 0 0 0 0 0 0 0 0 0 0 0 0 0 0 0 0 0 0 0 0 0 0 0 0 0 0 0 0 0 0 0 0 0 0 0 0 0 0 0 0 0 0 0 0 0 0 0 0 0 0 0 0 0 0 0 0 0 0 0 0 0 0 0 0 0 0 0 0 0 0 0 0 0 0 0 0 0 0 0 0 0 0 0 0 0 0 0 0 0 0 0 0 0 0 0 0 0 0 0 0 0 0 0 0 0 0 0 0 0 0 0 0 0 0 0 0 0 0 0 0 0 0 0 0 0 0 0 0 0 0 0 0 0 0 0 0 0 0 0 0 0 0 0 0 0 0 0 0 0 0 0 0 0 0 0 0 0 0 0 0 0 0 0 0 0 0 0 0 0 0 0 0 0 0 0 0 0 0 0 0 0 0 0 0 0 0 0 0 0 0 0 0 0 0 0 0 0 0 0 0 0 0 0 0 0 0 0 0 0 0 0 0 0 0 0 0 0 0 0 0 0 0 0 0 0 0 0
avertisment 0.24837135 0.16003409 -0.31441653 -0.20565692 0.02204505 -0.025901949 0.15404534 0.21084307 0.3820425 -0.23288773 -0.011828243 0.0069507794 0.39746016 -0.3191364 0.11653567 -0.13702643 -0.2119216 0.09964216 0.4408062 -0.23768483 0.38878044 -0.09794952 -0.10699757 0.102976575 -0.15714385 -0.29880664 -0.2175676 -0.14900538 0.057751924 -0.4156076 -0.52890927 -0.07764648 -0.35999924 -0.41408023 0.3917355 0.09319362 -0.22250365 0.012155921 0.041948263 -0.09034346 0.17917207 0.1519144 -0.14729339 -0.58498627 0.53244233 0.1507303 -0.084553435 0.2425982 -0.08814199 0.3632922 -0.08646834 0.11915246 -0.78764224 -0.16356848 0.07736638 -0.4812718 0.33105606 -0.20224747 -0.10835129 0.14471929 0.09846794 0.0072098784 -0.31486613 0.004254601 0.13478948 0.2083523 -0.28843963 0.32188413 -0.40503955 -0.12244368 -0.40108344 0.104318626 0.23466387 -0.09887411 0.3134127 -0.22856526 -0.107611865 -0.06851094 -0.4023705 -0.08159718 -0.07327823 -0.17238058 -0.14979178 0.5413884 -0.39525 -0.023100052 0.41860595 0.055732965 0.1307001 -0.110244386 0.31113234 -0.19827385 0.13381253 -0.28697145 -0.18791734 -0.01764757 0.3843777 0.26001537 -0.1422486 -0.18581216 -0.20554328 -0.2839773 -0.32200238 -0.11131816 0.47745922 -0.17018214 -0.5137912 -0.06098372 -0.3076275 0.2921385 -0.26384324 0.14432326 -0.085151166 0.54310596 0.24124594 0.036284175 -0.048331518 -0.09212121 0.10908934 -0.32561073 -0.21623309 -0.10935783 -0.08792741 -0.0868608 -0.06435169 0.118437305 -0.47022364 0.13100357 -0.015025215 -0.13602695 0.3397981 -0.19433679 -0.09564246 -0.31622967 -0.026118381 0.05701785 -0.29845494 -0.2822165 -0.39680645 -0.5697082 2.6036114e-05 -0.075195126 0.21644606 -0.03296824 0.25359806 0.099608034 0.17258874 0.46669713 0.3890273 -0.2173961 0.3875467 -0.22613756 0.15109164 -0.043436073 0.11445168 0.097858064 -0.018087212 -0.30462465 0.29615998 0.011821641 0.07744157 0.30653766 -0.2963343 -0.17945482 0.07174902 0.28342316 -0.5935269 -0.26996452 0.23428778 -0.03204738 -0.11145801 -0.32200035 0.07144786 0.30724245 0.014138017 0.13644388 0.22226706 -0.03169014 -0.17567289 -0.22943187 -0.042430982 -0.03498356 -0.29066828 -0.17344052 -0.10494529 -0.07653374 -0.31408998 0.18996707 0.5105068 0.114453964 0.02029551 -0.079817824 -0.39612055 -0.19574107 0.24847604 -0.25824544 -0.19465865 0.023445075 0.15197988 0.19659519 0.06537066 0.10926943 -0.09557492 -0.2201859 -0.021735644 0.10720839 0.28117087 0.056268014 -0.26568925 0.40697247 0.18643267 -0.04920013 0.030439649 -0.26687726 -0.07717051 0.07870449 -0.12997632 -0.66803485 0.010651125 -0.07737064 0.007534951 -0.10621603 -0.20869224 0.03667902 -0.02283391 -0.11454253 -0.18953276 0.1654468 0.060209773 -0.39260998 0.3134747 0.020237848 0.31116807 -0.13200004 -0.27830422 -0.22186226 0.39338034 -0.24135914 0.18105343 -0.34718183 -0.33135867 0.0325257 -0.1739171 -0.16413434 -0.45548353 -0.1835909 0.08901125 -0.08557714 0.17238615 0.36927545 0.32486182 0.1185796 -0.01378029 0.12520748 -0.3160432 0.08598695 0.0790025 0.36599037 -0.35446325 0.0032481567 0.1855819 0.42084152 0.55011845 -0.15667053 -0.56263006 -0.23695065 0.39157003 0.24509825 0.052495223 0.41309604 -0.1400285 0.07106176 -0.11932516 -0.2822627 0.08023226 -0.18688017 -0.24701406 0.0028679345 0.25544122 -0.0653164 -0.07672457 -0.16624212 -0.34007412 0.15471904 0.12933816 -0.26253897 -0.3994172 -0.28276178 -0.100711934 0.18106994 -0.06331103 0.6452101 0.28278166 0.16117752 0.49466863 0.22504468 0.03701695 -0.32931483 0.15554094 -0.53630966
Arafat 0 0 0 0 0 0 0 0 0 0 0 0 0 0 0 0 0 0 0 0 0 0 0 0 0 0 0 0 0 0 0 0 0 0 0 0 0 0 0 0 0 0 0 0 0 0 0 0 0 0 0 0 0 0 0 0 0 0 0 0 0 0 0 0 0 0 0 0 0 0 0 0 0 0 0 0 0 0 0 0 0 0 0 0 0 0 0 0 0 0 0 0 0 0 0 0 0 0 0 0 0 0 0 0 0 0 0 0 0 0 0 0 0 0 0 0 0 0 0 0 0 0 0 0 0 0 0 0 0 0 0 0 0 0 0 0 0 0 0 0 0 0 0 0 0 0 0 0 0 0 0 0 0 0 0 0 0 0 0 0 0 0 0 0 0 0 0 0 0 0 0 0 0 0 0 0 0 0 0 0 0 0 0 0 0 0 0 0 0 0 0 0 0 0 0 0 0 0 0 0 0 0 0 0 0 0 0 0 0 0 0 0 0 0 0 0 0 0 0 0 0 0 0 0 0 0 0 0 0 0 0 0 0 0 0 0 0 0 0 0 0 0 0 0 0 0 0 0 0 0 0 0 0 0 0 0 0 0 0 0 0 0 0 0 0 0 0 0 0 0 0 0 0 0 0 0 0 0 0 0 0 0 0 0 0 0 0 0 0 0 0 0 0 0 0 0 0 0 0 0
Jackson -0.073818326 0.22780009 0.091094956 -0.057847563 -0.30817428 0.22222683 -0.20820864 0.5450773 0.10685004 0.10332388 -0.13642171 -0.047639526 0.013524648 -0.0038474044 0.081686646 -0.053592417 -0.47145513 -0.16958888 0.1478636 -0.09688936 -0.2584518 0.17837346 -0.004992594 0.3385196 0.04552761 0.07206137 0.020902311 -0.18751158 0.14707896 0.072283976 -0.24384111 -0.26548812 -0.22564168 -0.050194938 -0.48162717 0.1360238 0.085767426 -0.06842134 0.12063501 0.16389792 -0.09860418 -0.014710438 0.027556924 -0.14336304 -0.05470163 0.07483595 -0.11652055 0.13507937 0.112681665 0.045543566 0.13124412 -0.0038939628 0.008649026 -0.10531942 0.03596038 -0.086449385 0.27669784 0.28155082 0.066563204 -0.17855297 0.08518189 0.3490747 -0.036875144 0.32771167 -0.1976779 0.025407435 -0.023883604 0.24255294 -0.061943922 0.014627728 0.07865866 -0.1326111 -0.073196605 -0.44341514 -0.020274132 0.01810129 -0.051328 0.12005269 -0.007880346 0.18277283 0.009089378 -0.45445153 0.13445358 0.09513977 0.06473869 0.17078602 -0.25648728 -0.13494532 -0.08292003 -0.06433621 0.30316567 -0.15774085 0.15373197 0.11138923 0.3543437 0.15664032 0.26102695 0.15495132 -0.119168416 0.16492008 0.108323835 0.10191968 0.23646034 0.13262714 0.015638229 0.2382595 0.20022482 -0.05082078 -0.031154228 -0.070060305 -0.32458782 -0.14178489 -0.04230261 -0.06153713 0.26033214 0.06951481 -0.21946631 -0.14336675 0.27274805 -0.53347796 0.21555632 0.1325652 -0.023235066 -0.14147343 0.11556679 0.063134216 0.091269486 -0.41615316 -0.014258147 -0.03822284 0.17116806 0.13327579 -0.057287436 -0.11316652 0.31954187 0.11987038 0.2678016 0.047868833 0.015560815 0.19544594 0.036738515 0.09555085 0.011137355 -0.33548394 0.11143028 0.14035508 -0.38195544 0.18169613 0.18127501 -0.043891 -0.2320476 -0.051776785 0.13629568 0.1466266 0.16049092 0.17335586 -0.10158765 0.020327307 -0.0031526014 -0.0067900736 -0.19813752 -0.013177156 -0.023761591 -0.1380585 0.35046333 -0.03354135 0.14408395 0.042535495 -0.12494515 0.38287914 -0.017494444 0.0028384193 0.10123471 -0.20004268 -0.26346993 0.31080258 0.094082296 0.12628491 -0.2132961 0.023933701 0.10955307 -0.12754107 -0.35156888 -0.11125226 0.23432419 0.09265654 0.22396979 0.32698962 0.18637222 -0.15510081 -0.081975795 -0.03560378 -0.14217705 -0.33748496 -0.053307988 -0.21346611 0.029130094 -0.18473782 0.0039272606 -0.14115101 -0.052892935 0.2608207 -0.0405281 -0.20520031 0.019544834 -0.1017872 0.1885042 0.03134554 -0.014227119 0.14440447 -0.050911427 -0.0864901 -0.18358664 0.03526737 -0.23303132 -0.22146699 -0.009518002 0.014034561 0.06443832 0.06469181 0.14085145 -0.10287059 -0.21002792 -0.051037636 -0.15509635 -0.057516165 0.15347387 0.073290385 -0.18681426 -0.058132533 0.0017513488 0.05340219 -0.48159364 0.29752177 0.066353664 -0.28308654 0.03280147 -0.048363663 -0.1795495 -0.17637385 0.16986735 -0.012518403 -0.22875814 0.08721649 0.25830927 -0.14907764 0.208332 0.03955841 -0.10502378 0.3078129 0.20596507 -0.03220654 0.18265292 0.12320344 0.10157752 0.10942829 0.047118787 0.2355952 -0.36278152 0.08737561 -0.047939423 -0.06526906 0.01818268 -0.09529997 -0.20541339 0.013614736 -0.06677033 -0.0063334354 0.10096559 -0.07636706 -0.2627535 -0.0511158 -0.12522584 -0.20106946 -0.13617443 -0.02594287 -0.042692665 0.24177045 0.114211366 -0.31050664 -0.098089844 -0.32001868 -0.08043135 0.16107127 0.17861113 -0.094539955 -0.11175046 -0.059584226 -0.11518166 0.24323083 -0.14375605 0.051587176 -0.10364486 -0.22365901 -0.09246368 0.35244945 0.0066856216 -0.060887676 0.18057033 0.025566744
Arafat 0 0 0 0 0 0 0 0 0 0 0 0 0 0 0 0 0 0 0 0 0 0 0 0 0 0 0 0 0 0 0 0 0 0 0 0 0 0 0 0 0 0 0 0 0 0 0 0 0 0 0 0 0 0 0 0 0 0 0 0 0 0 0 0 0 0 0 0 0 0 0 0 0 0 0 0 0 0 0 0 0 0 0 0 0 0 0 0 0 0 0 0 0 0 0 0 0 0 0 0 0 0 0 0 0 0 0 0 0 0 0 0 0 0 0 0 0 0 0 0 0 0 0 0 0 0 0 0 0 0 0 0 0 0 0 0 0 0 0 0 0 0 0 0 0 0 0 0 0 0 0 0 0 0 0 0 0 0 0 0 0 0 0 0 0 0 0 0 0 0 0 0 0 0 0 0 0 0 0 0 0 0 0 0 0 0 0 0 0 0 0 0 0 0 0 0 0 0 0 0 0 0 0 0 0 0 0 0 0 0 0 0 0 0 0 0 0 0 0 0 0 0 0 0 0 0 0 0 0 0 0 0 0 0 0 0 0 0 0 0 0 0 0 0 0 0 0 0 0 0 0 0 0 0 0 0 0 0 0 0 0 0 0 0 0 0 0 0 0 0 0 0 0 0 0 0 0 0 0 0 0 0 0 0 0 0 0 0 0 0 0 0 0 0 0 0 0 0 0 0
pace -0.16674384 0.58992845 0.18709217 -0.11495485 0.081206575 0.09860302 -0.045118384 0.12630652 -0.03353299 -0.69837564 -0.07868599 0.058856454 -0.1014244 -0.0061258418 -0.054034688 -0.061671402 0.43211764 0.4056027 -0.0013319775 -0.17473924 0.019128054 0.23023424 0.115946576 -0.4140135 0.22348393 -0.42498198 -0.46959555 -0.38212436 0.27624997 -0.49994767 0.037365943 -0.4627307 0.13918255 -0.07457222 0.17792206 0.035791773 0.25062725 -0.19493923 -0.5735462 0.34442198 -0.009053891 0.05630065 -0.40698716 0.005182063 0.71598774 0.4021972 0.21754733 0.037893195 0.08886649 0.15673704 -0.116449796 -0.0087299 0.034173325 0.30242833 -0.18182309 -0.25010473 -0.17540804 0.1114886 -0.119261935 0.08222845 0.35662657 0.5445511 0.11370972 0.09569355 0.13079506 0.05252909 0.11847498 0.64356655 -0.41613513 0.16906461 0.36776078 0.2647333 -0.20248862 -0.006499019 0.04452887 0.121304646 0.47820365 -0.12444327 0.18886437 -0.31897515 0.50083655 -0.09269472 -0.2819133 0.70982504 -0.007731655 0.31276572 -0.100729115 -0.22450301 -0.102920674 0.2834595 -0.15359098 -0.22424917 -0.11485018 -0.07817654 0.16431269 -0.14414702 0.16580233 0.036660254 -0.118266925 0.09345316 0.24170117 0.053355772 -0.13356996 0.23313451 -0.0389736 0.39135885 -0.2296897 0.20457749 -0.6561674 0.13934068 -0.6595422 0.3005298 -0.017178094 -0.41039407 -0.13557582 0.028638346 -0.085898325 -0.0444659 0.108900465 -0.02534942 -0.27724984 -0.3636402 0.41492426 -0.07245198 -0.57359356 0.014913738 -0.10612053 -0.10635401 -0.06056143 -0.21001011 -0.35910583 -0.31104988 -0.03391912 0.0070287506 -0.27128342 0.8265802 -0.12552343 0.2838227 0.026939446 0.2111486 0.30704328 0.17912117 -0.22960865 0.34968472 0.46608064 0.55413914 0.13153207 0.20441674 -0.007551328 -0.5562125 0.2500227 -0.18594795 0.030764576 0.0046180882 0.4052952 0.56523985 -0.13586482 -0.0889603 -0.009101664 0.13307588 0.20432214 0.38893417 -0.42063016 -0.48783636 0.004067466 -0.07660401 0.0925868 -0.24045399 -0.11125545 0.300038 -0.45633715 -0.58195055 0.32404774 -0.20467097 0.25445923 -0.27951324 0.31488883 0.082941175 0.42284605 -0.4695657 -0.6430793 0.05456281 0.12995592 0.09103665 0.07907238 0.39878792 -0.17494252 0.43348762 0.08851497 -0.22423786 -0.26427367 0.14533202 -0.07360353 0.009076474 -0.04995339 -0.42951632 -0.2823877 -0.5063127 0.39511725 -0.2694527 -0.5348724 0.43555674 0.17808181 -0.19868736 0.0032858676 0.23976558 0.08550627 0.011870856 0.1396019 0.052490797 0.24087222 -0.108338915 0.3770125 -0.41002244 0.212444 0.005010272 -0.11446583 -0.5711613 -0.76686835 0.16512448 -0.12634492 -0.044093113 -0.43643335 -0.16078152 -0.23994426 -0.12491218 -0.35909104 0.34057048 -0.28493962 -0.260125 0.60708714 0.15194999 0.2139711 -0.16853672 -0.13589807 -0.17286667 0.0653272 0.11156202 0.16618074 -0.37941408 0.23375812 0.08504664 0.12990804 -0.4141609 0.5283249 -0.41555578 0.17627917 0.39690584 0.6368534 0.056106642 -0.30523157 0.15045317 0.1477703 0.26636174 0.69226485 -0.35833356 0.5309096 -0.04083431 -0.62155724 0.11508919 -0.5247359 -0.45042816 -0.19476546 -0.12374527 -0.100485474 -0.56647563 0.73472804 -0.28633013 0.12200665 -0.094783425 -0.063263446 -0.044235464 0.24132542 -0.13421604 -0.08457343 -0.2568027 -0.5509661 -0.2227062 -0.13345283 -0.36155728 -0.044035845 0.09738194 -0.016238205 -0.26580226 0.3843543 -0.8483937 -0.058926616 -0.048059545 -0.14599349 0.0035283498 0.3460517 0.31677178 0.3485605 0.2130124 0.4854662 0.3078355 0.16645814 -0.64359295 0.02932311 -0.5634143
Arafat 0 0 0 0 0 0 0 0 0 0 0 0 0 0 0 0 0 0 0 0 0 0 0 0 0 0 0 0 0 0 0 0 0 0 0 0 0 0 0 0 0 0 0 0 0 0 0 0 0 0 0 0 0 0 0 0 0 0 0 0 0 0 0 0 0 0 0 0 0 0 0 0 0 0 0 0 0 0 0 0 0 0 0 0 0 0 0 0 0 0 0 0 0 0 0 0 0 0 0 0 0 0 0 0 0 0 0 0 0 0 0 0 0 0 0 0 0 0 0 0 0 0 0 0 0 0 0 0 0 0 0 0 0 0 0 0 0 0 0 0 0 0 0 0 0 0 0 0 0 0 0 0 0 0 0 0 0 0 0 0 0 0 0 0 0 0 0 0 0 0 0 0 0 0 0 0 0 0 0 0 0 0 0 0 0 0 0 0 0 0 0 0 0 0 0 0 0 0 0 0 0 0 0 0 0 0 0 0 0 0 0 0 0 0 0 0 0 0 0 0 0 0 0 0 0 0 0 0 0 0 0 0 0 0 0 0 0 0 0 0 0 0 0 0 0 0 0 0 0 0 0 0 0 0 0 0 0 0 0 0 0 0 0 0 0 0 0 0 0 0 0 0 0 0 0 0 0 0 0 0 0 0 0 0 0 0 0 0 0 0 0 0 0 0 0 0 0 0 0 0
teroare 0.024199396 0.4447323 -0.17967218 0.09714702 -0.11623935 0.21418785 0.014092583 0.099301875 -0.14182085 -0.08992304 0.13262272 -0.04737316 0.069179684 0.18141969 -0.09475694 0.26677227 0.018720165 -0.1875383 0.16153699 -0.7827364 -0.24490185 0.0704425 0.21605285 0.074747324 0.07278555 -0.0025001862 -0.6409904 -0.1297285 -0.64261776 -0.27846977 0.15629762 -0.5341122 0.24840954 -0.1989803 -0.20830536 0.027682882 0.02251822 0.22228651 0.081155516 -0.019192323 -0.051250152 0.24617814 -0.10392434 -0.2876186 0.5723034 -0.025351066 0.07752347 -0.13436346 0.076221734 -0.3262924 0.13100581 -0.4917626 -0.43546543 0.10000851 0.21488579 0.37425786 0.30412033 0.09587661 -0.29252228 -0.44039148 -0.3226352 0.24624896 -0.3093191 0.112633154 0.0022899825 0.4133896 -0.35878587 0.2620008 -0.47141242 -0.07782067 -0.039194673 0.6453553 0.14402254 -0.05826815 0.38052955 -0.29620406 0.08631848 -0.26791352 0.1414528 -0.0104704015 -0.040339693 0.079663955 -0.13327116 0.28424245 -0.30077723 -0.40942955 0.23110674 0.13887934 0.17771015 -0.010632255 0.47524178 -0.021734279 0.31135795 0.15384054 -0.23835574 -0.26383626 0.12316246 -0.6065258 -0.4033582 -0.41479152 -0.133096 0.27219984 -0.22917242 0.08967301 -0.08986916 0.18048379 -0.13049193 0.2587231 -0.3110705 0.31003925 -0.20004755 -0.080280714 0.1340176 0.048198875 0.16037178 -0.19160266 0.1994905 -0.048266366 0.13004388 -0.21489018 -0.32272163 0.16462234 0.32580143 -0.2884594 0.09014848 0.12690003 -0.60630757 0.0412197 0.053637486 0.14505798 0.13819712 0.42283854 -0.16671291 -0.30759674 -0.167234 0.3265808 0.21696697 0.12798068 -0.010807448 -0.25435936 0.5360695 0.06699959 0.4635969 -0.07505334 0.16688946 0.32247445 -0.063131504 0.22266692 0.4595831 0.091939345 0.38946924 -0.14408857 0.3609327 -0.53479034 -0.11971792 0.1149247 0.09545702 -0.19296804 0.0035379769 0.012750825 -0.09728907 0.40684518 -0.08749155 0.09945942 -0.11091048 -0.057089336 -0.23482554 -0.14082468 0.33572868 -0.011118589 -0.48956996 0.31039348 0.28968728 0.26730645 -0.2748518 0.46042448 0.05082445 -0.5211537 0.08396356 -0.338971 0.12164164 -0.4008005 -0.20837367 -0.020884603 0.22327387 -0.09708564 -0.12023937 -0.06170697 0.230659 0.13151217 0.2738481 -0.47927612 -0.3457349 0.1546078 -0.32615396 0.06061759 -0.38612598 0.1536157 0.29377025 -0.3130766 -0.009797982 0.11748743 0.21187435 -0.19636531 0.35960355 0.3728632 -0.39990953 0.08895849 0.22159854 -0.44857764 0.64050424 0.28454053 -0.19446698 -0.6741889 0.26716712 0.058874488 -0.3695812 -0.23440234 -0.49428025 0.24689607 0.21646313 -0.15428434 0.037683234 0.10869112 -0.30302832 0.29946837 0.10407667 -0.40736374 0.11170155 -0.0026799107 0.2315729 -0.02178463 0.03707318 0.45919973 -0.019192379 -0.08406344 -0.6039642 -0.32477036 0.01282752 -0.30474123 -0.48998827 0.17462263 -0.18658465 -0.17287341 -0.22008237 -0.2508496 0.399753 -0.13838679 0.071105175 0.19994828 0.098145135 0.07843076 -0.112396985 0.2940021 0.16007535 -0.10949009 0.1462683 0.0006921927 -0.30241883 -0.41373572 0.19414799 -0.06757914 0.10601117 -0.10809484 -0.503759 -0.0057134614 0.52641153 0.33434555 -0.36707598 0.06514938 -0.268537 0.18510078 -0.20014344 -0.055588562 0.16569851 -0.4013215 -0.20850635 0.061998717 -0.2787785 -0.31149948 0.19763227 -0.14869781 -0.0037078194 0.040659495 -0.09989047 -0.34830225 -0.36054224 -0.12917623 0.02965197 0.13050078 -0.17046343 0.3897011 -0.02561939 0.3686937 0.5698116 0.18850328 0.34616184 0.28585336 0.35156828 -0.34921908
arhitectură -0.03893588 0.017840274 0.18321043 0.10230546 -0.3583094 0.3644766 0.5229548 -0.0496243 -0.09972289 -0.034547906 -0.02792542 -0.16766435 -0.057586018 -0.2511503 -0.4207834 -0.35323423 -0.15270373 -0.011367915 -0.08674374 -0.4993524 0.20554818 -0.051154934 0.15839612 -0.17580226 0.42377353 -0.7644809 -0.07905448 0.66292053 -0.08822992 -0.18175438 0.17315502 -0.065187514 0.4108587 0.44432735 -0.035533752 0.18801568 0.13022205 -0.07950756 0.1484531 -0.043399625 -0.30162925 0.482757 -0.043177873 0.1973647 0.12222234 0.032941982 -0.13347718 0.053565327 0.05342319 0.34368837 -0.3831947 0.013681709 -0.05475651 0.36810878 -0.5054783 0.44484496 -0.038771376 0.37469092 0.07023845 0.046653125 -0.208966 0.52882624 0.28689566 -0.3276808 -0.46536016 -0.117425784 0.19091095 0.32437277 -0.912417 -0.8389765 0.2821244 0.29701543 0.4721882 -0.056696396 0.26579472 -0.40447393 0.33264446 0.28299615 0.22567828 -0.34959033 0.40813595 0.010941411 0.11424732 0.40380976 0.44974813 0.11222002 0.21821202 -0.24441041 -0.10060731 0.49626893 -0.03694811 -0.30441236 0.34930685 -0.24709417 0.3777177 -0.09056969 0.48173463 -0.4185082 -0.0031575814 0.11755742 0.11506684 -0.0501442 0.31435156 0.57846534 0.02672814 -0.09404283 0.23857762 0.76020473 -0.3180507 0.2931877 -0.4459734 0.13423754 0.04252909 0.35730442 -0.2942924 0.1725339 -0.03843173 0.17614445 0.35491133 -0.21919477 -0.45478392 -0.3288686 0.42938918 -0.15617415 -0.13022207 -0.20854345 0.08659461 -0.0635377 -0.3892086 0.6686151 -0.112831175 0.45275912 -0.27242935 -0.21920496 0.039198577 -0.054633096 -0.2731492 -0.16645205 -0.2825829 0.45027858 -0.04047971 0.09143028 0.4142296 0.6425004 -0.15740733 -0.17141952 -0.12151559 0.031603012 0.066399075 -0.25171682 0.10023127 0.16853711 0.22856277 0.20533088 0.4211576 -0.044392515 -0.5060045 -0.6146626 0.0004735029 0.35518453 0.15566869 -0.24282663 -0.15830858 0.10175788 -0.024783663 -0.15863584 -0.03376303 -0.22188388 0.26019785 0.42104882 -0.10339779 -0.21806498 -0.023286875 -0.45870343 -0.34877965 -0.19157517 0.12796576 -0.22488885 -0.22954117 -0.21402735 -0.090160064 -0.1944414 -0.04263775 -0.19821894 -0.49564123 -0.11689854 -0.045942016 0.82500744 0.3424249 -0.011437584 -0.025896102 0.13488795 0.33247805 -0.33295488 -0.13071877 -0.050289113 0.40898234 0.006900634 -0.14687814 -0.08886218 0.032575008 -0.43026647 0.25996166 0.31952536 0.086673416 -0.15031551 0.64245886 0.022081522 -0.039950456 0.180621 -0.009462266 0.26096734 0.2137603 0.5134954 -0.22993255 -0.43519494 0.2072178 -0.37704235 -0.44221446 -0.35922706 -0.283308 0.16453345 -0.06569852 -0.58554375 -0.0498252 -0.08074799 -0.22315389 -0.23163146 -0.3711832 0.33626327 -0.24607833 -0.102764286 -0.071686454 0.052692715 0.115029074 0.20704481 -0.12372673 0.2968161 0.056195978 -0.42117986 0.13351716 -0.5688761 0.26097095 -0.04723369 0.16018994 -0.2800915 -0.0719388 -0.08043019 -0.029108115 0.04041354 0.08054513 0.27778256 -0.20409298 0.012630115 0.146949 0.00985211 0.49217334 0.24133188 -0.41809288 -0.28581953 -0.086523354 0.14587948 0.2967457 0.15506089 -0.037318747 0.09607448 0.43827227 -0.34761965 -0.22876038 0.11293172 0.020355169 0.047896404 0.000554969 0.29563916 0.00956026 0.18405929 -0.23182017 -0.044430062 -0.023204777 0.25954068 0.0910299 0.2164183 -0.024734836 0.30580592 -0.41091982 -0.11097591 -0.6594842 0.43422365 -0.0070025404 -0.19171132 0.19948392 -0.03665764 0.14389625 0.36252186 0.2774869 0.5447419 0.025219224 0.3541796 -0.09956818 -0.37656423
secol -0.37801957 0.022708243 0.4976331 -0.20420912 -0.08017059 -0.22610776 0.36719653 0.2359909 -0.22520852 -0.23768179 0.10573781 -0.040506743 -0.004485033 -0.18483941 0.3046066 -0.5796087 -0.20287782 -0.07656882 -0.039893206 -0.18230024 -0.12029143 -0.14961751 -0.012438755 0.22028463 0.15972541 -0.30206224 -0.092909634 0.08255311 -0.15396254 0.21533503 0.41290945 -0.10921384 -0.23521185 -0.174047 -0.14914493 0.18668927 0.054928515 -0.23706135 -0.60947806 0.35298172 -0.027064197 0.55007964 0.05809968 -0.6060883 0.30414262 -0.102899715 0.53303224 0.2405118 0.23358895 0.15552157 -0.27305982 0.25121316 -0.14176713 0.16397467 -0.23219897 0.13539118 0.051406063 -0.07719027 -0.10730007 -0.26103273 -0.028558189 -0.17771143 -0.1866516 -0.02623417 -0.030681057 0.19209345 0.35420647 0.440378 -0.5594087 -0.1680189 0.22299582 0.105669364 -0.35907298 -0.3556938 0.15485181 -0.37497854 0.18190862 -0.05478905 -0.043809008 0.20746525 0.07805875 -0.27834636 -0.2479027 0.7242012 -0.00065963593 -0.061886452 -0.06025035 0.117166825 0.51454645 -0.15756702 -0.5058236 -0.41011673 -0.2288232 0.025022272 -0.19515271 0.05992781 0.25788462 0.13419853 0.29685777 -0.16450298 0.21233173 -0.09201346 0.09285448 0.46215117 -0.015892783 -0.09688626 -0.13531551 0.0064901835 -0.35286683 0.17014372 -0.06950763 0.5999821 -0.12648858 0.4514014 0.22507596 0.23556599 0.33766657 -0.23847046 0.20058833 0.21730065 -0.30699244 0.22273101 0.4171328 -0.59273076 0.0594646 -0.15015747 -0.10830449 0.03997789 0.11914742 0.011883859 0.058271166 0.5899976 0.003997932 -0.41883013 -0.12032895 0.0014979108 -0.15840805 -0.5978316 -0.4965575 0.10044728 0.06170018 -0.26358688 0.04760709 -0.0759181 -0.25531888 -0.3665832 0.021799145 -0.08129267 0.35539573 -0.13542596 0.13855177 -0.27442694 -0.11243601 -0.31345862 0.3617401 0.032221593 -0.400318 -0.49820107 0.16151561 0.14688985 -0.18651956 -0.031191643 -0.6433834 -0.2553316 -0.25505894 0.13181137 0.26471564 -0.21082476 0.25883391 -0.18322459 0.19802019 0.02335206 0.26096055 0.02400929 -0.76493984 0.15299505 0.33020225 -0.38768998 -0.23871955 -0.18994257 -0.35210323 -0.1151149 0.08397109 0.04617465 -0.41147482 0.24199264 -0.04409789 0.05336149 0.08930438 0.0036292458 0.28277305 0.15901376 -0.39167538 0.11948405 -0.21227929 -0.021219248 -0.12098907 -0.15614845 0.03737629 -0.23620822 0.16800691 -0.1598249 0.26381293 0.005156902 0.33035403 -0.3430689 0.57160336 0.023012627 0.021359414 0.19409105 -0.14352398 -0.07807544 -0.06968825 -0.14075889 0.2527219 0.1328755 -0.068816334 -0.81171453 -0.3538141 0.16921216 -0.014120201 -0.25014943 -0.15835333 -0.4289383 0.39706156 -0.10706755 0.15529054 -0.010460612 -0.12271073 -0.14888462 -0.31344897 0.053321596 -0.51426154 0.41646788 -0.026528686 -0.13867112 -0.29890642 0.33000663 0.2903544 -0.44246638 -0.15569516 -0.43835905 0.3533706 -0.0039170906 0.007569586 -0.08426136 0.078213036 0.43082178 -0.30465558 -0.26122847 -0.33161926 -0.21520978 -0.0007281277 0.15340415 0.06580813 0.2467139 -0.059966244 0.13899292 -0.09145566 -0.5277676 -0.09293151 0.1821649 0.109912984 -0.020581419 -0.15229802 -0.08716115 0.28930724 0.49211583 -0.24843453 -0.08111857 0.20270056 0.44089073 0.17929147 0.1817291 0.23241608 -0.024252119 0.57327986 -0.29207587 -0.030840434 0.0012257651 -0.07509165 -0.040749 -0.13655762 -0.18746962 -0.0066220383 -0.24544959 -0.061511774 0.14927693 0.24402842 0.121997215 -0.23584095 0.70912415 0.18801013 0.123906046 0.17511395 0.28505018 -0.035941325 0.07101343 -0.083331265 -0.331962
aranjament -0.07297056 0.26622182 -0.31179023 0.024089435 -0.4733119 0.048807997 0.32667738 0.34069556 0.14016075 0.21517597 0.065343864 0.24316695 0.32210913 -0.19469313 0.1996477 -0.11463322 0.17980725 0.18343782 -0.19608058 0.42305186 -0.018851923 -0.14124033 -0.08979105 0.19105135 -0.12600787 -0.23343778 -0.31069562 0.027173342 -0.0358959 0.027044179 0.037008684 0.076440714 0.10379757 -0.20087048 -0.23814602 -0.36314383 0.05355193 -0.18549776 -0.19049327 0.096064635 0.22092833 -0.15868704 0.37557083 -0.4451175 -0.21223536 -0.028819615 -0.5543826 0.53073347 0.32276878 0.4725397 0.30702034 -0.3074201 -0.5259568 0.3521966 -0.033719648 -0.088138565 0.49950835 -0.20107478 -0.23539618 0.20506191 0.32374012 0.09281196 0.2907868 0.53443515 0.02947338 0.13111366 -0.10379584 0.27412298 0.091394514 0.37279376 -0.15123664 0.20569791 0.3839357 -0.22830255 0.08780548 0.12636977 0.30230385 0.1059231 -0.09360805 -0.028723737 0.3539352 0.020310314 -0.07575035 0.8730184 0.07900562 0.1064042 0.02658973 -0.017364804 -0.22497733 -0.058725223 -0.26181757 -0.30590665 -0.11483177 0.085987315 -0.4000894 -0.2204503 0.50796694 0.21164878 0.021277491 -0.16144297 0.53641856 -0.30697003 -0.20084563 -0.1271338 -0.17067705 0.13955908 -0.12723671 0.25026575 -0.42539078 0.059449505 -0.39758867 0.6275931 -0.16421528 0.3075518 -0.6661015 0.2591399 0.009167363 -0.35732517 -0.013104994 -0.22358374 0.37912732 0.41417876 -0.06853891 0.14477596 0.0340088 -0.12752189 -0.11835707 -0.02124803 0.40740377 0.21823147 0.23477618 -0.013004538 0.076260336 -0.39929068 -0.39231297 0.050009146 -0.36324665 -0.01953213 -0.46879157 -0.064934894 0.2167683 0.056330778 0.024206758 -0.27382305 0.22448105 0.11828899 0.13416222 0.16449632 0.0778711 -0.13706648 -0.19487393 -0.07425885 0.14559138 -0.22538212 0.19562826 -0.19545184 -0.029067928 -0.027795643 -0.19551913 -0.034819484 -0.19767745 0.15112092 -0.21591343 -0.06638512 0.16403086 -0.05052869 0.17788173 -0.03682031 0.55922693 0.27804917 -0.4286297 -0.62219423 -0.057205297 -0.3283458 -0.010182568 -0.4277585 0.40443024 0.12732343 -0.3211806 -0.527984 0.19694407 0.21023846 -0.10548559 -0.17163706 -0.31374326 0.035046972 -0.05252215 0.19393738 0.2804343 0.02009237 0.19780567 0.295857 -0.25632265 0.12275559 0.15435259 -0.14345863 -0.16043144 0.0067039547 0.014587773 -0.07919012 -0.07369187 0.8048567 0.11061543 0.15053469 0.09092435 0.6533435 0.5377133 0.030522102 0.10488637 0.20412453 0.4507657 -0.22074671 0.12790239 0.30349746 -0.142677 -0.17443393 -0.04241956 -0.43034017 -0.33245283 -0.14294583 -0.3451019 0.6378787 -0.063393384 -0.592806 0.51739305 -0.06040195 -0.121762745 0.14502876 -0.20407651 -0.4723229 -0.06974846 0.26893035 -0.26867607 0.36716768 -0.197014 0.1659 -0.32453915 0.17613679 -0.12538916 -0.5024319 -0.14663643 -0.6160116 0.22986001 0.5112701 -0.15697914 -0.3028111 0.13772699 0.25154027 -0.4868788 0.48907253 0.27896854 0.62364376 0.28586283 0.28205833 0.51091015 -0.012462794 0.03299271 -0.17882244 -0.12259335 -0.1301591 -0.31413314 -0.5821857 -0.08340817 -0.50635374 -0.49584678 -0.16758591 -0.050650608 0.14672124 0.47050694 -0.15889148 0.0018278306 -0.16765328 0.31920728 -0.104641065 0.107544184 0.1146608 -0.18204378 0.12067186 0.23364702 -0.13512455 0.27044636 -0.14288928 -0.22711194 -0.040821224 0.054875456 -0.13038982 0.03103875 -0.07908218 -0.22501712 -0.34984225 0.04404552 0.3342765 0.23075308 -0.22481187 0.07446178 0.11464223 0.24936093 -0.082052946 0.710018 -0.13064711
cazare 0.104766086 -0.019680303 -0.20689888 0.5271209 -0.32200786 0.24199824 0.39648187 0.49872464 0.20443512 0.0017541328 0.59818566 0.15579143 -0.1018268 0.0059287236 -0.058750797 -0.4726288 -0.055194512 -0.04621248 0.014444747 -0.38537762 0.04719924 0.27051198 0.08664688 -0.09326904 -0.018947538 -0.20879532 -0.106761165 0.19254431 -0.17641918 -0.03763941 0.22319517 -0.087506704 0.32300338 0.67536116 0.2061244 0.14798054 -0.4123282 -0.29495552 0.13281092 0.36782363 0.27672148 -0.42890114 -0.0098067755 -0.119724356 -0.1293578 0.1363427 -0.54248756 -0.08642354 -0.06269391 0.7395511 0.37594903 -0.1333756 -0.09808511 0.16293502 -0.503688 -0.42938945 -0.11303753 0.110260814 -0.20638295 0.16093291 0.013755219 -0.5354668 0.41742295 -0.3758806 -0.14638716 -0.1630177 0.025978332 0.2918747 0.041666854 -0.539428 0.0067700627 -0.21663089 0.38123208 -0.23479456 0.16160837 -0.029617164 -0.16813226 0.18537903 -0.083226405 0.22365203 0.109856606 0.5521165 -0.452637 0.47596732 0.096326604 -0.16571581 0.39595327 -0.46736735 -0.17602332 0.089602254 -0.020423962 0.1397967 -0.04300088 -0.05485634 0.47761887 -0.20185195 -0.078402884 -0.46056965 -0.5536605 0.16181025 0.43779153 0.11997378 0.42136 0.37667593 0.2610523 -0.30224806 0.044119604 0.12341846 -0.77885526 -0.094532624 -0.15977098 0.14022729 0.19571015 0.13037732 -0.42844245 -0.13695447 0.14887205 -0.4185407 0.07385979 0.023940166 0.11209148 0.053661194 0.16839877 -0.018484076 -0.14862286 0.6236492 -0.110640846 -0.39222798 0.07971251 0.63949436 0.13443689 0.16966346 -0.3857434 -0.15532619 0.3146105 0.053962383 0.16750808 -0.06691768 0.13536842 0.30873746 -0.17117378 -0.35633913 0.28676185 0.39935547 0.06050388 -0.04753929 -0.35511863 0.08689745 0.1057592 0.06942879 0.68399537 0.026969846 -0.45553154 -0.2851623 -0.16789322 -0.42895457 -0.10123664 -0.2766669 0.18812811 0.6198848 -0.121958464 0.13886791 -0.41628757 -0.07132884 -0.2497769 0.048610996 0.15361701 -0.26151276 0.31557664 -0.12210046 -0.06363963 -0.36470795 0.071074195 0.2454101 -0.15965813 0.044911467 -0.009060268 -0.47164738 0.04433988 -0.51481915 -0.06273454 0.2675729 0.140957 0.015283284 -0.03450918 0.015891097 -0.34610793 0.4906149 0.123937875 0.3373248 0.1282616 -0.05289251 -0.42831358 0.06840306 0.4670715 -0.23867767 0.32613796 -0.058221105 0.33103123 -0.21256518 -0.39009842 -0.386047 -0.15122645 -0.38552615 -0.037823502 0.12724468 -0.07239057 0.46696442 -0.43078384 0.03881085 0.4173075 0.25098494 -0.29054305 -0.19338802 0.029639391 -0.6460824 -0.18333386 -0.10675375 -0.109833665 0.18397884 -0.1460732 0.20357342 0.34448943 -0.21186516 0.1743159 -0.29787064 -0.4337896 0.06264292 -0.63469726 0.23177682 1.0818068 -0.079669274 -0.36482662 0.088821396 -0.78839314 0.17364489 -0.09680435 0.10586698 0.08818115 -0.31128818 0.047490302 0.12669103 -0.21204227 0.05078907 0.06959545 0.1549651 0.2533396 -0.1936238 -0.07221841 0.43930346 -0.27500015 -0.12261889 0.12672053 0.2623213 0.32781228 -0.2315779 0.17203876 0.13048524 -0.23593831 -0.566599 0.3145309 0.31565836 0.19171937 0.24443167 -0.34072533 -0.12403913 0.3164042 0.47127783 -0.56995195 0.046767805 -0.31400055 -0.0026984634 0.22498761 -0.09250669 0.25549847 -0.42345396 -0.10715143 -0.35651895 -0.35051197 -0.25949755 0.3346382 -0.39763856 0.119410634 -0.06297067 -0.16586836 -0.096422486 -0.53105164 -0.31203213 0.1503504 -0.40917748 -0.03024998 0.28934586 0.63857484 -0.13037936 0.39748812 0.3258373 -0.30891147 -0.064305864 0.2567866 -0.29371268
sosire -0.31634843 0.2016643 -0.20415197 -0.10698357 -0.117267616 0.13149053 0.31161687 0.18963438 0.13617873 -0.3338237 0.46441182 0.36091012 -0.24227428 -0.41799685 0.09691874 -0.52834386 -0.02918689 -0.08655155 -0.26943868 -0.20275575 -0.21203855 -0.38042066 -0.032630824 -0.1382591 -0.35332748 -0.14117177 0.35453585 0.096013814 0.028751805 0.09240587 -0.06811719 0.094178945 0.036495052 0.06423007 -0.043394648 -0.5735419 0.23376553 -0.12505172 -0.1138193 -0.365221 0.4444937 -0.077958465 0.013636777 -0.39978552 0.08106491 0.058008272 -0.16306901 0.04887319 -0.43724307 0.20245789 -0.037958298 0.22971538 0.10757251 0.28315225 0.00021583446 -0.07161421 0.21461998 0.18979914 -0.3087915 -0.004895319 -0.1650098 -0.1263731 0.25172776 -0.44080818 -0.24586472 0.47629362 0.27570295 0.18587379 -0.014240389 -0.034129344 -0.28121817 -0.042132787 0.29807523 -0.060353875 0.4059612 0.099441305 0.3793238 -0.2336391 0.06578715 0.12808935 0.044490717 0.13936214 0.0076876148 0.34950653 0.25288007 -0.040928572 0.26246893 -0.18191336 0.25612456 -0.099954516 -0.025371438 -0.15007035 0.19489989 -0.15615727 0.44798708 0.09422553 0.042941395 0.025583452 -0.19988227 -0.14956136 -0.101368956 0.12897472 0.04162542 -0.17742921 0.20399404 0.020554604 -0.3390449 0.3359966 -0.048525114 0.3567513 -0.31947705 0.25106066 0.09914827 0.10574224 0.20126244 0.40907407 0.002706745 -0.37018228 0.44629663 -0.3907174 0.07635367 0.21710432 0.27038774 -0.34518537 -0.08564077 0.23864183 -0.39257258 -0.27914864 0.258643 -0.085348256 -0.19582334 0.30285913 0.04254569 -0.13516276 0.15286061 0.2848013 0.12929873 -0.07078162 -0.015977858 0.20733133 -0.4040806 -0.102231495 0.29711887 0.22008039 0.127325 -0.058737967 -0.13523567 0.3624597 0.35278332 -0.27860063 0.45646524 -0.19470234 0.30755082 0.037657097 -0.30163503 0.16454498 0.016674768 -0.29739463 0.046624165 0.7800024 -0.100648664 0.25484133 -0.19891907 -0.06761495 0.3608122 0.20887604 -0.17001592 0.11833881 -0.010950493 0.17250136 0.3964177 -0.18313043 0.32266387 0.21137299 0.31863204 0.2880269 0.0051119113 -0.128623 -0.11288664 -0.24758793 0.11828648 0.3897237 -0.019314252 0.2867882 0.3270377 0.1483056 0.05631712 -0.03432182 -0.022021383 0.1476014 0.14336254 -0.11076212 0.06559739 -0.24542984 -0.17059173 -0.3058591 0.33952022 -0.04818335 0.20498626 0.10165939 0.008274198 0.13003348 -0.23836395 -0.5352697 0.034734223 -0.03157037 0.1226886 0.7174657 -0.22703664 0.26062042 0.3690468 0.016087508 -0.31564844 -0.17821664 0.2895179 -0.009438214 -0.03537717 -0.3422287 0.15685943 -0.31320885 0.02285142 -0.049730536 -0.03184425 -0.33253396 -0.23696914 -0.22031155 0.083400644 0.2798692 -0.22773065 0.058526497 0.663491 -0.2096753 -0.13916011 -0.3359153 -0.54964477 -0.21540229 0.30157515 0.14146346 0.18206033 -0.43535212 0.18482402 0.38043436 -0.061837032 0.52410716 -0.27335364 -0.30153665 -0.010333778 -0.07686819 -0.22864784 0.54709387 0.13057159 -0.11090854 -0.18217896 0.13718423 0.19133456 0.006567895 -0.0035385957 -0.20180479 -0.05186793 -0.48502666 -0.23867771 0.27598214 0.5251005 -0.22402795 -0.5794139 0.2248876 0.47239628 0.3574083 -0.5098868 -0.06338433 0.120422244 0.04730297 -0.123850174 -0.20737295 0.3417909 -0.08743059 0.18958452 0.44787055 0.298685 0.13805543 0.19253905 -0.52914584 -0.075408205 -0.28226918 0.32023913 -0.38172045 -0.40060085 0.15491663 -0.16757666 -0.051849663 -0.13587333 0.13687319 -0.17508984 0.21195087 5.625653e-05 -0.048696708 0.04014314 0.09833423 0.23659812 -0.42654023
hotel 0.47416633 -0.25814778 -0.055921495 0.37940964 -0.049085487 0.42365882 -0.1756087 0.2020554 0.4567904 0.26826072 0.113545135 -0.35850504 0.021811523 -0.14969572 -0.33686143 -0.4956858 -0.1399777 -0.37304977 0.19252715 -0.783186 -0.34834924 -0.17586274 0.22364293 -0.34397587 0.17343499 0.27036732 -0.119752035 -0.07957815 -0.26135838 -0.025490735 0.11314489 0.3437885 -0.36787656 0.14672846 -0.065162525 0.030748315 -0.043331727 -0.14444824 0.19891088 -0.21737738 0.7637063 -0.025883332 0.24188894 -0.46636605 -0.016062358 0.08034978 -0.092594214 -0.5201505 0.5718762 0.13684346 0.03845524 -0.053227454 -0.4551212 -0.021884052 -0.08466171 -0.46899995 -0.05845493 -0.16933705 -0.31037498 0.1241472 0.20645733 0.012567495 0.44278827 0.011042732 0.15426564 -0.08005887 0.031058548 0.09499593 -0.22188203 -0.26974925 -0.23086071 -0.6027639 -0.15752567 0.2975412 0.4015883 -0.33363828 -0.12371223 0.38331273 -0.6313216 0.24628428 0.12549439 0.08505996 0.03976245 1.0208946 -0.09062911 -0.15633942 0.30977184 -0.02788678 -0.4427853 0.35044086 -0.20659466 -0.007932575 0.011306003 -0.23279066 0.21117434 -0.094901524 0.015976727 -0.33929178 -0.16766016 0.14110017 0.4956731 -0.36948192 0.0053465934 0.010889059 -0.90825814 -0.14083806 -0.109902605 0.024172332 -0.3234215 0.60593307 -0.042853806 0.031010028 0.24241167 0.42456278 0.062343214 -0.08312732 0.5269453 -0.07165779 -0.031516496 -0.63538337 0.06899246 -0.05091345 0.0006577795 -0.289564 -0.058171846 0.25318238 0.008979007 -0.049010795 0.48569867 -0.20112355 -0.33136436 0.52929896 -0.062301133 0.10824693 -0.17657131 0.47432014 0.2460689 -0.21234469 -0.12810722 0.5889277 -0.1605559 -0.26892492 0.12661356 0.26461098 -0.2788881 0.543308 0.13952035 -0.09708535 0.28471726 -0.32796314 -0.29199553 -0.17596278 -0.27715617 -0.2756724 -0.2127125 0.2436266 -0.095920436 -0.258502 -0.09783954 -0.047428694 -0.27323475 0.13334835 -0.27807868 -0.31584206 0.06508714 0.34201446 0.15441617 -0.3615298 0.42649058 0.1951445 0.2929026 -0.15913342 0.08884454 0.039077796 -0.092606835 -0.05135813 0.123474374 -0.28750512 -0.558265 -0.13636202 -0.39331916 -0.20465645 0.1357175 -0.12527572 -0.09347819 0.01249804 0.093674265 0.54513603 -0.08818882 0.31699386 0.3263136 0.09348716 -0.17143886 -0.15303873 0.24660707 -0.66162866 0.17966 0.04223916 -0.11850317 -0.34603113 -0.13661139 0.049717367 -0.24915513 -0.14446 -0.13322912 0.19595042 -0.3105839 -0.29359195 -0.02023993 0.2963379 0.09119186 0.17031716 -0.16560459 0.055788912 -0.054903436 -0.5186584 -0.34885657 -0.314482 -0.3149377 -0.115027145 -0.03668986 0.42463514 0.060444012 -0.22745882 0.06333319 -0.45854735 -0.021749387 -0.16610228 0.032029904 0.15051225 0.59005684 0.19481193 -0.23027296 -0.08363884 -0.4712488 -0.18501258 -0.10375319 0.124099895 0.08526346 -0.25648656 0.071852185 -0.1844324 -0.32391614 0.20690635 0.42420942 -0.031370867 -0.39109 -0.25011155 -0.29008362 0.074008055 -0.07875833 0.29405078 -0.12856057 0.113955505 0.4023588 -0.5964967 0.58161116 0.20265642 -0.22154416 -0.18791619 -0.02057752 -0.20120135 0.30931348 0.1515059 -0.25622612 -0.13255751 0.25317255 0.13593973 -0.5337321 0.33348075 -0.27129054 -0.1572986 0.4052183 0.3405575 0.44247043 0.07823634 0.2405117 0.37617195 0.13053492 -0.27589974 0.095970064 -0.3236841 -0.121431686 0.22754116 -0.24833523 -0.26614696 -0.22320358 -0.08369605 -0.20018622 -0.46602455 -0.28913924 -0.065928906 0.18282963 0.079503715 0.47245622 0.046207488 0.1051182 0.22265308 0.0441742 -0.045049753
azil 0.10971784 0.46254054 -0.22558577 0.26055095 0.28835496 0.5683327 0.19336489 0.24577734 0.10245491 0.18112767 -0.50890255 -0.17345135 0.69385606 -0.032437816 0.15777633 -0.36418566 0.25048932 -0.12146878 0.07706424 0.08505129 0.1229394 0.09955878 -0.24697277 0.025752049 0.0636692 0.09490537 -0.46748915 0.35911268 -0.06816854 -0.2656831 -0.09992046 0.2350899 0.08097723 0.20377338 -0.11965143 -0.25060293 0.10370237 -0.06019748 0.056376915 0.0969083 0.4380352 0.001527266 -0.17822452 -0.5781641 0.36106592 0.09889437 -0.04605098 0.036159355 0.05727793 0.30777672 -0.15698525 -0.059962492 -0.8593959 0.16865467 -0.069303066 -0.21630448 0.24531516 -0.27876145 -0.17886317 0.30008495 -0.092157505 0.09861696 -0.0039899047 -0.27169055 -0.26188424 -0.21725543 0.16130672 0.1028628 -0.13828975 -0.4076171 0.24496272 0.27587435 0.048430227 0.09772303 -0.0673299 -0.04472141 0.0114994375 0.20135687 -0.07599683 0.3466213 0.4777444 0.07713932 -0.17521052 0.599442 0.13334027 -0.20924658 0.2825288 -0.21766138 -0.17646898 0.078714065 -0.18905911 -0.04994029 0.16536643 -0.17546129 0.25245753 0.16987497 0.11957325 -0.1397463 -0.25776815 0.2216161 0.6202544 -0.07957972 0.14875028 0.31128967 -0.033783466 -0.18368325 -0.17169788 0.42389748 -0.66176087 -0.5497409 -0.28844947 -0.011696541 0.44942355 0.02214677 0.18680991 -0.33907855 -0.2541682 -0.21166635 -0.08479571 -0.3575321 -0.15997194 0.5669455 -0.13107954 -0.13006097 -0.49950513 0.108375624 -0.17579702 -0.32174194 -0.051867254 0.16405654 -0.3911723 0.0693451 0.04232906 -0.28629738 0.27865237 0.28152084 -0.01228453 -0.1774051 -0.2676208 0.32137635 -0.16619065 -0.3778744 -0.028714925 -0.040352378 0.4893188 0.45243773 -0.45584357 0.34489563 0.18312435 -0.32268205 0.5251765 -0.19747493 0.29231295 -0.24321058 0.054812383 0.30985668 -0.023646366 0.24810293 0.28018418 0.74314165 -0.26774335 0.4865409 -0.04408326 -0.3245347 -0.4248199 0.42774662 -0.07732159 -0.46019664 -0.34921014 -0.3873269 0.42149755 -0.21443847 0.2397886 0.21565358 -0.18301985 0.14652745 -0.097658545 -0.3471922 -0.45658723 -0.115390435 -0.028511843 -0.20238747 -0.058709513 -0.2859723 0.4820149 -0.018980611 -0.3703825 0.20811154 0.3577577 0.63321596 0.102329075 -0.346984 -0.3390166 -0.4795684 0.3325503 -0.6850314 0.37552047 -0.22114311 -0.066726945 -0.23332 -0.092799336 0.14371936 -0.32623225 -0.17412226 -0.2221323 0.36642322 0.11581409 0.314128 0.12002553 -0.7495274 0.24429864 0.11743235 -0.08755334 -0.22111554 -0.2811495 -0.2579424 -1.1880347 -0.033002336 -0.2190402 -0.0032750363 -0.47799695 0.18483181 -0.13406296 -0.040035665 -0.045143556 -0.20086372 -0.193185 0.10836149 -0.20854545 -0.027322829 0.32222846 -0.030807333 0.2952371 -0.065514974 -0.21672745 -0.37081206 -0.15718319 0.11351589 0.17430669 -0.13863614 -0.0012882903 -0.3795519 0.55436337 0.24292263 0.032025266 0.22261883 0.17795338 -0.37567082 0.14946236 0.017532447 -0.26732782 0.12834255 -0.06877471 -0.09478173 -0.017652346 0.17282103 0.19276327 -0.2702302 0.067832075 -0.19717288 0.08080259 0.37182575 0.23905006 -0.25278932 -0.6253246 0.051370073 0.21981405 -0.09792688 -0.5629343 -0.25089523 -0.4824423 0.3129018 0.37689683 0.021352248 0.24139464 -0.20503834 -0.067813225 -0.40890208 0.35796574 -0.016846176 0.12834671 0.027569925 -0.38102895 -0.18279584 -0.11533617 -0.58656734 -0.3190713 0.20710437 0.08388218 -0.05230658 0.04259138 0.16999236 0.07050872 -0.35525516 0.2950618 0.06735367 0.31735712 -0.5178675 0.3034951 -0.48785457
sanatoriu 0.22756195 -0.16276944 -0.37032828 0.23998427 0.0597886 0.5274837 -0.14205274 0.112333134 0.48441398 -0.14241156 -0.0073879445 -0.39763448 0.40030572 0.06559459 -0.13363461 -0.41523197 0.2570011 -0.3774089 0.16568 -0.19439654 -0.071281016 -0.31013784 0.085453145 0.22721668 0.4471458 0.06560003 0.13342473 0.130925 -0.023793528 -0.20016688 0.06594264 0.0852932 -0.26841438 0.1619004 -0.35897726 -0.2579259 0.2320919 -0.23435605 0.22184895 -0.13101287 0.24542215 0.14380099 -0.053161867 -0.47701597 -0.012463835 -0.03543742 0.27008927 0.25531462 0.38105077 0.11922365 -0.3189596 0.17686792 -0.7361392 0.20908172 -0.3226704 -0.0906662 0.07678687 -0.47120786 0.0037111437 0.048747305 0.14214547 0.0036492213 0.1396692 -0.024546996 -0.15835083 -0.18138427 0.20493463 0.18108205 -0.41090053 -0.62925106 0.28485307 0.055932216 0.026759315 -0.07722986 0.098450586 -0.26026943 0.029232556 0.069747135 -0.37236124 0.06953224 0.39795014 -0.090420306 -0.21455052 0.9032908 -0.23916833 -0.43374655 0.30105364 -0.21460891 -0.06980557 0.22933592 -0.3712675 0.11946171 0.08491309 -0.06924194 0.18705378 0.12410553 0.20159294 -0.05746532 -0.26562852 0.10893215 0.5435101 0.203838 0.034729633 0.4646991 -0.19250175 -0.30474064 -0.19260871 0.15327048 -0.3144071 0.025435783 -0.1922816 0.14734362 0.0094701005 0.21922861 0.3192217 -0.17902994 0.018031947 -0.2947547 -0.22025925 -0.29152527 -0.11405936 0.45079103 0.19967939 0.24427064 -0.124072716 -0.10208473 0.023508871 -0.0027144996 0.2337204 0.027164169 -0.21866003 0.26106083 -0.021375922 -0.32677987 0.09518116 0.24725862 -0.26294303 -0.3231555 0.03025888 0.3898308 -0.20619366 -0.12032752 -0.0070855455 0.3310587 0.16878523 0.33277437 0.014065719 0.35723266 0.2513275 -0.080223344 0.09835986 -0.11063966 -0.2305113 -0.15979962 0.07041612 0.09498641 0.063061275 -0.2751898 0.09934521 0.19937906 -0.2337296 0.4821013 -0.5162591 0.16480212 -0.0095989555 0.11531487 -0.39980733 -0.24181868 0.15089664 -0.2481709 0.025381219 -0.41769776 0.14288156 0.23905452 -0.19739637 0.4864192 0.023121076 -0.36820972 -0.31663084 -0.13982178 -0.3029315 -0.0608939 0.1708786 -0.5709129 -0.0050825244 -0.24534082 0.35875252 0.4833229 -0.22442578 0.3969056 0.38283408 -0.13634633 -0.13613836 -0.33911222 0.06948317 -0.373696 0.038466692 -0.03060165 0.15337823 -0.40025064 -0.17344792 0.4244454 0.013502682 -0.11216479 -0.07183906 0.1440257 -0.2762148 0.2746429 -0.078791715 -0.020547647 0.56268173 0.24878046 -0.27924177 -0.32026327 -0.24128732 -0.026455685 -0.6080472 -0.0021586395 0.2821563 -0.16208677 -0.27950075 0.21751104 0.24035142 -0.22783893 0.24762888 -0.5264614 0.09506657 0.018242467 0.49923077 0.29754004 0.4261864 -0.31968266 -0.32476094 -0.43282664 0.03971532 -0.11622611 -0.03293812 0.42729354 0.32882875 -0.49388972 0.4415012 -0.37218413 -0.10598891 0.25383502 0.13661802 -0.051249932 -0.15751971 -0.21443239 -0.24843657 0.075496964 -0.2766512 0.5578922 0.21642396 -0.2130057 0.0704825 0.2797161 0.22052713 -0.20518015 0.25692555 0.047402453 0.016891053 -0.27173066 0.35239968 -0.19438668 -0.43815085 -0.07800345 0.17634223 -0.003666137 -0.6394927 -0.04795797 -0.2543796 0.2479265 0.099295445 0.4236971 0.052805647 -0.3447467 0.1980356 -0.21183993 0.15961505 -0.03626257 -0.0033782865 -0.22678119 -0.31820914 -0.21373522 -0.2715105 -0.3443021 -0.3196303 0.27324128 -0.089052536 -0.35636917 0.12203325 0.38450542 0.3727611 -0.40927356 0.27003816 0.32396996 0.24204795 -0.28999352 0.7271355 -0.3283308
atmosferă 0.123346396 0.2834028 -0.6065435 -0.20303406 -0.0034360974 -0.057323582 -0.08151621 0.088301815 0.08368857 -0.043055303 0.50168854 0.1522777 0.1455794 -0.063646786 -0.18333203 -0.1619484 0.0349651 -0.21219315 -0.07606947 -0.107947424 -0.18683204 0.2758169 0.61986756 -0.028874053 -0.1007942 -0.36388922 0.024255974 -0.14522704 -0.19437975 -0.1581678 0.050317187 -0.35903317 0.18455525 -0.34830895 -0.027259335 0.09112814 0.24466634 -0.111049734 0.098028004 0.3185499 0.45103478 0.3576287 -0.11485822 -0.26573065 0.15238307 -0.3725129 -0.066264905 -0.035290442 -0.17528701 0.7166722 0.19187424 -0.042025566 -0.19812083 0.117727 -0.40456617 0.00826142 0.19113463 0.13144405 -0.19159913 -0.15459765 0.40726078 0.07931957 -0.44120678 0.3959825 0.20042534 0.13090242 -0.5300273 0.06484363 -0.31671402 -0.04281973 -0.39013657 0.41927537 0.49893048 0.03742607 0.2481601 0.027892489 0.31245485 -0.0742772 0.12097736 -0.21478339 -0.1516864 0.22555703 0.16350237 0.7096415 -0.28277934 -0.18194126 0.41304794 -0.021584619 0.5682915 -0.021563752 -0.061453976 -0.5543994 -0.09875282 0.06758298 0.03633226 0.18909007 0.4451546 0.004457225 -0.106251344 -0.3657974 0.12839018 -0.23362347 -0.96164733 0.45423236 0.20268178 0.40687925 -0.29523575 0.20621386 -0.35620734 -0.022840174 0.01936822 0.49780256 0.018655136 0.19869258 0.011095406 -0.17278972 0.33597547 -0.24397193 -0.24610114 -0.61802435 0.07622503 0.3115516 0.39349103 0.052302536 0.026304087 0.05353403 -0.17779078 -0.15212983 -0.19368266 0.08217172 0.26439574 0.43838865 -0.31445074 -0.26247865 -0.2461603 -0.26120487 -0.2812286 0.28029278 0.1819186 -0.11480939 0.0022897776 -0.22437793 0.15923151 -0.07085794 -0.09027184 0.09728615 -0.10531744 -0.040321764 -0.039230734 0.22584152 -0.050260484 0.02638923 0.06744646 -0.48014987 -0.22419311 -0.32897773 0.2329144 -0.24277799 0.4054137 0.23144726 -0.07004777 -0.2881409 -0.43639356 0.35885048 -0.2825466 -0.036307864 -0.1213777 -0.028231649 -0.056051835 0.33925706 -0.22125801 -0.07538101 0.52538735 0.44005492 -0.23930569 0.07133705 0.21196705 -0.443999 0.15775833 0.13291118 -0.29181013 0.27970573 -0.27440578 0.07496129 0.034087915 0.14118057 -0.051764604 0.43413723 -0.4697164 0.1844094 -0.013318379 -0.668074 -0.2260623 -0.12352068 0.025007095 0.061296865 -0.3591233 0.11306413 -0.5631455 -0.10641353 -0.015099754 0.057120975 -0.251154 0.18198965 -0.06079741 0.1549343 0.37337366 -0.0047767027 -0.43636808 -0.031757962 0.35702267 -0.16147126 -0.08971461 -0.56121755 0.19380632 0.28135014 -0.056435004 -0.11350068 0.07064864 -0.30021456 0.3512925 0.35387874 0.21923 -0.39339644 0.0046649063 -0.31396788 -0.017860418 -0.1934724 -0.6657603 -0.2149646 -0.57158816 0.372861 -0.31707105 -0.23702829 -0.48971167 -0.33786696 0.045649804 -0.2945857 0.5888473 -0.46761587 -0.07757597 -0.34000978 0.23244049 0.1191162 0.29207116 -0.07279414 0.43922225 0.038588338 0.22455853 0.1210021 -0.07090774 0.30219924 -0.027548172 0.12234864 0.15000194 -0.78517085 0.11164447 0.71448535 -0.017064825 -0.4888122 -0.1361346 -0.55872935 0.24952641 0.054168623 -0.24626872 0.19107546 -0.30661854 0.17426401 -0.37712413 0.0012837329 0.015087213 -0.12784928 -0.07145468 -0.26935032 0.28442088 -0.6838135 -0.4009382 0.41195095 -0.4436272 0.062190544 0.63497275 -0.25941923 0.4904315 -0.3030904 -0.036567353 -0.17652205 -0.21077366 0.27646667 -0.15619002 -0.16175176 -0.07349012 -0.0090726055 0.26216337 0.2611341 0.26725897 0.41508907 -0.0898794 0.32054597 -0.26590252 -0.2528395
peisaj -0.015871603 -0.030500926 0.035712857 0.2442534 -0.02053103 0.19111943 0.3555796 0.28618255 0.1769684 0.06843945 0.18735187 -0.27067363 0.4980489 0.012151389 0.09299058 -0.38325167 0.26382515 0.022491775 -0.107393265 -0.0322861 -0.19133797 -0.41347334 0.46729717 0.072684474 0.21622843 -0.0016380457 0.41550437 0.2813665 0.26090565 -0.22612631 0.43367794 -0.20137393 0.04576594 0.16909218 0.20906682 -0.1681475 0.22223659 -0.32510784 -0.15466559 -0.019659506 0.45508927 0.056784272 0.21699022 -0.5394582 0.43536782 -0.050156407 0.38272735 0.8369218 0.16740052 0.7361015 0.33193538 -0.57506007 0.02056089 0.54734164 -0.19389564 -0.5188586 -0.07737516 0.32923773 0.09566373 -0.26303855 0.45976326 0.41237038 -0.033318363 0.2948346 0.027563594 0.044504963 -0.15667434 -0.10286843 -0.9857359 -0.26675698 -0.0011596218 0.53099597 0.26153064 -0.09200351 0.09854386 -0.59976596 0.1808088 0.3416178 -0.4002354 -0.64285725 -0.15017231 -0.32581195 -0.18143775 0.5792243 -0.13145864 -0.18754725 0.7652589 -0.09025426 0.10176589 0.038654614 -0.04070993 -0.20782417 0.056292597 0.27189904 0.3876593 0.13878 0.07205668 -0.3301908 -0.16758148 0.2328537 0.6925727 -0.042811215 -0.1213899 0.2646673 0.15435597 -0.3242656 -0.025685456 -0.0859448 -0.17442358 0.03411382 -0.46996915 0.1206864 -9.4481475e-05 0.18869725 -0.36875373 0.6575361 0.536078 -0.43159217 0.48573187 -0.30014288 -0.07135622 -0.08343936 0.5388697 0.00829796 -0.05682988 -0.13780238 -0.17598264 -0.2779895 -0.094125085 -0.03701709 0.20618562 -0.10485755 -0.071452774 -0.24394555 -0.069783755 -0.19937515 -0.15324165 0.22321597 -0.44702345 0.2510216 0.10118328 0.32851493 0.15992294 0.020724522 -0.1333326 0.2633042 0.26225913 -0.068898976 -0.5365076 -0.41595396 -0.16042207 0.130815 0.16884995 -0.047990806 -0.5141238 -0.14608328 -0.17223892 -0.0603029 0.032409612 0.40335274 -0.25934455 -0.18208423 -0.19749449 -0.30257052 -0.6270778 -0.0407677 -0.27313527 -0.4498599 0.3234695 0.152383 0.16998512 -0.10809326 -0.16089898 0.07632618 -0.14482148 0.3929741 0.22668701 -0.40881535 0.011707202 -0.11075823 -0.10674592 0.07311138 0.22168122 -0.15074849 -0.3661477 -0.13729031 0.038719103 0.3218101 0.2156488 -0.022832843 0.22035101 -0.22511986 0.062526815 0.3055067 0.32976276 0.1979239 0.28681904 0.110357 -0.23733714 -0.1583959 0.04168634 -0.23883815 -0.5257105 -0.015603615 -0.002414609 -0.23573135 0.19260757 -0.052317493 -0.18324538 -0.43682113 0.12713775 0.17429699 -0.14848992 -0.21670069 -0.24659118 0.060886856 0.32784635 -0.4375697 0.21885408 0.08718353 0.037643246 0.29589605 0.26473552 -0.3711785 0.7252751 0.40089056 -0.14625765 -0.22254516 0.15027413 -0.27388346 0.08205515 -0.29934615 0.12786794 -0.0073694056 -0.15166946 -0.41609707 0.21873416 0.15207131 -0.0879759 -0.82089186 -0.04455767 -0.20144641 -0.009543683 -0.06260058 -0.09924754 -0.22876054 0.07662355 0.14597349 -0.17345199 0.30449244 -0.036691308 0.24011983 0.13766113 0.17321119 -0.10817918 0.23929182 0.12792231 -0.0897655 -0.07716116 -0.40283415 0.02794901 0.09994583 0.24501683 -0.15594916 -0.49449795 -0.11035965 -0.1947757 0.1132249 -0.24422054 0.3332611 -0.2653176 0.11890045 0.055179972 0.549639 -0.070414655 0.06626028 -0.41936865 -0.17346351 -0.08326748 -0.021716703 0.56135446 -0.02627355 0.14084831 0.13205636 -0.059076898 0.0604143 -0.45743623 -0.18775445 0.12287044 0.23206635 -0.22708966 0.38178462 0.30666566 0.052953884 0.40682077 0.46608558 -0.0016599782 0.42895114 -0.08901903 -0.31064457
încercare -0.09886314 0.24459425 -0.07833829 -0.37872997 0.09147568 -0.26790008 -0.14066248 -0.10605667 0.07530036 -0.09937879 0.5846759 0.25692853 -0.05989815 0.03439663 0.24099551 -0.31142423 0.28854984 0.011646219 -0.04630638 -0.05039301 0.02650881 0.1465041 -0.25051925 -0.0747138 0.009722647 -0.28179365 0.23022205 0.1160745 0.0014584813 -0.30964464 -0.22477023 -0.040253434 0.12047573 -0.31621984 -0.11206427 -0.26009774 0.39723256 0.017851708 -0.18906415 0.010397294 -0.10781182 -0.12798709 0.057523064 -0.2987008 0.03905872 0.31400895 0.48680082 0.16736773 -0.27463567 0.039745964 -0.23490348 -0.3481268 -0.4827 0.454637 -0.036363766 -0.16184983 0.21029815 -0.021317808 -0.50704473 0.43279082 -0.17953712 0.28762287 -0.49714404 0.28785366 -0.25802562 0.356185 -0.07945062 -0.21145862 -0.19405654 -0.02568387 -0.0060071475 0.21340135 0.46320984 -0.5107245 0.356851 0.02138179 0.23630884 0.22060555 0.05800677 0.07946467 0.3497185 0.15066244 -0.15243016 0.5248491 0.005037416 0.21540159 0.054773755 0.28679353 0.23144577 0.032949973 0.094942935 -0.008309475 0.04226352 0.17069755 -0.059052866 -0.13169746 0.7529941 -0.25295943 -0.2830752 0.23275845 0.08829703 0.1533901 -0.21657312 -0.03696436 0.2576996 -0.21156871 0.20866969 0.23429891 -0.10540414 -0.40225533 -0.1331371 0.3923125 -0.27129224 0.27765435 0.03893988 -0.24844399 -0.051093657 -0.35638598 0.10887313 -0.2240627 0.030007418 0.009293711 0.21672733 -0.21617861 0.3376519 0.10903531 -0.4592951 -0.4734468 -0.028498858 0.6279757 -0.30829918 0.16823205 0.062663004 -0.43445173 -0.1346701 0.7105753 -0.20433386 0.06208918 -0.502905 -0.19963245 0.077515885 -0.010666903 0.03708324 -0.10348811 0.34657755 0.0050550504 -0.33273774 0.44072393 0.2053152 0.031286135 0.2376329 -0.13436647 0.3983944 -0.30827194 -0.4566012 0.0038188738 -0.035556797 -0.28117347 0.13144548 -0.040937357 -0.18261911 0.3022063 0.2977781 0.11684787 0.70028013 -0.131257 -0.35549936 0.011517099 0.33839124 0.31832263 -0.031233778 0.138384 0.34833077 0.11245221 -0.28295067 0.16654539 -0.4877034 -0.0052004512 0.11706106 -0.12540978 -0.3019956 0.109525345 -0.52799696 0.06959644 -0.36648828 0.06074311 -0.06301491 -0.18552996 0.061246812 -0.29207388 0.28866872 0.2120738 -0.15488116 -0.3672013 -0.011613802 0.03925136 -0.22848389 -0.25099143 0.287355 -0.34072092 0.2438687 0.023511494 -0.05645573 -0.033539347 0.22675398 -0.1535795 0.0115892 -0.15899122 -0.24546869 -0.21638833 0.55216527 -0.17094563 -0.06993211 -0.3106527 0.06845624 0.06601499 -0.15907606 -0.46436387 -0.47412908 -0.07437501 0.09339469 0.3593636 -0.055934697 -0.46111926 -0.13647217 0.0034690169 0.03781847 0.070140615 -0.3669003 0.12376889 -0.06626588 0.059413835 -0.05386409 -0.002642147 -0.5509032 0.32499275 0.06363931 0.46331152 0.08296805 -0.33573973 0.2952546 -0.022314856 -0.009618107 -0.1865939 -0.22935286 -0.13836752 0.41336712 0.16941257 0.19981389 0.3262533 0.17453746 -0.4229519 0.09398431 0.10380879 0.51187396 -0.15639539 0.36745736 0.051155545 0.004302331 -0.49061427 0.08926832 0.28942278 0.48319063 -0.33738264 -0.09048966 -0.04257264 0.24969852 0.14254262 -0.6676426 -0.04128393 0.3676798 0.28330836 -0.18793438 0.33196455 0.05641667 -0.35691518 -0.30323926 -0.10374556 0.009260353 -0.16293639 0.20362955 -0.115078986 0.52881163 -0.4809824 0.17506208 -0.38226283 0.08951997 0.08255864 -0.23439056 0.10886694 -0.35394812 0.41990495 -0.14406663 0.45184416 -0.0034512598 0.11882116 0.15348822 -0.13857651 0.14610736 -0.0698498
pace -0.16674384 0.58992845 0.18709217 -0.11495485 0.081206575 0.09860302 -0.045118384 0.12630652 -0.03353299 -0.69837564 -0.07868599 0.058856454 -0.1014244 -0.0061258418 -0.054034688 -0.061671402 0.43211764 0.4056027 -0.0013319775 -0.17473924 0.019128054 0.23023424 0.115946576 -0.4140135 0.22348393 -0.42498198 -0.46959555 -0.38212436 0.27624997 -0.49994767 0.037365943 -0.4627307 0.13918255 -0.07457222 0.17792206 0.035791773 0.25062725 -0.19493923 -0.5735462 0.34442198 -0.009053891 0.05630065 -0.40698716 0.005182063 0.71598774 0.4021972 0.21754733 0.037893195 0.08886649 0.15673704 -0.116449796 -0.0087299 0.034173325 0.30242833 -0.18182309 -0.25010473 -0.17540804 0.1114886 -0.119261935 0.08222845 0.35662657 0.5445511 0.11370972 0.09569355 0.13079506 0.05252909 0.11847498 0.64356655 -0.41613513 0.16906461 0.36776078 0.2647333 -0.20248862 -0.006499019 0.04452887 0.121304646 0.47820365 -0.12444327 0.18886437 -0.31897515 0.50083655 -0.09269472 -0.2819133 0.70982504 -0.007731655 0.31276572 -0.100729115 -0.22450301 -0.102920674 0.2834595 -0.15359098 -0.22424917 -0.11485018 -0.07817654 0.16431269 -0.14414702 0.16580233 0.036660254 -0.118266925 0.09345316 0.24170117 0.053355772 -0.13356996 0.23313451 -0.0389736 0.39135885 -0.2296897 0.20457749 -0.6561674 0.13934068 -0.6595422 0.3005298 -0.017178094 -0.41039407 -0.13557582 0.028638346 -0.085898325 -0.0444659 0.108900465 -0.02534942 -0.27724984 -0.3636402 0.41492426 -0.07245198 -0.57359356 0.014913738 -0.10612053 -0.10635401 -0.06056143 -0.21001011 -0.35910583 -0.31104988 -0.03391912 0.0070287506 -0.27128342 0.8265802 -0.12552343 0.2838227 0.026939446 0.2111486 0.30704328 0.17912117 -0.22960865 0.34968472 0.46608064 0.55413914 0.13153207 0.20441674 -0.007551328 -0.5562125 0.2500227 -0.18594795 0.030764576 0.0046180882 0.4052952 0.56523985 -0.13586482 -0.0889603 -0.009101664 0.13307588 0.20432214 0.38893417 -0.42063016 -0.48783636 0.004067466 -0.07660401 0.0925868 -0.24045399 -0.11125545 0.300038 -0.45633715 -0.58195055 0.32404774 -0.20467097 0.25445923 -0.27951324 0.31488883 0.082941175 0.42284605 -0.4695657 -0.6430793 0.05456281 0.12995592 0.09103665 0.07907238 0.39878792 -0.17494252 0.43348762 0.08851497 -0.22423786 -0.26427367 0.14533202 -0.07360353 0.009076474 -0.04995339 -0.42951632 -0.2823877 -0.5063127 0.39511725 -0.2694527 -0.5348724 0.43555674 0.17808181 -0.19868736 0.0032858676 0.23976558 0.08550627 0.011870856 0.1396019 0.052490797 0.24087222 -0.108338915 0.3770125 -0.41002244 0.212444 0.005010272 -0.11446583 -0.5711613 -0.76686835 0.16512448 -0.12634492 -0.044093113 -0.43643335 -0.16078152 -0.23994426 -0.12491218 -0.35909104 0.34057048 -0.28493962 -0.260125 0.60708714 0.15194999 0.2139711 -0.16853672 -0.13589807 -0.17286667 0.0653272 0.11156202 0.16618074 -0.37941408 0.23375812 0.08504664 0.12990804 -0.4141609 0.5283249 -0.41555578 0.17627917 0.39690584 0.6368534 0.056106642 -0.30523157 0.15045317 0.1477703 0.26636174 0.69226485 -0.35833356 0.5309096 -0.04083431 -0.62155724 0.11508919 -0.5247359 -0.45042816 -0.19476546 -0.12374527 -0.100485474 -0.56647563 0.73472804 -0.28633013 0.12200665 -0.094783425 -0.063263446 -0.044235464 0.24132542 -0.13421604 -0.08457343 -0.2568027 -0.5509661 -0.2227062 -0.13345283 -0.36155728 -0.044035845 0.09738194 -0.016238205 -0.26580226 0.3843543 -0.8483937 -0.058926616 -0.048059545 -0.14599349 0.0035283498 0.3460517 0.31677178 0.3485605 0.2130124 0.4854662 0.3078355 0.16645814 -0.64359295 0.02932311 -0.5634143
bebeluş 0 0 0 0 0 0 0 0 0 0 0 0 0 0 0 0 0 0 0 0 0 0 0 0 0 0 0 0 0 0 0 0 0 0 0 0 0 0 0 0 0 0 0 0 0 0 0 0 0 0 0 0 0 0 0 0 0 0 0 0 0 0 0 0 0 0 0 0 0 0 0 0 0 0 0 0 0 0 0 0 0 0 0 0 0 0 0 0 0 0 0 0 0 0 0 0 0 0 0 0 0 0 0 0 0 0 0 0 0 0 0 0 0 0 0 0 0 0 0 0 0 0 0 0 0 0 0 0 0 0 0 0 0 0 0 0 0 0 0 0 0 0 0 0 0 0 0 0 0 0 0 0 0 0 0 0 0 0 0 0 0 0 0 0 0 0 0 0 0 0 0 0 0 0 0 0 0 0 0 0 0 0 0 0 0 0 0 0 0 0 0 0 0 0 0 0 0 0 0 0 0 0 0 0 0 0 0 0 0 0 0 0 0 0 0 0 0 0 0 0 0 0 0 0 0 0 0 0 0 0 0 0 0 0 0 0 0 0 0 0 0 0 0 0 0 0 0 0 0 0 0 0 0 0 0 0 0 0 0 0 0 0 0 0 0 0 0 0 0 0 0 0 0 0 0 0 0 0 0 0 0 0 0 0 0 0 0 0 0 0 0 0 0 0 0 0 0 0 0 0
mamă -0.062001996 -0.10739588 0.2491703 0.059645887 0.29180083 -0.2452709 0.33561522 0.17989323 -0.074250855 0.2861143 0.56729054 0.13466907 -0.054438725 -0.10054257 0.1841491 0.05263914 -0.17263076 0.34683958 -0.04900275 0.30378023 0.16167895 0.18554242 0.11522448 -0.04443132 -0.25157723 -0.09528474 -0.015102936 0.13484924 -0.13020645 -0.57071203 0.0005605686 -0.16756761 0.24107496 -0.25786322 -0.0339905 0.05448614 0.30809242 -0.40866834 0.007944563 0.04389839 0.28625154 0.10158104 0.07695522 -0.48037422 -0.074973896 0.010177447 0.25627735 -0.10020382 -0.16135372 0.14831726 0.092451885 0.15384147 -0.32952717 0.09588634 -0.6031416 0.07477757 0.0012926504 -0.005477809 0.19459246 0.24970993 0.03580376 0.13586141 0.048904747 0.08220441 -0.08997562 0.4615749 0.12945475 0.28264937 -0.1454744 -0.1505709 -0.04566125 0.23838457 0.12654966 0.5482913 -0.1201516 0.26312035 0.14354491 0.27059555 -0.28444028 -0.09333791 0.00761611 -0.25323093 0.12177828 0.77747655 0.047468733 0.21734074 0.44466493 0.034701567 -0.027738145 0.03601492 0.04178859 -0.060268003 0.017132156 0.40654212 -0.08303596 -0.15284343 0.19796158 -0.084997654 -0.05672548 0.12383077 0.28270426 0.14719951 0.046604954 0.28314823 -0.26086873 0.1640016 -0.4538234 0.06361958 -0.077551745 -0.29846033 -0.49354404 0.08559771 -0.35952792 0.19772929 -0.10220371 0.3143492 -0.1567179 0.27061963 -0.29126996 -0.2887077 -0.22177255 0.035393838 0.061122034 0.27603337 0.20991078 -0.0923012 0.085114524 -0.012097977 0.255381 -0.11238112 -0.051362768 0.46884528 0.116873905 -0.15445426 0.34838533 -0.102394916 0.37508628 0.09292613 -0.122370824 0.017811056 -0.07865858 -0.078621104 0.05157008 0.56340826 0.060514804 0.23848987 -0.9564421 0.2583092 0.1525346 -0.047429174 0.047379617 -0.5364389 0.18191648 0.26664424 0.26993656 0.21541172 0.11812049 0.12448156 -0.08824624 0.04258171 -0.486604 0.22446595 -0.24953224 0.68991756 -0.14229226 -0.095993236 -0.2556708 -0.045170754 0.1208717 -0.03312386 -0.08433597 0.12362398 0.49538368 0.15052544 0.26239553 0.23004301 -0.2663601 -0.18258892 0.15337451 -0.05342947 0.5166681 -0.22695339 -0.07816672 0.1638528 0.554357 0.029483108 0.6102121 -0.07512736 0.26558274 0.22794463 0.2537472 -0.111867465 -0.17722492 -0.32804844 0.24331981 0.15035647 0.0074537653 -0.36125073 -0.10500889 0.27120036 -0.011320004 0.4433044 -0.081934534 0.17131436 0.08600683 -0.024989136 0.54110074 -0.19707206 -0.40302595 -0.17319515 0.24873601 0.3045258 -0.14618978 0.16786861 0.027571829 0.27140406 0.107937604 -0.3787259 -0.41418934 -0.45535097 -0.19447878 0.05005163 -0.46121764 -0.5870817 -0.5030744 -0.31200755 -0.28348324 0.11020188 0.14372627 0.0623921 -0.046443813 0.034309562 -0.22924379 0.09606442 -0.8472614 0.18405503 0.42323843 0.09875302 0.39551374 -0.094429195 0.07419516 -0.20346667 0.034996722 0.2547874 0.33575186 0.18489917 -0.057366155 -0.04606851 -0.10244137 -0.10318228 0.22738323 0.19010691 0.7911549 0.38749757 0.11208483 -0.1557125 -0.268639 0.034906667 -0.121793635 0.16237703 -0.0040597436 0.047276277 0.19495891 -0.31897315 -0.18080017 -0.27919713 -0.20654854 0.22515434 0.26415098 0.057150077 0.15155163 -0.06594637 0.0008827646 0.24353008 0.18690757 -0.05863905 0.09339868 0.105121575 0.5020716 0.34407127 -0.16185758 -0.06196119 -0.0687616 0.3818257 0.190665 -0.35012826 -0.14725412 0.30111247 0.23064515 0.39061287 -0.051429473 0.084729515 0.06569339 0.17066753 0.6011286 0.051868837 0.22791994 0.12737502 0.10100638 -0.26662678
bancă -0.03017902 -0.04619671 0.24490343 0.6997231 -0.01288596 -0.4169434 -0.01872274 0.12655482 0.11105268 0.25602677 -0.25364745 -0.5972215 0.1538398 -0.056569062 -0.07824726 -0.36469853 0.0025025008 -0.06699155 -0.047996987 0.15941751 0.1704267 0.14552683 0.11276047 -0.30746022 0.6271898 -0.250907 0.25136527 -0.17443411 -0.74414396 -0.33403498 -0.39876944 0.013126478 -0.13478692 -0.07680225 -0.17031318 -0.7168792 0.29674637 -0.27112857 0.025599012 -0.1717692 0.2196753 -0.08292216 0.03669995 -0.2527684 0.049011555 0.010296646 0.27741525 -0.26559427 -0.1611868 0.09072024 -0.29348534 -0.10485399 -0.46448392 0.17415157 0.05742694 -0.0770384 0.6628238 -0.11728713 -0.011355485 -0.25952432 -0.15173289 -0.35242134 0.084026776 0.28046042 -0.16102707 0.52399904 0.0022553455 0.048317 0.2902492 -0.20244059 -0.26319993 -0.013575862 0.09036899 0.094850264 0.0440797 -0.3270049 0.061513826 0.42789578 -0.19411811 0.09851912 0.07737848 0.14456277 0.10911136 0.62314105 0.34654623 -0.13035366 0.34779322 -0.06875164 -0.18450767 -0.22337256 -0.6085118 -0.08274588 0.122149184 -0.790929 0.6038493 0.09346031 0.4091677 -0.22362688 -0.21343602 0.25044113 0.2115729 -0.09472832 -0.015657904 0.29322147 0.33174512 -0.22687158 -0.15884301 -0.003147369 -0.262968 0.0840972 -0.22885878 -0.352131 -0.07489765 0.16643055 -0.14208303 -0.33354422 0.005616549 0.24588051 -0.3077201 -0.03938246 -0.42770395 0.13182434 -0.125244 0.009490943 -0.1029875 -0.23547572 -0.013408821 0.0456643 -0.04299504 0.32053563 0.22397383 0.051560733 0.118162505 -0.10645212 0.1548634 0.40667716 0.24916223 -0.15750475 -0.31205335 -0.16351257 0.22867653 -0.39868024 0.02527438 0.362341 -0.024878511 0.054886524 -0.5256577 0.1528997 0.17037818 -0.052221417 0.29262045 0.13217448 0.09858553 -0.34720907 0.06308207 0.50476974 -1.0027281 -0.29889297 0.3017432 0.31690982 -0.21711452 0.10980005 0.1340557 0.03859247 0.28477192 0.06005268 0.34572676 0.29082838 -0.054905158 -0.2861335 0.22625333 -0.07831435 0.38711333 0.24022113 0.16336572 0.38514474 -0.33270136 -0.28911692 0.1096117 -0.7627032 -0.24691963 -0.35301122 0.3141106 -0.027209684 -0.29408634 0.21887183 -0.0057726344 -0.22408237 0.1640984 -0.114128314 0.24895701 0.31148458 -0.25009772 -0.22183008 0.114457935 -0.12345826 0.091889866 0.14868125 0.17191708 0.08319506 -0.12174498 0.249509 -0.04196971 -0.24189883 -0.6512271 -0.023478163 0.39813504 -0.17119014 -0.31799883 -0.043570064 -0.14490154 -0.023930853 -0.2241368 -0.07094911 0.1713476 0.17206362 -0.40901473 -0.44267246 -0.24062903 -0.09344753 -0.1672955 0.19819929 0.254256 -0.29354092 -0.49435765 -0.5449795 0.0010563753 0.3881839 -0.3041131 0.08812644 0.3789191 0.018037187 0.03134128 -0.34196928 -0.35889336 -0.04298784 0.26494107 0.07030173 0.22584192 -0.24315345 0.09152561 -0.23476249 -0.34223387 0.22035614 0.2944424 -0.18121329 0.11484928 0.0059667765 -0.18391964 -0.38005763 0.22939385 0.06368565 0.32581434 -0.14892298 -0.017568704 -0.19016609 -0.027058044 0.25847065 0.3149255 -0.77348375 0.31211218 -0.425819 0.047397185 -0.0048579676 -0.17327338 0.1082974 0.33078694 0.050245024 -0.4172364 0.009851131 -0.2844239 0.0033643285 0.27326086 0.053328622 0.20397387 -0.27344188 0.06731661 0.4129944 0.1196756 0.47634795 -0.20918508 -0.2907824 0.13828616 0.5000068 0.061440185 -0.45508182 -0.028400308 0.44625062 -0.4874949 -0.4519411 -0.025894765 0.048444785 0.73566186 -0.27483517 0.10337489 -0.12360748 -0.1396531 -0.2779336 0.3474564 -0.12628435
bani 0.10274729 0.2697874 -0.23825124 0.15584923 -0.24234754 -0.3602541 0.46729192 0.8093076 -0.27894253 -0.08882566 0.25933447 0.21256167 -0.36648834 0.001079277 0.086028844 -0.13828209 -0.15004332 0.39676797 0.04888076 -0.28892696 0.116567306 0.35669655 -0.016136097 0.04821812 0.4908674 -0.6203059 -0.34933886 0.03826859 -0.46573788 -0.18256105 -0.6467922 -0.20322573 0.1992056 -0.18009661 0.06634309 -0.41851196 -0.06663288 -0.48524237 0.08958092 0.11656839 -0.002473048 0.051676173 0.11262005 -0.5869031 -0.023097947 0.04640099 0.09996426 -0.18135728 -0.16835636 0.32670105 -0.19970833 -0.1431404 -0.26934484 0.5315133 -0.32493484 -0.122250095 0.6768523 -0.063708745 -0.1816683 0.03582065 -0.1711639 0.0040348517 0.46543804 0.013029483 0.033878673 0.14314307 0.5100127 -0.18088841 -0.15024014 -0.18107362 -0.063071065 0.19828753 0.38999957 0.011491967 0.16396737 -0.6838836 -0.27022257 0.010624044 0.45862064 0.058477983 0.39853448 0.08789723 -0.2602068 0.09253749 -0.067129694 -0.13316914 0.019396352 0.32590103 -0.022507539 0.10865374 -0.2610908 -0.4968663 -0.65004027 -0.59831184 0.31415147 -0.032409348 -0.313306 -0.3471518 -0.5426301 0.4661002 0.43036246 0.045555986 0.2997672 0.12575127 0.067452125 -0.244528 0.080599695 0.3822537 -0.072939344 -0.26604775 -0.15130188 -0.50041807 0.05125708 -0.082417615 0.32177392 -0.25434133 -0.060880054 -0.15053041 -0.12819572 -0.18034467 -0.21440628 0.20153783 0.47765696 0.16283377 -0.57044464 0.25741345 -0.08050552 -0.15435657 -0.04445546 -0.010119576 0.3084497 0.19489245 0.25482744 -0.27156237 0.05145547 -0.16778518 0.12968221 0.009790048 0.037706677 -0.1845003 0.13990235 -0.19947535 -0.052750986 0.034168273 0.24029002 0.3200443 -0.22552629 0.14534783 -0.23917656 0.011935406 0.5762941 0.057169054 -0.06294935 0.24500492 -0.1605303 0.29622325 -0.26852262 -0.035420902 0.005642645 0.0073153563 0.22457723 0.44028443 -0.24826702 -0.24323855 0.2686478 0.1075208 0.17483695 0.125081 0.050884195 0.20193645 0.01588872 0.3855057 0.27706748 -0.109997064 0.040349435 0.1312708 0.056816503 -0.52927774 -0.26294518 -0.3118262 -0.06518105 -0.37937006 -0.3602432 0.07512696 0.11918739 0.13392016 -0.2894286 0.2911313 0.5196206 0.2198337 -0.10298323 0.24439913 -0.49250376 -0.13084391 0.0024946793 -0.25376046 -0.25005978 -0.1469864 -0.06958765 0.1991861 0.34147793 0.20971009 -0.21643598 -0.41357136 -0.15189384 0.14509903 0.29627267 0.1575279 -0.2780044 -0.19064425 0.09471287 0.11256129 0.097355306 0.10672693 0.29665688 -0.14063251 -0.35276064 -0.47603166 -0.17898285 -0.15079948 0.103844166 -0.047221433 0.09072563 -0.2470301 -0.13211608 -0.58980817 0.39210826 -0.24799713 0.0021382442 0.0041710967 0.31116143 0.3684295 -0.5446664 -0.37902793 -0.54240185 -0.21539511 0.109630495 0.22334181 0.07017278 -0.43384558 0.1587736 0.17771202 0.20120293 -0.20170234 -0.115913935 -0.18922146 0.5786024 0.001280441 0.34051526 0.45692202 0.19232087 0.22680217 -0.11780166 0.036247335 -0.11107035 -0.31020015 -0.16649215 -0.18350731 -0.16864738 -0.033591535 -0.0302674 -0.40601212 0.11505953 -0.14098577 -0.21568681 -0.15667728 0.37568888 -0.034101017 -0.37885743 0.060218737 -0.0010388674 0.19300508 -0.019459046 0.22280663 -0.040449265 -0.13895233 0.09473333 0.42951563 -0.22882815 -0.03597781 -0.26145384 -0.31643465 -0.11793792 0.29541272 0.42864794 -0.31912902 -0.342538 0.015916 -0.12116717 0.09801002 -0.017706543 0.533586 0.25524345 0.32204604 0.47001457 -0.26793423 0.27969894 -0.043718956 -0.29990464 -0.21496011
